{"w1": [[-0.43484494358473796, -0.16708627109270666, 0.5836351597470993, -0.9944515838046922, -0.9715075906983701, 0.3857941164017235, 0.0968997950317173, 0.745343804179638, 0.005642335383501269, -0.6445416982457166, -0.137921808122023, -0.5521518610884505, -0.14021257167723905, -0.8938374490298547, -0.7943224787096854, -0.22132684875713818, 0.021056782652417703, 0.015561354420300858, 0.10388951227826544, 0.15102265380377627, 0.10238984948640395, -0.8673982677025808, -0.302507514665093, 0.19060259033648663, 0.163169411619192, 0.11402956920483907, 0.8427025727323126, 0.4564288388716702, 0.39228683786600005, 0.2999186698179238, -0.23700625529806174, -0.7256190610790503, 0.06827546045645431, 0.4058137219665005, 0.26722872583112034, 0.8254886392657705, 0.5493254496706034, 0.6204852836305578, 0.3712925548133183, -0.9710152360103793, 0.5160983965104804, 0.9999999999999997, -0.4294481756937084, -0.6612064809627999, 0.9933507036218734, 0.37309165930737753, 0.1793057402768391, -0.37035476404468204, 0.999915223069599, 0.5160631371886562, 0.9873681690700964, 0.24128397699395399, -0.4788995353608192, -0.0068390541681891855, 0.41947001459391314, 0.8190334462090467, -0.8727923893894467, -0.4847119548532772, -0.7790480740953839, -0.4431405207832524, 0.16913310783676058, 0.7434806626045627, -0.3451077222727247, 0.8125876091838459, 0.4863911874040727, 0.9706533177224251, 0.3158719959789028, 0.7679982310482067, 0.5204919681152239, -0.5953214696687474, 0.4360059647439455, -0.20562369414166234, -0.301865881683674, -0.7933410036958809, -0.12066960911390397, -0.4895857284057921, -0.026160559854035963, -1.0, -0.9974628971285303, -0.7867325791302568, -0.11200408532307672, -0.9999332203293662, 0.8532591702678246, 0.3763594556674664], [-0.005523724241313711, 0.9718838266040141, -0.23283841210255962, -0.8097497741742231, 0.2394039236609567, -0.8799607976840789, -0.18290732722372616, -0.6900257875587305, 0.27733672238168877, 0.424762133291096, -0.2189793408930847, -0.14111434933869915, -0.822009466941816, -0.4376736883345472, -0.6877435212363011, 0.3284140856784593, -0.6790351329108711, -0.3964903913812978, -1.0, -0.20836153047775516, -0.2991438105861599, 0.6794051562228789, -0.2733476301269283, -0.40697884262356754, 0.9394892396388592, -0.22226330041922704, -0.8758542478031726, 0.5113897513301161, 0.32375284180454755, 0.33592689173099055, 0.999666004994805, -0.25439789969637494, 0.09851526598248705, 0.9998179004570535, -0.629218655994054, -1.0, -0.8168626736953605, 0.8767236611264297, -0.9521786027491825, -0.037962190710891935, 1.0, 0.053212864462148735, 0.761413121354464, 0.18881694842628485, 0.4871527373151796, 0.34307868466181707, 0.40081744578221296, 0.8987339109313771, 0.3416719052384599, -0.4678975888483012, -0.0017501130192684674, -0.7080852945683814, 0.76293509760714, 0.23252065324357424, 0.9014815145855712, 0.9999968816165032, -0.24805095074816005, 0.7509142790490022, -0.4386858434376917, -0.24363878514371923, -0.8321318647174853, -0.26025204030743593, 0.7812807167166247, 0.6286879163363981, -0.8573890411765998, -0.6848573709894307, 0.3070474074004436, 0.011180754603027254, 0.216415921282612, 0.19295696754422445, 0.3963525624275624, -0.7556626284095227, 0.8511008402887369, 0.1876231871072464, 0.20511778148197815, -0.8181172114591729, -0.264042846457685, 0.04766995893851325, 0.7358995967986861, -0.36901718259877436, -0.03459681423515518, -0.9999998963868709, -0.12387872041371316, -0.7388524174056992], [0.9624272976753834, -0.8145431297267558, -0.32044136818311564, 0.016001787099970945, 0.005505939277199912, 0.6210019689417103, -1.0, 0.7587134266948601, 0.9798246338498187, -0.9354401803232661, 0.4779382542203269, 0.8795028748569409, -0.17111151473851777, -0.47167237044088944, -0.4411906381078548, 0.46393734175692075, -0.2318836866043561, -0.3574011298501436, -0.12190840010385809, -0.9952820006149764, 0.7392173721478154, 0.23491329672806896, -0.2540854021511716, 0.5563152441186708, -0.6783377524391759, -0.21127827856911724, -0.7032217689194428, -0.7388700404578544, -0.10139574092300742, 0.3772967428381995, 0.6216819545912953, -0.43990227417394645, 0.9049106445489071, 0.3554367541157291, -0.9977443867121435, 1.0, -0.6990594779040916, 0.7753776192413382, -0.9546247966953945, 0.9645735955331037, 0.13552218458430249, -0.4547348978866493, -0.9999617197129614, -0.2727335818381686, -0.5951248312057507, 0.4483132789104381, 0.6200387020275103, -0.43644147940858163, -0.7587119670298021, 0.7734403305654047, 1.0, 0.3434172022216119, -0.7529402123645839, 0.327123040044635, -0.602352042577885, 0.9321808806655496, -0.674886775228008, -0.9999994627344415, 0.4732003215676546, 0.21593006594132882, -0.1901055168925299, -0.05188376531931205, -0.4347268840631851, 0.8016114184409736, 0.7562010062703324, -0.26147362699111837, -0.999417071440353, 0.4440013332689633, -0.6278124816189948, -0.36055875658298603, -0.25388817853097984, -0.9999999999999998, 0.13764177782226816, 0.5708232114179309, 0.24358504376989376, -0.9090420112722359, 0.3474170475405898, 0.1835104175379812, -0.3276595427236048, -0.19684152127981344, 0.4787684826049357, 0.34251812323678665, 0.5107621101070637, -0.17999586785396463], [-0.3750295899910189, 1.0, 0.5076094619610748, -0.9999718058327934, 0.5872033418451907, -0.706046973287856, 0.4977685900248472, 0.6976381995602431, 0.7837153469354542, -0.677510131332041, 0.14918347366841594, -0.7798477358546163, 0.16604402435853677, 0.029847289429819644, -0.4761507603524855, 0.3572640124610065, -0.3468236525874514, 0.9999873324519479, -0.9999999974251702, 0.004689691147025139, 0.15043284781162947, 0.4254704925756842, -0.5253148482834158, -0.6849756002262862, -0.6777302445501999, 0.08705048569205083, -0.5791534336575219, -0.11792521170751387, -0.6894416219493916, -0.6807194011959938, -0.8905796716283276, 0.8977862476616173, 0.8011540052468324, 0.6009648384661279, 0.41761549668616477, 0.5039436217876468, 0.03306164372173023, 0.4734030295597817, 0.9949844660718997, 0.435295730917001, 0.8993279129867292, -0.027717151950379586, 0.9993470190927981, -0.12054733509630128, -0.019100116508369534, -0.3705603753673874, 0.531425930398131, 0.2913647483233247, -0.9992165369810796, -0.051051361121896385, 0.5825806298899576, 0.3083213187344934, 0.3567840546800674, -0.7145528539325655, 0.022306731728565645, -0.6748243434448687, -0.4056864523673751, 0.38388839179116885, 0.04075516110832381, -0.828160302152805, 0.17161400226173443, 0.005865863211560162, -0.13532604146244948, -0.4063160261404322, 0.06858773266425877, 0.1059901476429383, 0.9855967457663501, 0.5951712590470324, -0.7703779731815066, -0.41679370102690977, -0.8253289122623976, -0.6025498829828289, -0.6110079587424275, 0.4619310517395827, 0.1864297223517606, -0.4422673924573503, -0.181095076388624, 0.08771419677705548, -0.10218029487862738, 0.06877759480479055, 0.5343129463577443, -0.38129053442653466, -0.7485367807614678, -0.29992725190426495], [0.596329999930127, 0.40669414817810473, -0.07984913019249701, -0.9508129516445066, -0.262089091736543, 0.23201552522212282, -0.1001949440123409, -0.8765512558328309, 0.8359500442456723, -0.9830903732420101, -0.8697558722516736, -0.4682854906796424, -0.018920899284470594, -1.0, -0.24155075700812828, -0.35206791402043414, 0.03168729161100703, -0.41016097838476046, -0.7939494141381341, 0.9483173895124424, -0.3114080464578002, -0.7023387959863394, -0.9999999999999999, 0.004438211798389022, -0.6067419280356079, -0.751463008408997, 0.7797195380763156, -0.32326765492228493, -0.22841348711366538, 0.038404069480057125, 0.11193567634169942, -0.4400444705246826, 1.0, 0.06208555665144083, 0.5662449648719579, 0.7446401118939983, -0.378970936896691, -0.9999999932320411, -0.3556937364667433, 0.9999914641673702, 0.8304587175203119, -0.025413927656486368, -0.5172091651366639, 0.15811836354515196, -0.6612212174020942, -0.905036137040416, -0.5132063024659725, -0.2779598102241393, -0.25862283783916323, 0.3490280304231511, 0.999999999999999, 0.9996264512311323, 0.9530277285046764, 0.24753476736355953, -0.8476627945820405, 0.3187034864813454, 0.01918144442991289, -0.4750239489445077, -0.3504016275782208, 0.44022441213705477, -0.5304439588928563, -0.6802936168568522, -0.03270927624923598, -0.6296264979674615, -0.9999999999999997, -0.5124436485881397, 0.2901965594173124, 0.7363544582189815, -0.0801555700566602, -0.7452440398837984, -0.8161781871819859, -0.0560399680409754, -0.40286384445765455, 1.0, -0.4449144826160719, 0.9999999830595829, 0.3428404460514855, -0.046166393158238686, -0.22576504364622674, -0.884497097460865, 0.29855318704791756, 0.5445955962334357, -0.9243534600021024, 0.8755599612055289], [0.5194213884973616, -0.5852336672220608, 0.2424996053626267, 0.7960309444036389, -0.11394306397247436, -0.9958755122557911, -0.4124458250195534, -0.8779711470986623, -0.5963939194435404, 0.11889293238036426, -0.721105807884333, 0.7879112670669783, -0.09178131448096619, -0.8245053044971181, -0.9672040760006327, 0.2561683267868576, 0.2347443393164447, 0.6130320634343134, 0.7945941876773754, -0.7058253891891846, 0.4439838897753519, 0.2570243474305214, 0.8878402097292373, 0.4041432683597304, -0.5505318734121762, -0.16781801387189435, -0.9079504877041832, -0.10907060202702425, 0.19297857200852223, 0.9447685812580473, 0.479158699498013, 0.09973395312991815, -0.6532856680562951, 0.9992475359078588, 0.557157396696093, 0.3597065674960084, -0.49049391040702345, -0.0586658837038779, -0.22698449304792276, -0.1413970441003821, -0.6707560139840915, -0.08222516340494423, 0.49215119509899174, -0.04663033251761478, 0.9819549591589015, 0.6006127138537202, 0.7119165937023294, -0.20086262835741558, 0.10971527285787573, 0.7477391241259244, -0.9386149764673282, 0.8175682514280929, 0.24161244260708167, 0.10780064803063759, -0.5926923250915649, 0.3260207006804428, -0.616328318609914, -0.019602595806256035, -0.24864504575940272, 0.7166977711429414, 0.4684927305766365, 0.9217619528828995, 0.28219979249004257, 0.35281868925130416, 0.3872455082966075, 0.999999887440614, -0.2323642017515664, 0.012555280543973707, -0.9344289367550486, -0.16672008379012115, -0.3036768448736519, 0.0027190129205529874, -0.5402573546385047, -0.9258344124827506, 0.05769828793705419, -0.6062528294087958, -0.62005550811482, -0.06205576922877663, -0.32783136627589954, -0.6222222482098385, -0.06789127670925853, -0.4780846835423599, -0.49420065195281193, 0.11485428100309295], [0.9962957843361625, -0.02414950599424654, -0.7647070333366407, -0.34697092099849486, 0.611465253067778, 0.6101117588826669, 0.8918934183881403, 0.5022451088803691, 0.24128301704918576, 0.6734633854876684, 0.7208681189854217, -0.20685749219635208, 0.8082123628232214, 0.9993851346102136, 0.6504347958246562, -0.1014371602570879, -0.9916278107333678, -0.976500313057615, -0.8269692822821088, 0.378377595557378, 0.2930870424960436, -0.5321918855312077, 0.4293095354077593, -0.9677407977590564, -0.4315778838942799, 0.9669140831839927, -0.9094184730488611, 0.19179537874121905, 0.4529370631449029, -0.39365893173385724, -0.7640440148601805, 0.9141098858869259, -0.021662853252692432, -0.5581189447085073, 0.6456097029222769, 1.0, -0.7040174922352087, 0.6539937852711215, 0.4201517128919803, 0.047180541954051136, -0.9999999999999999, -0.6939185950817723, -0.6295314048054044, 0.6265454592840913, -0.26364376767708153, -0.9494342068443964, 0.08778242403240596, -0.07100989364106039, -0.5751103816256184, 0.13580870104115475, -0.3859101707879267, 0.018046334216805168, 0.13166741370794785, 0.3036630171151931, 0.18173900580276245, 0.44848146748931794, 0.3217207496676008, 0.04208986857301783, -0.8194035299313712, 0.22013347785070048, -0.27406437837883474, -0.04018076434396189, -0.3365752789324163, 0.41004900867059546, 0.4253198772727955, 0.8993174463177569, 0.5950433695069481, -0.49905904293821746, 0.6903014524871557, 0.1268012240184974, 0.2857379820513498, -0.1428357946891805, -1.0, 0.2407936980884604, 0.9948264012699045, 0.5651151683470594, 0.9999928251154271, -0.510651857741647, -0.2871073793920355, 0.3303318245812484, 0.8159292760069383, -0.6015458470607835, -0.3021670213344197, -0.849055271655839], [0.6585859774238184, 0.3665694941725632, 0.5521920524941389, -0.010246078785550667, 0.48196540300927015, -0.8272949035892668, 0.8462504796205891, -0.8580814866406499, -0.018645349731578234, 0.7683591388029374, 0.3059571341023115, -0.9901695213637749, -0.9996834400187661, -0.9999999999999994, 0.6050127782533542, 0.023739485929267598, -0.28245981840690026, 0.806756449173277, 0.9904090857361694, -0.7261941885611567, 0.748478216876529, 0.8794963054333887, -0.285795334825519, -0.11894793422845011, 0.11176298630733891, -0.9999971929651666, 0.10073644780033611, 0.8601870110111082, -0.3028807817497044, -0.3170016322399512, 0.9680367911709202, 0.5791849917353995, 0.22955437934456183, 0.4656745447024503, 0.353190393117411, 0.35290049012103564, 0.259285220362764, 0.09120178353326666, -0.7963854391048457, -0.3571467279187712, 0.27336555283483854, 0.2809694075537717, -0.6487865086122582, -0.8555587884426217, -0.6720353833587848, -0.08012294174375006, 0.8880051712002967, -0.3812204235210195, 0.08292696472276076, 0.05421726492531647, -0.6402987577120559, 0.9119296623805117, -0.36682329825055277, -0.3114548547951819, -0.30873692322618446, -0.614181962904933, -0.1267635424031277, 0.8238082619873356, -0.7004044259619684, -0.7881753092510966, 0.033149124233710255, 0.03264343746423793, 0.20316173851061395, -0.6596200834111199, -0.06825703904700153, -0.2462882211553463, -0.422506490176356, -0.08940813660630656, 0.43813339672371054, -0.5138339406489195, 0.16114383223414766, 0.22072441973705742, 0.9999937580069066, -0.5248470220034086, -0.2704861434849181, -0.9988745686292284, -0.9426389136544673, 0.7903759695291372, 0.34070519075891, -0.9915264496849172, 0.06498554277150177, -0.9976027329536001, 0.0913193197977774, -0.9999999999999992], [-0.1872871379244317, 0.6105780892841515, -0.3991945556705008, 0.10187666756495342, 0.15625580102748435, -0.4323964594183683, -0.7351452743744696, 0.6588821033841878, 0.7625449410829614, -0.07084655429561022, 0.9999999999999998, 0.11822580058513356, -0.32538187535358265, -0.619080843812543, -0.12047948042324766, 0.460244171743178, 0.5353903126114252, -0.320108690564666, 0.8024637425191203, 0.686942516903834, 0.3705589853858918, -0.29171955013036227, 0.9368598960900922, -0.3512709283921501, 0.5609201558088961, 0.3441010530292343, -0.7495337820261476, -0.5291651287835786, 0.21488449356544595, -0.11422924139781995, -0.22317128777303114, 0.5554871158319292, -0.9982100407528258, -0.6015531299891418, -0.6545044368454913, -0.8704334540433891, -0.08887523023223039, -0.34252231752156426, -0.8192128872561428, -0.5365673722811789, 0.827178406727582, -0.9973601716886711, -0.6379381553949063, -0.49616045584514107, -0.3391957403372905, -0.9999929757054355, -0.12597600615508708, 0.8530052518987252, 0.11027062034967473, 0.2290435563553755, -0.060803008054662225, 0.3359778252071054, 0.11780767822315387, 0.25738980998837246, 0.9975309350317473, 0.5234951979857146, 0.7631255816106702, 0.5791883943698478, 1.0, -0.7623883229556, 0.9881586115672998, -0.7015418751680133, -0.651878794378995, 0.6515057718119401, 0.9999999702041669, 0.43737964292134623, 0.684540033508839, 0.8565666790134729, 0.9999998344886069, 0.668681076717522, 0.9992762024447439, -0.9945678530234425, -0.9964011424399534, -0.2019386162729492, 0.027834239837918478, 0.6943001737868163, 0.21940194170532443, 0.08355974839188487, 0.5012751354318915, 0.7282464625826178, 0.8458449611047256, 0.6059540594965569, -0.5551411135500013, -0.8014210639393669]], "w2": [[-0.22614757715255354, 0.3145030685725033, 0.9999993311730415, -0.45776854234040903, 0.9608153726336626, 0.19884275846284133, 0.7522108222744468, -0.49268511637845025, -0.8796330217154286], [0.035553564915720245, -0.014629321908686488, -0.7967428793887009, -0.16688654102421124, -1.0, 0.5453333035527134, 0.5606498633732653, -0.9996639884956187, -0.14767447090866614], [0.6865904719759292, 0.8105835521676928, -0.7670409118051806, 0.5017549514958728, 0.9998273176275319, -0.2869121657527655, 0.7080855119707575, 0.01349100269100168, 0.7111696018798159], [0.18200703941307592, 0.9999862871355443, 0.2769010444262923, -0.6737699203394883, 0.6231792154494045, -0.8343424077643598, 0.16292507368439388, -0.2582185259657252, 0.4870854412220216], [-0.5923246461068421, 0.6501824600679287, -0.1542285365017172, 0.2892415599377305, -0.4388365400335453, -0.3301943134403343, 0.1348834572777105, 0.9999874454053244, 0.10147684925173661], [0.6725727246543683, -0.6395626949962704, 0.8952108085684785, 0.5854776412038842, 0.5751384765469958, 0.5072588951298682, -0.20271507656297685, 0.015708136866711506, -0.844182008866642], [0.9925981432582976, -0.44825798022181196, -0.31802455021576226, 0.6327358842813037, -0.7019605646420551, 0.2903140953389243, -0.9884066395268067, 0.4537730431083705, -0.8675914016384122]], "b1": [[0.9424529057273108], [1.0], [0.9078905122892579], [-0.5930901391584193], [-0.20969744542375773], [0.17096626275427157], [-0.4243234459421556], [-0.04238594375064957], [-0.0627718900697506]], "b2": [[-0.6332045076766055], [-0.8796913192088848], [0.22994320537939114], [0.7530138118480777], [0.6962974682575899], [-0.7712242502146262], [0.1398276895460348]], "fitness": 805.0, "best_pos": 10.0, "best_status": "small", "score": 100.0}