{"w1": [[-0.4639876899962648, -0.1670861885989843, 0.5827158591245548, -0.9944515216012098, -0.8477702668462469, 0.2428299658882523, 0.0005185150149342611, 0.7462486970438008, -0.33764513004554897, -0.7440962281423471, -0.13787031642219735, -0.8663398198528776, 0.1438513116114594, -0.8938374499966696, -0.7943497462945661, -0.007321269160571409, 0.023409904563595912, 0.015561354423315238, 0.07365468991419455, 0.1860817043779278, 0.10238987470410092, -0.8668962422881918, -0.3025082089417951, 0.3043983967176066, -0.07272987834235801, 0.1140299135205922, 0.9993960596016729, 0.45642931371463935, 0.41943468653767224, 0.29991866964292846, -0.32587965265720426, -0.7256709264832562, 0.06881737664180299, 0.37656596262985215, 0.2672296277800833, 0.8254912758963455, 0.549326062469751, 0.6021571364469177, 0.37079822664637146, -0.8935632977505688, 0.28830344774085015, 1.0, -0.43201165796865776, -0.6606910853788777, 0.9933507804478174, 0.547882640932036, 0.3496303949731697, -0.3482417276201022, 0.9999999999999999, 0.5160633064283858, 0.9873681752134603, 0.21947530694936157, -0.6279413736020623, 0.07333455821580054, 0.420936691649297, 0.40046840894101476, -0.9999917933671495, -0.48262719837296897, -0.7790480740954168, -0.6217736556178639, 0.16352415155198996, 0.9999999999999998, -0.3401703987484229, 0.8126461052287571, 0.48639317566447055, 0.9706098826785556, 0.1523516524844141, 0.7628723765986885, -0.03659448174419887, -0.47035527186441284, 0.6526909333550219, -0.4380397411618589, -0.301865881653134, -0.8656050249260202, -0.12116733310154974, -0.292930787499187, -0.07603785291879263, -0.9999928835418396, -0.9974643973606416, -0.7867326453931768, -0.11136364041315283, -0.9999329931685685, 0.769288776636146, 0.37635946658132463], [0.046628579856544325, 0.971883827190491, -0.23283652311623926, -0.7717983563252334, 0.04151066562578447, -0.879958882349241, -0.43325112314286435, -0.6900207029304625, 0.26638516280297514, 0.42475952007665535, -0.2189802359395282, -0.1411143512471678, -0.8220094808809618, -0.5481097458120412, -0.6232756191717082, 0.21925892240664588, -0.9790407952200849, -0.396501806899917, -1.0, -0.208359749379595, -0.2991435209649363, 0.6795788478083533, -0.27334760604835173, -0.40665140975140096, 0.9393992298850546, 0.014808419728898396, -0.7160503919713281, 0.5106593614146542, 0.2565509513600288, 0.16154976749915312, 0.9983027295928878, -0.25149708900128553, 0.43431337601542724, 1.0, -0.315016317836745, -0.9999999999999999, -0.9767484789282468, 0.8769651410636088, -0.6185450747645275, -0.5185226129288575, 1.0, 0.1301127412545189, 0.6706672804987387, 0.18887111664406858, 0.4871528531891635, 0.3118254985585074, 0.40053363754586496, 0.9999999999467295, 0.8101906659585719, -0.48985710893768886, -0.0017394227252998105, -0.48932562637259935, 0.9047306721091507, 0.232520657473333, 0.9748622439556435, 0.9996288010300463, -0.24870856876543734, 0.9056640860403308, -0.43974898834862064, -0.2464313624016757, -0.8321972097848572, -0.12890950891865943, 0.7805856033515451, 0.6286882618598226, -0.857389044757543, -0.6864121091798414, 0.3070357773019533, 0.5378808715432132, 0.21889059362029978, 0.13110984815900098, 0.3963533482056363, -0.7548186781340358, 0.8510906630665762, 0.1890381465546747, 0.20611048911443106, -0.8181172114407573, -0.26304130733091485, -0.32703252973367375, 0.7359005229164408, -0.48198796207836414, -0.05906971236509558, -0.9999998963869822, 0.10398620264620406, -0.7388524174137535], [1.0, -0.4554210428269295, -0.540535224673669, 0.016000765020338828, 0.005507590879395395, 0.6280021620074506, -0.7863308444569197, 0.6219288260247079, 0.9783587217226082, -0.9354441379520105, 0.47783428075932644, 0.8795897201385294, -0.17003027013378746, -0.3007208634829604, -0.44133942772222184, 0.5040959450028037, -0.20658376117620553, -0.3583126805958564, -0.12224508688533733, -0.9952818422111743, 1.0, 0.23491172121451376, -0.2540841336939773, 0.5562956930395722, -0.6783392017877556, -0.21127329718124616, -0.7317249420771759, -0.8968544298946097, -0.10140098014051878, 0.4149536433265273, 0.6216766395950525, -0.39469390414796873, 1.0, 0.6021818638724596, -0.5704104470070159, 1.0, -0.6990572735546111, 0.7761612902840007, -0.9546248057209479, 0.9648979003825311, 0.21675630719956002, -0.4551538774695335, -0.9983703175555756, 0.09683030887332207, -0.5951244242080357, 0.44832195543318853, 0.8323347523482348, -0.5126976401477142, -0.7586501715176655, 0.7764671880901329, 1.0, 0.3434149771621527, -0.752778412557235, 0.3622734205584121, -0.6023434604035234, 0.9977059824635648, -0.4708374440993176, -0.9999994625498331, 0.22445893712069806, 0.21592873519777056, -0.18950039868204496, -0.26135131702170333, -0.4347270785128279, 0.8016109404533748, 0.7487306973307275, -0.19240884520556584, -0.9994180772565427, 0.7013193671508571, -0.9357672629677919, -0.33955917296881905, -0.5326583514030385, -0.8000824108616901, -0.03369139297144779, 0.4583149607412705, 0.2432758354491981, -0.9089419714091767, 0.34742322237366946, 0.025989032700926028, -0.3726790644763781, -0.011817610844863411, 0.4709340228326873, 0.2629565643021298, 0.8656176730920897, -0.1799915158659664], [-0.353137449151467, 0.9999999999999999, 0.5076102198875659, -0.9999281427905484, 0.5872033418038205, -0.7060466081169087, 0.4977686833192955, 0.5294359416003711, 0.7837153496466973, -0.6493377256079185, -0.025998292542405307, -0.7781964910721126, 0.4090009361800427, 0.02984719598448746, -0.4761507598964131, 0.35493432434356237, -0.6204821326885662, 0.9990491336480037, -0.9999994748075463, 0.004689686940122652, 0.6068919666694871, 0.4253402310377819, -0.524688476049687, -1.0, -1.0, 0.2865881575544288, -0.5773135742265009, -0.07895957000781782, -0.689444371214875, -0.7363884187660549, -0.8905814258968284, 0.8977488434519688, 0.8011536283567562, 0.7870339096298282, 0.4176148916654912, 0.5037592586857239, 0.1927774916894112, 0.03450515103092246, 0.9950562338600061, 0.4353211608106914, 0.8993264546429011, 0.10896184098409947, 0.9107841313183999, -0.12055168007115831, -0.019100064262804462, -0.37118210724100353, 0.531421162302374, 0.46345907844201195, -0.9992165368812929, 0.08763058262452775, 0.5829744128206864, 0.24329653550071578, 0.26131789349817863, -0.7145528539395213, 0.02230673896733336, -0.7869723424275906, -0.22791970934173847, 0.03761835176540812, 0.04075369337892743, -0.8281912061786723, 0.17188042592386277, 0.006287964209704531, -0.13532367430424452, -0.4066247936869646, -0.1628407260325052, 0.15898195988257488, 0.9855831807109966, 0.5951708252678984, -0.658502716582543, -0.4167936102638976, -0.8253313598255171, -0.3138069000789078, -0.9999999999999999, 0.21808478665875064, 0.1864299809062353, -0.23397357519670073, -0.1810950130217077, 0.04502382929212706, -0.19474098263387474, 0.06877593409738289, 0.5340725856390209, -0.38128079981985924, -0.9069804978843086, -0.2999138597268035], [0.6004323077715797, 0.5385722821021135, 0.08931933774686385, -0.950580416187909, -0.26208389187035963, 0.18830943558938318, -0.10019490828450368, -0.863156715046129, 0.9243073388277495, -0.9998916719321345, -0.8697531051514189, -0.3551152250061586, -0.2735621597144047, -0.839023346616927, -0.24156000948092637, -0.35206761304691997, 0.030777222603838885, -0.2560831078137182, -0.794018796918675, 0.9508104324984882, -0.31139214454897146, -0.27386833016905515, -0.9999999999999993, 0.0045512292725467035, -0.5636387838096416, -0.7514569299303766, 1.0, -0.32326822581935083, -0.2295911767678372, 0.01312780161180584, 0.11193213925208212, -0.4408533127723774, 0.728053327291431, -0.1837838185389105, 0.5675868522594495, 0.744578126619232, -0.4635163711451065, -0.9999999999674948, -0.3543836529388117, 0.9999914692493213, 0.8304540222922827, -0.02570533771001856, -0.517336629849995, 0.1557007779041806, -0.7349349928386526, -0.8101621063951803, -0.5132063078587279, -0.785267908944643, -0.13264345305977115, 0.3490280336784241, 0.9999999999999993, 0.9996165258183337, 0.9530277725610344, 0.2476274224709641, -0.44595083968575555, 0.6559738326882937, 0.016568364401992535, -0.4735698433054565, -0.3502860621873445, 0.7217387561226167, -0.530443961983017, -0.9999994092943482, -0.4375730820573906, -0.6296264979674612, -0.860538464726345, -0.5124436135229629, 0.2901962167856357, 0.7344699260498795, -0.0875442841698707, -0.25478818996866975, -1.0, -0.2959457240492383, -0.4028638501207253, 0.887915484715277, -0.9158453936379023, 0.9999999830690427, 0.34189033440628824, -0.04611358221982288, -0.22576504336397402, -0.515375582660117, 0.4929669984410889, 0.4138777943566951, -0.9998699836219062, 0.8751109918063518], [0.5192596552732595, -0.42393405644815607, 0.24249101581491947, 0.7960304199908903, 0.04522534244622346, -0.9959289566497882, -0.41243926425142696, -0.8779711464338713, -0.20700820203122725, 0.11887797975248422, -0.7159974099956978, 0.5570710515973446, -0.09180851120273802, -0.8245044433156093, -0.9672049144100502, 0.2561646164565192, 0.2345436240683438, 0.6130320387644891, 0.6066155744425452, -0.7050434000320162, 0.2216504316412614, 0.25702756719246345, 0.8858897282392998, 0.5110254321365441, -0.5504886890070095, -0.16781800004400288, -0.9079504287243967, -0.10918605651835937, 0.1929617706275692, 1.0, 0.47915858746524076, 0.3394885168018386, -0.973455774196264, 0.9992481869897686, 0.5571575772269732, 0.35972564435004506, -0.490449687645326, 0.005767829077767576, -0.22698874886517956, 0.35753741593174526, -0.5206842242432792, 0.2215222597935116, 0.779024712244438, -0.04662531203672377, 0.9820775050756093, 0.6006129227532824, 0.48841729252140065, -0.20087685023681498, 0.08235672430037656, 0.5196450429177425, -0.99971946550319, 0.6656769257969423, 0.2415731405627268, 0.10921458975529089, -0.5890793401300412, 0.19999567710803398, -1.0, -0.23677376487022755, -0.6682509795014173, 0.8008370145602748, 0.5842270842414025, 0.9222214845388373, 0.28185215964952276, 0.37194740280229144, 0.6645442783682595, 0.9993736460465116, -0.2323639251569986, 0.01255527363138074, -0.7324310254600104, -0.16672008379006167, -0.30279070599817887, -0.12311431263741035, -0.5402573546418058, -0.8403602736837602, 0.05769937652820999, -0.6062534016852544, -0.6200557716320199, -0.06205794259657698, -0.32783124418942633, -0.6197220354021937, -0.06796569699170626, -0.49553938274049447, -0.566133658405042, 0.0683374308360087], [0.8409919878417998, -0.02415041695627179, -0.5204918095941168, -0.3469781489169391, 0.6850445562312234, 0.4740542946339499, 0.8918126966942482, 0.15835960153284992, 0.24128236138293707, 0.6734633064772892, 0.7233834278210364, -0.20664010309837402, 0.9981169599096534, 0.9993851260318347, 0.6528694503979825, -0.08794271292497317, -0.9916278109197375, -0.9764592547636136, -0.6728571256116791, 0.2687536909763517, -0.40498597282322873, -0.5346507071065227, 0.4293095359258349, -0.9673157010395024, -0.4315766006307596, 0.9669531019951576, -0.9094200490907859, 0.2834289944845055, 0.5461561639893356, -1.0, -0.6367220866224664, 0.9999999999999999, 0.03440614011979644, -0.558041089902937, 0.6456098170750496, 1.0, -0.7039111461156105, 0.6541387928781461, 0.42099938070420745, 0.04732470404418753, -0.9999999999999994, -0.6942875104543299, -0.20646271223256193, 0.8124737362755304, -0.2636437691244868, -0.9494410326653616, 0.2063721166893264, -0.07099568956289062, -0.5751588882201898, -0.04625027693991521, -0.38591116482442767, 0.018037828705970975, 0.5170948637767939, 0.303677614232741, -0.25367637732028786, 0.4484807212703148, 0.32170575294138565, 0.1806208157664691, -0.8193887532765333, 0.35580489396788484, -0.27406431947160065, -0.0401806223232616, -0.33657528386750774, 0.22108004681199456, 0.3809130502143706, 0.8994144266570774, 0.7342520969852838, -0.08812198744734723, 0.47161121407245404, 0.16072665723831583, 0.28584437250876266, -0.13873330095528397, -0.9481046777370732, 0.23560882744020867, 0.994703566431583, 0.6487675293044092, 1.0, -0.26913388209024186, -0.3404145587040557, 0.510451141273438, 0.8160259379511673, -0.6018022706698782, -0.5625310624878725, -0.9978866890257423], [0.3669073726653634, 0.3659310729714564, 0.5522031605574964, 0.043321692078352125, 0.9995454581477705, -0.5369076002952771, 0.5790503367290817, -0.85808041580878, -0.01864536401975655, 0.7683401214067308, 0.30595796599968905, -0.9915699562031558, -0.8419556469999215, -1.0, 0.6050087508408074, 0.027055152969945276, -0.2774066949581331, 0.8018753379087419, 0.988791476936118, -0.8059190528363172, 0.7484782168585041, 0.81059567033322, -0.36269579867898477, -0.11898891400747141, 0.11172136090852695, -0.9352819636965168, 0.10073644755856276, 0.7262280560467304, -0.03572162352049013, -0.5468270887420186, 0.8451458534594384, 0.7782551723296758, 0.07512266137659858, 0.24485918884917834, 0.5563414860796595, 0.35034875632879103, 0.25341657852458677, 0.12243467789644204, -0.8422633707477051, -0.32862415544523677, 0.26180956057658694, 0.40937348629540304, -0.6487865086162173, -0.8545530685631636, -0.6568892120656649, -0.07773490062874296, 0.9915329328350767, -0.1491179976619617, 0.0816271633610075, 0.05331646809561795, -0.5787214759436574, 0.525604177450875, -0.3668251537856777, -0.18270230123172918, -0.18005517618998354, -0.614201748177044, -0.12676572329943514, 0.8200653407844456, -0.9853070083432833, -0.8870461993357979, 0.029682279732481505, 0.030637087800634337, 0.20316170706553338, -0.6596199274222373, -0.06301987286126626, -0.24628461167196475, -0.4223480779909161, -0.08832987489914938, 0.4381333967042342, -0.5138332252456611, 0.07023719721241754, 0.12993163287682893, 0.9999999293758376, -0.521041878893432, -0.27048662864345563, -0.7987102901997477, -0.940358058669108, 0.7903759698075407, 0.3756144894996932, -0.6360501052858829, 0.2615758761960393, -0.9982740272879761, 0.09127412575112315, -0.9999999999999997], [-0.029941502183095887, 0.6105785325601008, -0.3991903169635444, 0.6212042930870395, 0.15625657064558038, -0.4323953038020686, -0.8004203881314171, 0.6554373480610074, 0.8401991273324584, -0.07084655805102875, 0.8557266541193878, 0.11822580059894171, -0.20226720824108974, -0.8400068862348602, -0.33696087120597173, 0.4599371295291736, 0.24890163746584887, -0.3000699879755426, 0.9996820585116137, 0.5787019101023196, 0.6902846566088727, -0.291719549421819, 0.9368628229973694, -0.3512787954154332, 0.5581113808402175, 0.3441011646233572, -0.7495345705525466, -0.5291651287835278, 0.3208001726112856, -0.11423116357430639, -0.2231700094083038, 0.5565598662692058, -1.0, -0.6016471331081211, -0.6545109526649943, -0.5721535266406578, 0.039887055250869496, -0.29499017963838076, -0.819212742566846, -0.5756489940942053, 0.8271726147407202, -0.9973601714738053, -0.6379383226599384, -0.5142874153973859, -0.4911462569629079, -1.0, -0.12524048103244392, 0.8351367976653623, 0.11027062034946042, 0.12643612153813338, -0.060814054398780744, -0.04441102190867674, 0.046017391196132365, 0.25738888638329416, 0.8479604323273051, 0.5234952027485833, 0.7631255908125222, 0.5791871655695249, 0.9999989338980182, -0.9448074493870885, 0.9881640906266468, -0.7015418718780198, -0.623010907060704, 0.5878504402885768, 0.9999999701979717, 0.09388706153660215, 0.6845400350351661, 0.8413948416182941, 0.9999999984570292, 0.6695443322539424, 0.7890646070337944, -0.9945583090770754, -0.996337275954233, -0.08411306470491961, 0.027968825811624732, 0.6942954097033903, 0.1918452891103706, -0.0542280669343327, 0.8008079090949421, 0.7302786713897758, 0.9979120299522103, 0.7808175432268555, -0.5551404849594074, -0.9992792964025501]], "w2": [[-0.22614716998988554, 0.31776145298038583, 0.9999233512470526, -0.4577685319757418, 0.9607215318341882, 0.19885067990473457, 0.752666690241637, -0.2597319301210245, -0.7027424648057704], [0.036122111688158064, -0.49272319902075484, -0.8294393245012642, -0.1668894066097406, -0.7899633921740616, 0.545333303704343, 0.4613213140373272, -0.9996614369895086, -0.14827720723182541], [0.6865904724133555, 0.8105836072273633, -0.8914619043609012, 0.4826166236774916, 1.0, 0.08908796545918574, 0.7814386624777058, 0.01349204850084198, 0.7111595484671752], [0.1807964026068272, 0.9999862871490428, 0.5891394106545725, -0.9116331473625935, 0.4554350375922467, -1.0, 0.16288971911569716, -0.1401561479179105, 0.40472618789818293], [-0.5923793541214831, 0.6497692878524396, -0.1315140077706858, 0.6568983072641131, -0.6883258576174949, -0.3301951379543489, 0.14061702815612812, 0.9993906736836806, 0.10147634100272292], [0.672572710620989, -0.45544352946949196, 0.8952126730429106, 0.5831493668308009, 0.5033287001481427, 0.5049038023758913, -0.23204624571886412, 0.020144898497221626, -0.8441820088673195], [0.9925576093132711, -0.20850289084943163, -0.31802453095451416, 0.6325433459545723, -0.7019608506984556, 0.2902906329888848, -0.9887251356787183, 0.265068341807315, -0.9999966592935021]], "b1": [[0.9464944588366664], [0.9059381777662084], [0.9078802619227893], [-0.5931659058925455], [-0.3499875549152537], [0.17099708864810226], [-0.42594914139766965], [-0.04521190166682781], [-0.06494311531150544]], "b2": [[-0.6332036720258042], [-0.8797969713044274], [0.2544956559484706], [0.6163868216032533], [0.6954938156736056], [-0.9772624740452291], [-0.08595073053316725]], "fitness": -85.0, "best_pos": 0.0, "best_status": "small", "score": 300.0}