{"w1": [[-0.847091484839218, 0.6945522753638808, -0.0718361889022992, 0.6114735827680902, -0.4005543361861136, 0.7948403878402204, -0.7673186391310859, -0.49218757268783137, -0.7036088898381765, 0.09468940527629405, 0.010924803613632541, -0.49393045396245455, 0.10351621519274894, -0.9999997890750543, -0.22034129644314132, 0.37157016700924067, -0.28438593784419924, -0.7941854712198494, 0.05302915485564682, -1.0, -0.8222232860078997, 0.8993867013498165, -0.18020866705568256, 0.2130338077856207, -0.2923987815990825, 0.9864864238708501, 0.5812909689347224, 0.6079905887121526, -0.2565422165365838, 0.0858434304781151, -0.7121601695021456, 0.4016242556734353, -0.389430817180162, -0.08075055971226748, 0.4577562444344875, -0.9537888461208844, -0.5051974162462372, 0.6093451419317111, 0.319218135647828, -0.9699283079672297, 0.8454729340448344, 0.6374495224021282, -0.33943840885604964, -0.49790765521180913, -0.3177887437374728, 0.21506693122665385, 0.013481961417187978, -0.2114661413513244, 0.13005301881352327, 0.11001624747377341, -0.29867308911126367, -0.9721869344955278, 0.7943481821993115, 0.5115281267189654, -0.771735262117411, -0.849990862485168, -0.3651712861756268, 0.9993374297504884, 0.5396595877337248, -0.06433958367287229, -0.18308454508397248, 0.45398152954560306, 0.1442839546331118, 0.03870533983315215, -0.32679193691848496, -0.23787989696925765, 0.28005256621733604, 0.5818001070769698, 0.3040246813222265, 0.7038891057542134, -0.6800315963722209, -0.6458597290593411, -0.9883843741417191, 0.09750200657789831, -0.9253514035045389, -0.9997385530168352, 0.12855399014435887, -0.8821865237691593, 0.7896625933150135, -0.12503904363324486, -0.1531428538955759, 0.11800688197464693, 0.4493459148988829, -0.5379049851162809], [-0.34045284511918783, -0.5343376755069017, 0.1868805543304449, -0.9605071300245123, 0.6575573891586897, 0.9513309712448113, -0.3296914712746406, -0.663387245063062, -0.6786026233450839, 0.9999999999999998, -0.04616848200494251, 0.8903665687737695, -0.7436553316765759, 0.6457908180793426, -0.24672423550129663, -0.10929461062480068, -0.36153199274091247, 0.461628379633118, -0.7698827474440111, -0.475253859462506, -0.24352530744928536, -0.275983586036739, -0.21318637230799573, -0.3607901521864978, -0.7504234707815708, -0.7836925919543741, 0.5644942444263057, -0.09078219064254436, 0.01865540250129691, -0.08807408739963998, -0.026785014252965034, -0.48730047407988397, 0.3982457017908751, 0.5599970426115788, -0.923074357778358, 0.14608274854910624, -0.7958173487666502, 0.03292797817991101, 0.588860721566984, -0.0993169974767855, 0.8462408511321996, 0.5938330863139775, 0.9190925151291385, -0.5240657240449218, 0.13705069410110113, -0.3564347218079682, -0.849228623788594, -0.7650554360338176, 0.8385897743211898, 0.6682554371856702, 0.8791400038042695, -0.8094377230506072, -0.7541951097686905, -0.2945769696605155, 0.551647470538456, -0.33209786331281044, -0.2289669596207116, 0.24392290606811928, 0.2499198193623921, 0.2527635915638883, 0.2785625500500254, -0.9252606185065566, 0.4001091396430833, 0.0002713124078045947, -0.9999999999999999, -0.1534591851064007, -0.9414039000982469, -0.706184160035467, 0.14403294557079555, 0.495469250250587, -0.4806538391932698, -0.48624968713826744, 0.08187532745168327, 0.31173535680519887, 0.7459091524213279, -0.6238577423990398, 0.104977016107212, 0.796833964061079, -0.5160682509625629, -0.46935495159521085, 0.7577552821041191, 0.442084907992604, 0.3260503731321775, 0.5068549388045108], [-0.47807333491741966, 0.05754194169095423, 0.6475396800695362, 0.715078018983505, 0.7430451081044016, -0.9903535286135572, 0.3922744964737182, -0.29821654588441465, -0.5668051877527898, -0.9999999999999997, -0.9218738580093826, -0.8334783508981175, -0.4643925728951557, -0.5515423476408752, -0.999935593743509, -0.7084329118984144, -0.2519043131825975, -0.5569449328019304, 0.8573707134186541, -0.6222866829074957, -0.3952714114976321, 0.31816611587787375, -0.5454284565742404, 0.33569898293918876, -0.9999999999999999, -0.8623332264921176, -0.640117486008741, -0.7534112070040176, 0.06555692594097026, -0.9020772924392112, 0.7419009310779344, 0.4728200400260661, 0.8102077845338493, -0.2358845366063809, -0.0726817048266898, 0.15296350510138998, 0.5276491909587342, 0.5429916452699605, 0.8564952188781443, 0.567496658068844, 0.5242066472892377, -0.6367594188973602, -0.46449596456610287, -0.13616223810375755, 0.43508824453007494, -0.025797826901183707, -0.4532694456419373, -0.06670657071681416, 0.6222099572256931, -0.6075260863436859, -0.047047664561052985, -0.7103778741202963, -0.9230988828799215, 0.3878607230413801, 0.1262291519785853, -0.25659651870555183, 0.2901889477124694, 0.025053299750194935, 0.4389145167332329, 0.05685528676123682, 0.7269051328233926, 0.3424999660481813, 0.9999999999999999, -0.5200611757476076, 0.999335355123769, -0.8820155895869778, -0.637935677128529, 0.23643728136607833, -0.474382769425259, -0.8494565049214045, -0.17676713282081663, -0.11230423346203236, 0.9999738997896929, -0.3068720479822305, -0.22511054990572, -0.523198205702846, -0.683012044268148, -0.4398400005169654, 1.0, 0.32847990158359514, -0.23415145405722465, -0.29201076491136657, 0.22651748596881485, -0.18892735281212697], [-0.22268311849408087, 0.11985008850100712, 0.16473742785233567, -0.27024892682837665, -0.8083476623744736, 0.9162622072082651, 0.31905209941819657, -0.019967203209823432, 1.0, -0.8491570577493106, -0.289360208037856, 0.9191774098959379, -0.23597458733509968, -0.30560183617000497, 0.9003519246015275, -0.8636665699897842, -0.560007999481638, -0.2913594026498395, -0.19308037604608053, -0.2977069066191506, -0.0627005569848016, -0.7337304931729972, 0.8734324411716815, 0.7032916980029985, 0.44886221954450534, -0.36741498100727615, 0.45163275833602995, 0.6318568517950298, -0.3232784787212958, -0.46773832407812155, -0.6268498051538933, 0.22182293525542118, 0.9190741204127512, -0.5738669934826631, 0.34169584580429746, 0.5952453117805419, 0.10273576689004901, -0.8610074262978111, 0.6702738189958928, -0.2810868129939767, 0.7349065395861729, -0.9999999999999999, 0.8096959259155329, 0.44233028853368017, -0.694172382401827, 0.10863942967688568, 0.4753583628143012, 0.6014819214134915, 1.0, 0.16883350251576681, 0.7237128981944728, -0.6912983336583396, 0.538582359698522, 0.9999999933544323, 0.2711786505018258, -0.04813001980659688, -0.9999234361928139, -0.16924219272135219, 0.02840608498644199, 0.04921499679203728, -0.3035923237179431, -0.3404279048151221, -0.7640249825428141, 0.7599424843211736, 0.3320264092434266, 0.4305378689833708, -0.2991766747251359, 0.3014435751528438, -0.5794704367736365, 0.9617542869299825, 0.8831607889522154, -0.897828121029733, 0.2576599350339099, 0.12704704889288865, -0.5787427041776176, 0.1862524291537174, -0.9215828897251858, -0.17549648833261822, -0.5441837463336737, 0.3079654729178942, -0.052982051741737334, 0.01651959363583036, 0.9999999999999999, -0.21849469205571942], [0.9284859162965304, 0.6282546047061319, -0.7932577154426416, 0.4800677337872323, 0.8489293653740327, 0.1048540012922928, -0.8117774027502489, -0.4970452567345138, -0.7754005256983042, -0.7733506407847687, -0.8310040890812967, -0.25992587725623373, -0.013321539042394788, 0.5752023946289453, 0.3509415238786241, 0.5208148379341067, -0.724990819106286, 0.37307573121763066, 0.8506457186675204, 0.32025636859975665, 0.3967100071088995, -0.3094399822166839, -0.4974819973457201, 0.9999999999999996, -0.35904497310922245, -0.4664333984933829, 0.1817031536077262, 0.8075329574886337, 0.8588286134276768, 0.7378136463327789, 0.004181254183744727, 0.2610943724872201, -0.7908840185940837, 0.35331673840515987, 0.5607671683553747, 0.010700831878782421, 0.8477509459685869, 1.0, -0.048785947110935715, 0.9999999999999994, -0.4801728346425185, 0.7934166202623216, -0.5361052347826765, 0.9818163877008496, -0.10892649364683904, -0.9999938801154911, 0.30767349412845607, -0.9249866533858443, 0.6853485008094788, -0.4912093598797635, -0.05049021129434173, -0.20279354946695594, 0.770510888250805, 0.8867710056808872, 0.12923334774678996, 0.08062360259728545, 0.7387338613631687, -0.9719487656431058, -0.4896856277984593, -0.3758343944105344, -0.010107399731616023, 0.7715874629746781, -0.7032970799752055, 0.8521026280306142, -0.540691652865848, -0.7599337493232979, -0.8368457491593672, 0.28958587849047135, -0.6583360307494104, -0.2161827820001177, 0.6324086110532741, 0.4621473931492083, -0.4715826917218069, 0.09672870134388986, 0.24817821358832437, 0.9482827267555806, 0.3838792405500491, -0.3267416691273803, -0.5903748119239212, -0.1348441651105568, -0.16455447240331458, 0.41361301059386374, 0.13778451643590964, 0.28494505555463756], [-0.6927157055211032, 0.2891493468519253, -0.6532241559474095, 0.10249836972382324, 0.09510601299983758, -0.544312735977971, -0.33504040625891857, -0.040650388618672845, -0.1842406593396187, -0.9852653103655976, 0.3040883374235232, -0.12474455426956539, -0.7269123217655136, -0.741206023648415, 0.4217302930655557, 0.7927478417749799, 0.15146626577686886, 0.9289571587828686, 0.49530438921808906, 0.47257207243075733, -0.38251265672031165, -0.40719479368951994, 0.4334070728550239, 0.7543555457119052, 0.4610076084597459, -0.1823147209102459, -0.2737740485372541, -0.48979902867482666, -0.43287557552624045, -0.2826149355750568, -0.6590458902973438, -0.4016645093998126, 0.33997607729610413, -0.9999999999999998, -0.7364202561566977, -0.8128825116857229, -0.9999999999999998, -0.7742946628729643, -0.24132825546227255, -0.014096307961104587, -0.25022698121935955, 0.017748523822162895, 0.05287375528944049, 1.0, -0.6452201739263127, -0.15743907855972047, -0.19085847125070696, -0.30701622851554144, 0.6799338303924355, 0.17658992564947848, 0.866398778856225, -0.4611901127991324, -0.2340295963349394, -0.28655268168661147, -0.35002513380073985, 0.8461223530536128, 0.7659089083567446, 0.2387295248400289, 0.36961133555288567, -0.42093660692010676, 0.49592791004362285, 1.0, -0.5148872978192582, -0.9999367412873936, -0.08352488953355439, 0.25852358736701686, 0.10597926008009763, -0.5545726551999072, -0.48011664847170166, -0.8887690424597856, 0.10973852662634853, 0.28879697528538717, -0.4325629026007015, 0.7055687348893689, -0.8934474167355648, 0.47084747724784687, 0.4401407754217568, -0.7578898796376428, -0.20319053462682532, -0.21487524581427458, -0.7929843634352038, -0.3750869813526829, 0.4425102672669517, -0.9322371491876302], [-0.8240274343727507, 0.19740411303920993, 0.06619100747723598, 0.7989233708025753, 0.1736401808410498, 0.08736161529460641, 0.5909905295784276, 0.2714944681380676, -0.20674376774928666, -0.36943071201538996, 0.09927837406261372, -0.6690067201107263, 0.9688150549849945, 0.2725982328554271, -0.25336038053831256, 0.7088772771511993, -0.4204467950170545, 0.1865631734680104, 0.6574197156849445, 0.49633404695644345, -0.006896206983567909, 0.4172733334779283, 0.31645747707752553, -0.12616116670827096, -0.9992131488977842, -0.36917051709290505, -0.8476660725215825, -0.3706803637165085, -0.6342352700018503, -0.3696753488191631, 0.8092382006267812, -0.5788299250368074, 0.8787335110502333, -0.3409029339995414, -0.527779178956979, -0.9718242901242505, 0.6003297406924245, 0.41225974036000607, -0.8486872691693467, 0.8634802177109829, -0.8138766768643885, -0.22071166420777466, 0.5789395740579986, -0.5409035547059562, -0.8963495782557263, 0.16574025120977653, -0.635298141828249, -0.1746342558038147, 0.6949498205493095, -0.9999999999999999, -0.6212065771992576, 0.2635028264991214, 0.7286490409679052, 0.12624138918761219, -0.06112745751844456, 0.3188912356020847, -0.21378266540652036, -0.4974040177020169, 0.2723074036538708, 0.9850636148310599, -0.24938632464064775, 0.22212604414064513, -0.04373486186207229, 0.37225219219361333, -0.46502339554978167, 0.5899674422180688, 0.5645901580249973, -0.48024072930300876, 1.0, 0.89365583359066, -0.9600190184794721, -0.9976377559065122, 0.2701968056279178, 0.3697391842016161, 0.818788031108692, 0.0830794748665493, 0.6646391169791751, -0.1699571002305545, -0.37607384813077593, 0.7632658637390551, 0.37473100044921737, 0.32379407805141436, 0.4950595451159781, -1.0], [-0.10594109073176942, -0.3366050734605118, 0.9999999999999999, 0.6576621945848318, -0.892554698896981, 0.6348507048257924, -0.8932055262311139, 0.1972020325375695, -0.23803224648381105, 0.3215068503178881, 0.6614741365405236, -0.43662624024916763, -0.8989515200184944, -0.16747151773018387, 0.25234629271481035, 0.0469737527348358, -0.7493377703624512, 0.05806164509901795, 0.9451580073797957, -0.9997684568178329, 0.46311731794144106, -0.4914487436756528, -0.7357819280885987, 0.5015044189209374, -0.7727321417736844, -0.03792848683819948, -0.9675401058404314, -0.1430699504509102, -0.2894068802345209, -0.13975670469311963, -0.5056855740752483, 0.12755173515657456, 0.9530482764881993, 0.7743727482651164, -0.4752733773797053, 0.7644348355882697, -0.4723576461359953, -0.9416319079419846, -0.767070349968345, 0.6571634818385635, 0.5833400089591012, 0.16170310479619718, -0.7887160468883867, 0.9424636348606633, 1.0, 0.4036479159551646, -0.3183915793590084, -0.4374049926966116, 0.7766065292504124, -0.04959603733354559, 0.6577564371625434, -0.2717555655941372, -1.0, -0.9918918805690771, -0.24105738539572422, 0.6886387941327771, -0.25323907921128114, 0.4114979153823938, -0.10634559628825599, -0.01554691174954544, 0.6303521024747293, -0.27975389753517643, -0.020463130301916457, 0.457669686187357, 0.048685210457361815, -0.11266386840560937, -0.5080155051960955, -0.4379934232616356, -0.573107247849349, -0.47764793608000666, -0.11376884674203504, 0.4529164365772902, -0.37458179627819077, -0.742616047519896, 0.6197729964863804, 0.3771585645903104, -0.19761880119299965, -0.2760472836869072, 0.3539073832281009, 0.7714802563133033, 0.5524325637267833, 0.4764750853715919, -0.951837521964163, 0.7654755500302124], [0.7708896251402783, 0.48392440906257583, -0.8291023702323519, 0.9414125082978927, 0.16152670717010065, -0.2069305513171078, 0.8060363487085218, -0.5609166621160342, 0.31550287242873976, -0.44301530193006655, 0.7112214510361012, 0.6679680084831762, 0.2840319000765685, -0.1400409794062283, 0.47041826138497195, -0.792429006961033, -0.5420252522582797, -0.866034850094461, 0.06226928481231817, -0.5407100926640237, -0.8898530324220223, -0.2564940668635899, -0.9930279540870558, -0.1773120635189724, -0.5945276794604518, 0.7882140525095923, 0.45937238446672934, 0.3299762242297099, -0.9512047068850922, -0.8661741994356429, 0.9351660911500426, -0.7920558856756278, -0.4322455702894363, 0.35964836492261554, 0.107461728753175, 0.01618908224962223, -0.7876792365321322, -0.7191088317276161, -0.02271038624106552, -0.47788089579924753, -0.6727345029995659, -0.19723425248290746, 0.23608262712904787, -0.2785960966558729, -0.8628422668536544, 0.5135540077261874, 0.05362186495838686, -0.1086041029441394, 0.6680485981999388, 0.26543314399415513, 0.5136075262441118, -0.3903939443296464, -0.6547488206177517, -0.7103742991889498, 0.40287895141380387, 0.008205340293061551, 0.6196637516656687, 0.2279323601841146, -0.6768520065665088, 0.06230243832697242, -0.5826925431511771, -0.28637796158308665, 0.44835808234555813, -0.5131052030695591, -0.8921788046186461, -0.7017531901661287, -0.6419787710116336, -0.44251366355378374, -0.16098341662146587, 0.7882252894044509, 0.14100806794033693, 0.6883477993522005, -0.4687807114467645, 0.05739805855491533, 0.8706346996946721, -0.2533205690897147, -0.0899028435178328, -0.8887810534386461, -0.9738498117809002, 0.6085808146368771, 0.7047148740915326, -0.8060633469557471, -0.45604151964768613, 0.3474366664428451]], "w2": [[0.22980510464672071, -0.9825983706853861, -0.3665624747145854, -0.46681869387123254, -0.3181740077395842, 0.16377391523352708, 0.27749305218511333, 0.27528556411342336, -0.5286478629730965], [-0.853348190752785, 0.8599829638903151, -0.6609734078619383, -0.5283676474903236, -0.3617184380734806, 0.4777043959046528, 0.390842818211941, -0.41037866544296964, -0.2117528441044141], [-0.325886121573722, 0.8133162020032648, -0.814244023625198, 0.4757073595088983, -0.8286962124791311, 0.9563980807800408, 0.168912009300492, 0.4584507463121495, 0.22367499443338795], [0.2497579717665654, 0.31828903567934197, 0.027477911154781487, -0.33504506205371726, 0.9842062101844005, -0.5843218036640941, -0.32746142952072577, -0.34537570634754433, 0.2530555627008181], [0.898734509147301, 0.9666161592765782, -0.6959815589808577, 1.0, -0.1436494215209882, 0.27739475356544774, -0.11197360999021924, 0.8973507945931936, -1.0], [0.27936873855218225, -0.13089747021608228, 0.5112500198939716, 0.07458006019994526, -0.9517729126072844, -0.3027131191735365, 0.8039291076546551, 0.4747876622510336, -0.7934769925910096], [-0.8939188392044318, -0.10123020241390059, -0.09181443025182695, -0.03564266564427585, -0.37185444918058325, -0.8520587677876849, 0.9126041601380295, 0.4083203148648679, -0.5131691492147843]], "b1": [[-0.20686974767114005], [0.154585625610574], [-0.05296947038459293], [-0.2380831880935037], [-0.16827343373472653], [-0.665885681866195], [0.68161445353493], [-0.26710617115870355], [0.1886580914792626]], "b2": [[-0.5713472151261884], [-0.6681493622191156], [-0.40986889755116696], [0.41189368651208874], [-0.861817129739904], [-0.564071340966637], [-0.6270758914988203]], "fitness": 2853.0, "best_pos": 8.0, "best_status": "small", "score": 1300.0}