{"w1": [[-0.847091484839218, 0.6945522753638809, -0.0718361889022992, 0.6114735827680902, -0.4005543361861136, 0.7948403878402205, -0.7673186391310859, -0.49218757268783137, -0.707299901754203, 0.09468940527629405, 0.010924803613632541, -0.49393045396245455, 0.10351621519274894, -0.9999997890750543, -0.22034129644314132, 0.37157016700924067, -0.2843859378441993, -0.7941854712198494, 0.05302915485564682, -1.0, -0.8222232860078997, 0.8993867013498166, -0.1802086670556826, 0.2130338077856207, -0.2922866414396324, 0.9864864238708501, 0.5812909689347224, 0.6079905887121526, -0.25654221653658377, 0.0858434304781151, -0.7121601695021456, 0.40162425567343535, -0.389430817180162, -0.08075055971226748, 0.4577562444344875, -0.9537888461208844, -0.5051974162462372, 0.6093451419317112, 0.319218135647828, -0.9699283079672297, 0.8454729340448343, 0.6374495224021282, -0.3394384088560497, -0.4979076552118091, -0.31778874373747273, 0.2160440368647823, 0.013481961417187978, -0.21191046022277016, 0.13005301881352327, 0.11001624747377341, -0.29867308911126367, -0.9721869344955277, 0.7943481821993114, 0.5115281267189655, -0.7717352621174108, -0.849990862485168, -0.3651712861756268, 0.9993374297504884, 0.5396595877337248, -0.0643395836728723, -0.18308454508397248, 0.2821435508318839, 0.1442839546331118, 0.03870533983315215, -0.32679193691848496, -0.23787989696925765, 0.28005256621733604, 0.5818001070769698, 0.30402468132222654, 0.7038891057542134, -0.6800315963722209, -0.6465913483537784, -0.9883843741417191, 0.09750200657789831, -0.9253514035045388, -0.9997385530168351, 0.12855399014435887, -0.8237325267654649, 0.7073833717772119, -0.12503904363324486, -0.15314285389557591, 0.11800688197464693, 0.4493459148988829, -0.5379049851162809], [-0.34045284511918783, -0.5343376755069017, 0.1868805543304449, -0.9999999999999993, 0.6575573891586897, 0.9513309712448113, -0.32969147127464066, -0.6633872450630619, -0.6786026233450838, 0.9999999999999998, -0.0461684820049425, 0.8903665687737695, -0.7436553316765759, 0.6457908180793426, -0.24672423550129663, -0.10929461062480068, -0.36153199274091247, 0.4616283796331179, -0.7698827474440111, -0.475253859462506, -0.24352530744928538, -0.275983586036739, -0.21318637230799573, -0.3607901521864978, -0.7504234707815708, -0.7838581375052189, 0.5644942444263057, -0.094304545428444, 0.019016456439441155, -0.08807408739963998, -0.026785014252965034, -0.48730047407988397, 0.3982457017908751, 0.5599970426115788, -0.923074357778358, 0.14608274854910624, -0.7958173487666502, 0.032927978179911006, 0.588860721566984, -0.0993169974767855, 0.8462408511321996, 0.5938330863139775, 0.9190925151291384, -0.5240657240449217, 0.13705069410110116, -0.3564347218079682, -0.8511023445582748, -0.7650554360338178, 0.8385897743211898, 0.6682554371856702, 0.8847504495113984, -0.8094377230506072, -0.7541951097686905, -0.2945769696605155, 0.551647470538456, -0.3320580553141295, -0.23476635857401346, 0.24392290606811926, 0.2499198193623921, 0.2527635915638883, 0.2785625500500254, -0.9248127724027899, 0.4001091396430833, 0.0002713124078045947, -0.9999999999999998, -0.1534591851064007, -0.9414039000982468, -0.706184160035467, 0.14403294557079555, 0.495469250250587, -0.4806538391932698, -0.4862496871382675, 0.08187532745168329, 0.31173535680519887, 0.7459091524213279, -0.6238577423990398, 0.104977016107212, 0.796833964061079, -0.3555046942099583, -0.46935495159521085, 0.7577552821041191, 0.44208490799260397, 0.3284567647133009, 0.5072112146665394], [-0.7012794426108395, 0.05754194169095424, 0.6475396800695362, 0.715078018983505, 0.3887899575267312, -0.9903535286135571, 0.3922744964737182, -0.29831528376070393, -0.5668051877527897, -0.9999999999999997, -0.9218738580093826, -0.8334783508981175, -0.4643925728951557, -0.5515423476408751, -0.9999355937435092, -0.7084329118984145, -0.25190431318259743, -0.5569449328019302, 0.4523136012315127, -0.6222866829074956, -0.2532802331497376, 0.3181661158778737, -0.5454284565742404, 0.3356989829391888, -0.9999999999999999, -0.8623332264921176, -0.6401174860087411, -0.7534112070040176, 0.06555692594097026, -0.9020772924392112, 0.7192490443128671, 0.4728200400260661, 0.8102077845338493, -0.23588453660638092, -0.0726817048266898, 0.36643188082032163, 0.5276491909587342, 0.5423403128729851, 0.8564952188781443, 0.5130918636582533, 0.5242066472892376, -0.6367594188973602, -0.46449596456610287, -0.13616223810375755, 0.43508824453007494, -0.025797826901183707, -0.4532694456419373, -0.06740210349123424, 0.6222099572256931, -0.6075260863436859, -0.047047664561052985, -0.7103778741202962, -0.9230988828799215, 0.3877665645735748, 0.1262291519785853, -0.25657130339965395, 0.2901889477124694, 0.025053299750194935, 0.43891451673323295, 0.05685528676123682, 0.7269051328233926, 0.3424999660481812, 1.0, -0.5200611757476076, 0.9999999999999992, -0.8820155895869778, -0.6380278087406486, 0.23643728136607833, -0.47438276942525903, -0.8494565049214043, -0.1767671328208166, -0.11230423346203235, 0.9999738997896929, -0.30687204798223056, -0.22511054990571996, -0.5227294489092478, -0.683012044268148, -0.43984000051696537, 1.0, 0.3284799015835951, -0.23415145405722462, -0.29201076491136657, 0.22651748596881485, -0.18892735281212697], [-0.22268311849408087, 0.11822899145438366, 0.164248035185478, -0.19588852818954286, -0.8083476623744736, 0.9162622072082652, 0.31905209941819657, -0.019967203209823432, 1.0, -0.8491570577493106, -0.289360208037856, 0.9191774098959378, -0.23751830001283125, -0.30560183617000497, 0.9003519246015275, -0.8636665699897842, -0.560007999481638, -0.2913594026498395, -0.19308037604608055, -0.7876983213660912, -0.06270055698480162, -0.7337304931729972, 0.8734324411716815, 0.7032916980029985, 0.44886221954450534, -0.3674149810072762, 0.45163275833602995, 0.6318568517950298, -0.3232784787212958, -0.4677383240781216, -0.6268498051538933, 0.22182293525542118, 0.9190741204127512, -0.573866993482663, 0.3416958458042975, 0.5952453117805419, 0.10273576689004901, -0.8610074262978111, 0.6702738189958928, -0.2810868129939767, 0.734906539586173, -0.9999999999999999, 0.8096959259155327, 0.4423302885336802, -0.694172382401827, 0.1086394296768857, 0.47535836281430127, 0.6014819214134917, 1.0, 0.16883350251576681, 0.7237128981944728, -0.6912983336583396, 0.538582359698522, 0.9999999933544325, 0.2711786505018258, -0.04813001980659688, -0.9999234361928139, -0.16924219272135219, 0.02840608498644199, 0.04921499679203729, -0.30359232371794315, -0.372901735126472, -0.7640249825428141, 0.7599424843211736, 0.33199941077929307, 0.43053786898337076, -0.29917667472513587, 0.3042818153634596, -0.5794704367736364, 0.9617542869299825, 0.8831607889522153, -0.897828121029733, 0.2576599350339098, 0.12704704889288868, -0.7205897042347739, 0.1862524291537174, -0.9215828897251858, -0.17549648833261822, -0.5467569440720721, 0.3079654729178942, -0.052982051741737334, 0.01651959363583036, 1.0, -0.21849469205571942], [0.9287924567705914, 0.6282455455304792, -0.7932577154426415, 0.4800677337872322, 0.8489293653740329, 0.1048540012922928, -0.8117774027502489, -0.4970452567345138, -0.7754005256983042, -0.7733506407847687, -0.8310040890812967, -0.25992587725623373, -0.013321539042394786, 0.5752023946289453, 0.35094152387862404, 0.5208148379341068, -0.724990819106286, 0.37307573121763066, 0.8506457186675204, 0.32025636859975665, 0.3967100071088995, -0.3094399822166839, -0.49748199734572013, 0.9999999999999997, -0.3590449731092225, -0.46643339849338283, 0.1817031536077262, 0.8075329574886337, 0.8588286134276768, 0.7380880362247565, 0.004181254183744727, 0.2610943724872201, -0.7908840185940837, 0.35331673840515987, 0.5607671683553748, 0.010700831878782421, 0.8477509459685869, 1.0, -0.048785947110935715, 0.9999999999999994, -0.48034930110490237, 0.7931246143997527, -0.5361052347826765, 0.9818163877008497, -0.10892649364683905, -1.0, 0.30867028533996316, -0.9249866533858443, 0.6853485008094788, -0.49120935987976355, -0.05049021129434173, -0.20279354946695594, 0.770510888250805, 0.8867710056808873, 0.15014437865773345, 0.08062360259728543, 0.7387338613631687, -0.9719487656431058, -0.4896856277984593, -0.3758343944105344, -0.010107399731616023, 0.7283369069309406, -0.7032970799752055, 0.8521026280306143, -0.540691652865848, -0.759933749323298, -0.8368457491593672, 0.2895858784904713, -0.6583360307494103, -0.2161827820001177, 0.5797083093309662, 0.4621473931492083, -0.4715826917218069, 0.09672870134388986, 0.2481782135883244, 0.9482827267555806, 0.3838792405500491, -0.3265442248279226, -0.5903748119239212, -0.1348441651105568, -0.16455447240331458, 0.4136130105938638, 0.13778451643590964, 0.28534730799289765], [-0.6927157055211032, 0.28978123156363333, -0.6532241559474095, 0.10249836972382324, 0.09510601299983759, -0.544312735977971, -0.33504040625891857, -0.040650388618672845, -0.18424065933961867, -0.9852653103655976, 0.3040883374235232, -0.1247445542695654, -0.7269123217655135, -0.7412060236484151, 0.42147548501834947, 0.7927478417749799, 0.15146626577686884, 0.7343774416447025, 0.49530438921808906, 0.4725720724307573, -0.38251265672031165, -0.40719479368951994, 0.4334070728550239, 0.7543555457119052, 0.4610076084597459, -0.1823147209102459, -0.2737740485372541, -0.4897990286748266, -0.43287557552624045, -0.28219693463220746, -0.6590458902973438, -0.4017173017195325, 0.3399760772961042, -0.9999999999999998, -0.7364202561566977, -0.812882511685723, -0.9999999999999999, -0.7742946628729644, -0.24132825546227257, -0.014096307961104587, -0.2502269812193595, 0.017748523822162895, 0.05287375528944049, 0.8071946066377808, -0.6452201739263127, -0.15743907855972047, -0.19085847125070696, -0.30701622851554144, 0.6799338303924356, 0.17658992564947848, 0.8663987788562248, -0.46119011279913236, -0.23402959633493936, -0.2865526816866114, -0.35002513380073985, 0.8461223530536128, 0.7657271063381197, 0.2387295248400289, 0.3696113355528857, -0.1573336576275613, 0.4959279100436228, 1.0, -0.5148872978192582, -0.9999367412873937, -0.08352488953355439, 0.2585235873670168, 0.01730811446813286, -0.5545726551999072, -0.6331220451293545, -0.8887690424597856, 0.10973852662634852, 0.28879697528538717, -0.4325629026007015, 0.7055687348893688, -0.8934474167355647, 0.4708474772478468, 0.4401407754217567, -0.7578898796376428, -0.20319053462682532, -0.2148752458142746, -0.7929843634352038, -0.3750869813526829, 0.4425102672669517, -0.9322371491876302], [-0.8240274343727508, 0.19740411303920993, 0.066191007477236, 0.7989233708025754, 0.1736401808410498, 0.08736161529460641, 0.5909905295784276, 0.2714944681380676, -0.20674376774928666, -0.35003771793329147, 0.2732874497746083, -0.6690608865567947, 0.9688150549849945, 0.2725982328554271, -0.25336038053831256, 0.7089968246381698, -0.4204467950170545, 0.18656317346801038, 0.6574197156849446, 0.4963340469564434, -0.006896206983567908, 0.4172733334779283, 0.31645747707752553, -0.12717006828104863, -0.9992131488977842, -0.369170517092905, -0.8479757753212762, -0.12295051586802211, -0.6342352700018503, -0.3692243538654897, 0.8092382006267811, -0.5788299250368074, 0.7662152060981774, -0.3409029339995414, -0.5277791789569789, -0.9718242901242505, 0.6003297406924244, 0.41225974036000607, -0.6999440143258201, 0.8633566320657058, -0.8138766768643885, -0.22164942875166493, 0.5789395740579986, -0.5409035547059562, -0.8963495782557263, 0.16574025120977653, -0.6352981418282491, -0.1746342558038147, 0.6949498205493095, -1.0, -0.6212065771992576, 0.2635028264991214, 0.7286490409679052, 0.12624138918761219, -0.06112745751844456, 0.3188912356020847, -0.21378266540652036, -0.7175595131023581, 0.2723074036538708, 0.9850636148310599, -0.24938632464064772, 0.22212604414064516, -0.04373486186207229, 0.37225219219361333, -0.46502339554978167, 0.6657646722057192, 0.5645901580249973, -0.48024072930300876, 0.9997757429642238, 0.89365583359066, -0.9600190184794721, -0.997637755906512, 0.2714430898496145, 0.3697391842016161, 0.818788031108692, 0.0830794748665493, 0.6646391169791752, -0.1699571002305545, -0.37850580938038636, 0.7629116329286588, 0.37473100044921737, 0.32379407805141436, 0.49505954511597816, -1.0], [-0.10594109073176944, -0.3363977048622707, 1.0, 0.6576621945848318, -0.8925546988969809, 0.6348507048257924, -0.8932055262311139, 0.19720203253756946, -0.23803224648381105, 0.32150685031788817, 0.6614741365405236, -0.38330953866663786, -0.8989515200184944, -0.1674715177301839, 0.25234629271481035, 0.0469737527348358, -0.7493377703624511, 0.05806164509901795, 0.9451580073797956, -0.9997684568178331, 0.46311731794144106, -0.4914487436756528, -0.7357819280885988, 0.5015044189209374, -0.7727321417736844, -0.03792848683819948, -0.9675401058404313, -0.1430699504509102, -0.2883217334393794, -0.13975670469311963, -0.5059101644606875, 0.1264170394350874, 0.9530482764881992, 0.7743727482651164, -0.4752733773797053, 0.7644348355882696, -0.6134021817836276, -0.9416319079419846, -0.767070349968345, 0.6571634818385634, 0.5833400089591012, 0.16170310479619718, -0.7887262597575055, 0.9424636348606632, 1.0, 0.4036479159551646, -0.5237999027423709, -0.4374049926966116, 0.7766065292504124, -0.04959603733354559, 0.6577564371625434, -0.2717555655941372, -1.0, -0.991891880569077, -0.24105738539572422, 0.688638794132777, -0.25323907921128114, 0.4114979153823938, -0.10634559628825598, -0.01554691174954544, 0.6303521024747294, -0.27975389753517643, -0.020463130301916453, 0.457669686187357, 0.048685210457361815, -0.11470292665378912, -0.5080155051960955, -0.4379934232616356, -0.5721255891001048, -0.4776479360800066, -0.11376884674203502, 0.45291643657729025, -0.37458179627819077, -0.742616047519896, 0.6197729964863804, 0.37715856459031033, -0.19761880119299965, -0.2760472836869071, 0.3539073832281009, 0.7714802563133033, 0.5524325637267833, 0.4784585667016925, -0.951837521964163, 0.7654755500302123], [0.7708611564868784, 0.48140868353407884, -0.8291023702323519, 0.9414125082978927, 0.16152670717010065, -0.34794142504003506, 0.8060363487085218, -0.5609166621160342, 0.31550287242873976, -0.4430153019300666, 0.7112214510361012, 0.6679680084831762, 0.2840319000765685, -0.1400409794062283, 0.4704182613849719, -0.7926274645036476, -0.5420252522582797, -0.866034850094461, 0.06226928481231817, -0.5407100926640237, -0.8898530324220223, -0.2564940668635899, -0.9930279540870558, -0.17742400419033422, -0.5945276794604518, 0.7882140525095924, 0.45937238446672934, 0.3299762242297099, -0.9512047068850922, -0.8661741994356429, 0.9351660911500426, -0.7920558856756278, -0.43224557028943633, 0.36232747896630735, 0.10746172875317501, 0.01618908224962223, -0.7876792365321322, -0.7191088317276161, -0.02271038624106552, -0.4778808957992475, -0.6727345029995659, -0.19723425248290746, 0.23608262712904787, -0.27859609665587287, -0.8628422668536545, 0.5135540077261875, 0.053621864958386854, -0.1086041029441394, 0.6680485981999388, 0.26543314399415513, 0.5943715189950063, -0.3903939443296464, -0.6547488206177517, -0.7103742991889497, 0.4023422497943886, 0.008205340293061551, 0.6196637516656688, 0.2279323601841146, -0.6768520065665089, 0.06230243832697242, -0.5840580825695307, -0.2863779615830866, 0.44835808234555813, -0.5131052030695592, -0.8921788046186461, -0.7003758773525663, -0.6419787710116336, -0.44251366355378374, -0.16098341662146587, 0.788225289404451, 0.14100806794033693, 0.6883477993522005, -0.4687807114467644, 0.057398058554915324, 0.8706346996946721, -0.2533205690897147, -0.08990284351783281, -0.8887810534386461, -0.9738498117809001, 0.6085808146368772, 0.7047148740915327, -0.8060633469557471, -0.4560415196476862, 0.3474366664428451]], "w2": [[0.22980510464672074, -0.9825983706853861, -0.36656247471458536, -0.4668186938712325, -0.3181740077395842, 0.16377391523352708, 0.2774930521851134, 0.27528556411342336, -0.7385575131258066], [-0.855671582489992, 0.8599829638903151, -0.6609734078619381, -0.5283676474903236, -0.36171843807348064, 0.4777043959046528, 0.390842818211941, -0.4103786654429697, -0.2117528441044141], [-0.325886121573722, 0.8154212036804342, -0.8142440236251979, 0.47570735950889836, -0.8286962124791311, 0.9563980807800408, 0.168912009300492, 0.45845074631214944, 0.2260927238888144], [0.2497579717665654, 0.3182890356793419, -0.1636303213906587, -0.33504506205371726, 0.9842062101844005, -0.5843218036640941, -0.32746142952072577, -0.34537570634754433, 0.2530555627008181], [0.898734509147301, 0.9666161592765781, -0.6959815589808578, 1.0, -0.1436494215209882, 0.5007694194499162, -0.11197360999021924, 0.8974558741957309, -1.0], [0.27936873855218225, -0.13089747021608228, 0.5112500198939716, 0.07458006019994527, -0.9517729126072844, -0.3027131191735365, 0.8132996258335747, 0.47478766225103364, -0.7934769925910096], [-0.8939188392044318, -0.1012302024139006, -0.09181443025182695, -0.035894044176005065, -0.37185444918058325, -0.8520587677876849, 0.9667001426783307, 0.4083203148648679, -0.5144146382873647]], "b1": [[-0.20686974767114005], [0.15458562561057398], [0.25610215554344345], [-0.2931828778310736], [-0.16827343373472653], [-0.665885681866195], [0.6509798747326639], [-0.2671061711587036], [0.1886580914792626]], "b2": [[-0.5713472151261884], [-0.6681493622191156], [-0.4098688975511669], [0.41189368651208874], [-0.861817129739904], [-0.5640713409666371], [-0.6270758914988203]], "fitness": 2821.0, "best_pos": 8.0, "best_status": "small", "score": 1300.0}