{"w1": [[-0.8470809061124372, 0.6945522753638806, -0.07183618890229922, 0.6114735862223951, -0.40030385181256184, 0.7948403878402206, -0.8855285322430119, -0.4921875726878314, -0.7073409028849182, 0.09468940527629408, 0.010924803613632544, -0.4715528454951056, 0.1035338352843436, -0.9999997890750544, -0.22034129644314138, 0.3715671645197981, -0.2843859378441993, -0.794185516262375, 0.05302915485564681, -0.9999999999999999, -0.822248250310569, 0.8993868089239855, -0.1802086670556826, 0.08490322995832296, -0.29183773442954863, 0.9864864238708501, 0.5812909689347225, 0.6074116496544588, -0.25654221653658377, 0.08584343047811512, -0.7121596353415819, 0.40162425567343535, -0.3894308289621549, -0.08075055971226748, 0.4577562444344875, -0.9537888461208843, -0.505197416246237, 0.6093451419317112, 0.31893104523625326, -0.96992830796723, 0.8454729340448344, 0.6376491326365408, -0.3394384088560497, -0.4979076552118091, -0.3177887437374728, 0.21645951184288484, 0.01348196141718798, -0.2119195994773142, 0.1300530188135233, 0.11001624747377338, -0.3584371538221956, -0.9721907632086981, 0.7943481821993112, 0.5115281267189655, -0.7717352621174108, -0.849990862485168, -0.36517104460595956, 0.9993362742996938, 0.5396409056222918, -0.06433961924882896, -0.18308523269212984, 0.2856719525169241, 0.14439612882545516, 0.0387397449244706, -0.3273840172973498, -0.23787989696925763, 0.280055659906609, 0.581809925657957, 0.25238326953239837, 0.7037396904291392, -0.6800749723845955, -0.6465902820217265, -0.9883843006995604, 0.09753545409673985, -0.9253514035045387, -0.9997385530168353, 0.12855601965479016, -0.8238801851058345, 0.7075201461944006, -0.12503904363324486, -0.15314285389557591, 0.11800688197464693, 0.44919313541568073, -0.5379049851162808], [-0.3404528451191878, -0.5694848199452207, 0.18688055433044493, -1.0, 0.6575573891586896, 0.9513309712448111, -0.3296306215488603, -0.663387245063062, -0.6786026233244697, 1.0, -0.046168479405183815, 0.8899170366368419, -0.4243234216867765, 0.6457908180793426, -0.24672423550129663, -0.10851873273190801, -0.3615319927409124, 0.4616323889920379, -0.7698827474440111, -0.47503803571004954, -0.24352530744928538, -0.27598358603673895, -0.21318637230799573, -0.360803475447119, -0.7504234705977295, -0.7838585407298784, 0.5644652951257245, -0.09431884141570597, 0.019019951755645637, -0.08807408739963997, -0.026737449633980816, -0.487300474079884, 0.39824570179087515, 0.4214887442600429, -0.923074357778358, 0.031175231221952027, -0.6308993418998539, 0.03292846796942484, 0.588860721566984, -0.09616731519745521, 0.8462408511321997, 0.5936232397886675, 0.9190925151291384, -0.5233840789932424, 0.13705067029980883, -0.35473323315232214, -0.8511133275493505, -0.7650554360338176, 0.8385897743211898, 0.670115114262486, 0.8847818592801356, -0.8135478677547876, -0.7541951097686908, -0.2945769696605155, 0.5516474702096641, -0.3320582053537127, -0.23476120002024026, 0.24392290606811923, 0.5015953638610325, 0.2541579911577016, 0.2785856118636864, -0.9288063888820851, 0.3997215665029965, 0.00026942574088398204, -0.9999999999999997, -0.15345918510640066, -0.9441097138747316, -0.7061842271089025, 0.1440329586718553, 0.4954708955083986, -0.4806538391629491, -0.48624968713826744, 0.08187532745168329, 0.31173535680519887, 0.7459091524213279, -0.6238605832840988, 0.10497701610721201, 0.7968360017485402, -0.35574604573275714, -0.5955064021705484, 0.7577552821041191, 0.4420885294057817, 0.32844524812802534, 0.5075485414125207], [-0.6506737859049747, 0.05754194169095424, 0.6475021044359488, 0.715078018983505, 0.3893576816982251, -0.9903535286135571, 0.3922744964737182, -0.2983145077237795, -0.5668051877527897, -0.9998784651776166, -0.9216658364827244, -0.8334779369639143, -0.4656647778038964, -0.552743368487824, -0.9999355937435092, -0.7084075029481997, -0.252782807536974, -0.5091168124590347, 0.4532213997629104, -0.6225275978560564, -0.25316481776468136, 0.317534218074557, -0.5460778003192894, 0.3356989829391888, -0.9999999999999999, -0.8623332301495793, -0.6401918561494325, -0.7534060769256044, 0.06555692594097025, -0.9020772924392111, 0.718898679851703, 0.4728244819000061, 0.8085792184725578, -0.23589448390281617, -0.07268170482668981, 0.36747158470684876, 0.527648397384934, 0.5419476595930662, 0.8564952188781443, 0.5127652590344973, 0.5242066455364797, -0.6363489963895844, -0.46428706600300923, -0.13151596946464453, 0.43508824464034995, -0.025797826901183707, -0.4532694456419373, -0.06740546607220176, 0.6223471086538742, -0.607526086343686, -0.04704766456105299, -0.7103778741202963, -0.9230988826288344, 0.38756332397998305, 0.12622915403600124, -0.2569056302583253, 0.2901889477124694, 0.11339862894641534, 0.438981870781899, 0.05710058278765626, 0.7269051328233925, 0.3435281264619074, 0.9999999999999999, -0.5200611757476075, 1.0, -0.8820155895869778, -0.6380266518614784, 0.2178617612102152, -0.47447575631246497, -0.849472900334192, -0.17950341620537277, -0.11336961241206703, 0.9999739295953245, -0.30687204798223056, -0.19786148065565046, -0.5226353831371281, -0.6830113343971023, -0.4398400005169654, 0.884953221503232, 0.3284218443772886, -0.23415192292779863, -0.29201076491136657, 0.22651748596881485, -0.18892230599751805], [-0.2226831184940809, 0.11874087157988555, 0.16430107082027318, -0.19701676824987802, -0.8083476623744736, 0.9162609877475397, 0.3190520994181965, -0.01996720320982343, 1.0, -0.8491570577493105, -0.17411752532726976, 0.9191774098959378, -0.23736217367827947, -0.30560183617000497, 0.900353464112872, -0.8636665699897844, -0.560007999481638, -0.29135940264983956, -0.19308037604608055, -0.7878999460072847, -0.06270055698480162, -0.9102928512939011, 0.8734324411716816, 0.7032916980029985, 0.4488622195445053, -0.36741498100727615, 0.45163275833602995, 0.6318568517950298, -0.3232784787212958, -0.46773831501332047, -0.6268498051538933, 0.2218229352554212, 0.9999927134559264, -0.503076901668102, 0.3416958458042975, 0.5953488101510328, 0.10172699577509643, -0.861007429649421, 0.6702738189958928, -0.2810868129939767, 0.7349070461315886, -1.0, 0.8096959259155327, 0.4423307693708667, -0.6941723824018271, 0.10864205092014394, 0.4753583628143012, 0.6014819214134917, 0.9999999999999999, 0.16883350251576681, 0.7237128981944728, -0.6912983336583396, 0.5385823596985221, 0.9999999933544338, 0.2711786370567723, -0.050168844558481494, -0.9999234361928139, -0.17019060933743888, 0.1567629484414208, 0.5510673025859478, -0.3035922633843957, -0.372973584674307, -0.7642036189747798, 0.759942551152046, 0.3325582881519135, 0.43053777420481093, -0.6627400260055512, 0.30430995575301284, -0.5794704367736364, 0.9617546982327777, 0.883153484698732, -0.8969673656798378, 0.16226297370468798, 0.12719462809401844, -0.7204752035824241, 0.18616913936396792, -0.9234020746754857, -0.17622478262962546, -0.5467501232410026, 0.30796268019786166, -0.052982051741737334, 0.01651959845753174, 1.0, -0.218861073559198], [0.9287928251356895, 0.6268785038910804, -0.7938110589922069, 0.4800677337872323, 0.848929365374033, 0.10485400129229279, -0.8114763066232954, -0.4980808748703909, -0.8386079695399041, -0.7733506407847687, -0.8310040890812966, -0.259832997849434, -0.013321539042394786, 0.5752023946289453, 0.3509415238786241, 0.5208148379341068, -0.7273756503487316, 0.3730757312176307, 0.8506457186675204, 0.323361979416394, 0.3967100071088995, -0.30943998221668395, -0.4974819973457201, 0.9999999999999997, -0.3590499925582203, -0.4664333984933828, 0.1817034274491169, 0.8075338867149972, 0.858682141343878, 0.7380896698071504, -0.10283191590858407, 0.2610943724872201, -0.7908840185940836, 0.35331673840515987, 0.5607671432728244, 0.010210917885398508, 0.847756391950635, 1.0, -0.04878594711093572, 0.9999999999999993, -0.6284221389096023, 0.7931422115228397, -0.5350935661394547, 0.9818163877008497, -0.10892873177595704, -1.0, 0.11631641961850295, -0.925031409125202, 0.6853485008094787, -0.49120935987976355, -0.050490211294341746, -0.33176542208772547, 0.7705108882508052, 0.8867710056808873, 0.14965407586897528, 0.08062785526284637, 0.7387338613631687, -0.9719487656431058, -0.48968166437052896, -0.37583439441053434, -0.010107408901292393, 0.728721410787945, -0.5163824704448615, 0.8520656900539725, -0.540677126474645, -0.759933749323298, -0.8368457491593673, 0.2899142203153988, -0.6583360307494102, -0.2161827820001177, 0.5806035865869544, 0.4621473931492083, -0.47158269172180683, 0.0967286976815724, 0.24817690019846353, 0.8971345308886054, 0.3828599948199939, -0.3265437694891435, -0.5516267141988732, -0.13485183646333812, -0.16455447240331458, 0.4136119208524911, 0.13778451643590964, -0.11379652143978893], [-0.7775040984573959, 0.289971631564387, -0.6532241559474095, 0.10249268951396545, 0.09510601299983759, -0.5443123432960036, -0.33504040625891857, -0.04065038861867284, -0.18424065933961867, -0.9852652655560802, 0.3040883374235232, -0.12474034968749043, -0.4394297927631437, -0.7412060236484153, 0.4216111953768439, 0.7927478417749799, 0.15146626577686884, 0.7350965828719065, 0.4961658594812673, 0.4725720724307573, -0.38222525362326404, -0.4071947936895199, 0.43340707285502383, 0.7542703764421625, 0.4610076084639121, -0.18232771350973953, -0.2740812100048384, -0.4907665391976981, -0.43366361566059025, -0.282191869302777, -0.6590458902973438, -0.40189585292614, 0.33997607729610424, -0.9999999999999999, -0.7069667211641785, -0.8128825116857231, -0.999995938692317, -0.7743035250013572, -0.24132786828536315, -0.014096307961104585, -0.24844551171662488, -0.17423153056360302, 0.05287375528944048, 0.8070744734616155, -0.6453054692334753, -0.5595923727950695, -0.1896328786438648, -0.30701622851554144, 0.6799338289530147, 0.12800390329915884, 0.8663987788562251, -0.4611901127991323, -0.23402959633493936, -0.28655268541943935, -0.3501124926645548, 0.8465416221724567, 0.7665250612585334, 0.23873083804937656, 0.22057014318477847, -0.15383146159425087, 0.38340911181652043, 0.9999999999999998, -0.5148787253660791, -0.9999367412873937, -0.0835248895335544, 0.25852252772440415, 0.016639972556428833, -0.5545726551999072, -0.6345686971859883, -0.8887690424597856, 0.10973852662634852, 0.28879697528538717, -0.43256291091246585, 0.7055687348893688, -0.8934474167355646, 0.4708474772478468, 0.4401407754217567, -0.7578898796376428, -0.2031905346268253, -0.21487790159696538, -0.7950090852961835, -0.3750869813526829, 0.4425102672669517, -0.9322371506770336], [-0.8240274343727508, 0.19740411303920993, 0.066191007477236, 0.7989233708025755, 0.17364147454631715, 0.08736161529460641, 0.5909899691647129, 0.27149446813806755, -0.20674376774928668, -0.3498425061427132, 0.2742246072055278, -0.6666996287093321, 0.9688150549849947, 0.27358392909860396, -0.2547643676979449, 0.7089963507115024, -0.7445736768985924, 0.512872168871767, 0.6574197156849448, 0.4963684612092099, -0.006888377938311817, 0.41727334082928763, 0.7892561589443431, -0.12695692280904453, -0.9992128724874113, -0.369170517092905, -0.8482240890242351, -0.11976019167613891, -0.7533289815021674, -0.36144396813046903, 0.8092382006267812, -0.5788299250368073, 0.7659848542467154, -0.34032439437998824, -0.5277791789569789, -0.9718242901242505, 0.6003297406924244, 0.412259740360006, -0.699486786152127, 0.8633591559516357, -0.8138766768643885, -0.2212383238496728, 0.5789395328832829, -0.5409035434146596, -1.0, 0.1657402512097765, -0.6352316403884913, -0.17463425580381467, 0.5480287681562035, -1.0, -0.6212065771992576, 0.2635028264991214, 0.728536369548454, 0.12624292664924236, -0.06112714260311002, 0.3188912222910137, -0.21378266540652038, -0.7167892671044793, 0.2723070616088064, 0.9850636148310598, -0.2493863246406477, 0.22212665021882552, -0.04373486186207229, 0.3739586485580928, -0.4649614823764848, 0.6668608702714389, 0.5645901580249973, -0.48002073657457367, 0.9997721193583499, 0.89365583359066, -0.9600190184794721, -0.997637755906512, 0.27116273779063965, 0.3697391842016161, 0.8187330399393188, 0.08307947486654928, 0.6646391169791752, -0.1699571002305545, -0.38001692203419196, 0.7629120551506889, 0.4807277280476172, 0.32379407805141436, 0.49505954511597816, -0.9998490190729907], [-0.10594174608946301, -0.3336209206149865, 0.9999999999999999, 0.657672452486094, -0.7626995887697254, 0.6348507048257924, -0.5211967945783237, 0.1972020325375695, -0.23803224648381102, 0.32150685031788817, 0.6614667023163388, -0.38388125667728806, -0.8989515200184945, -0.16761426843901694, -0.03346617543152025, 0.046973752734835804, -0.749337770362451, 0.056513776884499864, 0.9451580255218518, -0.9997684568178331, 0.46311731794144106, -0.4914528763137067, -0.734829493326188, 0.5015044189209374, -0.7727321417736844, -0.037923352331243464, -1.0, -0.1430699504509102, -0.2842925350154945, 0.21107528201184753, -0.5059095888499674, 0.12663362700010103, 0.9530482764881993, 0.7743717524274987, -0.4752733773797053, 0.7644348355882697, -0.6136151562141281, -0.9416298873336237, -0.7652972829943611, 0.6571634818385634, 0.5833400089591012, 0.16170310575028002, -0.7887262641360345, 0.9432875487266692, 1.0, 0.40364791595516464, -0.5239043626307586, 0.026714951580978905, 0.7766065292504125, -0.055211929805850116, 0.6577443838266496, -0.2717555655941372, -1.0, -0.9926865747113884, -0.24105738539572422, 0.6886387941327768, -0.2565865341306576, 0.4109811443939304, -0.10634574796554545, -0.01554761178297963, 0.6303521024747294, -0.27975389753517643, -0.020463130301916453, 0.5009301485735398, 0.048685210457361815, -0.11429596259510763, -0.5076714927374131, -0.43799342326163565, -0.5740166162118202, -0.47764793608000666, -0.11376884674203502, 0.45260321051756447, -0.37458179627819077, -0.7426149280846241, 0.6197728471433259, 0.37715856459031033, -0.1970001715398518, -0.2760472836869071, 0.35388556248099423, 0.7704055068313256, 0.5524325637267833, 0.47823343867761764, -0.9518375219641632, 0.7654755495964514], [0.7708603649875156, 0.4083701068459247, -0.8291022735545542, 0.9414125082978926, 0.16152670717010065, -0.34779064754445976, 0.8060363487085218, -0.5586407920284486, 0.3146990723403547, -0.4430160486530154, 0.7112214754281728, 0.6679680084831762, 0.2840319000765685, -0.1400409794062283, 0.47027834082010916, -0.7929530632400241, -0.5420252522582795, -0.8660348500944609, 0.06226928481231817, -0.5399965987488629, -0.8898530271182323, -0.256494077466756, -0.9930279540870558, -0.17693503341303832, -0.5945276794604517, 0.7882140525095923, 0.4593723844667294, 0.29568877061026716, -0.9512047068850923, -0.8662135798962541, 0.8460210545411294, -0.7920558856756277, -0.428885367358942, 0.3623226695953924, 0.10775036312499243, 0.01616025885519212, -0.7876792365321322, -0.719108831727616, -0.02271038624106552, -0.478569250523091, -0.672734502999566, -0.18905608422739217, 0.23608262712904782, -0.27859609665587287, -0.8628422668536544, 0.5135540077261876, 0.053621864958386854, -0.1086041029441394, 0.7531471798528506, 0.2654331439941551, 0.5938866608809144, -0.3903939443296464, -0.6547488206177519, -0.7103744851403423, 0.4024749213817118, -0.09620948474676412, 0.6196619424911662, 0.22793236018411464, -0.6768520065665088, 0.06230243832697242, -0.5843808180537963, -0.28638579697294486, 0.4485101377051823, -0.2526623636612822, -0.8927698067942604, -0.700373816886331, -0.6419787710116335, -0.4402111115884128, -0.16098272071964462, 0.7882200901488581, 0.14100765171794388, 0.6883477993522006, -0.46878071144676436, 0.057398058554915324, 0.8704926877107657, -0.29265444247944866, -0.08990284351783283, -0.8887801727811785, -0.9736630367365046, 0.6085808146368772, 0.7047148740915327, -0.8060633469557472, -0.4560408548777012, 0.4861284147439885]], "w2": [[0.22985349021678916, -0.982598370685386, -0.36632440276547484, -0.46704814486626456, -0.31817400773958426, 0.16377391523352708, 0.27749219099701167, 0.27528556411342336, -0.7372003005535432], [-0.8556677227531766, 0.8599829638903151, -0.6609734108023924, -0.5283677199887578, -0.36171850767042124, 0.4777043959046527, 0.390842818211941, -0.4103767399119533, -0.21175284410441408], [-0.4675055218054656, 0.8152404689469983, -0.8142440236251979, 0.4757073595088984, -0.8275012442759114, 0.9563955018103423, 0.16891200930049202, 0.4584507463121495, 0.22680908999723573], [0.24975797176656542, 0.3191342437416968, -0.16421922516562137, -0.23439165604666384, 0.9842062101844004, -0.5843218036640941, -0.3266698741085137, -0.34584913409802703, 0.2530555627008181], [0.8989742679309597, 0.966616159276578, -0.696003486753519, 1.0, -0.14364942152098822, 0.50183229442728, -0.1109286624049712, 0.8974563016467679, -1.0], [0.2793864138028932, -0.2403019087787086, 0.8106881740493559, 0.07458006019994527, -0.9518118287814289, -0.3027131191735365, 0.8125723670208511, 0.47478716546214716, -0.7934769925910096], [-0.8939188392044318, -0.09875293699034916, -0.09181443025182695, -0.035873931888647806, -0.37185444918058325, -0.8520580904382971, 0.9666907710123928, 0.4361204767366272, -0.5137793178945999]], "b1": [[-0.20686974767114008], [0.15457276485330018], [0.25651664279819514], [-0.293123435002078], [-0.16827343373472653], [-0.6658856818661949], [0.6507044209626544], [-0.2671061711587036], [0.18865805653668852]], "b2": [[-0.5713472563913071], [-0.6681493622191156], [-0.40987831111015227], [0.4118936905227448], [-0.861817129739904], [-0.5640714932629853], [-0.626437011151318]], "fitness": 1248.0, "best_pos": 8.0, "best_status": "small", "score": 200.0}