{"w1": [[-0.19320477774142236, 0.6164861704321062, -0.06967742266536289, 0.382629782959729, -0.9541906193997223, 0.548201143166498, -0.8915138782606861, -0.4180583644006424, -0.6653807198919153, 0.13857929802435917, 0.1515183001883102, -0.9220191240919623, 0.5824065696470354, -0.9999999999999987, 0.164164591634759, 0.3894494803478492, -0.4425634357216299, -0.9999999999999897, 0.23868000832588815, -0.9971582797591035, -0.730625276514845, 1.0, -0.09882277397823695, -0.12474721775675131, -0.23169897768593153, 0.9999972029131089, 0.4063985753942148, 0.5900274503869364, -0.2545036244235606, 0.4115855108663793, -0.8222075718462227, 0.24124320765162208, 0.4548352900407122, 0.3048188546339456, 0.5026508174888578, -0.912527400327568, -0.6248464086988564, 0.903164626273899, -0.02096698449888616, -0.5333862380115327, 0.9291542219252178, -0.2625204733948108, 0.9999740649653079, -0.7709128490509559, -0.6567158243113881, 0.3570469854045945, 0.970186032597001, 0.568129852249114, 0.03138755046066981, 0.5330464482139846, -0.4687455576270664, -0.6208751920050395, 0.9997928281619091, 0.09237995395473142, 0.0747772984932325, -1.0, -0.17456467162244643, 0.9999999999934266, 0.6439215817531544, -0.3623150060750258, 0.6723399511752548, 0.5296074324188788, 0.24360885813745967, 0.38988378220338005, 0.20846007239270664, -0.410115658798826, 0.22026745833134115, 0.9999999999999994, -0.45293514038247795, 0.991374189113239, -0.962510898487498, -0.12349573237706325, -0.6431526887261151, -0.48202778098588434, -0.9999357382148031, -0.6461441255183277, -0.15600014359167483, 0.5740040062283518, 0.9359321289121315, -0.7874696160022255, -0.16671190191921814, -0.08248912289334977, 0.5465364594054286, -0.9997639414568013], [-0.23719112075129486, -0.9985412939517785, 0.9542877004209197, -0.6228736261675132, 0.8998125617428028, 0.5657934654806098, 0.5311209574987114, -0.537649274070502, -0.3031275502064969, 0.4578011884595619, -0.308058739205936, -0.5255001334715168, -0.6518451157714115, 0.4294227486962821, -0.550974740650614, -0.5584811539471901, -0.6590118467088651, 0.2515864508662298, -0.8607771482903497, -0.5427309652556004, -0.34853720910042557, -0.24838909451738625, 0.19702162166896345, 0.03938968500596984, -0.9997817463978462, -0.6553559882928857, 0.33316980477786634, 0.24501374502702233, 0.19143592215356128, 0.2803468055586794, 0.876476584137746, -0.7029276869502094, -0.08182512774865758, -0.28742723903901995, -0.8244346348354085, 0.5058597499755455, -1.0, 0.03626524091493138, 0.1829344422672498, -0.27484567454463377, 0.039580904881169734, 0.7816491304014005, 0.8239123837413926, 0.07109386144619151, -0.2041943754181645, -0.5348492572099802, -0.8153574764753013, -0.8617146633782778, 0.26784755353142703, 0.6656851589852689, 0.9993218215753013, -0.9999978203596795, -0.9999986912976998, 0.28796248012252196, 0.8577244625740513, -0.5678033202273397, 0.0009932663065743313, 0.4941560595261037, 0.011069932314096566, -0.33298598116099537, 0.14561592001941967, -0.9999806375700004, 0.894694877274034, -0.9624472420648237, -0.9999999999999981, -0.10240211169378281, -1.0, -0.9995239418014091, -0.3835016003376968, 0.8247005573328925, -0.652476729779058, -0.742621930783805, -0.01538558520803678, 0.13693415820817084, 0.7825964247353111, -0.9963046093525454, 0.49103100196812505, 0.028963808191441377, -0.9958213034855118, -0.9955690365415952, 0.9997415758371777, 0.09874188509035002, 0.044851479536917704, 0.7941476186971557], [-0.8407462476311498, 0.6316678563382183, 0.4211657571984442, 0.3506635395632149, 0.7802366920896181, 0.20785842223869583, 0.788345052065907, -0.5886845335248169, 0.12347717758739989, -0.6767896626233045, -0.6490829958642279, -0.643876889319167, -0.07706919024298657, -0.3947370255002567, -0.6944480374017212, 0.13531746823339047, -0.6638293307069199, -0.19395414710288836, 0.10161146778374655, -0.6783997523273194, -0.48742614303532306, 0.5941750405114262, 0.435513827127177, 0.9038021925834123, -0.8666296706540387, -0.8983891887958151, -0.750970027226687, -0.20108582797204594, 0.7303833010081727, -0.8667877211507083, -0.3195002877839224, 0.2830977194793579, 0.5462628488048188, 0.3981843746132685, -0.34158753806420517, 0.8750051424286207, 0.33165100911291634, 0.6369303198846434, 0.8611921426948306, 0.11854718303345682, 0.6311373106926502, -0.9982278810240167, -0.6123110745883421, -0.27655530840864045, 0.5831724657118241, -0.29341619591695295, -0.5700478235696917, -0.06453401660871093, 0.478368449562305, -0.5071750998296931, 0.5785412290082704, -0.9999999999999988, -0.16730144709910272, 0.41497459928249725, 0.28568854542150846, -0.0743060218580118, 0.6183798557644378, -0.23052183804969723, 0.7840680528235818, 0.0588391638418393, 0.14482600888918887, 0.15878582989368797, 0.7247136547639772, -0.645003632391135, 0.99958472105423, -0.4957919666097834, -0.7183977512606129, 0.20888712072053536, -0.9464803149897167, -0.9855052600148719, -0.5318179117181662, 0.7935871861637446, 0.9999994216660465, -0.6256646992794748, 0.23728334054418232, -0.7353267379787506, -0.5912571226890024, -0.7417240243489422, 0.49544640796979794, 0.4377764576980362, -0.45137249477422564, -0.21931716667854073, 0.8449159435647898, -0.9248809337022663], [-0.10232364313472365, 0.45694028893778016, -0.999999270473821, -0.5085044697318092, 0.9999999999999998, 0.9917292179792632, 0.276007592528319, 0.06220846011887726, 0.9502093521601874, -0.9999412769593454, 0.08456106192686182, 0.7963678501552487, 0.10975579437479686, -0.40567302356549195, 0.8541100438633775, -0.8981768577449034, -0.02307588257357939, -0.8628196124570513, 0.14095601585411754, -0.8996797014414262, -0.6624206514766674, -0.5432647201744473, 0.4889421263195532, 0.3209400660683599, 0.7594664116166429, -0.33856570382958284, 0.29260823515860196, 0.7884344083242916, -0.3021531517202207, -0.5268780414073045, -0.5935954454221486, 0.8424484358785757, 1.0, -0.12262243426235812, -0.49424039088844784, -0.20763803293176525, 0.036026181486752004, -0.978107761077287, 0.8421110936097066, -0.45339305845299643, -0.1574193307647223, -0.5104986724801305, 0.8532687230546406, 0.3311807001396664, -0.7639915329845146, 0.2756279499176829, 0.5530187469281325, 0.15002635477760778, 0.7393268890143889, -0.12433900279621027, 0.13858978011719908, -0.998141281498717, 0.582162664142646, 0.9999872355118339, 0.6063130773737225, -0.7035565115351274, -0.6396983268279227, -0.40603458070576964, -0.9383643323863353, -0.023057445988934496, 0.27713242962736157, 0.0850218529165726, -0.8856462670126849, 0.5147214073184451, 0.4305371310108745, 0.021922330630567075, -0.3584110905171634, 0.5319505624411669, -0.9297252840667637, 0.5735772374340491, 0.9999999999529753, -0.9990725888048975, 0.8047957911071031, -0.6627374618268282, -0.552009450747779, 0.19245681295806868, -0.6714839292212467, -0.8761407408762585, 0.3980086518836991, -0.4834916613342066, 0.2044846317403671, 0.37816529890586387, 0.6937669192923896, -0.9279333435466941], [0.5019330107308801, 1.0, -0.08788963678499082, 0.9999654342227475, 0.9740909237391062, 0.18599108678420662, -0.8648518580456152, -0.6740140680105782, -0.6023616939928488, -0.7730396315750971, -0.966111159720126, -0.30165073531289555, 0.6464899328630388, 0.1334863295070141, -0.3817049146710969, 0.46523952109583444, -0.9999908075412706, 0.07149565550352754, 0.6045530396570432, 0.2633472273662345, 0.36190250895349424, -0.1483979205751616, -0.8343578784939183, 0.9999999999999994, -0.19162088903920904, -0.5910063729127973, 0.32115649454752554, 0.5229774192242197, 0.7596022693612079, 0.7394778907935076, 0.9999148103789126, -0.13938859502758721, -0.462546594522872, 0.5628367505070686, 0.22419479843116252, -0.02155290522098313, 0.8397132895718952, 0.880754413191976, -0.14240145982638563, 0.66754667145938, -0.7705337065342962, 0.45279404644763266, -0.02766662139861441, 0.9995697004861095, -0.291863110747361, -0.5494995641891599, 0.5305609216348028, -0.5265414955823803, 0.5425110314862618, -0.5186736166507411, 0.5644440367646285, 0.11039076603187856, 0.4485253409994084, 0.7299792981100509, -0.1779781712781813, -0.5867265142184896, 0.6544346942649413, 0.44698956613207447, -0.037900640567907845, -0.9703670478442792, 0.29255577719727216, 0.6725634607621365, -0.32816500313246505, 0.9999932299632596, -0.5604334663722184, -0.79012475688545, 0.029722501740959244, 0.4022274919928888, -0.7160097780863379, -0.1517001933500666, 0.8862447730553799, 0.3102032061435927, -0.8059859783220513, -0.7873832308137994, 0.48721307591375174, 0.7622764897713943, 0.06494665810014293, -0.7167556115664929, -0.559226619191573, 0.2852893306509962, -0.6658887506200041, 0.3543023255178803, 0.7350774806732197, -0.4051763812287282], [-0.9999999727160155, -0.0145831527848958, -0.7959317396465283, -0.6692098908063308, -0.41856147766707397, -0.2574765884846904, -0.3974991440028982, 0.20249768656697298, -0.2807402951543792, -0.9874283538222154, 0.34537046020698753, 0.301460266589916, -0.8440075569584837, -0.34526776671025305, 0.5667647038290763, 0.9994662067460705, -0.16939807258830786, 0.6416246479962794, 0.688467119349754, 0.47572792943557385, -0.3201015596626164, -0.4586627847689544, 0.29941220821749714, 0.6610750917150817, 0.7179619818369398, 0.05095400619059029, -0.16550650577250484, -0.786462573063297, -0.2026197795811046, -0.08405183984122624, -1.0, -0.5074927517884792, 0.7670305192457454, -0.9986286924275607, -0.616106295489394, -0.48030293960094556, -0.6438070413836823, -0.40219969240751624, -0.6041743686292346, 0.3910243132556061, 0.21952003001446035, -0.9664687352034642, -0.6741028660955727, 0.8096225621368255, -0.5962379675026068, -0.22967474883937464, 0.07968774733883299, -0.11964238241908697, 0.687201390547302, 0.23754415190689962, 0.9956162168013937, -0.03512038251976211, -0.7463537511380254, -0.703811271068325, 0.1991830161903458, 0.9999999274825849, 0.32904276156605394, -0.33487153435205264, 0.5134740034661238, -0.21092367764415645, 0.48137976899299734, 0.5003158643475349, -0.49152619401528574, -0.9995668658284222, -0.998472752909957, -0.1282263537205589, 0.9772053557615292, -0.9999768056616304, -0.9994856627981404, -0.999935268994283, 0.2521276392126344, 0.3352118836144417, -0.8437224245427946, 0.9999999999999959, -0.8403467043060544, 0.48438721192966433, 0.1418273190379773, -0.8182910135421256, 0.38100516817567043, 0.4508070644460615, -0.9999999999999997, -0.18008162591869362, 0.41836040096904004, -0.6803035338412378], [-1.0, 0.5212946096244857, 0.33141845727136005, 0.8071897345361623, 0.026383198606624022, 0.10872726127924742, 0.7310284183758297, -0.183562801329841, 0.03557059338649431, -0.45952262778255004, 0.5179678927189665, 0.4867299951426542, 0.9999999999999999, 0.8781775261788112, -0.002512002712440026, 0.9999524300804197, -0.33450897336697927, -0.3387164210415847, 1.0, 0.938157845459624, -0.6058501125593327, -0.029240057512773344, -0.13374511288022087, -0.47588809022848316, -0.7894692804617918, 0.4862275139004223, -0.5946539429261766, -0.7858522768447166, -0.9950946862712788, -0.5833200370202793, 0.6146272734964835, -0.3485332181402416, 0.38747821275345345, -0.12143156118657263, -0.8125290812640446, -0.34776197110566615, 0.7883254498608013, 0.41496682654849226, -0.417469514476234, 0.7433332700190557, -0.9988131766856388, -0.45177715184252315, 0.9997422278105762, -0.5079707977278082, -0.9995326301813813, 0.572125861789657, -0.7766104873160714, -0.012677947093533332, 0.9989185820277235, -0.9999999999999992, -0.33817849935724137, 0.8916634172690721, 0.9310560196532883, -0.2690142787093258, 0.4347135821645923, 0.3702789595668528, -0.22087420969217988, -0.6704181479725995, 0.2623547477811979, 0.7295924378231589, -0.3988626166647858, -0.24928693974992294, 0.274678239480361, 0.09437824643285257, -0.789717465759304, 0.6111855786883744, 0.15709643299046142, 0.6167203706655682, 0.15971392429200296, 0.7600066302136659, -0.6256774828852778, -0.8957098368742008, 0.9999999999999998, 0.2737092773406351, 0.9004625507487736, 0.7022211839965047, 0.4621121459115489, -0.6765902933783089, -0.6469597643241654, 0.44025257158849, 0.6987297693159842, 0.09716666967995385, 0.8989596685326401, -0.8494645283141693], [-0.7041944837503128, -0.5714741420462836, 0.42667043267689686, 0.06573235596675835, -0.9998790609700083, 0.9124282336245211, -0.8937462777215206, 0.5997416938959272, -0.23212396266464425, -0.13793783955560404, 0.0798467134950628, -0.4312745065287198, -0.6993329125378538, 0.12812746899680755, 0.7827909108809977, 0.6270147336965067, -0.2732557689667787, -0.44499526560172126, 0.9994988866344646, -0.8601546863699081, 0.6138171376740118, -0.2427790406025043, -0.4742922599209688, 0.358399380581848, -0.40813147214173345, 0.19495500830817705, -0.7293191852971386, 0.07974695510070826, -0.6674930334627512, -0.8438859086845822, -0.9990967303155386, -0.8298314812603167, 0.9998856438455065, 0.36471489926203715, -0.9283391250267464, -0.3474787625035245, -0.5356542258486278, -0.9999999999999993, -0.946406128949717, 0.5240761644348356, 0.6595491163771051, -0.5603292955811966, -0.09655227825046517, 0.5107051258135946, 0.5591858014185181, 0.9967732952235556, 0.39481625191792574, -0.5493023893503711, 0.8797664552414582, -0.08338429811035677, 0.9980767503350152, -0.3338852690100713, -0.6052536729968616, -0.6246257754229052, 0.20592097008772153, 0.14437260521468556, -0.9996886103001469, 0.8191324572884257, 0.6842673593190134, -0.9993635083115708, 0.6865967969305244, -0.49544729468814, -0.16162701753468792, 0.9999981005365245, -0.3072574590092979, -0.9040336070572689, -0.934684530616288, 0.6470335889312151, -0.3392089834410249, -0.9999991546918505, -0.5710717875997795, -0.7382706283176256, 0.6944204159336392, -0.4700891860348245, 0.8782470429998094, 0.2017537065363829, 0.8561524862017033, -0.2203145521049017, 0.9593886949257796, 0.9490643380292972, 0.9999767070414348, 0.10404767749056423, -0.9999787853544058, 0.4152569221610072], [0.5826732850265517, 0.4180281697719746, -0.24512090883163415, 0.6977916238529833, 0.671977298360787, -0.19158339790946657, 0.5621103353592636, -0.7755290872523127, -0.13849445460932383, -0.8510515345289531, 0.9832922134735674, 0.946100696354776, -0.318407386795307, 0.3807531389573458, 0.6499527612895474, -1.0, -0.4259459170745125, -0.4668684792578905, 0.46799307852808514, -0.5329871909390117, -0.9989992865365248, -0.646720366857404, -0.8464164325627667, -0.976337641526757, -0.7538776697501304, 0.9190056041690479, 0.4830637667865171, -0.07862579239306344, -0.8716467909723024, -0.9994364213438202, 1.0, -0.774521878669792, -0.26869196596875333, 0.4763018706509431, 0.08770229173293169, 0.4048696176928306, -0.7854845155595196, -0.07852458387119997, 0.7945722378452788, -1.0, -0.9428494694776468, -0.26761112516218805, 0.583084044273096, -0.3249316022547241, -1.0, 0.8724918303737409, 0.061332824365789115, -0.1571224059489707, 0.9210000408013512, 0.636015487333418, 0.6554999068836681, -0.23904097262167334, -0.3637046314887385, -0.23589239073935328, 0.13957622348691107, 0.7861271055630407, 0.9999769760500816, 0.5367448984979905, -0.8542520820208591, 0.8390142496894595, -0.6922757893340256, 0.33601753436610143, 0.8608283937540163, -0.4789020230148547, -0.3568972763174555, -0.034713677503944274, -0.9997755535375313, -0.14433131458061782, 0.09558988681225276, 0.9999859592755201, 0.5565382680385772, 0.19704802514724026, -0.48468345805335805, -0.46784744772621195, 0.9996541227648466, -0.9126295260034621, -0.6501263911220759, -0.4597737707763047, -1.0, 0.633325947683482, 0.18030497927732272, -0.7974754762645601, -0.33917079749795137, 0.5767953439959211]], "w2": [[-0.5880440860855356, -0.667444046109933, -0.2836743740682786, -0.08168441185966348, -0.34532476307444554, 0.2248639904998393, -0.9996732846169686, -0.19400896494573283, -0.7215699742390059], [-0.7510995960553912, 0.9996840755699147, -0.7924391866633009, 0.19422469394259106, -0.6390172773965251, 0.3258033214992122, 0.9239926163978269, -0.40457772885850524, -0.28970824806370865], [-0.16997834261189823, 0.7013460473623839, -0.6988079797293358, -0.08124945257441049, -0.8321710901801336, 0.06560071218001995, 0.27453593376592805, 0.6791365996205363, 0.4383039710949711], [0.2196396661357008, -0.27243341703423146, 0.09252352851862562, -0.30179515791411266, 1.0, -0.5448451712469381, -0.7777303113345543, 0.02578021228222818, 0.3245572300359081], [0.9014502435047123, 0.19877471834107863, -0.4837270183186951, 0.9981048456852715, -0.2392677072541933, 0.9965864823136863, -0.05932950077034886, 0.9387720795127512, -0.9152026701053185], [0.41357666061237847, -0.45562997793444804, 0.7107029473257356, 0.19211149882186074, -0.9999912632324204, 0.5130707389217346, 0.7311219392650474, 0.3829390080946426, -0.8011903171366739], [-0.9999044895715978, 0.0907761793291332, -0.420493328933166, -0.3493066739698836, -0.010444058224720987, -0.6842340501242123, 0.9923316644727967, 0.3339595039062757, 0.20949766891723035]], "b1": [[-0.3150330019784531], [-0.5567088975104802], [0.8817672348596834], [-0.9968243396002591], [0.21024872802064037], [0.13186302972056538], [0.31319436947855306], [-0.34806319116773793], [0.12002319239957471]], "b2": [[-0.7270270289460492], [0.4252605316736223], [0.3255103975452799], [0.0685757340325495], [-0.6930925755788073], [-0.6406373572191346], [-0.9978900273924661]], "fitness": 1363.0, "best_pos": 8.0, "best_status": "small", "score": 200.0}