{"w1": [[-0.48332582417618847, 0.6644819086947974, -0.07478827393100142, 0.3826129393769097, -0.8461470854390275, 0.5487075816120461, -0.7630976861755185, -0.8260533227368018, -0.3980574277395734, 0.09589094868790765, -0.03335112881788799, -0.4647392371383041, 0.41455215780861143, -0.7387069795205579, 0.06832428849006254, 0.32355274797192096, -0.1833292013969709, -0.8948588808890906, 0.3311656711620949, -0.8380689913286785, -0.7791410834956249, 1.0, -0.05303500331640998, 0.2888257775561382, -0.3212379645979493, 0.881611800477649, 0.7237197531670372, 0.6094873739542835, -0.2544907948365512, 0.08622454406473969, -0.5060282178457901, 0.831563058634079, -0.3253211498657802, -0.1470194649917223, 0.5166760985070599, -0.600209147801405, -0.5782908928742319, 0.790814613956123, 0.42157475885432183, -0.5845073752306161, 0.8885825096244693, -0.048348528729695674, 0.7143977581316295, -0.8774338555313115, -0.5673638593928585, 0.45338778334235497, 0.999962015720395, -0.11694308579042552, 0.030071774828023416, 0.4176173135076912, -0.041181605414304295, -0.9999999999999999, 0.9371572600089015, -0.30800621870173384, -0.7719620685048292, -0.9999769063357056, -0.42289840806157897, 0.9998162713128909, 0.23653348078475586, -0.1784735794460365, -0.11214387022009287, 0.665755491429975, 0.05443683435013767, 0.3882673098809258, -0.28214932630117495, -1.0, 0.1770615846072046, 0.9964275464264142, -0.2556713175055427, 0.7629568284162477, -0.9242671742615485, -0.27673307115650364, -0.999838603202434, -0.24950686826559487, -0.7152857831629355, -0.9999999999999993, 0.022453434789560432, 0.19593668153131696, 0.8475732074313985, -0.3748375207103979, -0.1088981931887416, -0.14782227780869045, 0.7030699395697424, -0.49453125923604513], [-0.23082555056555262, -1.0, 0.6968251018634317, -0.7207043134035809, 0.9996761454191879, 0.7479730061195682, 0.5319598065934343, -0.7277481833780294, -0.4838683769507509, 0.6970022515282328, -0.44898274163151675, 0.3703785985847467, -0.7449296877329842, 0.38493191910522634, -0.08791701440543918, -0.5476790518333727, -0.5466903993226769, 0.3215378505620853, -0.6292759351544368, -0.9114933709974095, -0.21191285113007544, -0.252141591552814, 0.26526745617266917, 0.024925803080271914, -0.7777341850086448, -0.8339329027745936, 0.17497548655585343, -0.058129671848344486, 0.020982596266774477, 0.32588677621910855, 0.100777654077171, -0.2824539447185319, 0.021984452745254915, 0.03405672918326597, -0.9232744615336674, 0.08515856458948921, -1.0, 0.237845745161282, 0.9153177969985171, 0.09717652719963973, 0.4385029395931411, 0.9991038849655276, 0.6950419121471103, 0.038573939348889634, -0.5063543291502155, -0.49992791444249385, -0.9509274638808319, -0.9963361486361526, 0.5168358913554983, 0.7831981423179317, 0.9982725388077084, -0.9999999999999998, -0.7532195626355324, 0.1252787460127211, 0.6214981762716961, -0.6361682891401099, 0.19700169824463784, 0.2456507163908015, 0.18937559583273636, 0.05984492221285402, 0.6003012678493819, -0.9999928376271505, 0.5878916117707201, -0.18917072885077166, -0.9999999999998996, -0.27819885630731345, -0.9997859718817245, -0.7095625474070308, 0.06700356688934406, 0.45654168766101577, -0.9997951633309411, -0.7069821245599323, 0.04595093373466467, 0.4323514242159243, 0.855888491589248, -0.9995738997598211, -0.01803661547064164, 0.623637725094964, -0.999999999983245, -0.9890272053849505, 0.7608374423619512, 0.28434942517300915, -0.14139663586761983, 0.8758399329652997], [-0.978665986362039, 0.6584841422924143, 0.6474557008715002, 0.35123559437176166, 0.39509419176574095, 0.04751705584552151, 0.7889567657153299, -0.42285049308419936, -0.35217759061048864, -1.0, -1.0, -0.9411503483578744, -0.3076057401987076, -0.6988156258150048, -0.856261899495882, -0.616273774748618, -0.27030284976198476, -0.1899822871672495, 0.21461805003506926, -0.35425127512938986, -0.5791893132894985, 0.7413620611654759, 0.15437024135746255, 0.6287260573115332, -0.9963321825945879, -0.7946059063420644, -0.7169271762976029, -0.7463514147862044, 0.998928991420133, -0.8642967156624577, 0.17894400242467032, 0.4880268474916361, 0.6763718519187119, -0.02263960477192561, -0.19067750238788242, 0.7797880554963809, 0.527771231867297, 0.5361711130845935, 0.938053695932126, 0.11965705885336513, 0.5239363035363899, -0.9994155521236413, -0.5929107492468731, -0.4548913363136946, 0.27454906752161934, 0.19248769126749238, -0.5725389832114878, -0.2441005555470745, 0.11339082983776945, -0.28706701241185134, -0.21636773465368314, -0.70846462821862, -0.7437133121061191, 0.41693570936276997, 0.5552196102200295, -0.6149025095267524, 0.5301670969728095, -0.3810509864475828, 0.6009922146489104, -0.3029612188557796, 0.6354417813264724, 0.2870429810731965, 0.8255715793255616, -0.369783855633195, 0.877930574503389, -0.882742630219961, -0.7191897513762759, 0.1409692191423289, -0.8625599915455706, -0.8249642884492897, -0.40904518746655877, 0.6172095614155122, 0.9999969631555731, -0.6724085232917777, 0.5863681631463495, -0.5383941394746369, -0.5922227558399155, -0.4004083736136132, 0.5673935780309027, 0.6617425148974921, -0.41151182767061106, 0.05143229278347229, 0.6542747780476394, -0.9999998670318481], [-0.09292569954473895, 0.32439660028304174, -0.2834776758024746, -0.1914958374554529, 0.20836688521187594, 1.0, 0.2751054698486249, 0.0625365535924312, 1.0, -0.999989119083303, 0.0029292993203949213, 0.7962927831274497, -0.24332510788551817, -0.09087676150451297, 0.8537789121540932, -0.838387698866705, -0.5103342204298573, -0.542063588034184, -0.10390195969350319, -0.7397242577516407, -0.23341873254188425, -0.6436322239648786, 0.49271291655979915, 0.456015053210388, 0.4485993253474198, -0.33856712644390996, -0.1171386929045723, 0.8707595209327997, -0.3018113788990122, -0.6684372905431676, -0.8017796073912952, 0.6134222847563623, 0.9916194144750785, -0.4805996282573624, -0.17893135649230593, 0.86032728640032, -0.04906889376945562, -0.9020879362066194, 0.8418554122317644, -0.4499730829888103, 0.1299903515680817, -0.9999938205526985, 0.8011204709062413, 0.41124355220348163, -0.7512634415947018, 0.23474075582330658, 0.6775083680366829, 0.7853966920294908, 0.6477534764759061, -0.05741585753904751, 0.2633035456532298, -0.9102595098090673, 0.5827384778047182, 0.9999822170596961, 0.4438784692589072, -0.7056971265190853, -0.8337829058408534, 0.360424641129606, -0.4242104114051076, -0.1858304478862084, -0.061112432969928625, -0.19290006026987827, -0.644771915496583, 0.6316990344080275, 0.5304558601474579, 0.42996856336368505, -0.21079919976410097, 0.5325920330126986, -0.4565426356794953, 0.5612807921519632, 0.7957631666126698, -0.9976585259400552, 0.01988295326924348, -0.576715018439917, -0.8477805532091887, 0.030623007689846736, -0.23138869064947762, -0.7833877440025536, -0.37912405772309044, -0.1315452510495483, 0.32196615820728236, -0.1536943138178048, 0.9032012288357067, -0.4537567684162245], [0.929925364486955, 0.8948540771781617, -0.8733162954353682, 0.39222072979876305, 0.9090950876005306, 0.18610394300215957, -0.9999999999999996, -0.5974554117796121, -0.6383579850068863, -0.7724045535308431, -0.8064036293966425, -0.20028589083775528, 0.5605194530002684, 0.11080048180559217, -0.7482890733574764, 0.40870937023026593, -0.8998494380436288, 0.24041593183753993, 0.4262160327707112, 0.18898017758029517, 0.3179335693725667, -0.2966796658820626, -0.9552242072005493, 0.9594143514819887, -0.19162161751697238, -0.46657664242371716, 0.13622655465954325, 0.38810030873762547, 0.8588630584016934, 0.695092021202314, 0.6082636045271195, -0.13822237740746224, -0.4948445773971931, 0.41345021786649655, 0.25303935610846096, -0.04342678668518472, 0.7296259755495915, 0.5994220757126711, -0.008749941996023759, 0.7162366213639849, -0.8365354088758321, 0.9997553321338016, -0.03062898660614987, 0.8685394444933056, -0.3243779338710069, -0.8924870485351915, 0.21213029745893688, -0.8578324854711311, 0.5396998196666893, -0.48105663148110367, -0.04554729891804823, -0.024190698057963443, 0.4456993865396922, 0.9999999999999994, -0.011501483206092468, -0.017311075905526867, 0.5470832117041252, -0.4558797562954944, -0.1807506148274922, -0.3046052132982399, -0.3297732366045974, 0.6751646568416662, -0.7059387554571214, 1.0, -0.6547118511376723, -0.5446447668410785, -0.056654388869627495, 0.2892888742270382, -0.6313209569055114, 0.2702193255523776, 0.328885032088342, 0.32026016805222296, -0.8092880940962477, -0.9468726098489282, 0.48690647954835664, 0.6892258768749647, 0.00658079250250014, -0.47558018001870495, -0.48535378666090484, 0.05987965673503285, -0.3800710908078996, 0.5285432761529247, 0.13777553390816358, 0.2663825475587162], [-0.9994022672123801, 0.09261317871453659, -0.9974888212802733, -0.6334182559375676, -0.19496880386581544, -0.25997721651143313, -0.34122459842403613, -0.18954076494731084, -0.18438199376168543, -0.9978499803301736, 0.34553472511259076, 0.14466491268491666, -0.8618757301759736, -0.4938723339021314, 0.5798173681453286, 0.9998567587722516, 0.08175150082700013, 0.728038813370907, 0.55603756339153, 1.0, -0.24526771747442816, -0.46050737982512885, 0.27496761122646085, 0.7073138931811522, 0.7010031095586815, 0.08094471721859466, -0.2805897082036344, -0.3407006403775082, -0.29567818752138625, -0.30751578320878564, -0.6319806042684537, -0.41834961163943557, 0.6693565406067, -0.9768403713258186, -0.9752987565666393, -0.8581234474795038, -0.34411023267357177, -1.0, -0.4979825503528026, 0.1903163234321909, 0.2899801281066884, -0.7264862468169262, -0.47528537356117967, 0.9080953329756811, -0.74513081195375, -0.4785675819033575, -0.1889806412290384, 0.19618932091733451, 0.6209438567256013, -0.013205888683157007, 0.7758158875710719, -0.29363111966130473, -0.2405835695669514, -0.9641203405808599, -0.08649736513597468, 0.9999999999999994, 0.7336308262026532, 0.6022281782527666, 0.19448253378008012, -0.35504146269926434, 0.5238908403377881, 0.9945796975131781, -0.5803748764437117, -1.0, -0.6025972323761815, 0.0777815074566293, 0.5956209407127139, -0.6127947473662043, -0.7799251020281945, -0.9999267100790665, 0.11443192738599312, 0.519640089537914, -0.6608288375114604, 0.9999999999999994, -0.8159160225036439, 0.3884049922320375, 0.10557931008697215, -0.9401940900294116, 0.4074642914769577, 0.13732140405629345, -0.6104369538419462, -0.26341985173493127, 0.5453867832371627, -1.0], [-0.9999999999999999, 0.2808890359740312, 0.026171255602459215, 0.7993609466931328, 0.05538692888639456, 0.07281746249998121, 0.40610337049834233, -0.20156727411319683, -0.205551203247786, -0.622290297439432, 0.3584912356934156, 0.1806791890365035, 0.7898350892562306, 0.3753307288263939, -0.3496357024760312, 0.7095606981670752, -0.1995379902917009, -0.14590081776230407, 1.0, 0.4205599858213291, -0.2391865311626959, -0.045283567666960824, -0.3733185337817033, 0.26045992434868914, -0.3268270962806875, 0.16277753743340675, -0.8241160328078927, -0.14439625860773342, -0.41137702590503733, -0.30890033035908726, 0.8803891982523857, -0.31974142621786095, 0.7851162848280046, -0.11517957243003542, -0.756341412965759, -0.3557132093474858, 0.5459958741547464, 0.4132509489654436, -0.8215488205774556, 0.41271024247142973, -0.9998697688624959, -0.32305535450452805, 0.6843645858504454, -0.8756802368030311, -0.6818397001747231, 0.3898965631709146, -0.6376266266172663, -0.18136222474689143, 0.9966551826250453, -0.8639962377593258, -0.590347483052656, 0.9578358377232356, 0.6847256527292225, 0.18372617224747992, 0.24700507598479268, 0.36916126479857164, -0.21347790898195423, -0.7022604560304093, 0.27247964587554524, 0.7908427676935206, -0.3956886239741793, 0.2045746605618766, -0.23878464784432837, 0.25968918909453853, -0.8247207135743179, 0.7373976883621768, -0.00017126941985945877, 0.20717989494488032, 0.6768833605212682, 0.9999993879088648, -0.7140075416680806, -0.9500830415540827, 0.6310611939274495, 0.3033045350657834, 0.6071804369108168, 0.3673456185432257, 0.5808282800160972, -0.6381878537497502, -0.3244275535281364, 0.9025725295119876, 0.3718536516778142, 0.6145474755608533, 0.9730975652915488, -0.9988606377240199], [-0.6581395316312019, -0.27031526218629043, 0.8053810248181719, 0.21667519572560173, -0.9991796508915951, 0.8106713796869587, -0.9707945376355067, 0.18903382583085337, -0.3197305904137179, 0.34878414530429636, -0.10060281839298224, -0.2816008617841973, -0.7838848225318924, 0.13348033475072044, 0.46655429233431883, 0.3292826750305316, -0.3495269353322355, -0.28436452745471774, 0.880816171920602, -0.936761617588717, 0.5728835037511079, -0.05689258922216014, -0.36959043275977105, 0.5206062547777666, -0.42585577600738445, -0.03794247477111456, -0.7933365924811934, -0.12061001091110382, -0.9999999999999999, -0.6572482392988567, -0.5773333849031625, -0.6242619786233765, 1.0, 0.9965430683152088, -0.8668947467983643, 0.20485364968001513, -0.5423351477193679, -0.5797018918808887, -0.8567303005603008, 0.1864091900598784, 0.6600840693796588, -0.22145810492018508, -0.3885258419309122, 0.9395269552685962, 0.8626361370912027, 0.48441819017772836, 0.1345584214633684, -0.8887872074301728, 0.9636398597000599, 0.06518848070610808, 0.802422587200907, -0.39069073292396356, -0.8154050262394917, -0.9999065208435948, -0.021606439953671328, 0.19895393153085747, -1.0, 0.8686192240143241, 0.34903123341588227, -0.9751122792345406, 0.9111167176731572, -0.2606535751189478, 0.42924367701350435, 0.6787275680594745, -0.3278207425574604, -0.530212805650545, -0.9209001692219182, 0.2944895729543151, -0.47160658139121786, -0.9114116069783099, -0.39097812098519175, -0.390939092456848, -0.19000888894286877, -0.6919210111520421, 0.7706114741981297, 0.339402532077431, 0.4117729823068636, -0.09593086730284686, 0.9372323431272915, 0.6778429060255411, 0.9501866949737432, 0.3736124491161255, -0.9301477450392448, 0.874111612748017], [0.8179568254644295, 0.4793060726180513, -0.9999999999999999, 0.496309830754512, 0.42000209751663314, -0.4931910842615316, 0.9674878278588169, -0.5623334475090265, -0.25810320608938436, -0.41842552407663103, 0.5831607668807056, 0.7511350179919388, -0.16867874468371674, 0.2594374124895674, 0.49769092340812654, -0.9836668273161724, -0.4219914342996022, -0.7211792519874546, 0.2973603943837303, -0.147919899034707, -0.9251517354761877, -0.7440695327786527, -0.9999415408455501, -0.5487406426017988, -0.8500610052024761, 0.9990648917511673, 0.15629485614426533, 0.04458460305641677, -0.6984784088460401, -0.9999988141122819, 0.9712735174271983, -0.4030515654409249, -0.5272956039868097, 0.14671646173649253, 0.6628634212389073, 0.21257676679909304, -1.0, -0.44940904737030585, 0.5992375474708929, -0.7233562073866469, -0.6741277687935515, -0.10348283304957012, 0.39910180200384243, -0.291058010189942, -1.0, 0.9989768293866071, 0.09353642264666572, -0.41184502763888203, 0.4481398294023681, 0.08196115271361629, 0.6171936193965757, -0.08265576963911288, 0.012671857126448555, -0.6304845461810477, 0.6776964492879889, 0.733958546949712, 0.9975052977763438, 0.11420686135351932, -0.6822280782014251, 0.8256570501127917, -0.995738732191157, -0.1378463472023183, 0.6138642842333962, -0.6582183741351918, -0.9997967563864615, -0.41850186211601237, -0.4224134463029952, -0.2611274530797144, -0.03166625863172401, 0.999924318487977, 0.5812106669895238, 0.7123053258798444, -0.7645013171222224, -0.4681154410895268, 0.874920769410985, -0.6276271634604794, -0.40968176875403467, -0.5607987139612147, -0.9999999999999991, 0.9988386274274296, 0.44158541467028867, -0.6677484243521502, -0.08560407110583593, 0.9200511879056417]], "w2": [[-0.08323872714988603, -0.863362591011106, -0.7386370714296068, -0.15110138059125552, -0.290921551676376, 0.16002643791123633, -0.729198517714151, -0.5551983469802652, -0.8839097213242543], [-0.9996195545279506, 0.8406303135623244, -0.999999999999999, -0.5231644910906943, -0.5564583360952675, 0.4116575161255354, 0.9907474359898241, -0.9623991440256213, 0.09233102136749408], [-0.3520625365679818, 0.6949138177882033, -0.5983768107546816, -0.1369281914111469, -0.2673146023820035, 0.5925525076592288, 0.1783752716607824, 0.8490183105304028, 0.22502446596838657], [0.22091998293773904, 0.004170127982737708, -0.08945221517738408, -0.33274623412059345, 0.9996767024684913, -0.5831671277577846, -0.41164473316486144, -0.14130714602205252, 0.2525890746228609], [0.8980280188175536, 0.5950881181486392, -0.5712080952479126, 0.9999999999931624, -0.22695285045142566, 0.985535115215661, -0.23942847794853508, 0.7843718560864829, -0.8882514324231029], [0.26215236859148455, -0.08050375357805543, 0.5072818362094594, 0.18559823509914622, -0.7584759356018114, 0.1355270758621478, 0.8329195792832522, 0.6553730104269078, -0.7463985573632901], [-0.7679376682780895, -0.1539795430361738, -0.2842954619359926, -0.2657973661248923, -0.21557726614423278, -0.45587585450712714, 0.9923545256589233, 0.1920231967312009, 0.5358166503539245]], "b1": [[-0.20687077669719264], [-0.03242895292497778], [0.8828173832837043], [-0.6863734855572455], [0.11137810867849178], [-0.07226780832748778], [0.2978369756011483], [-0.27985605477713116], [0.18383036339892184]], "b2": [[-0.7097281738137412], [-0.024443257916646685], [0.11458732067035443], [-0.047543350785283676], [-0.68107724985782], [-0.691340742619955], [-0.8651614049169778]], "fitness": 916.0, "best_pos": 8.0, "best_status": "small", "score": 100.0}