{"w1": [[-0.48324798539696595, 0.6644819086947973, -0.07478827393100143, 0.38261293937690966, -0.58279446677971, 0.5480615560276161, -0.7630976861755185, -0.5292262626491183, -0.3980574277395736, 0.09810198803751052, -0.03335112854746521, -0.5172590214967716, 0.41455215780861154, -0.7394027055542449, 0.0669282751611361, 0.32355274797192096, -0.18332920139697087, -0.8948588808653163, 0.3311656711345522, -0.8380689913286775, -0.7791410834412913, 0.8992482897558735, -0.05324287469794504, 0.05281009427192032, -0.23179565876716826, 0.8816118004776488, 0.43001017279585435, 0.6094873739542834, -0.25449079483719667, 0.08622454438302768, -0.5060282178282413, 0.4930903463804776, -0.32532114991081595, -0.31557400771129024, 0.5166760985040502, -0.9013105142583475, -0.578452956556995, 0.93022912132485, 0.030098024616176867, -0.5845065735929711, 0.8909358169177083, -0.04665363216251287, 0.7071472289393422, -0.47261448382477184, -0.5672794470358385, 0.45338778334224733, 0.9999620157199042, -0.1165641492088339, 0.030856741507827593, 0.4184982584635575, -0.041181605414304295, -0.9687541517820015, 0.9371522474213504, -0.31245374963132183, -0.771962068504825, -1.0, -0.4239991683174454, 0.9998149404955253, 0.38827528805628403, -0.17878897276583944, -0.11214387021992663, 0.6653822882262878, 0.05443683435013771, 0.38827279930260306, -0.2821493263011229, -1.0, 0.1770615846072046, 0.9964277079053289, -0.2556713175055426, 0.6560159831903692, -0.9252396131582805, -0.27673307119673823, -0.9998386032024339, -0.34169792297056034, -0.7152857831587399, -0.9999999999999991, 0.022614593210018304, 0.15831356047183978, 0.8475732100750258, -0.6569005503756635, -0.1658722362229862, -0.14804027087275395, 0.7030699652608959, -0.4954034832101676], [-0.23082442278239945, -0.9992250489226885, 0.6968249682832841, -0.7207043199871096, 0.999676145419188, 0.7478560527781364, 0.5319494131443143, -1.0, -0.48386837695075086, 0.6982116291555135, -0.4489827416315168, 0.3703788211456748, -0.7449296877329843, 0.3842865131125051, 0.0642971149583828, -0.5476790247416812, -0.6660002363564158, 0.3215378505620875, -0.6293032666313514, -0.9125806297343453, -0.2119128511301245, -0.2521415916021741, 0.2645435508682922, 0.02492570698582637, -0.7772609846313319, -0.8339329193267507, 0.4304827433406713, -0.0581296719373345, 0.020980285101559, 0.3263960763652007, 0.10077765407716348, -0.2830648710690145, 0.021897647408253323, 0.03338978245235832, -0.9232638566820237, 0.08515971376192537, -0.9999999999999984, -0.053340431759480195, 0.91529774561369, 0.027020933729087777, 0.4400404408210382, 0.9991095609115229, 0.6952130424154801, 0.03739194941245659, -0.23177086111326334, -0.4999272744943888, -0.9509274639561878, -0.996336148626764, 0.5168358913262356, 0.6683976744951853, 0.9982725388077087, -0.9999999999999998, -0.7532195626356294, 0.1252787460127211, 0.6224291852171157, -0.6361682902834229, 0.19700169826085254, 0.24565071678720105, 0.18892501963325092, 0.059848660934727606, 0.6013903961454792, -1.0, 0.5874358812535989, -0.1891691063415004, -0.9999999999998996, -0.2781988563073134, -0.9997859718837528, -0.7095625474091329, 0.06700356688934357, 0.45654290162460875, -0.9997890863401688, -0.706982124560759, 0.04594984471081262, 0.4757153059355515, 0.9211982873307422, -0.9280106929246759, -0.018037041187420878, 0.6236430690968053, -0.9999611142194758, -0.9898288027944436, 0.6735016607716722, 0.2843494484973229, -0.141396635867399, 0.6118126059404368], [-0.9786659868601087, 0.5650370280977474, 0.38187363086596854, 0.35059104817680736, 0.39509419037878546, 0.035171494618408086, 0.7890431785734121, -0.42285049290499976, -0.3522068210691814, -0.9999999999999999, -1.0, -0.8542321922281618, -0.09938645701873909, -0.4878038444021836, -0.8565462465136912, -0.6162737775984469, -0.2703028497619853, -0.18983125705629228, 0.22055872878658217, -0.35420674927415846, -0.5804260945887583, 0.7413873345896975, 0.09012222941284466, 0.6287260573119062, -0.9963321825945878, -0.9286264513012981, -0.715155735767983, -0.7474446080646443, 0.9987528873567338, -0.8642967156646035, 0.17900251355808344, 0.31332933650379863, 0.8839049449333213, -0.07223727825901653, -0.1906775020439755, 0.7832079187378801, 0.5289710453313035, 0.5361993590916689, 0.9996323566525809, 0.11965705885336488, 0.5236106072300236, -0.9994155521236938, -0.5929170735045048, -0.46302284724376047, 0.27442848509018375, 0.19351483509302397, -0.5725389832114878, -0.2441005555469506, 0.623164910759215, -0.2870670124118514, -0.21682470141642926, -0.7095228079426386, -0.35651407138604707, 0.416935536820744, 0.5552196102041528, -0.6149024543520314, 0.5302632735945602, -0.378226362679964, 0.6009922146489102, -0.30296121885579996, 0.6372326073899004, 0.2818500112361488, 0.8255715793140355, -0.36978376672592644, 0.8779305745035357, -0.8827428183309516, -0.7192007819941552, 0.14096921914322186, -0.6472383792364623, -0.824964288448683, -0.40941526770160863, 0.7942504268846271, 0.9999969631555338, -0.6745234561393683, 0.5858061194742598, -0.5383941405738747, -0.5919522654424819, -0.4004016572599544, 0.47594465239662653, 0.6607499144370712, -0.34279258187494943, 0.05163932532213301, 0.3811338366791641, -0.99999992333557], [-0.09292569925439656, 0.3244678006656274, -0.2829561594829, -0.39687033605082245, 0.20836688521185448, 0.9996075195571427, 0.27510338059531814, 0.06253655359243121, 1.0, -0.9999999937256221, 0.0029292906055670954, 0.7962702471396648, -0.24332182073179248, -0.0908767935650267, 0.8537789312252315, -0.8370308565458265, -0.3163837925296498, -0.5420635879064721, -0.10376101246668651, -0.9986926410416791, -0.23343418807005914, -0.6436322239027761, 0.4927129165577173, 0.45601505321038793, 0.4485993348823678, -0.33856712644390996, 0.2846058185368697, 0.7072781462970559, -0.30170002443199395, -0.6684372905431679, -0.8017796073912952, 0.613432408481911, 0.9999750369591404, -0.48080341590501646, -0.17892401406955302, 0.8603260250849968, -0.04899414197815169, -0.8462364220624298, 0.8418834288956039, -0.4499730748466989, 0.12930866163999385, -1.0, 0.8011207532514125, 0.4270706747368803, -0.7512634415204831, 0.23474075606706468, 0.6774992482066922, 0.7847730258567234, 0.6477534722458267, -0.04483086348152279, 0.263300921614114, -0.9099599389039773, 0.5827382434796711, 0.999982217059696, 0.44387981731499826, -0.705926690700597, -0.8337829058408534, 0.35813842842867544, -0.4242104114051076, 0.024224930549000795, -0.05884704878926558, -0.19291650209700384, -0.6447752967194638, 0.5110284674793116, 0.5293038519317672, 0.429968563363685, -0.21079739400459385, 0.5325920330126982, -0.45654263567949566, 0.5610774094400048, 0.9998262536725172, -0.9979273564517807, 0.019882953107533772, -0.5746586727886439, -0.8477294527766102, 0.194698860724752, -0.23190349859863243, -0.7879031286681, -0.30611518647880165, -0.13283493851207, 0.3217552805597817, -0.10393292084701053, 0.823478663311079, -0.45376539418237805], [0.9299253644869547, 0.8948533806604142, -0.8117919685183211, 0.39222072979876316, 0.911919193176869, 0.18610394300215952, -0.9999999999999998, -0.5974741164607177, -0.6400684784660162, -0.7724045535308431, -0.8103228283287253, -0.20028817241549673, 0.5687791837638551, 0.11080048180545171, -0.7458505463591142, 0.40842174571394335, -0.8998483154949808, 0.24041593183753998, 0.7737863228588441, 0.18898017758029514, 0.31716591239711406, -0.2966796658820427, -0.9552242071996697, 0.9054586613426302, -0.19162151348420878, -0.4665766424237171, 0.13622660165939598, 0.3881003087376255, 0.8588630584016934, 0.6950940717510691, 0.608263604527187, -0.13818509333735127, -0.4948445773969552, 0.41345021525612113, 0.2539844026514821, -0.04342678668518471, 0.6480332208877608, 0.5994220757126479, -0.008749942009202035, 0.7162366213629473, -0.8414625020334924, 0.9997558519001261, -0.03062846126268581, 0.8685444298373162, -0.32437793387155184, -0.8924870485351909, 0.21213570602617546, -0.8578324856368928, 0.5396998196666877, -0.4032440669480578, -0.04289452182980268, -0.024201847703778773, 0.4458589534072532, 0.9999999999999996, -0.011501483206092468, -0.016508638382813193, 0.5477907540129385, -0.44231445975018946, -0.17653046863425162, -0.30404032797347846, -0.33000009361825905, 0.6751499143755749, -0.7051199558698759, 0.9999451656190415, -0.7581186319237252, -0.5446447634850787, -0.05665438886962749, 0.28928087829602833, -0.6313209569055171, 0.2702193255630141, 0.6077951802031079, 0.3182937748858027, -0.809085686182004, -0.8661290243351297, 0.4869064795490443, 0.9510194522263464, 0.009855846557055138, -0.47558229446047634, -0.4835527932131551, -0.07947192418113316, -0.38007109080795837, 0.5285432640046864, 0.13777553390816358, -0.09695142624446688], [-0.9993149352243357, 0.1157968424061058, -0.9974888212800185, -0.6334079932025609, -0.19318736062458655, -0.2579269607509438, -0.3966488059447811, -0.19194198878739654, -0.18438199313715478, -0.8913874414724134, 0.3455349055753077, 0.14466491268491666, -0.8618842311759246, -0.49387178707324353, 0.41697346171907135, 0.9998878343810967, 0.08090618057858548, 0.7285514775791103, 0.5560375633851341, 0.3844224368287627, -0.24526771740740924, -0.4605073798251361, 0.2749676112264607, 0.6586058003485364, 0.7177375849762172, 0.08094471727147179, -0.28058970820363427, -0.38109589851076825, -0.295678940140604, -0.30751594976562546, -0.6301123240931105, -0.4183489661692699, 0.7679550328880981, -1.0, -0.9766902907121493, -0.8581234474783359, -0.34410977149082106, -0.770282765848642, -0.49834161380950287, 0.19042252908657561, 0.13695465652600086, -0.7264862468168041, -0.7480090736595597, 0.9081950310619449, -0.7451308119537501, -0.3947612205362665, -0.18898761587270063, 0.1961893209173693, 0.6209438567256308, -0.013191544931744022, 0.8821043648350674, -0.29431439738874143, -0.24057714969450059, -0.8798267986227686, -0.08649720256474155, 0.9999999999999994, 0.733561444755959, 0.33993556270472963, 0.19448254325050818, -0.35504146269912984, 0.523890837600405, 0.9945796976561151, -0.5782104719895164, -0.9999999984658172, -0.6025972323761707, 0.07778150746066229, 0.5919419021335492, -0.5742156160631804, -0.6254310978103063, -0.9999266232214893, 0.11443192738599312, 0.5196400895398668, -0.6608288375114472, 0.9999999999999993, -0.81591578110727, 0.3967874446741922, 0.06813222092126697, -1.0, 0.4117069646781292, 0.13732216251976417, -0.9835592255913532, -0.37186157229796524, 0.5453722100973897, -0.9999999999999998], [-0.9993671909704126, 0.28088903597403286, 0.0261712556024592, 0.7993609466931159, 0.055511217248758786, 0.028007793133648602, 0.4061035195118613, -0.20167609052005456, -0.10632380770894452, -0.6223013929269922, 0.3589593823789946, 0.1806791873152345, 0.7896821832323069, 0.43581671584918275, -0.43136606935528393, 0.7095606982217699, -0.4304062227173378, -0.08229527437029938, 0.9246163408273603, 0.4205597645673361, -0.23865364595395017, -0.050563834997466243, -0.3738599021844731, 0.12717983000625496, -0.32682708407884353, 0.33528877341193025, -0.8248191319249636, -0.14439625860773342, -0.5646333787219262, -0.32192686342585114, 0.8804018154280763, -0.3197414261511482, 0.6781011531377354, -0.11517957242999408, -0.7564288436240455, -0.356998115219692, 0.4939505308824906, 0.4132509489654436, -0.8218611573382807, 0.3605375309227909, -0.9998710278442056, -0.32305535450458917, 0.6875208898338616, -0.875680413738797, -0.681839700174695, 0.7107413495842362, -0.6376266935208711, -0.18136222532147406, 0.9966551820498901, -0.9999638182582196, -0.5903475113965498, 0.9578358377270874, 0.6847256527046004, 0.1507824837288723, 0.24700503285102912, 0.36916126476895095, -0.21347790898195532, -0.702254468773713, 0.2722476705205678, 0.7908289806502077, -0.39558900835117355, 0.20486145152247492, -0.042657716427994666, 0.39432494410931795, -0.7170946129443745, 0.7337673900987417, -0.20140718985258155, 0.5856827946937191, 0.6774047668273738, 0.9999993844775892, -0.7138698646470558, -1.0, 0.8271589655332467, 0.3033045350657833, 0.606883141022138, 0.36734592432366553, 0.49720581761126625, -0.6366171719774141, -0.9769848777690593, 0.6260600625629439, 0.3685605567537501, 0.4820125847024709, 0.9730431861202826, -0.997203421758053], [-0.6582338892839195, -0.13858492501632533, 0.801377520258961, 0.21667519572559066, -0.9991796508915336, 0.8106713796869345, -0.9707945352997724, 0.2912093130222387, -0.3197305903794048, 0.3487841453048899, -0.10064584247626354, -0.4738973803723723, -0.8392004520074126, 0.13221089397631267, 0.3171367941901794, 0.32928267503053166, -0.3495269353148611, -0.28436452745465324, 1.0, -1.0, 0.572883503751023, -0.056890088907658905, -0.7050094333628629, 0.5221454389389901, -0.4798759962380515, -0.037931890617401105, -0.7930840757997601, -0.1622301292571762, -0.9271167432372904, -0.6569877659060902, -0.5773449401940778, -0.6242607310394197, 0.9999999999999998, 0.996543022664147, -0.8726068233306532, -0.1314337557545813, -0.5423351477193755, -0.5797019472976134, -0.856709759872675, 0.4588387816344667, 0.6596636975633222, -0.3802907723861267, -0.3885258419309123, 0.9999009917980962, 0.8687793279696862, 0.5901458663278006, 0.13455842041569388, -0.8887871995067804, 0.8560093720656122, 0.06518875001263036, 0.7992033915261056, -0.037401211001058504, -0.815404542330879, -0.9999065209159967, -0.004991996584067706, 0.1989258852251018, -1.0, 0.8686192239887388, 0.34902772792640563, -0.9759529707011961, 0.7289942531330493, -0.4306790136522882, 0.3592630064383648, 0.6787256253035611, -0.32782074260893296, -0.5307157900001372, -0.9210150147616504, 0.29448957779895396, -0.3212693572608126, -0.9137050413642713, -0.33670753968510064, -0.39163048221628366, 0.09842420013242817, -0.47243051798925334, 0.770609139121859, 0.33940253207768795, 0.41177298230707465, -0.0959291434381506, 0.9323584373873974, 0.6797507897826123, 0.9521212460255546, 0.2138317810075965, -0.929731751849119, 0.877335138233369], [0.8149422081237188, 0.47930358958593083, -1.0, 0.49630983075452423, 0.42000209752137263, -0.3503225862428488, 0.9674878218239729, -0.5623334136686816, -0.2584897698502219, -0.41842437733336213, 0.58318355689374, 0.7509354740596533, -0.2955054091472699, -0.0769333395979287, 1.0, -0.9840142414674136, -0.42386803209685814, -0.7210499483875045, 0.2995033960438293, -0.20407138771555935, -0.925151736446201, -0.6300982788529041, -1.0, -0.5497690200019094, -0.7144473106640615, 0.9999979780245767, 0.15135651241034961, 0.044404502107578354, -0.6984784088460402, -1.0, 0.9712735174762134, -0.4030515654245289, -0.5272956039868525, 0.14670908880300243, 0.6628633923646544, 0.40470541173654195, -0.9988647746903982, -0.4493569400229504, 0.4473481648920541, -0.7233511233072337, -0.3885970634315407, -0.10339106310858043, 0.39993780947134744, -0.29105771350456183, -1.0, 0.9989767225163069, 0.09652258610526214, -0.4130080354322136, 0.44813982965852345, 0.08196107295627268, 0.6171936194209818, -0.004052817202654754, -0.18422325431805012, -0.6321545724129342, 0.6775392515894557, 0.7337863744038415, 0.9971507542159104, 0.1142068613535193, -0.6822280782014251, 0.3329805259457309, -0.9957387321912156, -0.13784634720231603, 0.6138609423517544, -0.6582183741351919, -0.9998100369931809, -0.418501866916917, -0.4224135153917305, -0.2613500869563879, -0.03166625862798018, 0.9999741632900041, 0.581726576191558, 0.7118820240668502, -0.7670358645128931, -0.4700273601662333, 0.8749269129062045, -0.6258106924601429, -0.409681724703934, -0.47120416695341805, -0.9999999999999992, 1.0, 0.5152172247208254, -0.8822503709707062, -0.08560407110583593, 0.9212394829256362]], "w2": [[-0.083238727149886, -0.8625055532020055, -0.5309024083572932, -0.1584350139966446, -0.2909215516450956, 0.1593750037288162, -0.7291985176931711, -0.28483899702592325, -0.8839097213242819], [-0.9996195545279504, 0.8429891955899107, -1.0, -0.5231644910906941, -0.5582750078694605, 0.4086826558734193, 0.990124559639873, -1.0, -0.15736850122251161], [-0.35206017114492505, 0.6900839964111618, -0.5983768107546816, -0.13692819287640784, -0.2667468899873917, 0.5925525076592291, 0.1791555338900952, 0.849018310530403, 0.2250244659685122], [0.22091998293774345, 0.004170127860941111, -0.08945221517741449, -0.3327462341205934, 0.9993391777259857, -0.5878551789315446, -0.4116447331938741, -0.27052845481167614, 0.2511159679514106], [0.9010069816525056, 0.594849187207271, -0.5714025147881253, 0.999999999993162, -0.2269528504514263, 0.9866261310484066, -0.05728263941792933, 0.7844994849292706, -0.7751926582202343], [0.2621542232742023, -0.08050375357651182, 0.5072846173172774, 0.052922302611291355, -0.8145366115532563, 0.1355270758621478, 0.8329195792791364, 0.6553730117308557, -0.7977904287703065], [-0.7679355658206949, -0.1539795430361738, -0.40108398564920544, -0.26579560384248285, -0.21557726614423284, -0.4558758544964794, 0.9923450349962863, 0.1920904892807988, 0.32064794470760105]], "b1": [[-0.20687077669753506], [-0.6527751607668422], [0.882576710256454], [-0.6863640076979093], [0.11137522145028513], [-0.0722678084597142], [0.2978377476763081], [-0.2798560547659036], [0.18386109806344608]], "b2": [[-0.7097317505187437], [-0.01615471706018373], [0.11454664672283178], [-0.04754382583432009], [-0.6810769997452263], [-0.6961102775683055], [-0.8657821942320441]], "fitness": 4251.0, "best_pos": 10.0, "best_status": "small", "score": 1600.0}