{"w1": [[-0.4789067496809029, 0.6644819086947973, -0.07478827393100144, 0.38261293937690966, -0.5827932889822539, 0.5480535174807917, -0.7630976861755184, -0.5292262626491184, -0.3980574277395736, 0.09771242895056227, -0.033351128547522535, -0.5172593407922412, 0.4145521578086116, -0.7394094685984133, 0.06734380852682886, 0.32355274797192096, -0.18332920139697087, -0.8948588808653163, 0.3311656711340681, -0.8920230676238232, -0.45430690420546016, 0.8992482897230171, 0.06544474195836242, 0.05261895818471745, -0.23294732581279456, 0.925582814917915, 0.4300101704432834, 0.6094873739542834, -0.2544907948371766, 0.08622454438653113, -0.5060282178282369, 0.4930903463823558, -0.3253211499111886, -0.31557399524346236, 0.5166760985041665, -0.8996237104920073, -0.34389738937124203, 0.9278101649538909, 0.32344408707086486, -0.5845075219470867, 0.8909355084493995, -0.04665645627572142, 0.7071492966141069, -0.4725933739118954, -0.5670851612097535, 0.4533877833422475, 0.9999620157199044, -0.11656489743001688, 0.030854058191803525, 0.418506831699098, -0.041181605414304295, -0.9687541517820015, 0.9371522156719395, -0.31245443255810146, -0.3282595740392005, -0.9999999971006327, -0.42401452552480395, 0.9998149437036158, 0.3882762866155119, -0.1787929225384541, -0.1121438702199273, 0.6649892849840384, 0.0544368343501377, 0.3882664300039443, -0.28214932630112277, -0.8502257422415637, 0.1770615846072046, 0.9964277052033326, -0.2556713175055427, 0.65601592649685, -0.925237499359834, -0.2767330711967212, -0.9998386032024339, -0.3416979229704847, -0.7152857831587347, -0.9999999999999991, 0.02184834181507468, 0.1583261551429344, 0.8475732100733236, -0.6589946036766081, -0.16587224228972397, -0.14804297723999146, 0.7030699652604947, -0.47813921266275444], [-0.23082439363795612, -0.9992259835642837, 0.6968249038359807, -0.7207043199907106, 0.9996761454191881, 0.7478564646323104, 0.5319552783249846, -1.0, -0.3187500673098109, 0.6982132731398838, -0.4288277136226811, 0.37037882115088533, -0.7449296877329843, 0.3842973145512885, 0.0642970902105597, -0.5476790248815879, -0.6660004151743975, 0.3215378505620876, -0.6293031312165902, -0.9125807266111953, -0.2119128511301244, -0.25214159160208427, 0.26454440694383075, 0.02492570770701162, -0.7772585017295067, -0.8339329193269107, 0.43047018122129144, -0.058129671937931504, 0.17496370851078205, 0.4656498493839435, 0.10077765407716349, -0.2830671959299519, 0.02189783811358899, 0.17435251755548012, -0.9232660673404703, 0.31291728979529654, -0.9999998795751104, -0.0533404317594825, 0.9152977309466747, -0.22973965046561204, 0.44003470131815625, 0.9991078151189758, 0.6952135874659638, 0.03739642051297465, -0.23249289227273123, -0.49992727168708384, -0.9509278684852522, -0.9963361486267032, 0.5168358913260998, 0.6683976744951851, 0.9982725388077086, -0.9999999999999999, -0.7532195626356296, 0.12527874601272113, 0.6224292300335423, -0.6361682902834349, 0.19700169826083871, 0.24565071678679656, 0.18920760598337608, 0.08459503660512521, 0.6013917011286934, -0.8476592478183758, 0.5874358803012336, -0.18916955136002636, -0.9999999999998997, -0.27819885630731345, -0.9997859718837552, -0.7095625474091369, 0.06700356688934356, 0.4565457588459576, -1.0, -0.7069821245607608, 0.0459509575576684, 0.4757147335844143, 0.9209277406983954, -0.9280117253881487, -0.018038594304327762, 0.6236366295798742, -0.9999611558497471, -0.9898295535782908, 0.6727355950828389, 0.28434944859298467, -0.1413966358673989, 0.6118184615176954], [-0.9786659868600811, 0.5356693318799297, 0.3827568441253195, 0.35059012533261474, 0.3950941903794549, 0.03516471239874712, 0.9995444998178451, -0.42285049290357724, -0.352206797983973, -1.0, -1.0, -0.8542187234176777, -0.09938660025155356, -0.48780381245156107, -0.8565462509298731, -0.6162737775969269, -0.2703028497619853, -0.18983200548768028, 0.2205178801348436, -0.3542067470678875, -0.5804247868526538, 0.7413873400980836, 0.09012936909529164, 0.5448627985434541, -0.9963321825945878, -0.9295318859731722, -0.7151559417577931, -0.747443399644443, 0.9987491127744677, -0.8642967156646056, 0.179002499228439, 0.31332933650381, 0.8839074372009927, -0.07223727402515963, -0.19067750204395228, 0.7832557150610329, 0.5289709444643342, 0.53619928186748, 1.0, 0.11965705885336486, 0.522833871787414, -0.9994155521236937, -0.592917062815764, -0.4630221465277349, 0.2744279938429678, 0.31462130405008515, -0.5725389832114876, -0.24410055554695081, 0.6253759003956848, -0.2870670124118514, -0.21682057835380875, -0.70957700777006, -0.3578871536787902, 0.4169349812286854, 0.5552196102176189, -0.6149028408652836, 0.5456287629665624, -0.37822706395001277, 0.6009922146489102, -0.3029612188558001, 0.6372344652485874, 0.28185082326569694, 0.7444811409346941, -0.3936562871281506, 0.8779305745035354, -0.8827428186235382, -0.719200781936735, 0.14096921914322633, -0.8570221872027118, -0.8249642884486874, -0.36020963689678587, 0.7942474239631645, 0.9999969631555331, -0.674526949742517, 0.5858200966792793, -0.5383941405739232, -0.5919519338068969, -0.4003875738680578, 0.47745741746560444, 0.6607499068170467, -0.3427932365732636, 0.05165319227301617, 0.37904418645802007, -0.999999923326227], [-0.09292569925439986, 0.3244679179208671, -0.28295750807674525, -0.3968703322969425, 0.44117586873514864, 0.9996075195571433, 0.27510339144567936, 0.06253655359243121, 1.0, -1.0, 0.002929290605588343, 0.7962701313927519, -0.24332183918673506, -0.09087679356529338, 0.8537789312251067, -0.8370309067813078, -0.3163837925296498, -0.5420635879064859, 0.028623868014472, -0.9986926402946049, -0.23343415126929815, -0.6436322239027876, 0.49271291655771915, 0.4560150532103879, 0.44859930846190343, -0.33856712644390996, 0.2846058185368697, 0.7072781463289017, -0.301699622309782, -0.668437290543168, -0.8017796073912952, 0.64795853013265, 0.9999750835480458, -0.48080522250147106, -0.17892401199941427, 0.8603239481960205, -0.048994141608191676, -0.8462364381487492, 0.8418835078591298, -0.44997307484684884, 0.12930617616879667, -1.0, 0.8011207716171894, 0.4270706577222258, -0.7512634415203566, 0.37194737535049915, 0.677496501775265, 0.7847732035563271, 0.6477534722457458, -0.04483813151097299, 0.2633008778579742, -0.9099598527062112, 0.5827382437087187, 0.999982217059696, 0.4438742626217349, -0.7059288826779461, -0.8337829058408535, 0.3581184688148902, -0.4242104114051077, 0.024224758066955777, -0.05884730149142258, -0.19291650214049563, -0.6447752824298295, 0.5110278993357897, 0.23137998494818068, 0.429968563363685, -0.2107958756556968, 0.5325920330126983, -0.4565426356794957, 0.5610655133937086, 1.0, -0.9979293727459662, -0.2127340205831118, -0.574658672469024, -0.8477296630786658, 0.19469562155889744, -0.23189889807566247, -0.7879017958953626, -0.3061133798311907, -0.13283623984099566, 0.3217556721771484, -0.10393292084132631, 0.8234767636350301, -0.45376539531391474], [0.9299253644869547, 0.8948533785742729, -0.8117919808970386, 0.39222072979876316, 0.9119191985409059, 0.20068164066494315, -0.9999999999999998, -0.5974740682342298, -0.547347437419447, -0.7724045535308431, -1.0, -0.20028820374428125, 0.5687758144002696, 0.11080048180545288, -0.6376781898270696, 0.4084222100656813, -0.8998444092917992, 0.24041593183754, 0.7737863228588125, 0.18898017758029517, 0.3171702310341741, -0.29667966588204336, -0.9552242071996689, 0.8275143949040947, -0.19162151348771483, -0.4665766424237171, 0.1362264743603866, 0.3881003087376256, 0.8588630584016933, 0.6950940736693675, 0.6082636045271871, 0.02172082358964514, -0.49484457739695625, 0.413450215256182, 0.25398426433296956, -0.04342678668518471, 0.6480401443527676, 0.5994220757126479, -0.008749942009191042, 0.7162366213629561, -0.841460371115988, 0.9997657699847867, -0.030628461261167386, 0.8685444289290222, -0.32437793387155356, -0.8051940038006455, 0.21213570382665428, -0.8578324856367556, 0.5396998196666877, -0.40305181366499604, -0.042864780632168704, -0.024201771770615416, 0.44585981743627573, 0.9999999999999996, -0.011501483206092466, -0.01650849367783425, 0.5478830577669342, -0.44268557728029695, -0.17588734116592764, -0.3040413775072663, -0.33000108261337513, 0.6753815640082856, -0.7051199510139182, 0.9999451656190479, -0.7581186319237252, -0.28579083013921386, -0.05665438886962749, 0.2892808271560702, -0.4608489251186828, 0.27021932556291217, 0.6077893699374078, 0.3183603836042898, -0.8090856145826211, -0.8661266144463089, 0.4869064795490423, 0.9510202572529121, 0.009875796145279987, -0.47558229448270883, -0.4835540316036028, -0.2507549447387699, -0.3800710908079584, 0.5285432640216746, 0.1377755339081636, -0.1437851369173359], [-0.99931417932901, 0.1159322400039367, -0.9974888212800184, -0.6334080788397747, -0.19318593400813883, -0.25791370860088747, -0.39704906410216534, -0.191942044103373, -0.18438199313715772, -0.889093838531292, 0.34553491242459056, 0.14466491268491663, -0.8618886112964558, -0.4938717870749158, 0.41697348597815265, 0.9998877991400585, 0.08090606946020182, 0.7285514514038844, 0.5560375633851241, 0.38442243682876454, -0.24526771740848854, -0.4605073798251362, 0.2749676112264607, 0.4986278966249882, 0.7177385164055085, 0.08094471727233915, -0.3312041646990119, -0.380652619663458, -0.29567894028366803, -0.3075160998053649, -0.630114153865927, -0.4183489630143713, 0.7679546102719857, -1.0, -0.9767035592436516, -0.8581234474783357, -0.34410977149141925, -0.4596397355403653, -0.4988663189914457, 0.1904208322131679, 0.13740920456562986, -0.7264862468168046, -0.7480310111087876, 0.9081920115106995, -0.74513081195375, -0.39476123289767023, -0.18898761599452443, 0.19618932091736946, 0.6209438567256309, -0.013191559357391733, 0.882104750719463, -0.29431178561156285, -0.2405761047199634, -0.8798281810110783, -0.044949072485564116, 0.9999999999999993, 0.7280503330082946, 0.3399357099272306, 0.19448254324954323, -0.35504146269912984, 0.5238908376002944, 0.9945796976554416, -0.5782252571727804, -0.9999999984659347, -0.6025972323761708, 0.07778150746065894, 0.5919418832192501, -0.5742143804319176, -0.6254285371136206, -0.9999266232221243, 0.11443192738599313, 0.5196400895398666, -0.6608288375114472, 0.9999999999999993, -0.8159157810426104, 0.3967874463908239, 0.06812211708232799, -0.9999862506882754, 0.41168216009795694, 0.10556571824466787, -0.9837617272346668, -0.3718615687074465, 0.7326344311925229, -0.9999999999999999], [-0.9993671826071314, 0.4771329798346003, 0.0261712556024592, 0.7993609466931151, 0.05555263161665707, 0.02800780862680812, 0.4061056082365819, -0.2016760526642511, -0.10633560187297382, -0.6223112732067398, 0.35895946604366785, 0.1806791873152225, 0.6807486001374324, 0.4358170771729501, -0.43114380440145456, 0.7095606982211757, -0.43040622271733786, -0.0822951508057577, 0.9246168396357843, 0.42055939972494205, -0.23865369756889668, -0.2349396700032113, -0.37385419294528593, 0.12717983000625496, -0.3268270840790967, 0.3352887734119302, -0.8248171972363315, -0.14439625860773342, -0.5646329146091985, -0.3219261330289559, 0.8804018162270646, -0.35242188343101594, 0.7374983776088643, -0.11517957242999412, -0.7564297309360414, -0.3569917152512843, 0.4939532122138783, 0.4132509489654437, -0.8216054215153135, 0.3624887833039338, -1.0, -0.323055354504589, 0.6875198354870784, -0.8756804137406695, -0.6818397001746951, 0.7101043932474101, -0.6376266935272358, -0.18136222532152088, 0.9966551820498825, -0.9999637999940407, -0.5903474647852516, 0.9578358377270862, 0.6847256527045708, 0.1509285596307776, 0.2470050318954516, 0.36916126476895084, -0.21347790898195534, -0.7022544489271919, 0.2722475270882345, 0.7908291480967841, -0.3945885991364717, 0.2048582119472322, -0.04266048976564946, 0.3943343449512923, -0.7170943990079545, 0.7337730363360329, -0.20140903787477424, 0.5856827754041115, 0.6774045879820836, 0.9999993844897004, -0.7138698622315234, -0.9996510974157049, 0.827173245794868, 0.3033045350657833, 0.6068841244806573, 0.36734461265172674, 0.4972058170667317, -0.6365911801338812, -0.9769848746889274, 0.6260600625629754, 0.3685395898462373, 0.4820206607918526, 0.9730431113800658, -0.9972065268701794], [-0.6582341864061615, -0.13858490171216953, 0.8013660979240238, 0.21667519572559066, -0.999179650891533, 0.8106713796869345, -0.9707945352981587, 0.29120097382972343, -0.3197305903793966, 0.348784145304888, -0.10064586180740294, -0.4738974126778347, -0.8391845202628931, 0.13218516110423242, 0.31537552738240515, 0.32928267503053166, -0.3495269353150039, -0.2843645274546529, 1.0, -0.9999999999994091, 0.5728835037510229, -0.056895291469070276, -0.7050106646219789, 0.5544694603565157, -0.4798761781859662, -0.03793184278494555, -0.7930856483677045, -0.16224525972851045, -0.9271171819707588, -0.6569859263306019, -0.5745973848045831, -0.6242549383915192, 0.9999999999999998, 0.7197720395035487, -0.8726210373938658, -0.13143039524552358, -0.5423351477193753, -0.7134961923756661, -0.8567097600465077, 0.6167073840178618, 0.6596635375061288, -0.38029041665273766, -0.33146381089133153, 0.9999009904509615, 0.8688070183866967, 0.5901458549365677, 0.1345584204156728, -0.888787199507365, 0.8559987918759168, 0.0651925157276277, 0.7992033042891686, -0.037375177648235454, -0.8154047594015509, -0.9999065209159962, -0.004991996382176679, 0.19892588698940714, -1.0, 0.868619223988672, 0.34901221309291597, -0.9759578833417165, 0.7289984107054468, -0.43068187860720025, 0.35926395408697787, 0.6787256266044286, -0.3278207426089344, -0.5312558065579712, -0.9210134770537297, 0.2944895778680036, -0.3204569844097456, -0.9137197757903054, -0.3367075396838903, -0.3916314254947078, 0.0984221116684222, -0.47243488053363364, 0.770609145653614, 0.3394025320776877, 0.5420219480973751, -0.0959291347755125, 0.9323559712183952, 0.6810513187173179, 0.9539428472658718, 0.21385401556243577, -0.9297284670605238, 0.8773024134650574], [1.0, 0.47930358960048314, -1.0, 0.4963098307545271, 0.4200020975213458, -0.3503225862428488, 0.8639243336382773, -0.5623334136679984, -0.25848957034499287, -0.4184243727058678, 0.5831841324254324, 0.750934205205609, -0.29550584232693505, -0.07693214517435044, 1.0, -1.0, -0.4238522710392729, -0.9931940620668708, 0.2995041210286424, -0.20407053636959696, -0.9251517364466293, -0.6300988471752045, -0.9999999250220533, -1.0, -0.7144328873342813, 0.9999979991633412, 0.15135763373772415, 0.044403016778721695, -0.6984784088460403, -1.0, 0.9712735174762163, -0.40305156542454096, -0.5272956039868388, 0.14670982243722452, 0.66286339185282, 0.40470578066394947, -1.0, -0.4493569239080889, 0.44735063454773594, -0.7233511217925942, -0.37956945097666867, -0.10339209478834631, 0.39994699266012074, -0.29105918903023636, -1.0, 0.9989769391122064, 0.09652247059104019, -0.41300942715299516, 0.3216414926497134, 0.0819571072593612, 0.6171936194209914, -0.0031950352641648516, -0.18421507435376303, -0.6321543936969511, 0.6775398322882562, 0.733786433023091, 0.997136406569529, -0.08331031417491946, -0.7788168831432448, 0.33318227156408364, -0.9957387321912159, -0.137846347202316, 0.6138609422981066, -0.658218374135192, -0.9998103030200096, -0.4185018669169174, -0.42241351540313476, -0.26134940870441337, -0.03166625862789581, 0.9999741649528786, 0.5819384496417932, 0.7118466937556719, -0.8183071766911792, -0.4700134300471934, 0.8748930742467039, -0.6258136068887119, -0.40968172480656073, -0.4712036266198526, -0.999999999999999, 0.9999998701536306, 0.2791853247867485, -0.8822185004588077, -0.08560407110583591, 0.7047867565482882]], "w2": [[-0.083238727149886, -0.8639602249554703, -0.5307246708415454, -0.1584515924488781, -0.29092155164363026, 0.15936733461628902, -0.7291985176932454, -0.28483899702592325, -0.8839097213242819], [-0.99961955452795, 0.8429729156997849, -0.9999999999999999, -0.5231644910906941, -0.5582745372707895, 0.40869246417733734, 0.9901245698607241, -1.0, -0.15736851497249474], [-0.3520601687912379, 0.6901485471369468, -0.5983768107546817, -0.13692819287641333, -0.26672107744705725, 0.5925525076592291, 0.1778304802443849, 0.849018310530403, 0.39322184113249004], [0.22091998293774345, 0.004170127861317181, -0.16574868062154632, -0.33274623412059334, 0.9993452489610681, -0.5872626019287023, -0.4116447331937741, -0.27084322892632917, 0.251114354104592], [0.9010083996184626, 0.594861904500726, -0.5714027683423447, 0.9999999999931619, -0.5090642251029214, 0.9866213885727457, -0.05728249421487781, 0.7844991646956435, -0.775211834990114], [0.26215233683069744, -0.08050375357651963, 0.5072846207457392, 0.0529233092962575, -0.814708341950987, 0.1355270758621478, 0.8329195792791355, 0.6553730116432859, -0.7977905201552618], [-0.7679303634772287, -0.2589674753121848, -0.3996780018632889, -0.265795603854445, -0.21557726614423284, -0.45587585449651247, 0.9923450626031382, 0.1915656730329865, 0.32064794470742586]], "b1": [[-0.20687077669753506], [-0.6500289183774622], [0.8737849400649846], [-0.6863640430773951], [0.2054168179381584], [-0.07226780845934364], [0.2978377477874972], [-0.27985605476580666], [-0.10183480939362202]], "b2": [[-0.7097318094711208], [-0.016146342015015414], [0.11454671805598425], [-0.047543825833285376], [-0.6818608886352793], [-0.6961386798809939], [-0.865676854584384]], "fitness": 252.0, "best_pos": 7.0, "best_status": "small", "score": 0.0}