{"w1": [[-0.19453362996848003, 0.6649430848103192, 0.04854048203979248, 0.2289114664900515, -0.18068771900060582, 0.5599414514988664, -0.9999914633362165, -0.6770561996693482, -0.5537259911000417, 0.13829409418683494, 0.15194491352363715, -0.6016906429839162, 0.5828170504817759, -0.9999999999999996, 0.0862470400190467, 0.38587012003369864, -0.4413603486906848, -0.9999999997406809, 0.18700237652334223, -1.0, -0.8044721340397979, 1.0, -0.36896061091357096, -0.22322131687145869, -0.37031575842822273, 0.9377480047577809, 0.40585738734286236, 0.6094613877981493, -0.2544049896000197, 0.4109952198236992, -0.7053005489455365, 0.6820243819426468, 0.6643467647350619, 0.4698700570659107, 0.5081043065301505, -0.92657574549461, -0.7029990513357143, 0.8466508814629188, -0.10317713684731894, -0.9577207654509976, 0.3942868360682814, 0.1917613146104965, 0.4773694772139284, -0.6126261670653627, -0.6576185603218087, 0.3592887644571802, 0.5790374467585121, 0.3903242431768474, 0.2831349044566013, 0.5296985225260669, -0.5210210858163983, -0.8213374595568697, 0.9572110206217909, 0.2931917910725335, -0.31339518520754167, -0.9979665600367129, -0.7407269428976659, 0.99999942055707, 0.7821786322629651, -0.9231663387278669, 0.6439835317276826, 0.6217407248644793, 0.1916978136849852, 0.38986215234244925, -0.12717831921731856, -0.21465736387399967, 0.22093722837968083, 0.9603844785177459, -0.4529484482687537, 1.0, -0.8961677473585047, 0.07803631524818892, -0.14002336033791288, -0.4319831333302816, -1.0, -0.4745934995775296, -0.33676927939953094, 0.6580075973192409, 0.8506939092608536, -0.7967356995448313, -0.6979283382690078, -0.08557568449288501, 0.6655216294137647, -0.9994416322091223], [-0.23752531301707172, -1.0, 0.8265506565400151, -0.4988014533219617, 0.929041041225991, 0.5654186666731068, -0.048711085717667364, -0.7927162515499793, -0.3029351889487268, 0.6383038587601814, -0.30759540608459923, -0.3267370180242474, -0.7560197636265432, 0.43444408556374947, -0.38651582926661704, -0.4561118857916112, -0.2461201227971993, -0.051893814330882373, -0.7450854439847928, -0.641178352844193, -0.7304115941026396, -0.6065596361921075, 0.19435750189424042, -0.32480319914050076, -0.9965088599823284, -0.8440915565300684, 0.5244404688429283, 0.2422306159187393, 0.19399010579031442, 0.23935625940592872, 0.8823012649493449, 0.23710684775550972, 0.6198027293769622, -0.10442555945907434, -0.8977150768131901, 0.25718277286419616, -0.9991624563034247, -0.19309866069961035, 0.5334110439505576, -0.2766653966425969, 0.15759620218249432, 0.7827936606829943, 0.9999992324546475, 0.019719505401311774, -0.5391746164401348, -0.5354264682359944, -0.8289176490749294, -0.8834451067209593, 0.26767339190943823, 0.6264985717379437, 0.9978855720399142, -0.38107673211826143, -0.9110378906575456, -0.03902707313057002, 0.8580915510374592, -0.5514660632203019, 0.0021720455375890727, 0.8647098886890983, 0.10650539425559262, -0.33030264235615703, 0.14318938177438845, -1.0, 0.6319607232890734, -0.7501168594744834, -0.9996400113933472, -0.10240198499101923, -0.9986577782745096, -0.5520762127656119, -0.4966306157254758, 0.7381953398943546, -0.5291225307922633, -0.7567761064738492, 0.09586142576389431, 0.08979416992487896, 0.9976427206959975, -1.0, 0.3284378156442314, 0.07750422417630605, -0.999999974697669, -0.9939340336480216, 0.7625682770811274, 0.4338252640719604, -0.40207907960163813, 0.7463835717610379], [-0.8420178382485979, 0.5675647366940064, 0.17431041677126818, 0.3483796965528184, 0.27959952526162324, -0.06262762949828807, 0.9795062906393993, -0.7189291341489357, 0.1221413306472735, -1.0, -0.8861936190845716, -0.6792180743250988, 0.03982279449778882, -0.39621091323869656, -0.5078639030638156, 0.2068677855888027, -0.4091998282002286, -0.19148944530236228, -0.1649100126047492, -0.6196502330128423, -0.48720435444330057, 0.5230348120899996, 0.43638596323384793, 0.9032236256737458, -0.9999997726357914, -0.8984548830340091, -0.9970965398955568, -0.05189387844396775, 0.9814388953971306, -0.46491642589264254, 0.45591484724329306, 0.4969485810411641, 0.642443431531573, 0.05678138061830829, -0.3963131185557716, 0.9910822058785881, 0.7339201411588756, 0.6773851851551029, 0.9976574380023018, 0.1188199201999838, 0.732193387731808, -0.940550942730512, -0.32271863271044915, -0.1161367595725922, 0.3921766962599659, 0.25328232030769005, -0.4315977971526835, -0.9992015240563501, 0.36504067057610745, -0.5361867670182826, 0.17551286408123945, -0.8700210534655086, -0.30934783706514507, 0.5073731303056258, 0.4709991163993307, -0.2110700408297489, 0.3020528205183288, -0.2841872527604452, 0.8140551624637002, -0.0015321031134195515, 0.1909549821828169, -0.1313229860215781, 0.9996170256921786, 0.030353424724237982, 0.9994114699106668, -0.16995517857196565, -0.8844505434203703, 0.23970054215454087, -0.7778368295752899, -1.0, -0.8745935899711829, 0.6565115502772481, 0.9657536194740585, -1.0, 0.12337352747666912, -0.7380330854835674, -0.5911695725471336, -0.1622761961337291, 0.6830731548011217, 0.118104133512441, -0.507150297205591, -0.4351750714244973, 0.9841906203611873, -1.0], [-0.10317718010387608, 0.3173705703783, -1.0, -0.18184362606303212, 0.8407358531495118, 0.9916310153468911, 0.047727989811473366, 0.0619848286244392, 0.9999980879871121, -0.999999991951102, 0.09813053832376804, 0.7957667746044405, 0.10988504125712031, -0.42034102113208244, 0.5226485237868568, -0.9804123202873456, -0.23679757865504142, -0.8832468280308217, 0.14114608194924355, -0.9999999999999999, -0.30593645063140884, -0.548781126218256, 0.5587093292530741, 0.5073313671351117, 0.637172939045083, -0.7113077997722455, 0.292604638475254, 0.9952046089291968, -0.4533732292139097, -0.6429552133272033, -0.5944531864721883, 0.35248996684967576, 0.7580206045562051, -0.181462311367715, -0.400539304133633, 0.5398722861761189, 0.031981814711104145, -0.7691577580414568, 0.841692171047382, -0.7719280980897627, 0.22959315303809993, -0.37319884481058446, 0.6314859261225336, -0.19996025672510792, -0.9809495869357401, 0.2756048142119727, 0.5528209111670259, 0.0861087000232854, 0.652604032862459, 0.04732062068926829, 0.01772531938201484, -0.8280949100565465, 0.9976412433990368, 0.7948266598318147, 0.6082607126210685, -0.8194165225777479, -0.06353372530580988, -0.43296154265439696, -0.7004245832912211, -0.4808566954068373, 0.18540447259211146, 0.0934838725336902, -0.746152433709661, 0.5166981522777704, 0.7891445625343343, -0.03642352633606208, -0.6471760269047668, 0.5330658990931421, -0.9022610725219756, 0.4507822501575664, 0.8299361227942732, -0.9448705468542595, 0.6891229635581232, -0.6166550014626946, -0.8105164983853305, 0.03365201523818973, -0.6512562262987609, -0.855174866556806, 0.39349342378470614, -1.0, 0.20347404553303508, 0.5373665120232621, 0.6592863776380407, -0.851291818421424], [0.657072717573462, 0.935661976053551, -0.13428051123846743, 0.9999996842420189, 1.0, 0.18599108678420664, -0.9656921820216315, -0.6740682328832445, -0.7244622790526527, -0.8015452724351678, -0.9999491068241868, -0.035120902080598204, 0.6470471794983164, 0.3404076001275251, -0.47446355075506874, 0.5412480238918139, -0.9999999999997464, 0.19850275425948252, 0.8296128995844559, 0.6117744211523255, 0.21246852945291517, -0.14688228281249793, -0.9999999999999999, 0.9999996965327571, -0.3441286690398574, -0.5917938038550191, 0.32116919268044924, 0.36775136768205785, 0.428846069781174, 0.6847576437455801, 0.998988100361914, -0.08587306356183055, -0.43969563508090853, 0.3144425071136728, -0.09768905146398747, -0.40324228880337837, 0.6324670677776649, 1.0, -0.09895874460730127, 0.8919671400693979, -1.0, 0.5154205621900247, -0.02684387497040237, 0.6355658862198894, -0.2621437303301866, -0.5501390992872295, 0.05747822215333819, -0.526019313132959, 0.4242071587428037, 0.08578510014780608, 0.6332656170682679, 0.2681444397034823, 0.1443433913513753, 0.9399960243629379, -0.17815335902865698, -0.5864219002285608, 0.6582320620329424, 0.12097708903620699, -0.419812009332665, -0.8319434959427435, -0.15281335473803634, 0.5529733784045578, -0.43604912202494517, 0.7580697338810557, -0.5613640612320683, -0.7465498003467982, -0.21537603620167983, 0.5927651292600822, -0.8346056503017875, -0.156178573160562, 0.3035088546052112, 0.6928982599275146, -1.0, -1.0, 0.39982573879596245, 0.7127709629640498, 0.08228645782658463, -0.7410442534476023, -0.5366269569421405, 0.4051341670787764, -0.6659882665355878, 0.3211428057241379, 0.6933458747701118, -0.5807911180784829], [-0.9238847837325703, 0.07770553367402458, -0.7832627105507382, -0.6885559716520584, -0.6109795123204287, -0.25695200754480635, -0.3593631055528049, 0.20485918640826978, -0.2807402951491969, -0.9999999999513005, 0.34550841699913876, 0.20805910860790205, -0.8619341060401695, -0.34679765560081005, 0.8670016470714055, 0.9987939935916407, 0.12156084276324804, 0.8898543239790028, 0.7292129057037008, 0.5074165456807065, -0.16130081012796196, -0.4033091865743742, 0.5099034173322463, 0.6609740781110861, 0.6669248510409463, 0.2330767243686483, -0.1654885272527757, -0.9045598929060555, -0.20249147301581089, -0.31220156116572007, -0.9992853454379114, -1.0, 0.847096036531617, -0.8437800985888902, -0.6259717544994262, -0.9829403790968189, -0.6431868725856805, -0.9978971607729706, -0.676195708411144, 0.04696234779868336, -0.1590490964335551, -0.7448876926964568, -0.7003051125236477, 0.7823879566590716, -0.7746005436393835, -0.5823339964330674, 0.1495245430963019, 0.03672399711137396, 0.656291119714627, 0.007450746056968756, 0.9956112573187611, -0.09470886329163997, -0.6494327643893397, -0.9965585947215395, -0.6299058072003082, 0.7056490912797634, 0.48359129860265376, -0.3358417002958238, -0.11086355011883758, -0.537160890401078, 0.4173980127615934, 0.36176519348625197, -0.49058066754681695, -0.9113840783918863, -0.9977395594370023, -0.6840665521642413, 0.998994251257111, -0.5716736806546925, -0.8560934690079256, -1.0, 0.17658126881078798, 0.3352147600200064, -0.7797682796148826, 0.9137034523722588, -0.999533618831035, -0.3064112236084802, -0.23513930060551191, 0.13735869042496868, 0.4070524865377981, 0.006363520062914556, -0.7427395950049976, -0.18024752175753944, 0.07078555511257233, -0.5938823023026037], [-0.9993530970264408, 0.5212165927708547, 0.27703917836472103, 0.6652535589673185, 0.20385709031033072, 0.04087471121235298, 0.6501267072696455, -0.19004809349514482, -0.2640153629891191, -0.6343394196537104, 0.5744823783662433, 0.23827488759213894, 0.7243429747348871, 0.9988607562264957, -0.0035607788621341003, 0.9997315617282432, -0.561909912720505, -0.3429466608500889, 0.9992619169259951, 0.9997795511864243, -0.40567987683761936, 0.17387701919295048, -0.1336871392257929, -0.14433145874128883, -0.2921124718249653, 0.2360658392420221, -0.6089097878754222, -0.7859501453432596, -0.9945847892253404, 0.03460545383190779, 0.8233772645379664, -0.08229167208868512, -0.18973276380951437, -0.1500663957083223, -1.0, -0.276258296762554, 0.6763864416011542, 0.49800231276836604, -0.6011970720171598, 0.8103799956089599, -0.603001025018689, -0.9997876187881272, 0.8455739957443984, -0.326475247375369, -0.6551734596783456, 0.5644803150664107, -0.43629133916103874, 0.25160633527850484, 0.9999819934691263, -0.8401054519863648, -0.5258612814409437, 0.7046414848153171, 0.7566990566839332, -0.1786923722960487, 0.5227115955475081, 0.3655854436080257, -0.7436390790273679, -0.1358759033647354, 0.23823706551500756, 0.9318024595590829, -0.39920132898282246, -0.2492861924719139, 0.5435139229134432, -0.20065279297736946, -0.9569973891983297, 0.6319315244010163, 0.2549465900153199, 0.5919981908946154, 0.013740590794298926, 1.0, -0.4557799752302737, -0.8161125204513323, 0.9999999999986664, -0.02724176317220339, 0.9984109553853554, 0.6986267592731453, 0.8322994374857043, -0.567759251372694, -0.8214545596777344, 0.4402636181706042, 0.6988789762577893, 0.2784071198843239, 1.0, -0.158685452869885], [-0.6990591856066257, -0.4502713523742727, 0.7208397172950655, 0.06750209465946545, -1.0, 0.6837303565144667, -0.6714211378668257, 0.7572342509283209, -0.7000929530936821, -0.04733427083422975, 0.28522822062433295, -0.39189341217089274, -0.6313808623251091, -0.0780813145161831, 0.5183986716783919, 0.48741295572773546, -0.27127256970944885, -0.6525492103665943, 0.999394181415828, -0.5955149100752616, 0.6144870240922505, 0.09189950611843051, -0.5088555820543362, 0.3582467433119676, -0.7488028182849393, 0.5473701029064268, -0.7616443281856338, -0.010695094319312056, -0.6665550753071399, -0.9989324320193247, -0.8458498212747904, -0.8282719017009854, 0.9994500447878432, -0.30100730972458356, -0.9241977994402305, -0.1233538682335028, 0.025794766954165056, -0.8980477565338573, -0.7221742756354291, 0.6488041619613769, 0.07032666259736024, -0.596165172882207, 0.6178128418965331, 0.509653155432437, 0.547614638442898, 1.0, 0.7501323229983686, -0.9989851516117326, 0.562196184386717, 0.03711513175375179, 0.9999923596592756, -0.2189681946662495, -0.8385811453009692, -0.8423542094840162, 0.2724086730358355, 0.061868793599894556, -1.0, 0.8162702412616727, 0.684755763394054, -0.9979009245689625, 0.7183923056765061, -0.47599078370437076, 0.3116535161345367, 0.999999805267775, -0.3697476493856679, 0.015591725188841159, -0.9958934004764283, 0.56676624252863, -0.06089535789569814, -0.9999999999999998, -0.9999766836671097, -0.5914243057297038, 0.4588008171145704, -0.8352676172949737, 0.7847649983728991, 0.20130834421949667, 0.8739746098907912, -0.0997459153670697, 0.9599098397622684, 0.6780588186287159, 0.9949185914796471, 0.14147333123475106, -0.9939218068141974, -0.36623584774955487], [0.5819005128139219, 0.3188141434029484, 0.06496844945298333, 0.6979358815764019, 0.4192156195936244, -0.7073458969930156, 0.9752221454331784, -0.5700463007334124, -0.6325846818021119, -0.9913857460370491, 0.9912069916831101, 0.8584162947146519, -0.3184233419536453, 0.05308137394957627, 0.39745112996991744, -0.8899966150120209, -0.4346509768228348, -0.7328987807336429, 0.7203127855527531, -0.728948115141601, -0.9999922367897838, -0.35341088467106113, -0.6132023482984031, -0.901906819935907, -0.824517112088911, 1.0, 0.450378022191388, -0.0824841451417715, -0.9682812766346784, -1.0, 0.9999999999999999, -0.8196983757937103, -0.4226189707340152, 0.41273907968481904, -0.15759404329185953, 0.4138206382011988, -0.7854775323541775, -0.15243885872061633, 0.794567601101387, -0.99999853981806, -0.9649195728636911, -0.5250620198050107, 0.1358031169069302, -0.2007733212644227, -0.9999999999780477, 0.8732977784556738, 0.826968178536954, -0.03330087389361325, 0.9531489290275382, 0.6793578331186847, 0.5722647478358497, -0.40026461222329324, -0.36289176113842797, -0.26479988496772067, 0.01173050968930942, 0.786128855727915, 0.9999812116297211, 0.2229139091762052, -0.9986028607738329, 0.8439335972351922, -0.5250586969434833, 0.3369468717566341, 0.627374456865553, -0.13394144993111803, 0.4301251868738314, -0.2850827490385425, -0.7324041069118504, -0.3800367850322525, 0.04967881191130459, 0.8525920239035466, 0.41357641603770806, 0.04034403427847568, -0.6653958492681992, -0.6071002204771103, 0.9978195625014541, -0.920055095203506, -0.6502805980295452, -0.4611354678946634, -0.8769088582534116, 0.0864692313104377, -0.017017045456257127, -0.6532095836107865, -0.015618621452851294, 0.6105432577648406]], "w2": [[-0.2723088584450129, -0.9999523715243015, -0.28767031724634906, -0.30024720912316266, -0.6096320487402364, 0.22672728154623162, -0.9999999999999999, -0.35421070032678076, -0.8712182940386948], [-0.9676758227882655, 0.9999999870285691, -0.792952988097205, 0.05331861854436553, -0.09438080720124788, 0.6606001356015242, 0.9239926163978269, -0.17354746227853501, -0.2892867319893196], [-0.1690682769502105, 0.7013460745241591, -0.5160191844259618, -0.27638799356172183, -0.7280603172013618, 0.06581316518184928, 0.2734550249946332, 0.5966344500540579, 0.4383043489065938], [0.24875630052198355, -0.2742679763979643, 0.44252282357654865, -0.19341240197985227, 1.0, -0.8058551176094612, -0.2704318352027388, 0.2615570797990566, 0.1921694757252349], [0.87255429317704, 0.1988532744874693, -0.33297804049876656, 0.9999838762368294, -0.2343017286067777, 0.9333241660238287, -0.18591761336120524, 0.9638385350051175, -0.6133299236013106], [0.03477298939634094, -0.3246672122833493, 0.3639592906094194, 0.4651759574807401, -0.9787009457176495, 0.9999999999999999, 0.6343189384701827, 0.3822561697357579, -0.7034745206674851], [-0.8490109058995846, -0.36555481217270996, -0.28905875057522384, -0.18422616515296245, -0.08760752910453838, -0.027353880912974398, 0.9923452549698852, 0.6243261518767387, -0.029103707632559442]], "b1": [[0.05957718313047161], [-0.6465092308166538], [0.8861867368191823], [-1.0], [0.4729776249293033], [0.12540733369017298], [0.31322432454047267], [-0.08217503306306148], [0.12119103855080972]], "b2": [[-0.824638964160668], [-0.05464521986906895], [0.4832971252536307], [-0.14470394323521382], [0.06112098598761132], [-0.635433897089169], [-0.9975767880965777]], "fitness": 733.0, "best_pos": 7.0, "best_status": "small", "score": 100.0}