{"w1": [[0.05333863910215832, 0.665197668986021, 0.19489045949978073, 0.38059877379865875, -0.17335448069664597, 0.5600044781612764, -0.9999990440889979, -0.45831150797987036, -0.6650307112718827, 0.1387084611064891, 0.1519357794425378, -0.4481700698377506, 0.5823657075450064, -0.9999999999999992, 0.08638074672901846, 0.3869717447593356, -0.5200504368147187, -0.9999999997406808, 0.18852888987883773, -0.9974858614573967, -0.7306301588058619, 1.0, -0.09884683681158574, -0.2637857367067309, -0.23173365492957246, 0.9372576756048365, 0.40510566962578104, 0.609461606635279, -0.2544035900408126, 0.41099518388609696, -0.8387172689675287, 0.680794746740658, 0.6185302123247016, 0.20319938947950794, 0.5077964180456408, -0.9266808705261051, -0.8701054179365293, 0.8474761219263105, -0.42005687777645134, -0.5636482418876638, 0.6927379290213223, -0.09507947640684146, 0.1083552126779968, -0.641688205659057, -0.6584702373113402, 0.2944348543494257, 0.5765377517152226, 0.501147376320678, 0.28314422811938705, 0.5323333884075964, -0.6442450187906075, -0.8457980690470751, 0.9999999921035689, 0.29296309148285027, -0.3058624881036733, -0.9873632474500419, -0.7427576679315909, 0.9810483253677156, 0.9999589178668709, -0.4578747592334595, 0.6733040706153868, 0.6220722193297754, 0.2101064450539333, 0.39114654531093623, -0.1277250518683045, -0.28634578012751244, 0.2230783349814792, 0.9999497471161712, -0.4529484483775739, 0.9998913604144933, -0.8958813080833486, -0.24329886536635628, -0.7841029615286019, -0.3450669885261927, -1.0, -0.6264004241905656, -0.33765557666307694, 0.5737793797347176, 1.0, -0.47660056507879617, -0.6163232111021667, -0.02751501493908467, 0.5527055487964901, -0.9991867999898552], [-0.23752530553990966, -0.913714405789255, 0.8304337215588362, -0.4973395093698226, 0.9984321745760903, 0.5654057253176036, 0.16309652724728352, -0.7946372245867492, -0.30280883914043394, 0.6385361923900829, -0.30746020213394826, -0.3267267407865019, -0.7610081126501009, 0.4354273478626403, -0.3843093075765255, -0.12769148958867071, -0.24372298147095434, 0.11151389550551678, -0.8607771584964826, -0.6380683520823787, -0.730604556126452, -0.24839646964249498, 0.19344793517348408, -0.3230569492723645, -1.0, -0.6649171351521906, 0.5244391586764189, 0.24206619828655332, 0.1937912034230804, 0.2395070278454052, 0.8846391699659942, -0.10233946225229258, 0.6198148189443878, -0.28488357425500827, -0.7880860963234343, 0.2269407390208676, -0.9996812615804365, -0.19263735967935774, 0.532368518503686, -0.27666363076238537, 0.15929523517408534, 0.7844941599648871, 0.9999996526030219, 0.02011923066492084, -0.9841223245716862, -0.5356045874489322, -0.9392576171485758, -0.6723409210832195, 0.35356143327287565, 0.6628375349748775, 0.9978853895761146, -0.3646131786649708, -0.9139280910385859, 0.31172390467298194, 1.0, -0.5514613906150952, 0.08232423041942298, 0.7941003279636835, -0.2559481721195602, -0.330943290546796, 0.16375372791553658, -0.9999964948342874, 0.5608235566566159, -0.9997701476204166, -0.9988217706084735, -0.10240272637902803, -0.9986672480222006, -0.11735103417362791, -0.30862273225413606, 0.7514342377412924, -0.5296085204195843, -0.7567716770342482, 0.09566631461445935, 0.08978334725855326, 0.9999999488009742, -1.0, 0.4892843123261951, 0.07651961790991574, -0.9999991600167056, -0.9999515872230914, 0.769007562450106, 0.43344486047258224, -0.40398450385345736, 0.7160712383010635], [-0.8408269831772239, 0.631506541891553, 0.17390463770072037, 0.3495339170521972, 0.27649947655898455, 0.11821630801153568, 0.8956572993582362, -0.7193433641011262, 0.12325032711559852, -0.9996845676745938, -0.6496450446096624, -0.7851357482434324, -0.1889705943985031, -0.39621091486674, -0.7002209817830991, -0.06582747465377924, -0.4092345558650692, -0.19147415613218716, 0.4353086398693289, -0.35756700538612995, -0.4870806992528098, 0.15724194775822278, 0.5046372868867413, 0.9036702970081163, -1.0, -0.897847022346247, -0.9616182280040996, -0.44504678291936206, 1.0, -0.46488329539687284, 0.3649865027740551, 0.23854423781510342, 0.8848558919052539, 0.057762040564828115, -0.3140256964630652, 0.9999995902290544, 0.7570885945921443, 0.6369730567243619, 0.9976565481178711, 0.017695144445309712, 0.7318444228347364, -0.9403542587862713, -0.3201802759957286, -0.32244626597798276, 0.3949097325944384, -0.21089559072716008, -0.43364252282116195, -1.0, 0.5514312655328726, -0.5333123983755611, 0.4130960515355129, -0.9999997569020924, -0.31631014517134676, 0.5561123300360813, 0.47230985939890513, -0.2508309367124753, 0.3835428867372032, 0.11334548967667961, 0.7213723065695494, 0.05773283763631281, 0.1910215187349471, -0.241115124617953, 0.9275502831189423, 0.068527681547452, 0.9994064550858319, -0.1699703348515846, -0.8797502440552112, 0.23969999457856944, -0.9451396683749977, -0.9999999999999998, -0.7430418679914763, 0.3635968185770523, 0.9657588724620516, -1.0, 0.12266456933367181, -0.7222450719554918, -0.5908725048153899, -0.6014444316428287, 0.4994769184493651, -0.11065106611444785, -0.5071503019231769, -0.04606291132002569, 0.9996194930767112, -0.8214809845656033], [0.03165208071007415, 0.45028167389047685, -0.983099849298724, -0.3894073104075492, 0.8409099394821836, 0.9999999814065296, 0.047711309824962134, 0.061984834534504554, 0.9999988365686411, -0.9987702592186689, 0.0836050400910079, 0.7957694953280906, 0.10988504961222553, -0.4266182858809959, 0.5780051507314002, -0.9961493545041716, -0.23667292081849095, -0.817976954075456, 0.14026697553989592, -1.0, -0.30535429022036226, -0.5433059582771133, 0.8531228488678232, 0.5071739154096577, 0.7648205328742025, -0.3977225078972004, 0.29260344613102074, 1.0, -0.45371693234224, -0.6451103255787957, -0.8173775983041092, 0.3524891229213545, 1.0, -0.18145782404337207, -0.3985532862433152, 0.5430149649791017, -0.07860495728766595, -0.9993991638443507, 0.8416921615358209, -0.7719176526102318, 0.2272157780302281, -0.5107824699341217, 0.4538340100486204, -0.40819369034300546, -0.9808914507203248, 0.2755442837315533, 0.5528208254118187, 0.1315121430386701, 0.652107474576255, 0.20646687541315117, -0.09418176331722862, -0.8248018998067946, 0.6900091622011213, 0.6504233098410594, 0.7408524817371305, -0.6992243866634825, 0.3446850755898862, 0.11311035396251438, -0.7001689304560583, -0.4850738593413985, 0.18540099081767433, 0.12363774300579927, -0.6353755598141724, 0.5174044372659817, 0.7848505400616265, -0.1347099866944981, -0.6499470258512945, 0.5332948676950616, -0.9016606109228426, 0.47175390096585496, 1.0, -0.9440339883695021, 0.6893280548128905, -0.616648621490892, -0.9684109617046286, 0.033651667895550276, -0.7410933378095758, -0.8558408062593952, 0.3940871745667962, -0.7627564722724746, 0.2053917639008184, 0.5362812519545669, 0.6591788637614471, -0.8512919742180701], [0.9985080290465117, 0.9887468371250834, -0.44895388154434296, 0.9999996856640149, 0.9738509871845031, 0.18599108678420664, -0.9657310397369925, -0.5755718891790856, -0.7240794545430606, -0.7730828296182813, -0.9999607804691616, -0.035120903659099215, 0.6473093606165673, 0.34040765472650664, -0.4744611805520578, 0.5405882952592481, -0.999999999794601, 0.19844917493194886, 0.8282924178370012, 0.2629975048819065, 0.21149135455695692, -0.17524177008449932, -1.0, 0.8069833178682331, -0.43706197352974785, -0.5917939338184443, 0.3802868167106641, 0.3677564361636097, 0.9062746155069297, 0.7386039852416755, 0.9976488554072813, 0.0943302422066297, -0.4408949476556106, 0.31566304788081573, -0.3154891094138276, -0.09314124181097297, 0.6772716964247675, 0.8398173701147957, -0.09897912323757788, 0.7919431197394042, -0.8882165529184305, 0.5158907973501143, -0.027843333613581107, 0.8824576782579562, -0.291638074035187, -0.5501390848144987, 0.08603261310735547, -0.5249440734994224, 0.42554112314502573, -0.21871724433894416, 0.5335058136095779, 0.4118062582508023, 0.5876257225614256, 0.9401817000209405, -0.17798115923619776, -0.5906025560198018, 0.6582321661848917, 0.12103275645563415, -0.04624314438224423, -0.9654471792199212, 0.13749242914175389, 0.549278116192431, -0.4319462398752874, 0.7563305658566477, -0.5032335466133439, -0.7150587948021104, -0.16360650795261622, 0.2829760714641597, -1.0, -0.15618108848571996, 0.3050781944195339, 0.4685915304461999, -0.8045451575558961, -0.9996917055586986, 0.9993563654751543, 0.47123543248751304, -0.2516609688615525, -0.47328714786243864, -0.536892274229504, 0.40270702217088533, -0.6698475229649815, 0.5240391491073284, 0.7268331842631716, -0.5818993082418951], [-0.9999983635922532, 0.07813218450465123, -0.794304391777322, -0.9621911560418832, -0.6109433793642772, -0.25768318759993114, -0.3600848969418877, 0.20495317058670076, -0.2807402951491976, -0.9999999999513002, 0.3459204091631688, 0.20805696133184273, -0.8619340631642822, -0.05095514688337466, 0.6730665681644901, 1.0, 0.12157824712090382, 0.7914177016538607, 0.728970473590061, 0.4755581035638791, -0.3945481600916841, -0.5368484888837425, 0.5100838058529007, 0.6609740774920013, 0.6660402760176865, 0.0811022894185239, -0.11491392670214849, -0.9115854929089293, -0.21153393527493802, -0.312220826208508, -0.9995629267886336, -0.8816974826708681, 0.8062791434232309, -0.8439069754405825, -0.7591819119165255, -0.9829102506744396, -0.6431866937590732, -0.9929341593811396, -0.4922610375961805, 0.31199947283651824, -0.15845573164125618, -0.7471461939190078, -0.6725605075922213, 0.7841384015117792, -0.7747978984856974, -0.8164922650691153, 0.2805763239177197, 0.03108837995312641, 0.6555229521597982, 0.3082264860260684, 0.997048229571745, -0.09470721558468428, -0.6505068000324652, -0.996468271020209, -0.6309500258546128, 0.7055102542984616, 0.4843503375100355, -0.33421082913515515, 0.23959885569111197, -0.8314721449020731, 0.32980349055711244, 0.5366165245856911, -0.49127605119290224, -0.9124436669753705, -0.7681720763524467, -0.4229251408290431, 0.9989962170889425, -0.7727074084272035, -0.8522789303474054, -0.9994087116189256, 0.036453565961052134, 0.33521478734164994, -0.5841892576624579, 1.0, -0.9026589272383022, 0.0809823617702119, -0.23603979482160814, -0.19316645612616837, 0.701525230929193, 0.006363518707273271, -0.7843258802443953, -0.18014756008222232, 0.011197784917096582, -0.7092750492331524], [-0.9999999968500858, 0.5206083018280219, 0.3313960220200043, 0.6651921768536313, 0.1899781734450447, 0.0617417860691931, 0.7124182114568377, -0.19004776786351327, -0.11810526765242549, -0.7486300546835022, 0.6282810030908337, 0.24066969960232146, 0.9790425782712984, 0.7575361506981284, -0.0027661529891234203, 0.8463172259447764, -0.5648704690327764, -0.34126028830972377, 0.6296661905213241, 0.9997061682273799, -0.4060522207989572, 0.0704265571587218, -0.19198797606474058, -0.12422411519761667, -0.42138278038081245, 0.7627764969138513, -0.9074736163420973, -0.5524479476661684, -0.8683870116959742, 0.03561839755641659, 0.7784926050121288, -0.08638787098583567, 0.1382083291607097, -0.15042432479912787, -0.9991519678870329, -0.7751218136096863, 0.8933553108585766, 0.4982175275333073, -0.5991534700669089, 0.9094414142474869, -0.6041372178568422, -0.6196281351676823, 0.9390432505884663, -0.1996821010770517, -0.9384825495488444, 0.5547186754064277, -0.4365867957767344, 0.25184124949193387, 0.9959301560969511, -0.9998893118186732, -0.526843861208017, 0.7089495734928799, 0.8868433660400623, -0.28507729960412675, 0.5226803022703672, 0.3656806819096098, -0.1568212575865982, -0.49997164326439103, 0.23854771447374395, 0.7295924351885551, -0.39920227918149, -0.24929242554994122, 0.5402646040722798, -0.2020393958542339, -0.9569974464828495, 0.7457879328741958, 0.253615775206064, 0.43042916726383695, 0.09932800775487091, 0.9989134095847992, -0.7264858764853823, -0.8099823289896647, 0.9999999999986596, 0.43029282196102936, 0.9991271417764275, 0.7000572898973236, 0.6775128872847983, -0.9936631000617085, -0.821455457279291, 0.44026359847497665, 0.5234750557925312, 0.2784112987534897, 0.9986803971584093, -0.3079634632878674], [-0.6991703516267963, -0.45042243041935165, 0.7700093855121789, -0.3417362584721876, -0.7985162746168302, 0.6766395164405176, -0.31545858639688984, 0.6616277938653032, -0.6997735146650568, -0.04760339498176538, 0.2852256345420147, -0.022148797872920928, -0.3672015753907005, -0.0780733389053696, 0.7548524376475447, 0.8459133867572616, -0.34631254472266915, -0.6519886847006943, 0.9993939308394362, -0.594838433904696, 0.6439851666145187, 0.09189426278626164, -0.9453896920533554, 0.08863500072639263, -0.5170073518853677, 0.30079879949741983, -0.7609128616105062, 0.2114961575104476, -0.8984723066506172, -0.9989315448515036, -0.9999970463990402, -0.8235888291591676, 0.9994487469798817, -0.3015128417171743, -0.5526468401698594, -0.41566996982759813, -0.1980824070639417, -0.9999999999999999, -0.9981489734860021, 0.6494030270054763, 0.25991575575431314, -0.5766371378953502, 0.314670620697905, 0.7071393642117088, 0.5477012714982293, 0.9999812275934572, 0.2203914898970086, -0.9984681898782659, 0.5665011628263407, 0.43944548146254525, 0.9999922593838665, -0.21896818824875386, -0.8416851412223993, -0.6820133019968427, 0.2014761935899846, 0.06111842969249385, -0.9996495870885113, 0.8180440202123391, 0.6828895736986079, -1.0, 0.4820246562183881, -0.5234877955260702, 0.24523497292580246, 0.939513337820486, -0.3715267590167939, -0.31673801969641097, -0.7397658887837223, 0.6352498261119893, -0.10566406561492696, -1.0, -1.0, -0.788213520363524, 0.46157778262126825, -0.7424199169898092, 0.6045945474928068, 0.023634426543458677, 0.8630815033131671, -0.09924688145602974, 0.9592771995630623, 0.6907337852051327, 0.9999999609292244, 0.8226141310609798, -0.9999785494700069, 0.007475511664935992], [0.49657857169820097, 0.31881179964341655, 0.06486733433499446, 0.6974597789200456, 0.5568146933323002, -0.705242092557606, 0.9999986503556828, -0.5700041702468155, -0.2879394377752123, -0.9913928836484083, 0.8355247903732386, 1.0, -0.3184231270955928, 0.05143788550641304, 0.46430764836506283, -0.8899966973298672, -0.4346504621430747, -0.9862473167672596, 0.7824930677270296, -0.5785158086485535, -0.9999999997836886, -0.6068983870792732, -0.6166011323281838, -0.9026910599267033, -0.8223678654646412, 1.0, 0.45043078035917894, -0.07861476770599442, -0.8686752248349751, -1.0, 1.0, -0.9010333085898037, -0.4226290374105832, 0.2976655070838837, -0.1587525500102676, 0.40486892977205863, -0.7852265154155457, -0.1524391811573275, 0.7945675721201934, -0.9999985421229308, -0.8941315559279666, -0.13670364051370182, 0.13119787570291877, -0.2007872254304225, -0.9999999999598762, 0.8732346389959678, 0.8067377650135144, -0.03240130546266116, 0.7941319926339849, 0.6793099572933528, 0.5725810662442083, -0.4003015469735616, -0.36249194265771917, -0.2648008192000382, -0.6627669209559268, 0.7861288557637985, 0.9999811996345658, 0.21926862608392333, -0.9986056695903339, 0.361815128833293, -0.542625178407908, 0.4424189220357958, 0.6275330886429981, -0.40803417185933794, 0.5332110507646629, -0.4918357007455225, -0.3935412169030212, -0.803061099294803, -0.1066135421253274, 1.0, 0.41467577816942847, -0.1053296983192537, -0.784086570068964, -0.607091615367647, 0.9978090659271575, -0.9192706750299595, -0.535196746314576, -0.45945324074493465, -0.9999962862152342, -0.06491564237375923, -0.01698628964880062, -0.6532207190014279, -0.07679686120378922, 0.7608137206361023]], "w2": [[-0.27089854319938916, -1.0, -0.2876703460403835, -0.08282160657065903, -0.34852877518516606, 0.22637647895447816, -1.0, -0.4127286045720216, -0.7458294410046001], [-0.9676756675148062, 0.9999999872551751, -0.9189931291389719, 0.2522531699012512, -0.09244350302536616, 0.6898910013121322, 0.9239926163978267, -0.17340768215113778, 0.06975143505327602], [-0.168983369134343, 0.7013460745239058, -0.6951235883048225, -0.0700414738962487, -0.6297409875876294, 0.013081178455012303, 0.27345505714000273, 0.609687674006284, 0.43830434820669517], [0.2196396896708995, -0.27634564169785847, 0.09956946056099442, -0.19341389855601734, 1.0, -0.8068557121658193, -0.26954870076558357, 0.26298818869906615, 0.19176296747927798], [0.8722972397745867, 0.2001771954177544, -0.650910981444914, 1.0, -0.23430187122831456, 0.9965637117434148, -0.1854915650178916, 0.9635177795924523, -0.5702343427213151], [0.0333993225414565, -0.47738202982442846, 0.2109731141199031, 0.8908155146923957, -0.999999989498396, 0.992864379640523, 0.8010077675432556, 0.382504502525222, -0.7043694356272874], [-1.0, -0.047407549033657584, -0.2448894837337503, -0.33761449298994195, -0.049487689029499404, -0.3497329076970514, 0.9923452547970422, 0.4006191073350426, 0.20865335800280968]], "b1": [[-0.31424038629144857], [-0.3910470259251122], [0.8868500927560018], [-1.0], [0.472458704897995], [0.1258812217631878], [0.31245922347450095], [-0.3932867062913542], [-0.05165111283775797]], "b2": [[-0.5991219829869319], [-0.0665194850837002], [0.6075001319731981], [-0.26519503888004675], [-0.18528775679377793], [-0.7715012841195839], [-0.9990327184904806]], "fitness": 2973.0, "best_pos": 9.0, "best_status": "small", "score": 1400.0}