{"w1": [[-0.19453369463878767, 0.6649430843715847, 0.048540444685471786, 0.38007226379090026, -0.18068796890563107, 0.5599414341420617, -0.9999914633358217, -0.4599885009939458, -0.5537409572604439, 0.13829411679762255, 0.15194491351505876, -0.6016970718395086, 0.5828170505095387, -0.9999999999999997, 0.08624704010638036, 0.3858626496984519, -0.4413603478246955, -0.9999999997406809, 0.18700237715862514, -0.9974858988220249, -0.8044721319079937, 1.0, -0.09881410244731031, -0.19044827315616358, -0.3697864466807357, 0.9377480047379799, 0.4058583174300056, 0.609461387805031, -0.2544049896000183, 0.41099521982369297, -0.7062850562265499, 0.6820243822203291, 0.6643471833894622, 0.4576002871054052, 0.5081043064404597, -0.926575745629793, -0.7029986096702516, 0.8466606345186133, -0.10320254375572445, -0.6073311842627774, 0.39428682965777284, -0.09481577519379863, 0.4773662330525813, -0.6126261695186312, -0.6576185603219488, 0.3592887526437789, 0.579037440600472, 0.3903242536706325, 0.28313490445559225, 0.5296985225267821, -0.521021044326435, -0.8213374597449953, 0.957211023917255, 0.29319280529976893, -0.3133949747961303, -0.9979665609888783, -0.7407269428688312, 0.9999994205570579, 0.7800153607493394, -0.9239867881161963, 0.6439836304237233, 0.6217451176231047, 0.20858516008422784, 0.38986214994158874, -0.12717811788053776, -0.21465736393460882, 0.22093722837493648, 0.9601429108171207, -0.4529484482687537, 1.0, -0.8961684666453046, -0.07050702549022489, -0.1400233584631213, -0.4319831367553704, -1.0, -0.6461369202108728, -0.3367692828741751, 0.5736089792294055, 0.9977660971072747, -0.796568325230987, -0.6979226814879007, -0.08557532140841309, 0.6656927352004784, -0.999441632587965], [-0.23752531301707125, -1.0, 0.8265506588177153, -0.49880145057251957, 0.9290413234599658, 0.5654186666050924, -0.048711113852947685, -0.7927162515379301, -0.30293518895229615, 0.6383038587604047, -0.307595407378622, -0.32673701796018073, -0.7560198277140132, 0.4344423423285356, -0.38651583002840556, -0.456111707060446, -0.24612012396961455, -0.05189383203019958, -0.7445748291292752, -0.641175159434703, -0.7304115941029015, -0.6065595945574831, 0.19435761196971407, -0.32480319915095307, -0.9965088600176669, -0.8440915691093772, 0.5244404688429655, 0.2422306347545347, 0.19399009135240877, 0.2393562582759571, 0.8823012648152287, -0.10236418773532925, 0.6198027293691621, -0.10442555944780942, -0.8977217852594863, 0.2571827717608857, -0.9991700690796251, -0.19309632292125917, 0.533411042461026, -0.27666539664259726, 0.15759620214619924, 0.7827936611422677, 0.9999992324546483, 0.019719505399897704, -0.5391746042983802, -0.5354264684530664, -0.828917643970066, -0.8834451064638563, 0.26767339283320074, 0.6264704498331958, 0.9978855720398806, -0.3810767317195624, -0.9110378863801598, -0.039027713722920895, 0.8580915510374608, -0.5514660632568124, 0.002172045537589202, 0.8645908696129208, 0.10650539630503464, -0.3303049877838729, 0.16578189700774298, -1.0, 0.631960751921575, -0.9994526804875906, -0.9996400113312043, -0.10240198499087676, -0.9986577782665401, -0.552076212843711, -0.4967868082370306, 0.7381953755070602, -0.5291225308152185, -0.756776106473873, 0.09586142584007172, 0.08979416992414728, 0.9976427388434764, -0.7330014703328487, 0.32843873814728264, 0.07750421031081826, -0.9999999746990372, -0.9939340341142566, 0.7625622944627284, 0.4338253074077384, -0.40207908181379487, 0.746383572203425], [-0.842017838167723, 0.5675676317458179, 0.17431041685848805, 0.34837969681521197, 0.2795995276671455, -0.06262739116785497, 0.979506298437285, -0.7189291341488239, 0.12214156653713458, -1.0, -0.886223816091336, -0.6792203757430134, 0.03982275172410449, -0.3962109132387156, -0.5078638918277776, 0.20686769160870366, -0.4091998282104813, -0.1914894450347227, -0.16490021859074963, -0.6196501245949371, -0.48720435444334764, 0.5255827170865678, 0.4363859634906177, 0.9032236194096458, -0.9999997726472805, -0.8984548830681909, -0.9970965395565246, -0.05189387966454783, 0.9864161610837404, -0.46491642411912243, 0.45590820521390646, 0.49694857088841765, 0.8848469594985011, 0.05678238215824183, -0.39603975156650345, 0.9910806829424581, 0.7339199278586013, 0.6773845979353293, 0.9976574380026881, 0.1188198948351226, 0.7321932828488587, -0.9405509427101133, -0.3227186327557877, -0.11613664600912177, 0.39217667366239534, 0.25328232652707083, -0.43159778989300424, -0.9992015245449064, 0.36504067254846895, -0.5361867822954784, 0.17551536743281623, -0.8700370426211875, -0.3093330884625005, 0.4777712262086905, 0.47099911561733865, -0.21107004081285355, 0.3018293072404128, -0.28418727386551856, 0.7857915794612095, 0.0585597777999707, 0.19095498214737058, -0.13132298769216064, 0.9996170260166398, 0.030353424724221076, 0.9994114731869956, -0.1699551785733851, -0.8844629158551035, 0.2397005421545411, -0.7782927596377149, -1.0, -0.8745935701348027, 0.6565055020002072, 0.9657536194098478, -1.0, 0.1233735247683924, -0.7380330855258053, -0.5911695698287205, -0.16227606707041364, 0.6836240300074596, 0.1181079988060564, -0.5071502972055901, -0.4351749354065203, 0.9999983073797656, -1.0], [-0.10317718010390817, 0.3172210767730618, -1.0, -0.386395508389775, 0.8407358780885719, 0.9916310192072422, 0.04772798980986458, 0.06198482862443921, 0.9999980879871472, -0.9999999919486965, 0.09813053832956921, 0.7957667747168288, 0.10988504125712412, -0.42034102123101563, 0.522648523796115, -0.9804123188733637, -0.2367975787128796, -0.8832471770722267, 0.14114608194924427, -0.9999999999999998, -0.30593644824806365, -0.5487811268619025, 0.5587102502806327, 0.5073313671351535, 0.6371744312952463, -0.7113061434857643, 0.2926046384752553, 0.9952046098402336, -0.4533732292145769, -0.6429552112305102, -0.5944531941865873, 0.35248996684971984, 0.9999999999999999, -0.18146231136828211, -0.4005393143972383, 0.5398722861393387, -0.12729682688176067, -0.7692049601807552, 0.841692171047382, -0.771928098098591, 0.2295931535791641, -0.373198844047568, 0.6314859707089556, -0.1999602564002248, -0.9809495869653637, 0.27560481421197264, 0.5528209111670387, 0.08514245796791924, 0.6526040328307783, 0.04732060199256741, -0.00854392522033244, -0.8280949112239091, 0.9976432381158151, 0.7948168813391258, 0.6082607125512128, -0.8194165978638797, -0.06353372605603151, -0.1323213636821629, -0.7004245832919901, -0.48085669896159117, 0.18540447259144258, 0.09348384946059535, -0.7461524447193355, 0.5166989398024463, 0.7891445916001536, -0.036423547613363104, -0.6471760268827462, 0.5330658276735192, -0.9022610741935168, 0.45078225610335243, 0.82968817300041, -0.9448705681816686, 0.6891229621192931, -0.6166550014653773, -0.810995431181667, 0.0336520152381834, -0.6512650103851585, -0.8551748666067558, 0.3934934237766291, -1.0, 0.2034740010714898, 0.5373664761718858, 0.6592861492819442, -0.8512918184214118], [0.7840021202325592, 0.9356619754898183, -0.1342906017881767, 0.9999996842420177, 1.0, 0.18599108678420667, -0.9656921820216408, -0.6740682322332158, -0.7244622790456225, -0.8012667793165694, -0.9999491068257859, -0.03512090208059824, 0.6470471795587419, 0.34040766514550713, -0.47446355075578084, 0.5412480238920732, -0.9999999999997441, 0.19850275598445632, 0.8296128994981379, 0.6464020326427474, 0.21246852940021818, -0.14688226765285617, -0.9999999999999999, 0.9999996965365713, -0.34447854513531356, -0.5917938038550191, 0.3211691926804429, 0.3677513676814017, 0.8133958151596925, 0.6847577793043357, 0.998988100359941, -0.08587306369410787, -0.4396956272741522, 0.3144425071136629, -0.09768908412955365, -0.40324229137785716, 0.6324674299615812, 0.8431990026892445, -0.09895875446365453, 0.8919671400677579, -1.0, 0.5154208306526988, -0.02684387384946946, 0.635560491963477, -0.26225025641566785, -0.5501390992872284, 0.057478224165454964, -0.5260193131294074, 0.4242071587527936, -0.21871760329459086, 0.6323183266573804, 0.26814839845525146, 0.14434323944777702, 0.9399960243745171, -0.17815490348223773, -0.5864218959632199, 0.6582320620329456, 0.12097708900050332, -0.4198120413016974, -0.8319434940224151, 0.14020039705096082, 0.5529733773247612, -0.43604912187421435, 0.7580697340542595, -0.5613640729457726, -0.7465499028644706, -0.21496140006039888, 0.5927650852293144, -0.8346056530552528, -0.15617857316040648, 0.3035070261310331, 0.6928982621918809, -0.8048276584756661, -1.0, 0.6830602456558601, 0.7124798362556175, 0.08228648317673756, -0.7427714267103102, -0.5366269504470927, 0.4051341670721787, -0.6659882633618873, 0.32114280702369236, 0.7268327170352691, -0.5807911178709666], [-0.9227501515060776, 0.07770726397133357, -0.7833155876234378, -0.6885559716520154, -0.610979512293, -0.2569520075448064, -0.35936310554955125, 0.20485918641014178, -0.2807402951491969, -0.9999999999513005, 0.3455084165247134, 0.20805910860788965, -0.861934106040167, -0.3467968352087451, 0.8670016398939154, 0.9987939936284885, 0.12156084276340126, 0.8898553454531672, 0.7292129050512984, 0.5074165457397094, -0.39393362525677156, -0.40305940758821596, 0.50990341745451, 0.660974078111086, 0.666924838242058, 0.08109347390094207, -0.16548852529497649, -0.9045598939022882, -0.20249147326468706, -0.3122015611652026, -0.9992855316285654, -1.0, 0.8470960346450428, -0.8437800985813155, -0.6259718716164615, -0.9829403791050444, -0.6431868725856913, -0.9978971562161565, -0.492268442452723, 0.04696234609770765, -0.15904907087538153, -0.7448877845017218, -0.700305112553864, 0.7823879566490112, -0.7745983233571867, -0.5822678235946771, 0.14952494000780533, 0.03672399553063372, 0.6562911208593357, 0.007450769824153948, 0.9956112573455483, -0.09470886329143832, -0.6494327737411847, -0.9965585946966535, -0.6299057549265064, 0.705649091516432, 0.4835930605762356, -0.33584193120508044, 0.23928773202899165, -0.63850244887718, 0.41738649380621134, 0.3617652085333783, -0.49058066761227515, -0.9113840781052002, -1.0, -0.6836421233848962, 0.9989942512581644, -0.5716224175318199, -0.856093522873497, -1.0, 0.1765812760573795, 0.33521476002000417, -0.7797682802284128, 0.9137032158206836, -1.0, -0.30641120344479855, -0.23513876420971805, 0.13767268653493955, 0.40705248664987426, 0.006363520065800758, -0.7427444770353467, -0.18025168635974603, 0.07078555516328144, -0.5938817881086533], [-0.9993530972533755, 0.5212165927655062, 0.27447681964919773, 0.6652535590482258, 0.23158539598020142, 0.04087505438095575, 0.6501267064118224, -0.1900480934953513, -0.26401426325881283, -0.747715574962038, 0.5744808546417103, 0.2382748875881269, 0.7231966420673909, 0.998860755988272, -0.0035658811825047543, 0.9997315612426172, -0.5619099137161236, -0.34294669148286755, 0.9992619169259254, 0.9997795511859333, -0.4056798859818444, 0.17387702075148853, -0.1336871392438145, -0.08717221063660566, -0.39603668603627007, 0.23613931296254406, -0.6089097869309025, -0.785950143175493, -0.99458482707315, 0.03462129410113822, 0.8233773388450633, -0.08229167206663039, -0.19133208596983312, -0.15006639576023176, -0.9997529654064913, -0.2762582967197044, 0.6763864496903933, 0.4980023128449404, -0.601197064894464, 0.8103801152230888, -0.6030010808248502, -0.999788344326531, 0.8455739965432921, -0.3264752481064433, -0.6561379803654815, 0.5644803392135753, -0.43629133916206, 0.2516063358162905, 0.9999821437196958, -0.8413519306846999, -0.5258612814867958, 0.7046414437784928, 0.756699230206073, -0.17869237575488614, 0.5227114693830633, 0.36558544369049306, -0.7470078655387481, -0.3055878240253015, 0.23823591463645108, 0.7295924351885698, -0.39920132898292643, -0.24928619247401068, 0.5435160812431022, -0.2006527929462793, -0.9569973891983559, 0.6328758647261108, 0.25494628287655885, 0.5919397300915794, 0.013001058047863237, 1.0, -0.4554245513630027, -0.8096923727722045, 0.9999999999986664, -0.027241762744090972, 0.9984111196894301, 0.6986267597034046, 0.8323095389110635, -0.5677593194465494, -0.8214545596777196, 0.4402636181695539, 0.69887897455977, 0.2784071198843627, 0.9992704086420409, -0.1586854510078425], [-0.6990593430266206, -0.45027135237209326, 0.7209144013711011, 0.06750209492093681, -1.0, 0.6837307889507764, -0.6714208012117198, 0.7572299047927332, -0.7000929531298545, -0.04733427092682127, 0.2852282206243275, -0.39189057542423134, -0.6310331253141739, -0.07808131451549448, 0.5183986806598055, 0.48741607136650406, -0.27127257573776287, -0.6525492104303537, 0.9993941813999336, -0.5955148045112061, 0.6144870242311954, 0.09189950611911384, -0.5088555889881154, 0.3582467400155487, -0.7488028182854644, 0.5473692051169524, -0.7616443308271228, -0.010696913815804798, -0.6665550781533885, -0.9989324320187686, -0.9999970504452488, -0.8282719018134946, 0.9994500447651549, -0.3010073050981662, -0.9241977994749913, -0.12335186436450844, 0.02579100908093914, -0.9999999999999991, -0.7225271760766705, 0.6488041668749244, 0.07032668347540567, -0.596165172882209, 0.6200871676216382, 0.5096556724357065, 0.5476148507914141, 1.0, 0.22282573225570618, -0.9989851515853055, 0.5621961842235631, 0.03711512995415377, 0.9999923596620041, -0.21896819466592485, -0.8385810834244699, -0.8423542112665982, 0.3476338975973095, 0.061868793133228114, -1.0, 0.8162436130137138, 0.6847541132440258, -0.9979009453319044, 0.7183923056764997, -0.4759907818709109, 0.3116535087198505, 0.9999998052343726, -0.36974282965953714, 0.01725823908577906, -1.0, 0.5667662427162319, 0.15569204229201825, -0.9999999999999998, -0.9999766836665104, -0.788213204871734, 0.45880081335799633, -0.6015207961915743, 0.7847639853032045, 0.2013083450451119, 0.8739746041831842, -0.09974592147077381, 0.9599098344605435, 0.6780588176372582, 0.9949185916060582, 0.1379308282552041, -0.9939217488126507, -0.3252980417126121], [0.581900508968815, 0.31881414340295794, 0.06496861464968674, 0.6979359275497218, 0.4192129391933585, -0.7073459002049187, 0.9752221469471011, -0.5700463007322693, -0.2879387452617317, -0.9913857460320925, 0.9912069927213497, 0.8584162065912156, -0.31842334195363015, 0.05306500740554627, 0.397430148414256, -0.8899966150120175, -0.43465097682300347, -0.7316405061034292, 0.7203128161234346, -0.7289481122379529, -0.9999922367909735, -0.6467278470015072, -0.6132023483136341, -0.9019068199357966, -0.8245170138658581, 1.0, 0.4503780221899771, -0.0824840752755556, -0.9685108598087525, -1.0, 1.0, -0.9010333092479691, -0.42261897073870497, 0.4127390818982449, -0.15759406461773262, 0.4048689297878095, -0.7854771932155996, -0.1524388587206077, 0.7945676011013837, -0.99999853981806, -0.9649198308014509, -0.1367288830449594, 0.13580311797850977, -0.20077332126376843, -0.9999999999780499, 0.8732977785138224, 0.8269681788271923, -0.03329929794916293, 0.9531489212671124, 0.6793578458297648, 0.5722595818513584, -0.4002646121916032, -0.3628917650815679, -0.26479988496771945, 0.01173058301622744, 0.786128855727915, 0.9999812117278788, 0.22291390918796442, -0.9986028607737601, 0.8439335978642081, -0.5252861537567948, 0.3369468717526271, 0.6273744569955366, -0.13394135794210138, 0.43012518846793185, -0.28508279363812195, -0.7324041114845552, -0.38003678339104935, -0.10582183997546028, 0.8525943460557898, 0.4135764160226853, 0.04034403079904343, -0.6656330153347493, -0.607100220478214, 0.9978195625015728, -0.9200550952108897, -0.6502805954959906, -0.46113515540509775, -0.876907909341981, 0.08646924844494681, -0.017017047144789063, -0.6532093132662308, -0.01563897969288297, 0.6765870742342258]], "w2": [[-0.27230885643584907, -0.9999523715270883, -0.28767031724635184, -0.30082980422740413, -0.6096391930209313, 0.2267272438956715, -0.9999999999999999, -0.3542107094529094, -0.8712182948532573], [-0.9676758227883103, 0.999999987028569, -0.7929530400896314, 0.05331865559534066, -0.09438080733668923, 0.6606236388055381, 0.9239926163978269, -0.17354746228225326, -0.2892875308215485], [-0.16906827649935863, 0.7013460745241591, -0.5159931255472139, -0.2763879844112276, -0.728060025453978, 0.06581316412190756, 0.2734550249946286, 0.5966344495010011, 0.43830434890659165], [0.21963968969354242, -0.2742679764126304, 0.43829952921799414, -0.19341240197984594, 1.0, -0.805855158401626, -0.2704318848691263, 0.2615570799241168, 0.19216947537722187], [0.8725542931826763, 0.19885327496935312, -0.3329780419451726, 0.9999838762368314, -0.23430172860681603, 0.93332180726672, -0.1859176111187751, 0.9638385350076666, -0.5717720444225587], [0.034769295084968545, -0.32466694510114513, 0.3639592905579509, 0.4651758547470002, -0.9999999904177861, 1.0, 0.634321555917857, 0.3822561696695008, -0.7034742353659147], [-0.8490856599339127, -0.36472431707721803, -0.2890551203230847, -0.34317706746631194, -0.08760752922010064, -0.026436153728106482, 0.9923452549698852, 0.3331859654300569, -0.030632256113395345]], "b1": [[-0.314240345124535], [-0.6465092308166411], [0.8861867371050494], [-1.0], [0.47297761364294255], [0.12540733369654442], [0.31322330809778304], [-0.08222006645662241], [0.12119103855088827]], "b2": [[-0.599787268671415], [-0.0546442339151424], [0.4836550141736853], [-0.1447039405971667], [-0.01013788504816491], [-0.7715039266467174], [-0.9975774197356841]], "fitness": 4258.0, "best_pos": 10.0, "best_status": "small", "score": 1600.0}