{"w1": [[-0.95395432092014, 0.1317353167867732, 0.1326117802814588, 0.1702771947460171, 0.2215918957864822, 0.4091927266226709, -0.642744634239474, 0.7011525425033147, -0.9749004977361233, -0.16442062102817756, 0.2879611114347145, -0.5361106357800653, -0.9924182049969299, 0.05358404952586682, 0.08836085281775019, -0.9913095140455082, -0.4277146057667378, -0.18493370800954345, 0.9941520291859622, 0.33059483069699414, 0.5964665880308317, 0.37534707207297147, -0.15570462593123824, -0.42907540528241284, 0.24175017833567702, -0.8657462639790563, -0.8017652195308853, -0.10351897162264923, -0.08912526991020675, -0.6668705459307782, 0.8510496865509336, -0.938717483829945, 0.8837281096973091, 0.19736116416242933, -0.13270616381853628, 0.7315817210209494, -0.40433872006497373, 0.1387656334774059, -0.3652682592889185, 0.5966124036059712, 0.5756663181005486, 0.7283570817235108, 0.19448005892656628, -0.894409381977431, -0.7535339419561238, -0.7788496417892206, 0.015127594059241023, 0.9961309582226443, 0.7102202960075257, 0.8330372473356564, 0.13235888355766745, 0.8313511275738403, -0.3205684342833788, 0.1788001963047421, -0.3717394403216927, -0.745105667184631, -0.8157184624440088, -0.5012640464295308, -0.6026779662303241, -0.7935150060560809, 0.9966751529199975, -0.7427310251909216, -0.5443282232438387, -0.4803179400434423, -0.8074737970875903, -0.806415863424125, -0.2162691729899049, -0.42023267805317843, 0.648718607929851, 0.4765416913493845, -0.25311718292711194, 0.5074500761206617, 0.6050904210086891, -0.6775363586936258, 0.04282846836302867, -0.8751526268662948, -0.3156265398854867, 0.5682443618732513, 0.9502883554318162, -0.27367076676390556, -0.24648122039464626, -0.07180706756244692, 0.22892041629648707, 0.6147728684196698], [0.8706018014920389, -0.5396296250045791, -0.9075294017014828, -0.08221953595857245, 0.7325532950768372, -0.6948220897046391, 0.8497809105086227, 0.058369796062099466, 0.10855474269848453, 0.44507444718296196, 0.3533646821292822, 0.8560065827203946, -0.7109584024739555, -0.7687438570924072, -0.8686633610600556, 0.8126132173048728, -0.28388358238776656, -0.624722339554411, 0.40183260222609296, -0.17640155055249385, -0.5403273061651575, 0.12105145675516127, -0.06276571493569993, -0.3116716970180313, 0.5627397395590872, 0.7160499877363762, -0.1546059690920063, 0.736598387219358, 0.98958479710312, -0.37892289018226677, 0.1308953912658819, 0.16927476033128652, 0.8808228350681251, -0.21922006417392703, -0.11847221112021145, 0.36409197600427734, 0.779398385370651, 0.04784037026619248, -0.9661788191274809, 0.9354068306802064, -0.2943235880932342, 0.19238083754287305, 0.86103483868686, -0.21631717492270108, -0.2254400411163051, -0.867222808977351, 0.05644166679323259, -0.24229058564559192, -0.12532093294450952, -0.6038544884455694, -0.7585959591304559, 0.5514191465719258, -0.5121426217983762, -0.49388159017335664, 0.22093349747378732, 0.5250813868291422, 0.01206708730053041, 0.420700998621961, -0.45088981953302243, -0.6849829103571341, 0.637144919036795, -0.04217830306928705, 0.10240515915683446, 0.8870415978138493, 0.9199346547017482, -0.1884290064522336, 0.28897068630836853, -0.7121860431184512, 0.6115850002726737, 0.9780539287589662, -0.47533218286375667, 0.41304678101700154, -0.058245918380688266, -0.6252620916851532, -0.496223189139094, 0.07252794439671284, 0.4816301723833323, -0.5713187408414742, 0.4931391360685722, 0.42598146468112397, 0.11216849178505939, 0.8012546093800619, -0.07214231153845097, -0.653474722668848], [-0.8848594994022969, 0.4377703859424884, 0.7623542586021503, 0.39803570684594414, 0.0708905916731466, 0.19126119947298026, -0.09810064550389863, 0.09686091742432024, -0.14579947933321225, -0.24630483310954476, 0.7946245633742623, 0.6093338505640797, 0.6897842625042749, 0.7687526682404386, -0.7818970374844931, 0.709741571323826, 0.4021169614294908, 0.5005006550716935, -0.54083712919146, -0.41734154584774164, -0.3890614207358831, 0.28333760060180735, 0.6052329251662141, 0.4131135962236374, 0.3648065487612495, -0.6339049854928913, -0.7112570776834819, 0.2754155657093764, 0.864479663384828, 0.05174218585737256, 0.7631501577158428, 0.22743698879396068, -0.6201879018257621, 0.06349435568991169, 0.7446097303359753, 0.10319268034317863, 0.002973901162156567, 0.7105240047909902, -0.1444538313349517, -0.12998045633822142, -0.597016928246157, -0.5245362564096625, -0.3870920434768237, 0.1950547233150035, -0.14575591087150963, 0.16929971666089072, -0.7850552998577645, 0.8609283198960815, -0.8200057247308252, 0.416262287093472, 0.7309538220982605, 0.16138586218767914, 0.5969824623378592, 0.08843270234972844, 0.1872284953219796, -0.5853242692075142, -0.161497712018996, 0.9218706027530919, -0.14734580265813935, -0.8111880626601853, -0.7158286233190891, 0.8471673123890711, 0.8621716218131026, 0.6432065525447106, 0.795136048928935, -0.2297737782723117, 0.8021976483706723, -0.38346744418195855, 0.4882995466122122, 0.4394478801747317, -0.5540950390848234, -0.5943722952448529, -0.9323772529659509, 0.5625282179958193, 0.668678107402259, -0.9721632324441365, 0.7938060458402629, -0.9278320263907283, -0.03647391405363609, 0.9359600790226472, -0.7807744855403467, -0.9227901072546263, 0.31688840716184896, -0.7679558824685411], [0.7113668522634811, 0.9250788426094689, -0.9059740602358224, 0.12411216467399355, -0.7044671560414917, -0.7555332090770777, 0.7997473805069684, -0.8615214634166504, -0.6972381334849016, 0.4033837662743778, -0.681833183233358, 0.6952941407585478, -0.7148276685781207, -0.7006088199774514, -0.6305728185149264, 0.4962689408505889, 0.717556506267137, -0.8832524638718764, -0.5534194248615751, 0.9581882069856142, 0.7372691417769719, 0.9169394731545182, 0.1437983901451272, -0.7967837677603962, 0.07288989468575946, 0.9096973159337547, -0.38173599515757206, 0.1988005991863795, -0.9099041191365462, -0.9933332959329912, -0.008311999612594656, 0.9553861676641155, 0.8704207874570824, 0.5907257469808005, 0.6704694108240108, -0.27021401029328174, 0.6226959330996582, 0.5355092869102824, 0.407852158777964, 0.3114792631357315, 0.11249492161414598, -0.12189290835754907, -0.17766462842119402, 0.9790425841226031, 0.5861393158997412, 0.1854269538954696, -0.5297758438958502, -0.492180825183566, -0.506137805839143, -0.6601190274482995, -0.7049497853288997, -0.024789617301668843, 0.009534405872997143, -0.71898563072532, -0.21711537452157037, 0.09227794792823607, 0.8170678741481461, 0.7100292230709389, 0.9653707411375219, 0.6172368092801346, -0.4436896925386702, -0.9195908457636006, -0.2050011446190294, -0.9316573461974798, -0.4571248158746106, -0.5054052269951934, 0.3130432832876118, 0.9495692837670431, -0.6568125034274703, 0.09356287331015412, 0.1637601798399142, 0.4830007281073423, 0.8306771043861061, -0.4823270794218726, -0.46757594753047793, 0.31848411155481715, -0.3905435244387936, 0.5039347047215446, 0.5571807514023757, -0.6519043548180095, -0.22285946802289347, 0.6824860098114052, 0.6464666843608287, 0.2192458349780133], [-0.5837210678730356, 0.3457403694013632, -0.1951938752605058, -0.09359009443048505, 0.7506284408841226, -0.922966370247325, 0.601780100241037, 0.21537360924041504, 0.593477087757555, -0.7172727839524129, 0.759582866421044, 0.7541802593908147, -0.22814171751312862, -0.8164551298505922, 0.947366919604792, -0.9990610941859961, 0.9706202088314719, 0.5195983083750639, -0.7990291337106055, -0.338939770287646, -0.429718669189626, 0.32156326494306686, 0.013539224183621634, 0.29211134527315497, -0.8577449636529397, 0.7619900203867382, 0.3137846264569488, 0.44466242153177804, -0.8682063444295047, 0.9459751286620335, 0.42761109672276487, -0.18562495631489173, -0.5308252266676838, 0.29150631305799224, 0.5180155837133671, 0.3536817028913728, -0.03467965552808816, -0.8043030928263408, -0.16463625032636653, 0.45393270915585515, -0.7170568627885823, -0.9536287391798846, 0.6266863510376308, 0.270844129870782, 0.6426320651451032, -0.7494752262077224, 0.34517119149086195, -0.6760725918450039, 0.25544950686194023, -0.6905866476346636, -0.3471722109907298, -0.018520588937135596, 0.16754583097837195, 0.499407587553397, 0.20570559196489535, 0.061221153168522724, -0.29929165065852614, 0.027768519943264014, 0.6423095251062609, 0.8797100832194595, -0.7079117135892188, 0.8516523586658102, -0.9164836265425327, -0.6224218209446459, -0.8945741251688415, 0.3944410666612983, 0.5837851762758373, 0.7244731208067636, 0.3105295864902058, 0.5384108129143352, -0.8769984233294839, -0.1685011543292032, 0.2561659639025988, 0.8154657174448321, -0.7536610092393685, 0.7334672808515112, -0.6416166651729376, -0.1438280872265869, 0.5649297111317828, -0.9885090258059399, -0.8320915032127318, -0.7847367167042254, -0.07362136568146083, 0.7400973329249538], [0.7504745779427149, 0.6647951781163841, -0.010280112671440467, 0.27208990843664105, 0.8092612559047017, -0.24028257072032488, 0.5426199957793649, -0.8679418477151146, -0.20333990197421126, 0.16214493798211604, 0.09648964124499138, 0.5836815980369927, 0.9371585293560722, 0.19137814474472714, 0.006410353138468494, 0.6803666112523319, 0.8787865982284015, -0.7601377548538331, 0.10021310608735456, 0.39973384846610927, 0.9813165315392689, 0.1123107152952838, -0.5446787855898874, -0.3449278659452677, -0.5871788163584128, 0.3605073151882727, 0.06505922285105425, -0.8549176807141394, 0.8570682355355228, 0.8666324517635473, -0.7506808643389171, -0.02713111082258224, 0.5429393632154571, -0.12294410782563725, 0.3642500424214403, -0.07181905400029653, -0.7544955651541077, -0.529469963402885, 0.6245000160856404, 0.24028994652830749, 0.7130030859865149, -0.3601327922244584, 0.8964794165712395, 0.6744291639015265, -0.9570366194267204, 0.5080638528873598, 0.546545500336975, -0.827401295662554, -0.10333241360464962, -0.0014682253302347181, 0.4343925486281526, 0.3499982641983408, -0.48410641431488277, -0.5728084753373865, -0.061263370390117755, -0.3408379437070992, -0.05893336339362931, 0.19260881458722467, 0.21523015836290504, -0.03461877309014505, -0.7878225692684289, 0.20604153387444768, -0.5503502015860788, 0.3558461400242068, -0.7188142884867259, 0.5593936806262174, -0.05425396246708791, -0.4068993876796796, 0.6889801839226006, 0.5872536659320551, -0.38380488390642964, -0.4400035732248122, -0.28249077274204537, 0.1937973692200914, -0.7078753064968211, 0.27530371736757675, -0.08527595344317529, 0.29424959431734554, 0.2873729654966206, 0.9971169684525125, 0.6912785428159205, -0.11029909054173448, 0.4720014218151589, -0.9097662485370646], [-0.10508418375886586, 0.885550113257775, -0.9810591248696616, 0.14624264367824868, 0.3364466904079795, 0.4528396730285722, -0.7151521074252847, 0.5230518614536326, 0.8395509186629146, -0.8553039648757266, -0.5503430116797958, -0.7536513780700886, -0.17465435413004693, 0.7243070577140416, 0.8463293267364593, -0.9473126053784318, 0.8148364980619978, 0.31802758736497583, 0.8010699455964096, 0.27791267482922466, -0.7114568291795351, 0.9152782774072239, -0.8033815878570827, 0.2057186043368151, 0.9319384685989611, -0.0021750760638461486, -0.31676844538311744, 0.9124760524130988, 0.278697112551743, -0.8204171510984384, -0.9642239083728696, -0.48114650496030786, 0.007413403701594046, -0.555042262041926, 0.5658267088764746, -0.29555931174265715, 0.07796949948282128, -0.49425847028349135, -0.5275784808268675, -0.6286397858600243, 0.2775439585298083, 0.25411416312087654, -0.004487956383047997, -0.2900239742679629, 0.10640330726975522, -0.1171967651748318, -0.49517016041736595, -0.8420578845659918, 0.43589774755851174, -0.6590514155291112, -0.5191533131918682, -0.23948250702363594, -0.8968483829519251, -0.9864741970497544, -0.16209262664059687, 0.943374212764245, 0.7231632061226421, -0.7574302210322772, 0.14359406853550039, -0.580067022664482, 0.5220684080776548, -0.37131163506683995, -0.341002982044188, -0.18585039157428684, -0.02445797037569597, 0.6755857738019884, 0.056786057383415134, 0.8884682141477416, 0.37743221074379885, 0.1472108949555304, 0.5056605745181109, 0.018012752676851207, -0.2876334615267975, -0.789376320578109, -0.9976029406295559, -0.3119286269581323, 0.8701138175944074, 0.21011985152738677, 0.40745065869272024, -0.33627743800144927, 0.35992081009918664, -0.579987029491984, -0.6404312943675152, 0.922117416943697], [0.5553276696649225, 0.4275386670412349, -0.31732331750034226, -0.009492420519350953, 0.152379441915524, -0.33680642719479126, -0.543065606191599, -0.12341266011608298, -0.7986590289951343, 0.850974012048664, 0.01704662738475693, 0.934384078840564, 0.7068504196975609, 0.23608795110191738, 0.1838382156623355, -0.0021761907022679328, 0.09416766500612339, -0.9441860359827898, -0.4806439326088554, -0.8293489334849111, 0.062413765135148846, -0.7377918906209349, 0.36951251715332023, -0.9537666093325385, 0.05723228266496938, -0.07249706355020691, -0.8656254855280896, 0.2904273408170366, -0.719548980601695, -0.5122392722326379, -0.7786876534460137, -0.6437836804078152, -0.18828951717155373, 0.03100179146577675, 0.9051504524696277, 0.9327442076245747, -0.26229439375130625, 0.33586934373763966, -0.2554915589174265, 0.10046282240386017, 0.6428633441755502, -0.20236387395714495, 0.03131161174102459, 0.591228989704409, -0.16385371457259557, -0.8856742808394384, 0.131847178609507, 0.3582338282884798, 0.023232838507365905, -0.11468198408867725, -0.9906373587846495, 0.011819149001105256, -0.2384400407245877, 0.7549133765905092, -0.7806046130650286, 0.5624361659975323, 0.9449335186132009, -0.9392931308986423, 0.9423753406089284, -0.45597473239685327, 0.8922818996998105, -0.261573313837524, -0.15357184363645282, -0.4431908578429202, 0.3029398966987178, -0.15379545198983102, -0.059692029842955074, -0.8464765593227925, 0.8680560957845174, 0.37011861887858344, 0.7738953855208408, -0.9098779754235489, 0.14952243641125262, 0.4875181425758346, -0.8934365301954967, -0.7772849433623952, 0.08361995173601366, -0.890011838568018, -0.9910294261742663, -0.29882943972708564, -0.76646431404558, 0.9473548546410344, 0.7136548988978357, 0.6203046306237197], [-0.12398446896637116, 0.04603005199336052, -0.36493223901202443, 0.7873847054521663, -0.3449771155229693, -0.3663169851411481, -0.18176549152848098, 0.6877050751604394, 0.15392466566748353, -0.27019424307351025, -0.895664102409399, -0.23687111384475745, 0.24131753488659569, -0.5404695170949656, 0.39424807567268516, -0.33439994916286886, 0.010826750507438199, -0.5468997594640714, 0.8137697808325761, 0.8104066068555225, 0.6599425709871249, -0.6898289793704275, 0.7935413092791486, 0.6603953230750403, -0.5739627373180911, -0.9789957405958469, -0.7080847602417513, 0.7963107353523375, 0.0547870321445878, 0.7173990229704845, 0.20024268473068996, -0.15494213386021705, -0.18273567537481283, -0.9807735203597565, 0.7579680170967846, -0.8822091206495593, -0.10373698149069965, -0.33739425976731807, -0.07476023699560796, -0.19450696246654386, -0.3134580954315096, 0.18582115112129083, -0.552639246067018, -0.4498011834193474, 0.5936859433839201, -0.11920415915291005, -0.6786933646865798, -0.667936298098091, 0.4817266607404904, -0.8706378873001019, -0.11393146972660784, 0.904026688472918, -0.2190675593265312, -0.1782673222499107, 0.3415434695885753, -0.6327636233910063, -0.26012311002954935, 0.9053665020614567, -0.24253754870838762, 0.012901843058087392, 0.22284959785334446, 0.8626010810437279, 0.40886656613646255, -0.005769818205364707, -0.7754260135258142, -0.31236635555141645, 0.11741504986061746, -0.007402031099084105, 0.24351349499101538, -0.7154709286768133, 0.6949474420635184, 0.5236064456620695, 0.8495078666913254, 0.04323607006623642, -0.20473850680021455, 0.044783301715748625, -0.8096008816917093, 0.9631925355581752, -0.6723059309672204, -0.22509550336778927, -0.22236261192889173, -0.15429443131036402, -0.5592675164864331, -0.6725193898657034]], "w2": [[-0.9355045020128898, 0.8280786613146416, 0.41838095910449846, -0.9812210049298977, -0.13104611368648578, -0.609365841605582, -0.051598171314401364, 0.04065662856604879, 0.3680390370269069], [-0.5539588039107675, 0.7774897400443754, 0.27293880112117463, 0.11540859685835203, -0.5336904768925077, 0.7344194966733775, -0.9356860986952615, 0.34798397350123755, 0.2915621976330396], [-0.11347729504133874, 0.5052663323007771, -0.5971803552445836, 0.8638343740205248, 0.9870511298276909, 0.3592170326094348, -0.6204098960709368, -0.30835325078887355, 0.5639369430952632], [0.8308973176944583, 0.7088930904041317, 0.7113043885955306, 0.4725125156885468, -0.364435176406797, 0.219139683908544, -0.2841701613181833, -0.28490354108208127, -0.9076999133442833], [0.018933304264829864, 0.0540394088956051, -0.34709941119929066, 0.4070587733587301, -0.05696259593531949, -0.6680041110843844, 0.1450915350272195, -0.6185519334371088, 0.8301912215560887], [0.26812882907354507, 0.9696477230978251, 0.7346375206069993, -0.5396315194715533, 0.68851529222917, -0.23231810773691564, -0.3099453834568222, -0.1156278821252279, 0.8581743064574276], [0.4150237327000499, 0.09957612869955512, 0.24058026679025457, 0.5754638864230948, 0.46065735542240427, 0.3768769514242971, -0.6137700739946983, -0.12592191943770747, -0.009774408933508338]], "b1": [[0.1412416323981045], [0.35358536570431753], [0.6662582762133105], [-0.009531685918265476], [0.5743304014021109], [0.6954278224787269], [0.6112146017001854], [-0.11363959430752568], [-0.09812623977387536]], "b2": [[-0.6207020167864294], [0.18710141785253165], [0.3390402551885363], [-0.4936762784726636], [0.4643060879560188], [-0.9953488470838074], [0.45448906615351103]], "fitness": 147.0, "best_pos": 7.0, "best_status": "small", "score": 0.0}