{"w1": [[-0.34739510495216436, 0.8027613442291652, 0.22952132231369274, 0.5008523016234098, 0.011153224696241538, 0.5424312450172099, -0.7159630281508405, -0.5184308090677573, -0.5544640351351473, 0.13828817439432892, 0.04976701078376115, -0.32500914857829194, 0.46592890378375695, -0.9929244872993545, 0.24820131082998995, 0.475250395915942, -0.44185343638028063, -1.0, 0.2965089787779281, -0.9974858986350477, -0.8038450726013128, 0.9999999999999999, -0.09880846735137945, -0.26173060380285307, -0.3539389839870644, 0.9377455968678146, 0.4055562496168931, 0.3932222656476009, -0.2540184523114796, 0.3384318344929763, -0.7441551059610212, 0.6820399461633044, 0.025931112793934633, 0.33293710972611457, 0.9080304258624519, -0.9999996797484875, -1.0, 0.8485702850460827, -0.09246989814164497, -0.47531914215243615, 0.3947787179813097, -0.08966071392602128, 0.4787128598696922, -0.2995093722798886, -0.6775251290940177, 0.5714259978671337, 0.4087749017253431, 0.32654339095655405, 0.2831354731371247, 0.5296973685594957, 0.04142973390299272, -0.9967590884529262, 0.9997054901693218, 0.2929584511096007, -0.32879572014615466, -0.9979620276491847, -0.7449272575233419, 0.8377901584156204, 0.9552810468273953, -0.2504725747485298, 0.6298834570011528, 0.4923328416203919, -0.04780530971720459, 0.4646534792976317, -0.36847793675062857, -0.07991386620797761, 0.2209292643172591, 1.0, -0.4529486188060363, 0.9999999999850097, -0.9992294613985171, -0.0068705882453465065, -0.191663714945541, -0.43308583630544356, -0.9999999999999997, -0.5177033418257896, -0.3381449509409092, 0.5736089020689218, 0.9977973259703838, -0.335279504893232, -0.6399797698331589, -0.21493395189762163, 0.5499227203189339, -0.7329658993559689], [-0.23748823470307073, -0.9999960533993834, 0.8265548077936549, -0.6193276129448039, 1.0, 0.5657586980859439, 0.285511760986537, -0.7720419200246595, -0.30335499142616446, 0.43212123101762, -0.6541866634029664, -0.32671003268391374, -0.3810664545658078, 0.3430435403055404, -0.21262729911887587, -0.45397365847501564, -0.268953868594527, -0.05170200575610636, -0.8607786856321851, -0.6401037011161651, -0.6727177805005188, -0.6053957319907181, 0.19346402980168112, -0.32456090899973866, -0.9965023543915076, -0.846584263029474, 0.2893258657755632, 0.5161931420009469, 0.48686510142963035, 0.23935528496057923, 0.8823111500790586, -0.1905338462091831, 0.26375556038744413, -0.10402800212328595, -0.8517630552689954, 0.540775114201847, -0.9169362877596979, -0.19288741640229007, 0.5379761157661976, -0.6779306552837632, 0.2676750567083175, 0.7840752809374202, 0.9739683768692579, 0.051522014221427735, -0.5467607388202202, -0.7700429047163627, -0.7009946824066428, -0.859152508346756, 0.7606658585185748, 0.6642137449030866, 0.9437067365780241, -0.4580284324061254, -0.7063565046889976, 0.4243228266954298, 0.8580915859571291, -0.25840715836658046, 0.22144002939077947, 0.8331341590728765, 0.11015214110884547, -0.29395440567507714, 0.16576925237378123, -1.0, 0.7487317016970765, -1.0, -0.9999980160063641, -0.07964184487805458, -0.987542524124529, -0.5488036433877846, -0.31332195670482504, 0.7382440796220949, -0.5317626056837911, -0.8381893011903438, -0.08293231027375751, 0.028637531179730922, 1.0, -0.9999408921228294, 0.4188583732333628, 0.07750350154107921, -0.9691286861192541, -0.6468577473453364, 0.7173145628989521, -0.020511144907662558, -0.45235214346505054, 0.4015510311034955], [-0.7883432280576709, 0.6316248395114729, 0.17290008107212732, 0.3483771991812462, 0.2795662582417545, 0.09617834111260656, 0.9999023455117964, -0.8409503643563812, 0.12216411911369955, -1.0, -0.929982065524139, -0.6840235031982029, 0.04580178566038431, -0.9764512827164717, -0.25007830645120543, 0.3046423812124834, -0.5006012371837322, -0.1870414323792185, 0.20571181727625606, -0.6648053853572159, -0.4373066919544211, -0.03131380646680471, 0.3846669907704439, 0.9032259247021392, -0.9999999999999999, -0.7829386137534867, -0.9000396530566567, -0.05187321190186468, 1.0, -0.6338420745587735, 0.5862184687822681, 0.6404954134375596, 0.8846547459018886, 0.05347094002383558, -0.32011907588022276, 0.3608255922439736, 0.39233374280846756, 0.637007532842287, 0.9976595010809205, -0.2448901740562236, 0.8512165827350433, -0.9999875775457627, -0.20248439628998186, -0.15259372669635282, 0.06625808929247819, 0.25375177666472054, -0.012062637003517262, -0.9332238769238781, 0.36600284997518095, -0.6359083131502813, 0.2570936556796374, -0.7002943313454988, -0.672696132727778, -0.002472583902195051, 0.47099862711986384, -0.21026673647034813, 0.4596814436267768, -0.4592748805188433, 0.232695517193864, 0.2229979140388839, 0.26841478524807794, -0.13191387647895222, 0.7978305339272396, 0.03231819016286171, 1.0, -0.16856504219526672, -0.8807270902304354, 0.6183418078153734, -0.8881877295728982, -1.0, -0.874381212238267, 0.502068856991961, 0.4498678354474247, -0.9972150114022185, 0.12393394430357002, -1.0, -0.5924711196315966, 0.10196003286375165, 0.4994003673364523, 0.1859223139028765, -0.5067177517312171, -0.46542587505536615, 1.0, -0.7265139984701932], [-0.10320501500836422, 0.4517789587100898, -0.9828954770849258, -0.38189814396213484, 0.8407422524691943, 0.9918269500955561, 0.2632326916109592, 0.061637254926855754, 0.9999980926996839, -0.9999987251130984, 0.028707729337320617, 0.4789748329106164, 0.10988504136518058, -0.4324442645610261, 0.5846705225416106, -0.9800691297353203, -0.3297627512093761, -0.7358405936085209, 0.1408078234999907, -0.9999999999999998, -0.32165363151058357, -0.7319549001835597, 0.6343317545304328, 0.5071381748688688, 0.533926215784138, -0.39749854128627726, 0.2925088632580477, 1.0, -0.45337177014840185, -0.6744527803921475, -0.5996755402555547, -0.4297762435298373, 1.0, -0.22509569232803953, -0.4020115421210396, 0.5471873455077708, 0.21276342141925225, -0.8897021992585066, 0.6475751518640702, -0.8470935582751639, 0.2295871273180205, -0.518887912079682, 0.631557946700069, -0.24558190302680133, -0.9999988894522431, 0.2756208841609384, 0.7151043524990885, -0.20012574451398385, 0.5743136517155387, 0.5861893199574193, -0.12901856928785896, -0.8294129083489374, 0.6821260237863248, 0.9770756789898676, 0.6100852388931741, -0.7278278777774437, -0.17253290622336495, 0.1134140125814896, -0.7004280674293372, -0.5719449600536265, 0.1854071097096536, 0.0965303277204807, -0.7463718456794304, 0.5178685410723376, 0.7892125609963972, -0.460980766036599, -0.5532209431534424, 0.5330799590542216, -0.9022561832518161, 0.4498061678027217, 0.7175028491293671, -0.9984007611972501, 0.6891223463944838, -0.8982515169399761, -0.5924516967132695, 0.13296015444564743, -0.9962340578787138, -0.7047252179783968, 0.3438429197096853, -0.7623844522276244, 0.4009586661102085, 0.4626877254389088, -0.1146230228932826, -0.8516760085451117], [0.7966141979585639, 0.9361274536592641, -0.5054167411743153, 0.7815648906427203, 0.9999999994821736, 0.045416161427618104, -0.9558120895319764, -0.6728848273179673, -0.4609702675708479, -0.703021063419863, -0.9204862438624235, 0.3866358553095298, 0.6465546083835716, 0.1476339835921665, -0.3870069683191993, 0.651970607088983, -1.0, 0.1985038583659926, 0.8280786847781835, 0.26299522871902414, 0.29801332247667744, -0.3843443956203184, -0.9999999999999998, 0.9421793950034678, -0.5506556707437388, -0.5507452619555677, 0.29556306414274985, 0.36672404181714363, 0.8164253672187558, 0.7175552720882801, 0.9989881215752282, 0.008992623397150148, -0.43875721137161794, 0.5582445432742722, -0.09658750534121632, -0.28643390114680994, 0.9024510380284603, 0.8430625771620457, -0.09896846408686696, 0.7586347503820214, -0.96801372400485, 0.6171615871113361, -0.026841440571649448, 0.5423426717191154, -0.5302222736032178, -0.5525936371172562, 0.057544942698902826, -0.5214500853807386, 0.34576342001781757, -0.38058599109556573, 0.5479437498621604, 0.23272729314986454, 0.14202361096541508, 0.901721876222151, -0.27522775905229246, -1.0, 0.4531244759254302, 0.11086415120713608, -0.7753102317318602, -0.8322777421425022, 0.1370444796234649, 0.6979968482182753, -0.1692433136079177, 0.6126121470769076, -0.5616203436045458, -0.6863090871387246, -0.16360406524387508, 0.4638292979117854, -0.8350902425583286, -0.004996622665667277, 0.5218168114752091, 0.6920782895615952, -0.3798352330447732, -0.8179699688790711, 0.30083785628774523, 0.3373491173158785, 0.5290248939910979, -0.7139096063622783, -0.1934443088001227, 0.46365813293822783, -0.9375735928489677, 0.31793270020341896, 0.815901735721294, -0.5807437034947951], [-1.0, 0.07450947438427456, -0.7949549733812642, -0.9814282707949087, -0.9493792890471813, -0.48349387496523455, -0.35930590612848434, 0.47120444062744204, -0.008278377401597238, -0.9342318041813298, 0.34545570256908376, 0.1264049416251041, -0.862064020535945, -0.3177419502697986, 0.8685874671298576, 0.9986566808902323, 0.12156086398325157, 0.6497830377572554, 0.7750847951452305, 0.5075121008410386, -0.3928696777736913, -0.5367437559955994, 0.44923559623830966, 0.6610082868839556, 0.5515332143257473, 0.08109583847441912, -0.20607373225283304, -0.9987932414985451, -0.20251466127634746, -0.31220868882530317, -0.9992809305740222, -0.6093612443858082, 0.999316625432528, -0.8437800925431683, -0.5214723969636523, -0.48217267068099307, -0.7455211534785988, -0.9982762398544645, -0.45770389438077275, 0.36739751455103636, -0.13678131950908523, -0.7448581591427889, -0.7404962483562391, 0.783374337255544, -0.7726417176191986, 0.12048724115127454, 0.14183162427240642, -0.38950924466219344, 0.6795691072723742, -0.012419358675870169, 0.993165611002096, 0.04765869196487891, -0.6509113293683543, -0.9965657440249619, -0.517009989138403, 0.7056520483355669, 0.3303689690539591, 0.07396545443712302, 0.02499772281718583, -0.9143021023692128, 0.4404887547328886, 0.36672661283327734, -0.4905676058721597, -1.0, -0.7663942570811002, 0.3712635167733458, 0.8565008890539645, -0.7495842166025861, -0.9999566661988518, -0.999408700880089, -0.1399905917141847, 0.02971942414894929, -0.9999999999999999, 0.9999999998542637, -0.7363080790068052, -0.3200193564355774, -0.190332667787506, -0.06900140085172687, 0.4617344152535222, 0.038847218629434105, -0.7429224028289899, -0.23257944956330678, 0.0707968435583748, -0.7237383176016173], [-0.9996414395064106, 1.0, 0.26892937457892796, 0.7564340929899496, 0.1915596943015632, -0.13500081791626828, 0.5844562784213435, -0.6977422177313709, -0.26373333266807686, -0.6853447267361641, 0.9670537413384127, 0.3305142236338464, 0.9979712455175848, 1.0, -0.002157540872815799, 0.9997571193075132, -0.32665949747892464, -0.3425740616637694, 0.9999999925690486, 0.8602745011913124, -0.5237916710439068, 0.17438521715585045, 0.07316668987004134, -0.08805704972099063, -0.39687563702092, 0.10011680581464981, -0.6125652132007353, -0.5727367555163835, -0.9999995480619294, 0.03429365740008666, 0.9925413953560845, -0.13312115477412867, 0.13820832807600775, -0.336166498333346, -1.0, -0.27841722958021836, 0.6768572160798445, 0.7269824406493393, -0.28845448222369297, 0.8052381054203827, -0.2528836444909838, -0.7026489650066515, 0.21772502284645803, 0.41859954193959187, -0.5359733860301469, 0.5638934617092078, -0.2502786142113307, -0.20812956998008925, 0.9936125095198608, -0.8689154470944755, -0.7103208818842196, 0.7051114297727105, 0.759442435417402, -0.23935819368068967, 0.22812337682925074, 0.49391565779925345, -0.18437493342970684, -0.8054690213500192, -0.22533829135632352, 0.5039553936045764, -0.4448395310577186, -0.2492862907746045, 0.8538642326128392, -0.22977205984962945, -0.8616684685645248, 0.602563794735728, 0.41077420121861974, 0.6036828808770991, 0.039869296540075316, 0.9997834805713288, -0.6254120089440907, -0.5267454405407411, 0.9999999999999931, -0.02926884687264266, 0.9999875915792997, 0.6983207340470454, 0.5909625639516908, -0.6335624748379497, -0.5852127745649195, 0.8748632104705554, 0.4396683504858504, 0.39840696650166785, 0.9992725907160311, -0.35231189536279783], [-0.9834880090138416, -0.4502832840359409, 0.578050173264418, 0.13740066079946134, -0.9757652870816633, 0.8679584072415965, -0.2653974215890166, 0.9996841186181219, -0.934911051489081, -0.05161829219154027, 0.407614081579435, -0.329952307994698, 0.013143874992595742, -0.4187070554200163, 0.4118320445007368, 0.6308943992880788, -0.43577398800816536, -0.9296010971897306, 0.9865568002080441, -0.5871556544035551, 0.39635536422490053, -0.18500801490960653, -0.515873430500234, -0.056259401210243025, -0.603060142362345, 0.5530504002680253, -0.791982481818496, -0.08479141944335138, -1.0, -1.0, -0.9999970383708707, -0.8203432656855719, 0.9994500366115184, -0.5931169661120221, -0.7034454409561528, 0.39814854335558025, -0.5355870413276187, -0.6518575448036866, -0.9960951016216326, 0.5524961474663965, 0.023353634203716174, -0.7038838911951695, 0.4924688015982313, 0.4424427111884127, 0.4710740110747186, 1.0, 0.22286945588318527, -0.9656171271628952, 0.5623202762140888, 0.2876061457052719, 1.0, -0.13763884942718105, -0.840758756850497, -0.7453232919139368, 0.24346692171627804, -0.10269379939045506, -0.6738060963525055, 0.9997362744067042, 0.5807423274366624, -1.0, 0.6473115752117042, -0.6086497006100792, 0.2635806858828351, 0.9317623455527608, -0.558056866596775, -0.573276070879039, -0.7410027503437476, 0.7381934639570485, 0.12877863693760003, -1.0, -0.9127314486217708, -0.8892045694426592, 0.536195732252251, -0.8196798892703079, 0.785076739311388, -0.06534819438022679, 0.8740738854901516, -0.0282270572120307, 0.846565273549949, 0.8614835089236638, 0.9999781737042656, 0.35844898492789834, -0.9999786148572433, 0.009008775347408678], [0.5822445194090764, 0.2966993859068582, -0.2762150909157112, 0.6705286522008548, 0.40846802344920363, -0.9138542399002124, 0.9759108455431795, -0.5214095732828944, -0.288117905776094, -0.6817334297244328, 0.9908127744047402, 0.8152795030526164, -0.5276818974083609, -0.07782353440662701, 0.6309455710055585, -0.8881240018970328, 0.23373659242329556, -0.999999974899857, 0.8927536779003586, -1.0, -0.9999999999978699, -0.6436695396894426, -0.6132052279828034, -0.7887647801423486, -0.8241588868698649, 0.9997520414570088, 0.7300646219334239, -0.29613170662487875, -0.8687543262329004, -0.9999466274198454, 0.8593258422580601, -0.9010333088136002, -0.21909936236412086, 0.41353777286738724, -0.15855927034543082, 0.4050868479377329, -0.7951932499534394, -0.15212133864124053, 0.9986481212533415, -0.9999987712063813, -0.846514934544838, -0.13673035264497388, 0.04380910490805044, -0.20077604067696153, -0.9999999999999998, 0.9315894275651051, 0.8262472475566297, -0.048656297834755106, 1.0, 1.0, 0.725684665984784, -0.40026991435109127, -0.36289996982145534, -0.14476682333087368, 0.00849240485369789, 1.0, 1.0, 0.3175555141581825, -0.998610235306021, 1.0, -0.566412182376553, 0.2452567308052788, 0.5676367382983678, -0.3272907470328967, 0.3613566234476847, 0.07712016754617042, -0.7425264322039907, -0.4897721392908266, 0.1250259091639727, 0.7900286485818755, 0.41355807944533796, -0.08995614653753173, -0.9619981112512049, -0.7045904230458406, 0.6961808132565899, -0.9221802813200284, -0.5049424168023929, -0.46312490602722595, -1.0, 0.1592482810770124, -0.01701223860954318, -0.6523982737175321, -0.07983960968259808, 0.46688923574855673]], "w2": [[0.05076424408651665, -0.999951663432851, -0.2869225750855877, 0.33302822526788156, -0.3454404571010065, -0.24657156356950094, -0.999999999999755, -0.35677692703964414, -0.8644501268983339], [-0.7930045706376615, 0.9992425663522464, -0.7504466477749323, 0.05102184946035029, -0.09415556708925367, 0.7233218933672863, 0.9239926163978205, -0.43499139817742266, -0.23459068041913186], [-0.1690719337982937, 0.9954607387367381, -0.9578614525855174, -0.25613065363069704, -0.4479673276458549, 0.0670001230462141, 0.16021796956700096, 0.5966274876351575, 0.3975602320494757], [0.1894420136233787, -0.12004617598144486, 0.5713363376862985, -0.2122114307715185, 0.9210509582474239, -0.8067245854265709, 0.18685767731925373, 0.26149121633121036, 0.19218197803067752], [0.872555632500947, 0.4953223715860848, -0.2688456889098229, 0.9999839935185317, -0.13397349294827968, 1.0, -0.2739137994227129, 0.9253365163758013, -1.0], [-0.17741394148065176, 0.034698819499901515, 0.9221584157641716, 0.08372013250597636, -1.0, 1.0, 0.7311232938844252, 0.297377041923751, -0.7034160072802306], [-0.9813686713732549, 0.11793185220280367, -0.9998732559235963, -0.2573421769541681, -0.10220817191430377, -0.5795775806125155, 0.992345317803382, 0.3787096752301783, 0.18913027521188192]], "b1": [[-0.29173817290478204], [-0.9339103556282982], [0.9984859815136369], [-0.9820385316215772], [0.7179163460262586], [0.21718634281186291], [0.5081896027694311], [-0.9085210647157145], [0.1206916479299114]], "b2": [[-0.5754577418371788], [-0.0545174150431009], [0.6741880427784019], [-0.31888884091003655], [-0.24213150372903758], [-0.9634011207128105], [-0.7929478952266614]], "fitness": 4258.0, "best_pos": 10.0, "best_status": "small", "score": 1600.0}