{"w1": [[-0.4831186549597714, 0.664481908794535, 0.1874447035424605, 0.3826157533890892, -0.44248468136622693, 0.5235661777705954, -0.7630976814042577, -0.5292262639465549, -0.7074684612499459, 0.09116327801646398, 0.080137139313058, -0.46318287924283863, 0.4145521493892287, -0.6422522479707378, 0.06692827562528898, 0.3235526905600339, -0.18332995094292634, -0.8941259364498259, 0.33630120239839917, -0.8181506091795715, -0.7798363337203291, 0.8994020741541017, -0.053386337115679354, 0.28878361809548353, -0.20383538671464874, 0.8816118004776489, 0.4302664202880554, 0.6094873739542213, -0.2574678957840349, 0.08584383783714894, -0.596989702370227, 0.4927482561319644, -0.32528409417612386, -0.15039332192747426, 0.5172629032582228, -0.6225076603604341, -0.4215413372720746, 0.7845155671478415, 0.1593429910821877, -0.7827245710724788, 0.9999954628739751, 0.16113594694347227, 0.6267080537908165, -0.42537191908807354, -0.5704955350481654, 0.3424274700050588, 1.0, -0.17666831395975371, 0.28423550111753554, 0.6439436100139903, -0.04118160541431101, -0.9687541994822318, 0.9359088583310908, -0.0003450645085390723, -0.7727905058686778, -0.9980233931316131, -0.48845078418689525, 0.9999999999999994, 0.18940742069517602, -0.17847357205703399, -0.11432775595003151, 0.6653824415312555, 0.054120097157351256, 0.45629091637501423, -0.38608366828500656, -0.9669117726428067, 0.07957827519810273, 0.7950826576542428, -0.25567151231955676, 0.775307246976623, -0.8274984843321926, -0.277435346816196, -0.9998390202527607, -0.40737211040174254, -0.8490987947653658, -0.9999999991973362, 0.1296051559960846, 0.1489042991934815, 0.7565250381793068, -0.12395815492276674, 0.027266855967747604, -0.1477059432247511, 0.9516628269055607, -0.1777913364083531], [-0.20757230658219106, -1.0, 0.6970436202009883, -0.9953363213330276, 0.9378035732174046, 0.7758619234514895, 0.39230521369003624, -0.8245844426553758, -0.4446150015716729, 0.9539998766191936, -0.44579225331887395, 0.8533661172268179, -0.7449296876712678, 0.3848381349699716, 0.05805869056994328, -0.5482389071000722, -0.5471901172671387, 0.4592124322300018, -0.6282261379367221, -0.9999734780155193, -0.2130168748807693, -0.2544260446872668, -0.11574415115489839, 0.02486838874265902, -1.0, -0.8328375102930421, 0.19909181717092975, -0.05815803698484962, 0.021757394764956608, 0.3408317114840711, -0.020022322880559183, -0.28502256826800515, -0.0066533934206239416, 0.033261725972471685, -0.9232751912016187, 0.08515965710301303, -0.9999999999999998, -0.05350837198425545, 0.9133440681786735, -0.0013133751048289655, 0.749565252864652, 0.9991063542059074, 0.6950469066900836, -0.49405126363697266, 0.08331063887208007, -0.5007529737234645, -0.9503417095412604, -0.9994683675027081, 0.5164541667406675, 0.6526364941044568, 0.9982725379873291, -0.8289036161077974, -0.7528460944399528, 0.123265378545082, 0.38795585569728447, -0.513422273858791, -0.0058688594674196235, 0.24406711555466523, 0.2496769708535163, 0.059038877931720225, 0.6002658705725206, -0.9980992162617217, 0.5876011756617854, 0.16467096716408616, -0.9999999999999004, -0.2765408703353156, -1.0, -0.42832681729465544, 0.14046643251616514, 0.2895612659189529, -1.0, -0.9987657013078495, 0.2881680089775777, 0.4772149436214387, 0.923045691228042, -0.9528388572001756, -0.014214513903000603, 0.6884765084913995, -0.9997613609487699, -0.7782648411941037, 0.7591141349242484, 0.5846211442892821, 0.02664571579455798, 0.6117942543357605], [-0.9786659863701003, 0.9122115920231025, 0.6462572756155678, 0.7321358442845807, 0.3945101639971798, -0.7945891999325316, 0.41507995991096386, -0.42415445330405344, 0.23375000451750222, -0.9999999999999999, -0.9218408083994145, -0.9998109279330882, -0.4640428235893653, -0.6169827674344175, -0.775883053495105, -0.7104902454295356, -0.2680815070479759, -0.18998232355182082, 0.042684137959011915, -0.35425136605338087, -0.34020768249213784, 0.7594093773555369, 0.1555753302956134, 0.7685800792099867, -0.9963321825945879, -0.7914275303695582, -0.6794282892197928, -0.7480232824875627, 0.9158038531540209, -0.6399682523084785, -0.005072379568359579, 0.3093294017574919, 0.6736901535665069, -0.07235222805065004, -0.2150031189640549, 0.7426594345301902, 0.6771306117076112, 0.5317812009984376, 0.9998131476326606, 0.1202718165202426, 0.5233401814013383, -0.9999999999999997, -0.5929107524647301, -0.4612537271132147, 0.2745490675417809, 0.23261229284372542, -0.4543003908773585, -0.10334295496861903, 0.3421783379850584, -0.28720587209693116, 0.07159730661978539, -0.7110386238378151, -0.7437133137555575, 0.5721037023300322, 0.555219610204153, -0.32269540886932935, 0.3368566915905807, -0.4192885476670961, 0.650925575076732, 0.06004496890561223, 0.8538521615069209, 0.1974457415375812, 0.7255173000487722, -0.031034301917317098, 0.8794163805121065, -0.7904579713888424, -1.0, 0.24381095672544087, -0.9999999999999994, -0.82491368772292, -0.49858416095059677, 0.6166872925283026, 1.0, -0.3124946252640871, 0.18097229707468562, -0.5388378192238374, -0.501266661799889, -0.40059752177999763, 0.5657699079720386, 0.6617436504353558, 0.07894380582078292, -0.11979498474888631, 0.6554604314417547, -0.9999997324777454], [-0.2637429736111393, 0.46673430373474817, -0.3395072384781186, -0.19208132504021133, -0.2258285917150998, 0.9315333719575396, 0.27635477578671896, 0.06253655359243118, 0.9999899079085208, -0.9999945949108107, 0.0029275841601765326, 0.7969881602462239, -0.2437259158945816, -0.003207156110030484, 0.853777346107101, -0.8383672473090857, -0.31638379134471356, -0.5405400032142516, -0.264670133584148, -0.999070235129761, -0.30906409604594903, -0.6420574553361168, 0.49187173049024563, 0.4560150532103878, 0.44887869317633605, -0.33856712644396775, 0.28460581853686984, 0.6696619819083952, -0.2868183925542094, -0.4675050656469689, -0.8021124137592516, 0.525842946151351, 0.9267883772485193, -0.27359855502490604, -0.1304724050149595, 0.8596812143248128, -0.0303162920807356, -0.8264255529935605, 0.706008683007969, -0.5119044236670489, 0.24242070826998338, -0.9993315724783829, 0.805191420405275, 0.4874201002412447, -0.7516693815541957, 0.09349586956963382, 0.6039310747624528, 0.7860868602337833, 0.9999983535331016, -0.062330264142959224, -0.20702581527964667, -0.9102595094870276, 0.8726234130870104, 0.9999822642824661, 0.443878856266718, -0.7056970805927961, -0.8337829857962717, 0.30805069546770775, -0.4242104114051078, 0.0072805649291016435, -0.43998018030795016, -0.17058960915322757, -0.6438643010068998, 0.8296172887265734, 0.49727648710250105, 0.42991080995533376, -0.21222260153354136, 0.38994726246980715, -0.45477410831022724, 0.9643004935144839, 0.9998246895482877, -0.9976585330978103, 0.019882953268687928, -0.5617469876220684, -0.8477805532508649, 0.280069706840333, -0.17518749943737932, -0.5266094380580383, -0.32986020346331557, -0.1315556411077211, 0.32196615594330164, -0.10393309569444513, 0.8673223650235314, -0.45438163621354816], [0.9299253645102794, 0.9776383834170006, -0.40401976227273256, 0.392220723125089, 0.9999999992427233, 0.18610394300215946, -0.9999999999999999, -0.5980800446493079, -0.6189379786098133, -0.9612188975759581, -0.9327621115819887, -0.33894146662729013, 0.5548847902715907, 0.3004096610116963, -0.583614362523621, 0.40845608927255467, -0.8974689140051766, 0.24041592460523983, 0.8284811937388714, 0.1889801842420837, 0.31793305758679735, -0.29667986791385653, -0.7062479418530547, 0.9594740648858412, -0.19162161757744312, -0.46644473742288517, 0.1362266016593959, 0.3881003087376256, 0.8588630584016933, 0.6952834405978773, 0.6082692880181075, 0.25037122944445767, -0.3873823094332549, 0.41345021783811275, 0.24820506498763414, -0.043425612898563636, 0.7802957054509967, 0.5994214473292092, -0.009963196136950932, 0.7163021853285697, -0.5076768335676561, 0.7767628220036342, -0.2306201068178268, 0.8685394736686058, -0.32499972636873725, -0.8918666307151417, 0.21514100641796108, -0.8578324854716723, 0.5396998092643525, -0.5142308729534256, 0.002112297141689244, -0.027107171353070864, 0.6363729085488955, 0.9999999999999991, 0.05165097141801501, 0.06022721835670672, 0.547790753890968, -0.9994601805725143, -0.17719765831631798, -0.3750905422807705, -0.2006755283529489, 0.6769387277064066, -0.706090637805623, 0.9999933531926744, -0.7581186319237242, -0.5447128474013105, -0.05667445424425009, 0.28927441489416483, -0.7950957366756015, 0.2482119328012216, 0.6640669160403816, 0.3516622059479569, -0.4829310395351122, -0.3473271315268877, 0.4869581864391128, 0.8552415933010762, 0.3857587577015228, -0.4742782954743773, -0.4848098885752676, 0.47229182370678646, -0.18339643207746512, 0.36756176230724463, 0.13777553390816355, 0.26646362188002737], [-0.9999999999999994, -0.09616465279207084, -0.6450770313920103, -0.7083989631344701, -0.04480878770237095, -0.3783573040702747, -0.42191434729890404, -0.18912142233092935, -0.1843819937633298, -0.9996143920991273, 0.2857657333262742, 0.14466491268491666, -0.86203415553503, -0.4435963383880078, 0.41686772123888854, 0.9986314365960646, 0.31288939368220986, 0.7281687433825581, 0.55604311354166, 0.3844224366963938, -0.3475605547661922, -0.4605088744774408, 0.2749676112264609, 0.7073197288121227, 0.4254116067183811, 0.08059478754793079, -0.2805897082036344, -0.340700640353699, -0.295630269712869, -0.22171062926678636, -0.5397841713669436, -0.42323586248209827, 0.5162441578096711, -0.9768403713258712, -0.7188155541374931, -0.8582573538175396, -0.34411023264641805, -1.0, -0.3813700408320697, 0.0625130876728201, 0.1663300493127184, -0.7264803539900897, -0.4235213470085242, 0.8274768487785082, -0.7451308119537499, -0.39758911423827664, -0.6436078510297327, 0.195272708566357, 0.6016400372599019, -0.013341645876194201, 0.96180344889312, -0.22024412431297694, -0.24058192741886938, -0.9647606911203149, -0.0864972025647415, 0.9999999999999998, 0.8453205343283821, 0.4739967851458678, 0.5422807899856144, -0.35504223319458855, 0.5225215941863603, 0.9952595983117499, -0.5391029644797709, -0.9999999999980226, -0.46882944988985287, -0.047220848046020385, 0.2244201106455843, -0.5741013647213319, -0.7900386901307094, -0.9089614084310633, 0.11443192738599313, 0.784919284875405, -0.41526467941201517, 0.8312804488129999, -0.8159734987812253, 0.7888031132400801, 0.5453969425041529, -0.757959771333085, -0.12517420428514783, 0.012496656275334429, -0.8458041078120285, -0.3712006946278869, 0.32901263597310515, -0.9998945500834626], [-1.0, 0.2808891934823685, 0.026171255865970192, 0.7607890410279577, 0.022507702660341813, 0.0725930033112677, 0.4066909567930799, -0.246179725660987, -0.20705144431421535, -0.3478108546245313, 0.3584912245218379, 0.1803533654403402, 0.7925362854075537, 0.16957111046863263, -0.3496353643189155, 0.7091593178433176, -0.4304062227173378, -0.10699319248798829, 0.6559778843132886, 0.642543380013639, -0.06291939699633901, 0.5729189890711464, 0.039212056870818586, 0.024038009759539812, -0.32515123457199985, 0.04952090684427403, -0.9187413970151445, -0.14439625860773345, -0.9996635294571365, -0.307792925218648, 0.8802003326167596, -0.3197383509406704, 0.6783450022879597, -0.11744047859674527, -0.757596523962387, -0.4801359721914039, 0.4400397727605607, 0.4132897296875839, -0.934823178192245, 0.613263956338219, -0.9985441686939391, -0.03868802680879806, 0.97418797086098, -0.875680236281914, -0.6759929080110704, 0.526654495691645, -0.6375385449116803, -0.17958655157346853, 0.8846146810117586, -0.6706124534505349, -0.7314215933191524, 0.9577142077759755, 0.6848279286536231, 0.18266345298176803, -0.07171976669047467, 0.3691612647713441, -0.2141627093493767, -0.7022059377147032, 0.2725103205640029, 0.8758797129881841, -0.24938199549313236, 0.3097854119341395, -0.2379294108857018, 0.2598570548751902, -0.8263263887359039, 0.225244395620871, 0.2534627222237979, 0.5838813998229399, 0.9252423535530307, 0.9070378115858818, -0.7140080254664072, -0.9500822111437744, 0.37698687909009937, 0.30330453506578353, 0.6697796490186099, 0.2822925092404151, 0.5251768816509816, -0.2912851908566561, -0.8066831622885102, 0.6261297117433864, 0.37139175496959975, 0.48190676146120764, 0.9872162668460476, -0.9999837184197209], [-0.1722098578691072, -0.14068173267153392, 0.8071475756400415, 0.21669053223173407, -0.9991872541679414, 1.0, -1.0, 0.08992361218798277, -0.319451274474357, 0.30838244498274087, 0.30931375979517234, -0.2822813916768223, -0.7838847979980963, 0.006803511749229854, 0.5101536830381574, 0.3292865885804852, -0.5671516510358987, -0.2843659819475058, 0.999999160001306, -0.7154415011418213, 0.1346886414051892, -0.35100950493298877, -0.7013233416314315, 0.7560048648716539, -0.6848196875863622, -0.037932805399649425, -0.8069743771573009, -0.04493819484626531, -0.99999999999999, -0.8989517337790336, -0.6324327341532155, -0.12624186378536392, 0.9987821034959302, 0.9965430690166256, -0.5732367448869583, 0.38194921177832564, -0.42722693188227867, -0.5788185582197775, -0.8578941017162722, 0.7161570847025633, 0.5817292233057457, -0.2217217113642888, -0.3885361154274316, 0.940052001278654, 0.81083351510922, 0.5849943314668045, -0.10157376595866416, -0.697438394081492, 0.6605636481642329, 0.06617196599361365, 0.9496807899001111, -0.501263603563433, -0.8149146294023357, -0.999906518792333, -0.16938198189421994, 0.3584361072299499, -0.927646308291867, 0.4089673268033793, 0.3494046137923084, -0.7692982524226889, 0.6698676808097613, -0.17991067924488108, 0.15190485997851805, 0.46243438839555123, -0.328153416922988, -0.5444694289887096, -0.6712357276085664, -0.09002955546999482, -0.47160658139121764, -0.9734593081497023, -0.33656429970940904, -0.099835652807744, -0.36303923707657615, -0.6396762685363031, 0.4070639646618684, 0.3394033098696912, 0.005926739385728488, -0.2908294821266986, 0.8347564234525469, 1.0, 0.9735287158038965, 0.35949812316916196, -0.7304076374036933, 0.6630496466273333], [0.7974011879484484, 0.47887481032276036, -0.7700816651215002, 0.49624917696979015, 0.4194230747913806, -0.35032258624284884, 0.7566566220104992, -0.5623334475789372, 0.12673773564891946, -0.4183012018686503, 0.648071634041769, 0.9999999999999999, -0.014072959748675241, -0.10167121081269484, 0.33420588497092546, -0.7749816941787349, -0.35436212346193663, -0.3893300965988273, -0.35142315529160917, -0.1478097934055117, -0.9251409410087984, -0.713743422781625, -0.9817269610685453, -0.26002914612304107, -0.9915006743063915, 0.9999999999999989, 0.24810292624126903, 0.0489688138747905, -0.6984784089489777, -1.0, 0.9716476523343306, -0.5378279936123035, -0.6759688031423043, 0.09699100960106107, 0.7351409718496729, 0.20839174397367635, -0.8951015962107133, -0.8976867549427487, -0.1683171231126699, -0.47918668090383565, -0.6160906298350947, -0.33035912635817855, 0.16291971285148493, -0.27836997532422036, -0.9999999999999999, 0.9996495434073562, 0.37856500256915315, -0.274585995023291, 0.49643608758012797, 0.08199703485722316, 0.8581341387788854, -0.23651804470468954, 0.014750782761174938, -0.26626776326146745, 0.6531131057059778, 0.7463350712845711, 0.9993632075436196, -0.003578043537716874, -0.6822280782014247, 0.37968445617221425, -0.9114155339614813, -0.1377619871176286, 0.2843545555694706, -0.820280504435536, -0.9756724406055719, -0.7899401026922372, -0.42201039176013244, -0.2767903959460022, 0.16054724902293, 0.9999241591018585, 0.17636803451561536, 0.6077842801923549, -0.07407539252084373, -0.10333203504387206, 0.874926916242246, -0.436252235945347, -0.10728212034479448, -0.5604814079084107, -0.9999999999999994, 0.9524441719524313, 0.5152172247208253, -0.6689093858692724, -0.08560401423927129, 1.0]], "w2": [[-0.08325316945696183, -0.8619405511437294, -0.737618802081352, -0.3432943208511584, -0.22766414924914424, 0.057173245985259906, -0.6532937461876065, -0.25867567881301373, -0.8838874795287569], [-0.9996231906171407, 0.8406429063724742, -0.8230796327360045, -1.0, -0.26128042237109805, 0.623316892217133, 0.9906928020641357, -0.4114788694997732, -0.36586226825110013], [-0.35189290409666696, 0.8151191018849504, -0.5987699386412896, -0.13652014520071476, -0.41410501980379266, 0.7654471107687411, -0.138289958640013, 0.8490183105122611, 0.22494178178900406], [0.24980922978152822, 0.004097641692686361, -0.16054366656927416, -0.33274623412059345, 0.9776513027993617, -0.5852966678422544, -0.14731657384715297, -0.3456750621320365, 0.25258961898316346], [0.8985288551243928, 0.9666319764651073, -0.6940043666620332, 0.99999584528222, -0.14360672391846596, 0.8760013260104771, 0.024248793302371414, 0.7843721269915804, -0.9999817973360797], [0.26215422526820775, -0.07992745038258504, 0.5081447329308095, 0.23459995694805563, -0.672282638153746, 0.1342766015763321, 0.8705813365494376, 0.473189899861268, -0.7939910698423048], [-0.9278928673043074, -0.15236569981906295, -0.4147066725777726, -0.030092989748033847, -0.21581984978413069, -0.4567194389149126, 0.9707239605226937, 0.19242905155293788, 0.12765001208537557]], "b1": [[-0.20687077665968898], [0.005906847465997461], [0.9876835810532163], [-0.6863734377804148], [0.06769239392541798], [-0.22352270259917548], [0.7151437516387957], [-0.28253308674413374], [0.18865294106357927]], "b2": [[-0.5531658127060255], [-0.7613680071487017], [0.13071749719427056], [-0.047549530060124606], [0.059499879310976396], [-0.6078511079154424], [-0.7234936427252739]], "fitness": 2923.0, "best_pos": 9.0, "best_status": "small", "score": 1400.0}