{"w1": [[-0.4831186549650588, 0.6644781051934744, -0.07478827076078733, 0.38261575338908926, -0.2137089407677476, 0.5235661777705954, -0.7632600332306739, -0.5847955073726685, -0.7074684612499459, 0.09116327801646398, 0.08013713927822985, -0.46318287924283863, 0.41455547076767574, -0.7397480824257326, 0.06692827562528898, 0.3244630231304497, -0.373671863500901, -0.9999281109595198, 0.3363012028716526, -0.8181506150983798, -0.779836333720329, 0.898900501937864, -0.05223654079698227, 0.2887893643158763, -0.20383538220911826, 0.8816118004776485, 0.4302664202831444, 0.6094873739499126, -0.2574678957840349, 0.08584383783714894, -0.5969897023724278, 0.49274825613320333, -0.34050048921554166, -0.1503933219274743, 0.6875645991436588, -0.6228158288105035, -0.42154133727207455, 0.7845155671478417, 0.15601602818708096, -0.874441992624122, 0.9999954531997878, 0.23743173985373356, 0.6262088841879881, -0.42537154037814906, -0.5704955350481655, 0.3417548354975155, 1.0, -0.1766683139597537, 0.2851669880135515, 0.6439436100143902, -0.0411816054152343, -0.9722242942895244, 0.9359088583310906, -0.0003450644673540823, -0.7727922736291928, -0.9980233931315969, -0.4414772466449262, 0.9999999999999998, 0.15947196885182838, -0.17931331287936686, -0.11450671677416545, 0.6653824415327497, 0.05412009715735306, 0.45629091637501434, -0.38608366828500656, -0.9669117726428101, 0.07958118844099507, 1.0, -0.25687386802248025, 0.9982445077994028, -0.827498484332196, -0.43709911530337825, -0.9998376946219563, -0.3478509999438039, -0.849098794764888, -0.9999999991973358, 0.12960515599608458, 0.14890429919348153, 0.7565250381793336, -0.12395815492277831, 0.1563906131870465, -0.14797447026202556, 0.9516628269056219, -0.17779132954899657], [-0.20757230658219109, -0.9999999999999999, 0.6970436202000898, -0.9953437568296285, 0.9378035732329834, 0.775861923447749, 0.3923052132100181, -0.8245844426553756, -0.8451439751784322, 0.9539998766191933, -0.4465464200857584, 0.8533661172268175, -0.6729650895799553, 0.38383466535466826, 0.05805869056994328, -0.5482389070595048, -0.5472059917972069, 0.31073371668100674, -0.6282261386194486, -1.0, -0.3348799525134193, -0.0950641301225483, -0.1157441511550117, 0.024868952451257975, -1.0, -0.8339813865885427, 0.39417285501657007, -0.33816554263030757, 0.021757394764956615, 0.3408317114840711, -0.02002232288055918, -0.28502256826800515, 0.20001900785437285, 0.033263739551924465, -0.9232751912016189, 0.0851607547859367, -0.9999999999999998, -0.053508371987710794, 0.9133440681787904, -0.0013214557425595972, 0.5998294657678443, 0.9991046354507552, 0.695473974588616, -0.49405126363697277, -0.2702140548921808, -0.5010793802499407, -0.9503417095412602, -0.9994738754507986, 0.40801964330321744, 0.6678697750363373, 0.998272537987329, -0.8289036161077887, -0.7528460944399528, 0.12326583597117938, 0.387955855697358, -0.5134221178509019, -0.005868859467419626, 0.2440671155546652, 0.24985924707462578, 0.05903750144495765, 0.13618872721796538, -0.9999639390353897, 0.5875451710916973, 0.1646709671640861, -0.9999999999999005, -0.10285966839837889, -1.0, -0.42832681729465544, 0.14237999941818638, 0.46204215289124023, -1.0, -0.9987657013078675, 0.2881680089775777, 0.4772149411383876, 0.9230456912280418, -0.9528388562894504, -0.049018126810983435, 0.6882963219894382, -0.7542269093097831, -0.3996455879627679, 0.7591141349242483, 0.5846211442892822, 0.02664575015461206, 0.6117942543357605], [-0.9786659863701002, 0.9136179985905061, 0.646398760771468, 0.7321358442845702, 0.39451016399725564, -0.7945891999325315, 0.02533634833129074, -0.4233773463288648, 0.23556343385526912, -1.0, -0.9218408083867332, -0.9998109279330882, -0.46404294650995587, -0.6168716556266336, -0.7758830534951052, -0.7104902454289183, -0.2680815070479759, -0.1899823235518175, 0.33646695641057955, -0.3542513660533808, -0.3391550485455717, 0.6885277396618261, 0.15557533029561013, 0.6287253501173766, -0.9963321825945873, -0.791427530369558, -0.6794282892197929, -1.0, 0.7117361407768934, -0.7856019877782721, -0.005072379568359579, 0.30932940175749196, 0.6736901535664997, -0.07235222805065002, -0.5208008937878654, 0.553035996596274, 0.6771306117076111, -0.11014270176343673, 0.9998125779540437, 0.1202718165357218, 0.8637202095263403, -0.9999999999999998, -0.5929107318691769, -0.46125372711288715, 0.27454921061727106, 0.015555120483004236, -0.45430039087735863, -0.10334277783438728, 0.34217833798505837, -0.28720587209694204, 0.27961424177371075, -0.7067206545355758, -0.7437190108174664, 0.5721037023300323, 0.555219610204153, -0.10556546919593365, 0.33684011779286616, -0.031275696802926856, 0.8478993907538027, 0.06004496890561223, 0.9994459230178507, -0.07140986392938725, 0.9971474783831623, -0.4495394992225546, 0.9298529834221321, -0.7904579713888424, -0.971277703053366, 0.24381095674152523, -0.9999999999999996, -0.7932134760147943, -0.4985980668144785, 0.4875341450342513, 0.9999999999999999, -0.20148087102639198, 0.18097229707468562, -0.5388378192238374, -0.5008444437740409, -0.3389446570214578, 0.5665870120210946, 0.43747261193486586, -0.15569631054471875, -0.11979735533092906, 0.6554604315772202, -1.0], [-0.2637429736206383, 0.46796825036842404, -0.3395072380663983, -0.1920813250402113, -0.2258285917150998, 0.9315333719575396, 0.27635477546490517, 0.06253655359243118, 0.9999899519552209, -0.9999945941244719, 0.04390469008776772, 0.7970793171513312, -0.24372591589458456, -0.003207156110030484, 0.8537773461071011, -0.8383672473090854, -0.31638405556328686, -0.29236943620871414, -0.26467013315656446, -0.9691209003952881, -0.734256681276397, -0.6420573619073277, 0.49187173049024563, 0.4560150532103878, 0.4488786931763361, -0.33856712644363407, 0.2846058185368698, 0.6696619819083952, -0.28681839255420943, -0.46750506564696903, -0.8650561476920202, 0.5258429461513511, 0.9267883772485194, -0.5821927835215286, -0.13046654738139662, 0.8062729819016079, -0.030073117335846822, -0.8259104982152502, 0.706008683007969, -0.3877770769871368, 0.12355810735376385, -1.0, 1.0, 0.4111471924791619, -0.7530464961129378, 0.0940204624453568, 0.6039310747006011, 0.7860868602336961, 0.9999983535331015, -0.06224509559241053, -0.0014395013073626528, -0.910259509461063, 0.8726234130602697, 0.9999795758939438, 0.443878856266718, -0.7056970805927286, -0.8337743947428261, 0.30805069546939245, -0.42421041140510785, 0.007280564929101641, -0.09786193379849484, -0.17058764381706357, -0.6438643010068997, 0.7371585268584172, 0.497276487102501, 0.35375567417760595, -0.2122226015335414, 0.3899472624698072, -0.28170405951729965, 0.9643004935144865, 0.9998246895482875, -0.9999727966653885, 0.01988295326868793, -0.5610869187552264, -0.8477805532508648, 0.28006970684033305, -0.5058060968176021, -0.5266094380580382, -0.3298602034685864, -0.1315556411077211, 0.32196615594328076, -0.10393309569444517, 0.8673223650418125, -0.45438163621354816], [0.9299253641896282, 0.9778391484119302, -0.40401976228850695, 0.3922207231250889, 0.9999999992426861, 0.18610394300311747, -1.0, -0.5980800446493084, -0.6189379786097998, -0.9611022524118088, -0.932762111581989, -0.3389365390097369, 0.5547135311820751, 0.6825975746760733, -0.6004414026119448, 0.40845608927255456, -0.8974689140051771, 0.24041271278811646, 0.8284811937388528, 0.221268100585157, 0.31793307217449585, -0.2966798679138564, -0.7060443416006659, 0.9594740648858413, -0.1916216176608203, -0.46644473742288506, 0.13622660165939587, 0.38810030873762535, 0.8588630584016933, 0.7388477160947103, 0.6082692880180899, 0.2504552422243691, -0.49101578325473993, 0.5235941635561054, 0.2478758750222418, -0.043425611000354754, 0.7802957054509968, 0.5994214247238387, -0.013981300596564597, 0.7168182457955006, -0.5076768335676559, 0.7767531466099578, -0.030634976635675503, 1.0, -0.32499972636866625, -0.7051608010408601, 0.21514100641796105, -0.8578324854715654, 0.5397003527503906, -0.5142308722912144, 0.0014219040896900701, -0.026892790746440836, 0.6363729085488954, 0.9999999999999993, -0.011501483206092462, 0.06031971956310978, 0.5477906427165596, -0.9994601805725141, -0.177197658316318, -0.3750905422807706, -0.20067552835674773, 0.6733911193957443, -0.706090637805623, 0.8520784727294545, -0.7581186319237245, -0.5448282154881715, 0.010475252340185096, 0.28927441489416483, -0.7950957366756014, 0.24856932336685778, 0.7293368584373047, 0.34646018600435746, -0.48293103953511224, -0.22125221908549536, 0.36105408492405344, 0.8554714263651487, 0.38575875771881857, -0.4742782954861453, -0.48429967345338826, 0.06217619217576386, -0.18339743417434848, 0.36756176230724463, 0.1377755339081636, 0.26646362187625866], [-0.9999999999999994, -0.09513018211533299, -0.8577672414511742, -0.7081470931923869, -0.04480611642393536, -0.37835730409036916, -0.4219143356014426, 0.021855942758600828, -0.18438199376332978, -0.9999999742839288, 0.28576573332627425, 0.14466491268486106, -0.8620341555350302, -0.44365802212905336, 0.41686772123888854, 0.9986314365960774, 0.3128893936822099, 0.7291470426862051, 0.5560691154979984, 0.3844224366963938, -0.382476715198527, -0.3922429824236734, 0.27496761122646074, 0.7073197288121227, 0.8010925536663029, 0.08059478754793077, -0.15627635505291715, -0.34070064035369907, -0.29563026971286893, -0.22171062926633486, -0.5397841713670617, -0.42323586248694445, 0.5162441578096711, -0.9768403713179982, -0.720041090998327, -0.8582578663847534, -0.344110232646117, -1.0, -0.38137004083206977, 0.0625130876728201, 0.16633004931528836, -0.7264803538645085, -0.42352134700852423, 1.0, -0.74513081195375, -0.3975891142382767, -0.18944548087592064, 0.19324325473394896, 0.6016400372599019, 0.02541276186258786, 0.9995932443139669, -0.22004605946603736, -0.24058192741886933, -0.9647606911203148, -0.08649720256474151, 0.9999999999999996, 0.8155671731261834, 0.35020417685059096, 0.5422807899856146, -0.19979708670672722, 0.5224627304318477, 0.9966162339722101, -0.5391029643013411, -0.9999999999980227, -0.4688294499240119, -0.04924076636768901, 0.2244201106455843, -0.5741013647213321, -0.7900386901240946, -0.9089610921002338, 0.11443192738599309, 0.7849192848754049, -0.5501466431594982, 0.9999971788992129, -0.9810910476712829, 0.788803113133284, 0.545396942504153, -0.7579597713330848, -0.12517420428514786, 0.012496656275334427, -0.8458041079920942, -0.37120069462788685, 0.32901263597310504, -0.9998941432740356], [-0.9993629060401668, 0.28089015085558244, 0.026171255800380232, 0.7993607071553706, -0.11413464632286817, 0.07259300250094725, 0.4060871464935443, -0.2112111076247624, -0.3059216120823426, -0.580703348732463, 0.35849122273465894, 0.18035336540786492, 0.792991487248822, 0.1695711104686194, -0.3496353643189155, 0.7091593178433174, -0.4304062227173535, -0.10410085240392558, 0.6559778842968036, 0.6654553724476638, -0.06291939699633904, 0.1425668276766308, 0.039870403935086764, 0.02213333697978838, -0.8324288220194186, 0.049520906844274015, -0.7818111347170713, -0.14439625860773345, -0.9996629237411249, -0.014498580250567616, 0.8802003326175855, -0.3197383509406704, 0.6783450022863967, -0.11999211034632071, -0.9304340122470695, -0.4801359721932212, 0.4404489107288991, 0.4132897296875837, -0.9348231782065728, 0.6132639563382191, -0.9985441686939391, -0.038688026808798064, 0.8513611868180906, -0.8757016939780142, -0.6759929081572258, 0.5266544942068047, -0.6230716804631563, -0.17966112019975314, 0.6789553006929149, -0.6707785168710745, -0.6737413343401827, 0.9577142091150898, 0.6836264865053469, 0.33016290131106585, -0.07171976669047465, 0.3706401451185435, -0.21416270934937662, -0.5990829451420709, 0.27251032056400243, 0.8758920980157374, -0.2493819954931323, 0.3097854119341395, -0.2379294108857018, 0.2598570530729635, -0.8263263887340634, 0.224119623093309, 0.5636531229683346, 0.29854471037081454, 0.5377486674721272, 0.9070378115858664, -0.714008025466407, -0.9508485187950176, 0.47878448373107174, 0.3033045350657835, 0.6697861644981605, 0.2822932712087348, 0.5314136577938456, -0.28911905341466504, -0.8035574867417243, 0.6261297117420456, 0.37139028050100165, 0.829913256825248, 1.0, -0.984870119636444], [-0.22140037980530636, -0.13952861803750613, 1.0, 0.21669053223173404, -0.9991872402112916, 1.0, -0.9998638334124501, 0.0899184825648981, -0.3194512744743574, 0.3083824449827408, 0.30931375979517534, -0.28228165010458284, -0.7855339825384716, 0.00683500407052632, 0.24813240576190942, 0.3292865885813368, -0.3501154635050564, 0.057758967143931604, 1.0, -0.7154443888301517, 0.13468864140367381, -0.35100950493298877, -0.7040150030089941, 0.6980300208942961, -0.6848188939604669, -0.037932805399649425, -0.8141304329473034, -0.16445804492248534, -0.9999999999999899, -0.8989545503580566, -0.6324325752646038, -0.12640724987490717, 0.9318820695139701, 0.9965430690166255, -0.720288449853769, 0.3819492117783255, -0.4272485366068279, -0.5788185582045494, -0.930364843226858, 0.7161570847025631, 0.836169598071662, -0.2217217113642888, -0.7641856549979404, 0.9400520012741636, 0.8108335151092199, 0.074073827245912, -0.09796061318874362, -0.6973778913435511, 0.6587974995867611, 0.06617196599361364, 0.653719382441776, -0.5750129075069443, -0.7204116534354096, -0.9999062624543468, -0.16938198924242315, 0.3584361072299498, -0.9276446579778606, 0.42568076911798913, 0.17169555076466358, -0.7692982524226879, 0.6698676808097612, -0.19595307038906484, 0.15216546191087066, 0.7536422462819271, -0.3697751378118542, -0.5444694289295862, -0.6712357276085664, -0.031183872705305916, -0.4716065813912177, -0.8985642572615233, -0.3365642992256249, -0.09983565004337834, -0.3630392370765762, -0.6366806001395848, 0.40724110047273115, 0.3394033098696912, 0.005926739385728488, -0.2890129300743895, 0.8347564234518052, 1.0, 0.9735287158048543, 0.45062609563185835, -0.9307120537804855, 0.6625083617862976], [0.7686577328486255, 0.4788748103227604, -0.9371596706051799, 0.4972607961817365, 0.41942307471779144, -0.35032258624284884, 0.7570924630712036, -0.5623334475789372, 0.1267377746846382, -0.5596992784708933, 0.6480716340417689, 0.7947312480262223, -0.01571394900590636, -0.044761216510198654, 0.3341982370440779, -0.7751405622398568, -0.3543621234619366, -0.3893300965988272, -0.35142465189088967, -0.14780934672432156, -0.9999156400773629, -0.7137434227816248, -0.9817269619498343, -0.2600291461230708, -0.9915006743062679, 0.9999999999999989, 0.2480937299703861, 0.04922117989960674, -0.6984784089489776, -0.8671578132212321, 0.9716476523343306, -0.5378279935418833, -0.4524960978363289, 0.09699100960106108, 0.7351814524008441, 0.47022883675163196, -0.8951015962107134, -0.8973287194391808, 0.27205747160423005, -0.5070912562567008, -0.6727567031138582, -0.33035914536250277, 0.16291971285148496, -0.2783699753242451, -0.9999999999999993, 0.9254119786250025, 0.11418453130292061, -0.20474819285284332, 0.496436087580128, 0.08155016169546372, 0.8581341361695808, -0.23651805538318313, 0.014750782761174933, -0.2804064092173366, 0.653113105705978, 0.7185539788592636, 0.9993673142631403, 0.18623904220948007, -0.6822280782014247, 0.3796844561722144, -0.425180853465706, -0.1632109424638667, 0.52184778822045, -0.8202805044355361, -0.9756724406055741, -0.7899400034077847, -0.6591420431393132, -0.28834256979595774, 0.16054724902292994, 0.9999241591018587, 0.17636547886756898, 0.6391507371629463, -0.07407539252084373, -0.12320029646880228, 0.8753879708602728, -0.43625223594534696, -0.10728212034479447, -0.8361379748335952, -0.9999999999999997, 0.4477374749760566, 0.5152172247208255, -0.6689093858692725, -0.0854011726148586, 0.9564084853522155]], "w2": [[-0.08325316945696185, -0.8619406809048488, -0.5387124212230668, -0.37382107095875394, -0.1555801404642439, 0.05717324598556174, -0.5741783323717652, -0.07643970917901137, -0.884047207365834], [-1.0, 1.0, -0.9999999999999998, -0.523164491091161, -0.36463094959844455, 0.6702649764254098, 0.9906928022986271, -0.4114788694997732, -0.3658622682487472], [-0.3518929240319307, 0.8151191018846319, -0.782150854544562, -0.13652105328712502, -0.4137310364829566, 0.8284097047877463, -0.1382899634201156, 0.8490183105122611, 0.224941781789004], [0.24980865262183236, 0.3208623443065344, -0.16054366656927416, -0.33274623412059334, 0.9781213207670922, -0.5852966678418987, -0.1473165738474013, -0.34567506232311984, 0.2525896229407764], [0.8985288551243927, 0.9666319764651072, -0.6940043666620331, 0.9999958452822197, -0.14360672391846596, 0.8766003211045559, 0.023804960781989445, 0.7843721269915803, -0.9999817973360795], [0.27928417133175165, -0.19820654166204146, 0.5081467825047007, 0.0888001429056143, -0.6722826381537459, -0.09319281969135111, 0.8705453823284661, 0.47318989986126797, -0.7939910698423049], [-0.9278928673040341, -0.15236569981918704, -0.28429538543278643, 0.09730364101308521, -0.21581984978413069, -0.4483664751913846, 0.9707239605230454, 0.1924290836333094, 0.1276500120853756]], "b1": [[-0.1794103860915535], [0.005891594438369658], [0.9876835810532161], [-0.6863734377804147], [-0.11043318812982354], [-0.22352270259917548], [0.7146395588121502], [-0.28253308670197913], [0.18865293986635925]], "b2": [[-0.7079466073630316], [-0.7613680058627242], [0.06183263300752565], [-0.04754953004914431], [0.058718890860322455], [-0.6078511079154356], [-0.7239458045654966]], "fitness": 733.0, "best_pos": 7.0, "best_status": "small", "score": 100.0}