{"w1": [[-0.19407529969166037, 0.664945795061584, 0.04725266918901519, 0.38047988902512464, -0.1728302609805118, 0.5599509700439184, -0.9999914379290087, -0.459979814081818, -0.5544640351437632, 0.1382881743552547, 0.04976722689181777, -0.4451128361878395, 0.5898271272232927, -0.9999999999999994, 0.08624705141235918, 0.38698340325872277, -0.4411827764264937, -0.9999999997406811, 0.18699187735896142, -0.9974858985439167, -0.8038450940567718, 1.0, -0.098810069952043, -0.26318799439963103, -0.23173311788308446, 0.9377455968655868, 0.40555309711565, 0.6094613846855796, -0.25401845231162307, 0.41099521984087173, -0.8385825720480531, 0.6820398387935187, 0.6212279778563712, 0.30321632622921163, 0.908030414434334, -0.9265772169156999, -0.6388618602984188, 0.8485703019679975, -0.09197169320962019, -0.6077631753918535, 0.3947786046035701, -0.09481680116642892, 0.47763812288989504, -0.29950937227963836, -0.651659541602181, 0.35917727739507677, 0.579132795477371, 0.3898976511679591, 0.28313480922848044, 0.529698524617347, -0.5195207036409436, -0.8213274236042746, 0.9571771258613104, 0.29295800494725593, -0.3062155845616336, -0.9979620812307013, -0.7407215376333194, 0.9999994167140882, 0.9997785655492802, -0.4586423084125292, 0.6415413093018811, 0.6211190787222063, 0.20858791775851687, 0.38989005606696814, -0.12773997728381967, -0.21490704710889225, 0.2209301409164427, 0.999949019798137, -0.45294844826706243, 0.9999997732377127, -1.0, -0.22748007403695963, -0.14056982063250767, -0.4330858363054434, -1.0, -0.5189861256765153, -0.3367650100225804, 0.573608902067721, 0.997775193728068, -0.33632480325879943, -0.6152859559319349, -0.07991786051161746, 0.5499264643395578, -0.9994433363669842], [-0.23752531290841195, -0.998863718948016, 0.8265553176116088, -0.6082436656798826, 0.8701918617835362, 0.5654187436622022, -0.04926846225538018, -1.0, -0.3029346763943039, 0.6383048383878996, -0.35551172320303076, -0.32673714262568576, -0.7611710696019707, 0.4302513112535719, -0.3865233872558443, -0.4514610466631013, -0.2461391361314627, -0.053411942112810105, -0.8607771584965667, -0.640109263706389, -0.7304137919383437, -0.6054147127272964, 0.1943533297099074, -0.3248022677850349, -0.9965023236867488, -0.8458079299946291, 0.524440468814886, 0.5162131354503064, 0.19399015263087885, 0.23935528496114575, 0.8823111501756419, -0.10236437319960294, 0.619802779953507, -0.10402454950663143, -0.8270210171147223, 0.2573078692702252, -0.999681229401965, -0.19289594542048163, 0.5333118368751565, -0.2766654246099895, 0.1575726397443884, 0.7837378084575601, 0.9999992277892789, 0.019996783617863945, -0.5419906009356529, -0.8663379831735295, -0.8284042101956566, -0.8861708599149951, 0.6035031899864935, 0.6656698327580496, 0.9978855725092474, -0.38182504112267984, -0.9110208590493759, 0.1279859092509537, 0.8580915507992106, -0.4673623516982993, 0.0021720463261065775, 0.793582372585424, 0.10990545474071772, -0.19827802971814731, 0.16576925232982828, -1.0, 0.6332369172777442, -0.9650745229831813, -0.9996462250389515, -0.10240198563720226, -1.0, -0.5520611905091559, -0.3139803347181145, 0.7382439881534586, -0.5291251503241533, -0.8118067290768094, 0.09586324990540215, 0.09045010809777862, 0.9976770308320674, -0.999940241952353, 0.4892842036811283, 0.07750472985625723, -0.9999999761071799, -0.9678143837222093, 0.7194912824602037, 0.5912463051558055, -0.4523489138196397, 0.7460062273753258], [-0.8385033866745902, 0.6315065443598656, 0.17431045630845804, 0.34837719917554205, 0.2795662592710743, 0.09617834321804612, 0.9792659146168593, -0.7189291453910241, 0.1221641191136689, -0.9996852038516479, -0.6496231939352667, -0.6824797334900256, 0.03693129200893446, -0.45156167249621004, -0.507859072203605, 0.304642366771203, -0.40919984619519967, -0.19148922136177693, 0.10154896725818459, -0.5633878111542896, -0.49833508293065626, 0.15735950297680357, 0.4358957192719795, 0.9032281097475721, -1.0, -0.8984565544594748, -0.9968772041733687, -0.05307806646507434, 0.9863031661134165, -0.46491665966625734, 0.45770673771193426, 0.49316423320559405, 0.8848471039815546, 0.056899932726499854, -0.32357772275603797, 0.9682058901614804, 0.3923048421540779, 0.6370071909529107, 0.9976574565745033, 0.11952801267106115, 0.7321688868547517, -0.8145407687180974, -0.32271261841517124, -0.15259565354241655, -0.24011123036586424, 0.25374640902035717, -0.16420264893914233, -0.9991919211530672, 0.3633946454074907, -0.5362453141374078, 0.2570022043799165, -0.9999999989564596, -0.3160494920520193, 0.1816381374703762, 0.47099862765718437, -0.21156853316210297, 0.36745650877667474, -0.4592731722080187, 0.551909091917618, 0.016396655779662588, 0.19095468211790323, -0.13192615649086606, 0.9996343810270815, 0.030353446749929073, 0.9991247784101259, -0.16995509743251958, -0.8806212341223066, 0.23970053861886667, -0.9452746117737574, -1.0, -0.8743809783893742, 0.5971237110551147, 0.9657534616771535, -0.9999999999999999, 0.12393408022877565, -1.0, -0.5922260967574232, -0.012912104319799441, 0.4682021341162465, 0.18592231397697018, -0.5071502971953676, -0.4654227567529454, 1.0, -0.7265140365796527], [-0.10317717978165244, 0.45177895871011464, -0.9830989532132846, -0.38639060819308124, 0.8407422524691975, 0.9917347491149658, 0.3047231323945214, 0.06137957225019936, 0.999998092693623, -0.9999987249186952, 0.09831692911234621, 0.7957667332383401, 0.1098850413527415, -0.4324442645610254, 0.5846549427041686, -0.9800691297353112, -0.23679830510643468, -0.7355798699008238, 0.1411460819464827, -1.0, -0.30497635606475204, -0.5433059589904762, 0.559131356121364, 0.5073319414135729, 0.4737018250801598, -0.3974255702391494, 0.2924968781617423, 0.9508694374049497, -0.4533717701485877, -0.6429507904826358, -0.5991448546683014, 0.3524899674993264, 0.9999999999999999, -0.1814623215162854, -0.400420100235364, 0.5398869660512133, -0.12807207869387902, -0.9204959897331291, 0.84169217112059, -0.7720281893171426, 0.2295893713700232, -0.3731386097579385, 0.6315592029985918, -0.1999694044791671, -0.999868191755386, 0.27562088416092645, 0.7151050625151187, 0.15101746162870508, 0.5506603046803056, 0.4389866320204956, -0.008543393207528454, -0.8294224344251876, 0.6821260236685343, 1.0, 0.6103966221156396, -0.7753622215694241, -0.0631180978661839, 0.11341577388168514, -0.700428687044373, -0.4808818418768414, 0.18540444695254613, 0.09654067939785924, -0.7463718456794175, 0.517874853458667, 0.7892105279837808, -0.16798626240072195, -0.6471795272164984, 0.5330801115250935, -0.9022585334220785, 0.45053027524212474, 0.7199473467414701, -0.9996705799699506, 0.6891233961594275, -0.6166549737638368, -0.7322106503675283, 0.034767860994514836, -0.998960704456023, -0.8551777761238021, 0.3934980502824833, -0.7623844522280092, 0.20507824892737095, 0.5359357030146014, 0.6591784281253383, -0.8512918173803042], [0.6009714959828709, 0.9358809239400296, -0.13450022157520392, 0.9999996842414189, 0.999991329549045, 0.18599108678420662, -0.9656923059042701, -0.6728848273092479, -0.7244669844647524, -0.7030210634123897, -0.9999490406028274, -0.035120902075528565, 0.6470517242523783, 0.34041133977274185, -0.3860260037341274, 0.6519706070889756, -1.0, 0.19850354937877232, 0.8296150684079413, 0.26299749825014196, 0.21246475035029716, -0.14698127156515087, -1.0, 0.9999996965620189, -0.4362413653227998, -0.5917938028386801, 0.32116919267750355, 0.36775134353839595, 0.8138202028795445, 0.7389245377898292, 0.9989880874944314, -0.08630915189801598, -0.43875720401006374, 0.5777398460881737, -0.0966138115188317, -0.14873159654046522, 0.6329549651272044, 0.8430625771620422, -0.09896547309232624, 0.9999782463557301, -0.8871406147177624, 0.5154605676292477, -0.026841449363390564, 0.8748384961124167, -0.5295141074916293, -0.5500418899486903, 0.057544958165629836, -0.5260194324768361, 0.2821262076035588, -0.218717605277892, 0.5492513950791117, 0.227928238933178, 0.14202361097448973, 0.9399989906806814, -0.17798287969710136, -0.9850519713546317, 0.658232062090046, 0.11086640360897261, -0.7753109561434743, -0.8322769400759116, 0.1370508828091104, 0.5529871242392075, -0.4360518359593153, 0.6968174023035285, -0.5616057581837164, -0.7160193026874702, -0.16360581080829084, 0.598814687975188, -0.835090046140431, -0.1561785888890408, 0.3021429762151616, 0.6920906600838799, -0.8048208004337319, -1.0, 0.6162830018789845, 0.34089559017755566, 0.11541858494462495, -0.7142851735186553, -0.5369768701656764, 0.46364225605918274, -0.6659886518346271, 0.3179322147559244, 0.7268327140432399, -0.5808101555823962], [-1.0, 0.07471692751884741, -0.7949631680837337, -0.6885559688784625, -0.9493792884208528, -0.256952007537984, -0.35936324978245243, 0.20485868476981128, -0.28074029514919696, -0.9999999999513005, 0.34550222434466266, 0.20805910143846518, -0.8619341060911715, -0.3177411185603599, 0.8685874406797248, 0.998798443098298, 0.12156086083891396, 0.7914171718721964, 0.7757122457519148, 0.5075121008411093, -0.39392943026127986, -0.5368489213233928, 0.5099017778979089, 0.660974078114868, 0.6669434674526705, 0.08109348170287606, -0.16556490439378976, -0.9046396922165807, -0.20253376782340696, -0.31220132734806477, -0.9992776915604717, -0.6093510058582353, 0.8472140035441461, -0.8437800744874815, -0.5280296980117107, -0.9829407433325686, -0.6431868725784672, -0.9979526217524198, -0.7197817908509584, 0.36674704464559105, -0.159054881260298, -0.7448676000836658, -0.7002722448262941, 0.7824078573036869, -0.7740246473764134, -0.18430695033856373, 0.17565054833585209, 0.035216165970104976, 0.6562881769730384, -0.16774824421031925, 0.9956183139597837, -0.09470882642230526, -0.6511579532915601, -0.9965654869869212, -0.629917951831134, 0.7056520483359967, 0.4825630121179092, -0.6964396991815802, 0.23647309231193436, -0.8339136558986545, 0.4404887931917842, 0.3633116319599141, -0.490564356874342, -0.9449280817622264, -0.7681760493569153, -0.2671582590648607, 0.9989942614797894, -0.799940532933731, -0.8341909370030359, -0.9994086962699135, 0.17560809031699567, 0.11387354341797479, -1.0, 0.9999999715537924, -0.9034625677806868, -0.22380859094194533, -0.18487462963801787, -0.1931489029991835, 0.4066852077873149, 0.006363519795345202, -0.7429224028250596, -0.45634827042962434, 0.0707917941868916, -0.6803040635210492], [-0.99936383272058, 0.5212226210957633, 0.33124690062205747, 0.6652525579350224, 0.19071087407408513, 0.06174186903219372, 0.6500348616601511, -0.19004809481274842, -0.26380594428800735, -0.7467091469837229, 0.5733295534995394, 0.23827638603973544, 0.9999585677919776, 1.0, -0.002173118462827491, 0.9997328268306956, -0.564087892576476, -0.3427026155153279, 0.9992626106836349, 0.9997795528208523, -0.40568298612563386, 0.17438410881481275, -0.1336853828587194, -0.08784011677880134, -0.3968756370209316, 0.18869638421869622, -0.6125652237767262, -0.7854817932789793, -0.9999661443455075, 0.03467389598256653, 1.0, -0.13312248791388914, 0.1382083277209814, -0.3352634952806633, -1.0, -0.2784172295204212, 0.6764089281153794, 0.6151956949708636, -0.6088983825239166, 0.8047615439523823, -0.6030026580115226, -0.7025804878693214, 0.8451976382773467, -0.3238958648878469, -0.854821854338791, 0.5638951324435841, -0.43629140882671974, 0.251607507267193, 0.9936125095077691, -0.9998893063715613, -0.5258599312506272, 0.7047028046245398, 0.7594416128127411, -0.17742977115438524, 0.5225128010413894, 0.36558392207826323, -0.34742919320029036, -0.47775346218542936, 0.23861438969562238, 0.7303836462290858, -0.3992013223658736, -0.24928629077460474, 0.5434201960441871, -0.20066946691664414, -0.9569973896065443, 0.6391958658537344, 0.2548895696324283, 0.4320984826903523, 0.09928102192154634, 0.9997827055638258, -0.6254120089538308, -0.8090100859323659, 0.9999999999986589, -0.028969364935028146, 0.9986967407767018, 0.6983207341142016, 0.7445227672452961, -0.6338946794850776, -0.8214545605288188, 0.8748027576296346, 0.6997245059187736, 0.27854867680477247, 0.9992725908435661, -0.15900748765549375], [-0.7006094514911417, -0.4502716554420348, 0.7711922356752384, 0.1374039464505016, -0.9546157432238613, 0.7996788941915415, -0.2653841869650934, 0.7560528818955864, -0.7000908101771454, -0.04733477555990127, 0.28522826046685457, -0.32994223838140146, -0.3642401052104825, -0.07779261221650878, 0.5184086816455373, 0.6309366646414712, -0.27060600115568295, -0.9296010971998653, 0.9993941986183454, -0.5953601703329436, 0.3963553642249994, -0.18163569622235243, -0.515873468043454, 0.35741714411141373, -0.7488028043856336, 0.5530498239395641, -0.6593784378624148, 0.07781852542759367, -0.6665805137575197, -1.0, -0.9999970504584903, -0.8282497323173645, 0.9994500409108957, -0.2987002758360587, -0.9241761090292023, -0.1241474999418748, -0.5355870511227006, -0.9999999999999992, -0.9981519018858621, 0.6875444822454125, 0.07253645762554478, -0.5961651723437753, 0.31435010861116663, 0.6650933046139034, 0.5482989604221985, 0.9999812071110299, 0.2228694558831824, -0.9989879067531526, 0.5621971510411294, 0.03341208508174298, 0.9999998437879161, -0.1339011608838992, -0.840758756830927, -0.841504229355555, 0.20347603837579886, 0.0714185008716851, -0.6724670288473032, 1.0, 0.6843021301157403, -0.9999835734556651, 0.8104548125297116, -0.5966556333630529, 0.31243096531337805, 0.9998675449188534, -0.3714259729044202, -0.5732957433039909, -0.7418027260411262, 0.5669340639341485, 0.1577111758331306, -1.0, -0.9999766655825975, -0.7674334791888076, 0.4588803317249631, -0.721971019009677, 0.7850767387320451, 0.04235863665415462, 0.8740724344118496, -0.09974331911493406, 0.9578212721079158, 0.8774033439901339, 0.9999781737042542, 0.35844952546223574, -0.9999785494678515, 0.007393109257544955], [0.5822445253870142, 0.3188141321510191, 0.06491670704691085, 0.6975356377605253, 0.4132310557301696, -0.7073932248781033, 0.9752026006395934, -0.5700451086300566, -0.28793874835845196, -0.9999959260862669, 0.990812269523169, 0.8602100056584476, -0.31842334230299896, 0.05417748767027181, 0.4675728243186783, -0.8899966151969853, 0.23372374428355897, -0.9862473149863965, 0.7192930815515599, -0.7299201016591109, -0.999992262522766, -0.6467258448049041, -0.6132052279768073, -0.901906777618534, -0.8244778277082587, 1.0, 0.45037786138502656, -0.07861476633073006, -0.8687543262311419, -0.9999445017521071, 1.0, -0.9010333092469125, -0.4226190788325057, 0.4130669717145678, -0.15794593385691869, 0.4048689297878984, -0.7852265095498568, -0.15213048613640537, 0.7945676009707099, -1.0, -0.9990910525254758, -0.13672866207556691, 0.1358124876764655, -0.20077343897918234, -1.0, 0.8732977521600352, 0.826247238397705, -0.048656297834488604, 0.9516955423840243, 0.7784240545002, 0.7256859784780936, -0.40024311587593536, -0.3628999698202179, -0.14476682415365605, 0.008492404853726673, 1.0, 0.9999812403781064, 0.2229138049769618, -0.9986102353045394, 0.8449677327423647, -0.5424124620637738, 0.33694697188433437, 0.7178253837828462, -0.3255721873115623, 0.3197425583994763, -0.2847066651281903, -0.7384388917266151, -0.381090776184376, 0.1250259397281086, 0.8515084265557058, 0.4135580210124179, 0.04036779933414844, -0.768940646968953, -0.6071000283378928, 0.9978195179706281, -0.9200680509989472, -0.5049425172468824, -0.45971695673367896, -0.9999963281572055, 0.08637062220912295, -0.017012212062464522, -0.6531741358015443, -0.07528830241505176, 0.677221831067309]], "w2": [[-0.27200996073540396, -0.9999523402309057, -0.2876703178270335, -0.08249984565617975, -0.34535572708604967, 0.22638952732471007, -0.9999999998851835, -0.7984597341661828, -1.0], [-0.9676758249818377, 0.9999999870291518, -0.7924900063052402, 0.05102184946066367, -0.09415540929528635, 0.66315785285869, 0.923992616397827, -0.1735459124039774, -0.03819470303856237], [-0.16906832292561497, 0.6595835903656434, -0.6977246894609325, -0.2764299955731157, -0.46418985014541436, 0.06555106525946144, 0.2734550248610939, 0.5966287012427666, 0.43830434892931264], [0.21963968969389466, -0.2742588572172277, 0.10073108340706421, -0.19341243702620303, 1.0, -0.8067245858398938, 0.18685706036022426, 0.2615249032488762, 0.19218197804725204], [0.872555632481474, 0.19877322721354312, -0.3343371271675346, 0.999983876346568, -0.23430172793685122, 1.0, -0.18591838431558863, 0.9253365878256492, -0.5718007894828179], [0.03355322395118131, -0.32865656118008607, 0.3636320452393216, 0.469626515151788, -0.9999999904242566, 0.9930365658519601, 0.7311219409008076, 0.38225421864852577, -0.7034161152769359], [-0.9811716830146014, -0.08180113791573233, -0.9694256027000574, -0.2579135777985013, -0.09961636980008547, -0.3497351235634825, 0.9923452549688994, 0.33505633834436477, 0.208653359800309]], "b1": [[-0.3142403452881795], [-0.6465092314870954], [0.8861893262853147], [-1.0], [0.4719635796869086], [0.12541133223611473], [0.3124742382907638], [-0.5409487536268425], [0.12119103753754881]], "b2": [[-0.5997606838206408], [-0.05506309412413137], [0.607356715807656], [-0.1467205918631328], [-0.2397998109872727], [-0.7715039050856891], [-0.9971519910226161]], "fitness": 4258.0, "best_pos": 10.0, "best_status": "small", "score": 1600.0}