{"w1": [[-0.1940748711065427, 0.6649457879969117, 0.04725266890253253, 0.3804798860641034, -0.17283404994985527, 0.5424352384201978, -0.9999914379290077, -0.459979814081291, -0.5544640351377388, 0.13828817435137408, 0.04976722701376656, -0.44511283635320964, 0.5898271053913192, -0.9999999999999992, 0.08625969061699193, 0.38698340325828134, -0.44118278135294, -0.999999999740681, 0.18698761799223373, -0.9974858985204645, -0.8038451064191356, 1.0, -0.09881025761207565, -0.26238725693770243, -0.23172932198219282, 0.9377455968654134, 0.4055530971156509, 0.6094615912187519, -0.2540184523114132, 0.29174138971589747, -0.8528711668590758, 0.6820398387967007, 0.24594890561205962, 0.3032163262291564, 0.9080304131250084, -0.9999952423861422, -0.6388618603183559, 0.8485703060555673, -0.09197169320999041, -0.6077631753718565, 0.10932025664949913, 0.015104396069442916, 0.4776381273011902, -0.29950937227967717, -0.4521418268662981, 0.358456519179554, 0.5791327954773554, 0.3265413782363968, 0.283134800863326, 0.5296883371861565, -0.5195208641964479, -0.8213274236027748, 1.0, 0.2929595045278824, -0.3062155845614091, -0.9979620812308506, -0.7407185013489516, 0.9999994167140814, 0.9997785655492569, -0.4586423084121998, 0.6426251698982054, 0.6211190148805564, 0.20858791775876998, 0.4646627911626582, -0.12773988259626343, -0.1438384424101955, 0.220930140916246, 0.9999490197981398, -0.45294841313986706, 0.9999997732374148, -1.0, -0.22748070521840089, -0.14056982063250767, -0.4330858363054435, -0.9999999999999997, -0.5189861411452411, -0.33666649896502177, 0.5736089020700555, 1.0, -0.3363248026400434, -0.6153047125424367, -0.07991496121202483, 0.5499264643395968, -0.999443335505656], [-0.23754346849252458, -0.9988605127761738, 0.8265557915180306, -0.6082440539142177, 0.8165981707790126, 0.5651026997331828, -0.049255893094287635, -1.0, -0.30293467639430555, 0.6374768374156204, -0.35551172320552116, -0.32673084392963914, -0.7611710609329211, 0.4302502505530317, -0.3865233698162254, -0.451438113050021, -0.24613914878806628, -0.05341194052139398, -0.901198631913412, -0.6401095903144925, -0.8142519778143115, -0.6054146432839411, 0.19435429590762907, -0.4746962900375518, -1.0, -0.8458074271899889, 0.5244404688562372, 0.5162159913782515, 0.1939942165129825, 0.23935528496102687, 0.8823111501699261, -0.10236437320191477, 0.6198029474707109, -0.10402567103471907, -0.8270144623141512, 0.25730785517130933, -1.0, -0.19288944036623126, 0.5332079281874543, -0.27666542460998295, 0.1574503108479711, 0.7837378084575679, 0.9999992277892539, 0.051521959886804844, -0.541990600935363, -0.9053139478811402, -0.7326969553165014, -0.8864100557304083, 0.6035031899873061, 0.6656681233963471, 0.9978812877620827, -0.38293391909527047, -0.7063512998243069, 0.12798590924904485, 0.8580915516518026, -0.4673403019958157, 0.0021720463278310977, 0.9243293462013483, 0.10990540644279509, -0.3764464434562907, 0.1657692523039169, -0.9999103314802882, 0.6332369172777467, -1.0, -0.9996462275373683, -0.07964141415550763, -1.0, -0.5520600331387489, -0.31398033472082615, 0.7382431055062755, -0.6896181458883307, -1.0, 0.09588066956198492, 0.090450108100492, 0.9976770308319072, -0.9999402420214487, 0.5111586663861477, 0.07750089505299296, -1.0, -0.9678143837209952, 0.7194912824570583, 0.5912463052202203, -0.9912001765135506, 0.7460062273753252], [-1.0, 0.6309984597040718, 0.174311354879876, 0.34837719916941995, 0.2795662566804147, 0.09617834327197232, 0.979262709297133, -0.7189291453925732, 0.12216411911366706, -0.9996852038539586, -0.6496231939353323, -0.6824800728698571, 0.045088690172303325, -0.4515614176868603, -0.5078590721633919, 0.3046423654964189, -0.40919029494069015, -0.41807103548126145, 0.10154844528862887, -0.5633872398526634, -0.35576338199874746, 0.15626337301211043, 0.4358957192719795, 0.9032280987264003, -1.0, -0.7829235755552588, -0.8491297650922731, -0.05324116402383775, 0.9863041413472922, -0.46490325167673446, 0.5861971708236876, 0.4926591782368625, 0.8848464174049415, 0.054857208892768135, -0.3235777227312155, 0.9682058265112548, 0.6833842254495899, 0.6370072426077074, 0.9976574565742072, 0.11952801267056448, 0.7321732228346792, -0.8145407687126116, -0.32271261840571697, -0.021330321251945422, -0.24011123036701107, 0.25374554452893266, -0.16420265214793714, -0.9991911702334844, 0.36339459618329634, -0.5362453384029251, 0.25700104955135794, -0.7002999839300457, -0.3160491170691457, 0.18163813747031532, 0.47099862765151407, -0.21164694185800054, 0.36745660532492, -0.4592730380896672, 0.3876453093665762, 0.01589263848857003, 0.19089660496660488, -0.13192399891482992, 0.9996343810270715, 0.030350173255613434, 0.9999986723019618, -0.1699550974325198, -0.8805286088786412, 0.2397005461484374, -0.8041522520271112, -1.0, -0.8743809783898612, 0.5971237110553289, 0.8261382205157397, -0.9999920652447951, 0.12393422886669496, -1.0, -0.5922260655063568, 0.1360987228313463, 0.4682021341157691, 0.18592231401955805, -0.507150297195368, -0.4654253803375641, 0.9999999999999999, -0.7265140368303475], [-0.10317717978151104, 0.45177895871003726, -0.9831038470514151, -0.5354612451420817, 0.8407422524691932, 0.9917347734595789, 0.30473503157525667, 0.06137957086556246, 0.9999980927028184, -1.0, 0.09831692911245489, 0.7957625062844843, 0.10988504135053759, -0.4324442645610253, 0.7961046488354326, -0.9800691297353002, -0.23679851541753633, -0.7355798699029469, 0.14114598206023393, -1.0, -0.3049763522534601, -0.5433059589332199, 0.5591313561213523, 0.5061465442123186, 0.47370182508004527, -0.3974255696761991, 0.2924967395969592, 0.950869437405019, -0.4533717701487241, -0.6429504567700122, -0.598806253024799, 0.3524906333157635, 0.9999999999999999, -0.18146203792158236, -0.4004201398408341, 0.5363300857573231, -0.1280720786938546, -0.9204956688304687, 0.8416921711206248, -0.7720280244377149, 0.22958937136991647, -0.3731308737911302, 0.6315592029985907, -0.19996920578310773, -0.9998681917554926, 0.2756208841609303, 0.7830828293628851, 0.1510176469913963, 0.5506603038756521, 0.4389905996905308, -0.00854309145936534, -0.829422415561309, 0.6821260236303128, 1.0, 0.6103966257757565, -0.7278262254796583, -0.06311896093109534, 0.11341577388170035, -0.7004286870444211, -0.48059838659549275, 0.018171768340879857, 0.09652769361087048, -0.7463718456794126, 0.5178751380680066, 0.789210701537936, -0.16799916826530234, -0.6471795314395851, 0.5330801115734979, -0.9022679464101381, 0.45053027524207806, 0.5250111841076631, -0.9996642014664857, 0.689123944165096, -0.8982405391294022, -0.5924453913771253, 0.13295878309375064, -0.9989644495632467, -0.8551832862646388, 0.3934978584576221, -0.7623844522280122, 0.20507824895788895, 0.5359358966188311, 0.12182781734710772, -0.85128956731102], [0.6015227230164767, 0.9358809172732119, -0.20960018811050685, 0.9999996842434618, 0.999991329665502, 0.18599249681146496, -0.966600631496242, -0.6728848273076844, -0.5318972785933314, -0.7030210634321648, -0.999949072560505, -0.03512079272748909, 0.6405032202708542, 0.14717269501889893, -0.3860260035944753, 0.6519706070889689, -1.0, 0.1985035489562883, 0.8296150591691327, 0.2629975515691282, 0.21246473314028888, -0.14698127155184545, -1.0, 0.999999696560666, -0.4365939709468514, -0.591793802838706, 0.4477657531663777, 0.3679903738506783, 0.6734970899074934, 0.7389245379369567, 0.9989880908003022, -0.17095944725734194, -0.4387571967978837, 0.5777398460737857, -0.09660592002078752, -0.14873213150839829, 0.6329549651271995, 0.8430625771620422, -0.09896581310431775, 0.9999782463557259, -0.8871347647593933, 0.5906251213131393, -0.026841354981576623, 0.5411981230240143, -0.5295125639595569, -0.550041893848299, 0.05754494548048921, -0.5260194324775205, 0.282126361206245, -0.21871760521086686, 0.6832929382460573, 0.22792777611563908, 0.14202361097176516, 0.9237243145443241, -0.17798287967850296, -0.9850519713049096, 0.6582320620289719, 0.11086640990910852, -0.7753110389535653, -1.0, 0.13705083003838267, 0.5529875602081775, -0.45089584503053665, 0.6968174049963265, -0.5616055573784033, -0.7160186870816441, -0.16360473492588273, 0.4277349486129449, -0.8350900461427113, -0.15617762454554843, 0.473237859425327, 0.6920906600838822, -0.8048208225881209, -0.9999999999999999, 0.30091583790254517, 0.3379158829356943, 0.11541858494462014, -0.7142851711016722, -0.2820317141835036, 0.4636422989055216, -0.664723672814434, 0.3179322154061204, 0.726975032361382, -0.5808122134676956], [-1.0, 0.07471491357040252, -0.7940099161980579, -0.7360153192219132, -0.9493792869205825, -0.2569520075378884, -0.3593633015526595, 0.20485603793476942, -0.280737357716219, -0.9999999999513006, 0.34550222434466255, 0.2080591014384807, -0.861934106544822, -0.3177410543803215, 0.8685874529750094, 0.9987984430982086, 0.12156085935079933, 0.6497824547308486, 0.7757315781399804, 0.5075121008411371, -0.3939294300035574, -0.5368487165371192, 0.509907524612511, 0.6609740607774495, 0.6669434674474549, 0.08109357135945393, -0.20660845429649535, -0.9044459585266558, -0.20255888826936339, -0.31219958920047847, -0.9992737850007096, -0.6093510058580122, 0.8472140035441014, -0.8437800713098067, -0.5290140352416688, -0.9829407242282667, -0.6431869646337901, -0.9979526217524187, -0.7208382037035287, 0.36674715833283034, -0.13678156299800023, -0.7448676000843655, -0.7002722765820846, 0.7824090081574937, -0.7740246473667258, -0.18358077217427188, 0.1418338145952236, -0.2642437316229794, 0.6562950725563351, -0.01272650411426554, 1.0, -0.09470882642328776, -0.651157981760517, -0.9965656050508809, -0.6292992425946912, 0.7056520483355866, 0.3303731577024255, -0.6964396991816209, 0.2364745540746034, -0.8339136558991148, 0.4404887726526897, 0.3633116319596816, -0.3091419714669962, -0.9449280778725395, -0.7681760493568998, 0.06371408255750485, 0.9990110990700217, -0.7999263423710883, -0.8341909370161664, -0.9994086962571321, 0.17560894245203554, 0.11387354341876758, -1.0, 0.9999999715536901, -0.903462566645293, 0.32879815181499783, -0.18487462963801898, -0.19315154222109188, 0.40668260438002574, 0.006363688484646221, -0.7429224028252057, -0.4563501758485368, 0.07079179822296175, -0.6803040635443952], [-0.9993638326088287, 0.5212219680994847, 0.33124690062200857, 0.6652525610260163, 0.19071069741381821, 0.06174187698815121, 0.6500348616592261, -0.19271816197276337, -0.26380137005684207, -0.7467091470008441, 0.5733295410567487, 0.23827656043583198, 1.0, 1.0, -0.002173107012096982, 0.9997062436212595, -0.019999779397721795, -0.34270261553913556, 0.9999999477148123, 0.999779552820848, -0.4056828951955898, 0.1743836079101856, -0.08423584197531732, -0.0878401167786371, -0.39687563702093737, 0.18869638421871224, -0.612565228143485, -0.5727757648612709, -0.9999661443455705, 0.034673817388777624, 0.9999999999999999, -0.13311785564332324, 0.13820832770832644, -0.2579843487870898, -0.9999999999999999, -0.278417229519178, 0.6764089207427564, 0.6151956950195563, -0.6088983825239366, 0.8047615834471451, -0.6030026625756826, -0.7025804874562416, 0.8451976358945936, -0.32389586488787264, -0.8548218346961596, 0.5638954040286628, -0.4348302627530518, 0.25160750731442577, 0.9936125095562456, -0.9998899921881165, -0.5258599311589408, 0.7046992066149392, 0.759440958820498, -0.17742977127015894, 0.5225128108568836, 0.3655839074127883, -0.18383438131011934, -0.8068371606444091, 0.23861438969562337, 0.5039516630896838, -0.38644253674140155, -0.2492862907746047, 0.8538605974106085, -0.20067046562104238, -0.9569973896059508, 0.6391958658535715, 0.25488958552748275, 0.4320984826903456, 0.09928047764498933, 0.9997810359439805, -0.6254120089272697, -0.8090100859323056, 0.9999999999986587, -0.028969300518085234, 0.9986967295873502, 0.6983207339598733, 0.744522767245374, -0.6338984650386215, -0.8214545270632185, 0.8748027576477778, 0.5631088316176388, 0.27854867680477247, 0.99927259106532, -0.15900748762481495], [-0.7006071472166155, -0.4502707465865354, 0.7718965724942046, 0.13740428206627572, -0.954615743224054, 0.8703239204276256, -0.2653806720719511, 0.7560528871884401, -0.24047145874568182, -0.04754002206823634, 0.4076136701706584, -0.32993267573517543, -0.36424045989716697, -0.24630895774700043, 0.5177763936103336, 0.630936637583043, -0.2706059995200318, -0.9296010971666541, 0.9993941986183457, -0.595360899317374, 0.39635536422526413, -0.18163569900159124, -0.5158734084529977, 0.3574018484033619, -1.0, 0.5530491276309301, -0.791983493535022, -0.03329367154773506, -0.666537184723658, -1.0, -0.9999970504562978, -0.8282511165342967, 0.9994500409113569, -0.29870027500264046, -0.9241762633872846, 0.43977518510045, -0.5355870511227144, -0.939876515392456, -0.9907468566292189, 0.6875444889818834, 0.07253647246371192, -0.49774307489488817, 0.49246232729907635, 0.6650933187422545, 0.5482989604225037, 0.9999812071108825, 0.22286945588318285, -0.998966619671724, 0.5621971510538603, 0.033454003386215896, 0.9999998437880112, -0.010529875377635986, -0.8407587568242605, -0.84160817074764, -0.09657671693546066, 0.07141877921014127, -0.6769908905130787, 0.9999999999999997, 0.5807502773820974, -0.7400702152179973, 0.8104548125294339, -0.5966556287965391, 0.33998851853992357, 0.9998675449188539, -0.7488979282534245, -0.5732930898937989, -0.7418830458424388, 0.7693637188775209, 0.3608258246963304, -1.0, -0.9999766655825972, -0.7674321027714296, 0.4588777803077104, -0.5107263404351056, 0.7850767387592884, 0.04240763315827796, 0.6767081891892954, -0.10118074531098493, 1.0, 0.8774033439905226, 0.9999781737042516, 0.35844953041442124, -0.9999785498587879, 0.007393109257504917], [0.5822445268541234, 0.3188141676660133, 0.06491666651915971, 0.6975356479075576, 0.41323304195118515, -0.7073932249458666, 0.9752026006383212, -0.5700450999139296, -0.28830042007223894, -0.6816038791472336, 0.9908122692312468, 0.8602100056584511, 0.026965263603191875, 0.054177487670270856, 0.4675728243185565, -0.8899966187980517, 0.2337263278830689, -0.9999999535734746, 0.6315459447317255, -0.7299201016590726, -0.9999922625227661, -0.6467258446350196, -0.6132052279746959, -0.9019063817024814, -0.8244778277082645, 1.0, 0.29690493582763194, -0.29838721434367815, -0.8687543262304006, -1.0, 1.0, -0.9010332985858516, -0.4226190863553281, 0.4130626062438443, -0.1579504811796684, 0.40486892878739195, -0.7852265095384667, -0.15213048614102176, 0.7945647311937201, -1.0, -0.9990868271478266, -0.13672865968742315, 0.47208984471866766, -0.20077813773023423, -1.0, 0.8733040689076461, 0.8262472508237841, -0.04865629783484993, 1.0, 0.7784242884778574, 0.7256853120756417, -0.400243115875937, -0.3628999698193658, -0.1447668223993428, 0.008492404853693429, 1.0, 0.9999812403569022, 0.2229138049764391, -0.9986102353044906, 0.8449679332840166, -0.542412462063779, 0.5158269738473787, 0.7178253795327031, -0.32557395437851616, -0.08749503252414392, -0.28471059929729836, -0.7384388816216786, -0.3810907761827699, 0.12502593971422368, 0.8515084265481844, 0.5027771840091679, 0.04036737918033744, -0.7689405783624321, -0.6071000283378929, 0.9978195179706267, -0.7204615560818276, -0.5049429276332268, -0.4597596289027066, -0.8633677955439134, 0.08564488726690288, -0.04243216424225169, -0.65220189626499, 0.09067409810259738, 0.5391616015799113]], "w2": [[-0.272005878530966, -0.9999520312979039, -0.2876703084457779, 0.08016526202893252, -0.34535572454083846, 0.22638952732470735, -0.9999999998851713, -0.7984591915046888, -1.0], [-0.6136373009484225, 0.9999999870305492, -0.7924900063038077, 0.05102184946063569, -0.2368081149776599, 0.7241461866155938, 0.9239926163978367, -0.1735459124039181, -0.2345064641268067], [-0.1690683198336348, 0.9986418315396102, -0.6977246249612833, -0.2758751435660633, -0.46418971212155435, 0.06554823470055801, 0.2734545950456791, 0.596628238842719, 0.4383040956123818], [0.21963968979621912, -0.2742587322757576, 0.10073108340706267, -0.1934124370424151, 1.0, -0.8067245857817801, 0.1868571034248226, 0.26151579168521094, 0.19218197806064347], [0.8725556324827234, 0.19933032085960586, -0.33433712716924513, 0.9999838764027894, -0.23430172737424787, 0.9999999999999999, -0.3939352184113046, 0.925336587825687, -0.5718007564150627], [0.033553218599550676, -0.328655377581956, 0.36363204523931975, 0.4696237576090303, -0.7703963562414827, 0.9930364679425763, 0.766233777628151, 0.38225421864856785, -0.7034161261209875], [-0.9811716827630832, -0.08180113830501401, -1.0, -0.25791662613471417, -0.09961390153774702, -0.34973512917454674, 0.9923390707660461, 0.3350567971106128, 0.20865335980087965]], "b1": [[-0.2917370814057405], [-0.6465092314859378], [0.8861893262853324], [-1.0], [0.47196357968727864], [0.21998768334014698], [0.3124742397741543], [-0.7508397788189073], [0.12100094767450836]], "b2": [[-0.5997606838132012], [-0.05506309413298629], [0.9374370890799578], [-0.14671724949127604], [-0.23979981095957684], [-0.9999991487144398], [-0.9971519908981527]], "fitness": 4258.0, "best_pos": 10.0, "best_status": "small", "score": 1600.0}