{"w1": [[-0.19407090905089805, 0.6649456410094136, 0.04725266921594104, 0.3804795282554256, -0.17282991844756193, 0.5599136977958005, -0.9999914379290108, -0.4599798140828925, -0.5544640351364232, 0.4401031186214176, 0.4596083579860679, -0.44511283568550886, 0.4842989630396066, -0.9999999999999994, 0.0862448081030232, 0.386983403258721, -0.4411827934414928, -0.999999999740681, 0.18699291321362382, -0.997485898673179, -0.8038450894556524, 1.0, -0.09880553203938205, -0.283208029414883, -0.23173307077130265, 0.9377455968666849, 0.46118025410812685, 0.6094614536002045, -0.2540184523115628, 0.41099521984089726, -0.45867625853204386, 0.6820398387938226, 0.6226565811379684, 0.30321632622923417, 0.9080304077680339, -0.926655255770901, -0.6388618602542969, 0.848570301655303, -0.17422106617297017, -0.6077631753292151, 0.24719038673205015, -0.09483437545872782, 0.47763793897957874, -0.29950937227992613, -0.6519700201204467, -0.07924877448303541, 0.579132795477, 0.3899599879013596, 0.2831348137639499, 0.5297002711142634, -0.5195207876083622, -0.8213274236294946, 1.0, 0.4301769458193423, -0.30621558461614523, -0.997962081230391, -0.7407217126191256, 0.9999994167140853, 0.999778565549254, -0.24323058562377464, 0.5754885088963905, 0.6211191918953657, 0.20858791775889612, 0.3891480722835756, -0.1277421554283363, -0.21490704701983449, 0.28790462995744337, 0.9999490197981331, -0.45294847352275275, 0.9999997732363894, -0.9999999999999999, -0.22747945788105878, -0.14056982063250767, -0.43308583630544323, -0.8802616534047656, -0.5189861513141566, -0.27531711471552534, 0.5736089020864235, 0.9977751937281494, -0.33632480363851713, -0.6152965713910639, -0.07992364030780033, 0.5499264643395271, -0.9994433371342738], [0.029469077998995424, -0.9988622139743044, 0.8265552364365298, -0.6082439646420114, 0.870191861784167, 0.5645280599067678, 0.06099625352542188, -1.0, -0.3029346763943045, 0.6375994006277772, -0.2886260459008057, -0.3266391825945313, -0.7611710721429789, 0.4302457173239189, -0.38652338267476544, -0.4514587775728381, -0.24613913640134524, 0.033587530616609025, -0.8607771909887779, -0.6401097867881761, -0.7303025570354316, -0.6054065516999886, 0.19435385693198723, -0.32477328800874183, -0.9965022699513623, -0.8458138868061078, 0.5244404685725832, 0.8176286501630587, 0.19398362150980852, 0.23935528496125383, 0.8823111503021288, -0.10236437319936487, 0.6198027133515217, -0.6546591878554601, -0.8270214231108558, 0.25730784279831903, -0.9996812302362064, -0.19289154579213447, 0.5352077010579356, -0.2766654246099914, 0.15757767114209717, 0.7837378084575617, 0.9999992277900631, 0.019869555847022546, -0.5419906009358496, -0.8662043426341386, -0.8283109874603214, -0.8096442277872755, 0.6035031899864896, 0.6656656790668279, 1.0, -0.38496290008552353, -0.9414234174507674, -0.08280096213080301, 0.8580915505641625, -0.4673721837406315, 0.0021720463265278434, 0.7934548099687643, 0.10990598495350946, -0.1994635906961734, 0.1657692523755005, -1.0, 0.9983072458013211, -0.9650745230012254, -0.9996462251809497, -0.10212701648444995, -1.0, -0.5520605514003438, -0.3139803347185585, 0.7382438359323221, -0.5291251458236877, -0.8118067290768093, 0.09590777218022643, 0.09045010809739011, 0.9976770308322246, -0.9999402425003476, 0.4892888425093771, 0.07750544377978477, -1.0, -0.9678143837221765, 0.7194912824616627, 0.5912463051672331, -0.45234891385563, 0.7460062273753252], [-0.8385033425409536, 0.6313083300237596, 0.17430903795855845, 0.3483771991766418, 0.2795662598919281, 0.09617834222175915, 1.0, -0.7189291453902348, 0.12216411911367633, -0.9996852038516114, -0.6496231939351939, -0.6824831735579082, 0.03690373917370586, -0.6956557148275492, -0.5078590724124498, 0.3046423657184372, -0.4092128611338972, -0.19148824979546453, 0.1015448448521032, -0.5633880536082154, -0.49797301839709224, 0.15738098320504093, 0.43589571927197945, 0.9032303341440033, -1.0, -0.8994149279965099, -0.9082308844274207, -0.0530701579202544, 0.9863032762129579, -0.583687906513201, 0.45863155615032203, 0.4933388824431259, 0.8848731618812686, 0.05722106799272704, -0.6460580341482675, 0.9682048479087637, 0.9183760969186654, 0.6370068972495807, 0.571584529689373, 0.1195280127468328, 0.7321655877765845, -0.8145407687196927, -0.3227126184102858, -0.15259571285792212, -0.24011123035056148, 0.6033756907998957, -0.16420264914770608, -0.9991922255677814, 0.3633946916503964, -0.5362452435812063, 0.25700100673017645, -1.0, -0.31604420223711327, 0.18163813747038055, 0.47099862748260074, -0.2115859986228266, 0.3674565331525343, -0.45927289191680537, 0.15726804539741376, 0.01636072389035293, -0.014246369788122826, -0.1319229186802472, 0.9996343810270732, 0.03035459968265308, 0.9991265854859438, -0.16995509743252019, -1.0, 0.23970054060207024, -0.94415134142891, -0.9999994381956915, -0.8514686886609735, 0.5971237110559033, 0.9662264389386007, -1.0, 0.12393440199422218, -0.8966198204463058, -0.5922261053553292, -0.01204972297839877, 0.46820213411417305, 0.18592231398687187, -0.5071502971953691, -0.4654196236473528, 1.0, -0.6078964794054905], [-0.10317717978171836, 0.4517789587099657, -0.9830983059309062, 0.03613325902874499, 0.8407422524691843, 0.9917280798426077, 0.30472133374173804, 0.06137957392534263, 0.9999980926960353, -0.9999987249186952, 0.0908670821127575, 0.7555161987253445, 0.10988504134901318, -0.4324442645610249, 0.5846549341558432, -0.9800691297353181, -0.23679861607129218, -0.7355798699079319, 0.1411457175029551, -1.0, -0.3049763506230621, -0.5433059589684083, 0.3092840639852163, 0.5075367195887227, 0.4737018250801688, -0.3974255703254668, 0.29249991148338994, 0.9508694374058012, -0.4533717701485776, -0.6429555557717871, -0.5991204888230438, 0.35248993388256183, 0.9999999999999998, -0.18146245953540716, -0.40042117058730015, 0.5403971121919576, -0.17812341440339405, -0.9204959373953477, 0.8416921711205578, -0.7720282265813188, 0.38432980750125356, -0.3732767845776139, 0.6315592029986012, -0.19996950896767413, -0.9998681917553478, 0.40173044842052763, 0.7151050625149115, 0.05322169732025625, 0.5736977380360763, 0.39358415890224707, -0.00854359447844733, -0.8294226749329583, 0.6821260236852346, 1.0, 0.6103966256259825, -0.7751587993281129, -0.06312050642748489, -0.011201227683620836, -0.7004286870443783, -0.4807240737206326, 0.18540444695395683, 0.09654015868133799, -0.7463718456794012, 0.5178749507751199, 0.7892102822495163, -0.16798205005888628, -0.6471795237504492, 0.5330801093101022, -0.9022620902987606, 0.4505302752422717, 1.0, -0.9996679084137404, 0.41532942096452063, -0.6146787834426437, -0.7379946727093124, 0.03395585672246013, -0.9989621742452364, -0.8551688662408452, 0.3934979448683675, -0.762384452228061, 0.2050782489512583, 0.5359423413804267, 0.6596676673985864, -0.8512889684895332], [0.6010561894966088, 0.5687615018181656, -0.28487523822773175, 0.9999996842391867, 0.9999913297813878, 0.18599394545396297, -0.9669098758877537, -0.6728848273067604, -0.7178883962995108, -0.7030210634497119, -0.9849256017147549, -0.03512085470553673, 0.6470517242364905, 0.33545459892103635, -0.3860260038815735, 0.6519706070889769, -1.0, 0.19850354813534074, 0.8296150444335473, 0.2629794652627226, 0.21246471151329643, -0.14698127156325874, -1.0, 0.9999996965617098, -0.4384882185161353, -0.5917938028386407, 0.32116919267745986, 0.3677079385148849, 0.8154209496484559, 0.7389245373182014, 0.9989880336837637, 0.027114258022293364, -0.43875719197938684, 0.5777398457701204, -0.09661540431238567, -0.1487310435086873, 0.6329549651272056, 0.8430625771620419, -0.09896545266122965, 0.9999782463557287, -0.887141417929976, 0.5152317394280621, -0.0268414447446808, 0.8754047309427725, -0.5295151204330608, -0.5500418882084865, 0.05754498053905757, -0.5263307187947991, 0.28212506434601925, -0.21871760514771535, 0.5496842961630872, 0.22792831462598798, 0.09381358445477128, 0.9415250419106587, -0.5118828601062035, -0.9850519713811404, 0.6582320620971961, 0.11086640085621731, -0.8706588725726581, -0.8322769400759047, -0.4294973401656027, 0.5529871107418235, -0.4362108481756457, 0.6968174077449031, -0.5616055976473466, -0.5292227875261947, -0.16360419480791025, 0.5988146879751872, -0.8350900461437043, -0.1561782533426243, 0.30214297632348236, 0.6920906600838678, -0.8048208236153457, -1.0, 0.6194380114359506, 0.34085842685910894, 0.1154185849446508, -0.7142851227941105, -0.5412903570278238, 0.46364223087519824, -0.6669469798724764, 0.31793221510657266, 0.7260842181891826, -0.5808602297980986], [-1.0, -0.10941473848665029, -0.7954361196587376, -0.6887192518243859, -0.9493792884001419, -0.2569520075380669, -0.3593641269911384, 0.20485768342544533, -0.28073669422483494, -0.9999999999513005, 0.3455022243446627, 0.2080591014384379, -0.8619341055020063, -0.31774003514597243, 0.868587439387871, 0.9999982560688145, 0.12156086584128649, 0.7919235017021258, 0.7757071245296571, 0.5075121008411264, -0.3939294310889209, -0.5368487940538574, 0.5099066586435929, 0.6609740430360517, 0.666943467433571, 0.06981130900897548, -0.0014255142152651834, -0.9046088199617642, -0.20257177034182353, -0.31219928679487025, -0.9992708871434193, -0.7469765344260354, 0.8472140035442265, -0.843780076430296, -0.527947350418244, -0.9829405858899491, -0.8081586815810933, -1.0, -0.7210804062000037, 0.36674785201134963, -0.15907993011365448, -0.9050946103916175, -0.7002722400864947, 0.7824098174296757, -0.774024647369816, -0.18463514555837504, 0.17557454907638673, 0.23064352318577877, 0.656285745412909, -0.16849669394607786, 0.9956660266198918, -0.09470882642338112, -0.6511577900306068, -0.9965655590238874, -0.6297363712288101, 0.7213383081065422, 0.48060276391171847, -0.6964396991817428, 0.2364786333048978, -0.833913655930112, 0.44048867621344107, 0.36331163196011196, -0.49056427713585765, -0.9449279689577383, -0.768176049357332, -0.2717653511764712, 0.6549045907260029, -0.7999510465065237, -0.8341909374125778, -1.0, 0.1756080675415855, 0.1138735434180499, -0.838317928771856, 0.9999999715537936, -0.9034622642191542, -0.2238085909417713, -0.18487462963802095, -0.42353324276238985, 0.40667639331413324, -0.20499377526017667, -0.742922402824172, -0.4563511501142005, 0.07079179253184495, -0.680304063544522], [-0.9993638324326968, 0.5212215960457074, 0.3312469006220284, 0.6652525568726966, 0.19071066550625299, 0.061741863914610624, 0.7714510522335225, -0.19003512427148334, -0.2638020773522477, -0.7467091469987389, 0.5733295364038394, 0.23827651844879807, 0.9993469938780024, 1.0, -0.002173114518497741, 0.9997499249917304, -0.4051533121255295, -0.34270261541315783, 0.9992604044656693, 1.0, -0.40568338095236745, 0.22258574947017185, -0.13369351020370002, -0.15577103482376653, -0.3968756370209341, 0.18869638421898383, -0.6125652262161827, -0.7866072194305717, -0.9999661443455159, 0.034672426806343734, 0.8687216678588845, -0.1331225199158554, 0.018203782488795228, -0.3352654556264909, -0.9999999999999999, -0.27841722950052433, 0.5577352157167259, 0.6151956949940321, -0.6088983825236777, 0.8047614052616703, -0.6030026555895864, -0.7025804812317371, 0.9855168835749415, -0.32389586488781713, -0.8548217180781896, 0.563895088510712, -0.4371387402729784, 0.25160750722992276, 0.9936125094988085, -0.9999106304386012, -0.5258599311440918, 0.8345422050325266, 0.7594421419780242, -0.17742977115376798, 0.5225127933054994, 0.3655839335689053, -0.3463725389652524, -0.47822298724540035, 0.23861438969562032, 0.7318529021142526, -0.3992997857851611, -0.2492862907746049, 0.5414163998007682, -0.20066955297276312, -1.0, 0.43268301553331834, 0.25488957289032604, 0.4320984826903632, 0.0992810241352082, 0.9997829496354665, -0.6254120089375831, -0.8090100859324266, 0.9999999999986586, -0.028969377605556425, 0.9986967493448909, 0.6983207341006847, 1.0, -0.6338979426283776, -0.48089579099898505, 0.8748027576284014, 0.662282159414718, 0.27854867680477247, 0.6903097993590815, -0.20712754198388575], [-0.7006093859291946, -0.3511599790298728, 0.7717052468513788, 0.13740964263493938, -1.0, 0.7896574671587256, -0.1793070401900609, 0.7560528820323286, -0.700090810177184, 0.031203268808557304, 0.28603591969665276, -0.32994666915397375, -0.208704838122799, -0.07779261221651015, 0.5188396489261052, 0.6309366620399189, -0.27060601196133466, -0.9296010972066814, 0.9993941986183101, -0.5953593832304346, 0.48789877544893334, -0.18163569567556198, -0.515873545822712, 0.35741545827829996, -0.7488028906465201, 0.5530494288933063, -0.6587332278475453, 0.2761520318532, -0.666397350379302, -1.0, -0.9999970504490954, -0.8282496051640572, 0.9994500409119412, -0.2987002766022092, -0.924176368116708, -0.11796403120994298, -0.5355870511227042, -0.9443767980635702, -0.9966576848878448, 0.6875444935137998, 0.07253646421655012, -0.5956315092327967, 0.31356066202649596, 0.444428874181623, 0.548298960422287, 0.9999812071109258, 0.22286945588318305, -0.9989866554423467, 0.5621971510398737, 0.03463957151023593, 1.0, -0.1339011608837701, -0.8407587568130712, -0.8412932087445494, 0.5536631221919689, 0.030259279790172594, -0.6736911745356805, 1.0, 0.6837312591827323, -0.99998362800421, 0.3870575020895144, -0.5450135048736753, 0.31235533345368865, 0.9998675449188549, -0.24435871061345035, -0.27165805791842074, -0.7410999559975728, 0.5666220517623953, 0.15771117145623414, -0.9999999999999999, -0.9999766655825973, -0.7674338820778532, 0.4588729888045751, -0.7219710190098106, 0.8866370337745831, 0.03776843628842762, 0.8740719114930094, 0.12903279113364313, 0.9578212699267511, 0.8774033439899384, 0.9999781737042565, 0.1951817863573132, -0.9999785492747645, 0.0073931092575583585], [0.5822445274830452, 0.31881397705250625, 0.06491700030602857, 0.6975356437149951, 0.4856621046609412, -0.7073932253223251, 0.9752026006394012, -0.5619892283226988, -0.36959047350259777, -0.8932127283439726, 0.9908122695127785, 0.860210005658432, -0.3165956590741515, -0.005879646211725903, 0.46757282431869557, -0.8899957142653079, 0.233717301331748, -0.9864335875873745, 0.7192930813251665, -0.9074973591780431, -0.999992262522766, -0.5386564813677178, -0.7552867898294591, -0.901906891566936, -0.8244778277082471, 1.0, 0.45039422471437757, -0.07803622512638232, -0.868754326225669, -0.9999442911931217, 1.0, -0.8359405670026704, -0.4226194582909121, 0.4130649497615357, -0.1580074234478687, 0.4048689213439944, -0.7852265095486309, -0.26601106992911944, 0.8924670723325502, -1.0, -0.999094995455722, -0.1367286648154626, 0.13581248767645807, -0.20077703843077743, -1.0, 0.7747108741021682, 0.8262472422002464, -0.04865629783514377, 0.8496083332789108, 0.7784232727000656, 0.7256856798008771, -0.4002431158760484, -0.3628999698204616, -0.1447668241344517, 0.008492404853726453, 1.0, 0.9999812403804822, 0.22291380497846452, -0.998610235305139, 0.8449678844495637, -0.617452942219472, 0.3369468130528945, 0.7178253929237837, -0.3255694758553402, 0.4710035516516933, -0.42332503214761524, -0.7384388690919609, -0.3810907761860108, 0.1250259397274561, 0.8515084265480722, 0.41355802101305394, 0.040364209396199655, -0.7689339595939423, -0.6071000283378927, 0.8495884893575026, -0.9200680509595055, -0.5049419700839335, -0.4597954605276026, -0.9999963127202466, 0.08832998831439182, -0.01701221206246968, -0.6591842636575296, -0.07528830241582454, 0.6772218310743954]], "w2": [[-0.2720095460776363, -0.9999520367188257, -0.42902662426444177, -0.08206530142447632, -0.4553425506819421, 0.22638952732470893, -0.9999999998851886, -1.0, -1.0], [-0.9676747348421815, 0.9999999870788776, -0.7924900063049491, 0.05102184946082031, -0.09415537967713067, 0.6632089422123403, 0.9239926163979855, -0.17354591240398212, -0.03861033323906063], [-0.16906299529177324, 0.6588039639499164, -0.4596374156021835, -0.3930957660737657, -0.464189604175287, 0.06555434634580741, 0.2734533385766571, 0.5966297073909205, 0.438299892946442], [0.219639690025242, -0.2742589430725933, 0.10073108340708954, -0.19341243702294939, 1.0, -0.8067245864121976, 0.18685719737223352, 0.261516591481335, 0.1921819780367838], [0.8725556324706139, 0.1987732272135447, -0.33433712717466924, 0.9999838764850346, -0.491020984174788, 0.9701145008303642, -0.18591838431341745, 1.0, -0.5718007835056554], [0.026476421897051013, -0.32866181268279443, 0.36363204523931986, 0.46962435564704147, -0.981442576432859, 0.993036575829836, 0.7311219481920054, 0.38225421864912257, -0.7034161432990496], [-0.9811716829562254, -0.0818011379742116, -1.0, -0.2579120322140852, -0.04044824317427691, -0.3497351343958745, 0.9923423868750882, 0.335055988331069, 0.20865335980035488]], "b1": [[-0.3141774091744711], [-0.6465092314875546], [0.9087051274492053], [-1.0], [0.47196357968742914], [0.1256892478111322], [0.312474234856131], [-0.5401376806020554], [0.12250401129709806]], "b2": [[-0.5997606838240362], [-0.05506309553256173], [0.607893831186442], [-0.07548651536127075], [-0.23979980564504919], [-0.7736258091863258], [-0.9971519912673141]], "fitness": 654.0, "best_pos": 7.0, "best_status": "small", "score": 0.0}