{"w1": [[-0.19405926234693258, 0.6649457667786258, 0.04725354857264247, 0.380479429049705, -0.17672600335781244, 0.6247730176402364, -0.9999914379290118, -0.45997981408353916, -0.5544640351443473, 0.13828817429944995, 0.049767226855746395, -0.4451128363577157, 0.5898234233816363, -1.0, 0.08623469731494837, 0.38698340326106817, -0.44118277550786844, -0.9999999997406813, 0.18700078016470756, -0.9974858985971206, -0.6024029559198493, 0.9999999999999999, -0.0988068396069108, -0.2626116060506759, -0.23507476307420969, 0.9377455968595761, 0.40555309711565024, 0.6094613954325931, -0.25401845231146475, 0.41099521984085674, -0.8797700017518628, 0.7423221523161604, 0.6156343656986406, 0.3032163262292193, 0.9080304043606645, -0.9263400648224253, -0.6388676383136636, 0.8485703012178655, -0.03491984624058946, -0.6077629716189585, 0.39477860460354286, -0.09479150870088181, 0.47936320820482076, -0.29950937227966623, -0.651162857578223, 0.3540617116241495, 0.6962548643382461, 0.39014693875883594, 0.6473239050619499, 0.5296946512176125, -0.5194841108270176, -0.821327196521386, 0.957150131429149, 0.2929578890882675, -0.5646263828273965, -0.9979620812316801, -0.7972101260075874, 0.9999994167140881, 0.9997785655492619, -0.45864230840984, 0.6413032404192504, 0.6211185929080866, 0.20858264645230157, 0.38947902000779977, 0.31169145150788496, -0.21490705107932848, 0.22093014091652882, 0.9999490197981314, -0.4529484451997265, 0.9999997732348588, -1.0, -0.22746984451664629, -0.14056857150936639, -0.43795823203444834, -1.0, -0.5189861564969852, -0.33727634689894076, 0.5736089020709081, 0.9977739580036646, -0.33632480322402264, -0.6152803260242911, -0.07991785352496936, 0.5499264643394579, -0.9994433362968868], [-0.23752241944547206, -0.9988637382631462, 0.8265557230317478, -0.608243868545739, 0.7478303672270057, 0.5663787929698311, -0.049267041849981964, -1.0, -0.3029346763943281, 0.6384002859922855, -0.3553974376360116, -0.3267378888557811, -0.7611710567812771, 0.4302514309856503, -0.38652339716212625, -0.4514336782835682, -0.24538718739886692, -0.4171532577714715, -0.8607771740832736, -0.6401087147571252, -0.730492614351845, -0.6053867014689378, 0.22444808871088437, -0.324688219194352, -1.0, -0.8370529790874937, 0.5244382780296362, 0.7208278659230115, 0.1939745794202381, 0.23935528496147163, 0.8823111502469825, -0.10236437319852977, 0.6198040566150367, -0.005309575740794853, -0.8270083299695045, 0.25730785731095274, -0.9996812178441308, -0.1928898642038605, 0.5361379926947664, -0.27666542461003013, 0.15763051681513424, 0.7840499319918746, 0.9999992333664174, 0.020063294222597842, -0.5419906009364251, -0.8663814603567236, -0.8283712961142509, -0.8863673300781829, 0.6035052001653292, 0.6654680664053932, 0.9978926793431988, -0.3825932175429853, -0.911525715553031, 0.12798590924282738, 0.8580915524074663, -0.467018613937851, 0.002172046326192792, 0.7920746727506741, 0.11014810600252858, -0.19547878991633003, 0.16576925228589634, -0.999971678253014, 0.633219714486148, -0.9650745229412449, -0.9996462192966868, -0.10234993019984467, -1.0, -0.5520509280554977, -0.31398033471800507, 0.7382441298917459, -0.5291251491307426, -0.8118069025125646, 0.0962194094675029, 0.09045053965234928, 0.9976770308321483, -0.9999402417901309, 0.48928949178230774, 0.077500940426888, -1.0, -0.9678143837221226, 0.7210301234315816, 0.5912463051807125, -0.4523489138186846, 0.7460062273753242], [-0.8385033977435088, 0.6315944081374072, 0.17563645163645186, 0.3483771991597379, 0.2795662619182784, 0.09617834515897666, 0.9792542720560553, -0.7189291453911191, 0.12216411911366801, -0.9996852038526935, -0.6496154172398244, -0.6825148254356604, 0.03787932057353111, -0.7463021461837177, -0.5078586281137027, 0.3046423658367855, -0.4092152301144189, -0.19068386809165247, 0.10380819867226336, -0.5633885882061237, -0.49762799319588, 0.1579648611110864, 0.4359236571040632, 0.9032283115749149, -1.0, -0.8972653978553963, -0.9968772074021203, -0.05296234050630289, 0.9863031561549768, -0.30327630596860533, 0.45758919568122414, 0.49363241355087517, 0.8848505485566809, 0.05582119677809422, -0.3218868832397998, 0.9682019958625541, 0.3923095462598405, 0.6370087426316783, 0.9976574565737218, 0.119528012474206, 0.7318680944956072, -0.8145407687182878, -0.3227126183968573, -0.15259598897929938, -0.24009552172308105, 0.4153349605803571, -0.16420264825049574, -0.9991891146343562, 0.16452952453308856, -0.6394068440531937, 0.5069413579972675, -0.9984029281149754, -0.3160487336388155, 0.1816381374704467, 0.47099862769028755, -0.21478048500011518, 0.36745683871916546, -0.45927267002775024, 0.5512224802419854, 0.016634107382646823, 0.19052599801520403, -0.13192173924687736, 0.9996227023098673, 0.03035800704078245, 0.999127857913725, -0.1706854950658157, -0.8806118401622282, 0.23949828964915942, -0.9459103548250072, -1.0, -0.8743809783850703, 0.5969212716594378, 0.9657718737589513, -0.995352793873473, 0.12393378421259954, -1.0, -0.5922260800439477, -0.014011616157154792, 0.4682021341170989, 0.18592231373509574, -0.5071502971953628, -0.4654229183237017, 1.0, -0.7265140467353968], [-0.10317717978171903, 0.4517789587100663, -0.9831020484298225, -0.38624350815889036, 0.8407422524691851, 0.9917333772559258, 0.3047875847369094, 0.06137957154089706, 0.9999980926921301, -0.9999987249186951, 0.38306761597241984, 0.7957614507410606, 0.10988504135362469, -0.4324442645610255, 0.584654947206557, -0.9800691297353197, -0.2367979099906594, -0.7355798699039864, 0.14114606220935266, -1.0, -0.30497702243775004, -0.5433059590442656, 0.5591313561213647, 0.5075543043701053, 0.47370182508011066, -0.3974255701547533, 0.2925100120421792, 0.9508694374047396, -0.45337177014851193, -0.6429519397676353, -0.5990962334486549, 0.35247018655518747, 1.0, -0.1814623931904778, -0.40042045322643055, 0.5448091034184529, -0.12807198984771484, -0.9204959846490377, 0.8416925222068566, -0.7664030075715389, 0.2295893713705236, -0.37221887296662726, 0.44287705531888605, -0.19996906684768126, -0.9998681917553979, 0.27562088416093194, 0.7151050625163617, 0.1510151752927743, 0.5506603082552798, 0.4389877903572686, -0.008543266075380548, -0.8294215879026536, 0.6821260237817662, 1.0, 0.6103966254672072, -0.7750219205414284, -0.06312020450754928, 0.11341577388168367, -0.7004286870443492, -0.48092034420533486, 0.1854044469587227, 0.09654326872695303, -0.7463718456794264, 0.5178749222746722, 0.845317758014448, -0.16798877554511893, -0.6471976199735556, 0.4642276061023827, -0.9022585019750592, 0.45053027524218364, 0.7202637176858239, -0.9996704559648298, 0.6891240182776073, -0.6177959835332798, -0.7317349356341595, 0.23324786266486128, -0.9989627632962175, -0.8551889912489439, 0.39349782842750664, -0.7623844522279967, 0.3720934306298216, 0.5359364020921571, 0.6625842498042629, -1.0], [0.601104579344674, 0.9358863966686878, -0.13535001705560373, 0.999999684248508, 0.9999913294896329, 0.18598806294347858, -0.9656680600321829, -0.6728848273026209, -0.7262618190478508, -0.7030210634172158, -0.9999490708228183, 0.30036568813119, 0.647051724240129, 0.3435646795543455, -0.38602600405613946, 0.7021631432453996, -1.0, 0.19850355063422684, 1.0, 0.26298865757300216, 0.31533627290205585, -0.14698127157191232, -1.0, 0.999999696563699, -0.4375506578585922, -0.591793802838704, 0.3209610547586826, 0.36668070155660987, 0.8115885942050248, 0.7389238335930058, 0.9280777025899081, -0.08890317706387806, -0.4387572103512844, 0.5777404341307343, -0.0965454190071018, -0.148731543629206, 0.6329549651272103, 0.8430625771620428, -0.09896550484406329, 0.999978585781555, -0.8871439807780436, 0.5156865458774463, -0.04845284236813088, 0.8737048462755889, -0.5295156509676946, -0.5478726144412916, 0.05754485975094835, -0.5260194324767901, 0.282126729630252, -0.2187176054391379, 0.5492515130167831, 0.22792996388163325, 0.14202361096910382, 0.939791908896277, -0.17814266382403446, -0.9850519713226631, 0.6582320620893697, 0.1108664043316716, -0.775313210814376, -0.8322769400759277, 0.13705093054228248, 0.5529860919045305, -0.4358596987880069, 0.6968173836426405, -0.5616057117266708, -0.7160193115679452, -0.1636060335959774, 0.5988146879751902, -1.0, -0.15617870763473515, 0.18061442829978241, 0.28799179322463775, -0.7738815459098078, -1.0, 0.6159782511800878, 0.3402468893356544, 0.11541858494462494, -0.7144851664426517, -0.537171608488239, 0.4636422353415328, -0.6632405807096371, 0.317932209182818, 0.7258924231975564, -0.5808263467257817], [-1.0, 0.07471902457674359, -0.7959466059248065, -0.6883717709009806, -0.9493792886765617, -0.25694571516366954, -0.3593619796705344, 0.20485408855269205, -0.2797870846762405, -0.9999999999512977, 0.3458494895129733, 0.20805910143848486, -0.8619341064019451, -0.2539097736837479, 0.8685874427333173, 0.9987984430973139, 0.12156085445072896, 0.7916064477078407, 0.7756824273033947, 0.5075121008410766, -0.46274587115258775, -0.5369359760932049, 0.45044022651429355, 0.6609741140635107, 0.666943165460783, 0.08109321157563278, -0.16551245224637845, -0.9048502024524017, -0.20253988485152347, -0.3122050569383675, -0.9992799658168612, -0.609351005858265, 0.8472157712489857, -0.8437800727968188, -0.5288947063592676, -0.9829407426379188, -0.6431867444257877, -0.9979526217524199, -0.7183559981534423, 0.3667463904544758, -0.15881491375417262, -0.6917695560545648, -0.7002723153482029, 0.7829671459773336, -0.7752631827917313, -0.18384226070254528, 0.17582024754796657, 0.03498961840566392, 0.6562883233908426, -0.16782586742888336, 0.9956115057748662, -0.0947088264228953, -0.6540823638342228, -0.9965653514105213, -0.6326409860279607, 0.7056520483360745, 0.48133857338855757, -0.697426506679797, 0.2364779383228836, -0.8339136559031723, 0.4404879024562102, 0.36331163195957505, -0.49056495147156937, -0.9450941320003636, -0.7681760493566606, -0.266496396146542, 0.9989949247722155, -0.7999408263582011, -0.8341904694624261, -0.9994086963103332, 0.17561158016455575, 0.11386830217887106, -1.0, 0.999999971553961, -0.9034645566572057, -0.46544128535896967, -0.18658474697837008, -0.1931441781007813, 0.4066866663028074, 0.006360758760778946, -0.7429224028241459, -0.4563497315307956, 0.07079179520288616, -0.5872834047895397], [-1.0, 0.521221264679919, 0.3312469006220724, 0.6652526009340386, 0.1907106018437083, 0.061741881799060296, 0.6500348616604077, -0.1900558130228024, -0.2638078104294876, -0.7467094819252219, 0.573316369256371, 0.23827797127696485, 1.0, 1.0, -0.0021730986854378138, 0.9996982462861944, -0.564087891888947, -0.142474762792167, 0.9992474436399874, 0.9997795528208574, -0.40568338147752353, 0.17438977683307136, -0.13370053347157482, -0.08784011678908332, -0.3968756370209506, 0.18869638421879345, -0.6125652092918573, -0.7854766303564057, -0.9999661443454645, 0.034673759724020446, 1.0, -0.13312001257658007, 0.08884339513062306, -0.3352599716297658, -0.9999999999999999, -0.2784172295602999, 0.6764089424357825, 0.745414695016433, -0.6088977847906654, 0.8042445505142239, -0.6030026552193307, -0.702580531073368, 0.8451976395954179, -0.32389586488788524, -0.854829004859698, 0.5638944203859427, -0.43813094080730086, 0.25160750729602205, 0.9936125095270142, -0.999887284818576, -0.5258595789984475, 0.704707300904814, 0.7594414926992374, -0.20797513006234605, 0.5225202155358654, 0.36557270640986467, -0.34748906483272, -0.47788065713027195, 0.23861438969562057, 0.7299921120447476, -0.39912380466841, -0.24928629077460465, 0.5853418462049705, -0.20066872186129273, -0.9569973896062838, 0.6393673267566924, 0.2548895472738202, 0.43215769177212016, 0.09928071080793986, 0.9997822704265891, -0.6254120089694036, -0.8090100859323689, 0.9999999999986589, 0.14055955818958493, 0.9986967575432132, 0.6983207339775507, 0.7431708334413213, -0.6339122464850814, -0.8214717989249088, 0.8749038304559347, 0.6997429527295745, 0.278547984310428, 0.9345681606158669, -0.1589967130532788], [-0.700609347415763, -0.45027213775035885, 0.7697898116460761, 0.1374015424001214, -0.8621995972500955, 0.7982693724142157, -0.26538222146243506, 0.756052898780747, -0.6981883505275086, -0.048854605895303584, 0.285312628954534, -0.32995136740416786, -0.3642390081833993, -0.07779410167450122, 0.5153185761574478, 0.6309366705801424, 0.15420126861355143, -0.9296010971999258, 0.9990224814361441, -0.5953602289857403, 0.3963553642252165, -0.18279559012125116, -0.5158737176438782, 0.358925400167806, -0.8480271733321174, 0.5530487601925017, -0.6598263983201157, 0.0778232471543559, -0.6667711833529122, -0.9999999999999999, -0.9999970548605871, -0.8626358210685883, 0.9994500409113068, -0.29870027718428843, -0.9241759732089966, -0.1215992750984738, -0.5355870511226649, -1.0, -0.9949654926229476, 0.25328371335373256, 0.07253646212831083, -0.5965146068284986, 0.3155496578025107, 0.8761523991905026, 0.5482917023421929, 0.9999812071111432, 0.22286945588318108, -0.9989936573412304, 0.562688808902198, 0.03639805211859811, 1.0, -0.13390116088367524, -0.8407587567761479, -0.8412684104077345, 0.2030003417990093, 0.07142035139349065, -0.6636914240037289, 1.0, 0.684444087979066, -0.9999835361338169, 0.8105743749862669, -0.595008471713104, 0.3124975123676118, 1.0, -0.37102867031549935, -0.5732958038619159, -0.7401441390844107, 0.5637408106430701, 0.15771114585488905, -1.0, -0.9999766655825959, -0.7674355059926506, 0.4588851847061072, -0.7219710190097478, 0.7850767385905727, 0.042376873248822944, 0.87407231192328, -0.09960156839495717, 0.9578212790138705, 0.8774033439911726, 0.9999781737042512, 0.3584494925065029, -0.9999785500653335, 0.007393109257214697], [0.5822445247406705, 0.31881414141774794, 0.0649167535803869, 0.583922270863644, 0.4132313492878769, -0.7073932248170431, 0.9752026006363136, -0.5700086617946519, -0.2878291013900216, -0.9470654889817856, 0.9908122673977717, 0.8602100056584654, -0.31841259953470036, 0.054177487670288585, 0.4675728243186684, -0.8903734737581895, 0.23373633344659653, -0.9862780457472202, 0.7192908610757799, -0.7299201016590674, -0.999992262522766, -0.6467258405279237, -0.6132052279730832, -0.8990106614576794, -0.5281820951469247, 0.8095443748351903, 0.4501021183894221, -0.07902749708935285, -0.8687543262309164, -0.9999445214610394, 1.0, -0.9010333019503607, -0.42261905459715576, 0.41308268240539336, -0.15795936253093984, 0.5466675649336173, -0.7852266436326467, -0.15213048613062272, 0.7945659721434951, -0.9675898925941699, -0.999099719710455, -0.1367286613213615, -0.047300037174377835, -0.2007732671678535, -1.0, 0.8732946637317724, 0.826247231805747, -0.048656297837637044, 0.8868869089303396, 0.7784239811212801, 0.7256833263995602, -0.40024311587560824, -0.30116125525662835, -0.14476682370374264, 0.008492404853714147, 1.0, 0.9999812400815025, 0.22291380496838173, -0.9986102353043925, 0.8449676220822158, -0.5424124620637748, 0.33694711913261643, 0.717818555789708, -0.3255783506763633, 0.32021482221199044, -0.2847056223177856, -0.7569961278337909, -0.38109120928982154, 0.1250259397006938, 0.8515084265645368, 0.4135580210122567, 0.04036377736410922, -0.7689395442889974, -0.6071000283378929, 0.9978192470110877, -0.9206242987257838, -0.5049416936418382, -0.1971751183154185, -0.9999963110018035, 0.08648024831382188, -0.017012212062468828, -0.6517385811402051, -0.07528830241427198, 0.6772218310725379]], "w2": [[-0.27200976137883687, -0.9999524142033169, -0.2880935924822028, -0.0833062866463961, -0.3466497460962532, 0.508400775627748, -0.6456549102944498, -0.5313495995765396, -0.9999999999999999], [-0.9676756966654249, 0.9999999870112539, -0.792490006300982, 0.05102184946060335, -0.09415520929420716, 0.6629193314928462, 0.9239926163978006, -0.17369724877961334, -0.03736649980330779], [-0.16906475380085148, 0.6607898866150043, -0.697723569801185, -0.2762731835567041, -0.3293380104370631, 0.06614317546575597, 0.2734582293022382, 0.5966324886216647, 0.43831008792049514], [0.2196396896101255, -0.2742588756336294, 0.1007310834069576, -0.19341243709043573, 1.0, -1.0, 0.1868570729675598, 0.26153446994323387, 0.192181978037769], [0.8725556324848979, 0.1987732272135437, -0.3343371271697638, 0.9999838620718228, -0.23119241363782694, 1.0, -0.18591838431483415, 0.9253365878256504, -0.571800759477846], [0.033555945670411286, -0.3286544640369711, 0.3636453961671265, 0.46962628783948973, -1.0, 0.993036578195382, 0.7311220103563346, 0.3822542186488058, -0.7034161404702223], [-0.9812230472093704, -0.08180113770289724, -0.969425602700072, -0.25791313912810016, -0.08590678885475733, -0.6993647595492535, 0.9923417969204605, 0.33505579770673655, 0.20865335980066602]], "b1": [[-0.31423572805240474], [-0.5003880253244491], [0.8861907178180212], [-0.9999966094716042], [0.4719602331623175], [0.12576946874207595], [0.31247026980214104], [-0.5410689956521338], [0.12155547415833748]], "b2": [[-0.5997640018544915], [-0.054798716150048755], [0.6117151972034219], [-0.14672009239897046], [-0.23979981037230202], [-0.7706696213603927], [-0.9971519911055551]], "fitness": 654.0, "best_pos": 7.0, "best_status": "small", "score": 0.0}