{"w1": [[-0.09129770431102027, -0.25454466732347697, 0.1786673435458769, -0.4425958927610666, -0.49969083479427795, 0.06328078136875336, 0.15072287586733926, 0.9999999999999998, -0.22063323949664718, -0.21170957820958355, 0.04764228110903928, -0.8833945516347951, 0.14244017610179627, -0.893855671173025, -0.5806380235069165, 0.08358171292547661, -0.058952829514017764, 0.10143503422574779, -0.05128935571724189, 0.06698148882390895, 0.3557557902608369, -0.9531785058589656, -0.37443240201400274, -0.2253853890138072, -0.20979268484908956, 0.09957843538450056, 0.5775056432095811, 0.4565253913447907, 0.7351072817440409, 0.4393199084452295, -0.06686219659925126, -1.0, 0.06834489806649016, 0.14261882369713505, 0.32099457818647487, 1.0, 0.6882493106744783, 1.0, 0.998607247289569, -0.9696544726795289, 0.5154200063892869, 0.999999978889236, -0.5806302588866474, -0.43339281109079625, 0.8163568808358015, 0.05823585277415625, -0.5902849510714708, -0.031705846248332024, 0.9761737616166373, 0.7286916829277094, 0.9999939961382562, 0.35636732169799745, -0.895220488147242, -0.4793046289803405, 0.17085239241659556, 0.40045140916803357, -0.5819208429905365, -0.7607545974172673, -0.7783585003768353, -0.25579542371119873, -0.29387983857403005, 0.8299640040788863, -0.7258612965534579, 0.7409714562424543, 0.9998779648368089, 0.9701660153523554, -0.3747597750729063, 0.12827175330395713, -0.03553999857110756, -0.5980803411043153, 0.5398359849436504, -0.05581002580871538, -0.26547278698063803, -0.46380492303231435, -0.04372202008050097, -0.40943257322818966, -0.266437062434101, -0.6403043116613119, -0.9989405226923754, -1.0, -0.1390653208797019, -1.0, 0.8394775414259568, 0.5435641796904002], [-0.19761699173950903, 0.9999949525995747, 0.05436188348204775, -0.5403551345964361, -0.07771700206510476, -0.5127233748253758, -0.277054121993375, -0.6900239255583297, 0.3132676976765303, 0.5920044932985757, -0.3136983055591384, -0.24843013519489748, -0.8207013033490779, -0.6400172287785072, -0.6789317740211133, 0.11995755461066326, -0.5215081712340364, -0.059686426450863646, -0.7009009608764464, -0.6224418233227794, -0.23318553972088266, 0.7125108014136604, 0.4054341646652285, -0.48518613038018127, 0.26733720614801554, -0.3744775788800643, -0.19412290863124493, 0.4375946415415133, 0.07788745420129334, 0.055292899499585296, 1.0, -0.09558388261313466, 0.18945889072125374, 0.5799532820484957, -0.6302797265945851, -1.0, -0.816719488770554, 0.09330953546237987, -0.7875843880902239, 0.5204090950918943, 0.9999999807305066, -0.07811174056605394, 0.9210220272812181, 0.3516936044104614, 0.48195461774797355, 0.4155958529818588, 0.3062213799033797, 0.8370295327164433, 0.9899272646215379, -0.6722822374757561, 0.19952997958082191, -0.5230281004868698, 0.7605802207078316, 1.0, 0.6415448555604818, 0.41143655903521265, -0.20104125169411788, 0.7733017234049856, -1.0, -0.5254162673676182, -0.9542283911912606, 0.13836135332984273, 0.45939276112544164, 0.4426733795905808, -0.8893480381637, -0.649761558364351, 0.3378175752358104, 0.46740874336309557, 0.6481369732890003, 0.5372007525053983, 0.4109959058057234, -0.7557350656295394, 0.7808129817978108, 0.5689220842601552, -0.016664146793094373, -0.8194072948652333, 0.10543886263697815, -0.19434777602583841, 0.5445724208611443, 0.29939435140846943, -0.11697121982104122, -0.39007634676900055, 0.3353074283841769, -0.6585393465528261], [0.6433200045484948, -1.0, -0.6455805297353842, -0.1834565855173208, -0.057617186173004244, 0.1798230122919187, -0.7321180324348655, 0.7448254114850983, 0.6258038571851076, -1.0, 0.7713835354400178, 0.6880582815274235, -0.7230478240250667, -0.9594186147840602, -1.0, -0.3357189095750482, -0.17509787814360603, -0.6405449838735318, -0.05851577292954885, -0.9224375804239849, 0.9999999999999998, 0.3780933483613434, 0.6614771530631451, 0.5564271635769147, -1.0, -0.695522003165868, -0.5451482296976976, -0.817943849642992, 0.23886393860647204, 0.41442258092583706, 0.6088887853692803, -0.24770340242804295, 0.999994296613515, 0.44975832339742267, -0.8904684170951861, 1.0, -0.22879130608659293, 0.7489143253183934, -0.9777311004278025, 0.4553547957061265, -0.1304981908219346, -0.5372420382699533, 0.19456000174783852, 0.4770230087202016, -0.906762210126941, 0.793668137752015, 0.24493565007045695, -0.681395363983373, -0.7468400761468296, 0.43096701688250694, 0.7235987068815537, 0.34145139099074506, -0.9999999999999992, 0.5571086277001152, -0.601041825051861, 0.9547971738094106, -0.5769314045927726, -0.9999998885146254, 0.40177541482909557, 0.21593365401832632, -0.3703748579807123, -0.2614110759690455, -0.7033168881359255, 0.4745251186002018, 0.8304041497828814, -0.37366503453039684, -0.9999999999999997, 0.7212053117031836, -1.0, 0.17577201694191644, -0.7150248233016852, -1.0, 0.2085684666865706, 0.5574682049977641, 0.3418463081286463, -0.8831038647075651, 0.7530408646942689, 0.2469327420296895, -0.4666362942050944, 0.6016559695006354, 0.9211910529076638, 0.34295604677887154, 0.10414335217967849, 0.2037285877121413], [0.2314621147740917, 0.8621529709407438, 0.2688726075024698, -0.8288074511545087, 0.6870177983875573, -0.3849686050311336, 0.49764828438378605, 0.5262587701172823, 0.6229450407113366, -0.278569266407355, -0.17595358110389972, -0.30277908583661695, 0.21993520550418327, -0.5141982022208741, -0.3683984974726042, 0.9999945567349976, -0.5213768062112057, 0.9002459283077456, -0.7761141020705745, 0.13495102866260825, 0.6076746508965248, 0.1509675687359088, -0.13271501693018153, -0.9980412112108614, -0.9983712849093478, 0.2434487155447216, -0.7338622247105893, -0.4435663952404904, -0.39481698430304624, -0.7358247339833185, -0.6468155508177832, 1.0, 0.8905332637227166, 0.030818998549681564, 0.3484942716586687, 0.6430427641358664, 0.19292347337874355, 0.9246013078398871, 0.7826543188393109, 0.9333431552591017, 0.9997126565048801, -0.27105576552155003, 0.9950152219836951, 0.2008080843384531, 0.4383131742038426, -0.37185857882767603, 0.20387551767212136, 0.2886324902523127, -0.6366697070983415, 0.1484247950455824, 0.8981624915223168, 0.31114326202308534, 0.5049658412615377, -0.43553335097422863, -0.20682976628805935, -0.805997455173338, -0.6334181955741554, 0.34922188490690814, 0.12032608929449429, -0.2687120112086849, -0.04196117405651951, -0.1962793841475075, -0.6610002469208721, -0.526036423911574, 0.06729245396404346, -0.05879825514831494, 0.9985055212865016, 0.6199149477691279, -0.630518296798264, -0.416304465756725, -0.42079253937481853, -0.5973957750691243, -0.9999747957185182, -0.6227987543973048, -0.17993413439125555, -0.1582033580701388, -0.18022729719445812, 0.11802739651894914, -0.5592155275923498, 0.3202601868208842, 0.6751527927666636, -0.029304673684973637, -0.8300609511350936, -0.16015613686157473], [0.6030179601923625, 0.6048800710285739, 0.14481793297715764, -1.0, -0.2626838213246742, 0.1854041724549304, 0.3734217408335913, -0.6488119740732565, 0.6456504818256161, -0.9693232541940876, -0.9999990257955464, -0.8730841478178838, -0.3630191922300748, -0.7410466303579671, -0.5973652563433479, -0.31701560553870034, 0.4243636028473688, -0.7198365969195717, -0.7278815046243219, 0.99744064580235, -0.37644027685065945, -0.8102268216944128, -0.6926876859668177, -0.569998864230377, -0.27934798406643835, -0.9999999999999999, 0.8057221971276245, -0.09160458313573176, -0.5518877870625183, -0.08834446245396503, -0.20873237259008912, -0.13432727106028625, 0.7429215155555413, 0.057391916872956424, 0.4958691189998616, 0.5158568744003558, -0.135056405727523, -0.3620872198939161, 0.4568429044936509, 0.8347514586150486, 0.8085532409100473, -0.32019865533518044, -1.0, -0.15781999843826333, -1.0, -0.9999999999999996, -0.36226293735861353, -0.09409886138413676, -0.07226356772925897, 0.34846490340502007, 1.0, 0.889924641913182, 0.4308378134310085, 0.1589854365204437, 0.3187474210256699, -0.009123203266241177, -0.28248703809271997, -0.024185480323383354, 0.18943671378550064, 0.7899457849885207, -0.5853898930711057, -0.9997890813466226, 0.2620326539692375, -0.9098367855612781, -0.8525914023582799, -0.29524058000374187, -0.051538004245811925, 0.9556055351333088, -0.776380707634486, -0.9999809586643553, -0.9151451923416658, -0.49639862910449134, 0.10610683230022713, 0.9999614289106639, -0.9175887447394538, 1.0, 0.397191971149859, -0.035302661085733836, -0.25395961122066646, -0.5626757709085771, 0.3821797568369168, -0.15246679282492517, -0.5079369167121004, 0.9167483444387621], [0.3240745873852195, -0.7072228521836591, 0.42731520027497794, 0.7962040316589054, 0.13949771210590967, -1.0, -0.4725180771219188, -1.0, -0.3924636932847528, 0.11793867374832342, -0.4555954575176008, 0.5890766283063464, -0.3013114976129828, -0.8254597408462527, -0.9110547051209584, 0.9977201709059579, 0.24937870921278185, 0.6130972668092934, 0.7946654548510308, -0.2909554523713466, 0.5076137614985047, 0.04589409954482078, 0.9984564095840947, 0.8155602608824952, -0.9977393985860751, -0.1465793850499093, -0.9092257550593642, 0.0410294878879055, 0.2318841455505706, 0.9336781272402243, 0.3157999541040034, 0.06236945456980038, -0.9999999999999998, 0.9945525538805768, 0.6938622302963814, 0.738489500669556, -0.4096326979971642, -0.27129321044021026, 0.10648644438984937, 0.3945769650347258, -0.6721112693142234, -0.10073231797809429, 0.3697888128796932, 0.38509307168620444, 0.9175343150577482, 0.8749141939864484, 0.18617816938974568, -0.135687571548711, 0.20841169440061347, 0.9995701276624784, -0.8417228499590571, 0.7475360899767781, 0.10696980625753837, -0.32959297586172764, -0.977907810547834, 0.15130180525675307, -0.9092203638062485, -0.29383062285736156, -0.5049379246973119, 0.9997628108299608, 0.5238272949309676, 0.9210849123087965, 0.5703899649862861, 0.4566604954677074, 0.6130655450500346, 0.7760212976547352, -0.03533797732763228, 0.09474538954166724, -0.9271821758642047, 0.4109104055561544, -0.4568090468022921, 0.008871221721225571, -0.5430011315156718, -0.9999999999999998, -0.7601757837920402, -0.2158318522410582, -0.8823702320759583, -0.1906233696766223, -0.6403149886480421, -0.9758075525085562, -0.4607304375407813, -0.4467070088074677, -0.5766124768530064, 1.0], [0.5658458847130263, 0.7321269744712776, -0.6947418479888431, -0.31204519434646366, 0.1095836509702378, 0.7017252856318547, 0.9172835518374588, 0.19135996958608012, 0.18242333043992776, 0.9999998550348038, 0.7645570074550123, 0.0322897874232513, 0.6145999258027274, 0.9999760757607885, 0.6502831400883314, -0.41947949088706427, -0.8144033434804179, -0.7982234249056883, -0.4501377526514426, 0.06654677147759784, 0.13267217165509118, -0.8999803515030627, 0.2990337395878379, -0.9999985321552338, -0.43100010944851447, 1.0, -0.8911991927652919, 0.3162131731544572, 0.45251103084994043, -0.5518216559438304, -0.6692873687893746, 0.6927654398295592, -0.024816340627617114, -0.7975194616839832, 0.30850963233295464, 0.7494036554252299, -0.9432171339885513, 0.17067586942804516, 0.04200219889987045, 0.45154334947415, -0.819751735394178, -0.4919519379822436, -0.5812875615375727, 0.8185794447338871, 0.21004259807591402, -0.8514241182382236, 0.7496835644828141, -0.22659218085975677, -0.9999960718599102, 0.466770656589793, -0.2886736900465941, -0.7006962672921048, -0.15046649244716356, 0.1938761912983913, 0.760549523736765, 0.36871649935908046, 0.7057851619311796, 0.1807271189546136, -0.8715022646572983, 0.02101485838240478, -0.2731633208988689, 0.3180553708658182, -0.02322654009000023, 0.19280919116033632, 0.4013607333555345, 0.7167933250165339, 0.427556443688638, -0.4396622185853851, 0.298136380397824, -0.08576120008057915, 0.1106768102539166, -0.3554743155055546, -0.822254126664213, 0.30031241700103606, 0.9999334868388527, 0.9986899887781565, 0.6702499193887089, -0.3880134560577951, -0.823057105512592, 0.7888086526445136, 0.3175866997571998, -0.9724255119670518, 0.2303728692438563, -1.0], [0.9685328389855932, 0.36882223331515973, 0.6805078204748485, -0.07065808201574011, 0.7158483430021236, -0.7057011170260956, 0.22145944860377845, -0.8968539065615417, -0.01943680904196508, 1.0, -0.09047208357189704, -1.0, -0.5663670753193317, -0.6389230587917454, 0.1639196913226307, 0.01286400332492035, 0.05100175665160025, 0.20567015911952255, 0.9384773552131425, -0.5326201567282793, 0.7143382942406613, 0.6978010016832911, -0.03404462350218224, -0.30919367071820336, 0.4932085196383127, -1.0, -0.07885333326485094, 0.8902233517060442, -0.12350139694026191, -0.7047109068354972, 0.38147163847707555, 0.8908263778368316, 0.1341343125051732, 0.12207864834715014, 1.0, 0.0150092976525761, -0.1305467834109389, 0.12171824383639411, -0.24938888883542704, -0.7304453385535667, 0.16631525817982662, 0.20167478019510543, -0.6509638163445166, -0.9999803312014728, -0.8455139822736695, -0.951486940805367, 0.6285644175176561, -0.14877503060878985, -0.08207828478538878, -0.5081631179891659, -0.12681433635938064, 0.6241824567878548, 0.08115007405312971, -0.1786330839579972, -0.30882222101606205, -0.3800769677205953, 0.0323268847779211, 0.3197030694201013, -0.5914109394842824, -0.8277286735319708, 0.5303888802649728, -0.3195187434214852, 0.541793597214163, -0.7948040350874344, 0.19261210659891517, -0.2035679307381958, -0.7577034392482122, 0.4449455007034643, 0.9999999999999999, -0.22476884347273568, -0.3645934388923248, 0.36161183120394363, 0.9998528183549121, -0.4506829317274144, -0.27218928992534513, -0.9999991970522907, -0.9999951906570753, 0.8028943663009878, -0.013034329282139713, -0.9999999999999992, 0.13413399325235786, 0.04327248171855402, -0.6520542079181267, -0.9989445503072367], [-0.0005716427045779349, 0.5148075807802633, -0.36904015556396474, -0.10118219922861849, 0.3141854432769257, -0.29754576564019947, -0.6499989715366775, 0.4883532973373788, 0.9999962154187289, -0.5486451733869369, 0.9999999999999999, 0.1874001162662501, -0.21160622717856778, -0.8395502069078407, -0.6159947359176149, 0.6143310147431129, 0.7865254652481078, 0.03793270339042785, 0.9997822419597225, 0.8263835265260324, 0.521275823122184, -0.18135781383520078, 0.9999999999999997, 0.07656440199314958, 0.5601802763922661, 0.00902387875701269, -0.7497898410951896, -0.5837085218040878, 0.44089980157803516, -0.04487448955586179, 0.24308284856830226, 0.727785394771562, -0.8255658808119831, -0.48960806178122845, -0.6216714803790258, -0.22016621816397647, -0.8418600929357826, -0.7575008419712315, -0.9908371461615354, 0.4007029564480203, 0.5201363721082235, -0.792409836205052, -0.6464850351407714, -0.1803782111074966, 0.3789429234317368, -0.8333316953984911, -0.19634679136235125, 0.8963055702565523, 0.11336507017817057, 0.44107744066572224, 0.3450152077238341, 0.30502292637065204, -0.16946937130920037, -0.20739485573803118, 0.9112203679549681, 0.36990216332275844, 0.9995986299998663, 0.7550742985947464, 1.0, -0.6686922196907775, 0.4736901391450623, -0.7204155680789581, -0.8074327429748245, 0.7828231755863962, 0.8833195420699638, 0.678899407037471, 0.543178536942927, 0.7523097094998784, 0.8013309521183096, 0.7063435918082602, 0.7721813056480985, -0.6177068031328526, -0.9187160732147687, 0.4222383209471102, -0.057890468859752776, 0.7779467388013998, 0.44917151051737086, -0.07008575191876702, 0.5471169621927869, 0.36651362329542436, 0.9963885091338023, 0.6156070454257584, -0.020933833238574097, -1.0]], "w2": [[-0.19086721020507794, 0.4262849140027798, 0.8146973169563316, -0.6398565318281425, 0.6447456244546562, -0.011711193370466944, 0.9103862198270408, -0.2899639619906319, -0.9943017051957024], [0.21685306034156676, -0.37854566839260156, -0.5786483725668545, -0.5659204307220338, -0.9999999318538004, 0.22873391390028872, 0.448161744070654, -0.7766287785603941, -0.19356619868940497], [0.8123626023185712, 0.5933671377249526, -0.6910555631323156, 0.6422493525265869, 0.532991231972514, 0.28940469159156157, 0.6628386055543121, 0.22226486046205995, 0.2827190783091269], [0.10145860963518472, 0.9999999999999997, 0.9088618067581895, -0.6360790992807683, 0.9992602138712081, -0.7487408986899947, 0.5056220700940873, 0.10424955126896712, 0.3154401600227395], [-0.12673762400355704, 0.6496463939462098, -0.40592534467514585, 0.47247350100794866, -1.0, -0.6815532208178675, 0.5886619867947518, 0.6729971392290917, 0.3161440736952845], [0.6112819045777248, -0.17621488733572713, 0.920677649350962, 0.6212703240732089, 0.6205237620669606, 0.5781595835047, -0.24014149014089659, 0.26438924653073126, -0.9999999999999998], [0.8633853152369702, -0.529572472465791, -0.45868433341413756, 1.0, -0.6389044569908053, 0.1359830813831821, -0.9999786858554865, 0.11844749810987706, -1.0]], "b1": [[0.7032599997093619], [0.9849366131469982], [0.9999999999999992], [-0.9814837773833109], [-0.8647682775163448], [-0.08310853226028653], [-0.2700866996776589], [-0.03956421203592079], [-0.033959839790921986]], "b2": [[-0.6823669735641894], [-0.8019690190310135], [0.39556452921394675], [0.6803881707330027], [0.8800084646635405], [-1.0], [0.668758864977614]], "fitness": -76.0, "best_pos": 7.0, "best_status": "small", "score": 200.0}