{"w1": [[-0.2847764714030749, -0.25454466732347436, 0.1790650019920946, -0.4425958927610688, -0.4996908347942735, 0.06328077310989617, 0.15072287586733815, 0.9999999999999997, 0.006964359554101805, -0.4962128223134936, 0.05935831958504765, -0.8833938154802169, 0.1424401761088524, -0.8938556711730249, -0.5806380235118386, 0.07721385162633115, -0.05895282951403145, 0.10143435225787104, -0.05128935571735249, 0.06698703554660665, 0.35575579026092047, -1.0, -0.4067357672091491, -0.2253853890138109, -0.20979268476255405, -0.0360410581026295, 0.7635986344587171, 0.4565253913447907, 0.735107281744041, 0.43931901835911286, -0.06686219659925127, -1.0, 0.06834489806646336, 0.14261882369713788, 0.3209943718718728, 0.9999294975691723, 0.5563763114848828, 0.9998065717361597, 0.9986072472895773, -0.9696544726795286, 0.5154200063892866, 0.9999999788892361, -0.5806331909414295, -0.6571997235777124, 0.8163568808383698, 0.3696578591459016, -0.575552845454139, -0.3024973718655552, 0.976173761371415, 0.7286920973326418, 0.9999939961382962, 0.3549855656410098, -0.8952204881472139, -0.479298637831497, 0.30527140530294095, 0.4004514091680337, -0.5819208429905361, -0.7606585726260313, -0.7783585003693093, -0.2558463150802063, -0.29387984319478333, 0.9110128060386423, -0.7258612965534578, 0.7409714602733284, 0.9998779643695561, 0.9701660153523741, -0.3079834638412225, 0.37815748923085873, 0.21242596050501514, -0.5980803411043153, 0.5398359820137428, -0.05581002554886662, -0.265472786980638, -0.14908676192140052, -0.043719501691062916, -0.4094325732281896, -0.2664370857405538, -0.9999999999999997, -0.9989405226923754, -0.8304771791150464, -0.13906532087970158, -0.9999999999999999, 0.8394775414259567, 0.5435641796937059], [-0.19761780331116985, 0.9999949525995728, 0.05436173589777412, -0.905635920547893, -0.07771700206390728, -0.5127233748795579, -0.27705412199325463, -0.6900234828585328, 0.5190066845541245, 0.4208165960291813, -0.3136981481040801, -0.39763753217095554, -0.8214110556951538, -0.6400173078822989, -0.6226901536421693, 0.11995750945964742, -0.5215081711712218, -0.05968701114830971, -0.9999999999999833, -0.4605463688721595, 0.13672830551443438, 0.7981425150249806, 0.40543416465847765, -0.48518613038018094, 0.26733722072762145, -0.3744775788799438, -0.19412290863132425, 0.4375946415415126, 0.07788745072470105, 0.27323239258907833, 1.0, -0.09558388369645464, 0.18944910452356495, 0.5799532489892404, -0.6302797265945856, -1.0, -0.8167194887705538, 0.09330796808345207, -0.7875843880901379, 0.23913525784435466, 0.9999999807305066, -0.07811174056964151, 0.9210390461892937, 0.3516936011274939, 0.4815467393446201, 0.4155958549694616, 0.3078056225397024, 0.8370295327164432, 1.0, -0.672282237475756, 0.19952997958068563, -0.6020428504356157, 0.5155387424578699, 0.44926483628824515, 0.6415448555591151, 0.41143550918746324, -0.20104125169411782, 0.7733017545031065, -1.0, -0.5160882240357629, -0.8574416172612073, 0.026080756183861686, 0.45938561020697105, 0.4426733204856526, -0.8893480381636972, -0.6497615583642994, 0.31290494377145883, 0.46740864909126656, 0.6481385131965132, 0.5283451260366423, 0.41099589964592037, -0.7557428658394061, 0.7808129817978275, 0.32854094816986934, -0.016663102687529963, -0.8194072948652331, 0.10543886555557505, -0.19434777602504533, 0.5445717792962906, -0.07400010514915438, -0.11697981967594129, -0.3900766656757447, 0.3353074284015396, -0.6585393465745673], [0.6433203005558734, -0.8128990869625531, -0.6455844388081654, -0.2136677000440937, -0.057617598294655056, 0.1798230122897213, -0.690516276015421, 0.7448254114878686, 0.9692041879837852, -1.0, 0.7713835354395414, 0.6880578670501944, -0.7230478240250676, -0.9057406403416403, -0.908564626745896, -0.33571937020858283, -0.17509757722984154, -0.640544983873532, -0.11950691420600676, -0.9017745405294403, 0.9999999999999998, 0.3780924973561759, 0.6614779794491165, 0.5564271635769119, -0.9999999999999999, -0.6955219061028085, -0.5451482296681167, -0.8179649502256254, 0.23886393860647198, 0.41442258092583784, 0.6088887853692803, -0.12377816071824116, 0.9999942797303463, 0.4494181473484793, -0.9999999999999999, 1.0, -0.5685156325546076, 0.7489143232780932, -0.8596084794752143, 0.4553547902231005, -0.13049819082193456, -0.5372420382699525, 0.19423430239190106, 0.47702300871977793, -0.9067622101273929, 0.7930355666119832, 0.24493565029390263, -0.7871706840201014, -0.5830546038980629, 0.5766471105143813, 0.7235986991628343, 0.3414513909907479, -0.999999999999999, 0.5571086276949545, -0.6010420570287222, 0.9547971738095332, -0.7849741150693819, -0.9999998885146251, 0.4017754077583751, 0.24726280302715453, -0.37037485798650316, -0.2613951646994996, -0.7033168881359285, 0.4334221679745283, 0.8332862594572873, -0.3217855677526597, -0.9999999999999996, 0.7212053150624326, -1.0, 0.1757712718428372, -0.7150248233016893, -0.9993857364454225, 0.20856766692607634, 0.5574682049977641, 0.34184630812864625, -0.9401678083014624, 0.8135892577367331, 0.24693274200911916, -0.5356572082399719, 0.6016559694249688, 0.8629579910664597, 0.34295604677887154, 0.10414332460926379, 0.20372858771214128], [-0.024797209498399465, 0.862152970940428, 0.0788139732896484, -0.8289514241005715, 0.6870177988471748, -0.38496860504084346, 0.4976482843837508, 0.5262587701172824, 0.6229450407113083, -0.27856926771170204, -0.0690811061571971, -0.2848415852751198, 0.1581616095365761, -0.5141982022208758, -0.3683984974730431, 0.9999945567638526, -0.5213770281866409, 0.9002459283077454, -0.7761140432589337, 0.13495102866260775, 0.6076746508961521, 0.2897972539839855, -0.06420245150538277, -0.998041210119582, -0.9983712849093473, 0.24344871512112037, -0.7338622240419135, -0.4435663952405154, -0.5188608677913353, -0.7358247340038176, -0.6468155477028067, 0.9999999999999999, 0.8905332637227167, 0.030816749090106912, 0.4709522440740113, 0.6430472266750016, 0.19292347337874352, 0.9245991983250883, 0.9413189522093148, 0.9333431552590832, 0.999996651908519, -0.2710557655215501, 0.9950152219836433, 0.14801692096421182, 0.4383131742021873, -0.37185857882767615, 0.20387572795958248, 0.2886323769328898, -0.6366701407336187, 0.1484264664540237, 0.8974568344608094, 0.31134488237413854, 0.504964431453518, -0.43547290785479154, -0.2068297662880931, -0.805997455173336, -0.22791472704809598, 0.3492218846394457, 0.12032154196407202, -0.2686929686265954, -0.0422617362178323, -0.196279384147492, -0.2278992980552262, -0.5260340106268901, 0.06572997260485196, 0.09386658680606381, 0.9985055212865015, 0.6199149775967134, -0.6305175538091242, -0.4163044192478018, -0.42079253937481864, -0.3212500043376804, -0.9999747957184381, -0.6236278629582698, -0.17993411963512085, -0.15820335807013877, -0.18022729719445812, 0.11784462105674612, -0.5592155268405155, 0.3201275123722727, 0.6751526939917056, -0.39225066718874724, -0.8300609511349553, -0.1601561368615747], [0.6030179601923625, 0.6048800712498119, 0.14480066658066154, -0.9999999999999999, -0.26268382132468787, 0.26136192885862986, 0.34157683454451115, -0.896006624213619, 0.6456504884608413, -0.9693232312971655, -0.9999999999999999, -0.8730841482632602, -0.324136286788316, -0.7410466303618897, -0.5973652593974158, -0.3170156053965728, 0.4244036654142246, -0.7198515683644162, -0.7278793501458174, 0.7101786876585693, -0.3764402768506884, -0.9752024960472462, -0.9028950874180237, -0.569998621055433, -0.2793479840647293, -1.0, 0.8057221971276245, -0.09160639416571127, -0.22819426202117354, -0.08834878965590942, -0.20874703753596893, -0.13432727105886758, 0.7429215155555413, 0.05739191687295641, 0.1517704091337168, 0.5149101414822993, -0.13505640572873426, -0.3620865092727943, 0.4568429046531213, 0.8347514586110791, 0.6049900589387888, -0.32019865533381797, -1.0, -0.1578204778875034, -0.9676662782785004, -0.9999999999999998, -0.3622648910312737, -0.23636282174423104, -0.07225661907488955, 0.3484724848086934, 0.9999979909219556, 0.8899246419130774, 0.5054662214848821, 0.1594025474355322, 0.318759780141576, -0.009123203305759078, -0.28248703813605164, -0.024185480323383284, 0.1894367137993552, 0.7899458171463821, -0.585389893073247, -0.9997890813466226, -0.10039458568859758, -0.9098367826696444, -0.852592855653642, -0.29524057963099176, -0.05153800424584885, 1.0, -0.6510202710511332, -0.9999809586142633, -0.9979530024812192, -0.49639865629875035, 0.1061035500594985, 0.9999614289106613, -0.9175887447394538, 0.8458808122075718, 0.39719197114985905, -0.03530266108063049, -0.25395961121018895, -0.5626757468830452, 0.38217975683740646, -0.15246678776657577, -0.507937425746728, 0.9167934025355043], [0.3234364919017125, -0.7072228642347538, 0.42731276530006873, 0.7962040316589052, -0.11495727138400506, -0.9996012559251303, -0.47251807712191923, -0.9999999999999994, -0.43884281214830057, 0.11793974542483249, -0.4556480021659333, 0.5890758952298332, -0.3013110648235402, -0.8254597408462145, -0.9110547051209844, 0.9977201709059577, 0.40708117898244656, 0.639073581487853, 0.9388635594457828, -0.29094937691450345, 0.507614544662994, 0.1549800283038742, 0.998456409844821, 0.8155622049840899, -0.9977393981612938, -0.146579385076721, -0.6745006466717491, -0.34733271942554694, 0.5589848257094366, 0.9336237910404044, 0.3164696549978523, 0.0623703104909917, -1.0, 0.9945525538805767, 0.6938622302963809, 0.7384895006695512, -0.4096326979971641, -0.27129321044021026, 0.5398110636101964, 0.39457696202097875, -0.6721112693142234, -0.3653868873064245, 0.4316202214162953, 0.38509307168819834, 0.9175343144198962, 0.7219592572624001, 0.1332032351239217, -0.13695699207660678, 0.2084116944005209, 0.9995701276624784, -0.9999995911179855, 0.851197011694656, 0.10696980625753581, -0.3288548832974414, -0.9779078351905548, 0.1513018052566628, -0.6695436872056902, -0.2938306228573411, -0.5049350541504141, 0.9997628109345003, 0.5238272949310402, 0.9210849123087965, 0.5703899981431378, 0.4566604954677074, 0.6130655450476682, 0.9984342446211821, -0.0353378701157552, 0.011328451978142765, -0.9271821753966897, 0.4109104058546541, -0.456809046802328, 0.00887122172117087, -0.5430012585518751, -0.9999999999999999, -0.7601757837919954, -0.21583183510615606, -0.8823747561917308, -0.19062393875772227, -0.38468812586810097, -1.0, -0.46058793433635464, -0.8785044562206038, -0.5766124618689997, 0.9199218848436758], [0.5658463049005276, 0.7031929734013861, -0.6947418479888431, -0.38140518319613753, 0.10958365097024898, 0.7017252857570605, 0.9172835518375295, 0.3337392671340787, 0.18242333044304318, 0.9999998550368417, 0.6380576313195312, 0.03228978742325131, 0.6145999258025614, 0.999976115173779, 0.6502830457807648, -0.41947778716345313, -0.8144033434226039, -0.7982234249056859, -0.4500966999125265, 0.06654701586907948, 0.13267217165758213, -0.8999803515030624, 0.2990337395879052, -0.9999985321552342, -0.4310001094485145, 1.0, -0.9999966730726414, 0.31621317308856794, 0.4525110308499404, -0.5518216572228171, -0.669287528970576, 0.6927654894585202, -0.024816401199294798, -0.7968892478026163, 0.5318333127043924, 0.843777155200765, -1.0, 0.1696287104940293, 0.0419991012878563, 0.328216015244719, -0.819751735394178, -0.49195193798156933, -0.5812819714205827, 0.8185794519713546, 0.21004259807584888, -0.8514241184122665, 0.7500101553777329, -0.22659217997785777, -0.9999960718600371, 0.4667706565923436, -0.2886700101154154, -0.37262134892897536, 0.35508303945216696, 0.19387778479774212, 0.30035876791690314, 0.36871649935889345, 0.7057851619311796, 0.15698798030199898, -0.8715022646573176, 0.021014858393773633, -0.2731633208988689, 0.3180553626921393, -0.07906673779599811, 0.19320150537430808, 0.4013607333555322, 0.7167920385292821, 0.4303214638747975, -0.43966221858551147, 0.48870923239892705, -0.08601838677055984, 0.11067671938749316, -0.25497463391591124, -0.8222541266640501, 0.16487702444407595, 0.9999334868400118, 0.9986899887781564, 0.6702502833154004, -0.3880134560577951, -0.9997674910404427, 0.7888086526429465, 0.317586699748026, -0.9724255119670355, 0.2406694210686448, -1.0], [0.9684273643593804, 0.3688222333151597, 0.6805078204748496, -0.0706580820157154, 0.9999998355708071, -0.7057139247253991, 0.22145944828568742, -1.0, -0.019436809041829397, 1.0, -0.09047208357189707, -0.9999999999999999, -0.5663670753193317, -0.6389057251235405, 0.16391963907178536, 0.01360712338129208, 0.051001756650392985, 0.20567015912117492, 0.7862211377960756, -0.7085165559636564, 0.7143382942406612, 0.6978010016832912, -0.03404462350218224, -0.3091936693066551, 0.773340792619545, -0.9515172508870242, -0.0788533078733734, 0.8897457847629511, -0.12350139693980113, -0.4969964456633535, 0.3811166850290926, 0.9024326993610624, 0.13413431250286278, 0.12207864834715014, 0.9999999999999999, 0.06529133337540573, -0.13054517397439722, 0.12171824383640382, -0.2493888888368651, -0.6733326053601872, 0.16631490654262251, 0.4430042881204528, -0.6509638163448902, -0.8380594926646985, -0.8022815373700422, -0.6745481234793121, 0.628564417517656, -0.14877503060878963, 0.0845464958482904, -0.5081631179891407, -0.12681433635938102, 0.6241826452516683, 0.17265106896135424, -0.174884849247268, -0.30882222101606205, -0.38007696078167014, 0.03232497887393733, 0.31970307177087237, -0.5914109394844548, -0.8277288186321464, 0.5303888804392449, -0.31951875732989526, 0.42051267948567306, -0.7948040350874342, 0.19261210654513267, -0.25617756077086745, -1.0, 0.4449455007036138, 0.9993332245882547, -0.19581596224219372, -0.2164742880432401, 0.36161183120394363, 0.9998528183549116, -0.45068294422690147, -0.32625234470936765, -0.9999991970522906, -0.9999951906570749, 0.99962933417943, 0.22190639052924868, -0.9999999999999994, 0.1341339932488813, -0.3771414844819499, -0.7114637213382202, -0.9989445503072367], [-0.030634921692851442, 0.5148063569674246, -0.3690398165918844, -0.17706438234651092, 0.6691431842248137, -0.297545765641913, -0.6499989715128316, 0.5352279985494904, 0.9999962154187291, -0.5486429491319923, 0.9999999999999999, 0.18740011626631373, -0.2116062271602496, -0.6853163153002271, -0.6159947359176399, 0.5647276725545685, 0.7865254652481276, 0.03793270339042784, 0.9997822419597224, 0.8263835265260291, 0.5212758231221948, -0.18135817540401436, 0.9999999999999998, 0.07656440199255919, 0.6036752266276599, 0.009023878757012825, -0.7497898410951899, -0.42540174975016226, 0.3207876878459566, -0.04487448955586179, 0.24308285304278401, 0.7521021404199264, -0.8255658808119831, -0.489608062477537, -0.9999869290381616, -0.2026505496088307, -0.8418604014117523, -0.7575008419756146, -0.9908371461615402, 0.4007029569006144, 0.5201363721082235, -0.6910414873251217, -0.6465815378187888, 0.2639318666645411, 0.37509296915016155, -0.8333332262539539, -0.19635668811950893, 0.8306772190351884, 0.11336507019117302, 0.44107746990313207, 0.34501427697019665, 0.3050229263706537, 0.118672075198923, -0.2073948602543618, 0.9112205800275793, 0.3699021633227585, 0.9751445856055303, 0.7550742985947347, 1.0, -0.8952455543303263, 0.4736901391451468, -0.7204155680789581, -0.8074327429748245, 0.7828231755863962, 0.9999999998295344, 0.6789133485457918, 0.33776750845208686, 0.7523097536633229, 0.8013280889560674, 0.7063435918082601, 0.7721813054464907, -0.6177129763463877, -0.9187160732150824, 0.4222383209471102, -0.057889924129539805, 0.7779467362647888, 0.4491715123778944, -0.07008575191876702, 0.5471169620936238, 0.36651362329543374, 0.9963975078351213, 0.6156070454257919, -0.02093003839265071, -1.0]], "w2": [[-0.1908672102050779, 0.31509614454552437, 0.8146973169696805, -0.6398565318281346, 0.26774989657086934, -0.011713360844488008, 0.9103862198270422, -0.28996396199063185, -0.9943017051957024], [0.21685306034156535, -0.3785456683927529, -0.5786483725830639, -0.43966934730556734, -1.0, 0.2287339139002887, 0.448161744070654, -0.7159111954043289, -0.1935661986894378], [0.8123626023185713, 0.5933671452084659, -0.691055563132302, 0.504115816896222, 0.5329912320131731, 0.28940441190839267, 0.744650431274077, -0.030841602101619237, 0.2827190783091565], [0.09925906437438616, 0.9999999999999998, 0.9088618162898793, -0.6360777188369218, 0.9992602138712187, -1.0, 0.5056220700938906, 0.10424955126896766, 0.31545305562393433], [-0.1267376239967491, 0.6496463593402955, -0.4059274885679692, 0.4726757504578436, -1.0, -0.6815532208395914, 0.4161204787186662, 0.6730196185587543, 0.280527331954816], [0.6112819045777248, -0.24690190252446376, 0.9206776494659012, 0.6212703243006964, 0.6199396201124044, 0.5781595835041472, -0.24014149014089659, 0.3234703309939187, -1.0], [0.8638204569199558, -0.5305166905682586, -0.3073280547283031, 0.8761711412254162, -0.701571292160045, 0.1359828596641909, -0.8882849170273579, 0.11844749805156103, -1.0]], "b1": [[0.7032599997093357], [0.9849366131469982], [0.9999999999999993], [-0.9814851158103088], [-0.5573594844651798], [-0.08311023355498029], [-0.27008669967481536], [-0.039564212035845], [-0.033959839791105374]], "b2": [[-0.6823669735641894], [-0.8019690269273063], [0.3955645292139467], [0.6803881707330027], [0.8849021176320752], [-1.0], [0.9085590564339994]], "fitness": 4419.0, "best_pos": 9.0, "best_status": "tall", "score": 1900.0}