{"w1": [[-0.28477647140307494, -0.25454466732347436, 0.17906500199209463, -0.44259589276106875, -0.4996908347942735, 0.06328077310989617, 0.15072287586733812, 0.9999999999999997, 0.006964359554101805, -0.4962128223134937, 0.04770341973654854, -0.8833938154802168, 0.1424401761088524, -0.893855671173025, -0.5806380235118385, 0.07721385162633115, -0.058952829514031455, 0.10143435225787102, -0.051289355717352485, 0.06698703554660664, 0.3557557902609204, -1.0, -0.40673576720914906, -0.22538538901381094, -0.20979268476255405, 0.09959835478231414, 0.7635986344587172, 0.4565253913447907, 0.735107281744041, 0.43931901835911297, -0.06686219659925127, -1.0, 0.06834489806646336, 0.1426188236971379, 0.3209943718718728, 0.9582009137880799, 0.5563763114848828, 0.9998065717361597, 0.9986072472895774, -0.9696544726795286, 0.5154200063892866, 0.9999999788892361, -0.5806331909414295, -0.4439601910631251, 0.8458786003363145, 0.057448644119161986, -0.575552845454139, -0.027524801662603616, 0.9761737613714149, 0.7286920973326417, 1.0, 0.3549855656410098, -0.9083752637350092, -0.47929863783149695, 0.17217780470954752, 0.4004514091680337, -0.5819208429905361, -0.7606585726260313, -0.7783585003693093, -0.2558463150802063, -0.2938798431947833, 0.9110128060386423, -0.7258612965534579, 0.7409714602733284, 1.0, 0.9701660153523741, -0.3079834638412225, 0.37815748923085873, -0.035536159873602514, -0.5980803411043152, 0.5398359820137427, -0.05581002554886662, -0.2654727869806381, -0.14908676192140055, -0.043719501691062916, -0.4094325732281896, 0.03302486714048364, -0.9999999999999996, -0.9989405226923757, -0.8304771791150464, -0.13906532087970158, -1.0, 0.8394775414259565, 0.5435641796937059], [-0.19761780331116985, 0.9999949525995729, 0.054361735897774106, -0.6589745939242501, -0.07771700206390728, -0.512723374879558, -0.27705412199325463, -0.6900234828585328, 0.5190066845541245, 0.4208165960291813, -0.3136981481040801, -0.24898425885988615, -0.8214110556951537, -0.640017307882299, -0.6226901536421693, 0.11995750945964742, -0.5215081711712217, -0.05968701114830972, -0.9999999999999833, -0.4605463688721595, 0.13672830551443438, 0.8349638857175574, 0.4054341646584776, -0.48518613038018094, 0.26733722072762145, -0.32259106393097275, -0.45180346636604296, 0.4375946415415126, 0.07788745072470105, 0.27323239258907833, 0.926852667301274, -0.21111268740378736, 0.18944910452356498, 0.7184049873613875, -0.6302797265945858, -1.0, -0.8167194887705539, 0.09330796808345207, -0.8152675081147058, 0.23913525784435466, 0.9999999807305066, -0.16789290211439917, 0.9210390461892937, 0.3516936011274939, 0.4815467393446201, 0.41559585496946155, 0.3078056225397024, 0.8370295327164433, 0.9899505112114166, -0.6722822374757561, 0.19952997958068563, -0.6020428504356157, 0.5155387424578699, 0.4492648362882452, 0.641544855559115, 0.4238807157599916, -0.20104125169411782, 0.7733017545031063, -1.0, -0.5255776132420988, -0.8574416172612074, 0.1382081961926458, 0.4593856102069711, 0.4426733204856526, -0.8893480381636972, -0.6497615583642993, 0.31290494377145883, 0.46740864909126656, 0.6481385131965132, 0.7703100820949467, 0.41099589964592037, -0.755742865839406, 0.7808129817978275, 0.5079802180136705, -0.016663102687529963, -0.819407294865233, 0.10543886555557505, -0.006556799931419166, 0.5445717792962906, 0.013926045990413399, -0.11697981967594129, -0.39007666567574467, 0.3353074284015396, -0.6585393465745674], [0.6433203005558734, -0.8128990869625531, -0.6455844388081653, -0.18389265313049452, -0.057617598294655056, 0.1798230122897213, -0.7321155291328746, 0.7448254114878687, 0.9692041879837853, -1.0, 0.7713835354395414, 0.6880578670501946, -0.7230478240250676, -0.9587277285911734, -0.9995319958586144, -0.33571937020858295, -0.17509757722984154, -0.640544983873532, -0.05849573831900709, -0.7351494519583391, 0.9999999999999999, 0.37809249735617595, 0.6614779794491165, 0.556427163576912, -1.0, -0.6955219061028085, -0.5451482296681168, -0.9307536069799607, 0.23886393860647195, 0.41442258092583784, 0.6088887853692803, -0.24753872951959272, 0.9999942797303464, 0.4494181473484793, -0.9999999999999999, 1.0, -0.5685156325546075, 0.7489143232780929, -0.8596084794752145, 0.4553547902231005, -0.13049819082193456, -0.5372420382699525, 0.19423430239190104, 0.47702300871977793, -0.9067622101273929, 0.7930355666119833, 0.31670103639832314, -0.8095151930326028, -0.7471813061882187, 0.34831835447190934, 0.7235986991628341, 0.34145139099074795, -0.999999999999999, 0.5571086276949545, -0.6010420570287222, 0.9547971738095332, -0.576576202737195, -0.9999998885146251, 0.401775407758375, 0.21600612430979402, -0.05465220850602326, -0.2613951646994996, -0.7033168881359286, 0.43342216797452826, 0.8332862594572872, -0.32178556775265976, -0.9999999999999997, 0.7212053150624325, -1.0, 0.17577127184283722, -0.7150248233016891, -0.9993857364454226, 0.2085676669260764, 0.5574682049977641, 0.34184630812864625, -0.9401678083014623, 0.813589257736733, 0.3235626200397004, -0.46566741204348877, 0.6016559694249688, 0.9209579092109564, 0.34295604677887154, 0.10414332460926379, 0.20372858771214125], [-0.024797209498399465, 0.862152970940428, 0.34697049925752105, -0.8289514241005717, 0.6870177988471748, -0.07912569350249038, 0.4976482843837508, 0.5262587701172824, 0.6229450407113083, -0.2785692677117021, -0.0690811061571971, -0.28484158527511977, 0.2202013597387735, -0.5141982022208759, -0.36839849747304315, 0.9999945567638528, -0.5213770281866409, 0.9002459283077455, -0.7761140432589337, 0.13495102866260775, 0.607674650896152, 0.2897972539839855, -0.13302349818509204, -0.998041210119582, -0.9983712849093475, 0.24344871512112035, -0.7338622240419135, -0.44356639524051544, -0.5188608677913353, -0.7358247340038176, -0.6468155477028067, 1.0, 0.8905332637227168, 0.03081674909010691, 0.4709522440740114, 0.85345398289655, 0.19292347337874355, 0.9245991983250882, 0.9413189522093149, 0.9333431552590833, 0.9999966519085193, -0.2710557655215501, 0.9621876854587388, 0.14801692096421182, 0.6241217016922523, -0.3718585788276761, 0.20387572795958248, 0.28863237693288973, -0.6366701407336187, 0.1484264664540237, 0.8974568344608095, 0.3113448823741385, 0.504964431453518, -0.4354729078547916, -0.20682976628809305, -0.8613030719236227, -0.344368915005791, 0.34922188463944565, 0.12032154196407203, -0.2686929686265954, -0.042261736217832295, -0.19627938414749196, -0.22789929805522624, -0.52603401062689, 0.06572997260485196, 0.09386658680606381, 0.9985055212865016, 0.2700309250305377, -0.6305175538091242, -0.4163044192478018, -0.42079253937481864, -0.5968772863307732, -0.9999747957184378, -0.6236278629582698, -0.17993411963512085, -0.15820335807013877, -0.18022729719445812, 0.11784462105674612, -0.5592155268405155, 0.3201275123722727, 0.6751526939917056, -0.39225066718874724, -0.8300609511349554, -0.16015613686157473], [0.6030179601923625, 0.6048800712498119, 0.14480066658066157, -1.0, -0.2626838213246878, 0.26136192885862986, 0.34157683454451115, -0.8435827881809695, 0.6456504884608413, -0.9693232312971654, -1.0, -0.8730841482632602, -0.5130716309011425, -0.7410466303618897, -0.5973652593974158, -0.31701560539657286, 0.4244036654142246, -0.7198515683644162, -0.7278793501458173, 0.9980687526279839, -0.3764402768506885, -0.975202496047246, -0.9028950874180237, -0.569998621055433, -0.2793479840647293, -1.0, 0.8057221971276245, -0.10530039581690984, -0.22819426202117357, -0.08834878965590945, -0.20874703753596896, -0.13432727105886758, 0.7429215155555413, 0.05739191687295641, 0.4971004357171011, 0.5149101414822993, -0.13505640572873429, -0.36208650927279423, 0.45684290465312133, 0.8347514586110794, 0.8096034501349381, -0.32019865533381797, -0.9999999999999999, -0.15782047788750336, -0.9998195658280896, -0.9999999999999997, -0.36226489103127363, -0.09295985840206263, 0.17031116296804466, 0.2646255874043769, 0.9594544061332684, 0.8899246419130773, 0.5286546286750934, 0.1594025474355322, 0.2332378157462819, 0.18476507238562012, -0.28248703813605164, -0.024185480323383284, 0.1894367137993552, 0.7899458171463822, -0.5853898930732468, -0.9997890813466227, -0.10039458568859756, -0.9098367826696443, -0.8525928556536422, -0.29524057963099176, -0.05153800424584884, 1.0, -0.6510202710511331, -0.9999809586142633, -0.9979530024812191, -0.49639865629875035, 0.10610355005949848, 0.9999614289106613, -1.0, 0.9987838353856234, 0.39719197114985905, -0.03530266108063049, -0.253959611210189, -0.5626757468830452, 0.3821797568374065, -0.2320950834322649, -0.507937425746728, 0.9167934025355045], [0.3234364919017125, -0.7072228642347539, 0.42731276530006873, 0.7962040316589053, -0.11495727138400506, -0.9996012559251302, -0.47251807712191923, -0.9698344074588227, -0.43884281214830057, 0.021614967828207765, -0.4556480021659333, 0.5890758952298331, -0.30131106482354014, -0.8254597408462148, -0.9110547051209845, 0.9977201709059577, 0.4070811789824465, 0.806365184947657, 0.7943050061600098, -0.29094937691450345, 0.5076145446629939, 0.1549800283038742, 0.9984564098448212, 0.8155622049840899, -0.9977393981612936, -0.146579385076721, -0.9094603288423874, -0.10657035403186631, 0.06841758289240882, 0.9336237910404043, 0.144630561032357, 0.062370310490991704, -1.0, 0.9945525538805767, 0.6938622302963808, 0.7384895006695513, -0.58904790899261, -0.27129321044021026, 0.10619955566070916, 0.39457696202097875, -0.6721112693142235, -0.36538688730642443, 0.7798563508307399, 0.38509307168819834, 0.9175343144198961, 0.7219592572624, 0.1854683271791932, 0.2157662312793856, 0.20841169440052085, 0.9995701276624783, -1.0, 0.8511970116946559, 0.10696980625753581, -0.3288548832974414, -0.9779078351905549, 0.1513018052566628, -0.6695436872056902, -0.2938306228573411, -0.6503244791016636, 0.8757033111493108, 0.5238272949310402, 0.9210849123087965, 0.570389998143138, 0.4566604954677074, 0.6130655450476682, 0.9984342446211821, -0.0353378701157552, 0.09490681432641854, -0.9271821753966898, 0.41091040585465416, -0.45680904680232803, 0.008871221721170872, -0.5430012585518751, -0.9999999999999997, -0.7601757837919955, -0.21583183510615606, -0.8823747561917308, -0.19062393875772227, -0.2287803677230808, -1.0, -0.4605879343363547, -1.0, -0.5766124618689998, 0.9199218848436758], [0.5658463049005276, 0.7031929734013861, -0.5510131939363783, -0.31247002444486316, 0.10958365097024898, 0.7017252857570605, 1.0, 0.33373926713407875, 0.18242333044304318, 0.9999998550368416, 0.859208705786137, 0.03228978742325131, 0.6145999258025614, 1.0, 0.6502830457807649, -0.4194777871634532, -0.8144033434226039, -0.940653819072844, -0.5421407145666545, 0.06654701586907946, 0.13267217165758213, -0.8999803515030624, 0.2990337395879052, -0.9999985321552344, -0.4310001094485145, 1.0, -0.9999966730726413, 0.31621317308856794, 0.4525110308499403, -0.551821657222817, -0.669287528970576, 0.6927654894585203, 0.2966863742824965, -0.7968892478026162, 0.5318333127043924, 0.8437771552007651, -0.9432605682701614, 0.1696287104940293, 0.0419991012878563, 0.328216015244719, -0.819751735394178, -0.5347497973028039, -0.5812819714205827, 0.8185794519713547, 0.21004259807584888, -0.8514241184122665, 0.7668689531820635, -0.22659217997785777, -0.9999960718600373, 0.4667706565923436, -0.2886700101154153, -0.3726213489289753, 0.1314608855939731, 0.19387778479774215, 0.30035876791690314, 0.35790509991461267, 0.7057851619311795, 0.18036922649024353, -0.8715022646573176, 0.021014858393773636, -0.2731633208988689, 0.3180553626921393, -0.07906673779599811, 0.1932015053743081, 0.4013607333555322, 0.716792038529282, 0.4303214638747976, -0.4396622185855115, 0.48870923239892716, -0.08601838677055984, 0.11067671938749314, -0.2549746339159113, -0.9475540418551183, 0.2994160307018482, 0.9999334868400118, 0.941143927843342, 0.6702502833154004, -0.21577224612404364, -0.9997674910404426, 0.7888086526429464, 0.317586699748026, -0.9724255119670355, 0.24066942106864483, -1.0], [0.9684273643593803, 0.3688222333151597, 0.6805078204748495, -0.07065808201571538, 1.0, -0.7057139247253991, 0.22145944828568742, -1.0, -0.019436809041829393, 1.0, -0.09047208357189707, -1.0, -0.5663670753193317, -0.6389057251235405, 0.16391963907178533, 0.013607123381292082, 0.05100175665039298, 0.2056701591211749, 0.7862211377960756, -0.7085165559636564, 0.7143382942406613, 0.6978010016832912, -0.03404462350218224, -0.3091936693066551, 0.4963698094035796, -0.9515172508870242, -0.07885330787337341, 0.8897457847629512, -0.12350139693980113, -0.49699644566335344, 0.38111668502909263, 0.9024326993610624, 0.1341343125028628, 0.12207864834715015, 1.0, 0.014712217062927089, -0.13054517397439724, 0.12171824383640384, -0.1837298207981553, -0.6733326053601872, 0.16631490654262251, 0.560710011188657, -0.6509638163448901, -0.9992068076911539, -0.7985641692583214, -0.674548123479312, 0.628564417517656, -0.14877503060878958, 0.0165047147730111, -0.5081631179891407, -0.12681433635938102, 0.6241826452516683, 0.2349470479182447, -0.17488484924726796, -0.30882222101606205, -0.36067881770556465, 0.03232497887393732, 0.3197030717708724, -0.5914109394844548, -0.8277288186321464, 0.5303888804392449, -0.31951875732989526, 0.42051267948567306, -0.7417744022474287, 0.19261210654513267, -0.2036282194025869, -1.0, 0.4449455007036139, 0.7783351397287211, -0.2293955218301593, -0.2164742880432401, 0.36161183120394363, 0.9998528183549118, -0.4506829442269014, -0.2720099853650775, -0.9999991970522908, -0.9999951906570751, 0.9996293341794299, -0.013341572478985052, -0.9999999999999993, -0.105155421263426, -0.37714148448194995, -0.7114637213382203, -0.9989445503072371], [-0.03063492169285145, 0.5148063569674245, -0.5054913868686781, -0.10170241522355333, 0.3143397086804841, -0.297545765641913, -0.6499989715128317, 0.5352279985494904, 0.9999962154187287, -0.5486429491319922, 1.0, 0.18740011626631373, -0.2116062271602496, -0.8395215273427197, -0.6159947359176398, 0.5647276725545685, 0.7865254652481277, 0.03793270339042784, 0.9997822419597225, 0.8263835265260291, 0.5212758231221947, -0.1813581754040144, 0.9999999999999998, 0.07656440199255919, 0.5608478178437484, 0.009023878757012823, -0.7497898410951899, -0.4254017497501622, 0.3207876878459566, -0.04487448955586179, 0.24308285304278401, 0.7521021404199264, -0.8255658808119831, -0.2927213724697235, -0.9999869290381613, -0.2026505496088307, -0.8418604014117522, -0.8373104742912415, -0.9908371461615402, 0.40070295690061447, 0.1858140546452901, -0.7934775761236591, -0.6465815378187887, -0.17899922440904298, 0.3750929691501615, -0.8333332262539538, -0.19635668811950896, 0.8925665137854379, 0.11336507019117303, 0.4410774699031321, 0.34501427697019665, 0.3050229263706537, 0.118672075198923, -0.2073948602543618, 0.9112205800275794, 0.3699021633227585, 0.9995596856265447, 0.7550742985947347, 1.0, -0.8952455543303264, 0.47369013914514685, -0.7204155680789581, -0.8074327429748244, 0.7828231755863962, 0.9999999998295342, 0.6789133485457918, 0.5471018695284513, 0.752309753663323, 0.8013280889560676, 0.7063435918082602, 0.7721813054464906, -0.6177129763463877, -0.9187160732150824, 0.4222383209471102, -0.1831309646111009, 0.7779467362647888, 0.4491715123778944, -0.07008575191876702, 0.5471169620936238, 0.3665136232954338, 0.9963975078351212, 0.615607045425792, -0.05855214394169134, -1.0]], "w2": [[-0.19086721020507794, 0.31509614454552437, 0.8146973169696805, -0.6398565318281346, 0.4854129677792228, -0.011713360844488012, 0.910386219827042, -0.28996396199063185, -0.9943017051957025], [0.21685306034156537, -0.3785456683927529, -0.5786483725830639, -0.43966934730556734, -0.9999999308300067, 0.22873391390028874, 0.448161744070654, -0.7159111954043289, -0.1935661986894378], [0.8123626023185713, 0.593367145208466, -0.691055563132302, 0.6421289422563784, 0.5329912320131731, 0.28940441190839267, 0.744650431274077, -0.030841602101619237, 0.325184606817294], [0.09925906437438614, 0.9999999999999997, 0.9088618162898794, -0.6360777188369217, 0.9992602138712188, -1.0, 0.5056220700938906, 0.10424955126896768, 0.31545305562393433], [-0.1267376239967491, 0.6496463593402955, -0.4059274885679692, 0.4726757504578436, -1.0, -0.6815532208395912, 0.5885128000996641, 0.5913521499704606, 0.280527331954816], [0.6112819045777247, -0.17595943290449748, 0.9206776494659012, 0.6212703243006964, 0.6199396201124046, 0.5781595835041473, -0.2401414901408966, 0.2643865158237154, -1.0], [0.8638204569199559, -0.5305166905682587, -0.4589420458479546, 0.8761711412254162, -0.701571292160045, 0.1359828596641909, -0.9993068785445691, 0.11844749805156102, -1.0]], "b1": [[0.7032599997093357], [0.9849366131469982], [0.9999999999999994], [-0.9814851158103088], [-0.5573594844651798], [-0.08311023355498032], [-0.27008669967481536], [-0.039564212035845], [-0.033959839791105374]], "b2": [[-0.6823669735641894], [-1.0], [0.3955645292139467], [0.6803881707330027], [0.884902117632075], [-1.0], [0.9085590564339993]], "fitness": 3463.0, "best_pos": 8.0, "best_status": "tall", "score": 1700.0}