{"w1": [[-0.4649517585254073, -0.16157538315517653, 0.5686258293183457, -1.0, -0.7764472971379521, -0.015215100795860801, 0.34070603911841063, 0.6565665839571752, -0.5413453333568442, -0.5825236938021046, -0.13524009896428382, -0.7907089505451206, 0.14387377827691747, -0.8938979603431592, -0.9199727604532215, -0.23249961040862907, 0.010302731066544763, 0.015556979847571201, -0.297272453808253, 0.5552186393425089, -0.16455703336780178, -0.7801402351447108, -0.30242124993859487, 0.14258558146198366, -0.06764643257199605, 0.11342792381779693, 0.9999996422271802, 0.4563651381207822, 0.34304291930832426, 0.29964206774309826, -0.19877739672278893, -0.6560501646125165, 0.06834515874617066, 0.3755234141160222, 0.2674686293373104, 0.9185380317458864, 0.49338787035315884, 0.33600295394798685, 0.37128569108797754, -0.6609351524865387, 0.5177717406155764, 1.0, -0.5579121658744413, -0.6681546611105652, 0.9930320386493178, 0.38028066335209804, -0.1491030061414885, -0.3355258079283286, 0.9913613310278875, 0.5008336145165528, 0.8581937193934179, 0.1958734400467798, -0.8102393201597293, -0.007410310709629094, 0.41936353586977126, 0.4024257935380652, -0.999995322314215, -0.6710602465557857, -0.7790480759819127, -0.6213414749661011, 0.0028723876969824827, 1.0, -0.14205261683831832, 0.8129780041574362, 0.4873314984688943, 0.9706095661592364, 0.1523510108843864, 1.0, 0.10096273793149634, -0.3437399883821415, 0.6546676146361415, -0.4396425377736736, -0.3018389181307085, -0.9996986468469261, -0.25988888154425877, -0.29998070071864313, -0.18522699286129704, -1.0, -0.9674400178315139, -0.7867415769206414, 0.017857016526849883, -0.9857744603718233, 0.5847103776009188, 0.3763391149677482], [0.09407444797153598, 0.9718851151718674, -0.2976479572508589, -0.6796423815082021, 0.5605004295679885, -0.9999549795457154, -0.4332463159562134, -1.0, 0.6770428926759892, 0.42543069316824844, -0.21935282587954302, -0.14117645217896055, -0.9986215619033685, -0.6386686961085476, -0.9721881908284168, 0.042492050551012475, -0.9819332427986721, -0.4747862678618491, -0.9890068733900379, -0.2087584323466156, -0.06171438895325193, 0.3571927981624919, -0.2711016522002254, -0.4066515804155227, 0.9416935299318638, 0.2647557887924893, -0.9949263691711414, 0.4477592346707038, 0.4911222262555208, 0.1595651240907585, 0.6302482696656312, -0.511855317051093, 0.4374758056046403, 0.9994834282710169, -0.6292141202725203, -0.9972393019121214, -0.8168627627059634, 0.8757773039464588, -0.6187032204740013, -0.06308534547485328, 1.0, 0.15038657608210806, 1.0, 0.19549489164535833, 0.7102984225170823, 0.6022882375252503, 0.19349808257166393, 0.9999999999461111, 0.1871533538263959, -0.2219473441678676, -0.41649257125004374, -0.09928011573558, 0.9875980651615597, 0.23251977155386921, 0.9582386762345546, 0.9982274103811711, 0.08991175357266049, 0.430513048904772, -0.628420944130438, -0.46415622859411254, -0.8321204457556348, -0.0735812251316777, 0.7332798213739916, 0.7648048576877408, -0.8577770320264269, -0.3700940449034208, 0.48680249676859777, 0.5378808723400892, 0.22232865098725585, 0.19332913717937494, 0.5101589769456651, -0.6295443319863795, 0.8494699792450174, 0.18837204577066596, 0.42040390326417587, -0.8184282086769517, -0.6166157665403866, -0.19459273024805296, 0.7352756235711961, -0.6076028845022685, 0.029788216293754805, -0.9999857682025289, -0.4928330831338615, -0.7388403037127363], [0.7999319697952739, -0.815741374553601, -0.5405353185362425, 0.36858508109766147, 0.14740959585105537, 0.7785710891182335, -0.9829732114068166, 0.6218312106305794, 0.97701342795996, -0.6587059053855586, 0.48421770554156146, 0.10792334020495173, -0.39188521131150594, -0.5533297040624534, -0.12316733205447637, 0.277008547872472, -0.6025992185686698, -0.44018066218036683, -0.12190297202249661, -0.9334182720188856, 0.7797629348487655, 0.23498020966052793, -0.29146060798104106, 0.7897006161675857, -0.6779714021581678, -0.20373950104470107, -0.7316385036882458, -0.7386734471276304, -0.1013493037768475, 0.4060001005303701, 0.3199113407627735, -0.661023240658645, 0.879390060954619, 0.3266562672578934, -0.6505861418563149, 0.9999867495500862, -0.8913755262332813, 0.8213321657440615, -0.9545838967422673, 0.9647187004237494, 0.1682238205561889, 0.1441584631733349, -0.9999986435125334, -0.05279363974005388, -0.5965553552642535, 0.7473825110532712, 0.8291221208227859, -0.5869952812590752, -1.0, 0.9972919409559583, 1.0, 0.9962652678163663, -0.7535866926595752, 0.3622724262828528, -0.6004165559856721, 0.9999999999999999, -0.3858179797437115, -0.999932144457949, 0.4746221417216988, 0.2156973853799502, -0.08162334875254963, -0.5637220013532054, -0.43266696917434067, 0.8814255180584165, 0.7307685039279738, -0.19402718885533699, -0.8732868191991645, 0.4419094640446946, -0.6304743758454532, -0.33955846213494434, -0.5324293477675766, -0.9896313930043831, -0.1814972470363, 0.32758970460828707, 0.5838157574884577, -0.999953224519798, 0.31623094514362643, 0.027376105631703156, -0.03870036871409582, 0.02885840220864933, 0.4715041472276807, 0.2019156250540531, 0.5095979007549238, -0.4752415253078896], [-0.35576844612047626, 0.7628789151974504, 0.6839352623653663, -0.943943776543804, 0.5872035772768447, -0.5891366361431721, 0.45304849823312743, 0.20453545908399298, 0.7834610704039844, -0.8043352428390602, 0.364972196820982, -0.8733255594404332, 0.008078379524562272, 0.03013195321257293, -0.47615067095216207, 0.3572638744523204, -0.6630693896998626, 0.9975508518745766, -0.9949111677930059, -0.04134170727778422, 0.5178800407314129, 0.2980133787696701, -0.6527688756814776, -0.9999999991977573, -1.0, 0.30447802352666453, -0.5947178893282734, -0.07781592704908873, -1.0, -0.7363872335114067, -0.8911157209441279, 0.9999979516003908, 0.7658496485155879, 0.7822501261536111, 0.19138406066875288, 0.5958408057531362, 0.31518994192349564, 0.9316917108283025, 1.0, 0.18676100923977318, 0.5373885687098187, -0.25006328370240166, 0.7313403528795187, 0.1554294084222082, -0.017450362680367145, -0.3703276745487605, 0.7782449787687037, 0.5541735221496226, -0.9992235920765022, 0.08762534744834038, 0.6594209245097945, 0.30803242819020826, 0.26178155927974345, -0.7143829836453549, 0.022302760442921617, -0.9415315418363066, -0.4634926638846759, 0.17503313474970517, 0.1738444548214132, -0.6268602579960474, -0.17513160859605287, 0.37993506525164783, -0.3187575297576137, -0.09141583672371494, -0.26648852362326236, -0.004356994410792139, 0.8474861255162716, 0.7836934421044343, -0.6585636411367007, -0.41768805333313397, -0.8245848572363129, -0.5867487233123911, -0.6006700460208205, 0.21773303137998237, 0.18639216656490454, -0.5468125608438317, -0.18131564626818958, 0.04441689723298315, -0.2959625839051411, -0.1887140899817154, 0.9019874855394414, -0.37978404588924447, -0.7949363486418719, -0.4184246926423457], [0.7328511146037723, 0.4968528665405374, 0.16491257373650361, -0.8415575974394729, -0.28460174522725895, 0.4408214092852577, -0.10023041948876193, -0.48703904071765963, 0.9268303419397105, -0.7385694811320902, -0.9703603569364118, -0.4688660778901644, -0.13182558073437145, -0.8400085310761839, -0.24155684823631948, -0.24914917034344353, 0.3115164117179291, -0.2536617936587979, -0.7953648956802831, 0.7722979847725254, -0.3130212582535288, -0.1718844762744007, -0.9999999999999999, -0.2918392640337732, -0.5570116557817035, -0.750762356666925, 0.9390341162180357, -0.32414107258640934, -0.6819876006815974, 0.0934688930369935, 0.1105074239679352, -0.12193031139563743, 0.6700452325897425, 0.05754771237551916, 0.7699972489832079, 0.4726695795137877, -0.4380144752142054, -0.9999951034002973, -0.2667561724692531, 0.998109454990354, 0.9958695690520029, 0.23601684135184164, -0.9247117258372551, 0.15857244272953758, -0.7348304879770788, -0.6650346773425088, -0.513718106608559, -0.24691972505346588, -0.12119711955888605, 0.3489984033267981, 1.0, 0.9996281799853455, 0.7379622672355874, 0.9997829068018333, -0.4459958175621987, 0.15915212679614926, 0.019113758177260836, -1.0, -0.34844684582649865, 1.0, -0.5307410469115166, -0.9999999999999996, 0.026321231412929802, -0.629626497961779, -0.9999999999999994, -0.5118760308661089, 0.22906416485294445, 0.4494538155062469, -0.07961159056202659, -0.441858392159022, -0.9971091720364679, -0.1282071315500882, -0.4024672334168708, 0.5782994091126025, -0.9999959780755021, 0.9999976480655762, 0.9999999999521828, -0.0640484006117234, -0.225767061924946, -0.8621881985798517, 0.37119081915684515, 0.1145805985189186, -0.9123180679930485, 0.8764152915508003], [0.7266254636891784, -0.7427232480660474, -0.41553987359378636, 0.8518812066623707, 0.09790465593628675, -0.995774855071479, -0.6396460762366697, -0.8783590449063495, -0.41557297360036566, 0.0034316455890368532, -0.5376314340851286, 0.558674645845373, 0.3910631683111021, -0.8425993829349273, -0.9673583567789891, 0.23508110245663158, -0.011679839949476951, 0.6148914955968773, 0.5949134178226626, -0.777131760711549, 0.22260343896349466, 0.25626164981335253, 0.6435885642560231, 0.5110974237843722, -0.5469819594393945, -0.16861970545397562, -0.9511176854861711, -0.09234839265478753, 0.27634444924221635, 0.9436514805226758, 0.4827041984180026, 0.339452195304127, -0.9020097813571051, 0.7860370525625897, 0.49658283168521505, 0.5388448889479328, 0.06683096944282417, 0.0033642561228128987, -0.22674555144749825, 0.7457854266872619, -0.9988587306953275, -0.2038989880421616, 0.4139383729559586, -0.0432729595951813, 0.9819538749142239, 0.8009042412268471, 0.8865354753612414, 0.26589719576606874, 0.14366549021056188, 0.519192361948308, -0.9374888305987232, 0.48547176894237015, 0.23879763051896796, -0.013613695632853163, -0.1964596594623559, 0.3258378628783548, -0.6830940928891054, -0.09149337303932961, -0.664258966189808, 0.7580489876761102, 0.36943745058777216, 0.6187956819767674, 0.257661632285435, 0.3528186764956591, 0.675862321995339, 0.9919455810695172, -0.29394143649341586, 0.012296418135542848, -0.40114441128441247, -0.16672008630438126, -0.4215046399670212, -0.12298172852718964, -0.5402577371882215, -0.8154879644972514, 0.1320529534367163, -0.6760409937941153, -0.7151359350169707, 0.13613331476765317, -0.3279637962251098, -0.6208995203167417, -0.12102682021712209, -0.2791619780394591, -0.4596509118791066, 0.0689590067809986], [0.9982053762075002, -0.02423072138643677, -0.5135997682382882, -0.13644064318631818, 0.6059552350193179, 0.4740543039814625, 0.998574489981722, 0.11966489984023473, 0.3929506247688028, 0.6730546206875432, 0.75943889925529, -0.33269924296068853, 0.5477370913346319, 0.9993840826618184, 0.4115732067956991, -0.12269658724170623, -0.991627937311546, -0.8706636682000078, -0.6728567215699329, 0.2657239124163699, 0.1939915245474975, -0.7609404172471712, 0.4293089536429751, -0.9950593819194771, -0.4282351959327025, 0.8540266970209138, -0.9094184998317405, 0.2834291603150676, 0.48840887016522133, -0.3932359359325336, -0.4804301032264083, 0.9999999999999997, -0.022649006153161837, -0.4467282682746095, 0.49616132503885024, 0.9999679310316357, -0.7749814613624861, 0.651839032680208, 0.4993808531891293, -0.33975335324934586, -1.0, -0.7262940310991891, 0.06439240295238721, 0.5954065846368735, -0.26398374580666406, -0.9508429080756471, -0.34503716681202323, -0.4737977736935987, -0.5751588879180055, 0.30328856357733835, -0.217383912063139, 0.01786243557284321, 0.697417875317852, 0.4423844127419942, -0.2535361602800292, 0.31127562181533663, 0.323698712760347, 0.276960392874968, -0.9999633865432621, 0.2869003379555148, -0.3781293302338954, -0.04113507302574559, -0.336651730766225, -0.03847502067633329, 0.2860592386181502, 0.523298428026019, 0.5443105559992949, 0.0570866645194662, 0.47165042286907366, -0.04415945579378439, 0.23016998403408728, -0.16320910848700998, -1.0, -0.10177905511002819, 0.9998531470476575, 0.3213355084594506, 0.9979942919581545, -0.7077367545390432, -0.08487359346580152, 0.9978298335748781, 0.740679087980982, -0.7959694935842057, -0.3267507741367085, -0.8874300145058152], [0.658584152799072, 0.02259462576268136, 0.01451425628521093, -0.01024953069241549, 0.9087366654297429, -0.8373394333229336, 0.8327699390292854, -0.7447281512421596, -0.016721034369945143, 0.9999999997758336, 0.3059438630383182, -0.9916908945978493, -0.7389871960347796, -0.9999999999999999, 0.7339084796447412, 0.4149414055373967, -0.04806292739941523, 1.0, 1.0, -0.4131105214944676, 0.7484789837231, 0.5820143831723052, -0.5550225252397621, 0.08529616363533697, 0.2997819393058546, -0.9991666589405059, 0.10046630422078633, 0.7271797064324146, 0.03015688133909007, -0.9999996267503839, 0.8447107795923695, 0.7791946710222137, 0.07512266135174145, -0.040262567701324775, 0.6145436354138737, 0.4411061872486914, 0.343244401578345, -0.026073919966498327, -0.47789007703427694, -0.35854246568353565, 0.1951880163701667, 0.22612569176597774, -0.6488660278539258, -0.9587907914803594, -0.5573159206902892, -0.2958114236933628, 0.9915019351549188, -0.14896958065864546, 0.35017185651179616, -0.33077218184928187, -0.5722616422964965, 0.6595134904674342, -0.11018484688315194, -0.3068522928451853, 0.21378422943389716, -0.6141839558963673, -0.22001795669395635, 0.4605613961470129, -0.31354337134796045, -0.7880757445271477, 0.3587048553164497, -0.011230964171213463, 0.33717070557259604, -0.6611504797722932, 0.3961651979236387, -0.423201911586217, -0.42253995818692613, 0.3304903315462596, 0.4381456229866322, -0.6729724735798253, 0.46128879115424704, 0.44759741955474364, 0.7129626674004531, -0.3757086208373048, -0.27155144498023304, -0.999741542011805, -0.9397346390916377, 0.7897349760007153, 0.3756325910071676, -0.32679808764675605, 0.064899244143594, -0.8021633564526077, 0.0911625444895046, -1.0], [-0.10192220235933293, 0.17602512868396117, -0.4023426479130521, 0.8077158364543913, 0.06299018964296588, -0.4581756068368214, -0.6718788758118074, 0.9825144316349983, 0.84010540333386, -0.07020287538145376, 0.8403903704986648, 0.11776153355485124, -0.20225439952388669, -0.8356830944920683, -0.3372636276571572, 0.33315109825318123, 0.534984524936545, -0.2748664267760997, 1.0, 0.8044028390108211, 0.73606525603723, -0.29175125552910214, 0.9999821932198399, -0.3123122767320168, 0.41916658633533166, 0.38773473084105264, -1.0, -0.5291651369320909, 0.3208014378772323, -0.11503058427615434, -0.8314995956032902, 0.9120736179499593, -0.9982100501706177, -0.608346307002167, -0.6545056160326566, -0.9813449926042296, -0.13185505550960794, -0.3521521270659644, -0.8192093292799475, -0.7474195571932829, 0.6928764167124752, -0.9974025239181243, -0.91389267283207, 0.027269244206692522, -0.3391931465921282, -1.0, -0.1258129995554897, 0.8001243845599029, 0.11027072432970017, 0.2575728946410852, -0.2208692844042442, 0.3885304501280564, -0.053557968128561756, 0.13205345954936065, 0.5671765266727694, 0.5224006752855924, 0.9360802798214036, 0.5285623938837312, 0.803707879306552, -0.9998784822012498, 0.9881640903668114, -0.6831332179536534, -0.4755018825558163, 0.5886839281832975, 0.9999928834190414, 0.1656242877655958, 0.6845400331165391, 1.0, 0.9997695133886814, 1.0, 0.8509272097201032, -0.6761680185355122, -0.9963553497364048, -0.08380008349510411, 0.027825922636559357, 0.6952743382645659, -0.19609183444983397, 0.09022959976077227, 0.8008106257190167, 0.7642987199008738, 0.9975847824010143, 0.3240286638003549, -0.18275186740017116, -1.0]], "w2": [[-0.24771514029677713, 0.2149595281210843, 0.9998361618746143, -0.45732051667391826, 0.9393413132864676, 0.11265091737105548, 0.7522108529191391, -0.2596580046332455, -0.8682416295602365], [0.09565027432630462, -0.6934695881392158, -0.8278008408224765, -0.32797477654108753, -0.8095619328478547, 0.5453220986766983, 0.7434436522049741, -0.9996636662172531, -0.053488756602463515], [0.6863719603495049, 0.8809460250556123, -0.6892418964327227, -0.19462575875267568, 1.0, -0.2839085548990665, 0.70664477759666, 0.1265260475006277, 0.7078851871138375], [0.4206039715231053, 0.9999884692873416, 0.5895163646868474, -0.5554702943783335, 0.6238330320788217, -0.9989426472847573, 0.1641265486697257, -0.1446063322349823, 0.4058005356214194], [-0.8422324444940915, 0.806582115678796, 0.007018450580517841, 0.2913136428626638, -0.6914100415509976, -0.13214491036505113, 0.04257488953618519, 0.9430317493104932, 0.10798190600023391], [0.6733860204561368, -0.8936418435288521, 0.8287589802079167, 0.5385347060652598, 0.6518947380130629, 0.8294042241000628, -0.6188913887474043, 0.015695890248530714, -0.8441820355471326], [0.9425338417788092, -0.15931467223469914, -0.31837024207520015, 0.7348268527277069, -0.9242517078474985, 0.06373571292611688, -0.8940231091912566, 0.21973490861512032, -1.0]], "b1": [[0.8033292942232592], [0.9070547644854304], [0.6785193927332959], [-0.9106240789709342], [-0.43109006083895823], [0.17109489033984315], [-0.21581092348063186], [0.06818298498823705], [0.22648123774884854]], "b2": [[-0.44135010598339486], [-0.8789062265758109], [0.25557793927433764], [0.8104948401269294], [0.6086309130517636], [-0.9999999999999999], [0.16812615680428622]], "fitness": 2337.0, "best_pos": 7.0, "best_status": "tall", "score": 1000.0}