{"w1": [[-0.4649535170108063, -0.1616313321721756, 0.5686532183951722, -1.0, -0.7764477794967406, -0.015090998464670527, 0.3416248154943835, 0.6565662770466414, -0.5413396011787275, -0.5825236938431453, -0.13524431354560512, -0.7907089413124377, -0.07109026877810717, -0.8938980100789782, -0.919972422757867, -0.2324996081292284, 0.010303911689549108, 0.015556921791799794, -0.29752096559430974, 0.5548702829254011, -0.1633762068166985, -0.7801402262732148, -0.555023115553076, 0.14409692694781795, -0.06763810201140526, 0.11342837221847256, 0.9999996431730921, 0.45636513813849916, 0.3430528366584352, 0.299918715025241, -0.19877389265634887, -0.8938531884791274, 0.06828004156021815, 0.3755234353070587, 0.26746864984622065, 0.9185380413101483, 0.49336296934943696, 0.32403018694401126, 0.37128568438571946, -0.6993026559588461, 0.5177718032234211, 0.7898321313696268, -0.5579121655882935, -0.58707809335724, 0.9930324481173672, 0.3802798897123799, -0.3832165080797344, -0.6335120269705393, 0.9913613309382837, 0.47302630769632487, 0.8575808817006023, 0.19587364011092412, -0.8102174346158983, -0.007410054101843486, 0.41936348986726407, 0.4024267834940219, -0.9999953227690527, -0.6710602465677246, -0.7790480759784965, -0.6213419754153263, 0.03419137207045944, 0.9999999999999999, -0.14206233810540198, 0.8129778494108242, 0.4873314975086701, 0.9706095652748298, 0.152351011669078, 1.0, 0.10106801530637655, -0.3437399676112727, 0.6546673987430609, -0.4396425377523998, -0.3642977177366992, -0.9999892731771786, -0.25984206451571157, -0.29999051183931236, -0.1847404024221179, -1.0, -0.9674399687371464, -0.786741576787541, 0.01872340612249883, -0.9857748170383427, 0.6426835386746004, 0.3763391130227673], [0.09398163584256494, 0.9718851150261093, -0.18190496216821336, -0.6800467542165853, 0.5605227588764823, -0.9999549646739232, -0.4332463165457522, -1.0, 0.6770429987256492, 0.425430691513921, -0.219348661970908, -0.14117630388803995, -0.998621529375624, -0.7111395086991981, -0.9718294374532359, 0.04096975612354597, -0.9819177393528276, -0.47477601724461715, -0.9895756824595868, -0.20875843233988456, -0.06320648797724955, 0.42838463084912565, -0.27113306533159515, -0.40665158120246264, 0.9407024259505938, 0.2647548313155899, -1.0, 0.4477576778082451, 0.49112223855776654, 0.15956512410096146, 0.7140059273177399, -0.5116091188517276, 0.4374831046239899, 0.9994827182765105, -0.629214119875492, -0.9972426966216348, -0.8168627626518611, 0.8757773370103338, -0.6187040177616518, -0.06308383706655703, 0.968321738235247, -0.022196240953053253, 1.0, 0.19549511197633493, 0.7111826538241363, 0.6022882376050784, 0.19349738365310362, 0.9999999999461145, 0.18715339975377435, -0.2219473441777563, -0.5689497479886623, -0.09928013739794704, 0.987558242474623, 0.23251977456531822, 0.9740838606306792, 0.998236836992631, -0.2829737099217786, 0.8311889354518189, -0.39087294203303546, -0.4641551851412984, -0.8321204536710872, -0.22239352221756048, 0.7332798217322711, 0.7639098693888099, -0.8174144719363131, -0.3700940449516226, 0.44678758459815465, 0.537880872342402, 0.25341577951252464, 0.19332913574663088, 0.39635411167468054, -0.6295443210978982, 0.849468171731441, 0.18836979876611287, 0.4204039032616383, -0.6088118694384468, -0.6224656305603873, 0.011746980984370686, 0.7359040240815764, -0.6076028818288777, -0.07477755235244717, -0.9999858626210569, -0.49274418584263713, -0.7388402823585979], [0.7999300511775247, -0.815733818967382, -0.5772364869277066, 0.3685850807367918, 0.16040477368440764, 0.778567927411851, -0.9819873741633272, 0.6218312106305784, 0.9796152983253478, -0.6569385429673275, 0.484217677056553, 0.10792088816379493, -0.4896325427369512, -0.3564630937843613, -0.1230546359502898, 0.37994561468855437, -0.6041029833815471, -0.4401806621768506, -0.1219030182107534, -0.869769683532707, 0.7792267712892865, 0.22274017620057804, -0.3372199939521829, 0.7897006167868815, -0.677971530419386, -0.20373955141953579, -0.7316385036216495, -0.7386736300304425, -0.10134930275333189, 0.406000044470438, 0.3198390460586709, -0.6610211427822166, 0.8793900608073282, 0.3266562637766345, -0.6505861419585324, 0.9999867272417264, -1.0, 0.8220836568246628, -0.8594116389159683, 0.9647176001361302, 0.16842740743829396, 0.14416184428677742, -0.9999986435122145, -0.05279375652131495, -0.596555355166223, 0.7473823068888193, 0.8291222249540973, -0.4360610616544342, -1.0, 0.9972951059037081, 1.0, 0.9962652685119984, -0.7535844467868172, 0.3622724233678218, -0.6004165647437556, 1.0, -0.6630776424851288, -1.0, 0.47462214164103667, 0.21569730566948825, -0.08013259341794732, -0.5637220012651721, -0.4326634451026307, 0.7802673144780068, 0.7307685039074597, -0.19402790246138846, -0.9602227498345909, 0.441907873458608, -0.6305531125720892, -0.33955846169790344, -0.5324297561744598, -0.9896320544273153, -0.1816649003855043, 0.3264716271364412, 0.5838157574881707, -0.9999534417946191, 0.3162320229451824, 0.028597008385904357, -0.37290486625759434, 0.02889877403515493, 0.4714972478222029, -0.04409790095913049, 0.5096001833948967, -0.009980511729808943], [-0.3557684444234758, 0.7628830584277845, 0.6834095809923894, -0.9439499651944364, 0.5872035783155699, -0.5891366443553724, 0.5429506428352839, 0.5110608096619446, 0.7834609925721394, -0.804017219432068, 0.36497219666277925, -1.0, 0.02948742552326778, 0.030131953184549354, -0.47615067094023866, 0.35726387442925617, -0.6775469467542617, 0.9975508825390386, -0.9949117740714251, 0.005928701768452222, 0.5178800133947503, 0.29801337886892143, -0.652769463641219, -1.0, -0.9999999999999999, 0.3044780039049612, -0.5947178250733702, -0.07895966481285206, -1.0, -0.7363872264580849, -0.8905003499955129, 0.9999979515000131, 0.9919905986671695, 0.7822442081229728, 0.19138372355840355, 0.5958328216818947, 0.3154137824483197, 1.0, 0.7366523968992674, 0.18855821580538376, 0.537326386884337, -0.25006253665890393, 0.7313403528874327, 0.019460305291258813, -0.0174302322409169, -0.3703300730683236, 1.0, 0.5543980810347336, -0.9992235993379825, 0.08762530268574388, 0.6912540590045313, 0.3080325512056323, 0.26178214348803547, -0.7983207180147773, 0.022302758367203628, -0.9419093277828198, 0.21155429353260996, 0.17503313486279148, 0.17515436567675347, -0.626863551333764, -0.17513172824903664, 0.07350107205277359, -0.3187574272957619, -0.0910473642817938, -0.2664885157999712, -0.004356994421797423, 0.44904679769558203, 0.7836925503641675, -0.3664583043314013, -0.41768806488774207, -0.8245848586618297, -0.5110991485261674, -0.6006660690215752, 0.2177330316936121, 0.18639353638274084, -0.5453499110010054, -0.1813209688920582, 0.04441689705245092, -0.29596481868459346, -0.18865889016579226, 0.8995458894812616, -0.37976889771544053, -0.7885123306793084, -0.4198623957570939], [0.7328515569076158, 0.4968529137095275, 0.1664714844573773, -0.8415576258378803, -0.28623260026657976, 0.4408350962509066, -0.10023041384145596, -0.4865149495144024, 0.9268271954647068, -0.7373654164262248, -0.9703611243828444, -0.4688592895957875, -0.31848646859261837, -0.8400042497567608, -0.24155682254693955, -0.24914882934534213, 0.3115168252731392, -0.2538062529017072, -0.79534505024347, 0.7722964547759142, -0.31303049908134567, -0.1718359768304866, -1.0, -0.2918392684853153, -0.7106225538618385, -0.750762543616878, 0.939148342955236, -0.3241411394304776, -0.6819876007268095, 0.09307584031865251, 0.11050743368634922, -0.12192730530294896, 0.6701640878147164, 0.05754771872620257, 0.7699941895834116, 0.3494040044002833, -0.438014534147435, -0.9999951205597878, -0.2667561724692644, 0.9981094567818055, 0.9958695690349249, 0.23601684135149092, -0.9247092821875238, 0.30212341093015044, -0.7348360756136431, -0.6650289217367605, -0.5135732724590437, -0.24691972507024398, -0.12119711961825674, 0.34899851874045185, 1.0, 0.9996283242922487, 0.9543077852493133, 0.9997829068027003, -0.44599603848050917, 0.15878279460436243, 0.4668678519569555, -0.9997637623017865, -0.3483163679528083, 1.0, -0.5307425755283564, -0.9999999999999996, 0.02632152895722272, -0.6296264979617774, -0.9999999999999994, -0.5118762068642101, 0.22904340065938397, 0.4494538157775778, -0.07960614717320101, -0.4418583921590956, -0.9659004803561061, -0.12820468125810514, -0.40246708686485766, 0.5780474295495347, -1.0, 0.9999976540729308, 0.9999999999522159, -0.06404840052663417, -0.22576706306063557, -0.8621881985798616, 0.37119117899287746, 0.14214774762891094, -0.9124458319844525, 0.8759413950207064], [1.0, -0.7427243149100943, -0.40784637940919505, 0.8526754394993876, 0.09790379381755417, -0.9957743945996295, -0.6396461364597609, -0.8775989159675146, -0.4155743315013236, -0.08738435166370967, -0.5375905904366354, 0.5587042258668939, 0.3903377228143558, -0.8425801754103878, -0.9673585711100178, 0.23544903103929585, -0.01167983989867495, 0.6148959607964694, 0.5929311996170501, -0.7771312014456239, 0.22260343796248291, 0.2562563793748645, 0.6435950694492846, 0.5684021995348392, -0.5469804782935784, -0.16860299626431224, -0.9511175473697082, -0.09306446535207706, 0.2763444311064403, 0.9436504440571519, 0.48286332426065565, 0.47183767446782604, -0.9020098672905433, 0.7855108560793934, 0.4965826084441079, 0.538124351551574, 0.066827693315755, 0.003366124239048529, -0.2267457389707809, 0.6126163113981448, -0.9978873178311907, -0.20409291911687708, 0.6466419687306052, -0.04327277972350341, 0.9819538749145942, 0.8009044034398908, 0.8865355188396438, 0.2658986068627079, 0.14372726281858003, 0.5191846049216468, -0.9374818526959409, 0.4854748986054642, 0.4123000073190979, -0.013619592801069235, -0.24621800672253155, 0.3258377879295298, -0.6830941325922438, -0.09147074641704998, -0.6643410954118651, 0.7572029379833939, 0.48457278209826854, 0.6187956727563184, 0.257661619810208, 0.35281867645632603, 0.6758249981798722, 0.9919455810836836, -0.48041231030896825, 0.012296977055270207, -0.4028138487436514, -0.16672008626215193, -0.4220503820019322, -0.12298173571283633, -0.5402577358548352, -0.8154879875918236, 0.13205295343732287, -0.6762828981799944, -0.7381948176413528, 0.136141861556684, -0.32796453361455924, -0.620899542745598, -0.12118993823014455, -0.5289659760884375, -0.43835395787757886, -0.18167303974281623], [0.9982053911571909, -0.024229551879070388, -0.5135997682962957, -0.13644202342223805, 0.6059552350005512, 0.08249628679488158, 0.9984262848635924, 0.11966467910375886, 0.3929506266438472, 0.6734633115674257, 0.7594413115375078, -0.3326992422578702, 0.5482439487170688, 0.9993840891094529, 0.41157320679569753, -0.12269660417767558, -0.9916279373782786, -0.8706636683750774, -0.6728567219160357, 0.2657239118462018, 0.19399369388751952, -0.760940417928461, 0.42930895364595856, -0.9950594965101107, -0.4282320283322097, 0.8540262930995193, -0.9094184998315729, 0.2834291586326144, 0.48840883167081167, -0.39355146654891804, -0.4804273436771206, 0.9999999999999998, -0.02265027442501374, -0.21562683931928747, 0.4967502389141714, 0.9999455546483428, -0.775122666794482, 0.6518398850321502, 0.557568566179726, -0.33876295996384537, -0.9999999999999999, -0.7262516675250134, 0.06439368877127376, 0.5954065845901524, -0.26397944129437323, -0.9508427115005662, -0.3450368278195035, -0.47146444182464914, -0.5751588879188291, 0.30328839412334174, -0.3863040065208586, 0.017863837843707656, 0.6955921766999028, 0.4423842655344526, -0.2535361685588708, 0.31127611734918076, 0.3236987720004673, 0.2769608301394166, -0.9999633859954329, 0.2869003379479901, -0.4016780562311788, -0.10702822023329461, -0.33665184778954965, -0.03847244584697283, 0.2860592418169695, 0.5232855225448544, 0.5443105184579328, 0.05326196484806272, 0.4782123097407831, -0.04420434948054936, 0.230183393591521, -0.1632088334076886, -0.9978103263130208, -0.09124644184783269, 1.0, 0.3213420342503811, 0.9979942927239636, -0.7077367545462593, -0.08487356730015619, 0.9978298335763917, 0.7406561662170619, -0.6470716841179488, -0.3267507658289843, -0.8874366901092591], [0.6585841490978075, 0.022596722887403102, 0.01474740968968795, -0.010249518054269116, 0.9089353144068654, -0.6810484677420654, 0.8327742531979637, -0.5608078997730751, -0.016605941880249452, 0.9999999997744673, 0.3059438680770156, -0.9916896604206065, -0.7389873127650094, -1.0, 0.7339179039430728, 0.4149416108405503, -0.048052258396035004, 0.8067757839855721, 1.0, -0.41309940926788913, 0.7484789932988886, 0.5820143171084048, -0.8600174432181426, 0.08529651062160563, 0.11156929613545008, -0.9991658669446087, 0.10046568341270985, 0.7271797073452019, 0.21179577264654512, -0.9999996220802897, 0.8447108165222823, 0.7791946356551249, 0.07512266135218681, 0.24470972787364997, 0.6033978414658059, 0.4411061849410941, 0.34324276993193303, -0.02604760269195248, -0.4780090082331776, -0.3585465788359367, 0.10276024739487843, 0.22612569010295452, -1.0, -0.9587861350381444, -0.5573138702107834, -0.21400264421811405, 0.991501934436449, -0.14914531781511464, 0.3481768661402985, -0.330058397326829, -0.5722556717001656, 0.6595129495268945, -0.10013064010026779, -0.3068523023363108, -0.19949129106776758, -0.6141839579974884, -0.10485111396039594, 0.46056135899119, -0.3135434218445469, -0.9588837149305481, 0.35870464695886517, -0.011230959319098796, 0.3371707055612934, -0.6611449045937517, 0.39615972378022285, -0.36829684684435693, -0.4225400552019931, 0.33049042999069533, 0.43814556843599606, -0.6729698187261856, 0.4612870930797468, 0.8253124173810801, 0.7147554311242821, -0.3757859964212583, -0.2715516798089649, -0.9997415447948829, -0.9397346461470629, 0.7897381100319264, 0.43604397310546605, -0.32679827254136173, 0.06489762356528249, -0.8021634286427752, 0.0911627410339711, -0.9999999999999996], [-0.10192220236118246, 0.16941483369178606, -0.40231838344123505, 0.8077197946079128, 0.06299018964899808, -0.457360748340359, -1.0, 0.9823361388555721, 0.8401072146479429, -0.1361316287176209, 0.8404923974738723, 0.11821329573434877, -0.2022552026956798, -0.8356841704930438, -0.3372636269277777, 0.3331664271690655, 0.534985687844201, -0.3384099113374202, 0.9990600858309349, 0.8044028390098537, 0.7360235626881434, -0.29175179865354833, 0.999982192547509, -0.31231227082141344, 0.11058586859040659, 0.3875626667470846, -0.8917594791785955, -0.5291651369911595, 0.3208014369776023, -0.11502901007696881, -0.8314995916930605, 0.9120736179609134, -0.998210050182158, -0.6064801774026323, -0.6545056075632256, -0.9813486032436891, -0.1318570184932926, -0.35215210866427493, -0.8192093288752573, -0.7490467351319123, 0.7015700788586345, -0.9974024601593188, -0.9135850309027209, -0.26692137868344157, -0.3391931472397157, -0.9999999999999999, -0.12745004865324272, 0.8001091854420931, 0.11027072337669688, 0.0524056768892289, -0.22185191921886654, 0.3883690353892596, -0.05544562767536253, 0.13205345954932635, 0.5671765264174147, 0.5223938579999247, 0.9360803247409474, 0.5285657684029136, 0.803705226853995, -0.9998782199244383, 0.9881640903648047, -0.6831568680336964, -0.475501753221559, 0.5883854264496885, 0.9999929070062237, 0.1656134621523793, 0.6845400331174699, 0.9994694946777135, 0.9997695027419757, 0.6693625316365587, 0.8509453998534413, -0.6747330269992354, -0.9965079544154823, -0.08380148496427339, 0.027825968462883127, 0.6952697266221104, -0.19609185059012663, 0.09022960055026225, 0.8008106113826569, 0.7642987303176171, 0.9975847825965315, 0.3240273303082687, -0.31034984533615817, -1.0]], "w2": [[-0.24771514071256903, 0.2150532522227709, 0.999835338090884, -0.45731922896635685, 0.9393413166571439, 0.11265091412483906, 0.7522108529192035, -0.25965799733899264, -0.8682417385042078], [0.09565035538660553, -0.492737519750057, -0.8278008220577171, -0.32730431810620536, -0.8095619320728885, 0.5453221773674265, 0.7544734285725827, -0.9996636671631007, -0.053247363320610475], [0.686420411483027, 0.6287600808955081, -0.6885188942112698, -0.19462586201995, 0.830329103540719, -0.32151394648270254, 0.70663989473665, 0.1264863888643929, 0.7078853876965355], [0.42041554407713866, 0.9999884661175292, 0.7905340085740297, -0.5554703196473987, 0.6238331155570018, -0.9999146518965198, 0.16412654866973514, -0.1446041516607303, 0.40579982212766946], [-0.8422333286296, 0.8065820794790609, -0.02034332138573873, 0.2913083245096786, -0.691433186393671, -0.13214491181808224, 0.04257492964249941, 0.9999999956501905, 0.1321722849461648], [0.6733808342358837, -0.893641843459975, 0.828415098123594, 0.5428872947541569, 0.6518942630548251, 0.8294052097046013, -0.6188913827896007, 0.015695868910030695, -0.8441820357587655], [0.9425339737979841, -0.07658775626937994, -0.31836943853212385, 0.6327085517206887, -0.924248339205117, 0.06373571428119199, -0.8939249520430689, 0.21973482676528916, -0.9999999999999999]], "b1": [[0.8033292942163106], [0.907052215872494], [0.6785160878004308], [-0.594026407500562], [-0.43109008955098815], [0.17109597794801445], [-0.21581089677654958], [0.06807992837547487], [0.22877442048105007]], "b2": [[-0.5083821443217067], [-0.8788956727505134], [0.25557793927433825], [0.8104828258449074], [0.6080564544447898], [-1.0], [0.1681261325718215]], "fitness": 2334.0, "best_pos": 7.0, "best_status": "tall", "score": 1000.0}