{"w1": [[-0.4649662103212379, -0.16145178824662174, 0.5683606198279486, -1.0, -0.7764460672610793, -0.015710721788367826, 0.33984376391073184, 0.656567395499258, -0.5413437133043905, -0.5825236938050041, -0.1352430376242249, -0.39634556206426097, 0.14387395177879259, -0.8938979177124189, -0.91997194534471, -0.23249960585872068, 0.01030410940234116, 0.015557002219130828, -0.2968471561592178, 0.5542455176740657, -0.15983654831365332, -0.7801311191374588, -0.3024212361574346, 0.2275866070808581, -0.0676447359204767, 0.11342265045510411, 0.9999996455249152, 0.45636513810819984, 0.3429949995056199, 0.2996443109157772, -0.43890143969412293, -0.6560501612960774, 0.06834556654655834, 0.3755234096711899, 0.267468618357929, 0.8030737425652006, 0.4937999991224309, 0.3360318796440696, 0.371285660782343, -0.6613005830742091, 0.5177717449183579, 1.0, -0.5579121647749155, -0.6683977072159404, 0.59148677871045, 0.380279633306606, -0.14910312150649466, -0.33555488032884295, 0.9913613311402695, 0.5006628650006039, 0.8581917258086763, 0.19587318901734385, -0.8102249524311059, -0.007410448143593551, 0.41936319392215093, 0.49696192445323967, -0.9999953279981922, -0.6710602467778328, -0.7790480759904624, -0.6213363795077482, 0.0028857950016906915, 1.0, -0.14204059954720843, 0.812971053279401, 0.4873315038408503, 0.9706095659480196, 0.15235101058587994, 1.0, 0.09913593666106028, -0.30539288339851167, 0.6546682322209354, -0.6195270842073346, -0.3018393529197977, -1.0, -0.2597146366829887, -0.29996675016482754, -0.18394039586976607, -1.0, -0.9672687829475984, -0.7867415768564368, 0.016541551970759398, -0.9857745213814524, 0.5846290031671977, 0.3763391151372834], [0.09310248539905933, 0.9718851254765045, -0.2976486327892354, -0.6797892623085938, 0.5597764178101409, -0.9999550010331104, -0.4332463128042298, -0.9103274456897373, 0.677043383410844, 0.4254306934026964, -0.2193424719999327, -0.14117666563275294, -0.9986215694191056, -0.6386686883968979, -0.972191362243771, 0.04949252600692844, -0.9819524245048268, -0.47513401248936177, -0.9890076482360197, -0.2087584325787722, -0.06171913519431829, 0.3575632959200806, -0.3680721643746843, -0.40665158029780135, 0.9416673276867312, 0.26475658962509035, -0.994912250563828, 0.4477589266177292, 0.4921803482738558, 0.15956512406746512, 0.6336002224725468, -0.5149846080709422, 0.4372139589774626, 0.9994831088297869, -0.6292141325943854, -0.9972377658122742, -0.8168627624073029, 0.8757774642846414, -0.6187033866380839, -0.06308475590123162, 0.999817597937578, 0.1503867937920727, 1.0, 0.1955000135295673, 0.7087525970557718, 0.6030227154023365, 0.19349932229772127, 0.9999999999461122, 0.18715333929507236, -0.22194734417657416, -0.41670594146621276, -0.09928051183080648, 0.7880929152204611, 0.23251976922705123, 0.9581334630618024, 0.9982232584323223, 0.08974224179402195, 0.43261621026568314, -0.62841703662103, -0.46415770340167894, -0.8321203422511836, -0.07357978051722772, 0.7336599497638785, 0.7657316828729379, -0.8577768519218926, -0.37009404490395403, 0.4870860527291431, 0.5378808723378571, 0.22229270758924694, 0.19332911994038646, 0.5102372772106581, -0.6295442956847097, 0.8494964070953427, -0.06340940208879789, 0.4204039032660294, -0.8184275879743, -0.6183017841039107, -0.19459365181996044, 0.7352771982615607, -0.6076028893515388, 0.029764931245757076, -0.9999857035122811, -0.49286024797285205, -0.9437487380453873], [0.7999217732522608, -0.8157556104579712, -0.5405353188882076, 0.25628509946230266, 0.14740904178889452, 0.7785438324784174, -0.9832355165599762, 0.6218312106305774, 0.9769948351095554, -0.6591666721502325, 0.48421777423493567, 0.10841264607518528, -0.39189347744809594, -0.5522539511530349, -0.12318888208204203, 0.27700854998889923, -0.6038414642562598, -0.4401806621813389, -0.12190306506003344, -0.9332898105465999, 0.7797072798692541, 0.23498064452733614, -0.29345216815570807, 0.7897006167245911, -0.67797186046948, -0.2037391680104108, -0.7316385039172254, -0.7386741628035287, -0.10134931055421624, 0.40600011147627896, 0.3188316812181099, -0.4542979647254546, 0.8795493918581075, 0.3272507266679007, -0.6505861414743206, 0.999986690702778, -0.8918139278564655, 0.8187611816246686, -0.9545840630574585, 0.9647182588678014, 0.16831543150885106, 0.14416208770361144, -0.9999986435138328, -0.05279373555463381, -0.5965553557850446, 0.7473829512217482, 0.8291219881784667, -0.5890918094304244, -0.9999988781697652, 0.9972987301179431, 0.9999999999999999, 0.9962652672119198, -0.7535861926802311, 0.3622724180724357, -0.6004165620817632, 0.9999999999999999, -0.3873503232227809, -0.9999323485705903, 0.47462214176871537, 0.10698972915099798, -0.2931806152192001, -0.5639340497231945, -0.43269044108732363, 0.8814253259062207, 0.7307685039115389, -0.1940272999158144, -0.8736342975284792, 0.4419098109928325, -0.6305679366788817, -0.33955845705409127, -0.5324289341409106, -0.9896416997988124, -0.1808436848197202, 0.3271907896068852, 0.5838157574886025, -0.9999534044259863, 0.3157116422676722, 0.027354566438049004, -0.04163313334898856, 0.028595907134054667, 0.41590399137017475, 0.20191551735546687, 0.5095963363298991, -0.47367941030016253], [-0.35576844902519905, 0.7628835136891724, 0.5863041617274931, -0.8887469683524771, 0.5872035789231548, -0.5889163589414502, 0.45348261364296505, 0.20453545705855733, 0.7834619338556363, -0.8037665718903213, 0.3649721968364563, -0.8732609114560272, 0.008076899627870148, 0.030131953273013063, -0.47615067095787805, 0.357263874418665, -0.42714017332500687, 0.9975507981864348, -0.9949097951020882, -0.041337443254134625, 0.5178800082920627, 0.29801337607862344, -0.5759609409062014, -0.9999998762952695, -1.0, 0.3044798465246369, -0.5947177776706429, -0.07781476015776997, -1.0, -0.7363872316761217, -1.0, 0.9976998077332984, 0.7658498337766044, 0.8300420314605335, 0.19138389803554395, 0.5958375677022351, 0.3151520149622331, 0.9309499548634177, 1.0, 0.18674468480491377, 0.42553952666996153, -0.2500631912984109, 0.7313294132541921, 0.15664017643241882, -0.017443703811778052, -0.3703280961689734, 0.7782452642036121, 0.5555355541063134, -0.9992235883295518, 0.08762534768761705, 0.6593998918941841, 0.3080327373332546, 0.2617807669525166, -0.7143854782415671, 0.022302761286530817, -0.9415312804867878, -0.4664220522035255, 0.17503313480108784, 0.12130666023783143, -0.6268492883573905, -0.5719222465099131, 0.37952451023785927, -0.31876434814997834, -0.09401612681544433, -0.26648852547609925, -0.004356994274959111, 0.8474861273823026, 0.7836929583810807, -0.6585635252260803, -0.41768805387646646, -0.8245848593194589, -0.3117728225078215, -0.6006693356296958, 0.21773303166768113, 0.14221501040474946, -0.5489362340702804, -0.18131492851351472, 0.0444168973030943, -0.2821257815332361, -0.18872046181023508, 0.8998501409809329, -0.3797842541554621, -0.7946057118488202, -0.41745251783316517], [0.7328511754023815, 0.4968527522663573, 0.16471443292981136, -0.8415576307551853, -0.2852940198650044, 0.4408173970004893, -0.10023042059636174, -0.5277430416223596, 0.92682824443063, -0.7375412588680516, -0.9703597628325166, -0.46886993741533856, -0.13332666606425536, -0.8400083374271955, -0.24155685426659118, -0.2491499846151196, 0.3115160119664301, -0.253458034782759, -0.795368106229, 0.7722975119324132, -0.3129936840885865, -0.17162710472742604, -0.9999999999999998, -0.291839267581474, -0.5568030084044441, -0.9245259651886509, 0.9390270400213018, -0.3241410774541447, -0.6819876006960893, 0.09361860424255432, 0.11050744829877727, 0.05381321246867321, 0.6701040683281517, 0.05754772260444744, 0.7699958889396947, 0.47266940085060477, -0.43801442470147606, -0.9999951077489718, -0.2667561724692668, 0.9981094556180979, 1.0, 0.23601684130134987, -0.9240593215312858, 0.15857554635721394, -0.7348315132657626, -0.6650406382039309, -0.5137174079045408, -0.24691972499497844, -0.12268501731493393, 0.3489984495831811, 1.0, 0.9996281800624375, 0.7378776887964376, 0.9999875532109109, -0.4459955322231007, 0.15865035348154985, 0.019113773154066815, -0.9999189988034838, -0.348453300930954, 1.0, -0.5307357528150107, -0.9999999999999996, 0.026321605794602576, -0.629626497961794, -0.9999999999999992, -0.511874716871424, 0.22903542852823905, 0.4494538154199196, -0.07961297925198611, -0.13749051426906755, -0.9970311800712699, 0.19659289337919617, -0.40247153121864365, 0.5783009357706783, -1.0, 0.999997666016101, 0.9999999999527042, -0.06404840047137604, -0.22576706756844603, -0.8621881985798554, 0.37222179787728665, 0.11458060559103378, -0.9134129271865402, 0.8764135034294421], [0.7266212194090371, -0.7430914795485409, -0.4145597979663622, 0.8499655448870969, 0.09790464894452791, -0.9957739969574205, -0.6396462945154108, -0.8783541129738984, -0.41557460719850997, 0.0034338841134174906, -0.5374695274329817, 0.5586695715240094, 0.39051664354383747, -0.8425795563134454, -0.9673571396144367, 0.23444667878355246, -0.011679839992138395, 0.6148921858328743, 0.5935483982263662, -0.7771328758769577, 0.22260343982311262, 0.2562549380808207, 0.6435849591612246, 0.23390665022300378, -0.5469816526860605, -0.16862397578172228, -0.9511178590629275, -0.09232647323833049, 0.276344533686296, 0.9436518682739602, 0.4826906342449776, 0.3394510436015416, -0.806340701506808, 0.7865304051562396, 0.49663932729272176, 0.5391764854912752, 0.066683414505102, 0.003361031635715314, -0.22674550851601516, 0.7458644774136204, -0.9965330841152737, -0.2038972237606575, 0.40972132927065247, -0.04327298719439908, 0.9819538749137166, 0.8009047824146196, 0.9137755778573231, 0.5295250010144166, 0.14404891466494069, 0.5191937654532599, -0.9374842886951382, 0.48544953778959243, 0.2178937550853663, -0.013608495708931396, -0.1964642652219438, 0.3258378839078519, -0.6830940328111966, -0.1933701425623811, -0.6642594088105248, 0.5198847530358952, 0.007707529473674923, 0.6187956825525219, 0.25766165595197593, 0.3528186764245369, 0.6758622606843244, 0.9918573985790762, -0.7047334987019194, 0.012294636185347388, -0.4007887200993158, -0.16672008626375462, -0.42126119281806557, -0.12298399585039538, -0.5402577355489391, -0.8154879486954039, 0.13205295343415163, -0.6750897297387611, -0.8598221366756694, 0.13613329395480095, -0.3279621802893171, -0.6171667119177953, -0.25218408832405914, -0.279329322806952, -0.459520693008733, 0.06896730419886889], [0.9980312553603262, 0.09238702805788179, -0.5135997681988452, -0.1364438825115928, 0.6059552347551205, 0.4740543039861952, 0.9985904082130782, 0.11966500998805618, 0.3929506214624852, 0.6730556551057048, 0.7593059904952574, -0.33269923542903, 0.7024265323869425, 0.999384084693663, 0.4115732067956936, -0.12269658424791544, -0.9916279372345252, -0.8706636684692546, -0.6728567296322597, 0.2657239145659373, 0.19399212734595753, -0.7612977164570033, 0.42930895363979227, -0.9950615445025474, -0.4282337846971947, 0.8540278435115067, -0.9094184998297057, 0.2834291606094515, 0.48840888353032685, -0.39323695320075674, -0.8707122815137769, 0.9999999999999997, -0.022649294847869775, -0.4467284584951712, 0.49678946527295426, 0.9999679711686617, -0.7749823100766431, 0.6518361256693858, 0.4993808215298827, -0.34077395623399226, -1.0, -0.726015761856923, 0.06440477036984357, 0.5954065847645185, -0.2639818022492278, -0.9508426612715406, -0.3450364607772134, -0.4772261332547883, -0.5751588879260149, 0.3034852398085993, -0.21706575226926547, 0.017863792799935777, 0.6098320359776216, 0.44238586737718777, -0.253536172391935, 0.31128268906220186, 0.32369870519829474, 0.2769612376796623, -0.9999633884171526, 0.2869003379574252, -0.37833791959620217, -0.041132705072918094, -0.33665166412840003, -0.038479539069589334, 0.286381878222146, 0.3641716313899158, 0.5443105343113079, 0.06304078833841614, 0.4716504228758642, -0.044197129386437106, 0.2305745769131834, -0.1632088540263525, -0.9966924578107602, -0.0990947123885224, 0.9998543331480367, 0.3224919874986779, 0.9979942367324726, -0.7077367545346109, -0.08487356813710477, 0.9978298335772366, 0.7406827962799996, -0.7961252090710366, -0.32650376036605455, -0.8874288152576806], [0.6585841526324864, 0.023725792118484558, 0.014327897753594186, -0.010249556430090935, 1.0, -0.8374091979815167, 0.8327657617565382, -0.7445392509544471, -0.01673245299498496, 1.0, 0.30594369697843776, -0.9975368976289134, -0.7389844245163076, -0.9999999999999999, 0.7339096836744767, 0.4135089591276174, -0.04806281201363369, 1.0, 1.0, -0.41060760806289837, 0.7484789850658876, 0.582014749990552, -0.5550225252233136, 0.0852881010308826, 0.3792991172432346, -0.999170847537682, 0.100467162841195, 0.7271797061576373, 0.025672494408764523, -1.0, 0.8447108983127148, 0.779194684738484, 0.07512266135176435, -0.03834248108211041, 0.6148092475716711, 0.4411306496616505, 0.3432464976744739, -0.02607707813480791, -0.4776530044473542, -0.3585345488562466, 0.1951888452274667, 0.22612569195298643, -0.6488667143604313, -0.9587897939639654, -0.5573154975512462, -0.2946705226412922, 0.991501936640318, -0.14897008588842062, 0.3501386954282194, -0.32783605188050086, -0.5722653129061379, 0.6595133831668201, -0.11018484688315551, -0.3068522989925151, 0.213784143319643, -0.6141839546044509, -0.21977485665268454, 0.46056123047941705, -0.31237574848376937, -0.7880757694928671, 0.35870500399055943, -0.011230965571874868, 0.3371707055446915, -0.6611530783595204, 0.8316907926107556, -0.42320191377518285, -0.4225400199300511, 0.38128361345477363, 0.43814539557468024, -0.6729817033561345, 0.4614521988243937, 0.40347248125948004, 0.7124670735440221, -0.37570904501629393, -0.2715516417303493, -0.9997415349994568, -0.9397315379388664, 0.7897342108396443, 0.375632584465254, -0.32679739735288876, 0.06489855493379769, -0.8021644803646061, 0.09116313784598733, -0.9999999999999999], [0.0237477112753975, 0.17139497331249623, -0.40232970775651383, 0.8077106964414527, 0.0629901896458835, -0.4584586102371961, -0.6719419247284426, 0.9824229904632501, 0.840106018633548, -0.07020145407867169, 0.8385107627190914, 0.11776361061612864, -0.0872142076198126, -0.8356836645147973, -0.33726365357496213, 0.3331446577299751, 0.534983891129375, -0.27486642699647984, 1.0, 0.8044028390100912, 0.7360643426697664, -0.2917513231747342, 0.9999821934763445, -0.3121594682483591, 0.41916243903159656, 0.3875174438831026, -0.9994439113968961, -0.5291651370174292, 0.3208014375723911, -0.11502916511572443, -0.8314995926829001, 0.9120736179438742, -0.7897253031798845, -0.6083499897822533, -0.6545056127231388, -0.9813378135902536, -0.1318575846016305, -0.3518509194392561, -0.8192093295425898, -0.7494185015789514, 0.6927712601926725, -0.9974026008342268, -0.9124161017071367, 0.02664133501310159, -0.33919314166447256, -1.0, -0.12581193745010974, 0.8001147543549444, 0.11027072456228762, 0.2573475138432526, -0.22030835574287888, 0.3886595814280617, -0.05377800631900229, 0.13205345954935369, 0.567176524237998, 0.5224005721918269, 0.9360802990305835, 0.528564573736283, 0.8037134001888406, -0.9998789405429991, 0.9881640903664811, -0.683130111119337, -0.471889932602453, 0.5908361808621726, 0.9999929175355142, 0.16563557487460234, 0.6845400331196848, 1.0, 0.9997695252939165, 0.9998767102834314, 0.8509275506916264, -0.6772937944949134, -0.996353960703401, -0.083799320184756, 0.02782594810750786, 0.6952818773105879, -0.19609182856928764, 0.054203419050603115, 0.8008106210722131, 0.7642987199693326, 0.997584782664825, 0.3240288377480376, -0.1827518627076613, -1.0]], "w2": [[-0.24771514426223254, 0.21495927275032672, 0.9998387976865131, -0.45731875873838174, 0.939341305622246, 0.11265088314217198, 0.7522108529189987, -0.25965802352438533, -0.868247899592976], [0.09565027269739353, -0.6945022867806182, -0.827800848868002, -0.3266508182729473, -0.8095619313031105, 0.5453221600152856, 0.7434544626583588, -0.9996636662972256, -0.21969614484141448], [0.6868496535442236, 0.8809850707995969, -0.6735024297624241, -0.10524304750430258, 0.9996152748902422, -0.2839085549395131, 0.706645471170733, 0.12652553897711807, 0.7078811849984202], [0.42042973163109393, 1.0, 0.5895165029872306, -0.5554702744678763, 0.6238334365127465, -0.9989417078799923, 0.16412654866971937, -0.14460330583782088, 0.40580135309901183], [-0.8422327973718798, 0.8065820858853696, 0.007017280700363225, 0.2913137280210012, -0.5515850683031586, -0.13214490929339917, 0.04257543335222069, 0.9432965975799451, 0.10859233427772852], [0.6733899458308861, -0.8936418434856476, 0.9733509960795436, 0.5425301100727961, 0.651885639180061, 0.8292953522371054, -0.6188913919316718, 0.26349511678237525, -0.8441820356096266], [0.9425343602169869, -0.15905771034121796, -0.31836764506806814, 0.7351417846183753, -0.9243978083880515, 0.0637357062549058, -0.8940857208720404, 0.21973413966783775, -1.0]], "b1": [[0.8033292942149577], [0.9070547290066963], [0.6785181171679506], [-1.0], [-0.5917177976559477], [0.1710966182991128], [-0.21581109118307293], [0.06822820649261352], [0.2262422707627762]], "b2": [[-0.44175565023276075], [-0.8789025711597794], [0.2555779392743375], [0.7679004874878874], [0.6458004902114632], [-0.9999999999999998], [0.16812617419767797]], "fitness": 439.0, "best_pos": 7.0, "best_status": "small", "score": 200.0}