{"w1": [[-0.4633805777031552, -0.16701115050854842, 0.5686531702920626, -0.9999999999999998, -0.849406516661215, -0.015214434086604894, 0.15159881482917523, 0.6569098384302158, -0.5405517782673771, -0.4477066544509195, -0.13626863067963446, -0.7907081359669188, 0.14385124268902572, -0.8938397263538707, -0.9198772599104391, -0.23249907791542931, 0.01092977647459493, 0.015561359550714084, -0.6008093672241601, 0.5552188567232658, -0.1645569587348745, -0.8549474926648745, -0.30242539635005095, 0.3070179349241925, -0.014595089167498682, -0.07082209087673158, 0.9999987958131958, 0.1478888774701173, 0.28352183042225937, 0.29992084662712437, -0.1990543870579422, -0.6560553016861471, 0.0682733824968624, 0.3755215738080792, 0.2674727824445688, 0.9185408067061599, 0.5496041386735181, 0.3241239923326156, 0.3712925635745106, -0.549626011226981, 0.5177804844040172, 0.7882486685626096, -0.5579131388222615, -0.6676725303867228, 0.9932125264120045, 0.3798257732665874, -0.14918545902892552, -0.374359966429617, 0.9913612874022746, 0.47383786471465117, 0.8575691488483941, 0.19617213229706684, -0.8134072659221403, -0.23419439775268502, 0.4194703469828393, 0.40230374297983956, -0.9999968056881874, -0.671060197813522, -0.7790480740874637, -0.6217787377985222, 0.3590641056276122, 0.9999999999999999, -0.14346237619496718, 0.812583580999492, 0.5456583886510435, 0.9706098789578607, 0.15235086200822087, 1.0, 0.10085532019136445, -0.3437439379032135, 1.0, -0.4396425415659387, -0.301865747280976, -1.0, -0.11907507610109805, -0.2982096418897269, -0.18412696343514043, -1.0, -0.96745579377444, -0.7867415648878637, -0.16880451260856347, -0.9858063776778888, 0.6032500497775316, 0.37633890298497125], [-0.06159618354969999, 0.9718841902594524, -0.2972826209519522, -0.6938207551860152, 0.5612256744574352, -0.9609762979279168, -0.3012232418404553, -1.0, 0.6765735524681195, 0.4254304459708119, -0.21992828752258803, -0.23740349442735142, -0.9986165810360637, -0.6386669992335011, -0.9999593553872588, 0.043039348035276696, -0.9789784430243987, -0.3954762734928867, -1.0, -0.20875846059389486, -0.2991895686716796, 0.3565293199145518, -0.2735016493376057, -0.40665141284960554, 0.9393933312215117, 0.26430270189765814, -0.8288469615614551, 0.44849739347160755, 0.3708102657200543, 0.15956512574526577, 0.9737433079235149, -0.26141560093001026, 0.4396423430121162, 0.9998272259127214, -0.6292185949827168, -0.9972395209915692, -0.8168626666736565, 0.8757627723566231, -0.6185435650895177, -0.06288014778709147, 0.9684684661299663, 0.15036522723846396, 0.9998029558588226, 0.19578707490657624, 0.5336360993404746, 0.6022882554823421, 0.1936798640775774, 0.9999999999467333, 0.18719255992235534, -0.22194734674047525, -0.4159361054579021, -0.09914039469732339, 0.9875606194364112, 0.23252019351628272, 0.9747088583218867, 0.9688918052509579, 0.09108965524334668, 0.8307499203525751, -0.6292899260130416, -0.46341360687807004, -0.8321312236482362, -0.07396806012424245, 0.7818047673978533, 0.7505303375118354, -0.8573921000628046, -0.37009404250346045, 0.554254349930755, 0.5378808715453496, 0.21647262460655756, 0.19333142482127977, 0.395463250086739, -0.6295319892507997, 0.8516018923717603, 0.18764767695234189, 0.42040390290381113, -0.8181184645613452, -0.2736495006829343, -0.14009772947089696, 0.7359024423958396, -0.6076013438835179, -0.07524971634167149, -0.9999998602485038, -0.4147506598065091, -0.7388522108912893], [0.8006187478960405, -0.812967660230722, -0.5405352248624659, -0.17834553878746298, 0.14738560387675878, 0.776034779184594, -0.7847191863051529, 0.6218312106307458, 1.0, -0.6568024711818943, 0.628314627830709, 0.19779115376712694, -0.20120916282059909, -0.35807625956295214, -0.11166221898287672, 0.04308122910216276, -0.23136331281491115, -0.44018066082321194, -0.1219115598429344, -0.9104927765357629, 0.7770046458778994, 0.23491351475185782, -0.38042147126836207, 0.7897008271626041, -0.3658638600761477, -0.20367167551818918, -0.7316385205066646, -0.738771568551084, 0.3008482703611022, 0.4059830901885281, 0.3199112715181293, -0.6639660144121894, 0.8793892417127187, 0.32665598073137125, -0.5333739533169202, 1.0, -0.8913754755970685, 0.8213305861871592, -0.9546234239030218, 0.9645730407335519, 0.16864520175648612, 0.14364181006891555, -0.9999986436061032, -0.03274241009338483, -0.5965549827917142, 0.7476153150957516, 0.8291296671791234, -0.4355741444321569, -0.8664046372625479, 0.9999513031637411, 0.8206318342999959, 0.996265323837337, -0.7529568061772247, 0.36227151196148577, -0.7470294910088441, 1.0, -0.6622392987717144, -1.0, 0.4746221490261976, 0.2156860294085306, -0.08162477785074004, -0.5637219940931709, -0.43467049968895755, 0.8809079998027394, 0.7307685063653669, -0.19421570259964682, -0.9609232252642121, 0.34669450601566254, -0.6304747089601047, -0.33955919792706746, -0.3689272577889373, -0.9897049906312435, -0.016306507185692817, 0.4591361144896237, 0.6980492384084482, -1.0, 0.31636147311819107, 0.028582102738340262, -0.37116667330742337, -0.01184284215001108, 0.47072610939268755, 0.2019275652010792, 0.5098805193295504, -0.014202315885529214], [-0.3557776380808627, 0.76200643934562, 0.5076193540784368, -1.0, 0.5872033393564104, -0.5891294880487309, 0.49806575815783644, 0.20453449347351443, 0.7837177020033433, -0.6780978247775437, 0.2430324371368052, -0.7791674177565132, 0.12711510748225763, 0.0301319598791356, -0.47615067232236846, 0.3572638726992416, -0.6639645565004645, 0.9975394626457255, -0.9951665628255101, 0.004978070501062346, 0.5178733560627368, 0.2980145773295462, -0.39289565394828496, -0.8267254834141682, -1.0, 0.30452403402911765, -0.5946848926041999, -0.0789762428467143, -0.6627889040559246, -0.7363884073275831, -0.8905576743255571, 0.9999979673329444, 0.7648459711464278, 0.7824072196174989, 0.19129607008708918, 0.7107547002784654, 0.08701053626790542, 0.9999999999999999, 0.8716049912035302, 0.18942925050626405, 0.5398819076440149, -0.1911316751782099, 0.5315623793408601, -0.1849870419486089, -0.019102476176592817, -0.4725899260842597, 0.7782038354109624, 0.5541735212316412, -0.99921650822463, 0.0876301545225642, 0.6920356270147735, 0.6310612063579294, 0.26167688217628216, -0.6506925617033358, 0.022302442709746077, -0.9420001415812067, -0.22639899491350876, 0.17503311494400348, 0.03741320119125176, -0.6257540164529373, -0.1751008554237204, 0.07145522239835601, -0.3191714866648809, -0.09141584151295229, -0.2664871777275191, -0.004357006196341559, 0.9314605279288011, 0.7835302670167404, -0.6583774811320028, -0.4176897675660054, -0.6832076063972974, -0.5866938769416645, -0.6020598416773673, 0.21773280215467514, 0.18662048268746428, -0.5465453634996528, -0.18109700498716247, 0.04441687516969908, -0.2963134682305443, -0.18602227264998492, 0.9020267469185339, -0.17544941604289593, -0.7200049168337903, -0.13523671394607858], [0.5168097884174525, 0.4968710178372804, 0.0890986918227184, -0.8415559473406028, -0.2847200168608818, 0.44537070511510146, -0.10023499582958167, -0.8658334031406089, 0.9249354087024038, -1.0, -0.9706061536396986, -0.4682861694059424, -0.3161729288141545, -0.8390249022531299, -0.2415506808954199, -0.23375660363941034, 0.27248603259914, -0.29278486144649507, -0.793951830117681, 0.7724186240173363, -0.7152224157865243, -0.21469573524823304, -0.9999999999999999, -0.2918402291759355, -0.5005898323803655, -0.7507403969147316, 0.9392482326474421, -0.3241380780355609, -0.6819876046117967, 0.0934738318479142, 0.11051688112298315, -0.15228133601877866, 0.6608361649861568, 0.36578574903241146, 0.7691786569499829, 0.48166496716800977, -0.43800224717977815, -0.9999993179239041, -0.550772899072584, 0.9981102479242369, 0.9958695770503633, 0.09533938919800214, -0.9248795058582971, 0.1581097846976537, -0.7358962399181432, -0.664185599309786, -0.5132089574384129, -0.24691973142432722, -0.13391366784944572, 0.34902831230939496, 0.9999999999999998, 0.9996283251164079, 0.9542383484118131, 0.9997829064313118, -0.44595047622035616, 0.159151077474398, 0.019133946945334608, -0.9736365028940734, -0.35015529723067107, 1.0, -0.5304456527392706, -0.9999999999999992, 0.026760666245896066, -0.5998378058276006, -0.9999999999999997, -0.5124600945731768, 0.22500932868908455, 0.4969722696156699, -0.08013710125287614, -0.30590282026984994, -0.9659046680251833, -0.12919400629418187, -0.40286205825834204, 0.5782108454312548, -0.8873433489036349, 0.999999999970317, 0.883624079666895, -0.06404836792403272, -0.06571860559681622, -0.8621881985772217, 0.3711188670483333, 0.1145855187675936, -0.9123114413045503, 0.6371794898311993], [0.7259806293638851, -0.3545219600913984, -0.20948152583241197, 0.8518816457201204, 0.09795225990961473, -0.9958784676966882, -0.6396862084377706, -0.8779762660999801, -0.5010287867195017, 0.004150563524250536, -0.7030748740129577, 0.5576531150717149, 0.39106256895152464, -0.8241204508000947, -1.0, 0.11156033550753183, 0.020787042500565945, 0.6130377843695403, 0.8669915907235002, -0.5814435253808539, 0.22260323744976407, 0.25674292653536596, 0.6448132699934974, 0.5110233805230779, -0.5464484328634012, -0.16782616122853883, -0.9515187838288639, -0.06687213571155431, 0.276282615730853, 0.8047637233473066, 0.7537462403716793, 0.33984268013690305, -0.9019999371668806, 0.8536128207022612, 0.4965539925294034, 0.5382335307239913, 0.06683213294873329, 0.0037603853420619068, -0.2267251614254578, 0.9221107819905812, -1.0, -0.20519043061003053, 0.6460432440795587, -0.043224986826259706, 0.9819538743899467, 0.8009860150955421, 0.8844362459880737, 0.266097808577935, 0.46692474715205845, 0.5202812250085503, -0.9377812621909983, 0.48874170796271676, 0.12978441531424323, -0.015330159574896843, -0.1973516041670707, 0.32586409974000463, -0.6830896108560918, -0.09149337252564571, -0.6643580141772607, 0.8577927127547712, 0.5817259266130912, 0.6187936326806877, 0.2576594350902292, 0.35281868927071297, 0.6758336509527814, 0.9919455984380576, -0.48019602795074556, 0.012551839244123423, -0.401803949319396, -0.16672008379953718, -0.3044553760554737, -0.12318028849090222, -0.5402573562422267, -0.8154907441627396, 0.13205295174706433, -0.6756191488961065, -0.7385840374084656, 0.13614450078762155, -0.3278600483974991, -0.6209005597264505, -0.24521017892423208, -0.47767618199948747, -0.4596506224060742, -0.1498926991110417], [0.9982132877456241, -0.024149038171901775, -0.5135997896226935, -0.13681003562928515, 0.605955189487503, 0.4740542947726042, 0.9999996934331281, 0.11974863205698097, 0.3929498634356373, 0.6734626126135829, 0.7590638331667419, -0.4543916674206765, 0.549029810852653, 0.9993848740007157, 0.4115732067915321, -0.12269476065359171, -0.9916278848578945, -0.8706636970658488, -0.7748320259812126, 0.27955774009087925, 0.5868594940817544, -0.9773560820743246, 0.4293089543229622, -0.995259861186858, -0.42883052168496066, 0.7369052516676977, -0.909418499434674, 0.2834289946678577, 0.4884048051337615, -0.3936585099861394, -0.4794653851313424, 0.9999999999999998, -0.02284850386228121, -0.4467013233269471, 0.6440987595170977, 0.9999999624591546, -0.7751235229710363, 0.6685465553275635, 0.49937214672725677, 0.050845145260370934, -1.0, -0.7262940110828867, 0.06624490466610022, 0.5954065426415095, -0.26364060675393464, -0.9508755649620295, -0.34443560183843813, -0.4743809925101944, -0.4393670746606175, 0.30417485874359124, -0.3860563493942234, 0.018044373275941404, 0.6955832784567529, 0.7207130291505294, -0.2535388529713538, 0.31006542602094334, 0.32369724643014863, 0.2770651779917925, -0.9999641030391226, 0.2869003394292154, -0.401148028921804, -0.040173278890630826, -0.33657699713222183, -0.03601068006806454, 0.28605860522908444, 0.5276451526503918, 0.5442993795417107, 0.055669660275302194, 0.75390884727718, -0.006306691040249099, 0.23043096058547596, -0.16327427563560898, -0.9999999921645526, -0.10177905945486959, 1.0, 0.32317190623696057, 0.9979977378504963, -0.7077367554483133, -0.08486414746007295, 0.997829835157127, 0.7445782256448787, -0.647165115008704, -0.17519863238487732, -0.8879749083390754], [0.6119002423270096, 0.022327585484341952, 0.4139101706579457, -0.010254206215804765, 0.9086632212874525, -0.8275380285890208, 0.46047146482149653, -0.22224247764625157, -0.01863395112493218, 1.0, 0.3059571044595214, -0.9434662446885188, -0.7387595172127402, -1.0, 0.7330816679658658, 0.4149562195426541, -0.04805433791318166, 0.37658990264479486, 0.9834204281881878, -0.561866430863263, 0.7484782305183472, 0.5818416941507198, -0.5550225160051975, 0.08630214292289803, 0.11275929345105248, -1.0, 0.10073710324587662, 0.7271796217601162, 0.2034691369782407, -0.9999999962216093, 0.7908631806630211, 0.7792024021262954, 0.23535109150837236, 0.24590124548075293, 0.6025424490980346, 0.4411096258961722, 0.3435734566848617, -0.029128110008172444, -0.47786693838626965, -0.3571556770135924, 0.23148635754024424, 0.226124684588205, -0.648786785579803, -0.9580645393408095, -0.3726555394453728, -0.09738664394887345, 0.9915014381668936, -0.14914894193765996, 0.35026691823606165, -0.3306324038838896, -0.33706709343151897, 0.6591315329752006, -0.11018484688273182, -0.4161995907095472, 0.2138157739494178, -0.6141820022114028, -0.10660867948839706, 0.46068951526274593, -0.3134688870153235, -0.7880819351973146, 0.35874540220370327, -0.011231965939884798, 0.33717069871412414, -0.27863122995493117, 0.397000992153995, -0.4232012847168714, -0.4225065138137036, 0.3302774853194674, 0.4381334744688677, -0.6698772693369023, 0.46299204563342666, 0.3408869989714109, 0.7129344783830487, -0.3757845323284146, -0.6054038481474551, -0.8868901797547977, -0.9400340907144841, 0.7903738125168426, 0.3756337373630396, -0.3267066714420185, 0.06510833982265272, -0.8019143953225342, 0.09126836856400537, -0.9999999999999997], [-0.10192220111449361, 0.6051093886171831, -0.36220882067352744, 0.8086765102726967, 0.06299018824557777, -0.2584095647441457, -0.8036306980066587, 0.6594525838269178, 1.0, 0.08847452006502014, 0.8399931282647066, 0.1182254290239065, -0.14751163783576476, -0.8355119665006727, -0.3372652203446762, 0.33455545688288785, 0.27986304884074537, -0.2748664949127607, 0.9990595850687363, 0.677083292490744, 0.7389152773264384, -0.29171938653397056, 0.9999822735191702, -0.3123272926293105, 0.4207202455331, 0.28861970877723186, -0.6260785066186616, -0.5291651287910539, 0.320800178550947, -0.11428160012867582, -0.8314981627874042, 0.775196332894241, -0.9105076808459153, -0.6065138306288186, -0.6545044637209098, -0.9821112185590739, -0.1311851017370006, -0.1308906803449424, -0.8192091822516843, -0.5388712065919892, 0.6422955128859564, -0.9973595959377667, -0.6431893733318761, -0.2693736205217447, -0.3391929437160084, -0.9999999999999999, -0.12745872544001505, 0.8105510927455196, 0.11027061990580796, 0.2372064439780622, -0.060941561415955324, 0.33554169801865974, 0.14443862747067387, 0.1320534595551687, 0.5671760166589249, 0.5235300268801725, 0.936093619382128, 0.5290629861416997, 0.33825466702979634, -0.9999967629804105, 1.0, -0.6812173937010552, -0.4756042667386552, 0.5886668660678531, 0.9999999961240704, 0.16789963585391598, 0.6845400335037419, 0.7712381931370412, 0.9997710794783845, 0.6684289835559184, 0.8496858815753239, -0.6761673620295026, -0.9965056548865305, -0.08411388559192844, 0.027832607338398044, 0.6942974532520664, -0.19608592186988252, 0.10908988148657331, 0.8008079130016696, 0.7642978135233519, 0.9975848040688953, 0.32339293860546364, -0.18275820788559896, -0.9666928607271283]], "w2": [[-0.2477145812269508, 0.21505241688021234, 0.9999981251714597, -0.45777730244758646, 0.9393453588364765, 0.11263469690198004, 0.5427663131486904, -0.259664234287252, -0.8675052225930356], [0.09563629974891523, -0.5424738593440677, -0.8277991984274798, -0.3279778420212146, -0.5290512148578602, 0.5453329416831554, 0.7549620652091655, -1.0, -0.05298715181737924], [0.6876625518874012, 0.8836429942885207, -0.6007482100985373, -0.19461672889278658, 0.8298600209028354, -0.283908546603434, 0.7073805795579688, 0.12672153455222923, 0.7092061164476713], [0.5640457943877892, 0.999999896536731, 0.5894913681563217, -0.5029079398068195, 0.6237419883136494, -0.9999149995372331, 0.1641265486714609, -0.14556949215689757, 0.4060176126638938], [-0.8423493738014262, 0.8065847284628663, 0.05452237570002486, 0.29281156936557695, -0.695247140545386, -0.1321436417022038, 0.042431497008082304, 0.9999999627676743, 0.13185075886360764], [0.672566764411636, -0.8936418367717824, 0.8534755749431518, 0.9572567920851857, 0.6525463441755471, 0.8300092755764199, -0.618894467536974, 0.015693682075238243, -0.8441820095031295], [0.9423855811007474, -0.07689385612455593, -0.31802785402019523, 0.6301753236600287, -0.9246451976773089, 0.06373794774366856, -0.8940231351981066, 0.21992083768476858, -1.0]], "b1": [[0.8033293050710679], [0.9067843321173157], [0.6779504557343727], [-0.593981895695478], [-0.43109162596818057], [0.17096610119092098], [-0.21580261084198377], [0.06808949144093641], [0.22675595524514994]], "b2": [[-0.5078233141223444], [-0.8796825480505203], [0.2555779392746696], [0.8068554170983727], [0.6974723042571112], [-0.9999999999999999], [0.1681276076240703]], "fitness": 439.0, "best_pos": 7.0, "best_status": "small", "score": 200.0}