{"w1": [[-0.4830560437960325, 0.6644819143011618, -0.0748126994711937, 0.3829051580101658, -0.5825402491367925, 0.5481909821972876, -0.7630692359716885, -0.5292262626491185, -0.3980574277395737, 0.33503660858032164, -0.03335299319243693, -0.517359675198015, 0.41454307512463645, -0.9792599868102165, 0.06643268404840295, 0.3223311291498925, -0.18332918198442838, -0.8948568767136356, 0.4078674623029717, -0.9713927652178636, -0.540283827893461, 0.8992482792267971, -0.09907359119590127, 0.05340147197759831, -0.23173066963082464, 0.9393859229134979, 0.43038238316124056, 0.6097641475049882, -0.25450171734064614, -0.0020945974001430278, -0.6765193659461249, 0.20351137316635814, 0.23804296792567609, -0.31574439421066175, 0.5005050362014648, -0.844405872567739, -0.6485724916477232, 0.9992152489502022, -0.0369624762822014, -0.5845066489516695, 0.8017701245217507, -0.021336723127359004, 0.5310833649545907, -0.47078648406285883, -0.569094455935638, 0.3493715549899491, 0.7237385353577616, -0.11656169822257646, 0.03601309188366631, 0.4188049775101842, -0.3706429199475282, -1.0, 0.9262692131949118, -0.3125825223777008, -0.34965800858226875, -0.9999999876272931, -0.42401453306764814, 0.999999999898962, 0.5185621534440543, -0.17793347196987722, 0.2246960393173215, 0.6655930859744135, 0.05687374586776536, 0.38974885801078785, -0.12559300804812937, -0.5799560616300058, -0.04100772274682, 1.0, -0.44612633652988926, 0.6541824997176853, -0.9302059618176494, -0.27608334545737073, -0.9983320590467021, -0.7818084709380085, -0.991444425726318, -0.9999999999999984, 0.021184686896239067, 0.158194849237839, 0.8475687176687974, -0.6222738733673485, -0.16519280449032955, -0.13745575512620964, 0.7333597108332424, -0.820198287538431], [-0.23089009864408688, -0.9992071697400428, 0.6968271664433086, -0.7207043200215755, 0.9996755170859039, 0.7804238351131365, 0.5319528229920497, -0.9977439895309989, -0.4130482906459567, 0.6195632014862413, -0.4283414772747589, -0.2926600447707104, -0.6199520620873588, 0.44703744071010065, -0.22502513148095227, -0.5473969202839057, -0.6650427278385607, 0.007734073530895802, -0.9998225350924582, -0.7380670927490233, -0.3525061624443591, -0.2519335941280624, 0.26171750510665953, 0.04186543299991104, -0.9477067259251175, -0.6491688239805025, 0.33348214837103524, 0.05365390749702852, 0.02177935439499837, 0.4534651176763489, 0.4486330670547191, -0.2820157944196942, 0.02285936491656355, 0.03425150617359485, -0.9232632991005209, 0.35557438178445144, -0.9995387254664008, -0.36904486992073116, 0.19894268740788357, 0.026909213980660308, 0.5627652777561869, 0.9991046867650446, 0.6952114939492078, 0.03735895864967719, -0.23196692998943383, -0.49992726766435325, -0.9999999918687827, -0.8641718742640186, 0.34845636037832295, 0.6679009103831028, 1.0, -0.9967477254715641, -0.7532195626381538, 0.12638900161145059, 0.6219161050677854, -0.6361759599415542, 0.19700169826074448, 0.2308654772141978, 0.1886189105042973, 0.05985027904955179, 0.600907067147323, -0.9999999713585003, 0.7718799554344928, -0.6457861070995852, -0.9999999999998986, -0.020997893178268622, -0.9999999999055592, -0.769743292089102, -0.43781286193104496, 0.4562008903568549, -0.7547384177902733, -0.7079978572482515, -0.012775208034634578, 0.3916687079366209, 0.8154075750092732, -0.8988229147712593, -0.01927675558111761, 0.6393368495814948, -0.9999999336114255, -0.9999999999999998, 0.6505583372847189, 0.12901820674066888, -0.48117184805839913, 0.7954240603962189], [-0.9358422660404132, 0.5650954087082104, 0.16396702938255145, 0.3536752609341348, 0.39483931753100776, 0.03719146065625461, 1.0, -0.4218739457066079, -0.0027859507318771523, -0.9999972789667799, -0.9999999999999996, -0.8682312012154345, -0.09886231989907988, -0.48817597882447894, -0.999311543737453, -0.6164151826491079, -0.41307499590495, -0.6045915186663786, 0.15621064770428872, -0.22732160926527573, -0.5828723863755707, 0.7464940591702282, 0.09028635259504272, 0.6032798188328249, -1.0, -0.8094603281238952, -0.7507873464789083, -0.3529620730561594, 0.9996609263759784, -0.8644155628568212, -0.27465100926776637, 0.315252702734681, 0.8829058914687631, 0.21867083153426273, -0.387356305667035, 0.7809957976720628, 0.5288306590843274, 0.5365514445963026, 0.9734198267788327, 0.11725710577435959, 0.45520384124470503, -0.9994179936418522, -0.5927688426161346, -0.46302379163237983, 0.4860345871276272, 0.17047859100528076, -0.5736993004036919, -0.06499778456539129, 0.3664862385775639, -0.2876366477457335, -0.055379755918284236, -0.9570231050333549, -0.3461607077541813, 0.4169299407110036, 0.4762092876891736, -0.6144780438642352, 0.5300944584727121, -0.3793989197120787, 0.3077588953419523, 0.05258578955737655, -0.0295532638231167, 0.611650242226767, 0.99465760048702, -0.370814436754745, 0.9221628446308812, -1.0, -0.7171261240242591, 0.23851655817889922, -0.9463099737778343, -0.8726197301333958, -0.17811975445392922, 0.7938350501948325, 0.8526054632290822, -0.6753472625336289, 0.5923596715523967, -0.5383801511465636, -0.5919519595341374, -0.6163012919598028, 0.6295892146910305, 0.3671255794798774, -0.49970857162732213, 0.37418096747450463, 0.8297735377911524, -0.9999999231870574], [-0.09296967721634404, 0.32398740896522804, -0.06683141733395474, -0.3837920222548178, 0.7615134634302274, 0.9980022982668059, 0.27509983806694427, 0.0625365535924312, 0.9999999999999996, -0.9999998634160626, 0.08152489424596675, 0.7961839458018848, -0.08833699676545084, -0.09055349027800971, 0.8530605003796178, -0.8154924492159757, -0.3183145689234523, -0.8294556363604555, 0.1451411586531959, -0.9025631085952683, -0.27845796055914346, -0.6432573610061815, 0.4927217154326679, 0.44107331632801966, 0.44856371843219406, -0.33856712644390996, 0.2832929546469426, 0.7072781454986343, -0.3017001241638756, -0.6684372905431681, -0.7999001676282319, 0.6479595350175428, 0.8630764569615038, -0.4808094776887561, -0.6297398517312834, 0.860327635359102, -0.04769659444532748, -0.9107305754539747, 0.8418798867020783, -0.4499739907074436, 0.1271155974045422, -0.6913452747656589, 0.8560639428722581, 0.19425544726597133, -0.9713597897912063, 0.3702971011190378, 0.6778271493678996, 0.33956369745552584, 0.6477534722370453, -0.045312231641929976, 0.2633009542028186, -1.0, 0.582738247566112, 0.9999999999989003, 0.4427143914739282, -0.7059117830512722, -0.7017413581845816, 0.0868791072324056, -0.751899016650584, 0.024520186255506022, -0.0588281767777561, 0.014478674039921785, -0.8488392892314851, 0.5092407322999801, 0.5292940407672336, 0.4299685633636851, -0.2100320175939533, 0.5325918443005281, -0.4562596110172517, 0.5755586292530963, 0.9999999104966402, -0.9983263781843212, 0.13582329254655953, -0.6220623879031936, -0.850204572143297, 0.19708158322338695, -0.6016300561070167, -0.945583137628365, 0.1491847548631544, -0.4017952693480798, 0.32163680582819254, 0.5146653025379339, 0.8318498765393797, -0.5523543011720691], [0.9990714969403189, 0.9320014700041844, -0.38229356794919794, 0.6406801873321423, 0.9119254477035772, 0.1859727520714578, -0.9999999999999989, -0.5974743226325234, -0.647104499206783, -0.7734565981229399, -0.8408077577464028, -0.6164568047898173, 0.6467195285296858, 0.1356304543666502, -0.63609688681219, 0.46469539672522264, -0.7736289974688596, 0.22534223351124866, 0.6133504020282426, 0.2640003311933177, 0.3171722963757489, -0.14716380979695423, -0.919051361003681, 1.0, -0.19162151299637162, -0.466503062675092, 0.07383188196057518, 0.388163621951322, 0.8583217732820345, 0.6515851550994111, 0.9994129642711413, -0.1363008031336462, -0.494860467069217, 0.41315694877480036, 0.29241628989063684, 0.05336919943673451, 0.6385950114203915, 0.5985559911653672, -0.008894502660478412, 0.7156625496189539, -0.8973626502396844, 0.9986901687532882, -0.02770462721463803, 0.9999958655835989, -0.32517107946717516, -0.8066622235437182, 0.21213577045222679, -0.90917351453786, 0.5396998196666876, -0.4534190005951161, -0.044045967658116435, -0.02433119340660639, 0.4458658498998915, 0.7480721356125121, -0.011514571879441193, -0.227296406189237, 0.7327035641539477, -0.2776293788223923, -0.19241104262034606, -0.6782916040306712, -0.45235940607731373, 0.6751656648321894, -0.7049965237445329, 0.9999872272090762, -0.5605162898447604, -0.6414189872130204, -0.06180835465816214, 0.2883229615767184, -0.6915327479162834, -0.2399154980693916, 0.6069547652542849, 0.3210747664163348, -0.8100717269454287, -0.8657604340816418, 0.4869064788978005, 0.9512389180010316, 0.012811113080885998, -0.4755822977281726, -0.561339573864315, -0.07975001371378442, -0.5356471845980492, 0.528448461977086, 0.1378272464816615, -0.08223197959135968], [-0.9992983313651641, 0.028284819476683584, -0.7067794123223511, -0.6334083394410902, -0.639004227499983, -0.2579049367793209, -0.3972886528733337, -0.1919125759168112, -0.2781403175002809, -0.8892118151369132, 0.3455299834008334, 0.14466491268491666, -0.8618785480308648, -0.49228835377429814, 0.4169831557480434, 0.8649989768223896, 0.08090468921997164, 0.7285492660181622, 0.556037563385151, 0.47593956181021807, -0.4032706009327186, -0.4605068779725377, 0.27496760538511383, 0.6613789959218878, 0.7177359807117673, 0.05142002684990654, -0.16575046221492243, -0.38158914434842517, -0.2944975113539261, -0.3081023009482401, -0.4692494109756274, -0.5086408632309226, 0.7670275316705673, -0.9999999735192006, -0.9767571818712817, -1.0, -0.34412476589614277, -0.19865366743046847, -0.3819392200085911, 0.38562665452106293, 0.2206394660158927, -0.7264862468168033, -0.7485270544750663, 0.9081948053622204, -0.7451188715287661, -0.3958447795058546, 0.013653413527520806, -0.14944409930660357, 0.4225409936424188, -0.012470299269551535, 0.9954386045923529, -0.2943105216792265, -0.2405795140415125, -0.8800166084588819, -0.044511881517125935, 1.0, 0.6937103177834897, -0.2120589807853117, 0.1941401058376117, -0.3619112469378139, 0.5217479181981939, 0.9945792379487448, -0.5782651299335619, -0.6644835233920035, -0.6025948261932781, -0.04146394860043287, 0.5919173613642538, -0.5744667429399173, -0.8830752483558487, -0.9613169071537111, -0.0030603143515212923, 0.5196400895398644, -0.6256015440548496, 0.9470206279276917, -0.992419757177739, 0.39550751340881274, 0.06818928352777631, -1.0, 0.4980196017939465, 0.14274567254484227, -0.9834254190910489, -0.02382921626448184, 0.4849615440611227, -0.707659926714531], [-0.9981660202767654, 0.4726666480430825, 0.3332098757613867, 0.799360946693115, 0.05623447619492742, 0.024539607593717837, 0.980800779899631, -0.5135056361517817, 0.1663048941184088, -0.5369859282682461, 0.46987387273870845, 0.18018561030843688, 0.8753467616240483, 0.43564415723179295, -0.3947081807568261, 0.6093649244954116, -0.49610231424232476, -0.37425473227560563, 1.0, 0.420607320282599, -0.22065556575250003, -0.05000628398670143, -0.37435636136500167, 0.12759189715323765, -0.5172810320812183, 0.334066500232415, -0.5555847963445766, -0.04512368516957425, -0.5639578769434337, -0.258342035031806, 0.899923488005397, -0.3187854264884506, 0.4443412806615785, -0.016449902750250076, -0.5704599978071597, 0.2729235951778255, 0.7871145042842583, 0.41325093582779365, -0.8222285291441784, 0.23156688842110756, -0.9999999999999998, -0.4518483427640507, 0.9984239085506138, -0.8770036785088507, -1.0, 0.5691267966966019, -0.6335775236772916, -0.18350547913528592, 0.9971603660142392, -0.9990078241827018, -0.5903492020876706, 0.8914503515590337, 0.6849258061716197, 0.050673646134031754, 0.38447418283282014, 0.3682840006164614, -0.21347787729783255, -0.7078664508864063, -0.007772565115987778, 0.7908375178805512, -0.39484006492463786, 0.20502240890233803, 0.264835110424697, 0.39505439887068694, -0.7174535453315491, 0.8129845293174301, -0.1999133626928818, 0.5915902326971367, 0.158870762257102, 0.9988909338354435, -1.0, -0.756488196994729, 0.981230112335322, 0.30315069196382327, 0.5808566204015794, 0.36734543355284194, 0.6780811014616331, -0.4832024321821855, -0.977568724049942, 0.43965541677448244, 0.49407889268003785, 0.6271001807462795, 0.9061057068581515, -0.9971202743111393], [-0.8726000033047612, -0.05045567501724884, 0.8006860847850676, 0.2166757033087158, -0.997828245530007, 0.9124504818532043, -0.9707945353175095, 0.29204098011678514, -0.3373411604257744, 0.296464587149392, -0.10047634755460265, -0.4744995028531731, -0.8329751435702173, 0.12821511941933297, 0.5968521551557698, 0.3522621421654859, -0.3495269353151579, -0.283894876032329, 0.9999999999999998, -0.9554172018046118, 0.572883503751023, -0.05836802904314772, -0.704768716152792, 0.3590666897472946, -0.5916168341297753, -0.03804854056065871, -0.7930762828561366, -0.16208630577933408, -0.9964847176710012, -0.7780607883342933, -0.5938511787463236, -0.7717029232879362, 0.9999999999999988, 0.7169343724819017, -0.8732240246943088, -0.3989981888502555, -0.5426066999652835, -1.0, -0.8566533362499412, 0.6448803348445542, 0.6596613869333634, -0.3793446825070224, -0.3883563319264509, 0.5978203705040627, 0.5577802588288315, 0.9178962976820781, 0.1349781468084832, -0.8893288278521286, 0.8567092984405044, 0.03671282955883153, 0.8842749453162679, -0.44743009656979577, -0.8156946938830769, -0.6777773626362511, -0.004326016981372857, 0.19935933983314538, -0.9999999999999992, 0.868619223992243, 0.5112908097522386, -0.982510829364771, 0.7189949285626424, -0.4300426670233316, 0.3590021402213053, 0.6803413814719393, -0.3278290248806559, -0.5312613411172858, -0.9210119278316836, 0.29447421971421683, -0.3432043309532843, -0.8486951081876585, -0.5756049273173457, -0.7601575576137135, 0.22164251857998368, -0.4724273757948126, 0.7695521409558813, 0.2105877747655931, 0.38566789878105623, -0.12106469705826754, 0.9334582997583393, 0.7468300090267861, 0.9528026798170792, 0.10383864976640687, -0.9950335045610937, 0.6962732408805664], [0.8149149696316553, 0.41453126322043166, -0.8107961748928297, 0.49630983075452917, 0.42000209752132683, -0.35066113465845705, 0.96794573903744, -0.5623305086249004, -0.2585327217583122, -0.3354739035956083, 0.5832917487609607, 0.7508298033895764, -0.2533447658540191, 0.38110412862714094, 0.8761902568394584, -0.9839175068087878, -0.4241964480106305, -0.9960663144220114, -0.05309424482208777, -0.2037008593774178, -0.924500676363853, -0.6149664553468442, -0.9999991040230036, -0.5497437735563008, -0.7149212624936744, 0.9995637693639703, 0.15136139588172218, 0.04385705539269779, -0.6985097351106055, -0.9003167468256804, 0.9711896307332665, -0.5769167760500491, -0.5265644128679641, 0.939417716881392, 0.6628637277537112, 0.40469537368448244, -0.8512204738280021, -0.4479689745253498, 0.4473508406858735, -0.9995031301758276, -0.5626241728802815, -0.1405087439870156, 0.4004274029391222, -0.2926100175780611, -0.9930464308495757, 0.7125056011226962, 0.06034899415030472, -0.2779520044739004, 0.7060555971971747, 0.4308299977987072, 0.558815314350345, -0.004658383713940042, -0.3627848303402033, -0.632877306914076, 0.7874432547661655, 0.7337841434282149, 0.9970885274029514, -0.08366621112127327, -0.6818021368134135, 0.33505894751622517, -0.6955688722546656, -0.13831349967859827, 0.6751165316040925, -0.6635075421648299, -0.3204148212732934, -0.031179123481162384, -0.42284836245944113, -0.08517176270112882, -0.03062742141737198, 0.9999740812871152, 0.661257211201265, 0.44644396228259897, -0.7672574397210706, -0.46898246045751324, 0.9999999999999998, -0.9145092056449655, -0.3720904428443896, -0.470419741425132, -1.0, 0.6471200429845295, 0.2799435933420883, -1.0, -0.11149985758623951, 0.9212242649253952]], "w2": [[-0.2710873506348548, -0.8605455501906873, -0.527912562057631, -0.08536677639953437, -0.2595133461073205, 0.2727127638463867, -0.9577990854813185, -0.6102954041361295, -0.8841333003315252], [-0.9999993432991895, 1.0, -0.9999999999999994, -0.03526781156054791, -0.199262701428128, 0.10183719175862378, 0.9239926162355983, -0.7735796564137882, -0.15621503764820174], [-0.3476818593669661, 0.7020009285596417, -0.6929032639582284, -0.13661007809421427, -0.6420843439172123, 0.06670390208359567, 0.17905125065348965, 0.8498362664018551, 0.2979141839224301], [0.2209153364442276, -0.1093721803659235, 0.09604320986540091, -0.3327690600055846, 0.9999999999955677, -0.5194750401298813, -0.41213729809136873, 0.026300260236292537, 0.25105918696617935], [0.9017948292638689, 0.5948444291804128, -0.5711777151341138, 0.9999999999999999, -0.23431787754429276, 0.9865812238240823, -0.05966317323457327, 0.7254970563872214, -0.775203609958752], [0.2621869048989024, -0.16239446155460027, 0.3281293039010451, 0.1736949294556137, -0.8147969191627494, 0.29449892872227784, 0.8610745666714111, 0.6553730482338667, -0.797371649272484], [-0.5926437441847326, -0.10869022953053023, -0.42209214290732006, -0.5044970637195408, -0.21658329906959875, -0.4567672886184128, 0.9923449661087165, 0.39729113056288523, 0.31246989040982626]], "b1": [[-0.20687077669753443], [-0.5314978445751317], [0.8737540333111787], [-1.0], [0.2033560793417078], [-0.073956025892641], [0.15775363072273096], [-0.3476691085974762], [0.1371541399151292]], "b2": [[-0.7102219778876121], [-0.01623817406471669], [0.23164035869971808], [-0.04728144136238465], [-0.3356137483555486], [-0.6917765702398898], [-0.8652432290428733]], "fitness": 4251.0, "best_pos": 10.0, "best_status": "small", "score": 1600.0}