{"w1": [[-0.4830561078677257, 0.7958627074209679, -0.07403091905256733, 0.38285613258369133, -0.583070936837874, 0.5481909371692641, -0.7630692377053795, -0.5292262626491184, -0.39805742773957364, 0.3334834833958389, -0.03335300601470482, -0.517364277845713, 0.4145430680553151, -0.9793318577654287, 0.06720140951527612, 0.3223247818132288, -0.18332918178745664, -0.8948568770533791, 0.40787322438118345, -0.972767862326415, -0.5402838281859322, 0.899248279226797, -0.09910599925244912, 0.053401466462297174, -0.2317303797521126, 0.9393313877289087, 0.43036631419676347, 0.6097654986720045, -0.25450171455479786, -0.0020946028407755096, -0.6765169043269907, 0.202727825960041, 0.23858451169799802, -0.3157443942092074, 0.5006104328268101, -0.844403633352714, -0.6487871442082203, 0.9992967241711215, -0.0368563338025912, -0.10069701128320818, 0.8019414040168908, -0.02133262052468887, 0.5308646416881575, -0.4711761534210147, -0.5689737681852876, 0.3496559904466513, 0.726611630450653, -0.11656169644259337, 0.03608064426736252, 0.41880495649899835, -0.3706451309619235, -0.9999162267457773, 0.9257207133805866, -0.31258252655242325, -0.34983138936214164, -0.9999999876272101, -0.42401453246375753, 0.9999994880850839, 0.5184905252489947, -0.17792527256064875, 0.22517946013015389, 0.6655800332295155, 0.05687266199869022, 0.3850524591840263, -0.12774276805317583, -0.5799560637159832, -0.04100763061968451, 0.9999892985940962, -0.4425926091979134, 0.6545905009646859, -0.93026815700235, -0.27608330393965347, -0.9983259067162157, -0.7817873346060777, -0.989103561344794, -0.9999999999999984, 0.021488981899990413, 0.1581948492104216, 0.8475687230298559, -0.6227671864314075, -0.16487799176879187, -0.13748589472556688, 0.7332171255194222, -0.8162854634251786], [-0.2308901117347122, -0.9678429188502374, 0.6968271656132434, -0.7207043200218871, 0.9996755159563667, 0.7808311952137893, 0.5319528188740762, -0.9977419397089812, -0.41199672052456815, 0.6197677490948146, -0.42835127036513243, -0.2887504073983706, -0.6219906815212825, 0.44605537514874943, -0.22550714192275606, -0.5473904326045974, -0.6650427074612568, 0.007736436778157337, -0.9996719613205941, -0.7380671128007457, -0.3537176473230985, -0.25193006451938865, 0.2617336371493225, 0.043711916352592174, -0.9477066630949325, -0.6496879237537454, 0.3350974775927056, 0.053338357042572254, 0.020170423688382726, 0.45223632658244345, 0.4477173730760476, -0.28201581999382125, 0.022209045056398636, 0.034329459025517386, -0.9232632991001241, 0.35562758695595387, -0.9995088218014045, -0.37964471657955506, 0.19893433533774263, 0.026909213987605724, 0.5625562226599227, 0.9991046900513598, 0.6952114939547235, 0.03735893766146312, -0.2319669341531581, -0.500329136567426, -0.9999999918358532, -0.8642874841201661, 0.3480543770427148, 0.6680024230310361, 0.999988179115607, -0.9967477363751291, -0.753219562638128, 0.12638913211313604, 0.6219073345491698, -0.6361759609848792, 0.1970016982607445, 0.23086547625026654, 0.19015316342589358, 0.059849280162829754, 0.6009077879701622, -0.9999999713584918, 0.7718219030588009, -0.6463811744122537, -0.9999999999998975, -0.02073933694622687, -0.9999963342278814, -0.7680512753218578, -0.4408103948985269, 0.4562293927257327, -0.7567048724061128, -0.70800433861847, -0.012069811100232957, 0.3912380295754451, 0.8154161369096916, -0.8979590455378732, -0.019276753392174672, 0.639336896510627, -0.9988893350859569, -0.9999999999999998, 0.650554690281, 0.1302201456437954, -0.4812559286659453, 0.7974000851646157], [-0.9355904943482276, 0.5650411847038413, 0.16398230719508514, 0.3537668749972943, 0.39483907409917623, 0.03589069713292216, 1.0, -0.4241235238941215, -0.0027441784125971026, -0.9999972840004234, -0.9999999999999996, -0.8679896513417941, -0.09886232002638745, -0.4870325018935383, -1.0, -0.6164269259677488, -0.4129217511107134, -0.6033236941806138, 0.15528631743351173, -0.22183909314771164, -0.5828723906631202, 0.747316193243029, 0.0902863549407677, 0.6032527745060935, -0.9999605848839602, -0.8097416213682018, -0.7509518451512214, -0.352960610253119, 0.9998940855270152, -0.8643724423995158, -0.2726246640132841, 0.31524830623608835, 0.8829058915483771, 0.21805344773134097, -0.38708660157538105, 0.7809765241626406, 0.5288312024379033, 0.5365514408824871, 0.9732987053623786, 0.11739848523706164, 0.4553296825936511, -0.9507753744087979, -0.5927697694795749, -0.4630237916659685, 0.4853986771591352, 0.022805193017532338, -0.5744211214766156, -0.5577698294356458, 0.3660930843701339, -0.2876416244024986, -0.05335396185012182, -0.9568812101318047, -0.34616045326171135, 0.41692965514377833, 0.47620453663895523, -0.6142228704220779, 0.5300949738201761, -0.37938186085365155, 0.3098000624558336, 0.06615174153728219, -0.028825687592282382, 0.6113116526134965, 0.9946572430597209, -0.37081545852661424, 0.9216949725600636, -0.9993068289582056, -0.7171177994664177, -0.22983598715779552, -0.9463102441998278, -0.8729005389363131, -0.17820013928800343, 0.7938350437730315, 0.8525072176046621, -1.0, 0.5924506129471281, -0.5383801581138091, -0.5919519618813566, -0.6163012815885717, 0.5089713797586388, 0.7049556476244894, -0.5009196590010474, 0.3726774667626946, 0.8303578580039082, -0.9999999231870583], [-0.09296948063105213, 0.3239889273049434, -0.06683336657305841, -0.378312992269221, 0.7611488613370325, 0.9980122282147675, 0.27510090332830106, 0.0625365535924312, 0.9999999999999996, -0.9999998630974739, 0.08189616877481677, 0.7959062882449396, -0.08835782665522658, -0.09129377560051098, 0.8527360030267697, -0.8154924548768189, -0.3175938729633623, -0.8310662154100591, 0.14308149990431845, -0.9025631097597702, -0.27853790169964376, -0.6432578106348259, 0.49272164260899626, 0.44095075131186756, 0.4485640292360709, -0.33856712644390996, 0.283292845911724, 0.7072781454986343, -0.3017001241352118, -0.668437290543168, -0.7998795493410785, 0.647275795532556, 0.8629746894871957, -0.4808094777910399, -0.6298227470210476, 0.8603274349962681, -0.04768163631831299, -0.9114268293272263, 0.8418798946446793, -0.44998679645617623, 0.1216426793405808, -0.6911114179104835, 0.8560636829486765, 0.1944445512375477, -0.9718873937198943, 0.37054288100505123, 0.6778271722043786, 0.3385575251651741, 0.6477534722370453, -0.04531029928905538, 0.2625524529852034, -0.7359188137264745, 0.5823926218507703, 0.9999997648353831, 0.4427111002468508, -0.7059117830370522, -0.701742756248409, 0.08218106461725173, -0.801947523855452, -0.35374141793824654, -0.05882816599840287, 0.014293107354604808, -0.847950923925682, 0.509248950864253, 0.4962528103918728, 0.42996856336368516, -0.2100338780161784, 0.5325918449216429, -0.45626329954662925, 0.574192769964355, 0.9999986567308436, -0.9983925179295531, 0.13608558529218487, -0.6220625437640881, -0.8501987125031543, 0.19708414994234433, -0.6067832592883244, -0.9455865485701223, 0.14827520780016457, -0.40092962522240133, 0.32163381577941785, 0.514547149098199, 0.8329872432921968, -0.5521344538902704], [0.9990547730152758, 0.9320014578775244, -0.3824638113208753, 0.6408314082911166, 0.9119245911520741, 0.18597721591963282, -0.999999999999999, -0.5974743226322109, -0.6475630869446116, -0.773355550999986, -0.8407889196109409, -0.6165984246775316, 0.6467194360176012, 0.1356290211763439, -0.6360968869964735, 0.464694699541567, -0.7736245228982458, 0.22519942614203564, 0.512515145548844, 0.26413543358959735, 0.31717229637578365, -0.1466276027110791, -0.9190521655754892, 0.9999971708679778, -0.1916215129963715, -0.4665030627329914, 0.07377620046184478, 0.3881636800447757, 0.8583217431948994, 0.6506405560870111, 0.9997419501601637, -0.13631633255126516, -0.49477070525844186, 0.36938796612772495, 0.292450883185977, 0.05368704787465616, 0.6404577139234838, 0.5985559911301868, -0.008965803399036014, 0.7157256725677782, -0.8930315355411251, 0.9981565760359283, -0.027730207956400115, 0.9999958447799752, -0.3251567294205014, -0.8066622146028403, 0.21213577045204307, -1.0, 0.5396998196666876, -0.45373417513033076, -0.04404027559416406, -0.024331139927384428, 0.4458658391441939, 0.7478855209092496, -0.011514707007151641, -0.22946333729915247, 0.7327627445209707, -0.27735501044163924, -0.19243103079476662, -0.6782909873865306, -0.45316439719814855, 0.29493491260576477, -0.7049957257642737, 0.9999871609081531, -0.5605163200644655, -0.6412617813493701, -0.061808342541435725, 0.288323921858039, -0.6922534183403548, -0.23955576144648483, 0.6061050647282004, 0.32106079503326695, -0.8100555039110383, -0.8657604337950068, 0.48700644434743134, 0.9512387928125362, 0.01276877191557158, -0.475582297728187, -0.5613395743749378, -0.07853574988695387, -0.2762109912996589, 0.528448478397022, 0.1378272243799139, -0.08225132290299186], [-0.9992983320528726, 0.02828479128415173, -0.7069304043707785, -0.6334083414109131, -0.6388278281019247, -0.2579049381336589, -0.39728865377803735, -0.1919125759158274, -0.27476995242413865, -0.8571764111437784, 0.34552617429535093, 0.14466491268491666, -0.8618786009944687, -0.49229571041280856, 0.41698303874439346, 0.865509650425808, 0.08090468920404376, 0.7285492660181289, 0.556037563385151, 0.4759461983404633, -0.4032783778282309, -0.460506518102048, 0.2750537362809417, 0.6613888713665532, 0.7177359809509479, 0.051098132169337604, -0.16575046127291593, -0.3815891815196271, -0.2962958584427886, -0.30810315876675587, -0.4696982072862432, -0.5080341914248586, 0.7672353709631711, -0.9999999734669257, -0.976753020302747, -1.0, -0.3441244732437563, -0.19758085615057241, -0.3826168292616945, 0.3846944340305988, 0.22055141780650112, -0.7264862468168034, -0.7485252372056336, 0.9081948053613935, -0.7451189085277783, -0.3957902141866051, 0.015496171791216793, -0.4589502269402358, 0.42254147044600465, -0.012468847468139914, 0.996051998742049, -0.29431052171070715, -0.2405795189948448, -0.8800166084191718, -0.0445118745553934, 1.0, 0.6804788893321195, -0.212277628966155, 0.19414284487570932, -0.3619255275895355, 0.5216616242390951, 0.9945791897580905, -0.5782651300276989, -0.6644936547561976, -0.3243475274450717, -0.043294370296363294, 0.5919173568719281, -0.5744696794241179, -0.8808924907479346, -0.9613114295736863, -0.0029532821033147177, 0.5196400895398644, -0.6256310588039454, 0.9474842970984165, -0.9924197056093, 0.3950236892738557, 0.06918241360445726, -1.0, 0.49781285272656317, 0.1427974367141138, -0.9834254188725762, -0.02326508304255075, 0.4885713261634257, -0.706927967679434], [-0.9981686239285661, 0.4726666338394501, 0.5259137968516493, 0.799360946693115, 0.05668539891973145, 0.024539009919145715, 0.9784836764425211, -0.5113790492356991, 0.16594696851169416, -0.5369474259736031, 0.470173065397552, 0.18067345842405008, 0.8753468051312354, 0.4356441572189965, -0.39456071213503596, 0.6086438609360232, -0.49610695010549494, -0.3699966592159884, 0.9995631974860113, 0.4206073205564585, -0.22033804166547774, -0.049413423834549296, -0.3743563617103161, 0.12759025888586295, -0.6188624361191324, 0.33406656649616523, -0.5555866232964367, -0.04512363613114593, -0.5639578769054523, -0.2583420335025657, 0.8999512574359158, -0.2742744544451153, 0.44432609418926017, -0.016435660341809717, -0.5676257140561181, 0.2774533388768806, 0.7873012337345388, 0.4132509358120434, -0.8222285289862726, 0.23096026269940173, -0.9999999999999998, -0.4519639672539691, 0.9982587800948454, -0.8769952500310341, -1.0, 0.5691267921384207, -0.6340315984604791, -0.18743574710003857, 0.9971602838087361, -0.999008121645173, -0.5903492199123068, 0.8914503561829819, 0.6849256598024993, 0.050716805039013595, 0.3842674713273753, 0.3682840006016151, -0.21347787737934257, -0.7079040634080243, -0.007766843603156178, 0.790837491449831, -0.3947652996605794, 0.18888628982995406, 0.26611619156164706, 0.39506184951366796, -0.7176053780695824, 0.8121808271656814, -0.19991336056920164, 0.5915779672620716, 0.15886730607288366, 0.9988906836992447, -0.9992924348800891, -0.7563898702496389, 0.9814311939554946, 0.3031506919498098, 0.8534500596480539, 0.3673533801566229, 0.677701483678784, -0.4849781203306392, -0.9775687785435213, 0.5865611432327001, 0.49220030441207874, 0.6271056714200166, 0.9057264707081296, -0.9971194935091144], [-0.8699965014263463, -0.09613743036248232, 0.8006867969042111, 0.21667570944267708, -1.0, 0.9145670033993472, -0.9707945353175095, 0.29204097973158494, -0.33695782364399346, 0.5079247702445222, -0.10026290586090944, -0.47449985374858816, -0.8329679327964995, 0.12822213280084613, 0.5968533506772467, 0.35226214379115073, -0.3495269353151579, -0.2838690892730112, 0.9999999999999997, -0.9554169673178741, 0.572883503751023, -0.058368031393390696, -0.7047673300298453, 0.3568152847462324, -0.5916549537815496, -0.03804355426259663, -0.7930762832039662, -0.16208542911391746, -0.9973929993883549, -0.7780607855653722, -0.5940086558166369, -0.7712627881083889, 0.9999999999999987, 0.7185853624593015, -0.8729880133639715, -0.39900116297145677, -0.5425117655069347, -1.0, -0.8553692974929594, 0.6448117648158799, 0.6596613868933084, -0.37934468251589204, -0.3883567267274755, 0.5986133619181196, 0.557793569213742, 0.9146754264207604, 0.1349757819981846, -0.8893288268621588, 0.8567092984078728, 0.03675079409727912, 0.8848410053255281, -0.4454678826136738, -0.8156946913737524, -0.6777556476038067, -0.005242146069571965, 0.199359163831281, -0.9999999999999991, 0.8686192239922431, 0.5136667438048401, -0.9825108292101647, 0.719091195772899, -0.4299600922888656, 0.35900214475256886, 0.6802469612887421, -0.32795344297853407, -0.5312600968040311, -0.9210120862890018, 0.2944728212679785, -0.34276103719452145, -0.8487792819369618, -0.5736800584215045, -0.7605795686751915, 0.2214099133101472, -0.47242737590107925, 0.7699983446329512, 0.21037105699025554, 0.3848917600682881, -0.12110191203834036, 0.9334582997695888, 0.7471565519798106, 0.9528676163183561, 0.10385685470960543, -0.9950192360196973, 0.6977112656662856], [0.8149149696419814, 0.41453395930810305, -0.8111558043660267, 0.49630983075452917, 0.42000209752132683, -0.35066292289605144, 0.9684825143082155, -0.5623305121806756, -0.2585327217307661, -0.14655072261193408, 0.583291775468998, 0.7508553826994917, -0.2535126181372696, 0.3802818034682616, 0.8759828030517045, -0.9839311858446188, -0.4241961023010005, -0.9958702917459485, -0.053280679725167486, -0.2036997937816968, -0.9257176145421043, -0.6151466523376258, -0.999999104054299, -0.5497437737417776, -0.7145300420514339, 1.0, 0.1513651481545594, 0.04385908686692617, -0.5517710382936523, -0.8991887185423965, 0.9711896307292395, -0.5767087100798747, -0.5268545713012506, 0.9413935339421066, 0.6628637275744216, 0.40469537362696606, -0.8512202287669764, -0.4479795019761762, 0.44735084067140996, -0.9971856049378539, -0.5624071070104191, -0.14043256670614357, 0.40163362653150236, -0.2983359283425352, -0.9934533363129648, 0.7125084415678368, 0.0603490837374486, -0.17026949585750684, 0.7060559379106487, 0.4307989705686378, 0.5586111776265611, -0.25847206331228567, -0.5458167563213211, -0.632876406915552, 0.7875831838857793, 0.7337841434278485, 0.9970914336192908, -0.08588058041183269, -0.681800432114607, 0.3336648610343098, -0.693917905166833, -0.1383125817310572, 0.6750652150201769, -0.6609320103783943, -0.320374229288228, -0.030525918069833086, -0.4228465729526895, -0.08624131296837209, -0.030604551026132912, 0.9999740808343109, 0.6595707898148694, 0.44645099223867, -0.7640571901944462, -0.4689823083458884, 0.9999999999999998, -0.9145742187754926, -0.37210265121072045, -0.47041974065953474, -1.0, 0.6451635271072077, 0.2804791631546951, -1.0, -0.11142259515283813, 0.9212242640736615]], "w2": [[-0.2713635131909898, -0.8605586632948325, -0.52791265745653, -0.08437957292457304, -0.25958170112270545, 0.27270781379441655, -0.95779890909809, -0.6084771657273255, -0.8841340714902242], [-0.9999993547166894, 1.0, -0.9999999999999993, -0.03417106528275254, -0.19885290892263904, 0.10145304961158913, 0.9239926162851791, -0.7753571197075838, -0.15621517785204103], [-0.3271982469284482, 0.6763837232159234, -0.6943168292560374, -0.13649735238248328, -0.6421640784381148, 0.06670569801540596, 0.17905016501284443, 0.8498066547403221, 0.298223791557587], [0.22091531217634439, -0.11259000693760814, 0.09625835109092407, -0.33271929757895496, 0.9999999999952284, -0.5193472096765632, -0.4121376953965875, 0.026325974278939943, 0.25105904707816407], [0.9018064702426006, 0.5948444293140296, -0.5711773018315971, 0.9999999999999885, -0.2343177559988333, 0.9865812227909051, -0.059663173269479675, 0.7243281220935159, -0.7752047334981235], [0.2621869047999642, -0.1625993644753071, 0.32893341505467383, 0.17295323961065737, -0.8141329657368561, 0.2944723823345355, 0.8609410679417482, 0.6553730481781049, -0.7973752179912841], [-0.5919093803519468, -0.10653762468110174, -0.42204463224211497, -0.5040340176501634, -0.21659138158597074, -0.4567674346696817, 0.992344966108723, 0.39834555773249214, 0.3124612696228633]], "b1": [[-0.2068707766975344], [-0.5310607906256348], [0.8737540333191615], [-1.0], [0.20335541109509045], [-0.08119325643606551], [0.1579278043945319], [-0.348276711928326], [0.04703584269341024]], "b2": [[-0.7081475823621376], [-0.22350072173332752], [0.2316290170422822], [-0.04728047748541169], [-0.3341909411887925], [-0.6917015030683145], [-0.8653336662251334]], "fitness": 4251.0, "best_pos": 10.0, "best_status": "small", "score": 1600.0}