{"w1": [[-0.14869536180657095, 0.13090386191784786, 0.5698865353130629, -0.5009870024064961, -0.7299070845160827, 0.20219013027713387, 0.14308499428073307, 1.0, 0.13596554838673533, -0.7443880835758596, 0.2220746673061335, -0.8784414308711288, 0.14528198390964703, -0.6468236119534962, -0.8257375545377313, -0.263184079861592, -0.060125542336372115, 0.016269264968909555, -0.05128435242151434, 0.06705496262359041, 0.4140075334578538, -0.8655088506060526, -0.12544730928925535, -0.25561823936518097, -0.20741788891791843, -0.15282603061155894, 0.7636026208424639, 0.4565253913447908, 0.7351104860695966, 0.4404751150056856, -0.06666893753832669, -1.0, 0.06706429532157245, 0.14814111704132715, 0.5053224126046493, 1.0, 0.5277495180633841, 0.44821960706138914, 0.9986097022095609, -0.9966288154969322, 0.7344779808955003, 0.9414897049535689, -0.7292742590530942, -0.5267814982739892, 1.0, 0.37986042238406065, -0.43104364237267717, 0.053755864741838716, 0.7867421843048895, 0.328961376748361, 1.0, 0.057458736422164966, -0.8950581827704978, -0.4790544275628329, 0.015555410684640343, 0.6717344729757393, -0.7366633375217851, -0.5383476655119841, -0.7790015082843991, -0.38430163100084214, -0.29412163580754047, 0.9114039700125796, -0.7258633821777262, 0.8416455947222022, 0.8999500608278715, 0.9702582928869161, -0.09003369483518929, 0.37815772644981366, -0.17490181299293842, -0.5980803411043153, 0.41045846634168764, -0.055252193306921285, -0.26448560672571525, -0.7885984167860162, 0.0047655623301635485, -0.46481609075054225, -0.4414051077316001, -1.0, -0.9989405235596418, -0.9795016959338383, 0.09809011268245874, -1.0, 0.9929640067577862, 0.5434554604841015], [0.0431107915100046, 0.9720129795409354, -0.028412164030212957, -0.6585771322413012, 0.2972995039213039, -0.4323924503735096, -0.2763357781367174, -0.4766489644674564, 0.5188360305819122, 0.4207900052813517, -0.31378389919011834, -0.24632215328651, -0.8217444948500888, -0.6399271889452415, -0.6226009339138074, 0.11889187676906599, -0.660504170196344, -0.061027654992513586, -0.9988419500520531, -0.7253873571046429, -0.22440749601973253, 0.8339195799408974, -0.10491051488796863, -0.4858046894433375, 0.9471258746536562, -0.030468261827512194, -0.705463646896433, 0.3112183748731584, 0.2565770891274143, 0.27166316880724894, 0.9999999123072884, -0.2576285514356256, 0.4199770369893841, 0.9528727391733004, -0.8920790922406058, -1.0, -0.816373965634374, 0.09394154803033099, -0.5484785296187455, 0.2391352578443547, 0.9999999806839425, -0.09961816950371437, 0.7614846374219675, 0.18679499133812758, 0.701229609078651, 0.43819200616391135, 0.6467324095997385, 0.838479952588037, 0.9899272646215385, -0.6709178361453106, 0.15327557348094586, -0.6020255752662312, 0.6766740043046973, 0.4790667785688568, 1.0, 0.8235034677765762, -0.28042324369885746, 0.8962294547057389, -0.7907797380101074, -0.2519694602140042, -0.7556369345708993, 0.13836072164799676, 0.13155776094675983, 0.4425296176522182, -0.8458958101638769, -0.6499036777701599, 0.31290494377145867, 0.3746386815210396, 0.527165246958892, 0.5406598788664355, 0.16497951309280431, -1.0, 0.999313542533163, 0.3578482407564865, -0.023208419499263305, -0.8999947979057519, -0.23074238417988682, -0.21810203888409818, 0.7531473028451271, -0.1774117257528755, -0.03572049038047603, -0.999999217383122, 0.43709408796762295, -0.7933204529526021], [0.7618277154836534, -0.819990411492123, -0.6455760457279559, 0.01601177108073383, -0.056276893974240974, 0.13841668345908317, -0.9819819310765626, 0.660271074549148, 0.8429596566793759, -0.9380369925535376, 0.36997401377675165, 0.600534306787089, -0.723145670856305, -0.8345572527133235, -0.8825108388530654, -0.04912715679419269, -0.23224875719789156, -0.9819547559944584, 0.3514672934160289, -0.9017745405294403, 0.9999999999999997, 0.36930095195709195, -0.04212894929870506, 0.5569519047984711, -0.9948286405199118, -0.11804754205783541, -0.5444265612670708, -0.5601580317860093, 0.3830909445092642, 0.41497472867506685, 0.6088887853692803, -0.24971158181223496, 0.8290902216820928, 0.15651898437733758, -0.9998257517432847, 1.0, -0.599599899766591, 0.4633758649908622, -0.692843383065835, 1.0, -0.13049819082193456, -0.5377818397349892, -0.46565803922630217, 0.16161419140988503, -0.9068476468078418, 0.6180032703096667, 0.16579733216027812, -0.6156899402294802, -0.7460354097653982, 0.7765681695298791, 0.6222378193457089, 0.3518244970018352, -0.9999999999999999, 0.6349862912718737, -0.6021903448691303, 0.9175789655503828, -0.2162964708212459, -0.642395009350615, 0.4653753899839106, 0.21593377512654996, -0.42060719860540813, -0.261395536853564, -0.7036032297654656, 0.43343475823306726, 0.9986055768589607, -0.3539907635848535, -0.9999999999999997, 0.49027157047117464, -0.8116291604212383, -0.04338151381100991, -0.5981403612340459, -1.0, 0.27362892270667294, 0.5576910564900474, 0.34184952655047696, -0.5057466770449548, 0.5485026186890283, 0.1751683756319055, -0.6299206145480585, 0.6256102539194122, 0.9221530140634451, 0.3429579793595691, 0.41280467196805776, 0.3757383764585195], [-0.02865610741398277, 0.9999991648229042, 0.5080214205918785, -0.8289525025973797, 0.768662322431386, -0.44069246077154467, 0.4977684915247464, 0.5283740208152324, 0.6236174611425375, -0.11182656654019535, 0.05596859809050802, -0.29226721966749913, 0.21993062699032045, -0.5546898173758797, -0.09354608070925252, 0.9995046928114886, -0.8171723438117524, 0.900245928307746, -0.9994201825631812, 0.18494737602430464, 0.5656962744808641, 0.2888418516398972, -0.3167202376235788, -0.931882878320762, -0.9982896758254414, -0.09736820763998587, -0.5784579598525112, -0.46981726050353295, -0.25774312092167545, -0.735838944890887, -0.8415604074167298, 0.5076463769843547, 0.801179223110844, -0.3502160404345623, 0.24471258042811625, 0.4140450723662219, 0.19292347337874358, 0.5961436144183857, 0.9410489257694403, 0.933180724548832, 0.7511449357259776, -0.27105576552155, 1.0, -0.04126896160316293, 0.1438492399178531, -0.369928874740123, 0.9258717359861874, 0.17093557447981733, -0.667811326746984, 0.14747953736682062, 0.7596486572421577, -0.06690652816780804, 0.4521452383717065, -1.0, -0.20683171147061855, -1.0, -0.22986674820720515, 0.37966030698624575, 0.1207288153169435, -0.23603846021177888, -0.014304702797345128, -0.19612447185324308, -0.3062376315438229, -0.40494576426460976, 0.4276419387761936, 0.43342540226015985, 0.998505517424617, 0.5951255728298193, -0.6093908485498973, -0.1055030288260032, -0.23377910592433349, -0.5945766722721675, -1.0, -0.16869586431354183, 0.014756954800733859, -0.15820335807013877, 0.1442529932166994, -0.15248986884552682, -0.2078349286171836, 0.40311039548231326, 0.5269563240017223, -0.36710682250507554, -0.4998209442104693, -0.16015613686157473], [-0.0310547433030417, 0.6036147288529182, 0.14416157891723833, -0.9750244383161587, -0.2619542617228836, 0.2983562363827898, 0.06080659921478007, -0.47373489440852734, 0.8678943456193234, -0.9693232312971656, -1.0, -0.3428533533037727, -0.17481847174970616, -0.8393699550151414, -0.6541854838310099, -0.6486098626405766, 0.45682734491320065, -0.39837178604410456, -0.7938711376100626, 1.0, -0.3942800828477072, -0.9766535736056317, -0.9024893810750167, -0.570071816964032, -0.36843925940897954, -0.9983796837474671, 0.8055033849678557, -0.5912645500114291, -0.14800242784456102, -0.08743066377965363, 0.11193433997279348, -0.13410089323314955, 0.8962059473497581, 0.02847535802335938, 0.4960551723031313, 0.5147399023650508, -0.13454549389196951, -0.5167361572911423, -0.04385156707459344, 0.827102071221863, 0.6908054406929296, -0.06680762560643373, -0.8046296491641759, -0.08776868372715564, -0.7358657362306851, -0.9995470932616219, -0.36226044627672593, -0.09467457543379938, -0.45207734669014615, 0.34860472928948194, 0.9999979871043122, 0.9737114872859007, 0.794028031862873, 0.1594025474355322, -0.3039781960972371, 0.15061711330458252, 0.011837867327890005, -0.02662523372761392, 0.16461893671358796, 0.5002335371963409, -0.7408705802254612, -0.9600911259964284, -0.10053465239872626, -0.9824638404856731, -0.8539364945171258, -0.346058245586361, 0.08449688370198892, 0.9999999925454952, -0.648454338622606, -0.9996270670106676, -0.9573968066640645, -0.05838693071889907, -0.029945389146661047, 1.0, -0.9173741224913771, 0.8272601251767029, 0.3971657177005107, -0.03623272176105765, -0.1817341218323747, -0.9995146648210373, 0.38218832297972644, -0.05829135580211913, -0.6944484914547906, 0.8039592360024116], [0.5622957263695062, -0.2678728794024764, 0.4273127657659806, 0.7962040316589047, -0.11450381017751073, -0.6570629228381626, -0.4516242687801117, -0.9999999999999998, -0.712242981007311, 0.11887449192410413, -0.45564966697251874, 0.5858156273207306, -0.3872757865695707, -0.6785498237144189, -0.9112274367581609, 0.6466488084166118, 0.4805452783758339, 0.34006229433516966, 0.7945440075278871, -0.5570747155442123, 0.3915458376150118, 0.032956841581687116, 0.8881554255012251, 0.4509984446199592, -0.9999999999999998, -0.16939494055624774, -0.9090158154131425, -0.1069860229476864, 0.1922984675187175, 0.8654645712498996, 0.19098370361562242, -0.3518224034911358, -1.0, 0.9945540493452256, 0.6938638488325096, 0.7384892547431375, -0.4096368135362984, -0.2712932104402103, -0.1829600670816251, 0.2969352951388464, -0.7053923646436897, -0.05873675987156816, 0.7519353558442095, 0.38553224274082176, 0.7079333691167239, 0.9332599836541837, 0.29428834937804593, -0.05366167329779049, 0.20791630624425567, 0.9995701276490555, -0.6942358989895784, 0.8137347825843453, 0.17505169838453444, -0.017884939795347644, -0.7169530391821771, -0.07097687667161683, -0.4349119940324051, -0.25575336939138155, -0.19209575163011888, 0.9997626164893739, 0.5522633663355634, 0.921086447757524, 0.5683399625694328, 0.4566604954677074, 0.5441497036458453, 0.844231078535428, -0.36783109814373116, 0.05250079538388227, -0.9873743125607211, 0.07687600484041193, -0.4568722803397439, 0.2882289076538529, -0.5410774611243911, -0.9999999999999999, -0.5388370878660305, -0.39952455333375053, -0.87773621615822, -0.04749333519758879, -0.41370555039647217, -0.6819695825519855, -0.3302499103133825, -0.4415781533992243, -0.4941997660173888, 0.9199218848436762], [0.8425156063869486, 0.13578299559429194, -0.47092619889917675, -0.3120451943464636, 0.6562944188374569, 0.49133874702277147, 0.9172824291082408, 0.10771386145569238, 0.18367331128542166, 0.9250577296291597, 0.3847651659745654, 0.03229149203829647, 0.8983631684953838, 0.9952709360975384, 0.6502830458168325, -0.23323744180136605, -1.0, -0.9766680091366104, -0.4493857835208491, 0.19573666352108393, -0.12592696906765816, -0.9000720125237398, 0.2237937660841547, -0.9999985364958119, -0.7051620594650327, 1.0, -0.9994425228772265, 0.3146362797983869, 0.5159170210035613, -0.5471550013553325, -0.6763546423562149, 0.6927079335020006, -0.023331813805095872, -0.6397736062295148, 0.7500328478054915, 0.9999999996855953, -0.7038800176007146, 0.3949957003769695, 0.15077841852462315, 0.10959598469913955, -0.8209299655650343, -0.4919507168234603, -0.6607974855930261, 0.5663019513783605, -0.26378523990351144, -1.0, 0.7468012563606775, -0.31162494831285753, -0.9658902619298488, 0.2577575686537937, -0.2664534236689264, -0.3731601146143642, 0.13147770367738676, 0.24711850626697285, 0.3931727165311729, 0.3685797293215789, 0.7059452374140189, 0.18024837506179794, -0.8299637070554805, -0.06482329399039279, -0.2732918195618491, 0.18074669268219548, -0.10874655799989297, 0.19320183018235204, 0.4005546158339145, 0.7172136877602113, 0.4302575796889672, -0.43835833806583113, 0.48870923239892716, 0.2608889742803379, 0.337793134859377, -0.3603873199154032, -0.8225544972837768, 0.30031209512099477, 0.9947243869284046, 0.9986899902772787, 0.8279438870798186, -0.38801377457905156, -0.9990210805678752, 0.3268588513369898, 0.8188523420726308, -0.6271875606575937, -0.18390687756538965, -0.9992171663009858], [0.8090759279527507, 0.369579477811272, 0.6805078198867005, -0.30173295729649174, 0.9999767586256231, -0.766950638669214, -0.06030935595513777, -0.3488999029595853, -0.01904252782348097, 0.9999999999999997, -0.08205274741073039, -1.0, -0.5666526668430772, -1.0, 0.6050190209182572, 0.013341681046115588, -0.24205619021532307, 0.20706765729217028, 0.6571331729510622, -0.7081509371649966, 0.7169910995427334, 0.6991484785596196, -0.03404460704867349, 0.16634845862187117, 0.49320584085838387, -0.9999242469761461, 0.10094107955111643, 0.9547060792493367, -0.15449517566840007, -0.31410866207004623, 0.5238556730147419, 0.8987214181990015, -0.0246547529796578, 0.12207864834715014, 0.7985421078280602, 0.07749146710696837, -0.0676589558912362, 0.15876894436141084, -0.21081631447454321, -0.39889374681213213, 0.3198445964262359, 0.6473177013923596, -0.6496597793287154, -0.9451472668733033, -0.6627903087046886, -0.6745940175691244, 0.6281450453435191, -0.15110488108213452, -0.35447910220005463, 0.05495752046711617, -0.12308551168800518, 0.9381156969365658, -0.12841128000547894, -0.17488323281969348, -0.6692105577878537, -0.5987490575518123, 0.0165354290572009, 0.5142587003125416, -0.5878943688083056, -0.787788387288243, 0.5314283386715346, -0.01928554730861365, 0.4200922134153501, -0.7946767279405575, 0.36546172906580715, -0.40870656911217274, -0.5565461838869878, 0.40358710178912005, 1.0, -0.23011329174391892, -0.41375549078091706, 0.5070170726159671, 0.7767036810803013, -0.6287079347571364, -0.2752984812191678, -0.9999991970522908, -0.999995216327581, 0.7242336815383233, -0.013034329282139713, -0.9999999999999998, 0.06653133367845351, -0.3779368115582757, -0.2036322754307992, -0.5980424118322079], [-0.14599311331375434, 0.3716812628100079, -0.39906366745053395, -0.09879717962540588, 0.15338690358337098, -0.28972244856000223, -0.6716110143408265, 0.6653452032922619, 0.9990313476063193, 0.06196192774787926, 0.9999999999999999, 0.39810672196583907, -0.32517918129870815, -0.8395502069078405, -0.62414915973912, 0.4572982692488761, 0.7464569859207238, 0.03793270339042786, 0.9994203406316693, 1.0, 0.7499378157735987, -0.3942595734211359, 1.0, -0.011771859741340207, 0.5594111573438307, 0.008994519502176902, -0.9594241741009544, -0.3368879480093098, 0.320801859385231, -0.04423685866210502, -0.0828084872852563, 0.9202313762874521, -0.4669782770098598, -0.35245798191573674, -1.0, -0.39293712811877757, -0.4244636961701942, -0.7451953289638212, -0.98965957136539, 0.23191049720363247, 0.49898051829518536, -0.9023789139476199, -0.584526067267063, 0.14169054267193956, 0.37530292381270536, -0.8333283203901871, -0.3260597773779679, 0.8929324171590088, 0.4225451659840752, 0.22827733442749795, 0.2134725752918087, 0.305912300147657, 0.11854034459569861, -0.0032163929944653375, 1.0, 0.37103266892613845, 0.9439868216322331, 0.7552409079109166, 0.9999999999999999, -0.7590184432691877, 0.3595010788691611, -0.7204417178506309, -0.8074327295034918, 0.7828231755863962, 0.9999999998295341, 0.6515767635583831, 0.5428934433967064, 0.9995112442757741, 0.6743033795147505, 0.7057660743919077, 0.7883897370311121, -0.617122607001713, -0.9187003376923415, 0.5390053773185669, 0.06207667306215034, 0.5069251919791141, 0.012459586893070598, -0.07008575191876698, 0.5064016914406654, 0.44832705647964266, 0.9971540530578488, 0.6897198503891618, 0.15647905845228754, -1.0]], "w2": [[-0.19086721020507788, 0.3143389217247306, 0.8152341532803373, -0.6382721870432859, 0.2558472620807299, 0.19920855919637112, 0.9440758241729004, -0.28995847374089656, -0.9943017449795383], [0.2945543941919893, -0.37695448377234986, -0.48992918169689287, -0.16663553919826696, -0.9127680404664827, 0.2287339128914852, 0.44816174407065396, -0.764013825542112, -0.1936359773474981], [0.8123626023185715, 0.7416745176455299, -0.8836845683270328, 0.3440736260804268, 0.7923314850251526, 0.2804670340673616, 0.6091700942649725, 0.014734214893310673, 0.28520207754263766], [0.1828058683469605, 1.0, 0.7970316623197015, -0.582692687435511, 0.8906732519461925, -0.940106244587693, 0.6119215923766094, 0.10424774892059022, 0.8391429884371783], [-0.44576876885280525, 0.6497953339139303, -0.40592750839539216, 0.29282065193409584, -0.8266419865620112, -0.6027882558181505, 0.12248299964071174, 0.6730209657319983, -0.1266555318729606], [0.6113587923572201, -0.17621488733572713, 0.9255036221892405, 0.592356648920911, 0.6182880872121007, 0.5780204160968783, -0.24014149014089653, 0.26438924653073126, -1.0], [0.863820456919956, -0.3708642225243662, -0.4809986673267827, 0.7577921037130272, -0.7023701584221411, 0.4899895920824711, -0.9883571778842506, 0.11289580924509501, -0.9513515132547435]], "b1": [[0.6918402354193082], [0.985067079232345], [0.999999250806649], [-0.9280376051708324], [-0.29487765569614455], [0.36762295253096455], [0.28788677330281903], [-0.04100480745718429], [-0.5324337494032566]], "b2": [[-0.6823891580238374], [-0.9999623073683993], [0.3964630117779723], [0.748264892718013], [0.6792923149286193], [-0.9777029705505944], [0.5483576887906787]], "fitness": 1397.0, "best_pos": 8.0, "best_status": "small", "score": 600.0}