{"w1": [[0.06525490511670923, -0.4932952763415511, 0.21003321656119264, -0.4397777640809207, -0.6843322060511081, 0.20219013027713384, 0.15029975155773231, 1.0, 0.007298345151296749, -0.7443880835758595, 0.138459192595552, -0.8784413911902257, 0.14538189289680925, -0.8938499331365122, -0.8275561467683324, -0.26318407986159204, -0.059827132603646443, 0.016313555095405583, -0.05128435242151433, 0.10845520689921134, 0.41400541183874723, -0.865509600768374, -0.16950644993243108, -0.25560147397901134, 0.10798850609490607, -0.15282050747473402, 1.0, 0.4565253913447907, 0.7944375640463778, 0.4404751150056856, -0.06666673218868722, -1.0, 0.06706470051812576, 0.14816848633720758, 0.6839896185062372, 0.9547969119274798, 0.5277495180633841, 0.44698413600940856, 0.9986101346471729, -0.9698663141215896, 0.719630708541382, 0.9999999789725394, -0.7292728113421516, -0.5267814982739892, 1.0, 0.8107416170264049, -0.1857670132398709, -0.06043128780674563, 0.9999999995179625, 0.5160878123577383, 1.0, 0.1580950398361751, -0.8946380414277328, -0.479054427562833, 0.23079636941625056, 0.40024389566716895, -0.6529153962925194, -0.6827571358275367, -0.7790019072331943, -0.48271198919022085, 0.06318540509329636, 0.9116349288545813, -0.7927785681955205, 0.9072153372882328, 0.8999500608278714, 0.9702233041389018, -0.09003735422186486, 0.3781572589168843, -0.03752370380028558, -0.5980803411043152, 0.4401494775324194, -0.06984266011328048, -0.5765593589576737, -0.7885996556459899, -0.04466820692204921, -0.40944703209194366, -0.44183006610509845, -0.9999999999999996, -0.9989405235596416, -0.9787955250263143, -0.20367950577202137, -0.8033818092065246, 0.8394771356425405, 0.5434554604841015], [-0.00566171897426538, 0.9707304441300146, 0.19063236058492922, -0.6590371954605105, 0.29729950392130383, -0.51158596087486, -0.27633577813671745, -0.690023930351633, 0.5195090656417714, 0.5275379028328644, -0.31378389919011834, -0.43368250898276567, -0.8198582419440744, -0.6399284150702516, -0.6226009339138072, 0.11923686031856802, -0.6936546795210365, -0.06069432883329516, -0.9999999999845594, -0.7551303721867304, -0.14492367923796776, 0.8339660086628383, -0.42490218402554986, -0.48586561438448433, 0.6470432659494999, -0.03046826182751219, -0.5741602079500162, 0.31170690872181045, 0.25655083797673095, 0.271663168807249, 0.9999577556940435, -0.25774430988008556, 0.41997655067806394, 0.9528727391733001, -0.6292239338552662, -0.6125048854719786, -0.8272747101230151, 0.09394152300478127, -0.5484785222921271, 0.23913525784435471, 0.9999999806838604, -0.3906500129914403, 0.7614846300681873, 0.18679499133812752, 0.6546119314528164, 0.43747704751413197, 0.8028140130884011, 0.8385247697954795, 0.9899272646215383, -0.6709157969524027, -0.06209439472154057, -0.6020255752662312, 0.9047625665947946, 0.2082648492368656, 1.0, 0.7991679030919556, -0.18139259873487473, 0.9023654599509066, -0.9192163751929424, -0.2519740750988807, -0.7556365122984974, 0.18497021548334858, 0.7778003761635591, 0.44246016298148777, -0.7847189398395682, -0.6785185074532194, 0.31290494377145867, 0.514910140950464, 0.6596785012938445, 0.46038725851008466, 0.17241931251307932, -0.9990418862150767, 0.9993135425331628, 0.34392626964782946, -0.024401468151734135, -0.6230280073169804, -0.2324002719381571, -0.19398720636342676, 0.753147302845127, -0.17959800900282788, -0.03572061775627845, -0.8845357606136424, 0.33467348161573307, -0.7933199259936131], [0.7589318945879104, -0.65113275677455, -0.9736693203667782, 0.01579001996274747, -0.057769226869939384, 0.13752116958036245, -0.9992806333290392, 0.660271074549148, 0.8429596566793762, -0.7757514207961453, 0.48125226924074904, 0.6005263333148143, -0.7231456708563053, -0.8208281999036855, -0.6471159104959008, 0.18362152753199368, -0.23152182720278447, -0.5470356392166402, 0.0614056881603563, -0.8885448295519373, 0.9999999999999998, 0.3024081459802171, -0.042312608841233536, 0.5569059316505923, -0.9948286405199119, -0.11820264564783786, -0.5444322406389938, -0.817933004222337, 0.23884479003010298, 0.41497472867506696, 0.6088887853692801, -0.24803385014686827, 0.9999918418258372, 0.1571125612778225, -0.9711321802000221, 0.9936350420769156, -0.7979418210355801, 0.4633758649908622, -0.6974363491594702, 0.7880366947964418, -0.1304981908219345, -0.5377818397349893, -0.3380150161341142, 0.07377867532983004, -0.9066740812280479, 0.6180032703096668, 0.1657973321602781, -0.617678191925478, -0.7460353012580059, 0.7765680657050498, 0.7412965826420073, 0.3434173581276703, -1.0, 0.5490080290444193, -0.6021842158927059, 0.9544312466171024, -0.4018691621095971, -1.0, 0.46537538998391054, 0.21593328817214005, -0.42199327413294113, -0.26137531211148757, -0.703603229765466, 0.7337696532048066, 0.8321538374486043, -0.23618175244770026, -0.9999999999999994, 0.4902715704711746, -0.8096570209958238, -0.20998773185112124, -0.5319129055101108, -1.0, 0.32346173365289965, 0.5574344333000045, 0.4870426523702436, -0.9807223855314308, 0.8483516570659345, 0.2827127763652978, -0.4989353740450203, 0.625610253919412, 0.9221530140634449, 0.16110710597519973, 0.41871856952115455, 0.20373494765216313], [-0.028310498475563023, 0.9983915906050161, 0.5080562728285626, -0.8293251402283364, 0.7628397552615551, -0.4359151231272264, 0.4977707599701849, 0.7629057738271598, 0.47541440106167226, -0.3593349525160843, 0.054488088386543954, -0.29238484582185836, 0.14530892760643496, 0.0045278587709455115, -0.4106302841704418, 0.9995045375634851, -0.8182012364927258, 0.9002459283077457, -0.9997577429639944, 0.18494737602430467, 0.6076743395058966, 0.289122794891657, -0.3294836644567963, -0.9162508146121129, -0.9983032249543942, -0.09900443107056432, -0.57943288726164, -0.469817260503533, -0.5186842101507969, -0.7370810424196232, -0.8415604074167298, 0.9764539241917469, 0.8009005397264835, 0.03038093199439194, 0.41935446951406663, 0.41404507236622196, 0.19292347337874355, 0.5949597693844059, 0.9712060889276057, 0.933180033635969, 0.9999999999999996, -0.2710557655215501, 0.9949444924380807, -0.041193349810748, 0.14384923991785312, -0.37001168542960783, 0.9997913838145008, 0.29138999460508325, -0.667811326746984, 0.14777832542310287, 0.7596486572421577, 0.30498757230681867, 0.45214414640951134, -0.7123574353127119, -0.20683171147061852, -0.805997550083798, -0.22769179421336344, 0.3796608245749058, 0.12072881531694353, -0.23603846021177888, -0.014304702797345132, -0.19619838627114417, -0.2281333808264398, -0.40598141078440675, 0.2777602432788517, 0.09182333175142329, 0.9985077384770452, 0.5037613227256278, -0.6311985502980471, -0.42238090726386984, -0.42082963001810214, -0.5987691537724119, -1.0, -0.09862714374282054, 0.014756954800733857, -0.15820335807013874, -0.180103819458853, -0.1521288681811685, -0.2078349286171836, 0.4019069196450612, 0.5280427862954188, -0.3671068225050756, -0.8314051969671872, -0.1601561368615748], [0.36463829206729254, 0.5321547454899566, 0.14389790349940815, -0.9750244383161586, -0.26195426172288355, 0.27563052338665384, 0.06362707808322479, -0.6942736815067239, 0.8268528647857585, -0.9693232312971657, -0.9997548448724005, -0.34285335330377265, -0.32413920578619465, -0.8393699550151416, -0.6538553334637891, -0.5036266169959287, 0.42405487286839505, -0.32421733227147487, -0.7939442324917574, 0.9971659222470972, -0.38375765060515843, -0.976913295535893, -0.9025636977591476, -0.570065873191542, -0.3835499210423732, -0.9983700939813812, 0.8055031719795088, -0.411491675997965, -0.13292118463757185, -0.08743506732876771, 0.11140086131177092, -0.14210605380523128, 0.7424277134535102, 0.21815967435229075, 0.4960551723031313, 0.5147406269630082, -0.13454549389196951, -0.8417982041098342, -0.0487984080971075, 0.8586358947378014, 0.8304293433027311, -0.027331371731478593, -0.8046296999174863, 0.2946088766152037, -0.7358653100671239, -0.999547093261622, -0.36221398617804357, -0.09467535076142905, -0.4509856668406728, 0.3736238920072249, 0.999997985282166, 0.9888231690230389, 0.7935781359265526, 0.5019670595113018, -0.31527434409172866, 0.06559698413417811, 0.011837867327890005, -0.02663071363268915, 0.334776968130497, 0.500233537196341, -0.892574306072719, -0.9997878836061345, 0.07812704714638462, -0.8074109396404038, -0.8530898983160202, -0.34605824558636106, 0.41433279815980467, 0.9999999925454951, -0.6484543386226062, -0.9744907147012256, -0.9982735170592136, -0.0578460926010517, -0.029945389146661054, 0.9999609767254654, -0.9176330658148608, 0.9999956350693149, 0.5275823473938955, -0.03488282606772662, -0.12242114084714145, -0.6260522181429745, 0.3821883229797265, -0.31508083192923514, -0.529330250263343, 0.9533026352365666], [0.32343168515249343, -0.19662922741338798, 0.5181561862848804, 0.7962040316589047, -0.11450372385527173, -0.9999882630354278, -0.47125130769328794, -0.6633770668971646, -0.7732193264045735, 0.11887449192410413, -0.30988130844932205, 0.8660757849904502, -0.38711805054906506, -0.8244667361031651, -0.9112274367581611, 0.6102692148259844, 0.4169967143389302, 0.6832067789793252, 0.7945439406538373, -0.3363538214356784, 0.37650030956083985, 0.0831394513715293, 1.0, 0.45095152164219665, -1.0, -0.16770625356245691, -0.9090158154131427, -0.1069864623357215, 0.19310091035114818, 0.6356868450830131, 0.3164696549978522, -0.11182719735194604, -1.0, 0.9945540522211237, 0.6938638488325095, 0.7598304642783654, -0.36943083345113265, -0.003907921893870625, -0.14253320113206097, 0.2122492656904249, -0.6720574528110226, -0.060294033912200666, 0.4347663076290081, 0.3855293678183738, 0.9415144563222855, 0.9332725888156846, 0.2926698553297882, -0.0543364686278755, 0.20809267063045137, 0.9995701276490555, -0.9998983563904765, 0.9143887241025893, 0.08358150016459484, -0.32876638383865686, -0.7436662123306074, 0.29092371840114645, -0.4350335423924338, -0.2522641883265561, -0.19083385304097272, 0.9997626164893737, 0.5522633663355634, 0.796374035633815, 0.5706637019104122, 0.45666049546770743, 0.6300223010277393, 0.8446038750014913, -0.3678310981437311, 0.052500795383882255, -0.9873728129847198, 0.1853972558411101, -0.4567919475497814, 0.3560040703720955, -0.7275470336551025, -0.9999999999999997, -0.5388356045449695, -0.39952455333375053, -0.8777362161582201, -0.04749333519758877, -0.4137055503964722, -0.6794431710241862, -0.4594709253639297, -0.6515406553725256, -0.49419976601738874, 0.919921884843676], [0.8425537137216556, 0.13445496047040542, -0.6947427040217589, -0.31204519434646366, 0.656294418837457, 0.4913387470227714, 1.0, 0.3320108865294698, 0.007699722497757484, 0.9250645743949738, 0.3847651659745655, -0.009867784342306805, 1.0, 0.7452153606179129, 0.6502830458168325, -0.17115923414167608, -1.0, -0.9051313649232852, -0.44938578352084907, 0.19574922394478683, -0.028556607137969363, -0.8999993698560502, 0.30076979627944933, -0.9999985386473271, -0.430998333113797, 1.0, -1.0, 0.3149621739765749, 0.4518438399165212, -0.021205075639070814, -0.676354642356215, 0.6920089858866575, -0.023330462634837654, -0.6397735402356786, 0.7497588585430225, 0.9999999999997942, -0.7038798521853018, 0.3949957003769695, 0.15077841852462318, 0.10974806205772605, -1.0, -0.6044402864649897, -0.9335748920213593, 0.9708777474032011, -0.26377459832231764, -1.0, 0.6289658921047295, -0.006379237679729133, -0.7700813236370775, 0.25802030126798203, -0.266824305061998, -0.43297958365683636, 0.13147770367738681, 0.2471493419210294, -0.22933700441395344, 0.36741784833547947, 0.5392649985541487, 0.536900801091017, -0.8300288697295514, -0.06552214535589652, -0.27352294362415636, 0.18074669268219554, -0.10881527577564398, 0.21008163227801144, 0.39966853736988284, 0.7172268408853925, 0.43080378489917937, -0.439413657011738, 0.48870923239892716, 0.26088856886661443, 0.33779310285950825, -0.25527867928424375, -0.8231412415067109, 0.299318273801467, 0.849043717676147, 0.9987054573260342, 0.9999999999999998, -0.3880371253216537, -0.9999999999999997, 0.9995584899897674, 0.7038314611596638, -0.7969413927233941, -0.32480723378995385, -1.0], [0.8090748855622539, 0.3559798215223119, 0.6805078198867006, -0.19227808567990806, 0.999976560742533, -0.7674053159363693, 0.20797266859267377, -0.8582803361722628, -0.0190957790383014, 0.9969411030424778, -0.026864471570216326, -0.8570900722842507, -0.5663670530502837, -0.8582862853275213, 0.6050192048096578, -0.08652626499219175, -0.24233411466921254, 0.20706765729217028, 0.6569412887929255, -0.7079675019082704, 0.7169988184512058, 0.6988056151756146, -0.035854273813955465, -0.11935687696766853, 0.4932050802060894, -0.8947877474513966, 0.10094107955111645, 1.0, -0.15600624396018298, -0.31419137760721744, 0.5238556730147421, 0.9020603242313469, 0.19129642249486561, 0.1220786483471501, 0.7974102615335047, 0.0774910828850991, -0.06779132738192874, 0.17535043206224035, -0.21081631447454316, -0.55063227307866, 0.22774578528104691, 0.6474317027356629, -0.937489171046219, -0.9701837447899012, -1.0, -0.6748564983005403, 0.6281473415626396, 0.18087779899359424, -0.6803301513575137, 0.05496479316421796, -0.12308278544161401, 0.9381405811754115, -0.12841128000547894, -0.17488323281969348, -0.3088163494584922, -0.5985833411166014, 0.016535429057200908, 0.5142567074437552, -0.4173031326141188, -0.7877883872882429, 0.5314283386715346, -0.020673569141549428, 0.4200922134153501, -0.7945966661303661, 0.4417535149742485, -0.283530704407428, -0.4689411799007851, 0.403626506322681, 0.5945318058725907, -0.23012857015407195, -0.413755490780917, 0.3616116006217426, 0.7727940643992148, -0.13414245308982667, -0.26868119942240454, -0.9999991970522908, -0.9999952163275814, 0.7242336815383233, -0.013034329282139712, -0.9999999999999998, 0.06599248143636662, -0.3779371980962746, -0.20363227543079915, -0.9653212214137575], [0.009602180491369884, 0.1648772768238435, -0.39906366745053395, -0.09879717962540586, 0.13725133990936844, -0.29684993224726175, -0.6727362553134966, 0.5352471437981631, 0.9990322631468133, -0.06994323085354841, 0.9999999999999997, 0.16318850755773887, -0.32569410347828065, -0.8395502069078404, -0.6184572790122163, 0.45780442218643036, 1.0, 0.03793270339042786, 0.9994203406316696, 0.8279464222345374, 0.46604728192133793, -0.39429624785375256, 0.47504905645386, 0.017208355128981213, 0.560380461191092, 0.00903054721738131, -0.7495539052195742, -0.4256140798692085, 0.3808012042713265, 0.1339575102501972, -0.43489159993751597, 0.9199165356769371, -0.8257913503749266, -0.44968585605044, -0.998832190326394, -0.5996310934373267, -0.4257069326767952, -0.7463305278438128, -0.9897014793679318, 0.23191291838109368, 0.5201347932548241, -0.7919135121836035, -0.6136359840913297, -0.07635671549921061, 0.568896439887986, -0.8333281638146879, -0.3152851507479087, 1.0, 0.11058803093058926, 0.18866891505177305, -0.060804022510204475, 0.30712739317675425, 0.3589589981661365, -0.003216392994465337, 0.9999974742982173, 0.3718895586442551, 0.9439868216322328, 0.7537089268929064, 1.0, -0.7590184432691878, 0.4730411206857, -0.7204413664493244, -0.8056014479754703, 0.67202386318498, 0.9999999998295344, 0.43777894626725594, 0.5435694975599018, 0.9983993741863542, 0.6743033795147503, 0.7057603101633668, 0.7893861049648062, -0.6171226070017131, -0.9187003376923416, 0.42205428792753685, 0.06207794719639483, 0.926751453226281, 0.10206533206871592, -0.07008575191876701, 0.506403600949863, 0.5118315693806501, 0.9971540530578488, 0.7804713800236203, -0.06324730137057973, -0.9215413686137556]], "w2": [[-0.19086721020507788, 0.3150630660779433, 0.8155449670988564, -0.6384674689697174, 0.2540641028485068, 0.19920849724710754, 0.9104447620668201, -0.5738630786442055, -0.9456730333220449], [0.29498478535411304, -0.3769544837723498, -0.4899201267836717, -0.16625529621738153, -0.9128564582774285, 0.22873391289148517, 0.4481617440706539, -0.6364832642887012, -0.5218585881256104], [0.8123626023185716, 0.8941418378669711, -0.6430665846740065, 0.14537938234776343, 0.7883622569590909, 0.18010869285598216, 0.7671560202306427, 0.014402871454023516, 0.2860234397488476], [0.18372969548756218, 0.9999999999999997, 0.7450949943126921, -0.5826942610093995, 0.9999999999999999, -0.9397901571158455, 0.37244823558096973, 0.10347875375176757, 1.0], [-0.4457687688528053, 0.6497880071982308, -0.4077309709511427, 0.2928206519340956, -0.9999999957259043, -0.47866822830438766, 0.49197313739170023, 0.6512389439913601, -0.1266598945074798], [0.6113587923572201, -0.17621488733572716, 0.9251293020108037, 0.8089222533235052, 0.8567086045653017, 0.5780204160968783, -0.2401414901408965, 0.26438924653073126, -1.0], [0.8638204569199561, -0.21332196414345744, -0.4809986673267828, 0.9839769370651767, -0.702366862325868, 0.39767769302360817, -0.9883463314488401, 0.11289580924509503, -1.0]], "b1": [[0.6927304737371593], [0.9268889906798256], [0.8791288899186758], [-0.8495025718486585], [-0.8036897902531018], [0.1562818251805838], [-0.4515648084522301], [-0.04098542274578433], [-0.26587071318300814]], "b2": [[-0.6823850483063741], [-0.9999930484784435], [0.3955646114300944], [0.679698063899994], [0.6783626922714856], [-0.5467499854959079], [0.5483577068153134]], "fitness": -78.0, "best_pos": 7.0, "best_status": "small", "score": 200.0}