{"w1": [[-0.148695361806571, -0.2955148267116245, 0.21003321656119267, -0.6474004015636233, -0.7299070845160827, 0.2021901302771339, 0.47508605411555394, 1.0, -0.28691170248224257, -0.7443880835758596, 0.13862009173096662, -0.8784058869606921, 0.14605845436709874, -0.8938558975825324, -0.8257415122520443, -0.333459601716774, -0.13613228905824037, 0.016257932112913213, -0.051284352421514336, 0.06745124593434315, 0.4140062186597834, -0.8655088487353514, -0.30189101202671026, -0.2532233325881363, -0.21083117906224277, -0.15248460268401876, 0.763602620842464, 0.4565253913447906, 0.7342597831471277, 0.4404751150056857, -0.0666676920296432, -1.0, 0.06706330243428618, 0.14891757146549386, 0.5098232297274892, 0.9999999999999998, 0.527749518063384, 0.8933559985241452, 0.999553261376448, -1.0, 0.515018756592287, 0.9755990609436931, -0.7292754993587953, -0.518443948326218, 0.7284202049395577, 0.3798604223840606, -0.43131715108159696, -0.060431270514449846, 0.9998674785919973, 0.5160689847893702, 1.0, 0.05787429703423251, -0.89507095352616, -0.47905442756283295, 0.3080559378523337, 0.40045149382279144, -0.7364089454783814, -0.8536708426506191, -0.7791887157494338, -0.3886076048374639, -0.29412777365545606, 0.911465858848467, -0.7254187881740505, 1.0, 0.8999500608278718, 0.9995934901240977, -0.08748914081161455, 0.37802989548982396, -0.03757328927319026, -0.5980803411043152, 0.2931122355462705, -0.05530393260563661, -0.49489357507721154, -0.7882697265411281, -0.09827869308804019, -0.4094475240999763, -0.4412228164056944, -0.9999999999999999, -1.0, -0.9792406050964643, -0.13906654661149676, -1.0, 0.8394776278102851, 0.5434554604841016], [-0.22852657414077118, 0.9710198652443566, -0.02822525496517183, -0.8336385240152971, 0.29729950392130383, -0.33486562423875377, -0.27633577813671745, -0.4658297757573746, 0.7210917730799812, 0.4207872873344143, -0.18227444982870292, -0.06995189993706839, -0.5585632512261195, -0.6395630719432064, -0.6226009339138073, 0.160200465785215, -0.5171383732652783, 0.020349173474829146, -0.864368510851357, -0.6418096628025481, -0.04315932495684936, 0.8961938932092646, -0.10490825137307534, -0.5974616402605842, 0.6306591390791868, -0.030468261827512184, -0.5165757571792894, 0.31107673552744275, 0.2563904969698583, 0.27166316880724894, 0.9999577563425904, -0.2558552459855506, 0.4199763277721977, 0.9528727391733003, -0.5031419205778287, -1.0, -0.5939245374136315, 0.09394097122143825, -0.5484771301656819, 0.2391352578443547, 0.9999999806839958, -0.16235559417204823, 0.7613474264670108, 0.18679499133812752, 0.6546622453239814, 0.17458464677861882, 0.6489494306465597, 0.7232358283459682, 0.9899272646215383, -0.6709181818536062, -0.06289295839144447, -0.602025575266231, 0.9047606780298901, 0.20811589885537188, 1.0, 0.7991679030919556, -0.2545542598938434, 0.8960892158579952, -0.7909364935157174, -0.25196906119357043, -0.7556417676376137, 0.13858972270523728, 0.7777853691663684, 0.4813121805831558, -0.8914337549983965, -0.6499047164993407, 0.3129049437714587, 0.4665608756740654, 0.6480902507011306, 0.8197032019773262, 0.16497813799256653, -0.7548608043837416, 0.9993135425331631, 0.3439262696478296, -0.023154228895916625, -0.8199772142031172, -0.23075110620516823, -0.19920317702944648, 0.753147302845127, -0.24261515931024405, -0.06467381457008983, -0.9997776238132087, 0.334673481615733, -0.7933193922398345], [0.5271575332093585, -0.5655241639576231, -0.6455760457279559, 0.016008861111467577, -0.20336751446060883, 0.138434484465598, -0.9992780278900559, 0.6602710745491479, 0.8429596566793762, -0.9379863460400404, 0.4812492555416425, 0.6005904612626198, -0.723145670856305, -0.8202810599117439, -1.0, 0.18360953938415958, -0.23224940089526064, -0.6365380830357877, -0.12095639288808738, -0.9017745405294403, 1.0, 0.20072843388905487, 0.005809168263505098, 0.5567354160238568, -0.9948286405199118, -0.21242839368439062, -0.5426873207751582, -0.6450547279863019, 0.24161194397719266, 0.4149747286750669, 0.6088887853692801, -0.2583871817234366, 0.9999918418258378, 0.15692269800085754, -0.9711214071426553, 0.9999882111670113, -0.6648847477606546, 0.4633758649908623, -0.6928265735665501, 0.7880315009935733, -0.13049819082193453, -0.5377818397349892, -0.33803678235515544, -0.05701311191312549, -0.8872078522268316, 0.6180032703096668, 0.1657973321602781, -0.8636710362778676, -0.7459820637228368, 0.7765681599463132, 0.7412965826420074, 0.9841279149411026, -0.9999999999999998, 0.5490080290444193, -0.3131498750646769, 1.0, -0.22930908311957626, -0.8072336191419626, 0.46537538998391065, 0.21576348435890802, -0.06936221879630344, -0.2615421024024126, -0.703603229765466, 0.4311221427844454, 0.8486671177377146, -0.13988395593540212, -0.9999999999999999, 0.49027157047117453, -0.730337097416321, 0.036228892767221965, -0.5319091968534113, -0.8463870868966026, 0.27384811168108164, 0.8679145917851178, 0.3418495265504769, -0.9086933248327841, 0.5989925704802155, 0.1818832980506822, -0.49892340184111394, 0.6256102539194122, 0.922153014063445, 0.3414775463370491, 0.8075889916189595, 0.20108206655915248], [-0.2998317312322311, 0.9993487058177747, 0.5079803200392554, -0.8080123265354714, 0.7677913020606708, -0.7642479122926168, 0.4977619874975253, 0.3029760342345548, 0.6242736268898225, -0.35933495251608427, 0.05335007805109116, -0.292280950982273, 0.10762801509376461, -0.5116386074968919, -0.41058911030042383, 0.9995220680536179, -0.8160421050490091, 0.9002459283077457, -1.0, 0.1849473760243047, 0.607674256862972, 0.39741534337243184, -0.3167202376235789, -0.9148720652013961, -1.0, -0.0998941109637659, -0.575234697746744, -0.5995927803449608, -0.2766937647834948, -0.9938302483943048, -0.8415604074167299, 0.9765186418730846, 0.774644145770057, 0.010252066353590756, 0.41867654679540717, 0.41404507236622196, 0.19292347337874358, 0.7651616965802126, 0.9848468846776157, 0.9331811409763372, 0.9999999999999996, -0.27105576552155014, 0.9949669717344917, 0.021323911625928095, 0.3434045457107935, -0.49673455053543397, 0.5876101116751875, 0.29138075890495374, -0.9959249058826475, 0.2793594242339052, 0.7596486572421576, 0.3113428347293455, 0.452143754368907, -0.710247475684299, -0.20683171147061855, -0.8059975500837979, 0.006436332071181505, 0.37966271873832935, 0.12072881531694353, -0.2360384602117789, -0.014304702797345132, -0.1770480243655137, 0.06850831739795848, -0.5233975307040112, 0.06538828438698256, 0.092197065573915, 0.9985114303721047, 0.6830220663322872, -0.6311983889438029, -0.42102581084692114, -0.40898010983352723, -0.9969019415206062, -0.7389849944658052, -0.40132137600796886, 0.014756954800733859, -0.15820335807013874, -0.18008264307929375, -0.1524908957966777, -0.20783492861718364, 0.40328087749261643, 0.3599271637224299, -0.36710682250507554, -1.0, -0.16015613686157473], [0.48681089883426365, 0.6032309484727117, 0.33780357814923134, -0.9750244383161585, 0.1239279726733426, 0.2755250066764114, 0.060734804986582576, -0.6942674455106861, 0.8676826479469796, -0.9693232312971657, -0.9270153115370332, -0.34285335330377253, -0.3241440093886883, -0.8393699550151416, -0.6523707360651766, -0.5032697295948569, 0.46817365432756797, -0.43414979928083663, -0.8285497694431233, 0.9962551999428514, -0.1611036441736399, -0.8498576220572804, -0.9776616233933567, -0.5861544600217886, -0.3935338230476252, -0.99838704537346, 0.8055049102209875, -0.4115179344286131, -0.22819903824812926, -0.08648337758426179, 0.11264643889906409, -0.1321091927397094, 0.39657246150398057, 0.05688443063530273, 0.49605517230313134, 0.5147412409820602, -0.1345454938919695, -0.5171415613571676, -0.04372897833401045, 0.5152610560668396, 1.0, -0.02763448123757788, -0.804629524601447, -0.05250034436276104, -0.7356241548603913, -0.9995470932616218, -0.36119499156174034, -0.09467338332198083, -0.454548160362192, 0.348604729289482, 1.0, 0.9738925727010729, 0.7944119699228319, 0.15940254743553225, -0.3152735092247483, 0.15057467674054892, 0.01183786732789001, -0.026596421047287426, 0.0623114596145696, 0.5002335371963409, -0.34309811099325016, -0.9997878841895221, -0.10043749305960124, -0.9824638404856733, -0.9643685985030499, -0.27706758718838675, 0.08449688370198889, 0.9999999925454953, -0.648454338622606, -0.9744906894354386, -0.999994413039284, -0.020167260579853522, -0.20750975398364713, 0.9999609772665723, -0.7974653352769694, 1.0, 0.5314908440451979, -0.034882825607710555, -0.2539719725587213, -0.6523528506668121, 0.3821883229797265, 0.026271875198235338, -0.7009233332648392, 0.8046545588284305], [0.32179539718590344, -0.3171809919322699, 0.42731276576598054, 0.796204031658905, -0.11450420960347826, -0.8112711836597203, -0.4840799271361409, -1.0, -0.9268248402004655, 0.11887449192410413, -0.45709316445762926, 0.5629425409468505, -0.38805157343883456, -0.8244672712237876, -0.9112274367581608, 1.0, 0.41699671433893026, 0.3743669938694715, 0.7945520971597424, -0.1620371499766103, 0.5894914591695072, 0.15520366678929245, 0.8914220472959137, 0.4987765076262179, -1.0, -0.39541949829386147, -0.9090158154131426, -0.1071833097195397, 0.1311453611220184, 0.9338313949786801, 0.21911250214355507, -0.3779495337128757, -0.9999999496087056, 0.9945526978893955, 0.6938638488325094, 0.7384892547431375, -0.4096002884481449, -0.27129321044021026, -0.1479898679700388, 0.3924369019981339, -0.7168994589305986, -0.057870698369395394, 0.434677568485659, 0.38552929659369833, 0.9415098213847042, 0.9332900259535494, 0.5559415945069633, -0.2999056465881178, 0.20791554758523484, 0.8216886336723332, -1.0, 0.8137347825843454, 0.08300100064884738, -0.3287659892048295, -0.7436704263305703, 0.3264565770808055, -0.4386200776174963, -0.25226408304826564, -0.1335604605909801, 0.9997626164893739, 0.5522633663355635, 0.9222318517870263, 0.5717932365829624, 0.4566604954677073, 0.7927291745283456, 0.8442303518717914, -0.36783109814373116, 0.052500795383882255, -0.9871796540300571, 0.18538744682110284, -0.43103910723886657, 0.155915299485607, -0.6469461278781591, -1.0, -0.538838877413202, -0.3995245533337506, -0.8777362161582198, -0.04749333519758878, -0.4137055503964722, -0.6819374316729957, -0.06559784945245295, -0.6347784584356262, -0.49419976601738874, 0.9199218848436762], [0.8425150431488619, 0.22827028078461326, -0.9883694180009048, -0.31204519434646366, 0.656294418837457, 0.4913387470227714, 0.9169637813090252, 0.3320180997105995, -0.047299530402586866, 0.9253283887686936, 0.3847651659745654, 0.03245628404142933, 0.6145919307046028, 1.0, 0.6502830458168324, -0.1750644305015965, -0.9999999999999999, -0.7494738950005865, -0.44938578352084907, 0.19537201660234393, 0.14121987472750094, -0.7382192372058924, 0.0404758970528315, -0.9999999998410514, -0.43074702472905757, 1.0, -0.999440460309536, 0.31413978093825323, 0.6247281891499878, -0.5471550013553325, -0.6763546423562149, 0.43011782878067734, -0.023331921015273826, -0.6397691133869431, 0.8819168813157461, 0.9999999996855955, -0.7035284070786372, 0.5561641270200237, 0.15077841852462315, 0.11018551868797152, -0.8207721367231747, -0.419593338502222, -0.6607974855930261, 0.8763360432598515, -0.2681176705584706, -0.9999837447071807, 0.49510013469441927, -0.05471386391919557, -0.6905257212316079, 0.2619008147445334, -0.2666745894546759, -0.3731601146143644, 0.13147770367738681, 0.13844499432735413, -0.2548508577782075, 0.3665407739528233, 0.7099477833566233, 0.18045465292716867, -0.8304357919660954, -0.06394133332229537, -0.1422882960737735, 0.18074669268219554, -0.11895193875130383, 0.1934103962583825, 0.40055318748118807, 0.7158571297208642, 0.5626645626676119, -0.14536980390029777, 0.46116914969385553, 0.26089224189380344, 0.337806222161039, -0.1423491145237138, -0.8225382823493755, 0.30021969505225987, 0.9993820148159765, 0.998689989351718, 1.0, -0.387971554238397, -0.9009979666409842, 0.8422392324531767, 0.839882896083298, -0.7969555684402116, -0.18460309841481168, -0.8122409956042052], [0.8090025566031994, 0.3695791846050612, 0.6805078198867005, -0.1922780856799081, 0.9716389173277609, -0.7670089700221561, 0.09415154163135708, -0.8582803361722628, -0.020433802212347096, 0.456120640467776, -0.08135584357105471, -0.8571090407291975, -0.6683861938211008, -0.8583104843963736, 0.6048618110186095, 0.012882617462519834, -0.23700960343626362, -0.2128590313290543, 0.4267038678645205, -0.740255312521182, 0.6345586922519724, 0.8425858799276016, -0.03404266735472942, -0.1947319705459529, 0.49254373551784947, -1.0, 0.10094107955111645, 0.9999999999999998, 0.1650946166286355, -0.2793542783461418, 0.523855673014742, 1.0, 0.1904224350689732, 0.12207864834715014, 0.8422049687845587, 0.07840351345386336, -0.320961491319328, 0.13154062805464437, -0.2108163144745432, -0.5506572368795027, -0.06952446606233531, 0.7622935115777063, -0.6496597793287155, -0.9672661018370136, -0.7986016115983496, -0.6753557858416659, 0.628145108630383, -0.4734129349977242, -0.35550343049778205, 0.05329395899972963, -0.12308956582057187, 0.9356336001950596, -0.12841128000547894, -0.17488323281969345, -0.30879119501708874, -0.5988215077685053, 0.01653542905720091, 0.5133043691512472, -0.27281839523608237, -0.7877883872882431, 0.5314283386715345, 0.14654568733092038, 0.4200922134153501, -0.8516551422487353, 0.5418426288456224, -0.2936394685903237, -0.3855924272769007, 0.5389816530594811, 0.9993332676251261, -0.22854120243001877, -0.413755490780917, 0.3616110857504215, 0.778244821759717, -0.11247677061752662, -0.2788549731645153, -0.9999991970522908, -0.9999952163275813, 0.7242336815383232, -0.013034329282139715, -0.9999999999999998, 0.16065135783098639, -0.47896302788776285, -0.20363227543079915, -0.8859318116606055], [0.009625016434915052, 0.5147292723563592, -0.39906366745053407, -0.09879717962540588, 0.15221565312840163, -0.2970368387291455, -0.6716459504931396, 0.53524556866347, 0.9749791177989419, -0.06994087272550391, 0.9999999999999997, 0.18680587481100408, -0.3243411933485961, -0.8395502069078404, -0.9016489581797534, 0.4573129533604146, 0.7464569859207238, 0.03793270339042785, 1.0, 0.7660086610629008, 0.6958205689922664, -0.3890281269320133, 0.9575460606580388, -0.075574832352877, 0.5594045074020728, -0.008360787909627866, -0.8893900974296313, -0.42570405994617966, 0.32120000044973834, -0.0418911253780896, -0.5121901222608295, 1.0, -0.8253040743301441, -0.35304204284048635, -0.9988321903263945, -0.3929371281187775, -0.7694011277134836, -0.9981804973443158, -0.9880669617371791, 0.2319280381630115, 0.5201356131462043, -0.7923986761561973, -0.4038380191702246, -0.19364847346737094, 0.3753029238127054, -0.8341591451551252, -0.27104533464646874, 0.8937910082995808, -0.2252349451387009, 0.22800420666853288, -0.060805378837880605, 0.5579635717617094, 0.11854034459569862, -0.003216392994465337, 0.927673721109609, 0.2895695726445993, 0.9439868216322329, 0.45191904913157815, 1.0, -0.7590184432691877, 0.468752476790645, -0.8757620301317985, -0.8074091227271741, 0.7828231755863965, 0.999999999829534, 0.5194219647199436, 0.40356711633915915, 0.9604625934049188, 0.6743033795147503, 0.7057664317942843, 0.7883717835167946, -0.617122607001713, -0.9187003376923416, 0.42247874518710093, 0.2749029907918359, 0.6270646209179923, 0.2608392686465077, -0.070085751918767, 0.6763453048339533, 0.44832705647964266, 0.9971540530578489, 0.8494501001237771, -0.23433327185463812, -1.0]], "w2": [[-0.05217261893169736, 0.27103081235845494, 0.5558315766823955, -0.7880394256747999, 0.4830357839795092, 0.19963422981506565, 0.8681725580463985, -0.5641437362571211, -0.9943017449795383], [0.29536942848330194, -0.37695448377234986, -0.489216809202559, 0.2635962200301924, -0.8869840753106468, 0.22873391289148517, 0.44816174407065396, -0.636314995095613, -0.19363597734749813], [0.48796398670855984, 0.7410939924750586, -0.6418375864278422, 0.3440736260804268, 0.7935724661754151, 0.2794058626648022, 0.7671560202306428, 0.20447786628305564, -0.2518204461563621], [-0.08803332269512164, 1.0, 0.747616282768569, -0.5829140587970069, 1.0, -1.0, 0.20339554537564833, 0.10423587791095715, 0.7856531188758179], [-0.44576876885280525, 0.6497929869210843, -0.405934404678189, 0.29282065193409573, -0.8425308138859209, -0.23001730151746405, 0.4914128004313118, 0.18270735957505585, -0.12663095405920835], [0.61135879235722, -0.17621488733572713, 1.0, 0.6218026264606767, 0.8106328071172396, 0.5780204160968783, -0.24014149014089653, 0.26438924653073126, -0.9999999999999997], [0.863820456919956, -0.20724650265597916, -0.48099866732678276, 0.757720060837993, -0.7022225452812144, 0.13842726586267445, -1.0, 0.11289580924509503, -0.9648114731549559]], "b1": [[0.868631608744878], [1.0], [0.9999378282909372], [-0.9004972737625292], [-0.5578564318915175], [0.15628182518058376], [-0.27006858902003167], [-0.09042644067741978], [-0.14830479937049706]], "b2": [[-0.6760622931576777], [-0.9913363082784222], [0.2852254860210988], [0.682021953587174], [0.6801041671804473], [-0.9804440544028706], [0.5483576920479506]], "fitness": 95.0, "best_pos": 4.0, "best_status": "small", "score": 0.0}