{"w1": [[-0.286007423921077, -0.2545446673234744, 0.17906321319721819, -0.44259589276106875, -0.4996908347942734, 0.06328077312290398, 0.15072287586733815, 0.9999999999999998, 0.0069643201221245106, -0.49618365878147425, 0.04764228103061315, -1.0, 0.14244017610884877, -0.9006403387067226, -0.5806380235119101, 0.07720209029074301, -0.31656500513903485, 0.10157601310431572, -0.339762808892498, 0.06698705517413871, 0.3557557902609202, -0.9999333554559343, -0.40673576720914884, -0.0224739424848924, -0.20979268476310725, 0.09958751409169915, 0.7660418141712374, 0.4565253913447907, 1.0, 0.4393190048980264, -0.06686219659925127, -1.0, 0.06834489806646357, 0.1429115291726894, 0.1973216874395821, 1.0, 0.5563763206932257, 0.9998065717378869, 0.9986072472895773, -0.9696544726795289, 0.5154200063892866, 0.9999999788892362, -0.5806331961810235, -0.4501193609427674, 0.7011359657691175, 0.05823653877025018, -0.5756277078803825, -0.03170122236471096, 0.9761737613735546, 0.7286920992670651, 1.0, 0.3549901388833141, -0.7875719285663877, -0.479298645901457, 0.5772176896267899, 0.4004514091680336, -0.5819208429905363, -0.7606587785103422, -0.7783585003693445, -0.18571470626485276, -0.2938798431977405, 0.9117459726732667, -0.8582889610695053, 0.7409714602583103, 0.9998763783466982, 0.6682638048016476, -0.30842112255373133, 0.3770679589151608, -0.03553999857111447, -0.46085926584991, 0.5398359820170572, -0.07803355317596147, -0.265472786980638, -0.1490867623230723, 0.1394512656301481, -0.4094325732281896, -0.26643708571835867, -0.9999999999999994, -0.9989405226923753, -1.0, -0.13906532087970155, -0.9025360104493149, 0.8394775414259567, 0.5435641796937065], [-0.729162534404813, 1.0, 0.054361736757350496, -0.6590506604929313, -0.07771700206391065, -0.5127233748806966, -0.2770541219932522, -0.6497760406143189, 0.5190066845541135, 0.42081659602918076, -0.31369814810760654, -0.24843013519489776, -0.821414617213978, -0.6400173086613911, -0.6226902925770345, 0.12005360509799079, -0.5215081711710556, -0.08212705511557769, -0.9999999999999833, -0.7973421369019515, 0.1358363597873508, 0.7125130358818123, 0.4054341646584434, -0.48518613038018094, 0.267337220431777, -0.3744775788799451, -0.19412290863132461, 0.43827933667683366, 0.07801166880580485, 0.27323239258898174, 1.0, -0.09558388368663713, 0.1894490550356792, 0.5799532489522355, -0.8042177346851748, -0.9999999999999999, -0.816719488770554, 0.09330797484686712, -0.787495031517458, 0.2391352578443547, 1.0, -0.07821419552602152, 0.9210390741535562, 0.3516936011284083, 0.39847878394612823, 0.41559585496692425, 0.30781231625641137, 0.8370295327164433, 0.9898890250742536, -0.6722822374757561, 0.19952997958068333, -0.6021081984541155, 0.6679816637410074, 0.4480318860235426, 0.6415448555591151, 0.4114355079418547, -0.32810159535140593, 0.7733017544986821, -1.0, -0.5254160903871995, -0.8574416173381845, 0.13836135332984276, 0.459385620166467, 0.44267332029665385, -0.40695405371431803, -0.649761558364299, 0.3548657989925668, 0.46740864907225527, 0.6481385193337045, 0.5372007525246045, 0.41090853084899814, -0.7557427802446341, 0.7808129817978275, 0.5689220842603604, -0.016663095301985325, -0.8194072948652331, 0.10543886556886609, -0.5442176498797054, 0.5964197730888079, 0.014252089442848014, -0.1169797996094193, -0.3808782976370007, 0.3353074284014755, -1.0], [0.643320300078013, -0.8122220908451447, -0.6455844513609731, -0.18499379186828754, -0.23304631757720662, 0.179823012289722, -0.733327896142868, 0.7448254114878675, 0.9692667671883801, -0.9999999999999999, 0.7713835354395393, 0.6880578673707933, -0.7237422427455761, -0.959418617277138, -0.9997205786876742, -0.3357193720147256, -0.1750975779794999, -0.606749039452012, -0.05864151422654939, -0.9018726527108664, 0.9999999999999998, 0.3780924968397058, 0.6617747681509037, 0.556427163576912, -1.0, -0.6955219057192411, -0.5451482296680947, -0.8179648723006926, 0.23886393860647195, 0.4144225809258379, 0.6630629886536877, 0.06086463004985142, 0.9999942797436839, 0.550538403370764, -0.9999999999999999, 1.0, -0.5708982050720963, 0.7489143232581774, -0.8596084794484897, 0.314280978574143, -0.13049819082193462, -0.5372420382699525, 0.19423226528267543, 0.7536981513799879, -0.9837019856044118, 0.7930415455658799, 0.24493565029309802, -0.8095046638291895, -0.8921641792792279, 0.43096701681440136, 0.6596571737579405, 0.34145139099074795, -0.8085193685539653, 0.5571086276949825, -0.6010420554880331, 0.954797173809533, -0.577078835723203, -0.9999998885146253, 0.40177540783741433, 0.21593365401832632, -0.1674877726244573, -0.2613950117523933, -0.34728302610134415, 0.18770825271572786, 0.8332738060123777, -0.3217917291174842, -0.9999999999999997, 0.720340913876268, -1.0, 0.1757712735152434, -0.7150248233016891, -0.9993857293072586, 0.20856766831927726, 0.6794272141306089, 0.34184630812864625, -0.9400394635534735, 0.8134777183741815, 0.24693274200926799, -0.4645813177747479, 0.6016559694240967, 0.766208561383605, 0.34295604677887154, 0.10414332480556333, 0.20372858771214128], [0.31959686256098735, 0.862152970940426, 0.34732555710684526, -0.8849862576488713, 0.6870177988483189, -0.38464558802716126, 0.5482000684251607, 0.6967854523850997, 0.622945040711308, -0.27856926771687596, -0.06963772800520444, -0.2848415852751198, 0.2199352055041833, -0.5141982022208758, -0.36839849747304465, 0.9999945567640998, -0.5213770298710217, 0.9411285711764806, -0.7761140431488367, 0.013929204630144203, 0.6076746508961501, 0.28979717960963625, -0.13271501693016655, -0.9980412101233722, -0.9983712849093472, 0.24344871511793656, -0.6921084526760559, -0.44356639524051544, -0.5188608677913354, -0.7358247340038595, -0.6468155476911845, 1.0, 0.8809129360519918, 0.03081675306805807, 0.47095224407388747, 0.6430472421984574, 0.19292347337874352, 0.9245991799573072, 0.9423785404210836, 0.9333431552590831, 0.9999967229864505, -0.2706422355706448, 0.9950152219836434, 0.14801692096474556, 0.43831317420219873, -0.37185857882767603, 0.09316788907029348, 0.28863237641126754, -0.636670140196496, 0.07371271829945583, 0.8988080013300576, 0.31134216431966816, 0.5049644104166087, -0.43547255589782274, -0.20682976628809335, -0.805997455173336, -0.22791472704809584, 0.34922188464195364, 0.09512922758517, -0.2686929399847263, 0.09592105813754148, -0.19627938414749216, -0.2564105311540348, -0.5260339650252226, 0.06571579559199664, 0.09426085827377254, 1.0, 0.570639539137589, -0.6305175556672887, -0.41630441941856544, -0.42079253937481853, -0.5975130681118737, -0.9999747957184377, -0.6236259491582834, -0.17993411949999047, -0.15820335807013877, -0.5043888877461749, 0.11784389384126778, -0.3656379479037813, 0.3201273640257065, 0.6751526950491701, -0.39321981408704193, -0.8300609511349568, -0.16015613686157473], [0.7212761585486254, 0.6048800712488813, 0.15745248714891047, -1.0, -0.26268382132468776, 0.26136193147674336, 0.341576855243687, -0.8442052266535132, 0.6505578532459846, -0.9693232314284568, -1.0, -0.8730841482633025, -0.32426134157797154, -0.7410466303618555, -0.5973652594022135, -0.31701560539636264, 0.424403539247661, -0.7198515492679775, -0.7278793350124027, 1.0, -0.37644027685068865, -0.9751363435110851, -0.7427392343854754, -0.569998620874687, -0.16841086456509602, -1.0, 0.8057221971276245, -0.09160639351969291, -0.2281942620211736, -0.088348786657066, -0.20874704896034083, -0.1343272710588682, 0.7429215155555413, 0.05739191687295642, 0.4958691189998802, 0.5149083377897671, -0.13505640572873817, -0.36208651285471616, 0.4568429046528504, 0.8343553858736737, 0.8083267103288183, -0.32019865533379555, -1.0, -0.15782047482128733, -1.0, -0.9999999999999998, -0.6536220741304245, -0.18325518507951297, -0.07213464509518575, 0.34847253835513414, 0.9999979909219558, 0.8899246419130767, 0.5270569647153216, 0.15940141371989866, 0.31875976670835565, -0.009123203306068972, -0.28248703813619114, -0.02418548032338328, 0.18943671379936836, 0.7899458172895121, -0.5853898930732331, -0.9999987484804213, -0.10039458568859756, -0.9098367826685951, -0.8516758068273715, -0.2952405796266211, -0.05153800424584896, 0.9998692869853993, -0.9032989371368727, -0.9999809586141254, -0.9979530024812191, -0.4963986563635736, 0.10610357256675795, 0.9999614289106615, -0.9175887447394541, 0.9996290039475354, 0.39719197114985905, 0.06817147117770803, -0.25395961121012645, -0.4830669802226428, 0.3821797568374094, -0.15246678775795686, -0.50793741755015, 0.9167933152376949], [0.2562398512028359, -0.7072228641779039, 0.42731277424110137, 0.7457919504858345, -0.11765724254061978, -0.9995998576230946, -0.4725180771219192, -0.9999999999999994, -0.43857980367842725, 0.11793973655165332, -0.45564870547858977, 0.818254955723636, -0.3013110654071967, -0.8254597408462148, -0.9110547051209846, 0.9977201709059577, 0.40708117898241003, 0.8064152902444836, 0.7946654548510307, -0.29094941658336654, 0.5076145562682682, 0.16016969562033093, 0.9984564098456188, 0.8155621986564705, -0.9977393981559832, 0.022064591108206272, -1.0, -0.10698485519093943, 0.23188414323440543, 0.9336234599789971, 0.3151775873824138, 0.062370310445460646, -1.0, 0.5247618949202383, 0.6650186268072756, 0.7384895006695511, -0.4096326979971642, -0.16665297965543152, 0.10648829998422908, 0.3945769620064956, -0.6721112693142235, -0.3650385277891707, 0.4313824365545904, 0.38509307168818746, 0.9175343144250084, 0.7228561701315739, 0.21713774120410553, -0.13695985351085307, 0.20841169440051982, 0.9995701276624785, -0.9999995911179856, 0.851549422682062, 0.1069698062575358, -0.3288517507466669, -0.9779078353179741, 0.15130180525666356, -0.6695436872048046, -0.2938306228573411, -0.5049350304360823, 0.9997628109347236, 0.5238272949310403, 0.9210849123087965, 0.570389998273124, 0.4566604954677073, 0.6130655450476362, 0.998289788568476, -0.03533787070253617, 0.09474540166964093, -0.9271821753897026, 0.41091040585520106, -0.456809046802328, 0.008871221721170896, -0.5430012578680464, -0.9999999999999998, -0.7601757837919955, -0.21583183504907233, -0.8822768689534092, -0.19062393851127535, -0.38441401926593605, -1.0, -0.46058860309378824, -0.8738414660451238, -0.5782795656000893, 0.9198378073253992], [0.5658463051315805, 0.7031929044444855, -0.694741847988843, -0.31204519434646366, 0.10958365097024891, 0.701725285757132, 0.7412550277167836, 0.33373926709630514, 0.18242333044303244, 0.9999998524578244, 0.8222228744228814, -0.25312647507444086, 0.614599925802563, 0.999976115075536, 0.6502830457216359, -0.41947778562340604, -0.8144033434225575, -0.8195771621077783, -0.14108591324612987, 0.0665470166159994, -0.09129004568674526, -0.8999803515030623, 0.2990337395879052, -0.9999985321552343, -0.4310001094485146, 0.9999999999999999, -0.9999966730214906, 0.31621317308865954, 0.4525110308499404, -0.3893410925357478, -0.6692875288285381, 0.6928042936793678, -0.024603003314411558, -0.6369265704493897, 0.531833312714236, 0.8436908041454864, -0.9432196522032351, 0.12430646755183408, 0.041999174665277764, 0.3292131682757303, -0.8197517353941782, -0.49195193798157505, -0.5812819564559941, 0.9589840680791837, 0.21004259807584835, -0.8514241184147582, 0.7500085580302813, -0.22659217997711378, -0.7159718120682825, 0.4668791641205582, -0.2886700192143139, -0.3719765368143804, 0.1309244558876318, 0.19387776114005506, 0.30461840074763175, 0.36871649935889445, 0.9351381794059699, 0.18024837252032927, -0.8715022646573176, 0.021014858394143677, -0.27316332089886897, 0.3180553626715548, -0.1148395856836977, 0.19320217476075, 0.4013607333555322, 0.649964715796806, 0.4302750468443578, -0.47333936018232786, 0.48870923239892716, -0.0860186297538011, 0.11067089290816384, -0.2549338589327328, -0.8222541266640484, 0.3003124170010361, 0.9999334868400125, 0.9986899887781565, 0.6702502808341054, -0.38916418266197683, -0.9997674910404151, 0.42887213585249134, 0.3175866997480289, -0.9724255119670355, 0.5893370959218971, -0.9962494017263434], [0.968426116557256, 0.3688222333151596, 0.6805078204748495, 0.060084107806233814, 1.0, -0.7057138750261958, 0.22649382103197563, -1.0, -0.019436809041829428, 1.0, -0.09047208357189705, -1.0, -0.5663670753193316, -0.78742563794612, 0.16391963901354017, 0.013607018574350142, 0.3123497630716797, 0.20567015912118408, 0.7860969829549519, -0.46249905290031634, 0.714338294240661, 0.6978010016832912, -0.03404462350218224, -0.30919366931209735, 0.4932053298063179, -0.9511706004086901, -0.07885330818658055, 0.8897479237238747, -0.09950485126677025, -0.4975603049578673, 0.3811731928479154, 0.8097428035347921, 0.13413431250286867, 0.1220654709969688, 0.7783543180422015, 0.015118783863459476, -0.13054517464157556, 0.05577412708187462, -0.24938888883686378, -0.6729111213713648, 0.16631490354246972, 0.6205735817050594, -0.6509638163448889, -0.9999802640955193, -0.6977552796144812, -0.6747208738966518, 0.628564417517656, -0.1487750306087896, 0.016654819368255025, -0.5081631179891408, -0.1275103335480905, 0.6241826446844106, 0.1727897879153918, -0.17508680993783274, -0.3082014523143631, -0.38007696069480335, 0.03232498338383871, 0.3197030717655951, -0.5914109394844552, -0.8277288175609984, 0.5686290256182382, -0.3195187573592993, 0.42081086642860865, -0.7948040350874342, 0.19202903375495398, -0.20356552834036265, -1.0, 0.45314517532183557, 0.9993318713801117, -0.2283716178267881, -0.21197913806537144, 0.3632146018021276, 0.9998528183549115, -0.4506829442352006, -0.2721949097096, -0.9999991970522906, -0.9999951906570749, 0.9996293429018892, 0.3342567385495824, -0.9999999999999992, 0.1341339932489085, -0.37152948021085375, -0.7116920941443421, -0.9989445503072368], [-0.030688613945531948, 0.5148063654095832, -0.3690398149476912, -0.10118219922862884, 0.49652286872218687, -0.34336184313313756, -0.6499989715129606, 0.5352274234073007, 0.999996215418729, -0.6785947746518065, 0.9999999999999999, 0.18740011626631345, -0.21160622716024638, -1.0, -0.4472591488491503, 0.5641955297506888, 0.7865254652481278, 0.037932703390427834, 0.9997822419597225, 0.8263835265260291, 0.5217204207683773, -0.18135817576267063, 0.9999999999999998, 0.0765644019925605, 0.5601802763922653, 0.009023878757012823, -0.74978984109519, -0.42763662393685925, 0.3234555871913217, -0.2762063846505224, 0.24308285304799365, 0.7169010165546863, -0.8255658808119829, -0.48960806247863115, -1.0, -0.017180176597825475, -0.8418604031135257, -0.7575008419756413, -1.0, 0.40070295689898866, 0.5201363721082235, -0.7847161381351918, -0.6465820667911545, -0.1803845334001972, 0.3750657854919328, -0.8333332367363436, -0.41031864901408366, 0.5792847557250974, 0.11336507019119862, 0.4410774698859193, 0.16750552106829417, 0.304585062160846, 0.118672075198923, -0.20739486028191162, 0.9112205805992363, 0.36990216332275855, 0.9995990237512711, 0.7550742985947347, 1.0, -0.8950651325328917, 0.4736901391451463, -0.7204155680789581, -1.0, 0.7828231755863962, 0.9999270723507103, 1.0, 0.8132602442001263, 0.7523097534715556, 0.8013280882813846, 0.7063435918082603, 0.7721813054463579, -0.6177129216466487, -0.9187160732150829, 0.4222383209471103, -0.057889918251035906, 0.7779467362861952, 0.449171512378599, -0.07008575191876704, 0.5471169620935651, 0.36717557255840416, 0.9963975405478903, 0.6156070454257921, -0.020930035330238076, -1.0]], "w2": [[-0.19088341445525026, 0.3157145570161933, 0.8146973169699014, -0.6381522103399497, 0.4836447483725495, -0.011713344336509654, 0.9103862198270423, -0.28996396199063185, -0.9943017051957023], [0.27182908766202796, -0.814481758404937, -0.578648372583343, -0.44011294490784664, -0.9999999318537949, 0.22873391390028872, 0.448396312378106, -0.7159111828834994, -0.19356619868943753], [0.8123626023185714, 0.4002401622407623, -0.691055563132302, 0.6423005704201169, 0.5329912320130428, 0.28940440875047696, 0.7469807350061967, -0.03084160213500757, 0.28271907830915655], [0.09928740740187372, 0.9999999999999998, 0.9088618163282063, -0.6360777182649199, 0.9992602138712188, -0.9997019975018615, 0.5056220700938908, 0.10424955126896765, 0.3154530557474285], [0.029782667160871273, 0.4858715089472369, -0.4059274962598853, 0.4726753707223097, -0.9999999999999998, -0.6815532208396846, 0.6708184873852401, 0.6730194302320317, 0.26632327483352036], [0.6112819045777248, -0.17621488733572716, 0.9209361624145143, 0.6212703243001511, 0.9261475350375014, 0.5781595835041482, -0.2401414901408966, -0.010958465706489118, -1.0], [1.0, -0.5305055276869194, -0.45868433341427084, 0.8761711412253196, -0.7026970370003517, 0.13598286032258844, -0.9999786858554577, 0.1184474980522224, -1.0]], "b1": [[0.7032599997093357], [0.984936613146998], [0.9999999999999992], [-0.6427932034614466], [-0.5573594844651798], [-0.0831102269726378], [-0.2700866996748111], [-0.22412241106214867], [-0.033959839791106075]], "b2": [[-0.6823669735641893], [-0.8019690269129782], [0.6065937158405322], [0.6803881707330025], [0.8849021176320752], [-0.6461002337439342], [0.9085590636386588]], "fitness": 819.0, "best_pos": 8.0, "best_status": "small", "score": 200.0}