{"w1": [[-0.09129770431102027, -0.25454466732347697, 0.17866734354587688, -0.44259589276106664, -0.499690834794278, 0.06328078136875334, 0.15072287586733932, 0.9999999999999997, 0.006933773524342706, -0.21170957820958358, 0.04764228110903928, -0.8833945516347952, 0.14244017610179627, -0.8938556711730252, -0.5806380235069165, 0.08358171292547663, -0.058952829514017764, 0.051130665705210174, -0.05128935571724189, 0.06698148882390893, 0.3557557902608369, -0.9531785058589656, -0.4067357672091264, -0.2253853890138072, -0.20979268484908958, -0.08466116794996181, 0.7635986344587207, 0.45652539134479075, 0.8063987974738069, 0.4393199084452295, -0.06686219659925126, -1.0, 0.06834489806649015, 0.04030314340476798, 0.4380920365634003, 0.8853673635858215, 0.5563749890293085, 0.9998065713821739, 0.9986072472895691, -0.9696544726795286, 0.5154200063892865, 0.999999978889236, -0.5806302588866474, -0.6510234376991925, 0.8163568808358016, 0.05823585277415625, -0.5902849510714708, -0.031705846248332024, 0.9761737616166374, 0.7286916829277094, 0.9999939961382563, 0.35636732169799745, -0.8952204881472421, -0.47930462898034043, 0.040206012859770796, 0.40045140916803357, -0.5819208429905364, -0.7607545974172673, -0.7783585003768351, -0.25579542371119873, -0.29387983857403005, 0.8299640040788864, -0.7258612965534579, 0.7409714562424545, 1.0, 0.9701660153523554, -0.3747597750729063, 0.16047581719919266, -0.03553999857110756, -0.5980803411043153, 0.5398359849436504, -0.05581002580871538, -0.26547278698063814, -0.14908684086059656, -0.04372202008050095, -0.4094325732281896, -0.266437062434101, -0.9999999999999993, -0.9989405226923754, -1.0, -0.1390653208797019, -0.9999999999999997, 1.0, 0.5435641796904], [-0.19761699173950903, 0.9999949525995747, 0.054361883482047756, -0.6590506604929313, -0.07771700206510475, -0.5127233748253758, -0.2770541219933749, -0.6900239255583295, 0.5190066845747587, 0.4208165960290531, -0.31369830555913847, -0.24843013519489748, -0.8207013033490779, -0.6400172287785073, -0.6227129523677879, 0.1344995250620845, -0.5215081712340364, -0.05968642645086364, -0.9999999999999835, -0.6224418233227794, -0.23318553972088268, 0.6537439082634504, 0.4054341646652286, -0.4851861303801812, 0.26733720614801554, -0.3744775788800643, -0.19412290863124493, 0.5766593165327178, 0.17572121410837999, 0.27323239245112096, 1.0, -0.09558388261313466, 0.18945889072125371, 0.8819158703743619, -0.6302797265945851, -1.0, -0.8167194887705539, 0.09330953546237987, -0.8652175148898903, 0.23913525784435466, 0.9999999807305064, -0.05867051496599481, 0.9210220272812181, 0.3516936044104614, 0.4432656029525896, 0.41559585298185886, 0.3062213799033797, 0.8370295327164435, 0.9999999999999999, -0.6722822374757561, 0.19952997958082197, -0.5230281004868698, 0.5155442708148847, 1.0, 0.6415448555604817, 0.4114365590352126, -0.20104125169411788, 0.7733017234049855, -0.9999999999999999, -0.7697790065948217, -0.8574416651077686, 0.005547704722737634, 0.4593927611254416, 0.4426733795905807, -0.8893480381637001, -0.6497615583643509, 0.31290494377145883, 0.4674087433630955, 0.6481369732890003, 0.5372007525053984, 0.5531436750725561, -0.7557350656295393, 0.7808129817978108, 0.5689220842601551, -0.016664146793094376, -0.6999492104211614, 0.10543886263697817, -0.1943477760258384, 0.5445724208611443, -0.025554208327305653, -0.11697121982104124, -0.3900763467690006, 0.4397673896541226, -0.5661127069311845], [0.6433200045484948, -1.0, -0.6455805297353842, -0.3377060668355667, -0.057617186173004244, 0.17982301229191872, -0.35719269986263247, 0.540507878044886, 0.6258038571851076, -1.0, 0.7713835354400176, 0.6880582815274238, -1.0, -0.9594186147840602, -1.0, -0.2606645888222532, -0.17509787814360603, -0.6405449838735318, -0.051198269942914494, -0.9224375804239848, 0.9999999999999996, 0.3780933483613433, 0.7090978897313099, 0.5564271635769147, -1.0, -0.695522003165868, -0.5451482296976977, -0.817943849642992, 0.23886393860647198, 0.41442258092583706, 0.6088887853692801, -0.24770340242804292, 0.9999942966135148, 0.44975832339742255, -1.0, 1.0, -0.30617190221644375, 0.7489143253183932, -0.8596084736329411, 0.4553547957061266, -0.1304981908219346, -0.5372420382699533, 0.19456000174783855, 0.47702300872020165, -0.906762210126941, 0.7936681377520151, 0.24493565007045695, -0.8095046638291821, -0.7468400761468297, 0.4309670168825068, 0.7235987068815537, 0.3414513909907451, -0.9999999999999991, 0.557108627700115, -0.6010418250518609, 0.9547971738094109, -0.6013755972636406, -0.9999998885146252, 0.5065664308262389, 0.21593365401832634, -0.3703748579807122, -0.20521033092391686, -0.7033168881359253, 0.2524492898356907, 0.8304041497828811, -0.22525175114086843, -1.0, 0.921565520184307, -1.0, 0.1757720169419164, -0.7150248233016852, -0.869464003263325, 0.20856846668657059, 0.5574682049977642, 0.34184630812864625, -0.8831038647075651, 0.753040864694269, 0.24693274202968954, -0.2513943514888279, 0.6448436667914441, 0.9211910529076638, 0.3429560467788715, 0.10414335217967849, 0.2037285877121413], [0.23146211477409168, 0.8621529709407438, 0.34732568241738926, -0.8288074511545087, 0.6870177983875573, -0.26908424827940847, 0.497648284383786, 0.5262587701172824, 0.6229450407113369, -0.278569266407355, -0.17595358110389972, -0.28484158527512005, 0.21993520550418333, -0.514198202220874, -0.36839849747260417, 0.9999945567349976, -0.5213768062112056, 0.9002459283077455, -0.7761141020705745, 0.13495102866260825, 0.6076746508965248, 0.28978498387986834, -0.1327150169301815, -0.9980412112108614, -0.9786188719515272, 0.24344871554472158, -0.7338622247105894, -0.44356639524049024, -0.5188608677913757, -0.7358247339833185, -0.6468155508177833, 1.0, 0.8905332637227166, 0.03081899854968156, 0.47095224403413877, 0.6430427641358663, 0.19292347337874355, 0.9246013078398873, 0.7826543188393107, 0.7690887052298425, 0.9997126565048802, -0.19920443551199668, 0.9950152219836951, 0.1480169212551272, 0.48876713001298827, -0.3718585788276761, 0.2038755176721214, 0.2886324902523127, -0.6366697070983416, 0.14842479504558245, 0.8981624915223166, 0.3111432620230854, 0.8688424254737835, -0.43553335097422863, -0.20682976628805932, -1.0, -0.22791472704811427, 0.3492218849069082, 0.12032608929449429, -0.2687120112086849, -0.04196117405651952, -0.004416327909538997, -0.661000246920872, -0.526036423911574, 0.06729245396404346, -0.05879825514831494, 0.9985055212865014, 0.5599219180775731, -0.630518296798264, -0.4225068715435912, -0.42079253937481853, -0.7700393093748578, -0.9999747957185181, -0.6227987543973047, -0.17993413439125552, -0.15820335807013877, -0.18022729719445812, 0.012021766022091637, -0.5592155275923499, 0.32026018682088414, 0.6751527927666637, -0.029304673684973633, -0.8300609511350936, -0.16015613686157473], [0.6030179601923625, 0.6048800710285739, 0.14481793297715764, -1.0, -0.26268382132467427, 0.26136014839622174, 0.3415687577904115, -0.8442051968208211, 0.6456504818256161, -1.0, -0.9999999999999999, -0.8730841478178838, -0.3630191922300747, -0.7410466303579671, -0.5973652563433479, -0.31701560553870034, 0.42436360284736874, -0.7198365969195717, -0.7468687726419498, 0.9974406458023498, -0.37644027685065934, -1.0, -0.9028950874180235, -0.5699988642303769, -0.2793479840664383, -1.0, 0.8057221971276244, -0.09160458313573175, -0.2281942620211736, -0.08834446245396502, -0.20873237259008914, -0.24525715193065653, 0.7429215155555414, 0.057391916872956424, 0.49586911899986147, 0.5158568744003558, -0.13505640572752298, -0.5948356832566877, 0.4568429044936509, 1.0, 0.7668992775128621, -0.32019865533518044, -1.0, -0.1578199984382633, -0.974233424126178, -0.9999999999999996, -0.36226293735861353, -0.09409886138413677, -0.12247836365028998, 0.34846490340502007, 0.9999979909219557, 0.8899246419131821, 0.4308378134310086, 0.1589854365204437, 0.4761156327256017, -0.009123203266241177, -0.28248703809271997, -0.024185480323383354, 0.18943671378550064, 0.7899457849885209, -0.5853898930711057, -0.9997890813466225, 0.29381727385595846, -0.9098367855612781, -0.6651159986281663, -0.29524058000374187, -0.05153800424581193, 0.9556055351333087, -0.7763807076344861, -0.9999809586643552, -0.9979530024811372, -0.3788240567721447, 0.10610683230022713, 0.999961428910664, -0.9175887447394538, 1.0, 0.397191971149859, -0.03530266108573383, -0.2539596112206664, -0.5626757709085771, 0.42060309783164046, -0.15246679282492517, -0.5079369167121004, 0.9516005178763723], [0.3240745873852196, -0.7072228521836592, 0.427315200274978, 0.7962040316589053, 0.13949771210590967, -1.0, -0.47251807712191884, -0.9999999999999999, -0.39246369328475283, 0.11793867374832342, -0.45559545751760083, 0.5890766283063463, -0.5680165262403498, -0.8254597408462526, -0.9110547051209583, 0.9977201709059575, 0.40708117898759016, 0.7249192485583993, 0.7946654548510308, -0.2909554523713467, 0.5076137614985045, 0.21766233912993846, 0.9984564095840944, 0.8155602608824952, -0.997739398586075, 0.0016431850384926727, -0.9092257550593641, -0.1069848551909394, 0.2318841455505706, 0.9336781272402241, 0.4343514535760399, 0.06236945456980037, -0.9999999999999998, 0.994552553880577, 0.6938622302963816, 0.738489500669556, -0.40963269799716423, 0.03625024456963438, 0.10648644438984935, 0.3945769650347258, -0.6721112693142234, -0.1007323179780943, 0.36242862027024514, 0.38509307168620444, 0.9175343150577482, 0.8749141939864483, 0.18617816938974568, -0.135687571548711, 0.2084116944006135, 0.9995701276624784, -0.9999995911179855, 0.9319928533002695, 0.10696980625753835, -0.32959297586172764, -1.0, 0.15130180525675307, -0.6695436870753886, -0.2938306228573616, -0.5049379246973119, 0.9997628108299608, 0.5238272949309676, 0.9210849123087965, 0.5703899649862861, 0.4566604954677074, 0.6130655450500346, 0.7760212976547353, -0.03533797732763228, 0.09474538954166724, -0.9271821758642048, 0.41091040555615427, -0.456809046802292, 0.008871221721225571, -0.5430011315156718, -0.9999999999999998, -0.6315160110502338, -0.21583185224105822, -0.6280853938214892, -0.19062336967662227, -0.6403149886480423, -1.0, -0.4607304375407813, -0.4467070088074677, -0.49556201024720675, 1.0], [0.5658458847130263, 0.7032067123560657, -0.922119252745076, -0.5095710765892421, 0.10958365097023778, 0.7017252856318548, 0.9172835518374588, 0.33373951564293114, 0.18242333043992773, 1.0, 0.6380576313199758, -0.05979166378033694, 0.6145999258027275, 0.9999760757607887, 0.6502831400883314, -0.4194794908870642, -0.814403343480418, -0.7982234249056882, -0.4501377526514426, 0.06654677147759784, 0.13267217165509118, -0.8999803515030627, 0.29903373958783785, -0.9999985321552339, -0.4310001094485144, 1.0, -0.999996679027564, 0.31621317315445713, 0.4525110308499404, -0.5518216559438304, -0.6692873687893743, 0.6852542105062285, -0.22100793247700784, -0.639286564652953, 0.5318333100284397, 0.8272662423871775, -0.7284957855895573, 0.04831715207446616, 0.04200219889987046, 0.5739343190742953, -0.9416053330922265, -0.49195193798224357, -0.5812875615375727, 0.40718728271190885, 0.2875915084593529, -0.8514241182382235, 0.749683564482814, -0.35193483323997976, -1.0, 0.8896981281181311, -0.28867369004659416, -0.7006962672921048, -0.29340643688204054, 0.19387619129839126, 0.760549523736765, 0.36871649935908046, 0.7057851619311796, -0.04884494897789665, -0.8715022646572984, 0.021014858382404772, -0.2731633208988689, 0.31805537086581825, -0.02322654009000023, -0.12851779656295825, 0.3078305480754207, 0.7167933250165338, 0.42755644368863793, -0.43966221858538507, 0.488709232398927, -0.08576120008057915, -0.06987925826360705, -0.3554743155055546, -0.822254126664213, 0.30031241700103606, 0.9999334868388527, 0.9986899887781563, 0.6702499193887088, -0.10458142557454615, -0.9997674910349691, 0.7888086526445136, 0.31758669975719983, -0.972425511967052, 0.2303728692438563, -0.7319526429323212], [0.9685328389855931, 0.3202848357152067, 0.6805078204748485, -0.07065808201574011, 0.7158483430021236, -0.7057011170260956, 0.22145944860377842, -0.9999999999999999, -0.019436809041965084, 1.0, -0.09047208357189702, -0.9241023034489431, -0.286867524971692, -0.6389230587917454, 0.1639196913226307, 0.01362980162036953, 0.05100175665160026, 0.20567015911952255, 0.9384773552131425, -0.7085165560739872, 0.7143382942406613, 0.6978010016832912, -0.03404462350218224, -0.3091936707182033, 0.12617218208407305, -1.0, -0.07885333326485094, 0.8902233517060439, -0.12350139694026194, -0.6225484817609358, 0.5838270701965881, 0.8908263778368316, 0.1341343125051732, 0.06746610726869674, 1.0, -0.2507083206315019, -0.13054678341093892, 0.28252944190482615, -0.24938888883542698, -0.4699987350396458, 0.16631525817982667, 0.6778529875652454, -0.6509638163445166, -0.9999803312014728, -0.8455139822736694, -0.7414288622977171, 0.6285644175176561, -0.05583494512109341, -0.08207828478538878, -0.36116884415265693, -0.19605731382161612, 0.6241824567878547, 0.08115007405312971, -0.08394071104063683, -0.40691458510342404, -0.3800769677205953, 0.0323268847779211, 0.3197030694201013, -0.5914109394842825, -0.8277286735319708, 0.5303888802649728, -0.31951874342148523, 0.541793597214163, -0.7948040350874344, 0.00869953722108438, -0.2035679307381958, -0.7577034392482122, 0.4449455007034642, 0.9999999999999999, 0.19907738848978412, -0.36459343889232493, 0.7436319259445158, 0.9998528183549122, -0.4506829317274145, -0.2721892899253451, -0.999999197052291, -0.9999951906570753, 0.9996324178814683, -0.013034329282139715, -0.999999999999999, 0.13413399325235786, 0.04327248171855402, -0.6520542079181268, -1.0], [-0.0005716427045779349, 0.5148075807802633, -0.36904015556396474, -0.10118219922861847, 0.6417180880176234, -0.29754576564019947, -0.5576391267898717, 0.4883532973373787, 0.9999962154187292, -0.5486451733869369, 0.9999999999999994, 0.28023916782113767, -0.21160622717856775, -1.0, -0.6159947359176148, 0.45878938348460546, 0.7865254652481078, 0.03793270339042784, 0.9997822419597225, 0.8263835265260323, 0.20748820772891963, -0.18135781383520078, 0.9294357857622242, -0.17423958446472765, 0.34237089441475976, 0.009023878757012688, -0.7497898410951898, -0.5837085218040878, 0.728954329992354, -0.0448744895558618, 0.24308284856830226, 0.7521021404202378, -0.8255658808119831, -0.48960806178122845, -0.6216714803790256, -0.20278441633929212, -0.8578722629808309, -0.7575008419712314, -0.990837146161535, 0.4007029564480203, 0.5201363721082234, -0.7924098362050518, -0.6464850351407714, -0.1803782111074966, 0.37894292343173686, -0.8333316953984911, -0.19634679136235125, 0.7037218838396057, 0.11336507017817056, 0.44107744066572224, 0.3450152077238341, 0.07876011804325861, 0.1186720751989234, -0.2073948557380312, 0.9112203679549682, 0.3699021633227584, 0.8977554227085963, 0.7550742985947464, 1.0, -0.6686922196907776, 0.4736901391450623, -0.7204155680789581, -0.8074327429748244, 0.7828231755863962, 0.883319542069964, 0.6788994070374709, 0.3318892950922139, 0.7523097094998784, 0.8013309521183095, 0.7063435918082602, 0.7721813056480984, -0.6177068031328526, -0.9187160732147687, 0.4222383209471102, -0.05789046885975278, 0.7779467388013998, 0.4491715105173709, -0.07008575191876702, 0.5471169621927867, 0.10413528958909457, 0.9963885091338024, 0.6156070454257584, -0.020933833238574093, -1.0]], "w2": [[-0.212744204825757, 0.348961517353329, 0.8146973169563316, -0.6398565318281424, 0.48364474837254945, 0.0043678695403190325, 0.9103862198270408, -0.3834724349560057, -0.9943017051957024], [0.21685306034156676, -0.37854566839260156, -0.5786483725668544, -0.5659204307220338, -0.9999999318538005, 0.22873391390028872, 0.4922584601183884, -0.74260204884764, -0.19356619868940497], [0.8123626023185712, 0.5933671377249524, -0.6910555631323158, 0.6422493525265869, 0.532991231972514, 0.28940469159156157, 0.6628386055543122, -0.03084161040323018, 0.2827190783091269], [0.10145860963518472, 0.9999999999999992, 0.9088618067581894, -0.6360790992807682, 0.9992602138712082, -0.7487408986899947, 0.5056220700940873, 0.10424955126896711, 0.31544016002273945], [-0.12673762400355704, 0.6496463939462098, -0.4059253446751459, 0.47247350100794866, -1.0, -0.6815532208178675, 0.5886619867947517, 0.6729971392290917, 0.28064560618284295], [0.5741232800615259, -0.17621488733572716, 0.8979220991341397, 0.6212703240732089, 0.6205237620669608, 0.5781595835047, -0.24014149014089664, 0.2643892465307313, -0.9999999999999998], [1.0, -0.4548077663207873, -0.4586843334141375, 0.8761711412303317, -0.9999999999999999, 0.1359830813831821, -0.9999786858554864, 0.11844749810987705, -1.0]], "b1": [[0.7032599997093619], [0.9849366131469982], [0.9999999999999991], [-0.9814837773833109], [-0.55735948446518], [-0.08310853226028651], [-0.27008669967765897], [-0.03956421203592078], [-0.033959839790921986]], "b2": [[-0.6823669735641894], [-0.8019690190310135], [0.3955645292139467], [0.6803881707330027], [0.8849021176320772], [-0.9083463453033769], [0.9085497124827201]], "fitness": 415.0, "best_pos": 7.0, "best_status": "small", "score": 200.0}