{"w1": [[-0.521126026828948, 0.6660712133476011, 0.06454071631687545, 0.38245703626934907, -0.5835471175531035, 0.5481910616595792, -0.8915123331898157, -0.5291536018035147, -0.91205268445866, 0.13875076564284355, 0.15149595815871, -0.6978195031908812, 0.5821865996023745, -1.0, 0.08250803854202896, 0.3805771488939747, -0.44063666641078364, -0.9999977369229746, 0.40854016991464487, -1.0, -0.7306252779756225, 0.7197320280048127, -0.09881018763350595, -0.1239819748089282, -0.23161056561547763, 0.9992270272120409, 0.405551558282707, 0.6093473135424621, -0.2545035523735937, 0.4108619131261236, -0.8667632228706523, 0.23768263237123033, 0.7519083956827672, 0.02773156538363164, 0.5027403563268155, -1.0, -0.4616288384856002, 0.6768740017891645, 0.07799840179106927, -0.4365447019010455, 0.8935830506806918, -0.2246387605895133, 0.8940631122156143, -0.623503251732845, -0.5693027977643664, 0.3557921643874707, 0.7254721315195999, -0.11634681271299992, 0.2774744262272883, 0.3010601186793481, -0.46867725481523465, -0.8222257844573553, 0.95705198212687, 0.3409690247003764, -0.34974982651096453, -0.9999999999999998, -0.42378538547486017, 0.999999974030118, 0.6901330227213375, -0.3616200694654074, 0.6869190781404515, 0.5308479157057372, 0.24195362664587086, 0.38987778953149427, -0.12190654882529693, -0.2531998882653794, 0.2202485417092345, 0.9999999999999997, -0.448888035403728, 0.9924287444442522, -0.9300397070699017, -0.0682228465923528, -0.8015145970689187, -0.6407561883810776, -0.9879545636501053, -0.6462708940318185, -0.14132839424004773, 0.574244266824406, 0.9990429999429831, -0.6214058575167107, -0.16644807982499155, -0.08271391158215878, 0.5180098415898063, -0.8236227281703614], [-0.23795417793677512, -0.9985335047344848, 0.7093541832781498, -0.7196263620000297, 0.9996764670887367, 0.3866851064846126, 0.5319844884706803, -0.7878156646663694, -0.359505719672718, 0.45845170164667454, -0.30768032956736896, -0.28833286421551085, -0.5003474410633091, 0.5742871423427669, -0.22699437911167555, -0.5434019061616993, -0.6660052067626007, 0.24330614387660687, -0.8609087145977137, -0.6707728037449602, -0.3527351515626465, -0.24826832599300883, 0.26058877485693394, 0.06858296648642949, -0.9178666182605091, -0.6552645377319805, 0.33342850999920187, 0.2422588109524736, 0.19069762355692915, -0.3020676010330837, 0.8777230174259029, -0.2797586541843355, 0.1655210174845468, -0.054895560141277396, -0.8224815622719641, 0.35553853934364066, -0.9999996810129759, 0.03713921845111491, 0.18597973032045245, -0.11086828678335196, 0.03837457809579296, 0.7816529981350553, 0.8239180717664084, 0.04358223767868865, -0.06457763502686135, -0.7340600484703037, -0.9999959279679472, -0.8610052036137593, 0.09284899453881951, 0.6686375814496793, 0.7107663981573054, -0.735480878125736, -0.7537049532907094, 0.12656257058982728, 0.8560453427412245, -0.748574592213812, -0.0005602559207921361, 0.48526978433376144, 0.066682429323958, -0.3955744882576208, 0.5399847756761813, -0.8067410357573973, 0.7388350821746182, -0.9214698878252616, -0.9999999999999987, -0.10431925810294147, -0.9990786455949379, -0.8816163799058677, -0.4526996625366056, 0.6829772160550796, -0.7547127072147252, -0.49360921586823364, -0.015220097800067361, 0.1374873509707319, 0.7829267891859585, -0.9998190836446299, 0.48962824054828236, 0.28411762249403233, -0.9958074629489033, -1.0, 0.7670656816628676, 0.13740602078905806, -0.11399079867193454, 0.7959015692039574], [-0.9995717678860826, 0.5331308323985168, 0.42230991139954077, 0.3496027508443552, 0.738344430777734, 0.20786340814571716, 0.9999999999999996, -0.5875705335942254, -0.0032779871669676333, -0.999999970711019, -0.768944827406132, -0.6437691731176622, -0.03771007793866532, -0.3952161169713825, -0.5032422063843695, -0.06350117636679083, -0.4105319055462812, -0.5426212373971269, 0.1531085982370442, -0.6780964532129489, -0.3131038547664436, 0.5943929182856359, 0.43696787401866427, 0.9008406703611145, -0.9999999164684485, -0.8990192553635898, -0.7509853145635317, -0.1969915431491477, 0.9967721112006653, -0.8670232516624042, -0.31447852539960236, 0.3236148118839294, 0.8847455777040291, 0.12182836786303909, -0.3210128771497518, 0.8698075466761115, 0.3750869608849761, 0.6308100258584172, 0.9999999999999999, 0.11738703977795752, 0.6291969811943716, -0.9418581493551628, -0.6123110789151223, -0.5730526176605882, 0.4799058508498633, -0.29360775682426704, -0.5734481996221314, -0.05430262990224137, 0.36678066587946756, -0.44724442920044954, -0.10833150229304819, -0.9999999999999999, -0.1075494646603164, 0.4168737301703692, 0.42145042678777833, -0.15178932091067165, 0.742680482023766, -0.11236668737145993, 0.46080014662717517, 0.058878281325498556, 0.142597630589227, 0.7045980785741238, 1.0, -0.3206204338570747, 0.861525886265312, -0.701907152886629, -0.7176375380981755, 0.23850994725312194, -0.9465761275940379, -0.9510177460361496, -0.18532396334408985, 0.5491532155444123, 0.9995274522100177, -0.6262156464959888, 0.04046162061321311, -0.734627864154888, -0.5912982291326663, -0.6152262971447262, 0.49630986061978366, 0.4399943199825209, -0.5037619392238314, 0.17973170417803705, 1.0, -0.9601731717091266], [-0.10193377447862913, 0.3234704018471855, -0.5336140442709819, -0.48915312521505394, 0.7596760371786339, 0.9979991915091826, 0.27598971300745045, 0.06253507389789623, 0.8763391744293949, -1.0, 0.08271083047292395, 0.7957237349028796, 0.10786645094770264, -0.6608998701866339, 0.853169592709023, -0.8438244276375432, -0.23600003200038724, -0.826819764256255, 0.1411443370154742, -0.986487975745021, -0.30683838457961016, -0.542392573210067, 0.4928114181148001, 0.44189308276375705, 0.642683093158418, -0.33856712644390996, 0.2925178055495435, 0.6687430928828115, -0.30193804222683907, -0.6454343678346941, -0.523183877146531, 0.64660311029529, 0.9997698802671019, -0.4793603953422221, -0.3983041356199359, 0.06823663845777335, 0.21772451744735713, -0.9836974333418225, 0.8421053193518534, -0.45175588828389535, 0.020195888907584714, -0.6369236107550912, 0.8548332473085717, 0.5324180336734259, -0.9711032045862, 0.2743137309065317, 0.6778226357952549, 0.2037416919467925, 0.6521428925509984, -0.12383730383164125, 0.6260723353853079, -0.998791261925778, 0.5845277500689476, 0.9999947216460837, 0.6043457282745227, -0.7019645180378914, -0.7270431586807341, -0.17481460501289392, -0.6973642954801006, -0.023071438132222566, 0.2756565427253065, 0.009505531537131323, -0.8496542281691005, 0.5089947785179058, 0.4294161390925141, 0.060423029995099735, -0.21235963264335955, 0.5326099667675588, -0.5115960188043748, 0.5758163728553022, 0.7223030224349007, -0.9984968589197516, 0.22084438473149032, -0.6979456660745369, -0.5473377701481728, 0.14182930889877626, -0.6672244911952944, -0.9456014115285518, 0.3922374698694923, -0.4793754792587633, 0.1655874372067267, 0.5147446238927877, 0.8309287277522833, -0.5897436303991086], [0.4329284972759779, 1.0, -0.13823502956041214, 0.999999999855333, 0.9733774705594216, 0.18599108678461476, -0.999999999999998, -0.5974743229039784, -0.6047239362547903, -0.7734142508670694, -0.9654902423007804, -0.03564930270033158, 0.6472819385369475, 0.13337869573024536, -0.4385384638638667, 0.46470613580309483, -0.9999991752911728, 0.07403839381216958, 0.6104288128748038, 0.2695890243111657, 0.21665648703721882, -0.14699567136389705, -0.8344097315836909, 1.0, -0.19162153282869157, -0.5141620632374623, 0.1350949690234194, 0.5188921995372284, 0.858144974749363, 0.6502364463765941, 0.9999928729231108, -0.14078217953300246, -0.4411214677603852, 0.4092315570604589, 0.22539601008513308, -0.30636778538418313, 0.6735738924601025, 0.836767420755938, -0.14240039158934106, 0.7168539016508282, -0.7293175058160631, 0.6181655947073266, -0.02766552706024042, 1.0, -0.415721044334981, -0.4972936281352089, 0.21311741823040342, -0.5267456179856908, 0.5420235456206065, -0.45433628504379625, 0.5618331626784582, -0.02572811666668638, 0.4277708392497466, 0.7299273649895248, -0.1779812692591826, -0.5866730404345806, 0.6625952126990392, 0.12084572899263184, -0.0371004185041071, -0.83464065199852, 0.2855213870678721, 0.6726264348351593, -0.49044583673096315, 0.9999932256635996, -0.7245597405416233, -0.6439374328186179, 0.030082690216532194, 0.40086400809295775, -0.5201661378923623, -0.23279182389172495, 0.7081050568780585, 0.31218815449059273, -0.9999994142073714, -0.7870127286311769, 0.46904327715087807, 0.9532971823136824, -0.12359281895495515, -0.47799455694755366, -0.5556834434941883, -0.0791282578601402, -0.6676614694598711, 0.41406913953747926, 0.4757021282767216, -0.1398455136281001], [-0.9999960278188005, 0.028030142871619496, -0.7098029013668176, -0.6707261148047088, -0.6108747644577642, -0.25829240133801823, -0.3974947680580107, -0.19110695885851137, -0.28074221676172384, -0.8894240251962056, 0.3453836878930159, 0.2090487715986924, -0.8619369095142293, -0.49265594152739234, 0.5660534924721285, 0.8644138032395222, 0.07371560216746134, 0.7263867973263202, 0.729284597663594, 0.4757280330340414, -0.3247681818546935, -0.23467926520715962, 0.49276667753515957, 0.661076322431294, 0.7178770616574551, 0.05096839312840277, -0.16550649433347595, -0.7199131788128631, -0.38605903128652874, -0.30809129838290733, -0.9375964346280375, -0.596321381581598, 0.7664202530722365, -0.99862799266743, -0.6158209544164601, -0.9989016508325937, -0.647794528163569, -0.1959893329213631, -0.6571401207536982, 0.15895822852018013, 0.2206610479424223, -0.9998112129570014, -0.591415987723379, 0.8097001428830556, -0.828974116015793, -0.25026096544551574, 0.38419407082881035, -0.1489267910455523, 0.6466018080826448, 0.26580069003095025, 0.995628358810119, -0.25049538883457095, -0.5493693321475394, -0.8226024561869005, -0.20088137407299297, 0.9999732937386544, 0.48320533719699627, -0.3017236289130258, 0.23531171272378476, -0.2127098096184097, 0.4794677149955558, 0.9999999999999999, -0.48736293526126717, -0.842152357998215, -0.5948582758329688, -0.1282266472335126, 0.5919173784642794, -0.9983736390250126, -0.8738650708103017, -0.9612508927531123, -0.055702610633885305, 0.3328897267699583, -0.6265211559478802, 0.9999966447072358, -0.9999954619802103, -0.03140568168244191, 0.23531601514833286, -0.6519709300470556, 0.40693891558318274, 0.11090377374017708, -0.9872541268715234, -0.023093924854236506, 0.4683603224485937, -0.6796957245765066], [-0.9763778344707078, 0.5212945618323945, 0.3321456843406797, 0.9999853371067289, 0.02640800424626598, 0.060828938164048954, 0.9998476786713637, -0.18352675718140465, 0.015983286508623632, -0.4595569285058791, 0.5172528291578278, 0.18121912740474663, 0.87529883043245, 0.4359623346352576, -0.0022887457155012433, 0.8323417576270588, -0.3367569320317544, -0.34278233765511357, 0.9999999999999998, 0.6667973758263838, -0.1257906113664082, -0.05033332341239497, -0.3731334252528657, -0.13675991455601205, -0.5224238591437603, 0.33260241038428173, -0.555424034154124, -0.7821808059229768, -0.9929888602079695, -0.025679116682213732, 0.6971251827102741, -0.12709123520553656, 0.0835990043462604, -0.10973314092039883, -0.9223175844012775, -0.4771253865323925, 0.7871879506130949, 0.41538708535756874, -0.601559502282459, 0.23438834672500808, -0.9999999999999993, -0.45099474960747704, 1.0, -0.8743356105861088, -0.99999672168045, 0.565865480084024, -0.7778509452195594, -0.08208492617451735, 0.9992101451856517, -0.9853430048735372, -0.5583529313603335, 0.89152508712027, 0.5621620466408171, 0.05239673881685769, 0.44433233272726724, 0.3682974184762164, -0.2165768512454971, -0.7064956510427453, 0.18965381306421739, 0.6101932634726687, -0.4001508193651992, -0.24924886834805363, 0.27772654902352556, 0.09418266577265237, -0.7898194022069588, 0.746835173874065, -0.009763747679605278, 0.5912783252327568, 0.15926798129511793, 0.9589886018378482, -0.8140645370884605, -0.8949889042597385, 1.0, 0.4961364910363479, 1.0, 0.5357551116095253, 0.6805460457319615, -0.6760340321288223, -0.6568255413356593, 0.44024391312337274, 0.8171596894327107, 0.08243280576297762, 0.8993063146538354, -0.849038670315889], [-0.6992042058329563, -0.05042973379023395, 0.5802164319880707, 0.0293194172101241, -0.8019677532533198, 0.9113486044314569, -0.8937785275373384, 0.47770350765346364, -0.2331398506427871, 0.10062003704364005, 0.28544511911708753, -0.9392355424857664, -0.547777861556028, 0.1281313423629709, 0.8587602689656643, 0.35234348571762486, -0.26933699681058254, -0.42747410561576793, 0.9996022883864395, -0.9992731173575392, 0.5963634623798084, -0.35506260642244564, -0.7161347654169654, 0.3584018376186898, -0.7425431602065222, -0.049645394781759576, -0.793060668412863, 0.15685407337417975, -0.7966289455930317, -0.8764744376268492, -0.8870788472613063, -0.8320754666277932, 0.9999999999999996, 0.6586240893626972, -0.9251249758719652, -0.3748149190064564, -0.5350849142287357, -0.9999999999999996, -0.8571257943152686, 0.8691175640512755, 0.659160181774962, -0.3546263213591018, 0.031107462540303447, 0.5094132302648405, 0.557715649178483, 0.9967685267491279, 0.32077446808123633, -0.7934436501663498, 0.8782657330025171, 0.03686588333622957, 0.9991448216047875, -0.22002144107938923, -0.6483611216628371, -0.6761478266157489, -0.003371874786667429, 0.14729108422385226, -0.9997570726603187, 0.8659692786173983, 0.5120218420798649, -0.9825537327552136, 0.7202308571887054, -0.42565225201582063, -0.13315142722729348, 0.9988137225381611, -0.32917084516914, -0.6970762522746006, -0.9999999999999998, 0.2927078937960912, -0.34086350955319433, -0.8478080063015111, -0.4083082468386243, -0.8001504625977448, 0.8077110196968568, -0.470902160289308, 0.7141870612499626, 0.2022009359504995, 0.7924867666571948, -0.22019337283847032, 0.7735940579162388, 0.7474480528062643, 0.9526002146420794, 0.10471939455367076, -0.9999984543028239, 0.41554972220800246], [0.5827471460775835, 0.21280833290158763, -0.5067311930730489, 0.6975383535571831, 0.41797530650025133, -0.06268323109577038, 0.9495956813221482, -0.5057925394737893, -0.14068927044295093, -0.4189691672862462, 0.49073224870632637, 0.9460991398252045, -0.40888421886422144, 0.38105716467786005, 0.6532486270814735, -0.8920578065274788, -0.42419686275337604, -0.9999999999999992, 0.3719288009164573, -0.67140370904519, -1.0, -0.6155641369526771, -1.0, -0.9961358235664344, -0.7156468472739308, 0.9187632297747198, -0.028267148978407427, -0.276155848327682, -0.9999999999999999, -0.9998643600171596, 0.7445284159934644, -0.7776519052765137, -0.2744025053159819, 0.558317219345449, 0.19808206265340167, 0.40500024070092255, -0.7851980640443589, -0.44786739691292815, 0.7943570049274743, -0.9949261170714576, -0.8764041448885128, -0.3346113727509009, 0.39702929914349827, -0.2918471785501077, -0.9927816538823059, 0.5518636225910672, 0.05995899078981803, -0.2789188921854506, 1.0, 0.8183455489553952, 0.5571561480013586, -0.2372992104856983, -0.3620554996451431, -0.1836069662331583, 0.1889886111855511, 0.785976981996989, 0.9970756840523732, 0.21860397302797363, -0.5614498721116404, 0.8358716398941519, -0.6978534634627925, 0.33599031065625323, 0.9421990390582322, -0.4821155124870695, 0.06830264397087449, -0.03213855851369841, -0.639823000044274, -0.1443887987352696, 0.0918667414297707, 0.9527713554191057, 0.6658799376389635, 0.19763842671360826, -0.7725058527985884, -0.46869736707052856, 0.9999399095787249, -0.9153594966304203, -0.6009461513286755, -0.4687738406906146, -1.0, 0.8263681487894725, 0.278448439759268, -0.9990394499227138, -0.11093024321432957, 0.777374440408825]], "w2": [[-0.4007968749003385, -0.6689038573878381, -0.28495772766518446, -0.056448670414392554, -0.3445151428704727, 0.2683670858731065, -0.9996675498961867, -0.12766826101268766, -0.72144442839844], [-0.7856030933706565, 1.0, -0.7553033707531616, 0.1937720824691837, -0.1782564340014846, 0.05251232148212086, 0.9239926163978273, -0.4045107085817827, -0.28934481761454944], [-0.16821314617999744, 0.7013460726794744, -0.6947776631422343, -0.13173044537276468, -0.8328023410433887, 0.06560071218741284, 0.07043244790183713, 0.6791375295722499, 0.43802780175649536], [0.23871606553503993, -0.10592047926382414, 0.0926890352856779, -0.30151630521738265, 0.9999732308711009, -0.7904503434741706, -0.19877282821412304, 0.02407190335638854, 0.32419386690395463], [0.9015481574763001, 0.20063049770783808, -0.5732811335366625, 0.9996662754575776, -0.23431774824978427, 0.9999999999999997, -0.0613835375769203, 0.9382058166274189, -0.9432662012616209], [0.2637384283084534, -0.2121472526116776, 0.3274781632806178, 0.19175311947987536, -0.999525575437767, 0.5114752644403996, 0.7311219333017661, 0.3820818219613516, -0.7997198469090245], [-1.0, 0.2018305268315926, -0.41499901308218545, -0.5065488679062234, -0.061643033250873586, -0.6932825715660882, 0.9923450321650876, 0.31451398140614567, 0.3124741665103371]], "b1": [[-0.20687220532816514], [-0.5569728994232713], [0.7387708686438484], [-0.996836230115444], [0.21809328899616287], [0.13434207922947347], [0.3124894119701528], [-0.3479706044443928], [0.11592326378395053]], "b2": [[-0.9018936323997616], [0.42561792304671536], [0.5014981568612158], [-0.19075616805803944], [-0.52960108751115], [-0.8557446907635123], [-0.9979025479935281]], "fitness": 2971.0, "best_pos": 9.0, "best_status": "small", "score": 1400.0}