{"w1": [[-0.5221466054165261, 0.666071213989769, -0.07172603706089646, 0.38245703626953587, -0.5835471175531035, 0.5481910625049302, -0.8915123332300645, -0.5291536018035138, -0.9120496208802393, 0.13874942609424362, 0.15149604478688902, -0.6978195921690667, 0.5821868488652666, -0.9999999999999999, 0.08250803854203113, 0.38077395044781515, -0.44063666641079663, -0.9999977369227421, 0.40854282606475834, -1.0, -0.7306252779756262, 0.9999999999999993, -0.09881018763350595, -0.12397707755675884, -0.23161055886439713, 0.9992256471530363, 0.40555155828270695, 0.6093472427128084, -0.2545035523735937, 0.4108619131266111, -0.8667632212142873, 0.23768263237192422, 0.4549839157345304, 0.3045831825723146, 0.5027404225451311, -1.0, -0.4616337041420516, 0.9999940929056327, 0.0779984017762896, -0.43654471264213257, 0.8935921730765417, -0.22463823575520347, 0.8940631179914234, -0.6222122929574337, -0.5693028472739589, 0.3564363207517294, 0.7238821574498083, -0.11634681269214343, 0.27747440563082887, 0.30232036969699744, -0.46867725461263926, -0.8222260909864748, 0.9570519350268563, 0.34096902470047513, -0.3497498265109645, -0.9999999999999999, -0.42378538547495337, 0.999999974030118, 0.6901329962220843, -0.36162795673362635, 0.6869190793147583, 0.5308479149838388, 0.24195363043401638, 0.38987759728854443, -0.12213959687941658, -0.25319988800775267, 0.2202485416505102, 0.9999999999999999, -0.44888803538237404, 0.9924296493704912, -0.9300397070813619, -0.06822386205992761, -0.8015141451890947, -0.6407559895118138, -0.9879545636400513, -0.6462706630570408, -0.15883393757788142, 0.5742523462644747, 0.9990429999391978, -0.6217101926444877, -0.16643043994731793, -0.08271391318287664, 0.5180098435932717, -0.8236218297765614], [-0.23795418030469156, -0.9985335042376583, 0.7093541832780674, -0.7196264266129224, 0.9996764670887368, 0.5684808642236631, 0.5319844861506727, -0.7868220684946935, -0.35950571966065475, 0.4584517016417792, -0.30768032862309086, -0.28833286423399057, -0.5003498862204068, 0.5250882645020514, -0.22699435695256148, -0.6357412088809665, -0.6660052179357958, 0.24959887149808152, -0.86091878612587, -0.670772888733125, -0.3527351515522386, -0.24826832125803064, 0.260588774856756, 0.06858404229576917, -0.9178666052666773, -0.655264502251825, 0.3334285099886542, 0.24225896315907192, 0.19069403143816854, 0.23860220650316027, 0.8777165301422225, -0.27975863793323885, 0.16552101752360066, -0.05049700481163838, -0.822481562267635, 0.3555385393436409, -1.0, 0.03713913943243087, 0.18597971689537307, -0.11086808917046971, 0.038934509840678845, 0.7816529882471193, 0.8239317554017141, 0.04358223759827919, -0.06457677399149235, -0.7340599426904055, -1.0, -0.861005203613695, 0.09285838441769688, 0.6686375782824359, 1.0, -0.9995142381172952, -0.7537049534463772, 0.12656257315572428, 0.8560453222286795, -0.7485748098814186, -0.000562053830348201, 0.4852697844069354, 0.0665315810199431, -0.3955642786420384, 0.5399857984509869, -0.8067438490229896, 0.7388349596402268, -0.9217287313248174, -0.9999999999999988, -0.10431873289707742, -0.9990786447534239, -0.8816163636762055, -0.4527001095101331, 0.6829812404883061, -0.7547127350690933, -0.4910731129318257, -0.016236387476468068, 0.13748742790169471, 0.7824930750486063, -0.9998190842901852, 0.48928484971357933, 0.2849487117647369, -0.9958074629495891, -1.0, 0.7670655255095801, 0.136850788900957, -0.11399079812225743, 0.7957511410050515], [-0.9995717660281703, 0.5331308326235494, 0.4211429082611767, 0.34960275084400616, 0.7383325064851541, 0.20786340814680432, 0.9999999999999996, -0.5875535620062581, -0.0032779315943921757, -0.9999999711478981, -0.7680808153230596, -0.6437663903340337, -0.03771489816594383, -0.3952160582701705, -0.5076804609607479, -0.06350117623583268, -0.410531902441619, -0.5426001982930331, 0.1531085940667049, -0.6780964598272595, -0.31308286672103736, 0.5943928367136165, 0.43696781971537707, 0.9008406704579022, -0.9999999164684485, -0.8990191560889124, -0.7509853147066815, -0.19699154307630792, 0.9967721116756338, -0.8670232516623705, -0.31447855627546345, 0.3236157521948947, 0.8847455781349349, -0.0019400610564956225, -0.32111616479089683, 0.869807359490721, 0.3750869713615085, 0.6308100181399133, 0.9999999999999999, 0.1173875066497935, 0.6291968878054959, -0.9411954761720649, -0.6123110789156344, -0.5724480300894145, 0.4799058508498633, -0.29360778147138955, -0.5734482285285355, -0.06159434929958935, 0.3667806646995718, -0.4472402746338978, -0.1129653634893242, -1.0, -0.10754946947819619, 0.4168737192314648, 0.4214504267922269, -0.1517893199074677, 0.7426804847353692, -0.11237027346438437, 0.46080225505903616, 0.058878281322985435, 0.14259763068393638, 0.7045980785737035, 1.0, -0.32062163264722277, 0.8615258862653113, -0.49615544339637646, -0.7171553008231891, 0.23850994725311084, -0.9465761275946096, -0.9510177460528613, -0.1853266114322088, 0.549153573552235, 0.9995309565542124, -0.6262156389033405, 0.040461620612568, -0.7354408053119249, -0.5912888760769321, -0.6148691482256338, 0.49630986375979647, 0.4399949076920796, -0.5037646911466348, 0.17973170417803638, 0.9999999969093778, -0.9601699227289386], [-0.10193377442046471, 0.32399363686804555, -0.5336153100729601, -0.48915122804092886, 0.7596862680900373, 0.997999191508696, 0.27598971118051174, 0.06253507389789623, 0.8763408310360539, -1.0, 0.08155076288482724, 0.7957237349335036, 0.10938882165959858, -0.6609015926138004, 0.8531695926856869, -0.8438243293233714, -0.23600003847410456, -0.8272328042663057, 0.14114432135532443, -0.98631946090504, -0.306838384579612, -0.5423920125508302, 0.4928114181148001, 0.4418932176022495, 0.6426830931579615, -0.33856712644391, 0.2925178216779486, 0.668743092881604, -0.3019380422266904, -0.6454344098115179, -0.6592894679376538, 0.6466031842360608, 1.0, -0.47936039556663895, -0.3983041374419998, 0.07430378298863716, 0.21772344381247252, -0.9836974344342725, 0.8421053193520937, -0.4517558477865886, 0.020195888895626218, -0.6145572912801665, 0.8548332475499774, 0.532419354313596, -0.9711032351223966, 0.27431395605393044, 0.6778226354313757, 0.20373617969882776, 0.6526452555830128, -0.12383730390774764, 0.2628775448364582, -0.9988045131992374, 0.5845279155447298, 1.0, 0.6045285518282839, -0.7019645181244556, -0.7270765729491941, -0.17481013428985517, -0.6973642955228866, -0.02307074007226902, 0.275656455785042, 0.009505531536873736, -0.8496542280609315, 0.5092661678841336, 0.42941626514968595, 0.0604230120241551, -0.21235963264164467, 0.5326099551563784, -0.511596020065167, 0.5758163715214654, 0.7223034943980373, -0.998496859501593, 0.6213699764447588, -0.6970445285952037, -0.5473377701484443, 0.14125376708112986, -0.6672214789735753, -0.9456014052792698, 0.39223747002165, -0.4793754835906353, 0.1671998854355863, 0.5146321131396717, 0.8309287277527605, -0.5897429335437838], [0.43767131578911256, 1.0, -0.1382350343888951, 0.9999999998537452, 0.9733783105956003, 0.1859910867845934, -0.999999999999998, -0.5974743227590193, -0.604714346681638, -0.7734142504050648, -0.9654909010346099, -0.03564793336397597, 0.6472819285609833, 0.13337869577198938, -0.4385384589148827, 0.4647082447035321, -0.9999991752243098, 0.07403790590228863, 0.610428813197732, 0.26379964491113106, 0.21665648994459463, -0.14699567136303615, -0.8344097315836908, 1.0, -0.19162153282861902, -0.5141631946824397, 0.13509496872375581, 0.5188921995379715, 0.8581449747382638, 0.650236443669926, 1.0, -0.14078217965092915, -0.4411190489769244, 0.4092315569816024, 0.22546476724236217, -0.3063677017361894, 0.6337871467973223, 0.8367673899905086, -0.1424003983997951, 0.7168536785563702, -0.608999037393762, 0.6181658994483431, -0.02766552706005116, 1.0, -0.4157210617386733, -0.5231745241683424, 0.21311679756669005, -0.5267456188241912, 0.5420235456207226, -0.45433628504379636, 0.5618331811721884, -0.02572809043065343, 0.4278253319989938, 0.7299235691549466, -0.1779812732605488, -0.5867168473670413, 0.6625952027845505, 0.12084573109390931, -0.03710042165817513, -0.8346406521126362, 0.2857007897365695, 0.6726264348350329, -0.49044656576194456, 0.9999932256655242, -0.7244834700822957, -0.6439374327857225, 0.030082665196287817, 0.40086400996425964, -0.5201661429125729, -0.23279181568462187, 0.7081050578194261, 0.3121881559198746, -1.0, -0.7870126870692505, 0.4685217782426465, 0.9532971795509685, -0.12254554949963221, -0.47796507920002623, -0.5556834571044539, -0.07912818555530025, -0.6676564850012309, 0.41407645801703336, 0.4756931402230852, -0.13984550577], [-0.9999960278728472, 0.028029996043047782, -0.7098029012308585, -0.6707261142593702, -0.6108747644575669, -0.2582924013212403, -0.3974947680564609, -0.191106939454858, -0.2807422166865475, -0.8894240371288727, 0.34538368789223234, 0.20904877159928204, -0.8619369093832915, -0.49265594238887433, 0.566053492471678, 0.8644138032437676, 0.07371560216751624, 0.7263867973264856, 0.7292845976174998, 0.47572803303644046, -0.32476599029988773, -0.46022765212835337, 0.27437893927101387, 0.6610763224312872, 0.7178770616574597, 0.05096839312841891, -0.16550649432241882, -0.7199137766735162, -0.20198981292508553, -0.3080912979232387, -0.9375964327272973, -0.5963213815777231, 0.7655075397221898, -0.9986279926675934, -0.6158211332136785, -0.9989016492627122, -0.6477945281636175, -0.1959917437982654, -0.6571388946825908, 0.15895722158871428, 0.22066104922301136, -0.9998112384349874, -0.5914140386171237, 0.8097001176108402, -0.8289738752334946, -0.25026103346827955, 0.3861844532622638, -0.148926794161603, 0.6466018080749052, 0.26582368007762375, 0.9956283565025856, -0.2955258730562667, -0.5494548564449202, -0.8226024560327391, -0.200876672990692, 0.999973293736566, 0.4832044700885926, -0.30172362891369275, 0.23531971183990083, -0.2127085971477478, 0.47946772160718915, 0.9999999999999999, -0.48736294260695034, -0.8426890447113212, -0.5948582815273142, -0.1282266472149107, 0.5919173784642795, -0.9983736390311002, -0.8738650488839037, -0.9612507937955169, -0.05570236320255828, 0.3328896757173659, -0.6265211527594614, 0.9999966446794145, -0.9999957164562884, -0.03185328106647295, 0.23531601514842973, -0.6519940511850189, 0.40693892136194415, 0.11090410957920607, -0.9872931286629961, -0.02309392349289245, 0.46836033943057787, -0.6796926357856805], [-0.9998691551963588, 0.521294561800852, 0.332146246282712, 0.9999853371075451, 0.026408005316188986, 0.06082918653480012, 0.9998476786711318, -0.1835267571845776, 0.01598328650642405, -0.45955710370661823, 0.5172528291576006, 0.1812191272002363, 0.8752988327739575, 0.43596233463792944, -0.002287906875702499, 0.8323417906212546, -0.3367569320311052, -0.3427823476522858, 0.9999999999999998, 0.6667932131923751, -0.12579058945167912, -0.050333323408275746, -0.3731334252509136, -0.22095031402677429, -0.5224238743535614, 0.33260241038429206, -0.5556380426589258, -0.7821788364427287, -0.9930263984463487, -0.025676426085603443, 0.6971253410449553, -0.12726237979726918, 0.08359900159534203, -0.10973333343970225, -0.9207197181839017, -0.47712512982549216, 0.7871879506240922, 0.4153875822481318, -0.601560101580917, 0.23438834672505934, -0.9999999999999994, -0.450994757873809, 1.0, -0.8770026993195038, -0.99999672169516, 0.5658572380410807, -0.7771375553781791, -0.08208492617427492, 0.9992101451758629, -0.9853430048735363, -0.558352931360333, 0.8915250871202671, 0.5621620605916686, 0.05239674005936347, 0.444333102167077, 0.3682974184689816, -0.21655773507633885, -0.7064956510552615, 0.18965381303097478, 0.7296227784882027, -0.400149188984248, -0.24924886836272211, 0.27772654889235404, 0.09418266576617984, -0.7898169413517454, 0.7468351738740642, -0.009763820417394197, 0.5912783364633126, 0.15926798129511793, 0.958918510379867, -0.8140641650242822, -0.8949804162025443, 1.0, 0.49613720925969684, 0.9999999999999417, 0.5357550803951949, 0.6805460456073937, -0.6760070270525517, -0.6569331295646085, 0.4402439062788218, 0.8171596892373967, 0.08243280779413671, 0.8993062837416919, -0.8490387369610906], [-0.6992041910175076, -0.05045121390908223, 0.5802170329974387, 0.029319417210279183, -0.8019630217417298, 0.9113486071187298, -0.8937790004060853, 0.47770350766330705, -0.23216217434538913, 0.10062003704364263, 0.2854437283167115, -0.4333433665806655, -0.5477401630509848, 0.1281313423629709, 0.8587602900794952, 0.35234349008428245, -0.2693369968369072, -0.42747412410241564, 0.9996022883865255, -0.99981038244723, 0.5965687553438321, -0.3550626659421015, -0.7161059378268095, 0.358401837622252, -0.742543160206444, -0.0496423142460383, -0.7930606684144663, 0.1561536475201445, -0.7966289307307235, -0.876474874663645, -0.8870788472613258, -0.8320754482145433, 0.9999999999999996, 0.6585989090909531, -0.9251249758719666, -0.37481622866641934, -0.5350849128846663, -0.9999999999999997, -0.8571257943199505, 0.6498100764222988, 0.6591601819681135, -0.35462639188237954, 0.031107453896262023, 0.5098144811903068, 0.5577156491789265, 0.9967685632144829, 0.32077432077005347, -0.7946591738697898, 0.8782655345275333, 0.03686588286154067, 0.9991506960161862, -0.22002178110282497, -0.6483611214804819, -0.676147754538431, -0.0036183515330917206, 0.1472902315148867, -0.9997570728816194, 0.8659692791107303, 0.5120218450380195, -0.9825537327008875, 0.7202308595932264, -0.42565256325548184, -0.1319278799748185, 0.998813627505573, -0.3291708435347791, -0.6970762525511751, -0.9999999999999999, 0.29270465504286935, -0.3408635093743125, -0.847808004744834, -0.5731217153774252, -0.8001503517306598, 0.8077109104913857, -0.4709021667698575, 0.7141810458390132, 0.20220094481645776, 0.7924867666674694, -0.2202050796218126, 0.7735962763146843, 0.7474480594218489, 0.9526002146420794, 0.1047193945550914, -0.9999984544244007, 0.41554791569825195], [0.5827528507997621, 0.21280228571322723, -0.5067311913520717, 0.6975383460932622, 0.4179752977322756, -0.06228088358972597, 0.9496031573657303, -0.503905637877821, -0.14068634900443125, -0.41896916641179555, 0.4895152693127415, 0.9460991398175271, -0.40888415371935904, 0.38105890615730903, 0.653248629226815, -0.8919767416820407, -0.4241968627533843, -0.9999999999999992, 0.46369891836302307, -0.6714149574014276, -0.9990004634973145, -0.615564136953074, -0.8494484185787599, -1.0, -0.7155702862109067, 0.9187632297753522, -0.028266883312426282, -0.2761558072584662, -1.0, -0.9998637334893492, 0.7445283749676751, -0.7776517525232176, -0.2744024747291997, 0.5576087974030812, 0.19808269333732162, 0.4050002261097644, -0.7851980622834824, -0.4478673968921043, 0.7943570049143835, -0.9949261170727853, -0.8774476692038988, -0.3347294124423603, 0.39702929917048446, -0.2918471808178614, -0.9927816588448695, 0.5518705958862504, 0.05995899119105508, -0.27891889218706956, 1.0, 0.818345179901348, 0.5571561469143708, -0.23730279135144894, -0.36205549941621196, -0.1836069662336793, 0.142208000608141, 0.7859776347261863, 0.9970756840523731, 0.21860398062681466, -0.7763759328298591, 0.8358756297609683, -0.6978534763676845, 0.3359903047380282, 0.942199039160909, -0.4821155124535054, 0.06830264384136395, -0.03213855851369335, -0.6398127640872563, -0.14438984953708067, 0.09186674600651241, 0.95138809304875, 0.6658799376269579, 0.19763923160455818, -0.7725058518548937, -0.4686973672399535, 0.9999399096112211, -0.9153594975752506, -0.6009433550737586, -0.4687717769821833, -0.9999999386197834, 0.8263681488245436, 0.2784484514755928, -0.9990394499227138, -0.1109302432143743, 0.7773744460010932]], "w2": [[-0.4007968739120827, -0.6689038600931944, -0.28495772765954647, -0.05629025393757241, -0.34451514324572907, 0.2683670818747818, -0.9996718040554939, -0.1276640612269042, -0.7214444277221641], [-0.7856030933490307, 1.0, -0.7553033718682192, 0.19377208259518802, -0.1782564340033537, 0.05251386922967437, 0.9239926163978273, -0.40574122995038703, -0.2893448170459185], [-0.16839805787487275, 0.7013460686361466, -0.6947776637782486, -0.13173045114439966, -0.8328023467930618, 0.06560071218740099, 0.17915909401238236, 0.6791375379449863, 0.43802779953512766], [0.22091534470367466, -0.10592047926381168, 0.09268905497403454, -0.3015163052135898, 0.9999732308551801, -0.7904503317046272, -0.19877282794398038, 0.02407190121683733, 0.3241938373383354], [0.9015481574768152, 0.20062763170843975, -0.5732811335469212, 0.9996662523880507, -0.23431775512417802, 0.9999999999999997, -0.061383537726284756, 0.9382054793981413, -0.9432661934509384], [0.26373860526048043, -0.21214663663031105, 0.3274781632757187, 0.1917531258356766, -0.9995256628415222, 0.5117151215129647, 0.7311219308483625, 0.38208182204637864, -0.7997378654197372], [-1.0, 0.20183046707306257, -0.41989315514288417, -0.5065419233130021, -0.061643037245875464, -0.45724739073250553, 0.9923450321674003, 0.3145156140603811, 0.3124741665103371]], "b1": [[-0.20687220532816514], [-0.5569735361441522], [0.7387708868084386], [-0.9968364713969178], [0.21809490755750724], [0.1341272153668596], [0.31248941786194456], [-0.3479706044443929], [0.11592326867247069]], "b2": [[-0.9034303566829168], [0.42561788376541315], [0.5014999148487282], [-0.19075616805833956], [-0.5296010789935772], [-0.8557446905659013], [-0.9979025480503899]], "fitness": 4258.0, "best_pos": 10.0, "best_status": "small", "score": 1600.0}