{"w1": [[-0.38199870982548145, 0.7134055121177987, 0.2291723703630216, 0.4996473040339049, -0.12216801181595108, 0.5440140794881848, -0.9998805010722327, -0.3019057635169332, -0.5552012855738289, 0.1382881743940224, 0.4281741174544783, -0.3244705491546591, 0.466042231443949, -0.9999999999999999, 0.15548424294386393, 0.28467197182523235, -0.4428163165200475, -0.9991880002896482, 0.18698186179163356, -0.8050339215273195, -0.8038450723863234, 1.0, -0.3850543021196392, -0.4389134507108369, -0.354769195570361, 0.943283297070834, 0.405241901298402, 0.4856283659322285, -0.18826717826094883, 0.33860284682397684, -0.6698024775777157, 0.6820389526417217, -0.12277696875276105, 0.30406860018257764, 0.9080304258825933, -0.6782054128615665, -0.8241245600087462, 0.848463605484487, -0.09283280078502382, -0.47402967902139054, 0.394778448456185, -0.3531932133096933, 0.4786927675107457, -0.31237807701117853, -0.4531339004970764, 0.5525378586669695, 0.4068440568336228, 0.3265484329240747, 0.2828670028308714, 0.5296973813317774, -0.44924078596513434, -0.9972584795882327, 0.9997815030520727, 0.3126826623155133, -0.2667890656352267, -0.9979602622749641, -0.9352764814633916, 0.9150179042421425, 0.9997785672113084, -0.25289294016653013, 0.6293321040555102, 0.5788947290019558, 0.3972558793640288, 0.4648397192382765, -0.23875142333066934, -0.08250969051555722, 0.22142934904835118, 0.9999491184782581, -0.40232267355981916, 1.0, -0.7296050802711078, 0.13766275010488824, -0.19161101192683375, -0.4330866958787233, -0.9999999999999994, -0.519324620340746, -0.338167445470301, 1.0, 0.9397894867633175, -0.33614783962625744, -0.9245499387798379, -0.1321940558688443, 0.5499267056473652, -0.6064962983249504], [-0.2374894402732472, -0.9999959815410477, 0.8268053294650944, -0.6083512397611782, 0.8701851788479569, 0.5657570340093114, -0.04966437534161496, -0.7722473105317662, -0.30374185310537355, 0.2579390377612944, -0.46796421773123964, -0.3267098841070538, -0.8068307839564947, 0.02868638578630306, -0.209882295587042, -0.44927596628660754, -0.38117318814764245, -0.24894388016060587, -0.8607748014582722, -0.5539709368592537, -0.6729459031292541, -0.5258495628951962, 0.19450172640138155, -0.3248705820078824, -0.9965125166083213, -1.0, 0.2889891479554798, 0.4560727343716112, 0.4224307163192301, 0.2393552849605735, 0.9018032867566447, -0.19137884621453755, 0.2592120990537572, -0.1901192734648258, -0.8269529600172845, 0.4380027737457169, -0.9153478113068801, -0.1928873967485056, 0.36537064071793207, -0.5794405195567008, 0.2683637926977464, 0.784074624342693, 0.7423627311573461, 0.051489202706039926, -0.05732973514348799, -0.9508212653997086, -0.33903443248528015, -0.7321125301440141, 0.883967710075244, 0.6652538482553858, 0.6122805588434266, -0.4578047214917998, -0.705295595596862, 0.12761695840448925, 0.8580915859793884, -0.25584360458140665, 0.22259760980162963, 0.721191930069335, 0.08357035631046536, -0.29285510296585016, -0.12122928595625726, -0.9994543399017837, 0.6635022473662988, -0.9225094429880784, -1.0, -0.08018523830715843, -0.9875192146308143, -0.8596661679922099, -0.3138807487379361, 0.7366408030682701, -0.86443527186642, -0.838385688936041, -0.08347826415514795, 0.02807147732454377, 1.0, -0.9999405414316288, 0.5137268860298783, 0.07469987159607169, -0.9266101988326776, -0.9679100566375144, 0.7191870109812677, -0.13710820334857987, -0.4523566047052946, 0.39181659987364187], [-0.8374571899022445, 0.6316266949828593, 0.1769201584877189, 0.4911225774337105, 0.2795647477233148, 0.09617732408604258, 1.0, -0.8387442180811104, 0.12216411911370026, -1.0, -0.9270554848147958, -0.5390144514826066, 0.33853264917726816, -1.0, -0.5051076380597728, 0.30463379469963453, -0.49962047114885394, -0.18611775075061887, 0.20547039502314143, -0.6644365878610312, -0.4477705013056038, -0.031371729835125296, 0.3852020182597027, 0.9032258908691265, -0.9985828867619189, -0.583920209901044, -0.9004117114107859, -0.052714616702833755, 0.9863064220165723, -0.46926795246136266, 0.5833089419361017, 0.6432523529027402, 0.8842512778125701, 0.05334649607123909, -0.3199261511864516, 0.369379821099694, 0.39232447887679445, 0.6370075315749729, 0.8745042232779952, -0.24890459156382813, 0.8996022422482904, -0.9965872121789017, -0.2026963417641181, -0.15259950443419812, 0.07291982342663654, 0.3146720960670655, -0.013589466339188817, -1.0, 0.6972571400788979, -0.47207405330652086, 0.10625470738063467, -0.7020120730627766, -0.7962007514464663, -0.0071816576677378495, 0.4330762199450708, 0.03581107184263658, 0.4604272734366631, -0.32841764950873914, 0.22966955614420043, 0.22389885845966218, 0.2683824844374214, -0.13217704347431933, 0.9999988191282628, 0.2784851607991016, 0.9999999999999997, -0.5303930467483698, -0.8807270004216851, -0.2546079252023364, -0.8870973728446001, -0.9999998286200179, -0.8746285457384583, 0.5031966878066478, 0.48813281459656555, -0.9972704035561785, 0.12393331860828345, -0.9999999999999998, -0.5924972674824879, 0.10458741749530151, 0.9882846878473578, 0.1866468375372357, -0.568411534760598, -0.46542590416466484, 0.9999999999999999, -0.9986905696274686], [-0.10310543647311174, 0.4534270637600851, -0.9828476788329895, -0.15567658446508978, 0.8407422524691942, 1.0, 0.2630840568788533, 0.06205175531471025, 0.9999980926438087, -0.9999987249839847, 0.27819858042498197, 0.7957574132526561, 0.10988504136533736, -0.5571855023425829, 0.8652309204114544, -0.9800691297353206, -0.3294842994822142, -0.7213951997854423, 0.0717325284646574, -0.9999989122461036, -0.4162476209406178, -0.8731078560986386, 0.6350009296284167, 0.5070735678358219, 0.47263089577273015, -0.3971427403641694, 0.4970612986109618, 0.9508694374052524, -0.6809201497480287, -0.6745050333427755, -0.7505195418629204, -0.43259628437927244, 1.0, -0.22794404562812684, -0.4029944286136704, 0.4786338333033701, 0.20843122963835767, -0.8621796010960158, 0.5795437102875552, -0.8760468274900226, 0.2294540419964567, -0.515022508905742, 0.6315587624757426, -0.2452914822468057, -0.9999999998361758, 0.2756208841609383, 0.7151054367190236, -0.19861538969954082, 0.5501299502317326, 0.5884782395487999, -0.00854312764749051, -0.829407418862117, 0.6821260237856611, 0.9769953381346952, 0.6351615769553923, -0.7272175461027304, -0.17267505764030164, 0.11418615559185719, -0.8146298495721335, -0.9879328380720536, 0.1023424781773492, 0.09652783406055568, -0.7463718456794308, 0.5178868689951882, 0.7892628027853192, -0.29807329337879, -0.4919775787784268, 0.533710746583377, -0.9022562170872915, 0.44943304804054224, 0.7183731907446673, -0.9996188792818601, 0.688808400170678, -0.8996068103557291, -0.5607819933759287, 0.13285977717358227, -0.9957779244264674, -0.430476167756518, 0.16116217986560527, -0.6365700671564551, 0.24990576065350273, 0.4634080919529455, -0.24833181137349497, -0.8495246825869085], [0.7970688007286466, 0.9356421186678435, -0.5056601987638034, 0.999999685940509, 1.0, 0.04634428636324627, -0.955936136371685, -0.9614533728478151, -0.41844734909943704, -0.7030210137251124, -0.9991399002799456, -0.035120102473711896, 0.8124764531582375, 0.14888123353042318, -0.26567737821917764, 0.6519446170304254, -1.0, 0.20518635039117564, 0.8287134911507011, 0.26299524857583545, 0.3826416498276024, -0.40853875281092084, -0.805246301508583, 0.9999996965639013, -0.5504934375846092, -0.5918465427780222, 0.5549674186309761, 0.366746828345405, 0.8165865650215031, 0.7170135054509892, 0.9989881041485204, 0.008988205714336438, -0.4694291524028569, 0.5576595474620272, -0.09658838529491753, -0.00982690893167941, 0.8384489700995962, 0.8430625771620457, -0.09896841384767256, 0.6103810697921498, -0.9640817363903433, 0.671408163271939, -0.03256849881539677, 0.5447861491151227, -0.14598084205257572, -0.521489587177589, 0.05754494277429456, -0.524014331104036, 0.34502199131454225, -0.3796027232781812, 0.5479333914687061, 0.23279544651588635, 0.1420236109654863, 0.900964148370802, 0.03556452734029922, -0.999999997447866, 0.2526071030029692, 0.03935296803452819, -0.7753791470224612, -0.8350796096612781, 0.13724353609152368, 0.5585589139385777, -0.17295130533014777, 0.6112986635317839, -0.5618386566356602, -0.8340911199716254, -0.16360408483755529, 0.5987995774720639, -0.8350901323434775, 0.18458128160319034, 0.09880923952189334, 0.8208825333870275, -0.3308755753668063, -0.8214292586766256, 0.1059833220527915, 0.5875513089349876, 0.41116380790575113, -0.7139090516821672, -0.353478686406608, 0.4791480816521037, -0.6718834598320073, 0.3179322697687121, 0.900411692872675, -0.5807448881977041], [-0.9999999999999999, -0.5607055808906646, -0.4097962537660416, -0.6749125472373032, -0.9493793155414834, -0.8008796814827842, 0.0017671249170917221, 0.2190919585779072, 0.04503883152422372, -0.9999999999995746, 0.3454577998669975, 0.1077330097515515, -0.9997119936780252, -0.31774196033665647, 0.8643544609315931, 0.9985934926988101, 0.12156086402778539, 0.6483380102726206, 0.7756764266492162, 0.7781411930514764, -0.505368538234531, -0.5367433959438493, 0.15178920187162045, 0.7121448299372395, 0.526079515314121, 0.08109454675240309, -0.20747185089885953, -0.9999904535622074, -0.3810684873622532, -0.3185967159625567, -0.8332193483414029, -0.6112311560951077, 0.8033186313288043, -0.843770953453678, -0.5226066317299496, -0.5907049293907939, -0.7447534890929318, -0.9301418660964234, -0.6509620912433239, 0.5452789543330175, -0.13667529784624247, -0.7462159460362912, -0.7403881436055546, 0.7833894048657463, -0.9022036335030913, 0.17955191580194005, 0.141822366801543, -0.31249738275894917, 0.6722500867647471, -0.011776685158489205, 0.9999866262781218, 0.05600456939789006, -0.6509090526346804, -0.8367962771963909, -0.5173201189591682, 0.7056520483355708, 0.33163280387239036, -0.1205337318768041, 0.25630700524541655, -0.8341445936785343, 0.44048120627845105, 0.3658349800362877, -0.4905628952380699, -0.9999998587813401, -0.5563958562770124, 0.47218184782631006, 0.8543723479982064, -0.7511293184210809, -0.9999985545625668, -0.9994086950333303, -0.11414149833960441, 0.02910319125504226, -0.8709363196452543, 0.9997838041174077, -0.7074916500654401, -0.3202954957004088, -0.05667498561733256, -0.13358237172686527, 0.40863579770667124, -0.06485269097248574, -0.7429224028290043, -0.45347212445340995, 0.17983452559781682, -0.7223775730925741], [-0.5624584463294209, 0.9988411026861065, 0.3980294040348329, 0.7566322597910786, 0.28114024308008684, -0.11842325302476878, 0.5822414030595059, -0.30251692375216505, -0.264407642881128, -0.3544127348952969, 0.5739255776719554, 0.3317456293530899, 0.9999749137822493, 0.9999999999999999, -0.0021381968078159077, 0.9997573366608621, -0.3292826192364732, -0.379573222192891, 0.9999960178292046, 0.999779709088305, -0.5236768552211302, 0.17462442003891682, 0.07234953167464282, -0.08804095428353767, -0.3969786775074582, 0.10186277720231333, -0.6125652132086671, -0.668869144454074, -1.0, -0.014960366578197642, 0.9999356420419915, 0.3152107867133997, 0.16387430407167, -0.33301905418930294, -1.0, -0.2376499562886357, 0.6768665123111719, 0.6399100571642401, -0.5420670756670923, 0.8052367688902976, -0.5252397651802352, -0.6887985103312549, 0.8454208284250253, 0.4252530512390324, -0.2786700478203559, 0.5638934810729278, -0.2476170884113025, -0.4962460413426089, 0.9936125095197934, -0.8686254133643596, -0.5056297718723237, 0.9426501975042606, 0.7423909617506801, -0.23908146646245126, 0.23264844107599295, 0.49326209028889606, -0.18537141646930747, -0.804648011475735, 0.23861438969561652, 0.5044887360079062, -0.3083866742313282, -0.2492862907746045, 1.0, -0.17819811330898086, -0.9546264209230151, 0.6026064320525377, 0.20802241356501955, 0.43393092849597964, 0.3688565429156949, 0.9997836564740462, -0.6254119945143627, -0.5278104717500306, 1.0, 0.24773294190374698, 0.9999966612591473, 0.6983213766970032, 0.9938870395469087, -0.671195995790058, -1.0, 0.8755056203825826, 0.4408121277878528, 0.39870423347935, 0.9992725907152255, -0.35250590682851846], [-1.0, -0.45028312651111485, 0.5772373357279106, 0.13740061666327993, -0.7239414869991522, 0.8673828177290139, -0.26539755176054564, 0.998008875443372, -0.937180091649601, -0.05079799250389773, 0.4074814400438634, -0.33004801052655997, -0.1867755717778894, -0.3066846567654379, 0.384845181999543, 0.8153513093113118, -0.31026184767276327, -0.9297525993008167, 1.0, -0.5872356106148108, 0.3963553642249008, -0.18500674551513716, -0.515873430770092, 0.08375902225927778, -0.7074363882922877, 0.5067902665044093, -0.7908638690216234, -0.08488467957008726, -0.7628949372232713, -1.0, -1.0, -0.8189239086357593, 0.9994500612116224, -0.29846020834521464, -0.7717075912122752, 0.3986548333464683, -0.5356692874047513, -0.999354414411976, -1.0, 0.6530651910384692, 0.00897613596781947, -0.7034762713481274, 0.49040912674902365, 0.4429653660973788, 0.6165703933905214, 1.0, 0.38543521322948576, -0.9988773622314294, 0.3220575484088836, 0.3361024271457434, 0.9993582524903001, -0.13390154068677337, -0.9995260590701551, -1.0, 0.24394020282553128, 0.14851419422995815, -0.744285584504768, 0.5746548855494255, 0.5811377874280824, -0.9999836578950135, 0.6463254131492783, -0.8355160779148302, 0.26366072646677247, 0.662469919724467, -0.5622062068529605, -0.5733606051835466, -0.6213702842977644, 0.9996766833120262, 0.1296145925736707, -1.0, -0.9997502286268932, -0.8889922044651175, 0.6494370245418631, -0.8619839863283598, 0.5972963964096463, 0.17424814171159347, 0.9902224000566064, -0.027560620750381563, 0.9578181607296519, 0.9995227603572107, 0.9999781735841681, 0.3581719448331194, -0.725332693484763, 0.007205841643482052], [0.5822402681374398, 0.29689274721619774, -0.037663194586534866, 0.6975356238309639, 0.4456641733445567, -0.9206983235593904, 0.9712648230624642, -0.34602366461954004, -0.2879478071860097, -0.6824442106019273, 0.9908101125735401, 0.8149831565990701, -0.2724172188164729, -0.23277269089525765, 0.3706140075368811, -0.5385643113812382, 0.2337362853755093, -0.9999999999880206, 0.893303796654747, -1.0, -0.9999999999999999, -0.6467258427320538, -0.6132052279827538, -0.7848680482959145, -0.8187598963053345, 0.9987870802016594, 0.724365472236408, -0.512023595244056, -0.9285516286590849, -0.9999466200654624, 1.0, -0.9003361386837396, -0.4836770256637913, 0.011860298856044598, -0.14769202294050096, 0.23871191462207397, -0.7950671137325431, -0.15278830682311514, 1.0, -0.6174310526370066, -0.9990700240936711, -0.13673041648199036, -0.21109450184351514, -0.2007537399445123, -0.9999999999999994, 0.935634458742304, 0.8262472476602807, -0.026334729441395824, 1.0, 1.0, 0.5542070391064279, -0.40026474347435237, -0.36289996982145833, -0.0369521111358541, -0.48932387951158607, 0.657776330995534, 0.9999997522483557, 0.42118778976651366, -0.9986102353060116, 0.8472172395441242, 0.05098200238051853, 0.48994121255366163, 0.5679190836381884, -0.3255988492192044, 0.36150173429405696, -0.2817557120719464, -0.5911722438554351, -0.647049140415395, 0.12479024943697446, 0.9979092023172061, 0.19967211752929534, 0.04034428455455511, -1.0, -0.4877068700627899, 0.8588112977172164, -0.7595911246598548, -0.5049424170804896, -0.18200633491644722, -0.9999999999999883, -0.008391613588427937, -0.016334244255126116, -0.6528679899701431, -0.07554505724221229, 0.5080064019473607]], "w2": [[0.051352836721287966, -0.9998988271576087, -0.5854205441123842, 0.33188926950868675, -0.3465328553959941, -0.18008847420296945, -0.8447459922222089, -0.7984578956544174, -0.8665960514536936], [-1.0, 0.9985654758804744, -0.9738430904724257, -0.3066083812350683, -0.09421410883696785, 0.5562989336497305, 0.9239926163978205, -0.5981172232360088, -0.23478091866239864], [-0.16907198419524597, 0.997530685258771, -0.9999385408888996, -0.261668515762006, -0.46462395583354593, 0.06916557329299826, -0.16077173365086034, 0.5966274953792019, 0.39785552315258293], [0.2196396896611582, -0.30588589827423285, 0.5725884951849141, -0.19341243711480602, 0.8382335588276328, -0.8066219826595842, 0.18643046495496546, 0.26149145139022484, -0.005449224372483685], [0.8725556325007557, 0.6634748054943905, -0.3343371271580838, 0.9999998504488388, -0.13516087285675793, 1.0, -0.27317106325674, 0.9253363738401209, -0.7687291828564485], [-0.5653154487695369, -0.09470583695513236, 0.36366031345257993, 0.46961214806513657, -0.9996645142462283, 0.6990263087137869, 0.7310504586132414, 0.382254218648449, -0.7029091945728824], [-0.7969026584223324, 0.2883906330885827, -0.9395263207964949, -0.25703884320305387, -0.10206807456529804, -0.41410597017766837, 0.9923219115583977, 0.37916013919852587, 0.20932453448771882]], "b1": [[-0.298597004792986], [-0.5562674610317081], [0.996424113820003], [-0.999233392624661], [0.7186001743316919], [0.42447511081714284], [0.5070161191107918], [-0.45392693078666174], [0.1734634095741394]], "b2": [[-0.624025832333487], [-0.05452936061550586], [0.8751377739341683], [-0.317835156793702], [-0.24180857827473395], [-1.0], [-0.9971519902883828]], "fitness": 1746.0, "best_pos": 8.0, "best_status": "small", "score": 400.0}