{"w1": [[-0.40369168387239496, 0.8019491488164209, 0.22989032313362065, 0.4993358520272998, 0.010738172667242845, 0.5422375800917684, -1.0, -0.45998632482451696, -0.5544640355657853, 0.13828749331128615, 0.4290374288221213, -0.3246868446345008, 0.5287713578340343, -1.0, 0.15655603521696534, 0.28412849776940163, -0.441347152843462, -1.0, 0.18698190833724565, -0.9974872775927105, -0.8038450723552125, 0.9549831520338943, -0.09880847139620115, -0.26081301164642234, -0.35444930091120197, 0.9377455968678088, 0.405244819160058, 0.48565946359851886, -0.25401845231147796, 0.3385896565351719, -0.6718361752580196, 0.6820390474862429, -0.12096434279683245, 0.3032163262292751, 0.908030425914153, -0.6873265495765659, -0.8249393760869826, 0.8485702850683066, -0.09251995831123, -0.7372748088556262, 0.39477860460354613, -0.09481591090495649, 0.48169655162659397, -0.2995093722798943, -0.453125117956821, 0.5482739307892418, 0.4088753398592629, 0.32654846765481105, 0.2831344718967499, 0.5296973816627405, -0.06662104277213608, -0.9965369110637727, 0.9997822398409253, 0.2923305876529606, -0.32819299362535803, -0.997961005451298, -0.9238393007123796, 0.8373961395961169, 0.9997785655493283, -0.25018178561314314, 0.6295674146062804, 0.579030481945399, 0.008292196662622065, 0.4648396671757582, -0.46931604219289447, -0.0825246169777244, 0.22115734149557892, 0.999949019798142, -0.45294874284443565, 1.0, -0.7293373980906652, 0.13536484594652734, -0.19161419130538637, -0.4330858363054436, -0.9999999999999997, -0.5189861785132828, -0.33814062184585697, 0.5736037005778779, 0.997797474958258, -0.3691182572942555, -0.9235267680763527, -0.17718891978508178, 0.5500176489267621, -0.6100825219921999], [-0.23748915228844555, -0.9999959910439812, 0.8265548104261851, -0.6082447569655799, 0.8693424417459947, 0.5657532121809076, -0.04966532013609312, -0.772649718664799, -0.3029348808107995, 0.43126132272533385, -0.4684604233427416, -0.3270136019738711, -0.8068983995852638, 0.29215071845995033, -0.21091332595894294, -0.3639959884636871, -0.24641691490138584, -0.0532902161607921, -0.8607772248207417, -0.46697236977588086, -0.6729818674128945, -0.6073560863082762, 0.1941788425981981, -0.3250174234907479, -0.9965023621696886, -0.8458014691081592, 0.2891244913676095, 0.5161929484723748, 0.42914341582465093, 0.23939178570774322, 0.9016780699576249, -0.19097840687597908, 0.26413192285579185, -0.19042559655508773, -0.826961850391406, 0.4351857440156196, -1.0, -0.19288744765840007, 0.3646286042067653, -0.5815780013356076, 0.26829171231043497, 0.7840749266930196, 0.7443263389763568, 0.05224998465456946, -0.047383050277530134, -0.9508136057454766, -0.6992915614233923, -0.7319115180096304, 0.761436177350191, 0.6642381886149786, 0.6326897726060787, -0.4577826353679408, -0.7056337076556662, 0.12798590926339615, 0.7483250975059542, -0.25628720907258545, 0.22278486735562528, 0.7206443252551284, 0.1101531306884334, -0.2936932390048154, 0.16576930230086176, -0.9965995625441733, 0.747615795178734, -0.9999083187350949, -0.9243877156448731, -0.07863528444927864, -0.9875109426796045, -0.5516214201457882, -0.3139801836079158, 0.7382440794380534, -0.8678254480188313, -0.8384231083240298, -0.08347130383210288, 0.028005742218827696, 1.0, -1.0, 0.5127984434915231, 0.0775034742333384, -0.9691758676707568, -0.9677600002111529, 0.7191968536194376, -0.12358497253557996, -0.6518323034765092, 0.39086494058453786], [-0.8383123424658238, 0.6316269627383566, 0.1732659457193776, 0.3483771229397171, 0.2795662582402009, 0.09617834108301573, 0.9792623543634219, -0.8399939912650496, 0.12216411911369998, -1.0, -0.9271881309636744, -0.6840242609908537, 0.33646112216878565, -1.0, -0.2516225232322487, 0.047324958667845474, -0.4996245630052133, -0.18685567336230904, 0.2056594010168223, -0.785268173260731, -0.43185076138358647, -0.03141755909572567, 0.38465415426819444, 1.0, -0.9999999999999999, -0.516335658982152, -0.9006118516521956, -0.05319504930269476, 0.9862217759963966, -0.5318125599355819, 0.5863268845165432, 0.7885493663812349, 0.8848452953355754, 0.05349799135232694, -0.31990664292909243, 0.3468809716489838, 0.39246735904416563, 0.6370075321712593, 0.9970722664845822, -0.24901882424365931, 0.7318050608835878, -1.0, -0.20279400857391006, -0.15259462166192303, 0.06922788198954134, 0.25351392643977566, -0.012726631047010517, -1.0, 0.6986979606810791, -0.47346329577593116, 0.25707937616817517, -0.7020040971537196, -0.792958968282575, -0.004972280550478652, 0.47178653182750596, -0.489664483607954, 0.46014665033488156, -0.32836396272408697, 0.2304467805875753, 0.22224904857374622, 0.2693903919310109, -0.13191390370989325, 0.999997805805027, 0.28122843921138463, 0.9999999999999999, -0.16855804197073063, -0.8807271411021831, -0.2547780845322196, -0.887668837219175, -0.999999827614286, -0.8746283517964392, 0.3335635179667892, 0.7723779082979546, -0.9972765734290437, 0.12393394298514024, -0.9999999999999999, -0.5922261728471635, 0.10457634868387326, 0.5996716084599019, 0.18592231390216482, -0.5071502971954064, -0.4654258959291203, 0.9999999999999999, -1.0], [-0.10321985244328086, 0.45177895872215074, -0.9831126566342069, -0.38880503380141906, 0.8407422524691942, 1.0, 0.263041415387412, 0.06137782772609951, 1.0, -0.98029045137051, 0.2791897685643211, 0.7957576157141903, 0.1098912043147271, -0.31632947905964903, 0.5846554678058785, -0.9800691297353205, -0.3293574991785263, -0.7355800595909824, 0.07173599014399835, -0.9999999999999994, -0.41627926505091867, -0.7333791400207461, 0.6352417182949467, 0.5071390993534705, 0.4731456754305714, -0.3974302086049352, 0.29250763725921897, 0.9508694374052538, -0.45337200436747427, -0.6746726049555167, -0.7497562986767751, -0.4306771658737371, 0.9999999999999997, -0.22504898645487922, -0.40087669314024155, 0.47814037470589144, 0.21120820398177956, -0.8620689347508158, 0.5800544463348379, -0.8760300177713783, 0.22945302390073138, -0.488708343796845, 0.6315582477047021, -0.24529737726773504, -0.9999999996082498, 0.2756208841609382, 0.5649004302654319, -0.20061657923663223, 0.3371793962992867, 0.5875624649703833, -0.00854312778211583, -0.8294191321654734, 0.6821260237863119, 0.9766622667405902, 0.6099090378933604, -0.7273243942414412, -0.17232795442520618, 0.11419535361199172, -0.7004353302530621, -0.9999999999879325, 0.10179621335339131, 0.0965302612345989, -0.7463781406739042, 0.5178847864012965, 0.7892135890528734, -0.23882727223444136, -0.5537838113350452, 0.5320177955950297, -0.9028294313761344, 0.4484005954795157, 0.7155387574749874, -1.0, 0.6888034773973599, -0.8995373287746014, -0.5607983534456036, 0.13286095804106515, -0.9972169188864253, -0.704637962601515, 0.053916252167350076, -0.6365974470136587, 0.3993049507028719, 0.4630982479072563, -0.0921649628972925, -0.8512988613810593], [0.7967786664878244, 0.9753338009364823, -0.5064708544579276, 0.99999968428409, 1.0, 0.046774210844903255, -0.9827626527398675, -0.963117648210062, -0.4593131703847956, -0.7030210634198575, -0.9212028748470631, -0.03512060053422277, 0.8124773268585331, 0.4224098645111407, -0.3878039355036691, 0.6519706070890569, -1.0, 0.19902439468909164, 0.8296149987503726, 0.26344476062247557, 0.3811616051052294, -0.38104593709723, -0.8014604037237731, 0.9999996953047122, -0.10809435957095936, -0.4911820844110207, 0.4035538387505455, 0.36673972377577435, 0.8165505797866638, 0.717192316110423, 0.9989881213487456, 0.008982618944660499, -0.4697318981664869, 0.5581997661093264, -0.09658833986847999, -0.009855588788282663, 0.8389566752165386, 0.8430625771620457, -0.09896841224019227, 0.6120080220543628, -0.9684038137453126, 0.7267570708181272, -0.026841440692722294, 0.5404693672002527, -0.148102558860768, -0.5224232075325929, 0.05754494272867395, -0.5223773352108407, 0.3446617798770471, -0.37975403229212856, 0.5479300823282226, 0.23280311028504183, 0.14202361096551083, 0.9001829715220683, 0.03749451472955637, -1.0, 0.49157012556734986, 0.03917554023983989, -0.40050755252461834, -0.8322771004469781, 0.047984205418922274, 0.6999378878179243, -0.5700497483341365, 0.6124274485995567, -0.561605405659829, -0.8330313315798494, -0.1636040840296175, 0.8500681620555117, -0.8350901905402134, 0.18462550159259425, 0.3021429763191842, 0.6920886288384148, -0.3767862787374422, -0.8212101560013976, 0.10543528603430245, 0.33730700580046996, 0.4101212172808747, -0.7139090651284388, -0.19569579104986115, 0.46365294680375435, -0.6128185992849365, 0.3179320343280234, 0.901485667324315, -0.5829241724267747], [-0.9999999999999999, -0.3325047662499612, -0.7949549494163782, -0.8727455800535391, -1.0, -0.8029558991735485, -0.009080993790534005, 0.2189844540748259, 0.04480642071293379, -1.0, 0.34545597784528415, 0.20903332704785807, -0.86193410526978, -0.31774196235405827, 0.86859020296205, 0.9986291756601496, 0.1215608674500468, 0.6483270386139529, 0.7756573230551397, 0.5075058403316317, -0.3939294354617181, -0.536743196645775, 0.44882210900657865, 0.7121987551853738, 0.5507538753651378, 0.08109584103902966, -0.20654210497948255, -0.9999999999999999, -0.20251445753193134, -0.31220888799535, -0.9992809291515652, -0.6093537519526969, 0.9999999999999021, -0.8437800925799652, -0.521934107637147, -0.5934519444700384, -0.7449810932963776, -0.929785001790111, -0.6555195700558383, 0.3667470703080782, -0.1366673590968182, -0.9522699346664513, -0.7404908920724979, 0.783373253787344, -0.7726428418272052, 0.1515851310141424, 0.14182237358967245, -0.4034203836867579, 0.8230275815097018, -0.011810270084568664, 0.9999865676776126, 0.046902480869635554, -0.6509101364855, -0.8356697710778235, -0.516425509940931, 0.7056520461662692, 0.3316158511360507, 0.07089371437201529, 0.02721828328388658, -0.8339198360967914, 0.44048875527230524, 0.36331164019753426, -0.49056343156444887, -1.0, -0.7681760493568535, 0.16412207568144868, 0.8543373095686183, -0.7516285358312558, -0.999201446203879, -1.0, -0.1141371937774919, 0.21890323022255886, -0.9999999999999998, 0.9999999991031748, -0.9034651278959978, -0.32023842781003925, -0.19032808271641224, -0.13371076361838036, 0.4068310456672177, -0.0633331592447227, -0.7429224028290144, -0.45635131584358607, 0.18214411639870126, -0.723637041781867], [-0.8351277113364192, 0.999006606130457, 0.2691880748523663, 0.7572264719932131, 0.28151533955103586, -0.11855711059077023, 0.5823014075768177, -0.3023795368248274, -0.26375278694793497, -0.6852673458925738, 0.5732773797492311, 0.332241481694591, 0.9999999999999369, 1.0, -0.0021584197187058847, 0.9997566938771049, -0.3276619865637334, -0.16659723029384335, 0.9999960317823807, 0.9997797074122925, -0.5237182558096937, 0.17438523558393493, 0.07512984559859828, -0.08791507152056398, -0.395024628674569, 0.10199301285572279, -0.6125652133524103, -0.5734108920014472, -0.8893522328942369, -0.014537883778370297, 0.9999361455007831, -0.13320695423968082, 0.16389470541779166, -0.33524361471195235, -1.0, -0.2784185815904026, 0.6770710065952075, 0.641123008963618, -0.5365789586636046, 0.805236392881153, -0.6030040673437697, -0.6574711653762959, 0.8454257933331656, 0.4224577521576827, -0.533754263637559, 0.5638934846934005, -0.5861963329292107, -0.49163450476552767, 0.9936125095197611, -0.8680168624481515, -0.5054630574929778, 1.0, 0.74240078654779, -0.23912672994210835, 0.23332873844225802, 0.4922401008804615, -0.1842907784549752, -0.8066829498107055, 0.23861438969561646, 0.5044870255620355, -0.44496126393422164, -0.24928629287957957, 0.7752096380706127, -0.22991258945633639, -1.0, 0.602608802302222, 0.41260456308406224, 0.43313464556011455, 0.039709189243567096, 0.9997835634925053, -0.6254120089439857, -0.5281169962462616, 0.9999999999986585, 0.24853359360552255, 0.9999999999999999, 0.6983207245899985, 0.5902655050130914, -0.6710678765751787, -0.7514263809855278, 0.8746077401672762, 0.44080969858407, 0.3986942643934519, 0.9992725907162787, -0.3512249147672318], [-0.9873878432563168, -0.4502832974538088, 0.5775645450704986, 0.1358610192501562, -0.9758099740728745, 0.8673799658066811, -0.26539744866995685, 0.9998332754790865, -0.935212724467658, -0.04977829597501181, 0.40748167431239446, -0.32995231966030314, -0.18821398262522895, -0.30676203078536357, 0.38458690248816574, 0.6308961615589194, -0.31094959056934857, -0.9296010971899629, 0.9999943308284615, -0.5871526779115518, 0.3963542419869514, -0.18500602403479185, -0.5158734306698483, 0.08500333177867764, -0.6029721678516402, 0.5530503971384515, -0.7908736009731042, -0.08485640334903694, -0.7628626799931365, -1.0, -0.9999970382254805, -0.8203582590330937, 0.9994500430319455, -0.2986977354307707, -0.7705782451531334, 0.7962060403304874, -0.5355893546049053, -0.9993555816239329, -1.0, 0.6533768693616174, -0.3360308415138674, -0.7034763241887029, 0.4931824016705035, 0.30064255142076446, 0.6167971797799234, 0.9999999999999999, 0.38504893104141386, -0.9990028645944152, 0.5625101673456717, 0.3366246587176737, 0.999359572056413, -0.1339011608837604, -0.84075870090759, -0.9374079317526414, 0.24384772198921076, 0.07133677200761446, -0.7435562130736485, 0.9200868167804391, 0.5852437914020754, -0.999983618874561, 0.6460391813255705, -0.5820205846420248, 0.26338350213534467, 0.7446481731718723, -0.7099046357435032, -0.5737105065386422, -0.7410043657023389, 1.0, 0.13011143069213454, -0.9999999999999999, -1.0, -0.8883932947861869, 0.6505556869276508, -0.8191051631385209, 0.7850767393101028, -0.06487874735125694, 0.874073463380453, -0.028653744741527595, 0.9578212756970526, 1.0, 0.9999781734481015, 0.35844943118546013, -0.7862900854853975, 0.005356095416140922], [0.5822445194619267, -0.09719168195634825, -0.27718459516554367, 0.6975356238218623, 0.44818308169016813, -0.9178921927820741, 0.9755327653219145, -0.420144024293754, -0.2877164330087596, -0.36787663524125036, 0.9908115393309904, 0.8150151882252387, -0.27288126156010517, -0.23404453355681795, 0.37155827870016, -0.8880266438610696, 0.22512903988437963, -0.9999241288389067, 0.8925861881056343, -0.7550219670764592, -0.9999999999999999, -0.6467258427294776, -0.613205227982696, -0.7849585810933758, -0.4154959453533551, 0.9999999999999997, 0.7264464091237269, -0.5105041583863331, -0.8824715845559666, -0.9999466189187614, 0.8094871741150786, -0.9010333088109682, -0.48460007892716767, 0.011326709795991347, -0.15708482103413174, 0.4025820598087829, -0.6096473952805166, -0.15278749396959426, 0.9227780071077225, -0.6170659595265151, -0.9990698333305242, -0.0996811583831399, -0.08337573901329247, -0.20077604898597784, -0.9999999999999997, 0.9330320623100717, 0.8262472475665799, -0.11730584539094825, 0.9999784998062501, 1.0, 0.7256835832761173, -0.4002608231209805, -0.3628999698214544, -0.14476682333784308, 0.008492404853698132, 0.8926434592688692, 1.0, 0.22310093745449203, -0.9986102353060103, 0.844968485676995, -0.3458122862570023, 0.2457983088741937, 0.566325302102351, -0.3255762267061957, 0.3643346449365167, -0.28176607045827023, -0.7424355397326469, -0.35426187457279235, 0.12502570113187156, 1.0, 0.32516005242761215, 0.06428746348276937, -0.9985520689364751, -0.9537480042823587, 1.0, -0.7589088156670405, -0.5049424163151609, -0.17916267776621156, -1.0, 0.08790676713134991, -0.017012212062491528, -0.6520009228331602, -0.07528526012778076, 0.5083151872249388]], "w2": [[0.050690577050646474, -0.9999516609552059, -0.2876628494294078, 0.3315882148450718, -0.34543994711154663, 0.030265616670671232, -0.9999999999996594, -0.7984582998065382, -0.8669602976147187], [-0.96768297870944, 0.999376241863529, -0.7924900063036359, 0.05102184946034691, -0.09415554288926742, 0.5557389276730467, 0.9239926163978205, -0.3906084732773387, -0.23478179988633494], [-0.16885206438225545, 0.9974943875171297, -1.0, -0.2616727051719565, -0.4641897840583863, -0.12375750352411274, 0.03400963822432519, 0.5960936178858816, 0.3978120454661986], [0.21963968966129713, -0.11970741763715081, 0.5667882178810777, -0.19341243711367395, 0.9205357486759055, -0.8067852413272145, 0.18685720576176135, 0.26149145891838904, 0.13145695397585036], [0.8725556325006328, 0.660564827889839, -0.3343371271579498, 1.0, -0.1349458941759512, 1.0, -0.2732665837538026, 0.9253269558525234, -1.0], [-0.17728756098110085, -0.18157566427105648, 0.7944692068602457, 0.4696121131812463, -1.0, 0.974786640084789, 0.7311218822929703, 0.38225421864844805, -0.7034160067018198], [-0.9813695941363283, 0.2944343441254061, -0.9407562657652058, -0.2578996534725584, -0.11237636398407688, -0.4132408247556192, 0.7286958194773768, 0.3791264946759213, 0.2086533598002006]], "b1": [[-0.2917620289161423], [-0.5554957891839056], [0.9979102148248478], [-0.9999747941267162], [0.7204022350537684], [0.42299735027743185], [0.5072945482632043], [-0.4536774964571344], [0.27386797431022547]], "b2": [[-0.6296837743193913], [-0.05452530562688569], [0.8739497863045055], [-0.31815625746532106], [-0.23979982895837432], [-1.0], [-0.9979037129041586]], "fitness": 915.0, "best_pos": 7.0, "best_status": "small", "score": 100.0}