{"w1": [[-0.38280161503538224, 0.9660641829075355, 0.22811933690168132, 0.4993401416864103, 0.0639485852767363, 0.5416062781175787, -0.9670524732880421, -0.46026341757493733, -0.5545543491701935, 0.13828817439411553, 0.4265107652376875, -0.324688172094441, 0.4659491703046058, -1.0, 0.15604249487338298, 0.33807035461209106, -0.4413412926743626, -1.0, 0.18698190838371784, -0.9975953967577461, -0.8038450723546474, 1.0, -0.09880847141957828, -0.26109730167990197, -0.3544513400069522, 0.9377455967551974, 0.4052457301377849, 0.4856550334943475, -0.25317306317261623, 0.2710254245272613, -0.6718248693871701, 0.6820390474128399, -0.12133776253309739, 0.30321469449340205, 0.9080304259140218, -0.6869527094842536, -0.6426633678998477, 0.8485702518354279, -0.09251712562922941, -0.455387478642366, 0.3947786054685246, -0.09452586037653307, 0.4787075564173112, -0.29950937227989427, -0.4531186983207579, 0.548286983705127, 0.40888684009555665, 0.18915128199320075, 0.28313933988795037, 0.5296973816616446, -0.06632407116902789, -0.9970049591211984, 0.9997819191595777, 0.29232950841861705, -0.3282208918840603, -0.8394846169708411, -0.9229562955584112, 0.8367307562184216, 0.5793507535525423, -0.35701017183198863, 0.6293053643476844, 0.5790297583069257, 0.008587746850217053, 0.031785987636530066, -0.12774001612544422, -0.08262179580493796, 0.22115993724618643, 0.9999490194138972, -0.4536244722184653, 1.0, -0.7299957964100472, 0.13522930863767302, -0.19161403159472043, -0.43308583457142846, -0.9999999999999993, -0.5189913266008354, -0.33814086614093347, 0.27050923166682483, 0.996730066622862, -0.33632419953316545, -0.9251676148082484, -0.17814432782318818, 0.5499243934444812, -0.6700558844770851], [-0.23748915524519235, -0.9999959911619397, 0.8257522215578373, -0.6082447342369046, 0.8701918469399029, 0.5657532529784158, -0.04966918362532611, -0.7726491156245268, -0.30293050781820297, 0.4312711447304819, -0.46845442444971436, -0.3267100010631942, -0.8068988746943856, 0.29219620269356905, -0.2109047123868446, -0.4515321087755947, -0.24641739736325372, -0.053291097606719046, -0.8607772471846419, -0.6404238658537564, -0.6729828608654411, -0.604885369523895, 0.19417908065695658, -0.3250181568351285, -1.0, -0.8469740742371248, 0.28912622063774907, 0.5161929495371085, 0.3527444442120805, 0.23935528496057223, 0.9016789080699787, -0.11463991237294592, 0.2791126977867308, -0.19018975927067092, -0.8269617749996925, 0.07945130464074335, -0.9155222656224064, -0.19288744763109572, 0.3652726741900786, -0.5825981292899459, 0.2682862678239519, 0.7840749327824889, 0.7415811198103635, 0.05148940751662061, -0.20093759963882948, -0.9507873574540087, -0.7013623845404049, -0.7319192739941498, 0.9042287657614276, 0.832741440919981, 0.9429860024220093, -0.4577816186285338, -0.8150394494090827, 0.12798654001928172, 1.0, -0.2562936963264943, 0.22278304085833384, 0.7208143431118283, 0.11152580699835773, -0.42520193644402193, 0.1687768199427398, -0.9997876499207504, 0.748670030009996, -1.0, -0.9248203324953884, -0.07986142821917513, -0.7768179033084368, -0.5500028527953169, -0.31398044464788577, 0.7382471967988539, -0.8689933334138302, -0.8384237301967126, -0.08347203338349435, 0.1889173313948654, 1.0, -0.9999402422300376, 0.5064733493114567, 0.23103297767140135, -0.968830061001592, -0.919659108395109, 0.7191924904622065, -0.22736215954978348, -0.45234886286828696, 0.3908749983626722], [-0.8383036365190287, 0.6316269635309217, 0.17335484668425025, 0.3490159644430388, 0.2795662528385265, 0.09617833976522758, 1.0, -0.840006167363726, 0.12216411911369998, -1.0, -0.8246995656389707, -0.6840244699589535, 0.3347501407209341, -1.0, -0.2521292052984858, 0.3046423607241629, -0.4996426359293889, -0.0752900403339021, 0.20565965874154998, -0.6652450517700943, -0.43181878342413765, 0.27103627751463544, 0.38465616052601825, 0.903225887376883, -0.998276853394554, -0.7862291326381364, -0.9006140877496716, -0.053197267786548465, 0.9863065117526867, -0.46906824411523346, 1.0, 0.6441009052834036, 0.8848526036756794, 0.053489094172442485, -0.3199064008391277, 0.368536662070054, 0.3923267933439654, 0.6370075321690484, 0.9980013285562402, -0.24902346509644602, 0.7316906668822452, -1.0, -0.45401303332972637, -0.15259459238450446, 0.06923597689197877, 0.25351520397302674, -0.012497878857361977, -0.9999999999999999, 0.5642674464811145, -0.474262177566214, 0.25711249627850574, -0.7020173398975551, -0.7931029960229893, -0.004990699416704756, 0.4709986474724867, -0.2099808740579593, 0.46044935628480826, -0.32860436556283823, 0.230444108748559, 0.22224357070254586, 0.11716078159428733, -0.05894330723902309, 0.9999978204203873, 0.28664869345807475, 0.7887109960434335, -0.16832503797267379, -0.8807271435845099, -0.24938827429010632, -0.9992211949301676, -0.9999998276033601, -0.8746284798557709, 0.5030663434770927, 0.45705628991688235, -0.9972769737230487, 0.12393394054022243, -0.7050791071556379, -0.5922263785934591, -0.22952371494288398, 0.6026937077800238, 0.24195008043760738, -0.506954062742951, -0.4654258959307048, 1.0, -1.0], [-0.14135127804413, 0.45147598237979764, -0.9831154532586087, -0.388486051037443, 0.7097774309028386, 1.0, 0.26304119366629464, 0.061374024566570075, 0.9999980926977715, -0.999998724918903, 0.27982216415164285, 0.795757483594345, 0.10988504136523655, -0.3092747822842799, 0.583617429835079, -0.9800691297353206, -0.3293563120224556, -0.7358228828118457, 0.24254916226892884, -1.0, -0.4156607857581456, -0.7328873740502511, 0.8026095163162497, 0.5071390569960142, 0.41067805178991623, -0.3974243781151819, 0.2923670958952742, 0.9508694374052538, -0.4528353631608326, -0.6746714901040022, -0.7496536726183486, -0.43791369236973365, 0.9999999999999998, -0.14923807876707934, -0.4008697028547, 0.47831680098549983, 0.21104130212873248, -0.8201226098973773, 0.5802630664735915, -0.8760300452456685, 0.22945308472724663, -0.5435658854908911, 0.6315582526863136, -0.2453012487237965, -0.9999999996994637, 0.2756208841609384, 0.7151050649779147, -0.20060059757318932, 0.5506219182512493, 0.5875586336523604, -0.2087255464723904, -0.8294191471003513, 0.6821260237863127, 0.9766628006233093, 0.6100895687088687, -0.695991198126859, -0.17233215682318415, 0.11419459817822626, -0.6414915766276729, -0.9987930981983354, 0.1025426048928224, 0.09653023639735966, -0.7372269931857826, 0.5178847990980385, 0.7892126340082976, -0.49353435298715204, -1.0, 0.5327031659593559, -0.9022562140885644, 0.44840119225725955, 1.0, -0.9999995605420219, 0.6888028035565197, -0.8995315256956539, -0.560822041393145, 0.1328590311294365, -1.0, -0.7042280760560512, 0.22511338037880102, -0.636805390929915, 0.3997297828524539, 0.46309722682921484, -0.09215931647653045, -0.9053886069900139], [0.796777238745407, 0.8802179487542172, -0.6486209027276995, 0.999999684306598, 1.0, 0.046773918028858975, -0.9559454777634477, -0.9630662729163993, -0.4591486270744748, -0.7030210634909543, -0.8902939390389879, -0.03512060068693081, 0.8124407462200511, 0.1488780674685518, -0.38783276002997097, 0.7801508764917809, -0.9376195847710395, 0.198456498238257, 0.9239100111411412, 0.26299524871324376, 0.38053902902030046, -0.38108451045815983, -0.749882967489792, 0.999999696563926, -0.5504186222959352, -0.5916446614473003, 0.40484203398662305, 0.3667396693457444, 0.6836917874043419, 0.7171933842077957, 0.9989881213599947, 0.008983235939916994, -0.46970496490335567, 0.5581889380989056, -0.096588340261961, -0.009856108610037717, 0.5996158742273163, 0.8430625771620456, -0.40740524352882923, 0.6766881275771195, -0.9685490771173882, 0.7267085169213194, -0.027026767437687553, 0.5404761879311037, -0.15092128454046522, -0.5229330333317567, 0.07178849177146865, -0.5229478751395396, 0.3446555586591224, -0.37975376764930624, 0.6010158055624554, 0.23279638527343846, 0.14202361096551097, 0.9001787162723237, 0.03789325885690693, -1.0, 0.719252136489492, 0.039113828042790566, -0.7753783581558646, -0.8304138419609752, 0.13738366724181908, 0.3619748046732123, -0.1723675634732442, 0.613827622642234, -0.5618125031884903, -0.8349488487059157, -0.11778986447012277, 0.5988146848468865, -0.8350901906231593, 0.3601013044044021, 0.14030079242009985, 0.6793410651422226, -0.2682275712300568, -0.8212154746442178, 0.10570079565978198, 0.3374107753446415, 0.40662768996018833, -0.7139090634743478, -0.19414742714488975, 0.29549074276999265, -0.6279793026508823, 0.3179320375063963, 1.0, -0.5807449589126581], [-0.9999999999999998, -0.33207255698171384, -0.7927252758028651, -0.8709529545237471, -0.9493792892608938, -0.8107558865880513, -0.011679461995659432, -0.09325629274597559, 0.04470330985843604, -0.9999999999995756, 0.5411618556951197, 0.20846049950551143, -0.8614655210875851, -0.3177419623551262, 0.8685746873681633, 0.9986293881811682, 0.12156086397445928, 0.6483265989682649, 0.7266283950290229, 0.5037979672932418, -0.39393628388187274, -0.5367431949555803, 0.44615332909030475, 0.7125016770859386, 0.5972868619664694, 0.08109584594362229, -0.20654080627860522, -1.0, -0.20251445821338, -0.31222096406405087, -1.0, -0.6084699191272919, 0.9988093932180446, -0.8437800295480727, -0.521934993249787, -0.5934772197799221, -0.7449799644478363, -0.9294374500015945, -0.6555250710860868, 0.3667470688196898, -0.13666745688850768, -0.7461892954189691, -0.7404905767914962, 0.7833735774672135, -0.7726428031094764, 0.18124666804859518, 0.14182229221607004, -0.4036674093872117, 0.6819916591157906, -0.01180627692783807, 0.9999865074785385, 0.0468210429022185, -0.6509101146660144, -0.8340587414431668, -0.5161747118744239, 0.7056520483355699, 0.33161691709952706, 0.07069769598210165, 0.027361391688067442, -0.8339151221500559, 0.4404887559716864, 0.36331133970658774, -0.5317536152218072, -1.0, -0.6617172067385994, 0.166172484829041, 0.85435981477717, -0.7516211146565042, -0.7351005637186463, -0.6356969627567929, -0.11411709223449497, 0.029226622848269025, -0.9999999999999998, 1.0, -0.9034654973112535, -0.4454746129279652, -0.2542441446046204, -0.13368479330827102, 0.25473331702668195, -0.06332738634374495, -0.7429224028290144, -0.45633685981969724, 0.18249875803297644, -0.8755773543615213], [-0.5704750253654014, 0.9990068650930203, 0.2694427641424459, 0.7572342885604688, 0.5622719990264671, -0.20604950482515466, 0.5824065073353075, -0.3014371514474842, -0.2637368877762203, -0.6852621612787992, 0.5676210388010584, 0.3304960825755101, 1.0, 0.9999999999999999, 0.02779611965526696, 0.7611817602248935, -0.6699291332507682, -0.3791355168275541, 0.889530039266187, 0.9997797074853728, -0.5237279813300751, 0.1743669493707631, 0.03776175857696535, -0.08791242130329767, -0.39685202589350865, 0.10199279740929067, -0.6125652133525795, -0.5734113456342154, -1.0, -0.01424135253103254, 0.9999363308229333, -0.13337528346873198, 0.1640746913361375, -0.335234051274015, -1.0, -0.2784104568958769, 0.9552857314691945, 0.6409270052561001, -0.5365398351411976, 0.8052363963656654, -0.6032760719903475, -0.6888156847936096, 0.8454255600294402, 0.4224459117148106, -0.5330656068408621, 0.563893481532118, -0.2513037211458528, -0.4868329359096703, 0.993612509519761, -0.7267835412042809, -0.5054613216404021, 0.9359471948410282, 0.7425192375404839, -0.10357137221027767, 0.23334704318654875, 0.2813782357048593, -0.18429135200638902, -0.8066710558472723, 0.23861438969561646, 0.5044884902197607, -0.6030936139484514, -0.1136285929862545, 0.8531228928292682, -0.22989696059088974, -0.9569628653836216, 0.5973645996183805, 0.3126573779585212, 0.43316640047095056, 0.03647474250901031, 0.7677700262369141, -0.6254120090605223, -0.5281195163799693, 0.9999999999986198, 0.3219876971262985, 0.9897963882137045, 0.6983207322390569, 0.5901165880360262, -0.6709716248322946, -0.7514392625355999, 0.8746033123064064, 0.6513976923566518, 0.39869655948022925, 0.9992725907162796, -0.3512202572351021], [-0.9874491990439558, -0.45028329763382924, 0.5775720500471874, -0.14993180492674357, -0.9749161289653607, 0.7741771023208236, -0.2653974225509126, 1.0, -0.9352129714172052, -0.05022319735033969, 0.40748193165686264, -0.32995240513287233, -0.18820294566929288, -0.18031184660369826, 0.38447218305265907, 0.4793374605304051, -0.26426639076904845, -0.9299317323425101, 1.0, -0.5871532484553621, 0.3963553642249008, -0.18500596050016974, -0.3053519300733286, 0.08499294913883806, -0.6037132437300523, 0.5449816674527042, -0.7908687215180807, -0.08485578545287359, -0.7628652479906184, -1.0, -0.9999970382233146, -0.6445308872401806, 0.9994500430570243, -0.5302741835789844, -0.7705998048456153, 0.3987594360485406, -0.48983839507312776, -0.9993555774641977, -0.9999982592386565, 0.6533813841569792, 0.02278888272623231, -0.7034848143590595, 0.4932458691697585, 0.44244454609876827, 0.6168010242901876, 1.0, 0.38521321242975004, -0.999003364777188, 0.45104154169485094, 0.336618675893338, 0.9993620081236847, -0.13390116053473572, -0.8407035235200012, -0.9407540522864525, 0.24384369031602626, 0.07197045668647382, -0.7428974560347165, 1.0, 0.5811307362064276, -0.9999836185236496, 0.6459089633536944, -0.6082816551210201, 0.2633829239118196, 0.7468760762365434, -0.5563252240685468, -0.5733605015643333, -0.7410043678744931, 1.0, 0.13013680423300825, -0.7834853078859696, -0.9999809811657469, -0.888393857190224, 0.6505376695252303, -0.9444853448581314, 0.7850767393101159, -0.06779204615983704, 0.8740277266776583, -0.030233140153210897, 0.9578212810933961, 1.0, 0.9999781737042596, 0.5516184247832305, -1.0, 0.007394214411903355], [0.5822445361316485, 0.4970407002683563, -0.2777674431748223, 0.6975356238217314, 0.4485186522656718, -0.9178677781665755, 0.9751909817280505, -0.37987310581777, -0.2881176375127186, -0.6822298603791555, 0.9908115317392996, 0.8151337314013829, -0.16538126479964155, -0.27345403081313824, 0.37155650729227374, -0.5945476197513015, 0.23373638664542404, -0.9999247756745955, 0.9236728920119727, -0.7543717614188364, -0.9999999999999999, -0.6467258427294477, -0.552467604293814, -0.7849572053933588, -0.6817550360925868, 1.0, 0.7254054297030577, -0.5104818777662941, -0.8916120621851332, -0.9999466189334746, 1.0, -0.9010317785456534, -0.4830036135369693, -0.13253174118711963, -0.15708248533113628, 0.40486936842426874, -0.7950679421606036, -0.15278756855343384, 0.9989054737196015, -0.6162482542916493, -1.0, 0.025666994994496123, -0.08476652829375735, -0.20077607376296577, -0.9999999999999994, 1.0, 0.8262472475659293, -0.1157283780373098, 1.0, 1.0, 0.7256846665646196, -0.5631493487389043, -0.3628999698214544, -0.14396752302674376, 0.008491091862661502, 0.9966725976113271, 0.9999999994167665, 0.22373385244939753, -0.9986102353060105, 0.8445826342653131, -0.3475211325207954, 0.21093420222822518, 0.47110682732248016, -0.32557609113661345, 0.26964594962437527, -0.281754634310837, -0.742521398267125, -0.6470640494836254, 0.12502321746009148, 0.9935025379487187, 0.3254711288182454, 0.04034410955358308, -0.9985345737514413, -0.7042150744289896, 0.9969186272351839, -0.7584963285998549, -0.5049424163172178, -0.18146131436322377, -0.9999999999999796, 0.17377374512562876, -0.017006645647691936, -0.6520267822274222, -0.0752827580211823, 0.2729393257056112]], "w2": [[0.050686485968867004, -0.9999518662160372, -0.2886379109478969, 0.33159237476462483, -0.3454453273159355, 0.030275779292616066, -0.9999999999996587, -0.7984583004990645, -0.8669554755403639], [-0.9677648210800016, 0.9993710049892739, -0.7936151263129008, 0.010872006351999246, -0.09415562063064813, 0.6361375298934432, 0.9239926163978206, -0.3906215412300118, -0.23478064298657905], [-0.1690719996315488, 0.9974783919449655, -0.9998493723130559, -0.2615373440662513, -0.464188632033383, -0.5741327295995231, 0.03426514530224069, 0.5686620862241305, 0.39781226510212536], [0.21963968966129782, 0.06734274956986618, 0.5637180944649501, -0.19341243711367506, 0.9220239917933003, -0.16698649211929995, 0.1868547214985556, 0.38935796617619417, 0.13121832753513354], [0.8725556325006336, 0.6621612711975565, -0.33433712715794744, 1.0, 0.025507573827761754, 1.0, -0.9952329307822164, 0.9253365809122803, -1.0], [-0.17654116139059953, -0.09501147829385918, 0.3636587582450322, 0.5989205754342873, -0.7380180340360472, 0.9998648258180657, 0.9186830557987297, 0.3822542186484481, -0.7034128047636208], [-0.9818424816276972, 0.2857266884939476, -0.9403043028613514, -0.25790924165705337, -0.11375055104279815, -0.8400030445002087, 0.9923454600472961, 0.8643654925837752, 0.20865262880716637]], "b1": [[-0.2916931568438056], [-0.5545303058433182], [0.9999368050782074], [-0.9999786925892552], [0.7204196865558425], [0.4222058349221196], [0.5070141104365794], [-0.45573398051672814], [0.0866119127086265]], "b2": [[-0.5483250976348144], [-0.054525327782074584], [0.8731595958848387], [-0.653144813047781], [-0.23749534169692305], [-1.0], [-0.9971519902875156]], "fitness": 914.0, "best_pos": 7.0, "best_status": "small", "score": 100.0}