{"w1": [[-0.3461689647573779, 0.8019491487931367, 0.2298903056535052, 0.49926711007554875, 0.010738172659777672, 0.44627482506701877, -0.9420837897714415, -0.4590992526895733, -0.554464077280607, 0.1381262699525655, 0.41395919507001033, -0.3246868446386481, 0.4659483551252967, -1.0, 0.18159657782808877, 0.28412848850442735, -0.44134715284341147, -0.9999999997406849, 0.18698190833724718, -0.9976531108610345, -0.8038450723552126, 1.0, -0.09880847139620164, -0.26226238323139117, -0.354450517622309, 0.9377455968678089, 0.40524481948750996, -0.14386435299324296, -0.25401845231147796, 0.3385896565512053, -0.6718361752592876, 0.6820390474862429, -0.12096530108342111, 0.3032163262292751, 0.908030425914153, -0.7845877055911258, -0.824939376097328, 0.8485702850683067, -0.09251995831120807, -0.47434316782836494, 0.39477860460354613, -0.09450118983751196, 0.6924688220591438, -0.2995093722798943, -0.4531251179760226, 0.5482408412791474, 0.4088754854230746, 0.14322212100269285, 0.28313447189674984, 0.5296973816627406, -0.003158550025232243, -0.8462789110756185, 0.9997822398409711, 0.2923305874031287, -0.32819521317262423, -0.9979610054512978, -0.9238390958083644, 0.8373961398431087, 0.9997785655493281, -0.2501818632301478, 0.6295674035703213, 0.5790304819453996, 0.008373048039933743, 0.46483966713194946, -0.12774001611060357, -0.008635712467569365, 0.22115734137501006, 0.9999490197981422, -0.45298889346003074, 1.0, -0.7293372534241128, 0.13536479292245446, -0.19161419130295138, -0.43308583630544356, -0.9762799679065003, -0.5189861785132829, -0.33814062184954197, 0.8421420740651512, 0.9977974749582581, -0.3363248031630649, -0.7035120429992731, -0.17718891949400983, 0.4539415426060743, -0.6100936082995769], [-0.23748915228844727, -0.999995991043981, 0.8265548104039451, -0.6081691139743716, 0.9998246284097165, 0.5657532121809928, -0.04966532013559898, -0.7726497188801059, -0.2771072952472414, 0.43126132272505296, -0.4684604233054531, -0.23442726882337656, -0.8068983995851233, 0.292315667879332, -0.2109133259588673, -0.45152793509303807, -0.2464169149013845, -0.05329021616079191, -0.8607772248207416, -0.6401705477924826, -0.672981867412894, -0.9980396947609917, 0.194178842598562, -0.6189115274118284, -0.996502360923791, -0.8459267584373706, 0.2891244913648579, 0.5161929484723764, 0.4291434158239124, 0.2486019660289438, 0.9016780699550678, -0.1909784068870405, 0.2641318742630957, -0.19042559751098162, -0.8269614226699586, 0.43518574399729354, -0.9155241644537288, -0.19288744765840146, 0.3646285665999021, -0.581578009552982, 0.26829171230930005, 0.7840749266930123, 0.6112462112259648, 0.1216603197378765, -0.04738304750289153, -0.9508141012707224, -0.6989347111009545, -0.7319115179857814, 0.9991661532924502, 0.6642381886170231, 0.9429804060319456, -0.45778263537174463, -0.7056337076945619, 0.12798590926339615, 0.8580915860639082, -0.2566112466364906, 0.22278486771106568, 0.7206443258438909, 0.11015313068846598, -0.2936932390005419, 0.1646386511676509, -0.7929536527599059, 0.7476157952112638, -0.9999444885646525, -0.9234913302441686, -0.41840788859640526, -0.9875109426802028, -0.5707528461824602, -0.31398026379882066, 0.7382440794380534, -0.8678277235315793, -0.8384231083268782, -0.047051191618963574, 0.028008879471063633, 1.0, -0.9999402438499954, 0.4166997746227831, 0.07750347426260715, -0.9691758655257483, -0.9672063220721728, 0.719196853662048, -0.12358493948670668, -0.45234891397066546, 0.3924655407600218], [-0.838312342465824, 0.6316269627383668, 0.17326594481513993, 0.3477713117457555, 0.2795662582402009, 0.09617834108301573, 0.979262354363427, -0.8399939912747673, 0.12216411911369997, -1.0, -0.9271881309989207, -0.6840242893831395, 0.3364611552836715, -1.0, -0.39966035498623703, 0.30464238122923953, -0.49962391976435966, -0.18685567337189973, 0.20565940101410662, -0.6652429995789174, -0.43185076139172285, -0.031418096971775014, 0.38465415426895283, 0.9032258874993024, -0.9999999999999999, -0.7842373619318629, -0.9006118516362851, -0.053852971334881365, 0.9765816159632609, -0.4694202348810914, 0.8432087245149504, 0.64408917041858, 0.8848452953355755, 0.05349795834482509, -0.3198350630360655, 0.7283088685616121, 0.44686830044129067, 0.6370075321712593, 0.9962432616216749, -0.2490188250385631, 0.7323494011002217, -1.0, -0.20279400856976537, -0.06996589391678215, 0.06922788185609122, 0.2535139264373486, -0.012726654527594332, -1.0, 0.9720105852321359, -0.47420770969884946, 0.2559679743438423, -0.7020045945608283, -0.7929589697801948, -0.004972280548010579, 0.5194211249497471, -0.20907021623310904, 0.7609422174974468, -0.32836396693960196, 0.2289358302931249, 0.22224904857966585, 0.2693903918848714, -0.13191390351127139, 0.999997805804011, 0.2812284398139247, 0.9999999999999999, -0.1685540815978473, -0.6362442966847629, -0.25477808532652124, -0.8876684683672522, -0.999999827614286, -0.8746791828842428, 0.5418505593639127, 0.45541642062790205, -0.9972765734269674, 0.1239339429851404, -0.9999999999999999, -0.5922268410513621, 0.10457634802347464, 0.5990627117614736, 0.18592231390216482, -0.5071502971954064, -0.46542589592912026, 0.9999999999999999, -1.0], [-0.10321985244327712, 0.45177896579335564, -0.9831126566342009, -0.38866464688214625, 0.8407422524691943, 1.0, 0.2998866560948097, 0.06137782772609941, 0.9999980926974656, -0.9999987249186965, 0.27922512138736766, 0.9727127000995401, 0.10717526895677636, -0.31632947240288756, 0.5846183256841734, -0.9800691297353203, -0.3293574991787948, -0.7355077930263126, 0.07173599095499651, -0.9999999999999994, -0.2890986593481169, -0.7325401631925382, 0.754295271389175, 0.5071390993534702, 0.43679002576629267, -0.37788150833689743, 0.5441206339516578, 0.9508694374052538, -0.45335812185000934, -0.674672604955584, -0.7497563117106782, -0.43067716584398863, 1.0, -0.22504898645582774, -0.40087669314036567, 0.4781403781945672, 0.21120819251452524, -0.8620689347502918, 0.5800544466206792, -0.8299207859754237, 0.22945302390521452, -0.8010235027801113, 0.631558247704702, -0.24529737724745726, -0.9999999996082485, 0.2756208841609383, 0.7151050625138062, -0.20061657886672424, 0.5506320547501578, 0.5879679307213075, -0.008543127782115766, -0.8294191321654728, 0.6821260237863119, 0.9766622667407265, 0.6099043227779002, -0.7273240894904078, -0.17232795474949145, 0.11419535360148579, -0.6998053299981262, -0.9999999853001422, 0.10179621454237661, 0.09653026123460018, -0.7458674120415257, 0.5178847864012965, 0.7875729181491818, -0.23882727286586858, -0.5537835053826787, 0.7432366615483389, -0.9451135013697924, 0.448400733865372, 0.7155387574747334, -1.0, 0.8641998416280323, -0.8998468915597393, -0.6673737056046447, 0.13499624391926837, -1.0, -0.7046018847452971, 0.04157955533849565, -0.6365974448131587, 0.40104645182148146, 0.4630982478894425, -0.09216496289922022, -0.8512988673067111], [0.7967786781185523, 0.917763017858184, -0.485528291927125, 0.9999996842840898, 1.0, 0.046774210864265434, -0.9559458175399954, -0.9631176482715856, -0.45920835530703924, -0.7030210634198575, -0.808481389384414, 0.1591145434062601, 0.8891855269601217, 0.1488638409754451, -0.40824383327555896, 0.6519706071942758, -1.0, -0.014277940302031713, 0.8296149987503726, 0.12945723231770753, 0.38116174910849093, -0.3810459369559466, -0.8014604145502303, 1.0, -0.5511367068367379, -0.5917938092519748, 0.4035430124939749, 0.36673972377636577, 0.39944724258409997, 0.7171923161104438, 0.9989881213487456, 0.008982618965271633, -0.46973189848863484, 0.5581997661093765, -0.04803787504403352, -0.009855588788304573, 0.83895667530122, 0.8430625771620456, -0.07655805618360118, 0.6120080172176434, -0.9684038138721954, 0.7272034914993797, -0.026841412565551642, 0.5404693672101716, -0.1481023505046574, -0.5224232107710005, 0.05754494272867395, -0.5223773327659351, 0.3446617798837576, -0.37975403229580257, 0.5479300823282377, 0.38979288264945244, 0.17289396567197274, 0.9005217513090568, 0.0374945146549487, -1.0, 0.49157012556812235, 0.039175540216443025, -0.7753784778725221, -1.0, 0.13738505406771254, 0.6999157274706544, -0.17238704724353213, 0.6124274379845516, -0.561605365803815, -0.8330336548299585, -0.16360408402961749, 0.9272294550745529, -0.8350901905402135, 0.12561613422441453, 0.30214297631918413, 0.6917077356815028, -0.37653957334726135, -0.8212101554616154, 0.1054352852934172, 0.336586290358034, 0.41012121647612165, -0.7139090651284506, -0.1941860700010506, -0.11670788033404589, -0.6718532492395234, 0.3179320343280234, 0.9014856572383766, -0.7955022870605961], [-0.9999999999999998, -0.5131593143730893, -0.7940956407567336, -0.8727455726467365, -0.9493792890490154, -0.8029559032474445, -0.009080993821272936, 0.2189844540732979, 0.044806418213576726, -0.9999999999995789, 0.34545597784528137, 0.20941848321177137, -0.8619341052697799, -0.17660297039029293, 0.8670316283902949, 0.9986291756602439, 0.12155899881364275, 0.6484475364080137, 0.7986345536799736, 0.5433728547062923, -0.39392943546171805, -0.3461086128851478, 0.4475936800821336, 0.7121987552423266, 0.5507058480238134, 0.2758575872234624, -0.20654210497170528, -0.9999999999999998, -0.2025144575319324, -0.31215555731279276, -0.9992809291515647, -0.609353753068879, 0.9999999999856556, -0.8437800925799652, -0.5217346238450311, -0.5934519452595848, -0.7449810931687496, -0.9297850081417309, -0.6555195700538518, 0.3667470703080782, -0.13666735909508088, -0.888966446437473, -0.7404908920609774, 0.7834122619522246, -0.7726428418243476, 0.49131898977198696, 0.14182237358965177, -0.40317619182925246, 0.6820472622179694, -0.011810270083644785, 0.9999865676777866, 0.0469024808963323, -0.6509101364854986, -0.8342447735602618, -0.5164255469008562, 0.7056521516671215, 0.33161585089269224, -0.00926551814266707, 0.027218283284997487, -0.8363460362568982, 0.4404887552723052, 0.36327883933971816, -0.4905634315644497, -1.0, -0.7681760493568535, 0.16754572735462492, 0.8543373101742328, -0.7516285358719476, -0.9992014463993387, -0.9994086991052742, -0.11413595660467686, 0.03295813326304774, -0.9999999999999998, 0.9512631756885208, -0.9034651278959979, -0.3202384278100719, -0.19032808271832855, -0.13371076142809107, 0.42755540436204353, -0.06333315891846003, -0.7429224028290144, -0.45635131584358124, 0.11194374091414562, -0.7232613443813095], [-0.835127710972076, 0.999006606145736, 0.2700634387955513, 0.7572264719931984, 0.2815156130675951, -0.11855711058360029, 0.5823013999987036, -0.3023795343697854, -0.263752786947935, -0.6852673458923689, 1.0, 0.009217849146756609, 0.9999999999492719, 1.0, -0.002158419718721899, 0.9997566938771046, -0.1818045605694793, -0.37889967852883555, 1.0, 0.9997797074122927, -0.5260261490471738, 0.17438530039903366, 0.07512984551509824, -0.08791507151785394, -0.1233259546912023, 0.14766514742152587, -0.6125652133524103, -0.5734100270767829, -0.9999999999999999, -0.014537882062187786, 1.0, 0.018981361567982555, 0.22584448262229198, -0.33524361471195335, -1.0, -0.2780526396550869, 0.7675206399465224, 0.6411230134289955, -0.53659801508402, 0.8052363928810701, -0.6034216748572943, -0.573094107038034, 0.8456201165631291, 0.42245775215957815, -0.5337546129192551, 0.5638912999413006, -0.12498849939307935, -0.4916345072824973, 0.993612509519761, -0.8680164601059831, -0.5054630574929843, 0.9126665873800155, 0.7424007869632955, -0.2391267299201404, 0.23332873842652233, 0.4922369339482976, -0.6744216880418707, -0.8058963183342901, 0.2386143896956165, 0.5044870255603945, -0.10772110172923427, -0.24928645639645872, 0.8531395633955399, -0.22991258945635681, -0.9569614904635136, 0.6026088023023325, 0.41260456324228684, 0.43313464541081437, 0.0388983750354029, 0.999999907034014, -0.861344193383041, -0.5281169962535502, 0.9999999999986585, 0.24853359347716877, 0.9999999999999999, 0.6983257304299364, 0.5902655044316364, -0.6710678759935538, -0.7515645294189087, 0.8746077401672782, 0.44080969855818947, 0.39868951821523907, 0.9992725907162787, -0.35122491476303463], [-0.9873878448476673, -0.45028329745380885, 0.577564545020392, -0.018279299680513776, -0.974268840620169, 0.8673799658136383, -0.36695268961785066, 1.0, -0.9352127244840872, -0.04977835837455646, 0.40748167429331794, -0.32995231966030314, -0.18821398263064798, -0.30676203024375487, 0.3845869023747301, 0.630896161559007, -0.3109495917611766, -0.9296010970688581, 0.9990655034738128, -0.587152677911514, 0.3964542049755043, -0.3338907272479385, -0.5158734306698483, 0.08500333183191928, -0.6029721678508266, 0.5530515908980435, -0.7908736011854487, -0.08485640330749311, -0.7628626801712689, -1.0, -0.9999970382254805, -0.8203582766802064, 0.9994500430319455, -0.29869773543077044, -0.7705782451501517, 0.39797755338603596, -0.5343954458541551, -0.9993555816239035, -1.0, 0.6533768693728831, 0.022951525532284082, -0.7034763242145428, 0.4931824016613442, 0.41041671327398693, 0.6167971797976433, 0.9999999999999999, 0.1489133170536504, -0.9990028645944146, 0.32199595369627015, 0.3366246587359259, 0.9995350988938201, -0.1339011608837604, -0.840831591817945, -0.866919634058819, 0.24384772198612484, 0.0711288168429863, -0.7435562097154699, 0.9200868463612296, 0.3220165732088217, -0.9999836188745612, 0.9894923412612063, -0.6086455413738385, 0.2633835021342901, 0.7446479995847667, -0.812943332777702, -0.47121196924395636, -0.7410043657021653, 0.7688853616094117, 0.13011143024041957, -0.9999999999999999, -0.9348046863940757, -0.8883932947844285, 0.6505556714273467, -0.8191051631157605, 0.7850767393101028, -0.06380348630227331, 0.8160847819445127, -0.05441023448669843, 0.9578212756970527, 1.0, 0.9999781517097289, 0.35846650016096104, -1.0, 0.11374045697094946], [0.5822445194619267, 0.29681803273912394, -0.27695828094879754, 0.42538241950147143, 0.44818308073866214, -0.9178921927850763, 0.7359996686179046, -0.42014402396314665, -0.13134484979937824, -0.6822311757963263, 0.9908115393309913, 0.5561367419183676, -0.2728812615599209, -0.2340445117532817, 0.37155827870563757, -0.7929236024795787, 0.23384289653939438, -0.9999241288477678, 0.8925840369252511, -0.7535187785122842, -0.9999999999999997, -0.6467258427294778, -0.613205227982696, -0.7849585811124263, -0.824499964810614, 1.0, 0.7951330453665654, -0.5105041583901744, -0.4612583454580301, -0.9999466189187614, 1.0, -0.9010333088109682, -0.6112334836446653, 0.01132649327454965, -0.15708482103513557, 0.7180355724701142, -1.0, -0.15278749383761617, 0.8018472206582282, -0.6170659610019121, -0.9990698333305251, -0.1367298116309775, -0.08046766381922035, -0.20077604898597864, -0.9999999999999994, 0.93303206231039, 0.8262472475665799, -0.1178300769773301, 0.9999785011190498, 1.0, 0.7260601981888442, -0.5590568029858732, -0.3628999698214544, -0.14476682318813935, 0.008492404853698132, 1.0, 0.9999999999999998, 0.22339668604903024, -0.9986102353060103, 0.8449684953673571, -0.3458123271956932, 0.24287491118411741, 0.5663253021047674, -0.3255762267062056, 0.538198021827597, -0.281766072394102, -0.652400125795147, -0.6471761901116488, 0.1250257011318713, 1.0, 0.32516004043102903, 0.040344109545671865, -0.9985520689364423, -0.7047162712688927, 1.0, -0.7589088154048613, -0.5049424163151609, -0.5299144517695008, -1.0, 0.087914613344929, -0.017012212062491528, -0.6389381683507567, -0.07528526012778079, 0.508315187273392]], "w2": [[0.050690001699974695, -0.9999516609552059, -0.28755568257654673, 0.32950471564952916, -0.3454399471115475, 0.030265616694565796, -0.9999999999996594, -0.7984582998065386, -0.883177756698167], [-0.967682978709442, 0.9993762418635177, -0.7924900063036358, 0.05102184946034691, -0.09415554288926743, 0.5557389445367737, 0.9239926163978204, -0.3906085392696553, -0.2347817998876498], [-0.38282634729106196, 0.9974943875316936, -1.0, -0.261672705139462, -0.4641897840583863, 0.06787131317345454, 0.03400969790152457, 0.49395411739940676, 0.39781204546381405], [0.21963968966129713, -0.119190189994516, 0.5667882292694488, -0.19341243711367398, 0.9205478653925895, -0.6418650774456279, 0.18685720576176135, 0.26149145891838943, 0.13145695383749761], [0.872555632500633, 0.660564833327654, -0.3343371271579497, 0.9999999999985173, -0.1349458942358267, 1.0, -0.2732665837816591, 0.9305480787198915, -1.0], [-0.17728757493398076, -0.09494246579564254, 0.3636660773209818, 0.46961211318124985, -0.9996937218804735, 0.9747866432044588, 0.7311218825364021, 0.382254218648448, -0.70341600670182], [-0.9813980348217727, 0.10903478893512245, -0.820702685983463, -0.2584963969164065, -0.09327135915936527, -0.5262931668815416, 0.9923453186711131, 0.37912649464139514, 0.20865335980020058]], "b1": [[-0.07450253216848685], [-0.5554957867480338], [0.9979102200085875], [-0.9999747941267624], [0.7204022350875433], [0.4229973504226056], [0.3239489889000708], [-0.45367748314615136], [0.27386797724358886]], "b2": [[-0.6296554689731559], [-0.04042797922950372], [0.8739497903046589], [-0.31815625746532217], [-0.23979982897466232], [-1.0], [-0.9048175013395107]], "fitness": 1004.0, "best_pos": 8.0, "best_status": "small", "score": 200.0}