{"w1": [[0.05231487082879549, 0.03935788514672689, -0.6280133500081337, -0.11976295052287655, -0.45436388169172126, 0.5085033332181303, 0.9704373609914205, 0.3445506268994023, 0.387805099188, -0.5156035663782239, -0.17087357412802895, 0.06907500259018895, 0.2288344583450368, -0.36696942641301566, 0.8425767894143232, 0.45358774064871743, 0.4855121112777747, -0.4646615470630773, 0.16027406205861094, -0.9708637774522322, -0.4449191561801651, 0.9427477516586376, -0.7215289019978219, -0.9554773040660394, 0.4022695358134565, 0.34383048380747505, 0.9852156920380133, 0.9013949419994216, 0.7782756639329931, -0.48924212279524393, -0.5342879396192464, -0.8581312288543805, 0.1794267578304085, 0.561345484393061, 0.7295695266085735, 0.9391546094335688, 0.8112974052463124, -0.20629503066527066, 0.9778795873831723, -0.16328282691656426, 0.3377233915210254, 0.5578925245990776, 0.29536813738607326, -0.336130150362542, -0.8369785177515305, 0.48389341455984347, 0.5883579608924647, -0.5553997336473433, -0.6351707551950436, -0.7762304733909111, -0.35893757090347034, -0.7674009896197929, 0.9076052905195713, -0.065065003705435, 0.979142172539694, 0.9648622607025916, 0.4181232834352009, 0.25926426721481177, 0.34897986043888873, -0.9493693296735544, -0.26981856331525655, -0.6280734985534007, 0.9171453662460585, 0.39016437092046297, -0.024954003719966478, 0.022453898080731394, 0.7727618635674356, 0.18094567110123916, 0.986809191671596, -0.452639074092436, 0.5706099268072318, -0.9253362275021322, -0.4461155576745983, -0.35825106961185726, -0.5841305711063789, -0.13769107965353888, -0.5260409856595167, 0.1574894956780526, 0.7439817675420648, 0.3950078285354952, -0.42008168763284925, -0.3175897771069942, -0.6723535959859277, 0.6639558671103238], [-0.8989754275036956, -0.324195465320557, -0.7139005319607048, 0.8005012638688902, 0.8618424923157157, 0.5448206778430498, -0.10279618968085913, -0.9241019795960472, 0.8395446778636755, 0.7627942112842208, -0.34825908798305893, -0.9871502776398009, 0.01974241426441159, -0.32977935579051487, -0.0521591163601709, 0.8194302151241211, 0.08400870083429202, 0.5458044617581774, 0.8953735717026614, 0.7898739229515721, -0.28001844616025706, -0.8292132708714337, 0.28001438232211107, -0.8609261113471229, 0.6101151460687988, -0.006521197783786237, -0.4896530370525587, -0.7842309988848764, 0.9663624680183209, 0.9177650087802856, -0.683988814841821, -0.6598989246820544, 0.6997547472912786, -0.42597130573951913, -0.7880219452970938, -0.9097924934080401, 0.2469808209481903, 0.6978635195944511, -0.35688831355687256, -0.42589577930232214, 0.21589488683794378, -0.09954016863449988, -0.3822020461916824, -0.7452679550944024, -0.5281148164911269, -0.6231623402681628, -0.23252408764583432, 0.8445589784039125, 0.2518791419882731, 0.6337978183394886, -0.2868411299724998, 0.4458404835099292, 0.23211611071866445, -0.7033531246760325, 0.6388023987963565, 0.5019087358966532, 0.002316696657098438, -0.6809593857192273, -0.1080415844104472, -0.15612561595721886, -0.9252541245728738, -0.9128561349935711, -0.22504229960631927, 0.46245819013250733, -0.5079905500037851, -0.6647208815375327, 0.9895089229328533, 0.6188426425624904, -0.1412884596213626, -0.025683204421868, 0.6887519089282168, -0.1698673457351909, -0.5704906270376771, 0.45932366540320957, 0.5834300304444828, 0.7046942929699578, -0.372938737873147, 0.6576122270490921, -0.09785270437400628, 0.6167515960902976, 0.891661181967649, -0.6100981169237496, -0.05533815903559569, -0.11867318059285825], [-0.3495803432321076, 0.43424953304016833, 0.0678803339539833, 0.27551560600552083, 0.8207532854065867, -0.18833271279579944, 0.7777835971811562, -0.32003469715589294, 0.49846980949670283, 0.8497871043520384, 0.4252141951936823, 0.9417000782063023, 0.1720302342108897, 0.2838946876617774, 0.9777208338593311, 0.3876642429054542, 0.420496193999492, 0.9849723487646098, 0.09360011385083356, 0.7273979138259399, -0.23454350770295074, -0.7552377475205807, 0.3195364655976052, -0.09284085124548969, -0.2694446961537189, -0.3026603073921714, 0.32743045773481416, 0.10770252125058333, 0.5789989181577375, -0.5906229822148044, 0.287120012216207, -0.20790363537043, 0.34349293913027545, -0.6958179515651288, 0.16787506255372286, 0.4096892994512835, 0.5244220598432432, 0.9538053699279816, 0.9748074966874252, 0.4903736459635939, -0.5980369870114617, -0.0479560393650289, -0.5320203240712766, -0.44820837479970055, 0.479141492217217, 0.4837337491842735, 0.6575937215019103, -0.3678039425662736, 0.3065889338054726, 0.22943338245513512, 0.8305718455878217, -0.9583320415896921, 0.42297744970252227, 0.43570085618719356, 0.1674762581304985, 0.777334542062948, 0.16288417171723468, -0.4455339480355254, 0.40626543911966784, 0.758040881295049, 0.9964090619554304, -0.45172006114210017, -0.739629708825104, 0.08610604177280812, -0.04631900377077214, -0.3444097039374652, -0.1743621837587075, 0.8773190320291766, -0.3911284706652054, -0.6134964666897775, 0.20623485365984084, -0.6411289767419037, -0.7023632969867448, 0.5148711927091898, 0.8995200048600218, 0.15662081676898, 0.2710104942993552, 0.4028057515483192, -0.7262113323474941, 0.25170861803547573, 0.542738690339466, -0.9557324562126543, -0.1291482742514909, -0.7420820976513278], [0.1348581103718589, 0.7142792005359115, 0.6080056614682747, 0.615404346051176, -0.08802581372389517, 0.9185095995951165, -0.9679590649863379, 0.2673421073737954, 0.06188972979680907, -0.7567362968128928, -0.08648820046231664, -0.8126542259711884, 0.36927890091912263, -0.5851474013483724, 0.5022391696980841, 0.44283903610598085, -0.5679237260878924, -0.453700696597116, 0.42122166509186676, 0.7582550372868073, -0.07898894254436994, -0.35013339852345116, 0.5061712952562782, 0.8960270300999231, -0.08946159683321353, -0.7358440927353072, -0.2575919037945704, -0.247602809817286, 0.3520504586155935, 0.22098820801855346, 0.32681577048543686, 0.5552226923957078, 0.23392062150921533, -0.778471754172978, 0.9894907653561198, 0.010883577220779372, 0.6285069674897505, -0.7548987474957878, 0.40420205162406053, 0.45652509273780306, 0.369718998751549, -0.8542424537286035, 0.4984333446487754, -0.7124887358060521, 0.9634124130465227, -0.13747935728795224, 0.12544810649387084, -0.9150902213007128, 0.808951699814255, -0.11562485023214064, -0.01752093087680584, -0.10755777169376413, 0.26516127226474584, 0.16653716200097723, -0.2123707981169649, -0.5381159482605633, 0.049584462651907746, -0.32381350624204086, -0.3579228645618875, -0.6163858275240273, 0.9968654020917094, -0.5128607424663669, 0.09796027965697052, -0.8848784476318532, -0.4114194358923031, 0.29520264128343077, 0.2897277035422552, 0.10937437022851149, 0.07755375129360487, -0.7232439541835494, -0.5990132964978572, -0.5535372502398896, 0.06243678900775573, 0.6433500382944792, -0.30404147499095946, -0.2071203405225801, 0.4023129679570232, 0.9618609343374893, -0.42714466174253696, 0.3523435127075838, 0.7540926596948685, 0.60411852573848, 0.27541198310532145, -0.42106332111377975], [-0.6399695828272334, -0.24119147777080352, -0.4543673136400206, -0.08361530314060461, -0.36352405070482474, 0.39596743715923943, 0.5458538009729932, 0.9148942595427314, 0.024360099809785485, -0.042531274219317794, -0.7238891768616067, -0.3062321132062993, 0.8341859420424953, -0.738699541422305, 0.013202884277476068, -0.6253859218907358, 0.9478509299527007, 0.07908631562175983, -0.25215167068484856, 0.01149886067505168, 0.25576773340766046, 0.34424548796803567, 0.8375717312596411, -0.03296273565860708, 0.22139004919252137, -0.7251537815298357, -0.7325546019493812, 0.09701787712356347, 0.14644305962830528, 0.9721780252828649, -0.051886035557647814, -0.5348238724809611, 0.7141161289843332, -0.8526673535984854, -0.1554034008155587, -0.9374224977824548, 0.8011632810334886, 0.11508130773944525, -0.903197943449507, 0.33016411261097356, -0.8050215195262054, 0.1221033231380384, 0.6333484233150493, -0.12716157460988065, -0.45266194342201205, 0.26971247786841923, -0.1749307353727929, 0.650179477936389, -0.7073626225157768, -0.1620549858925575, 0.21288176953952687, -0.15708357086195512, -0.1463608312798288, -0.3632861796613258, -0.6494155507897796, -0.6249777835733263, 0.6927525487667496, -0.38767279919247355, 0.7898164890671, 0.07535249730359705, 0.25531061209239025, -0.6201277453796961, 0.7294493911147881, -0.46380857471842596, -0.3131311696766279, 0.7224617034711756, -0.6354750245734704, 0.07179606984794473, 0.9981409674563819, -0.6167389805323851, -0.8619761845671177, -0.09513298558739725, 0.038866357111250194, -0.05695842966152198, 0.6645539047744082, 0.11459069752546025, 0.22421962860380074, 0.9568763897363659, 0.5475680002200805, 0.8895617275304752, -0.7191045662504647, -0.015191988264395384, -0.3061761296272325, 0.017309975753899254], [0.7582336727867438, -0.4085536215812562, -0.45704665975861514, -0.9655972818952612, -0.6427452298170369, -0.042663857773217906, -0.43550980066168754, -0.12576283043382985, 0.621016251726167, 0.20484207204517335, -0.19316994468649673, 0.4191324049310494, -0.02415998313479184, 0.7352984249212735, -0.7444067297403565, 0.6213454421010194, -0.8611896927426375, -0.6218993324292614, 0.5130753120827767, -0.8698320908034827, 0.7856313491623681, -0.3999393737257373, 0.450588678733691, 0.7377942017171322, 0.21198754341546433, 0.7403858464816344, -0.0558608197439221, -0.5313017806332188, 0.8442961844853636, -0.812625570639413, -0.7059004458756841, 0.13226739694941192, 0.5922683807939773, 0.7142938000652661, 0.6760278860158337, 0.5768401006738637, -0.04133131185204353, -0.8219897454960341, -0.5106199543177703, 0.05041264513417354, 0.1117849081104283, 0.3029926741583018, -0.17836799541732162, 0.49223649013406456, 0.1926099487066868, -0.30969980502143124, 0.8899672594538997, -0.7819427651490201, -0.5575669011942554, 0.23557025141014276, 0.20112190378869976, -0.19213901157782165, -0.7205760045782308, -0.4239871678040119, 0.2148117990763947, -0.3217738442223559, 0.8230293333106218, 0.5317310251611354, -0.3762891124041512, -0.7484378600157011, -0.41286212085204155, 0.2662590212044882, 0.7007795131814845, -0.2788820372104368, -0.7258623124872152, 0.5119965350643276, -0.9551108245486626, -0.7433292775149454, -0.9696064118626662, -0.49828471494249693, -0.9690037656434494, 0.12774456863970207, -0.8465648193272346, -0.41930265163925595, -0.09190984007910075, 0.8141999376633959, -0.6033715414344909, 0.8545216292591855, 0.5308476766882468, 0.7187531910618778, -0.6707093710825103, -0.6648955365318365, -0.4648572604054615, -0.29530436186566145], [-0.14929840994951515, 0.006398192556122062, 0.3625868676098387, 0.6771331685588409, 0.33715589231357845, 0.9545349891998158, 0.4739650694113653, -0.6685180327738653, -0.921183143868658, 0.7343401715293936, -0.7792878498433604, 0.5972212692296603, -0.7550657267841194, -0.15075801093126806, -0.7444754459330349, 0.8248449561867377, -0.12603993485580745, 0.6519786677133821, -0.907065162015722, -0.7405148782661299, -0.7093086040074099, -0.6420448777471828, -0.8943697260067518, -0.44947925218803664, -0.9221978543904854, 0.12003280807404959, -0.29071006396092924, 0.4437075733984024, 0.04296152243011564, 0.731874594736732, 0.2176075329879743, 0.6271487955127697, -0.39995261679820393, -0.7367282632244592, -0.8981977897378415, -0.5777469693489072, 0.24061290812230274, 0.22548632164702775, 0.03783541461572648, -0.21472965879749673, 0.16128127970884698, -0.9674459004440696, -0.15685437195498175, 0.3012230311792057, -0.9862444099047862, 0.08604181722257409, 0.5801626374076023, 0.27272285818206066, -0.9557881073747503, 0.3915558307812401, -0.8866109283755281, -0.9045539170235861, -0.9348541024860875, -0.936858461391735, 0.8342517537250524, 0.8349988974589111, 0.2735904744367885, 0.39974558776516167, -0.5016891088486477, 0.17860408911492764, 0.5102945570549944, -0.8013734711148961, -0.9443550583689799, 0.07243006979206124, -0.8332702143751582, 0.13519881450020987, 0.504323001265399, 0.017389598580299648, -0.16046176998005612, 0.692200302061049, 0.050792309191755036, 0.15297265898825696, -0.9825704237297093, 0.8809970284329594, 0.8506811924123217, -0.8697368856387593, -0.11671726630298074, 0.8380557113824152, 0.6586587673590123, 0.41332859138811084, 0.5191505815268234, -0.8363054317289775, -0.3591206615691973, 0.7201032608219284], [0.28496104100851505, -0.40869472521395944, -0.9999371505362187, -0.9058703027016635, -0.16721776390830345, 0.7638189250936536, 0.6665203982791355, -0.5998952253699008, 0.05491821220748516, -0.9814546680658296, -0.5961486942655299, 0.45229880135336265, -0.19654639677554098, 0.06409506103169083, 0.7241265951543874, 0.1035315420090761, 0.7110505938960128, 0.03706675908907764, -0.33831151520193514, -0.06830890593629335, -0.5183888160377355, -0.14743336474274904, 0.5864445953796029, -0.911602886024929, -0.47788733147595375, -0.29003816467527677, -0.7495784941601746, -0.8479713322861895, -0.7335167448954358, -0.21312670011006296, 0.2769049972212274, -0.9282826183936947, 0.2543531274902442, 0.34979806070470065, -0.2981823367990848, -0.7794602403399296, 0.07354488435039674, 0.7191641433260534, -0.20339655927632982, 0.08860650995112906, -0.36386394495773855, 0.13109546130947347, -0.08112658308035292, -0.7587964443458863, -0.5792987197001969, 0.2635584207976307, 0.5068084622303533, 0.32135774897491043, 0.44583713626639376, 0.8573266137042042, 0.1170879496354007, -0.9770348737307426, 0.9872004533741046, -0.6007099523416801, -0.5466253058256882, -0.8104440731732343, 0.6703170039703039, -0.8327685444912667, 0.9971122512998389, -0.5902679508347595, -0.8607963766604634, -0.15926095740753832, -0.4883220659127836, -0.5879216807972487, 0.11656623350122297, -0.5140770226626181, -0.6345783584488243, -0.21341482231612519, -0.47255236505471165, 0.8717258518216688, 0.15984937171108227, -0.6691303989220432, -0.3046040889480186, 0.303023379855732, 0.5874285628661431, -0.08998181936590033, 0.34560140193990896, 0.6831919252782959, -0.8038339673910928, -0.09364751934882176, -0.6426757356096295, -0.9169905787754558, -0.9316083349238296, -0.32095547494349796], [-0.8816050099659705, -0.8610957005485151, -0.18840044993540928, 0.3676209605818552, 0.7008511803565167, -0.574311912387746, 0.81942765414171, 0.9429288682161698, -0.5196571340002174, -0.42466832260191123, 0.8967569782229217, 0.9871822052484149, -0.6619999611720124, -0.17191903737321623, 0.02362346615180555, 0.11895541990496983, 0.14274866179191736, 0.5893697903160291, -0.9687831453638878, 0.896563503432571, 0.03561543279903767, -0.7095745904910964, -0.09520734410993326, -0.31393849422125464, -0.5755108909359574, -0.23744265139948073, 0.6367146570832489, -0.2704390520698894, -0.15840992979964907, -0.155693345904101, 0.4115024593055785, 0.8310237477930231, 0.2651070038180656, -0.3823368747665641, -0.7483345795657415, -0.7693457323340978, 0.21427873218047178, 0.2337145505972542, 0.1041961301253469, 0.4345987840438821, 0.6031010092937616, -0.8871432127746071, -0.47379771715570285, -0.5910122256182719, -0.6340947874136467, -0.5211183499913257, 0.11236562094810787, 0.3403482023774307, -0.48199792147231313, 0.18596102986932528, -0.20127528553960272, 0.37094712690774956, 0.9642980317907663, -0.09819484869781103, 0.8652036908734748, 0.4730947341555176, 0.42273886645984926, 0.022799202821423892, 0.30014067360934527, -0.422766750357779, 0.7011555499120501, 0.5621162510380067, 0.0710145299963365, -0.18931187878711286, 0.11592814129884532, 0.4558086370862031, -0.11229461639860094, 0.26111309561007245, 0.9006243951054695, 0.95946379961466, 0.3531212365796228, -0.6940201674448643, -0.016921786320541532, 0.34006936783579533, -0.9683477753854997, -0.32611446782062425, -0.05507232854796018, -0.6203052224185739, -0.13101893997735647, -0.5020436494652223, 0.3468857880309304, 0.017070461343949406, -0.21763994902464634, 0.8064804031889776]], "w2": [[-0.4200002024938607, 0.683230027132598, 0.15093793412357415, 0.2427253679715735, -0.5470122880709616, -0.3400097434731444, 0.6884924344168328, -0.3303718220323564, -0.05294920956883398], [0.58179893582635, 0.6067910868127482, 0.13011612246166937, 0.7606431146338564, 0.21973972503116568, -0.5735482158710037, 0.17910108719174667, -0.5960872595603988, 0.6112510496962118], [0.5884154018469407, -0.6505980578108239, 0.9968922414696681, -0.5337321751125124, 0.47365196740681714, -0.5172887717355756, -0.13597008554647338, -0.9733492595261302, 0.4818482167713263], [0.12739977926516222, -0.12862785857434678, 0.26005987333058167, -0.6474619297582176, 0.9204255586382097, 0.2712297128800596, -0.6333322124880909, 0.4062080692254888, 0.9059663266996829], [-0.8361665384035835, -0.7138125800905126, -0.7033633585022856, 0.43795489198931503, 0.2932646457954049, -0.109388600000484, 0.7651945235862327, 0.07514349266353548, -0.3251477424850451], [-0.9309076480479055, 0.29535734095043953, 0.0960392842356963, 0.6395723508489044, 0.5617263072775076, 0.698299543508099, 0.24933652617220403, 0.6601232891799673, -0.26930455288215494], [0.3358792614929538, -0.4923478820388303, -0.23614864161463034, -0.16430847725184505, -0.06384981614685126, 0.15369672318282523, -0.20251218465900878, -0.32380851769042573, -0.8301994772818364]], "b1": [[-0.11218909446045333], [0.6973827865341191], [0.0053453351634726864], [0.46127944721421943], [0.6663511343025008], [-0.5373261148843445], [-0.166331267321979], [-0.8970066669025221], [0.02390390890581351]], "b2": [[-0.9295584817635285], [-0.1453134443815438], [-0.14765106410055884], [0.7368576451555504], [0.8917752755371144], [0.03857407916103517], [-0.9045420138991482]], "fitness": 1151.0, "best_pos": 8.0, "best_status": "small", "score": 100.0}