{"w1": [[-0.6455517040890157, 0.6949212757820032, -0.0727158649909888, 0.5946362314417847, 0.06263147940375904, 0.7354196436448007, -0.784619304533877, -0.5934848803621684, -0.7068852416920961, 0.09471483479326773, 0.09802457485067032, -0.4696566846867037, 0.10198558418111925, -0.6633421197134042, -0.025103832174059728, 0.4665692481002608, -0.21592044259525134, -0.8003471930910445, -0.018182314807287867, -0.5250294221636195, -0.8209537902914836, 0.8999355873589702, -0.17979463503380771, 0.21137746026611012, -0.011858549202381904, 0.9884555569905132, 0.5914159054315729, 0.6082091362267066, -0.2561270639560145, 0.08564039819187368, -0.6894675379081381, 0.4033133910668682, -0.005156240918687882, -0.0820366960731283, 0.47545675914885704, -0.6150721021032732, -0.04624942338585071, 0.6087605729910198, 0.28673505300889635, -0.9701432332152705, 0.8389709940329146, 0.460169276236666, -0.3395385475463458, -0.5020258601991917, -0.31999802948771194, 0.22015094264842364, 0.08732863875911553, -0.4971056707030894, 0.13269285133235498, 0.09380475806885363, -0.29940989828088227, -0.9727692970912657, 0.9227068400061991, 0.5116541953240734, -0.7748768380461063, -0.8502481405586831, -0.3569239060735046, 0.5995878603058223, 0.6704906060934364, -0.06105051325679603, -0.6471198854199157, 0.6713612307676576, 0.14471691060799996, 0.0586004512163516, -0.38231106667580766, -0.23736082873453437, 0.2703270105082458, 0.574662890800091, 0.3131086653306552, 0.7035878995229145, -0.9379177583251997, -0.6234556186511762, -0.9809135059756674, 0.11146138758397406, -0.7552173280550404, -0.9979588397176441, 0.12947228067017377, -0.34690469762700943, 0.7069885813364436, -0.12643905942444897, 0.02692394933085055, 0.03324773109523585, 0.7022958959284002, -0.536780183409595], [-0.16529442895884305, -0.9932529618847256, 0.18699709055369254, -0.9976786703252143, 0.8355762494322847, 0.9543672172936118, -0.3184059270814479, -0.6636529655674402, -0.6460755133676078, 1.0, 0.05778176635007196, 0.8878906600128929, -0.7463065174062888, 0.6672446696073617, 0.2511600718260373, -0.2229483227079806, -0.359109622914803, 0.4686137869360326, -0.770021415267239, -0.9980931425958458, -0.23869629137669907, -0.2748169896206695, -0.21928768635144263, -0.3608843114899491, -0.7625315320652702, -0.7780124458621457, 0.50178625768387, -0.09376949666825009, 0.019134076896787082, -0.08162008346034347, -0.017005970241001693, -0.48930510487175677, 0.38957196769570834, 0.0014937844357455182, -0.9205398599554893, 0.14938576918687665, -0.8915920918421806, -0.032148260628701845, 0.6903608024163965, -0.05209906075338402, 0.8460479478294669, 0.4933105370388853, 0.9158314396120022, -0.4924709245752106, 0.1390181434991341, -0.5815454684261945, -0.950698603115327, -0.6832504549935617, 0.6653070451263124, 0.7019163598197891, 0.9981724290175432, -0.5940525704684578, -0.7518028480622089, -0.4336566414199015, 0.5514063510807801, -0.3358521170111833, -0.2382995825592127, 0.24472728084551038, 0.2515015701948995, 0.24766850295132276, 0.2801129059360775, -0.9244592720807053, 0.5412743231044179, 0.0022536229937244107, -0.9951994785153977, -0.15686669382064825, -0.9400018211922618, -0.13963597137621983, -0.05320129936619492, 0.4381954904181989, -0.4794069603800589, -0.7269218995294304, 0.2899845702980612, 0.29606686723965253, 0.7434483137143184, -0.6257739852203795, 0.10356933594655766, 0.6893953869192806, -0.35468761216272354, -0.6544054058541954, 0.7602946397229119, 0.5947228876053078, 0.6435335428371008, 0.6141202535377285], [-0.8306792063091225, 0.9856204779953149, 0.6574420684669365, 0.7147743717019318, 0.41282201791200734, -0.7525121786430395, 0.24112400468028264, -0.14914572560184364, -0.0031937739396831664, -0.9999999999999999, -0.9282095498587921, -0.8387388461742887, -0.46406024896756, -0.552357848902405, -0.9993169011388948, -0.36665895921564234, -0.25050016816354986, -0.5628938792642733, 0.4604531786639824, -0.34629909982480134, -0.25085337399801383, 0.31446450684733074, -0.533746808881736, 0.33603083663869626, -0.9999805159725424, -0.8590590727657602, -0.5012663478163754, -0.8195727406898984, 0.0704758549990956, -0.9948198503313247, 0.38637457561581656, 0.18950847185837397, 0.7978483875049316, -0.1339767559764889, -0.0719462210821964, 0.36631051232912065, 0.4644995784564504, 0.7057097064726956, 0.8540371896216115, 0.3929590477770243, 0.5248448488498397, -0.9531103309859928, -0.14837842575462556, -0.21178563088842836, 0.4102335642074173, -0.02921602547428608, -0.7627139615303471, -0.2713685772721819, 0.3651416440725663, -0.1691648852562987, -0.08750106194225993, -0.7097764729948189, -0.7109322334043129, 0.38626209373973863, 0.12290756088317217, -0.5524213734653846, 0.40864132336825515, 0.026622870362392522, 0.7748700287471635, -0.16182364279059505, 0.8851559410028843, -0.06849705815679068, 0.9836194085546867, -0.5223022932016378, 0.7034881255805511, -0.8852944876672394, -0.6379309228026387, 0.23847788567751793, -0.9230546128553113, -0.8365611583641767, -0.17725603983189067, -0.16347935377308712, 0.9940509808395407, -0.11575070779323308, -0.009560341510834468, -0.522456501413792, -0.6723723547484629, -0.4385991571272423, 1.0, 0.5597256200566568, -0.14925599157467642, -0.19287217541945492, 0.22776165116531216, -0.5007469902972308], [-0.21166113115912313, 0.12858827636184667, 0.16346408126012807, -0.18801800375705746, -0.256473421915295, 0.9163273616171859, 0.31736645515489237, -0.019732397372091367, 0.9134493753353147, -0.9928089816904754, -0.18843416257194776, 0.9211337794813087, -0.2378267265738248, -0.006974783623261386, 0.9013170161834972, -0.8682141875410012, -0.5586395343768892, -0.2073373727154304, -0.22938788198208332, -0.8010610729322089, -0.06513073108818224, -0.6889750547575144, 0.6737401762977906, 0.45552895059428977, 0.45909189220451346, -0.36531027027011187, 0.4516798215575045, 0.6294136523529998, -0.18636083134736023, -0.5318660720230066, 0.010035519934411636, 0.24873971729962135, 0.9245140851009096, -0.2742618129362865, 0.8570092870698869, 0.13739500693213103, 0.10661741452694536, -0.8664703687151979, 0.4400524591821583, -0.2851259283923197, 0.34630810907434767, -0.9988057017153589, 0.8090797345733343, 0.5100273833002542, -0.748879035842149, 0.14459444982290218, 0.8160966854790037, 0.7863530018012886, 0.9999999999999999, 0.3130826791729793, 0.7242827315965752, -0.654360428978281, 0.5379876521791342, 0.9777538457917988, 0.38209359458501035, -0.04636153673814466, -1.0, -0.4961832570963722, -0.41537055472934564, 0.2626783891690441, -0.3020841487240717, -0.37779213471818224, -0.7649795660615919, 0.7600972529751638, 0.3287029839252949, -0.04778061621267393, -0.29900960745772776, 0.35817478303989625, -0.5654427524742486, 0.9658631965826305, 0.8828364168843502, -0.897037531533909, -0.18476676955632493, -0.3553012695733775, -0.8546581793233013, 0.18612385363242817, -0.8245108103460296, -0.5123344518597523, -0.5443615456096463, 0.32738979976868693, -0.05314368056965071, -0.13384563012090434, 0.9985108193321454, -0.21429384970807971], [0.9238445165830845, 0.6423637390821746, -0.7950216568664872, 0.5055428898736403, 0.8708371416896362, 0.10081073456405229, -0.8115615874554098, -0.49889672594596063, -0.7755797259374646, -0.7741886339798766, -0.8371155285257754, -0.2594975159121247, 0.2093070756208662, 0.5755121208733146, -0.5514963959141541, 0.5192193953867897, -0.7297875700976442, 0.1543087138186858, 0.8519610451340341, 0.3289868727856835, 0.31507382683677027, -0.30846786447583313, -0.49515279701124426, 0.9912248574366403, -0.489832340056535, -0.4655438161678339, 0.1778564511537518, 0.8000587967114233, 0.8614154542734633, 0.7411445814236134, 0.5147573547364855, 0.2609261845939596, -0.7909401524823706, 0.28427039041632235, 0.5542094330959344, -0.052107332279203826, 0.6967734755305507, 0.8524912235351697, 0.12997648414556043, 1.0, -0.4788899704496646, 1.0, -0.2498023986837427, 0.8570787375849025, -0.3151903823879804, -1.0, 0.20967232338513592, -0.9250593318725102, 0.7726029159339576, -0.5211138837485275, 0.006231244302809448, -0.2061580669995137, 0.7663272007856105, 1.0, -0.28698313327089076, -0.011150728870614648, 0.5308984132244086, -0.8513775528072111, -0.4879626705964631, -0.3734729681068, -0.010270707387360281, 0.7288147929082037, -0.7033341092186625, 0.8543747231596502, -0.5464497071073972, -0.7427843606308248, -0.8345775205751463, 0.288095499110265, -0.7949780852336087, -0.2144049538030964, 0.5825151496856753, 0.45891808027761416, -0.48146019548522717, 0.09845026269882917, 0.2940007380750064, 0.9482776376256422, 0.3872793131211863, -0.32937321626344634, -0.5903741532514687, -0.10661934039396084, -0.12802098253815425, 0.7856598113699615, 0.14352325156530618, 0.3588605944305108], [-0.6956363613653441, 0.38457884632739536, -1.0, -0.6779135679603839, 0.0951338614852741, -0.5408482670896939, -0.3376956058618724, -0.04142115445259214, -0.17553179023457802, -0.8076148545346545, 0.2796422101231505, -0.12345722468141168, -0.7269196343237169, -0.4419101610498008, 0.4214081735544292, 0.7911653115315526, 0.018664148315905352, 0.7143636778957823, 0.48684690174454914, 0.4723565452078158, -0.38427447001803294, -0.3489616453444104, 0.22763889245943342, 0.7543328707489984, 0.17469146815483458, -0.06604930701211802, -0.2817561327102643, -0.5361787773097602, -0.294482098700114, -0.27945536271108, -0.6587575425824281, -0.4021100514886744, 0.3414595698717024, -0.9973949558129469, -0.7781390215809315, -0.8095839918212991, -1.0, -0.9825844890598029, -0.23866019908173317, -0.018029239740285346, -0.4067904701051158, 0.024573670174458377, -0.5374146621247576, 0.9962656605731356, -0.7474285875320693, -0.1493845952725603, -0.1931467062763231, -0.4102403863843657, 0.6850203067244249, 0.1765539468461091, 0.8720952002308869, -0.4611377657827109, -0.23650900806001585, -0.2667247185644071, -0.24664052124749325, 0.6585863139103608, 0.768000203764812, 0.5662576300327815, 0.3711508837758395, -0.5571391734481173, 0.49612513580476064, 0.7868089706254872, -0.7137137873805588, -0.9999998714493665, -0.08484338855795229, 0.2589507357264453, 0.2270716689354133, -0.5546399000814568, -0.6383892169509848, -0.8710105584473367, 0.10761041444358155, 0.4752576834015385, -0.22254995818578138, 0.7056239975305715, -1.0, 0.4711808442219194, 0.7004463435613469, -0.7541486872647976, -0.1269936557735801, -0.2179493842575894, -0.91049850431898, -0.3750261265755812, 0.43822211785298454, -0.9312881644598744], [-0.8509461643436382, 0.47360719897948617, 0.066849695564476, 0.7961116907612984, 0.16507341458199967, 0.08581135526530774, 0.5923120465288682, 0.028547938658412486, -0.19760564957737894, -0.3503037286211536, 0.2492140378587251, -0.669086711543196, 0.5718176688625144, 0.17123476905847007, -0.2520768753825451, 0.7100287616460593, -0.41827713792818855, 0.18322167034557205, 0.6572093647738305, 0.478635456293151, 0.3364702543913875, 0.4122411076387691, 0.31804511843833827, -0.12929033139387652, -0.9983600265375921, -0.3722131675114672, -0.8487908275681008, -0.12342435385120616, -0.6340731156315653, -0.37082814753946586, 0.9878794836689578, -0.32609620188141264, 0.9038033947288681, -0.5753516146661755, -0.6099044511688939, -0.7633686476463398, 0.6030915695213325, 0.41129506094804336, -0.5563949936760085, 0.6958657352010988, -0.8105821751564654, -0.04110390573905565, 0.5900901101817859, -0.5306698489212126, -0.7489659548401539, 0.17397275489241606, -0.6390023593208038, -0.17498435238639914, 0.36843055263358243, -0.8104045692516246, -0.6208616626427094, 0.281106119589653, 0.6419601690168332, 0.1252739034551618, -0.0664031954330315, 0.3182432274592491, -0.33369835483822474, -0.7148073606384749, 0.2817110877509035, 0.9999549204566657, -0.2506214507725405, 0.31380662372693774, -0.23267599284292007, 0.547616689331734, -0.46615246886165573, 0.6655235643749409, 0.5578533968821655, -0.13624412100999747, 0.9940962297339954, 0.8760678277860371, -0.9999235383416336, -0.9988937427822882, 0.2717797206457014, 0.3644154344905922, 0.9324661105573828, 0.08020487561844591, 0.12579882415277185, -0.1693786186384011, -0.7618890305931626, 0.7520402410827682, 0.3748195298217281, 0.32469716418070393, 0.47884444524213104, -0.9985534401879175], [-0.10997877862296195, 0.030253016042773518, 0.9984606228877329, 0.3374217962194213, -0.999991911003817, 0.634927910119713, -0.9999999999999998, 0.19720281557133582, -0.23797706871692845, 0.3209054203893012, 0.6796527953627863, -0.36093623531593116, -0.8651201935409117, -0.2631194500190622, 0.2530149409945515, 0.3119498765267448, -0.7364531037911392, 0.05772927682331753, 0.9999987931146898, -0.9962546777693801, 0.4674239302686847, -0.08618159638820763, -0.735256652473624, 0.5015165766426126, -0.7650475405346661, -0.03952920538599858, -0.9516321471931547, -0.10862948318452892, -0.28715420040561584, -0.4775806020424135, -0.5899622171771782, -0.11954835278204229, 0.993039727920198, 0.7717487992271764, -0.6489688297691791, 0.7644790258400815, -0.6484744919077359, -0.9414242680707381, -0.7665166482345359, 0.6466098220915566, 0.585317916096073, 0.16298142443233818, -0.8372767815588463, 0.942720616390268, 1.0, 0.2784039935737241, -0.6568214795170306, -0.4400725278336239, 0.760773929446987, 0.07145140125924296, 0.6542447475937891, -0.2710843725726024, -1.0, -0.980664162150799, -0.14913601199023152, 0.6877299631489117, -0.2505526671558213, 0.44106968878578795, -0.1076868101375882, -0.2430454413500474, 0.6710074836842074, -0.2686964791605415, -0.019636981078548995, 0.7458139303797355, 0.020329067564822056, -0.11528770876097295, -0.5173906704987016, -0.26513832871843795, -0.8459360937572799, -0.4597861351290932, -0.11827101481572407, 0.4006766013006735, -0.3149316716784157, -0.7427668661254054, 0.6200523752028733, 0.33776918773269704, -0.19677095872930803, -0.27571670463802467, 0.2570892408319015, 0.7696699671022974, 0.9683578670751708, 0.45245747485103593, -0.9517180144452946, 0.7373267443282505], [0.7710785642865365, 0.6964641973200671, -0.8287436295497884, 0.9405371485540145, 0.2061687742656927, -0.3485121928524994, 0.8056607663475185, -0.5646593462855639, 0.011363324761156667, -0.45196713723746296, 0.6996298873565049, 0.6678239277689655, 0.34225566787686945, -0.7681630900561467, 0.46821720935997263, -0.7846259800321522, -0.5426956999548954, -0.8674319828972897, 0.06188411268808308, -0.5451644718411164, -0.8927005642880205, -0.24838983910265136, -0.9852220287229579, 0.07571084115402107, -0.639218798883491, 0.9992067143092229, 0.4016013165067585, 0.03847323262243824, -0.6732276449534037, -0.8685489916000669, 0.9335183007923088, -0.5272921792375345, -0.44105832290080677, -0.06788247876108487, 0.1012532039910349, 0.47340474797489673, -0.7765355485167091, -0.9891314275615848, -0.032809815082631845, -0.47782675702028804, -0.6674213566783317, -0.33302841593533866, 0.23698523235557625, -0.2780931084311411, -0.7413796988406749, 0.5096479336331626, 0.05996150513287645, -0.1084573577369134, 0.6757747171109472, 0.26650272335747965, 0.756358668075211, -0.3833157856725025, -0.2877037990647044, -1.0, 0.5568470467795201, 0.36793229997435906, 0.6220079809046761, 0.23899527758642738, -0.6747716565140824, 0.0555429426354852, -0.4262648668383149, -0.15027057084427978, 0.6953634714987389, -0.5152721329627418, -0.9503670078148233, -0.7000170082711001, -0.6425203709222532, -0.03893422225137657, 0.09319942081983489, 0.9488211922931016, 0.2671586654789127, 0.6850043587173521, -0.46999664139375535, 0.05896230135646228, 0.8764340104808385, -0.5512366804711983, -0.09171769759482923, -0.558292376934961, -0.9734743717149132, 0.6088034298747683, 0.7584861812022827, -0.7217556110021425, -0.45310204429838413, 0.6593062502178235]], "w2": [[0.22941021325166538, -0.9832680847207159, -0.7187225862542059, -0.613536015118506, -0.3189820412922169, 0.16026168065782564, -0.052379083868422535, -0.12186818025778308, -0.9413418857274886], [-0.8557491777214918, 0.8609631956402197, -0.5773883645110107, -0.5288616991268201, -0.36169309821480955, 0.7028097358849827, 0.7030704884404336, -0.41063982009172784, -0.3539496930475854], [0.01826998535026017, 0.8666745433965847, -0.7493862418395484, 0.21837830930106655, -0.3534672484011619, 0.7620446836930539, 0.1676710566410455, 0.45570360252110903, 0.21851811542197472], [0.24820528548380993, 0.3194722485849651, -0.1614224701931642, -0.33520716140894347, 0.9404323650542482, -0.8127223780693342, 0.02215246654972698, -0.3473477433234096, 0.17551441641439594], [0.8871714779055501, 0.9663729627363955, -0.6955379713720745, 1.0, -0.13278336561151236, 0.49727137249986764, 0.028827285981802207, 0.6687237958883795, -0.9988041148079496], [0.2794383380804317, -0.13020189185454495, 0.5165968814723282, 0.08066686759102108, -0.8200412414933183, -0.2613970840629919, 0.8134251058187908, 0.47361517961910576, -0.7903349969318406], [-0.8972950449823841, -0.14611401847528258, -0.27931293018748293, -0.03973375254224672, -0.3708844003400667, -0.8396405787574204, 0.9192252897666704, 0.41032707015310727, -0.37417547930464745]], "b1": [[-0.20527510129857518], [0.15482112480876076], [0.5324877960551345], [-0.5939393799364467], [-0.1573356999860081], [-1.0], [0.6555741500379291], [-0.19189917579958715], [0.18813804966136263]], "b2": [[-0.704057247111361], [-0.6660317260634441], [-0.4116143525775831], [0.25233723396414115], [-0.5033146495829779], [-0.41100921017422976], [-0.6262285625585216]], "fitness": 2895.0, "best_pos": 9.0, "best_status": "small", "score": 1300.0}