{"w1": [[-0.6486279868272122, 0.6462274191557218, -0.07340488323227876, 0.6126019034532956, -0.2937001005368366, 0.5164349658204845, -0.7672794298319211, -0.4927569974231364, -0.7074666780204586, 0.09950310938982473, 0.09686223556153666, -0.46374113855364113, 0.10347349631902501, -0.7441411611446697, 0.20426259430425223, 0.4718008117280357, -0.18397660947057337, -0.7942274708639334, -0.02037988458460254, -0.7117661971383435, -0.8218724894753142, 0.899384920360376, -0.32373820529525776, 0.21306658196617986, -0.04192674419608801, 0.9864760548839173, 0.5804989399601603, 0.607990450413751, -0.25653960691537014, 0.08584365923411195, -0.711960307598461, 0.4028503304890856, -0.3894132035418812, -0.020095534606010806, 0.47636351015300255, -0.95386510045735, -0.047566984624123294, 0.6106353486143433, 0.10930085852335045, -0.9706504653448995, 0.845527763266909, 0.3113650554739315, -0.23449203472653704, -0.5947491595121652, -0.31877774025652433, 0.215780703130793, 0.08789818579136063, -0.17325531328184804, 0.13003271770470518, 0.10965297317554636, -0.2941444904233216, -0.9025977906939374, 0.7947320737803991, 0.3420744524030239, -0.7717556676070572, -0.8497986578283782, -0.745617072558911, 0.9999471974360694, 0.5385978157015157, -0.06548255852717375, -0.17828054882846306, 0.6728255449202335, 0.1481198832807367, 0.2529865634838705, -0.3860600090989637, 0.038204481349729764, -0.11742516777603876, 0.5818439558898565, 0.30642212943200775, 0.8690262168469735, -0.9383296672349154, -0.6251140146605741, -0.9882847232278937, 0.09738665242859215, -0.7576372034771609, -0.999741909473619, 0.12966818587760426, -0.34286447355344196, 0.7078335669506086, 0.1079055187462817, 0.02726353267629066, -0.09587510101999111, 0.7025612202028514, -0.5381318981597909], [-0.1648897625052846, -0.9985398351404613, 0.18800514942063437, -1.0, 0.8413225479190878, 0.9532590128764797, -0.32969947260308413, -0.6632928927367013, -0.6784624574479844, 0.9992748524729932, -0.18344570033696386, 0.8902207833319231, -0.7436038891834518, 0.3788062689377771, 0.28290393492927557, -0.22197264789740673, -0.36076635778873783, 0.4618654188770992, -0.7709841362857549, -0.999891831417685, -0.24351501109879647, -0.2759933501522712, -0.38251272801980674, -0.36083884295752444, -0.7752314605060285, -0.7824317352637014, 0.5023115598606915, -0.0942834962460557, -0.06932176939453473, -0.08921812040544984, -0.026765572045513105, -0.6734266466352476, 0.40108270121079737, 0.30113453901368603, -0.9230690162203107, 0.14615417225327076, -0.9999913993948374, -0.050568775662541976, 0.9466082211169521, -0.045924719351321565, 0.8461724528327762, 0.49343605025328025, 0.9190899147887058, -0.49242639195003257, 0.13713712277830462, -0.5813386495656607, -0.9494286399307965, -0.6770103914290065, 0.3765216079793122, 0.668852814617845, 0.9990853263314693, -0.596290017196243, -0.7529485037665015, -0.43258630501681405, 0.5512853262659491, -0.33183831982630163, -0.235521780823454, 0.24444170815302246, 0.25038097675760496, -0.044844715777839175, 0.4448880804031719, -0.9255194776567754, 0.5423865662425907, -0.1150366674439076, -1.0, 0.10930992915422558, -0.9414000280506272, -0.42446661065949015, 0.14426912902696287, 0.4381639250995614, -0.4806540822631386, -0.7203830178976255, 0.2870696629097525, 0.47810965741013717, 0.9341153793983865, -0.6203864425083134, 0.37816247005337245, 0.6896327630235374, -0.19170816169725396, -0.46093094640577076, 0.7590453662472942, 0.5826305352855755, 0.8307595925110108, 0.6138856928570454], [-0.8258101635111275, 0.9876541735301531, 0.6469759515685597, 0.715077282563537, 0.39467380690278825, -0.7463849982859181, 0.24000258916580425, -0.30203824593532513, -0.013157904777621346, -0.9999982006622903, -0.9214311573631011, -0.7062028740399194, -0.4643951065628259, -0.5515410429129296, -1.0, -0.7084371710953224, -0.2519097820786468, -0.5586400723043864, 0.4517350216532588, -0.3429351750898678, -0.24905015064371575, 0.44587122035089366, -0.5463416144413354, 0.01225602591176794, -1.0, -0.9175236258618314, -0.8122697304004263, -0.7534033244776367, 0.06555363879257435, -0.9999151906606316, 0.38849527618839064, 0.18309976777978962, 0.9007153801971949, -0.13957186740190863, 0.03673207631408583, 0.36580830474523224, 0.46581272833544984, 0.698457821482654, 0.7395152474811407, 0.3918497338128126, 0.5245642665691256, -0.9482234372111199, -0.46475502498925625, -0.21151602263207464, 0.4055693677076148, -0.025704136268489605, -0.4503542095957715, -0.0655614654639071, 0.35402671089103666, -0.1673272250821077, -0.0911309876654882, -0.7102750987073972, -0.9237537290595959, 0.386253956373303, 0.12500018271086574, -0.25644455669486377, 0.28912257032599803, -0.18828994751892628, 0.5836430360031474, 0.05682209550644816, 0.8476051962951164, -0.012984206804761911, 0.9974093936499906, -0.5218996447754607, 0.7018715624088002, -0.8786115191919448, -0.6380265268960746, 0.23660945753782758, -0.9238402684777665, -0.848915287603808, -0.17676705072022497, -0.16329069145646877, 0.9992953951867719, -0.11428044325856655, -0.00847641280244429, -0.2747590718723353, -0.6830213986391048, -0.4393755716462283, 1.0, 0.5584957527575665, -0.15336372553059854, -0.05337253345481974, 0.22708911099486329, -0.5008563328551057], [-0.22264362832685253, 0.1241936644284384, 0.16328498231931465, -0.19496912635207325, -0.4763416294677217, 0.9162016048753915, 0.020590846642598283, -0.019965109323656412, 0.999482906703726, -0.9988478073833023, -0.18807822520895837, 0.9185631886237772, -0.23748555171715835, -0.004132248060656904, 0.9001483630051594, -0.8636224922531586, -0.5600189100221513, -0.2913820461320494, -0.22998190148283773, -0.7905013893886095, -0.06270750958829172, -0.6917277547283326, 0.6777725468257414, 0.45598441747158275, 0.44883009204657615, -0.36766736699588426, 0.6454297143186134, 0.6318333962182892, -0.18433087348861027, -0.4677400290875057, -0.5908381553365745, 0.2468525161839286, 0.9245579220184803, -0.27313326570977087, 0.34170753602248594, 0.5948695750426767, 0.26083244683434115, -0.8610099058909408, 0.4006254791187311, -0.21594743729885887, 0.3452584367270446, -1.0, 0.8097396687340712, 0.506449489828235, -0.7512442261072748, 0.14681617839726308, 0.6570223183142438, 0.7858617385900363, 0.9928422409572603, 0.16903764714785507, 0.7228816026070422, -0.6913213736100258, 0.5385937429779978, 0.9989280491511664, 0.38424362212189067, -0.047280058509674414, -0.9999999999999337, -0.16711727905243534, -0.12815037514210176, 0.04917481207760741, -0.30359207575658853, -0.37367139599476934, -0.7632829017896201, 0.7599428864067459, 0.2775093428236981, 0.4305563501182804, -0.2991769116814367, 0.473342442935788, 0.013695494120962113, 0.963813772705763, 0.8831611019936244, -0.8973818985635742, -0.18147642234582056, -0.41119565035778094, -0.7191455674633616, 0.18625240192873205, -0.7993831451952771, -0.8755837470918194, -0.5440374364301679, 0.32765975272020914, -0.05256328152594145, -0.04479992867442402, 0.9999973820412851, -0.21867468811110463], [0.9294286772646994, 0.6282567829231986, -0.7927059085284158, 0.4801231933516214, 0.9639350365410417, 0.10484466286967943, -0.8115853001290592, -0.4970747505803035, -0.8983672597220866, -0.8282008658630294, -0.8382516991015385, -0.25990664215693077, 0.20792505877225584, 0.5752025533160318, -0.47377336553092286, 0.27683630394835423, -0.7183594195567471, 0.15381729105685066, 0.8489959750603855, 0.3195467593176189, 0.3160068508449631, -0.30944166284605246, -0.4974579550343368, 1.0, -0.38305446417611594, -0.46643328595940164, 0.18169335791161628, 0.807552814307255, 0.8588330235834732, 0.7380886789685595, 0.5167442663757876, 0.2595836270487134, -0.5548176383330821, 0.28278767097846064, 0.5610698258120645, -0.04932934111534708, 0.6978432294638099, 0.5728816620713029, 0.1315242360550751, 0.9999999991770737, -0.47811929236835665, 1.0, -0.25371496103142305, 0.8639568003261011, -0.3174889278448418, -0.9852607925266929, 0.2142873240281383, -0.9249868390272578, 0.5344462757795709, -0.5139303222363173, -0.002171915317074142, -0.2027997400469773, 0.7706130341085881, 0.9521408118430947, 0.15037399902722878, 0.08061493804572205, 0.5311100068001823, -0.9732553606889752, -0.49106474793099936, -0.37583029123456485, -0.011003036067467654, 0.7280986105647206, -0.703838574643854, 0.8534513541967661, -0.5300882564708117, -0.7588036328429534, -0.9996389293045626, 0.28932952778204046, -0.7952590188943944, -0.19770344157982325, 0.5786142214881035, 0.46214829905365284, -0.6252342997014393, 0.09625113463374992, 0.24656039280368766, 0.9485304409075649, 0.38845702427166645, -0.326825854448754, -0.5903759669155378, -0.10832867609928401, -0.1645544339583767, 0.3712356352836229, 0.13830414924754822, 0.2853514186435477], [-0.6573077481620158, 0.2923095319583662, -0.9995530707701922, -0.6729016650244954, -0.1066176633866694, -0.5431529913557229, -0.335441672974561, -0.11272510223258464, -0.18435665231962067, -0.9845616915986408, 0.2754629559585901, -0.12425566101962444, -0.7269127301259962, -0.44232709885798616, 0.41682409278989707, 0.7927475192651307, 0.15132819531422043, 0.730240162317146, 0.49569981770295046, 0.4724038996098595, -0.3825149510966714, -0.4071871629063935, 0.22799123111198819, 0.7542018085520694, 0.33679691182840465, -0.07132121792138392, -0.2816413404483543, -0.5375945854362133, -0.29562306258138443, -0.28061456497156656, -0.658678422867187, -0.40171769775931226, 0.5080981662347187, -0.9999735702311894, -0.7850815534171258, -0.8111319740131498, -0.8655305825256107, -0.9989437193677853, -0.24085663174989558, -0.061479592953422084, -0.6055546511177082, 0.37792170112541645, -0.29809484730492775, 1.0, -0.745665965092514, -0.15957168945738912, -0.1915853586288571, -0.41031403395627114, 0.5836135354828085, 0.17658983624839247, 0.866396258105658, -0.1392014728210776, -0.3669525035678268, -0.2930792678501184, -0.2515483910201171, 0.654951781054408, 0.7646669311487704, 0.5596825688896785, 0.3718044782511019, -0.15058574583582693, 0.4959262100516854, 0.7813396898215584, -0.5148873786885007, -0.9999366376044849, -0.4572367810267305, 0.25901744039449887, 0.22436251181169486, -0.5556464109082243, -0.634507724424375, -0.8760169270503471, 0.10793503275078416, 0.5158879949241473, -0.8671158131530328, 0.7040006068998391, -0.7871865135848711, 0.43108520204731854, 0.6060714708220796, -0.757934224500711, -0.12657466732508318, -0.21544658004092998, -0.911342336674222, -0.37436999408891825, 0.4443238104149351, -0.9330718488418535], [-0.8480675453523823, 0.4712595911035506, 0.06515651556475699, 0.7991839602990456, 0.3286233921988061, 0.08735899608796238, 0.5838401025396431, 0.160944922246178, -0.20791691482489083, -0.34994188106863733, 0.26928724764198153, -0.6697017839357592, 0.7964278263372842, 0.261666932836044, -0.28472353358725944, 0.7089996278347147, -0.42186589452984846, 0.18109058274698614, 0.6574206061647877, 0.4966274267029863, 0.27768582436887496, 0.41727194668187306, 0.31648439254673094, -0.12719287684077535, -0.9992052423472161, -0.36873122545238307, -0.8479753768023439, -0.1237147041017365, -0.6345526630148011, -0.36991362764822205, 0.857928900299719, -0.318608252569661, 0.9112243447414591, -0.47831740013237056, -0.22051349313728394, -0.9716617343755635, 0.6017322558551286, 0.41225899958334133, -0.7225285951688729, 0.7460891949614132, -0.7792459675798107, -0.03893579687282252, 0.5775994232155107, -0.5390297838120657, -0.7494504428564556, 0.16571024648513158, -0.6408290480186374, -0.03389415832480944, 0.3687067809452045, -0.9999986833738386, -0.6211959000265764, 0.27841502526055095, 0.6368430162564096, 0.12469497029141324, -0.06962344969744895, 0.3698183631153576, -0.2137766146023413, -0.7147671195124574, 0.3804246343280428, 0.9983869043410002, -0.24937814244505352, 0.08310837656997096, -0.23807207987532558, 0.5608964841745439, -0.5478554475742599, 0.6639814307852258, 0.850889290552622, -0.1366998404300742, 0.9997782864949869, 0.9993559550138289, -0.9607485701542263, -1.0, 0.27141060665879807, 0.30195912210736314, 0.9286425461191024, 0.08305411020865781, 0.5302921073384191, -0.16974058153398158, -0.7392309339544222, 0.7600168517055144, 0.7024901537258733, 0.3237824593460518, 0.8078581037109589, -1.0], [-0.10465877765683518, 0.02895701224610601, 1.0, 0.3430607740342141, -1.0, 0.6350024592500326, -0.9999999999999999, 0.19720058005605856, -0.23796635560228274, 0.3212771704786722, 0.250015214293753, -0.38371559686461054, -0.8640503126708001, -0.26449157949848623, 0.25393078005956177, 0.31184249755441196, -0.7197623970979652, -0.0660782969329418, 0.9998371110553395, -0.9118222128313032, 0.4617949179179418, -0.24265150055427087, -0.735249409784462, 0.5052730930663221, -0.7724803938390437, -0.037932181731493826, -0.9675384710634888, -0.14741004168172384, -0.29055913345959516, -0.47687917153136666, -0.5917447893882186, 0.1263715225853502, 0.9998928486915171, 0.7739342195807868, -0.6485844201790714, 0.7644345867254861, -0.6131615775189385, -0.9416479581050247, -0.7660348309882656, 0.657472509887645, 0.583554599833782, 0.16171823651893047, -0.8330926199323867, 0.9423323133706095, 0.9999999999999997, 0.20792146240137813, -0.3942844857734456, -0.7049935171886796, 0.551077395912733, 0.06834126404345693, 0.6580302857179368, -0.2720507227613565, -0.9995718630406261, -0.991743070311932, -0.23596422721175428, 0.6883251538436661, -0.2515570793205693, 0.4114244273970891, -0.10653346203937768, 0.0694211581249528, 0.669765068520281, -0.2700584782633706, -0.16546287729739895, 0.7535026233105393, 0.02163406346610063, -0.11420325833372282, -0.5944680735161679, -0.26846836594467005, -0.8474515974009756, -0.4763668453377437, -0.26210613577712105, 0.40769792110214753, -0.37467262874487034, -1.0, 0.7037879605753442, 0.33768615526913026, -0.1976289310094827, -0.27533492102836016, 0.2566044345949852, 0.7718271696573246, 0.9788762552376327, 0.4487548417598457, -0.9516448016060949, 0.7388715617357378], [0.8507013849124353, 0.48127276884983516, -0.8298943591745166, 0.9996583838168405, 0.20440567660100384, -0.3491827530514535, 0.8050618828877838, -0.5609606862677113, 0.012123834629117756, -0.44307787458892167, 0.7115877466168226, 0.6682421684175892, 0.3419195884200358, -0.2436992506941612, 0.46828558246548824, -0.7760168051311637, -0.5426183348321395, -0.8668774486881984, 0.062111250547858314, -0.5407432214780569, -0.8898306022137121, -0.25779819852332975, -0.9915617009869808, 0.025871911217784316, -0.6390586749863119, 1.0, 0.40274627282583675, 0.040854006507728566, -0.6748802164752472, -0.867595767838369, 0.9574160763088403, -0.52873271241058, -0.4321273996362858, -0.06816388228271208, 0.10868721148236275, 0.46612262525285447, -0.7876659011645175, -0.998184401401799, -0.03612067331023219, -0.4779177839673138, -0.672453798020633, -0.33298990836794307, 0.23606242508925435, -0.27861135445654206, -1.0, 0.5135390684793742, 0.05356505501048224, -0.10858625924075396, 0.6694948206192048, 0.2653488697077956, 0.7575746764352439, -0.3903799029833547, -0.2871503644287978, -0.9980986177596826, 0.40308100702417377, 0.36658566924243036, 0.6196652659487332, 0.2279068218414111, -0.6767966656861537, 0.05537734552926362, -0.4253530910972446, -0.1608508808773474, 0.3664936799893598, -0.4711966508680652, -0.9684668463373335, -0.7003160858207523, -0.6419821054760407, -0.039099750125791595, 0.09897382349260064, 0.9468280551491025, 0.26455248633820133, 0.6887713891553703, -0.06906383236654862, 0.0637570878485773, 0.8748818780072615, -0.43831683410815947, -0.09006397865912945, -0.5603916543990052, -0.9738466069658162, 0.6117123861863746, 0.5117228965555001, -0.7201743080661418, -0.45631105117860077, 0.6771863735184621]], "w2": [[0.23028960591959513, -0.9826253463804253, -0.7171005582363257, -0.6134017335395451, -0.3190433918244701, 0.16371560916972275, -0.05090184291175296, -0.12037067523429594, -0.6989079811311308], [-0.8559632638688862, 0.8593671886089471, -0.998595443749601, -0.5276427358204678, -0.3603438154912726, 0.7002784368962741, 0.6987759906834436, -0.05330469524527631, -0.36746265065293865], [-0.16798801609944608, 0.8156793351078104, -0.7443009660373969, 0.216519459220022, -0.6143060952800551, 0.7654559501853048, 0.16899029146363473, 0.6875255160822089, 0.22595727344199334], [0.24975425697720677, 0.32102232698781635, -0.04818537652354577, -0.3350450097906771, 0.9370707613458696, -0.7483379082571641, 0.02093976458484919, -0.3454920932202375, 0.2524005262852827], [0.8987066350813866, 0.9678246655378202, -0.6959387995930009, 0.9999989310931687, -0.14352587906191366, 0.49850763223169786, 0.3913147490107699, 0.9999510551382684, -0.9999963573843673], [0.27899634638955845, -0.1308925711189901, 0.35840485039641884, 0.07460839797571002, -0.8195632864417849, -0.2614463910588497, 0.8128570398918527, 0.4739963910357717, -0.7934808089702892], [-0.8942527892393851, -0.10017381336234628, -0.27925721123410163, -0.036429508723804065, -0.3718465172740453, -0.8519987127512098, 0.7588348315214989, 0.40894572326775913, -0.38029263150388076]], "b1": [[-0.2068702770687672], [0.1545858765722484], [0.5294182834351728], [-0.6864926853985339], [-0.16813677175887998], [-0.45929906039464685], [0.6500772012638332], [-0.19392870145271404], [0.18865746225466226]], "b2": [[-0.7047636983517024], [-0.7113755524690731], [-0.41236800223636644], [0.25455800476271445], [-0.49766390303719843], [-0.4110243466443341], [-0.6270759070709467]], "fitness": 102.0, "best_pos": 7.0, "best_status": "small", "score": 100.0}