{"w1": [[-0.645274475546522, 0.7912706093070629, -0.0718361889022992, 0.6127064778364442, -0.29108919232377783, 0.7351694248562909, -0.7673175232088009, -0.4921875726878312, -0.7074668287087787, 0.09468940527629408, 0.37280716869145497, -0.46373205764852354, 0.10352098262763876, -0.7441409979265936, -0.030285917646802114, 0.3762771053805266, -0.18397635408425062, -0.794185471219849, 0.05302915485564682, -0.7112785777590286, -0.8218589940502602, 0.8993867013498164, -0.17290439247458728, 0.21303380778562067, 0.41788470002123645, 0.9864863936186752, 0.5812851173039181, 0.6079874114004888, -0.25654221653658377, 0.08584343047811518, -0.7121601695021459, 0.4044036120356348, -0.3894308171801619, -0.08075055971226744, 0.4757107011152919, -0.9838405284625206, -0.04756589582730668, 0.6093414477948421, 0.3192905141144373, -0.9999827554992646, 1.0, 0.4662886148802272, -0.33943858007694055, -0.49879078045144254, -0.31794722162929806, 0.5375743863998454, 0.08789706614581168, -0.5574313087247684, 0.2653923997591027, 0.10982283290081014, -0.6813004960268797, -0.972186934495528, 0.8918278563823896, 0.6108012775790567, -0.7717352621174108, -0.9301339691400292, -0.3651712861756269, 0.9993374297504887, 0.5396595877337245, -0.06439333458320974, -0.18297542822271745, 0.672823669664706, 0.14482267443485458, 0.04023749371459506, -0.38604926596876554, -0.23787989696925765, 0.2796212846517617, 0.5818001070769697, 0.3067330460021908, 0.703889105754213, -0.6791623834585713, -0.6472000129577707, -0.9883843741417194, 0.13846292950732084, -0.9831254721019531, -0.9997404182531762, 0.12962801782996555, -0.6785569129280905, 0.4688033145230981, 0.0047268230909159326, 0.02636635868794015, 0.11839544629349247, 0.49482468102137106, -0.5381270164585872], [-0.07919866624857025, -0.8028159117715448, 0.18688055433044498, -0.9992356667182452, 0.840565327695909, 0.9506423977387208, -0.3298826452232129, -0.6633872450630617, -0.6803596971411652, 0.9999999999999991, 0.05969242145024563, 0.6718546988496125, -0.7436553316765758, 0.6666152913141413, -0.24672423550129668, -0.10929461062480073, -0.3613013634163295, 0.4623537035138732, -0.7701190565984538, -1.0, -0.2435253074492855, -0.275983586036739, -0.2131863723079957, -0.3608388652892557, -0.7504234707815706, -0.7838572032689963, 0.43692574461606415, -0.09428124986477979, 0.07370841310382475, 0.07166934819778444, -0.026785014252965034, -0.4873004740798841, 0.39813587323422683, 0.5599970426115787, -0.9230741437586563, 0.14613893584962687, -0.9872645317174894, -0.05150437611630758, 0.8070671997743459, -0.0980575215629695, 0.6787838492680016, 0.3978080095598579, 0.9190925151291383, -0.4924436899389331, 0.23989681006587774, -0.356239568058592, -0.9499426504226631, -0.7650554360338178, 0.6601218803497264, 0.7103467469832588, 0.7717521779018568, -0.8094377230506071, -0.7529507595075139, -0.29390888157582296, 0.4489094025737211, -0.33345607276101136, -0.23415126554573662, 0.24392290606811934, 0.24997577452033748, 0.25256463233198856, 0.27515029059341534, -0.9248087079334183, 0.4604983469297208, 0.1512963230059184, -0.9999999999999991, -0.1531107822015035, -0.9414039000982467, -0.9271868635262238, 0.017685336249712906, 0.4373085436811075, -0.48065429176810726, -0.3771057151288411, 0.28751425540616893, 0.29510623643273787, 0.743867152209292, -0.6210149111615709, 0.10497701610721202, 0.8866431206200193, -0.3562123225946986, -0.6594280528523512, 0.7575536267191839, 0.5831736507764675, 0.6412720338940928, 0.9958793285974062], [-0.8251412459651919, 0.39013593897862775, 0.648091689205088, 0.715078018983505, 0.4875827135770839, -0.9999999999999998, 0.24281788035348098, -0.1491789999141295, -0.013296862032841826, -0.9961764697394789, -0.9218738580093828, -0.8334784200827198, -0.4643925728951557, -0.5515423476408751, -0.8472053844894112, -0.7084329118984144, -0.25190431318259726, -0.5569449328019301, 0.45038770084092145, -0.3429356698607951, -0.24947323698001742, 0.3181661158778737, -0.399027183034786, 0.3356989829391887, -0.9999999999999994, -1.0, -0.5088351135976544, -0.5880539737728666, 0.06555692594097023, -0.9999008993391996, 0.6760921399223078, 0.343246866085307, 0.8107062886999176, -0.10948366433450363, -0.07183105606887187, 0.1236470290532202, 0.5276491909587342, 0.9972845888691356, 0.8814601712937922, 0.5142798921622628, 0.5244747112529772, -0.9481771807401438, -0.5350808213808594, -0.1361622381037575, 0.40599902942669713, -0.025797826901183717, -0.4532694456419373, -0.06740018555886743, 0.3540054447489139, -0.7707628396662296, -0.11196627077732874, -0.7103778741202963, -0.9230988828799211, 0.38776323720862543, 0.12571334236572196, -0.2564689723532066, 0.11223443350375144, 0.025053299750194942, 0.4389145167332328, 0.0578996424927589, 0.77151616426132, -0.0677250032907442, 0.9974307156239534, -0.8795707796505875, 0.9999989531479544, -0.9971049604500862, -0.6380267761215765, 0.2364372813660784, -0.9220207178798066, -0.8490128123499949, -0.17676713282081657, -0.1632882413897139, 0.9999738997896932, -0.11427064541222459, -0.2186210337276788, -0.523313122576405, -0.681920227318876, -0.43937331972221616, 0.9999999999999993, 0.5596578653165033, -0.1533526765487028, -0.2920107649113668, -0.053732010273784686, -0.500855923426689], [-0.22269057754034188, 0.13108923927597863, 0.16328359214038957, -0.021147052414482226, -0.5747169098327962, 0.91630931429878, 0.338118752437792, -0.019967203209823436, 0.9999999999999992, -0.8491570577493106, -0.242097755768704, 0.8240257155150026, -0.237487159646943, -0.30560183617000497, 0.9001473850064718, -0.8896917287695251, -0.560007999481638, -0.2908881836222891, -0.1930803760460806, -0.7925245931564314, -0.0627005569848016, -0.733730493172997, 0.6777727449103143, 0.7032916980029984, 0.44886221954450545, -0.3674149810072762, 0.45163275833603006, 0.6318568517950295, -0.3232784787212957, -0.4677383240781216, -0.6262239178617351, 0.22182293525542124, 0.620810281144872, -0.5732285775875163, 0.34169584580429746, 0.5954881782001813, 0.102735766890049, -0.861007426297811, 0.4529615062001789, -0.28222704589147485, 0.345216578808727, -0.9409094425626418, 0.8097373002497514, 0.508976122266494, -0.751740480955482, 0.1458488097364096, 0.6589292754705612, 0.7858691720759561, 0.9999999999999999, 0.1688335025157668, 0.7237128981944728, -0.6912983336583395, 0.5384761052742405, 0.7893447190362967, 0.27117865050182594, -0.04810005683700231, -0.999999888193107, -0.16924219272135224, -0.1270547491770676, 0.04922464529885108, -0.3035923237179431, -0.37376901871746127, -0.764024982542814, 0.7599424843211733, 0.47313957314296684, 0.4305378689833707, -0.299176674725136, 0.5499125449158748, -0.5786519739151742, 0.9929498250046961, 0.883160788952215, -0.8977412498992039, -0.17693022500485028, -0.34063703133228423, -0.6847988720223928, 0.18625166671877816, -0.799386221814279, -0.37437424542510306, -0.5474209520556139, 0.32707364283770124, -0.05356841171986525, -0.133877416613153, 1.0, -0.2184946920557194], [0.9293786460061176, 0.5071606213078209, -0.8988720766916349, 0.48012419373205145, 0.9932766115235857, 0.10485400129229284, -0.8117774027502488, -0.4552432769967197, -0.7754005256983043, -0.642507289334976, -0.8300307186728815, -0.2599258772562338, 0.3333168853808806, 0.5752023946289455, -0.147498362083047, 0.1452426653634703, -0.6280304046570798, 0.3730757312176308, 0.8506457186675201, 0.08565954881935123, 0.6816084139492553, -0.30943998221668384, -0.4974819973457203, 0.9999999999999997, -0.49008254322769296, -0.46643339849338283, 0.18170315360772624, 0.8075329574886337, 0.8588286134276764, 0.7380919397717669, 0.5169951559779926, 0.2610943724872202, -0.7908833771467895, 0.2827884485312093, 0.5607122146623035, -0.4659394334449273, 0.8477509459685868, 0.9999999999999992, -0.0488624744987231, 0.9999977703408354, -0.3351618407402682, 1.0, -0.3137809155951583, 0.9823614491565743, -0.10745370981205095, -0.9999999387139278, 0.33103358890769874, -0.9253322752420065, 0.685348500809479, -0.38300991379731425, -0.002299991683819429, -0.20306204198457734, 0.7689460333924565, 0.9999019457001198, 0.18632069551299613, 0.08062360259728543, 0.531109936551704, -0.7989722094537337, -0.48968562779845914, -0.37583459696647736, -0.010120947584196311, 0.728615258807354, -0.7032970799752056, 0.851187382316911, -0.5408735690812546, -0.4728760106755342, -0.7748329188476701, 0.47760989746076443, -0.799140955477967, -0.21618278200011773, 0.5786206049886857, 0.4621473931492084, -0.47084596683233365, -0.06022679057201386, 0.24825556666052315, 1.0, 0.38845585554566414, -0.3265439535440821, -0.5903748119239214, -0.10668879474642365, -0.16455447240331456, 0.413314856306733, 0.1398799427481939, 0.28535150710413115], [-0.6927157055211032, 0.5393011081123298, -1.0, -0.42658789738142294, 0.09510601299983762, -0.5774028962985299, -0.5355477164305015, -0.04212085530360426, -0.18424065933961864, -1.0, 0.08368909266801058, -0.12520487905290095, -0.8190035845254077, -0.5670699983011972, 0.42404768100155876, 0.7927478417749798, 0.15161846887216895, 0.7302618527294426, 0.49530438921808895, 0.18378583306739413, -0.3823528478002774, -0.40719479368951994, 0.22384859332593632, 0.7542024420790585, 0.45932088926374237, 0.20688917944306573, -0.2816458745798334, -0.6149811148760547, -0.14171211419674085, -0.2815050620580034, -0.6586781333092493, -0.4017246643116367, 0.33997607729610413, -0.5685255620109626, -0.7459122748241401, -0.761179568848284, -0.9999999999999992, -0.7742946628729646, 0.04002051877538369, -0.014096205291594034, -0.4509469734899637, -0.2243182124591218, -0.45730066645533557, 0.9306799994997084, -0.6445582714037882, -0.1574419354212629, -0.19098273842616, -0.4085719433761982, 0.6799338303924356, 0.17658992564947837, 0.8663987788562247, -0.4611901127991324, -0.233891572502864, -0.03186269449487258, -0.25154836765404576, 0.846127233081144, 0.9980063055132479, 0.6060492523508505, -0.09423970265604509, -0.15582100187915698, 0.4959279100436227, 0.9999999999999998, -0.5148872978192583, -0.9999367412873935, -0.08352488953355437, 0.25875136912547203, 0.22216195411481202, -0.5517694773223876, -0.5155389790330208, -0.8772985033860548, 0.5664899728869026, 0.288796975285387, -0.43256290260070146, 0.9985574891126179, -0.8938958815733974, 0.4335359195388588, 0.6056882926322701, -0.7578898796376424, -0.1265735719821255, -0.21542441916661084, -0.912381430563473, -0.37508698118450784, 0.44561986325996994, -0.9322371491876303], [-0.8262023436129754, 0.4712373603987514, 0.2113052044391707, 0.7989233708025754, 0.1736401833079526, 0.0873616152946064, 0.5909905295784279, 0.27223086924164014, -0.20588822780710023, -0.5295287511907473, 0.26959333698511123, -0.7683444570464943, 0.7940142431133306, 0.26166721955961586, -0.253636310852178, 0.7089993283027906, -0.4344122283061337, -0.06467828099195123, 0.6574197156849444, 0.4461204565104739, 0.33497719658819874, 0.41737162760019064, 0.31645747707752564, -0.12717901273805818, -0.9992097345901897, -0.8889439718298573, -0.847973600674457, -0.12371385965650263, -0.5664666148458237, -0.36922343119680845, 0.9997346392202733, -0.3051778320195974, 0.9112055520525474, -0.47277539828992776, -0.6949230980346031, -0.910850141825743, 0.602785942294052, 0.412259740360006, -0.555660779046962, 0.7489880583295598, -0.8136655032699697, -0.22121955423673548, 0.5767532857440885, -0.8164054476730737, -0.8941296495510155, 0.1657402512097765, -0.25724006169169233, 0.1551771370262973, 0.36479727633234266, -0.8942777698401171, -0.6212065771992575, 0.24766461841552267, 0.8041393006861213, 0.12566167187622757, 0.3420687114336653, 0.31889123560208466, -0.21378266540652024, -0.5640074400722608, 0.27230740365387085, 0.9850295600516752, -0.24938632464064775, 0.3103941848817515, -0.04373486186207228, 0.5480173304873213, -0.4070460167518836, 0.6634048528002763, 0.5645901580249972, -0.13670001398565826, 0.9999999894781626, 0.8936558335906601, -0.9598565478740482, -0.9935825753257146, 0.33198144325227347, 0.39439018489639505, 0.8187880311086921, 0.08307947486654929, 0.5306882861013005, -0.16973958497607955, -0.37848135499915536, 0.7598864006337805, 0.3731737268923418, 0.3232857446174247, 0.14743045159891574, -1.0], [-0.10762771348415726, -0.3363932129945847, 0.998449253811122, 0.34395435342995345, -0.8925546988969806, 0.635001378403324, -1.0, 0.19741818598053798, -0.23803224648381105, 0.32150685031788817, 0.6614741365405234, -0.38354077487492266, -0.5484812595502373, -0.26395837629017527, 0.25233175636463506, 0.31137863893536055, -0.7196062319527818, 0.05759685716440321, 0.9997534889165535, -0.6836536122821697, 0.6354487734594255, -0.49144874367565283, -0.7965356549721228, 0.6810704310529049, -0.7727321417736847, -0.03792848683819948, -0.967540105840431, -0.11037637118314429, 0.046776818420074806, -0.47687608333480225, -0.4420662858606218, 0.1264434780161892, 0.9530482764881993, 0.7743727482651165, -0.4764136903537612, 0.7644348355882694, -0.6126449777248376, -0.9495614155170434, -0.7680792503848318, 0.5911542919258818, 0.5833400089591011, 0.16170494309570582, -0.8336694156594651, 0.9423682058702412, 0.9999999999999993, 0.45859488319308, -0.3943035447588539, -0.43740279547669736, 0.7766065292504121, -0.0504961899945181, 0.6577564371625436, -0.46535847403691816, -0.9121108202085775, -0.991780404604085, -0.2410573853957242, 0.74135964380466, -0.38991733050216243, 0.4736085728319549, -0.10695841894719285, -0.24625296156167625, 0.6705990894162488, -0.1252244790524896, 0.19496360394456388, 0.7522698212259795, 0.04862027993834909, -0.11468695786710169, -0.2906875280158985, -0.35833883678044753, -0.8467414518570592, -0.4765189503377323, -0.11827217242629079, 0.4075275670910199, -0.37458179627819077, -0.7426160475198961, 0.6197729964863804, 0.33796702727848227, -0.19930754388741073, -0.2753498649653317, 0.350921761650149, 0.7714802563133034, 0.9788004399368299, 0.7726288009012274, -0.9518375219641632, 0.765475550030212], [0.7713215440486121, 0.48138704971652113, -0.9987238651483883, 0.9414125082978925, 0.20440883780017086, -0.5052602234708303, 0.8060363487085215, -0.5609166621160342, 0.0015948127337412404, -0.4452235171327288, 0.7112214510361011, 0.6373472306793514, 0.28403190007656853, -0.32102978454706366, 0.46791856144844896, -0.7815062052204629, -0.5420252522582797, -0.8660348500944609, 0.07034794187315307, -0.5406872452234003, -0.8898530324220226, -0.25634093152668247, -0.9931399889954611, -0.16976188941274897, -0.5953404768239449, 0.8524529310117667, 0.40274965306436944, 0.04085505987457373, -1.0, -0.8676125839077946, 0.9351660911500428, -0.5287308992196859, -0.43222271098049564, -0.06850060765517187, 0.3112322954260845, 0.466058115790932, -0.7876792365321322, -0.9982194869749869, -0.03507975559651449, -0.47788089579924753, -0.6735976493580382, -0.1972342524829075, 0.23608262712904785, -0.15238905125772248, -0.8628422668536545, 0.5135540077261875, 0.05362186495838683, -0.1086041029441394, 0.6680485981999386, 0.2654331439941551, 0.5932292064187386, -0.27522485438930067, -0.2940801441553493, -0.9994540144372711, 0.40235882286090396, 0.3665806812677091, 0.6196637516656687, 0.2279323601841146, -0.6766165551518935, 0.06230243832697245, -0.42535578626321674, 0.09027164382700316, 0.36595991484620205, -0.5127475780496342, -0.9702226140834768, -0.700445830153669, -0.6419787710116335, -0.040071201163201946, 0.1698826937246668, 0.5815776259609604, 0.14124546412517003, 0.6883477993522001, -0.4688250559507297, 0.05739805855491531, 0.8704497410080638, -0.5522130680047226, -0.09888076857708152, -0.6996222369747567, -0.9738498117809004, 0.631858293541495, 0.7047148740915326, -0.533795399675377, -0.45601644458025453, 0.6765693682795205]], "w2": [[0.22980472477213484, -0.9825983706853861, -0.7211836019053649, -0.46681869387123237, -0.36676129801149027, 0.16377391523352708, 0.2774452208949488, -0.11967724736877325, -0.9449410986806521], [-0.8561750122467695, 1.0, -0.8019237937253758, -0.5276506859362238, -0.3708441745232534, 0.7161837808143026, 0.5705333181055611, -0.41051911351561077, -0.36752568997724583], [-0.16545425676412914, 0.8156250382130017, -0.8142440236251977, 0.21650729530406482, -0.8286962124791314, 0.7654690480501297, 0.3153438231147312, 0.44144725034747423, 0.2258277680837715], [0.24975797176656528, 0.2085763687023747, -0.16127254262501517, -0.335045062053717, 0.9843768375472421, -0.5860035935596625, 0.23221778164755127, -0.34547284409660317, 0.25306684834467347], [0.8987345091473005, 0.966616159276578, -0.8887994036551137, 0.9992569541710312, -0.14364942152098817, 0.49904027670226225, -0.11422599803656477, 0.896826826571138, -0.9999999999999996], [0.32640333141899114, -0.13094381029235172, 0.3669805090225173, 0.07396898150999623, -0.9511435174119202, -0.25998673591997495, 0.8133205502525281, 0.4744358038261548, -0.7933628319436894], [-0.893918839204432, -0.10024895459212069, -0.2792592413609994, -0.0364471968418125, -0.3739418801286628, -0.8520722000506838, 0.96677339344928, 0.4730937366111261, -0.4209836415566489]], "b1": [[-0.2068697476711401], [0.154585625610574], [0.25649210869216316], [-0.6860518440224171], [-0.16827343373472647], [-0.7147872622130079], [0.6504044114226873], [-0.26710617115870366], [0.18865809147926263]], "b2": [[-0.8340438148929266], [-0.6671696579386461], [0.026958353932234135], [-0.11155152513425332], [-0.49766718729374376], [-0.4105150836708611], [-0.6270758914988205]], "fitness": 2330.0, "best_pos": 10.0, "best_status": "small", "score": 400.0}