{"w1": [[-0.14858666702452636, -0.1670862700003228, 0.21001377468497676, -0.44498034642502754, -1.0, 0.13035265694109413, 0.1503336979753372, 0.6965668463856631, 0.007290857199501524, -0.744386828902169, 0.138641522625298, -0.999999999878323, 0.1438513115292431, -0.8938376110601561, -0.5691422018443416, -0.2631780496394444, -0.05988966848007876, 0.015561354420275475, -0.051275162173528316, 0.1482185310456978, 0.10294035995642205, -0.8654983813231719, -0.30187674514429835, -0.25487651689608043, -0.289665464291543, -0.1532141465525411, 0.8567835645740007, 0.45652499608112773, 0.7296783398535219, 0.29991866981823706, -0.06660107866326163, -0.7300438897818049, 0.06827355883517416, 0.1483804600751066, 0.267228728368933, 0.9154103391041276, 0.5468285044560721, 0.6196456197058138, 0.649086607017834, -0.9721525473462909, 0.517781516206209, 1.0, -0.7295134300489651, -0.5785101164653274, 1.0, 0.37833421189873534, 0.06252330894018046, -0.42241555226191285, 1.0, 0.5160631328921605, 0.8855224659033436, 0.19508907554672966, -0.49162549305596026, -0.29985038723331847, 0.5738811969334797, 0.40045179910500445, -0.8746159842611563, -0.48474476402309113, -0.7790073028694456, -0.7269393587855625, -0.05512390042803408, 0.8268200298866991, -0.7260699206435006, 0.8416443690113029, 0.6485452146357688, 0.970609882646996, 0.1459995223226476, 0.7107793522072429, -0.037094797125850926, -0.5952880236224131, 0.44090919821966973, -0.07722587399542623, -0.3018658816837789, -0.7886017242497761, -0.045437787835551635, -0.49468689840605123, -0.07093288690460979, -1.0, -0.9989089325153099, -0.6567492181406843, -0.1109312492760952, -0.9999999152565953, 0.8173214570034801, 0.5478561733958371], [-0.004971918541451765, 0.9720186426332402, -0.23283839654781396, -0.6578485726474373, 0.16240554497577, -0.8799607810351933, -0.4333847694326792, -0.6900084999783467, 0.34928929205738074, 0.4207927582338322, -0.05428968956571209, -0.1410448440457899, -0.8220094670808096, -0.6386666745434258, -0.9999999421405084, 0.49373921302271667, -0.9790408089174183, -0.24080748452853934, -0.9999999208140037, -0.5137407570782123, 0.05590852843770188, 0.6794055208334687, -0.028187104894832213, -0.4079230983585782, 0.9388446496612155, -0.030731454454387217, -0.5746316018787869, 0.49285249189155833, 0.2565392897428798, 0.2729365583144173, 0.8348266748012121, -0.2511980834931082, 0.41998035572153575, 0.9528857220011053, -0.6292186559943854, -0.9999999999999999, -0.816862673695621, 0.9994594407890044, -0.562620899536285, 0.2552652877813109, 1.0, 0.13056994215272205, 0.7614131221200388, 0.18701375865032396, 0.4871501628006422, 0.6351336201411678, 0.7186946881785348, 0.9995899390229555, 0.8100822609962957, -0.7759385665396602, 0.21388677732590808, -0.37051083560468245, 0.9047306484828511, 0.31016461037844406, 0.9831066065754255, 0.9996278806533434, -0.2809120335420774, 0.9087889254977061, -0.7907027069365764, -0.24667356161872042, -0.7556325128825158, -0.10197511992278596, 0.7777985554838925, 0.4424536801125652, -0.7438018113967918, -0.6857391193557352, 0.3075075206500451, 0.5419091463226436, 0.6490648597675929, 0.1665147029114578, 0.1649380201777714, -0.7557450724242523, 1.0, 0.436156629480402, -0.023208770347413556, -0.8194104419454403, -0.2307242232054014, -0.19432030822077134, 0.73589934062643, -0.48192314464239777, -0.035099215503410414, -0.9999998963868683, 0.2884167035633383, -0.7933633706128744], [1.0, -0.8129542464512993, -0.5400147661771341, 0.01600178843908424, 0.005505947394132004, 0.13946217153227733, -0.9992742513940466, 0.6602932725488988, 0.8429614314723121, -0.935440185052016, 0.4809245598191472, 0.8795471994961551, -0.44674673191806874, -0.8195302090110554, -0.7202146689651566, 0.463136649818677, -0.23223469924268136, -0.6405652393152772, -0.12174337690776134, -0.9953095165760264, 1.0, 0.3218291041761201, -0.2540838025367431, 0.7026622044179787, -0.6783377575226345, -0.11879691089243836, -0.4382617471872108, -0.7389587561130121, 0.2253155346955963, 0.41497143269328607, 0.7602720919378443, -0.3778446049347199, 0.9999918970857661, -0.09275726555054041, -0.9712360146092817, 1.0, -0.6990594753352761, 0.46337562389039044, -0.9546254733600856, 0.905535551070039, 0.44407407876523897, -0.535445217895745, -0.3394499654427203, -0.05765132653384665, -0.5951248304122263, 0.5954406988546235, 0.24502678084212787, -0.6183881923039106, -0.7587910139379415, 0.7764630102058521, 1.0, 0.3434171762105714, -0.8516299144210546, 0.11048726880521238, -0.6021773397454823, 1.0, -0.3953203580907891, -0.999523993484032, 0.4635095686310669, 0.2159300387617634, -0.23149107942328975, -0.2605331147144754, -0.4347268889757715, 0.8016111861316436, 0.8338495707154566, -0.1906934573817241, -1.0, 0.18733159785072206, -0.6590476017582302, -0.1594446893571635, -0.5326583512616525, -0.7206439244912751, -0.03288781105743654, 0.5574225457267891, 0.23901866221817064, -0.9101695146142018, 0.36618465627490204, 0.1825931580779971, -0.49965990064137833, -0.01206131741570866, 0.9223451363008374, 0.34289117827220933, 0.41782686078702186, -0.17999580020906247], [-0.2531882334207097, 0.9999999999999999, 0.5076094645100032, -0.9999999999999999, 0.7685151713985858, -0.6043611779087033, 0.4977685898531609, 0.5268700432295305, 0.783949612909196, -0.3592448341371161, 0.056058043496672046, -0.5979808501843081, 0.152630394243111, -0.5126946492908784, -0.41023624620057786, 0.899310810311051, -0.6212556360759459, 0.9992964341212612, -0.9999691401263132, 0.46855262593183655, 0.607335798029797, 0.4251093655733609, -0.31713011791875306, -0.678023739364371, -0.9982542364194318, 0.19997069075917456, -0.5784363644279484, -0.4698176554651751, -0.5189868835952146, -0.7370828754231279, -0.8404468513207466, 0.8972495175071576, 0.8011540040214568, 0.7870337486614805, 0.4176155115789792, 0.5887327720422209, 0.19277747030019626, 0.5327417479054123, 0.7477968426789944, 0.4598251760450442, 0.8993279256924598, -0.3894385577019305, 0.9999909373771579, -0.042229290516316256, -0.019100115161909837, -0.3706521613920426, 0.5895538072832566, 0.2913646555867323, -0.9992165369807577, -0.05146943244961096, 0.7241569716566523, 0.31134466557619056, 0.17522872630467928, -0.7127458154964474, -0.20684592506535912, -0.8057518364665491, -0.22769090310276635, 0.37992150257467533, 0.039635922640987774, -0.40157574191677986, -0.014296121427822177, -0.2005727574925867, -0.22815871101204277, -0.4059780548128131, -0.12854312062604595, 0.09220682693350588, 0.9855969814592815, 0.5951712586348636, -0.658504154454535, -0.4200963017498891, -0.5447601539008327, -0.586693714079189, -0.9999999999999996, 0.026636953587811645, 0.20485088203420204, -0.15787727568236617, -0.18109507637959404, -0.0555579752210534, -0.1014848690960118, 0.08081354796041863, 0.5342922496242012, -0.3673803725764213, -0.7489423336050961, -0.299930053593334], [0.6004310972686195, 0.6035679507352613, -0.08370268781587527, -0.9750212568268651, -0.26200496871326023, 0.2322776096863483, 0.060811070070653866, -0.8635448740898505, 1.0, -0.969351063999619, -0.9999999999999999, -0.34284847490415854, -0.18996119312070833, -0.8373513810331079, -0.653585690585005, -0.3520679177256229, 0.2764556530056653, -0.2549045345225288, -0.7939493940257287, 0.9483023461162786, -0.3114081499830032, -0.6967354248328178, -1.0, 0.2027986590189395, -0.6067893537557321, -0.9983802640646601, 0.9312662023542436, -0.4116881623948455, -0.22840400510905343, -0.08744064494091264, 0.1119286843316128, -0.338396006653439, 0.6606829532590519, 0.05753915741376735, 0.5671006708978296, 0.6860981394062831, -0.13451517374068322, -0.7392568933012065, -0.059779058490741166, 0.8289635899343121, 0.8304587661408112, -0.026554414452590783, -0.8800568670780141, -0.08773367857064769, -0.7358995696824366, -0.9998726619400461, -0.5132052531918694, -0.09262692675362855, -0.45199714307116523, 0.34902803050842673, 0.999999999999999, 1.0, 0.7940210095727995, 0.24744620282362334, -0.317140954360886, 0.23251348763882457, 0.011147964129285487, -0.4743175465539501, -0.12481367955900902, 0.6264323238674043, -0.530443958879371, -0.9997858760136858, -0.10053670389398195, -0.5856985458605362, -0.8016041608484208, -0.5124436484437374, 0.1451829290298291, 0.9994312886954009, -0.08006525998270524, -0.9999730899014967, -0.9999999999999998, -0.05798570574913376, -0.40289208329506887, 0.8862889705376277, -0.9170529031568735, 0.9999999999999276, 0.34247545767835025, -0.008863893956052813, -0.22606709358531218, -0.6202300311339408, 0.4929869691500473, 0.28640547442259034, -0.5736576102420572, 0.875560072784295], [0.5194200048802391, -0.1966257039301065, 0.2425024646661041, 0.7959986703906576, -0.11449110139681502, -0.9999764626340494, -0.4124459663432686, -0.8779714867337678, -0.7501627754177409, 0.11889263123464053, -0.4556402649107081, 0.5861611760126066, -0.4716216271171393, -0.8244686551892775, -0.9117759560769211, 0.25564194377080385, 0.4176667707687263, 0.6130320631633082, 0.7945433903104562, -0.43685006225811684, 0.3735604426321353, 0.2570243445379178, 0.8880543383722992, 0.5110253510300912, -1.0, -0.167766274453101, -0.9079919241272135, -0.10907332910350612, 0.19296289925707827, 0.9447654379807375, 0.4804354055859919, -0.20064385977028174, -0.9999999999999993, 0.999247890698463, 0.5585207015491006, 0.5306741638842465, -0.15446886137071977, -0.08479073122570412, -0.18288640075163187, 0.3570565857478731, -0.6721065164306245, 0.33391314427779256, 0.4908434257752844, -0.046638198047897664, 0.9414169957334236, 0.6007559615125031, 0.3551371619189081, -0.20661146312410997, 0.10822091543507233, 0.7445376975303036, -0.9386606320920454, 0.814664959619932, 0.24157314890654322, 0.1081884541877629, -0.7436575125289133, 0.325848506350094, -0.2573158524994533, -0.134522299946815, -0.09978996246582723, 0.7507772463256797, 0.5522500873446814, 0.9212931962457369, 0.5706490841632981, 0.4565227064944925, 0.6300273297949709, 0.8442305461969637, -0.23236420007784936, 0.012555280399290396, -0.7324300746674685, 0.18540223385809565, -0.4567921980716292, 0.003012746796162107, -0.5402573546384878, -0.8403792443967828, 0.05769526018916864, -0.5797518597894401, -0.6200554999086328, -0.05393440777433392, -0.3994100199638654, -0.7990037979115371, -0.06793946033831162, -0.5966914339715395, -0.4942004467882425, 0.06665449168149283], [0.840989889097631, -0.024144954602993145, -0.7647125064795606, -0.34869728521712917, 0.6107562643600368, 0.47405429463430976, 0.9173437881231746, 0.28784501443688526, 0.2412830212942141, 0.9250680924623174, 0.25985180367234934, -0.12524078616963227, 0.9981198652384387, 1.0, 0.6502774733449495, -0.10148093281392467, -0.9916278096988225, -0.9764589496638402, -0.4950837851063945, 0.3107690574546254, -0.025795176253732368, -0.8999991496443837, 0.4293095354125403, -1.0, -0.43099541556607746, 0.9669144260668917, -0.9114730182744183, 0.3153159371191961, 0.4530113935821577, -0.5471557109213135, -0.6364371562620865, 0.9999999999999997, -0.02330761599757699, -0.5605511794642236, 0.6456097024637352, 1.0, -0.7038763870914557, 0.592031612871925, 0.15077123491990993, 0.10968414389778577, -1.0, -0.4919476660120209, -0.6609117845195515, 0.8124733595426435, -0.26393497286988243, -0.9478736792782868, 0.20690394277612434, -0.09280617630598875, -0.9659904927598517, 0.3358472362972936, -0.1462712224545805, 0.004311687073783491, 0.1315527360782889, 0.24533557076941453, -0.2548248984231322, 0.45032329301657936, 0.7849269259374083, 0.18060815846649345, -0.8180294876720934, 0.3847559324522689, -0.2740643775983683, 0.18185030782482695, -0.33657527880927257, 0.06177679276316614, 0.40069789413354645, 0.7172500777802434, 0.5504732633216011, -0.4394000934814594, 0.2287551512283993, 0.1268078330611235, 0.3360756814656951, -0.25552671303894325, -0.8225504658205273, 0.2407938548310473, 0.9947115712325753, 0.8339549719003755, 0.9999929088113367, -0.3903265268351685, -0.4319205918438831, 0.965104539344247, 0.7005579830454548, -0.731351587631784, -0.30157484276236735, -1.0], [0.8097625128482115, 0.3690764828669305, 0.6809864288177857, 0.12311455131017915, 0.999136363974733, -0.7661548191847333, 0.11056366515908467, -0.8579542679884858, -0.018780883879240578, 0.7683581669625038, -0.08203802302650641, -1.0, -0.28724973733767634, -0.999999999999999, 0.6050127429288131, -0.2566476713882451, -0.1688279273198885, 0.2071667361231366, 0.9904203628079401, -0.7080023566621665, 0.9457514584141337, 0.8809508871304689, -0.2857953399792993, -0.12010451698359237, 0.33760488188158233, -0.999924227227315, 0.10093854589708592, 0.9996744858635134, -0.06309977556033444, -0.31461615765441536, 0.8452897704479196, 0.902090766755349, 0.1912958560191083, 0.24485934326074366, 0.6845709703485868, 0.13739522795205195, -0.06752826384866083, 0.09168674940107459, -0.5765212683290044, -0.4953872027862003, 0.2733655521918203, 0.302809234618956, -0.6487865086122655, -0.8550496265271617, -0.6683574010157276, -0.6745833442102742, 0.9915103378448147, -0.14795061015045322, -0.06293178581256169, 0.05420680908417525, -0.1230898068706873, 0.8419263334304661, -0.11812451856226572, -0.17468136505218135, -0.3604919426005585, -0.4238530482572517, 0.016534038350059413, 0.5114828492066569, -0.5627660471037625, -0.7880926359784185, 0.15791467159698228, 0.007417001591412197, 0.20316173918317101, -0.7946003944559161, -0.06821800806956414, -0.2462882896607582, -0.4225411717345044, 0.19936067386697048, 0.6837669425826459, -0.06241044481567598, 0.1730903269937863, 0.14483247636391372, 0.9999936589439326, -0.2729207378258726, -0.27551286897004723, -0.9999971240300142, -0.9985825852017528, 0.8627878069935017, 0.2728710277540903, -1.0, 0.06603097855652999, -0.6643111028090882, -0.20321861527145388, -0.9986682453857442], [-0.1271618455346633, 0.5133879145143473, -0.39907258416088165, 0.1919809727247552, 0.1561801873528374, -0.29703867192035094, -0.6716164669096989, 0.4456879136192669, 0.9989240634282955, -0.0699494761487247, 1.0, 0.11822580058506643, -0.32561931794928145, -0.8396267469405333, -0.6184993440389798, 0.4575377829769501, 0.5365123574261429, -0.13211583541916141, 0.9994283811150214, 0.6869424569148562, 0.5267019242951978, -0.2917195501244947, 0.9213785186779828, -0.06393203862977637, 0.5592675995148766, 0.34410105244344086, -0.7495337701872775, -0.5291651287835786, 0.3208001726410205, -0.04423859856749897, -0.22388481491315826, 0.6854215409401189, -0.9225776478955909, -0.6015515837860804, -0.6325658688256903, -0.39565628602449265, -0.42570506249116324, -0.5944123969215392, -0.7525280383666383, -0.31626768161501756, 0.7129234706857999, -0.997371989269797, -0.6379381563094932, -0.14245206149742665, 0.10083210299030147, -0.8330750349139523, -0.26266243137210726, 0.8326465281825687, 0.11027062034967784, 0.22909323740803453, -0.0608038417321471, 0.33597782366363405, 0.11853540035446514, 0.2567255442906286, 0.9989321661500797, 0.523952726520819, 0.763285807870532, 0.8065104574936536, 1.0, -0.9999805029748394, 0.9881594028704055, -0.8472593766585579, -0.8074633359008957, 0.5830676135337657, 0.99999997020421, 0.4377977061482746, 0.5403418721936506, 0.999538496005578, 0.9999998304397605, 0.7055244680193512, 0.7883977679177557, -0.91977773642338, -0.9999999999999998, 0.24867785984274704, 0.06210012704099488, 0.6931190540026433, 0.10181874325077386, -0.05297046385465157, 0.8041451935809396, 0.44675318157752997, 0.9971532889487794, 0.7804769401825469, -0.06246182410363038, -0.9333211737606004]], "w2": [[-0.22614757255232978, 0.3145030649106183, 0.9772537704715717, -0.45561543296494267, 1.0, 0.1988428733034164, 0.9188413454016713, -0.28995941346855775, -0.9945407982944381], [0.29456396337463, -0.3768612915746424, -0.507112831055244, -0.1668865404217888, -0.9132056317359517, 0.5453333035481048, 0.4481617076517287, -0.5615478669163138, -0.2839942125157506], [0.6865904719811756, 0.7311748910070883, -0.6925535178890752, 0.34396138743643306, 1.0, 0.05657648893686683, 0.8302532991161152, 0.013491028253643206, 0.7104187655698715], [0.1837376393154945, 0.9999862871354923, 0.7444116374638898, -0.6750873177444743, 0.7997307084141005, -0.7321804463473838, 0.1617919769844023, 0.10424246866835435, 0.7344760742783432], [-0.44827019979369576, 0.6501816921917319, -0.2658709487931962, 0.2928217555788766, -0.9364958799755957, -0.3301925322501933, 0.4914045197449017, 0.6736080887184405, -0.12666496282163578], [0.6725727247120727, -0.17622168342932723, 0.9251849344309295, 0.6209907463016254, 0.5025286150374584, 0.5074134523259213, -0.20127328839805772, 0.26423833969784616, -1.0], [0.9914252778535694, -0.027324873763240536, -0.3180245502510864, 0.6069458167725261, -0.7022897856943046, 0.35984132777540284, -0.9883551584788203, 0.26505949700387593, -0.9999999999973807]], "b1": [[0.6931959521643845], [0.9555596884553134], [1.0], [-0.5931558773898286], [-0.5568834517584225], [-0.10904519759141384], [-0.27059291246455885], [-0.041011974290706646], [-0.2658655926191003]], "b2": [[-0.6823989141004044], [-0.8797301309464048], [0.3956210088775735], [0.68038263511962], [0.7672569639600945], [-0.9775400522042367], [0.14082190010005435]], "fitness": 3684.0, "best_pos": 8.0, "best_status": "tall", "score": 1900.0}