{"w1": [[-0.1769541712874783, -0.1670862700003228, 0.2100119748274753, -0.5464352914530831, -1.0, 0.12993863963957716, 0.15081673623520386, 0.6968549693306062, 0.0072984706819373794, -0.7443089289177086, 0.13863718793954136, -0.999999999878247, 0.27006015947165274, -0.8938372360242773, -0.5688921592512294, -0.26257735839064816, -0.05294018373329255, 0.015561354420275475, -0.052887003574010584, 0.15075397619474667, 0.1029420059692914, -0.8655232665330989, -0.301877387809171, -0.25492329705527944, -0.2912343384537579, -0.2818921396277037, 0.7743826179036706, 0.4565251290008921, 0.7296785099129769, 0.29991866981823706, -0.0028043248184965314, -0.7300441310427187, 0.06827355883513418, 0.14838264359788098, 0.267228728368933, 0.8622078615885705, 0.5468231641471042, 0.619646952953532, 0.6490935528760988, -0.9720900253129565, 0.5177815160968591, 1.0, -0.7294867353489135, -0.5777722118363132, 1.0, 0.37415022698824896, 0.0625227174354453, -0.4211971419240862, 1.0, 0.5160213846733689, 0.8855448750635495, 0.1949878316199856, -0.49104918176382495, -0.2988286559839111, 0.5738851741988618, 0.40045179910551515, -0.8746237017961925, -0.4847426417762047, -0.7791616450268177, -0.7271482898309174, -0.05626636964059193, 0.8261627336311492, -0.7248324161481676, 0.7075080562530088, 0.711589455969509, 0.970609882646996, 0.25266988749263725, 0.7098893162059676, -0.03709709305096831, -0.5952599738333374, 0.4409072979462424, -0.0782670176819352, -0.6776864859328117, -0.7885041431157066, -0.09459428778099321, -0.4946836354302331, -0.07084188398888984, -1.0, -0.9988424438628826, -0.3170650442643015, -0.11093296705147371, -0.999999915256738, 0.8173185729433868, 0.5639371054706417], [-0.00492236140369919, 0.9714855430371049, -0.23283839654781402, -0.6578485726513337, 0.16359850482383748, -0.8808993077009124, -0.4334584082680562, -0.6900096666349637, 0.348785813123711, 0.42049581696305405, -0.14746497336077713, -0.140801307160067, -0.8220094670808096, -0.6386665347158258, -0.578178462583301, 0.21050932579525433, -0.9790408089174184, -0.24093366882190537, -0.999999922903049, -0.3354894197716194, 0.05590932765400319, 0.6793976479623693, -0.028111211696208695, -0.4080015781085051, 0.9926572151997707, -0.030732608907458672, -0.4247849508367282, 0.49283845915962815, 0.25653928974288, 0.5704351735203318, 0.8348266751199346, -0.2511947336989889, 0.4199804480801322, 0.9528857287631954, -0.6292186559943855, -0.9999983223505651, -0.8168626736956212, 0.9994595013160288, -0.6432165989903507, 0.2530394914634903, 0.9997831127136292, 0.13055621626821778, 0.7614637809095431, 0.18701670944993848, 0.7851875809928526, 0.6351338651442859, 0.7179466755843443, 0.9990028251643802, 0.8100822609962886, -0.7759385650980488, 0.21388748741202407, -0.3705108356154187, 0.9047306484828511, 0.3101662908433, 0.9831311240739583, 0.99962604843817, -0.28092427680727255, 0.9087889310529853, -0.3093738746336092, -0.24841748104103847, -0.7564372452935402, -0.10197287256138399, 0.7755295082050713, 0.44249142464273133, -0.7434813370939267, -0.6857391096752399, 0.6241962802744696, 0.5400569524150515, 0.6490915695225636, 0.166317717247586, 0.16525333406034196, -0.7556547067010895, 1.0, 0.43615457061507035, -0.023132350313792863, -0.8194088838057219, -0.23072422320159272, -0.19432030830431618, 0.7359064643117852, -0.4819219384905214, -0.03509921547128689, -0.9999998963868685, 0.28825576546282633, -0.7933587076669425], [0.9999691012665928, -0.8129542464518799, -0.5394502989698812, 0.01600178843908423, 0.005505947394132015, 0.13946217153255253, -0.9992743182036253, 0.6588789346801541, 0.8436543084866868, -0.935440185052016, 0.48021708661921914, 0.8795471985409732, -0.5073941011507305, -0.8195297534541912, -0.7202147614815344, 0.463098803884318, -0.23145764413127493, -0.6391109116987608, -0.12174337638094758, -0.9953095571344227, 0.9994200546977704, 0.3218300400929318, -0.25408380253674284, 0.7022145353015783, -0.6783377575226343, -0.11921475051032436, -0.43868237151935763, -0.7626345336740825, 0.22175272480785063, 0.4149714326932792, 0.760272115011239, -0.2668905549044617, 0.9999936119702737, -0.36903873257918385, -0.9714098574226712, 0.9819514754579459, -0.6983896268686473, 0.4643221926657732, -0.873675129530279, 0.906774891403656, 0.3612334908534255, -0.5354517518787485, -0.33944948571008904, -0.05765132653391331, -0.5951248304122263, 0.595440705870439, 0.2451151436838811, -0.6177805007449905, -0.7995848995205566, 0.7764658339532622, 1.0, 0.34341727662762866, -0.9641555396236017, 0.11047343273289105, -0.9013313020559475, 1.0, -0.3943091654272072, -0.8800434923397277, 0.1423781233408141, 0.21593003876176348, -0.23149050333185234, -0.18941672373912538, -0.43472688897576994, 0.8016112786188855, 0.8338466094286382, -0.19069347242380674, -0.9999999999999999, 0.18733159795079915, -0.657301575050714, -0.15965937498355437, -0.7581544606516077, -0.7206440898289941, -0.03575365509287966, 0.5567877531824511, 0.23890501770892475, -0.9101694320360694, 0.474598451519197, 0.18259315815714344, -0.4993795925095006, -0.01283449577972741, 0.9218808393382754, 0.34289117827298976, 0.41782782288507897, -0.17999580020906156], [-0.253188233754676, 0.9999999999999998, 0.507609464510003, -1.0, 0.7700661396708922, -0.6044261361414298, 0.38235532427715446, 0.5268699050070249, 0.7839529515887079, -0.35912440009249325, 0.0560587994059901, -0.5973998543836883, 0.1526303943329702, -0.6171438103731054, -0.41023623175037416, 0.9009458539301889, -0.6222239263444294, 0.9992959044485583, -0.999969135576455, 0.46855009412513055, 0.45457370310120365, 0.4255064754552929, -0.4135756935328572, -0.6760760079115536, -0.9966877742737186, 0.20072613418370686, -0.5784354851546866, -0.4697599983375889, -0.519234393039273, -0.7368221517672267, -0.8404461528779943, 0.8999907244089458, 0.8011544569327785, 0.7877525347680594, 0.41761551157897925, 0.3949537591268165, 0.35097818021354693, 0.532741747902118, 0.7477665076917435, 0.4597657371376555, 0.8488846082087685, -0.38982246868616294, 0.9999909373770443, -0.1601426268187763, -0.019921481176907004, -0.37062090219881977, 0.5895798727296142, 0.2913646433698027, -0.9992165369807579, 0.13261015957121408, 0.7241569665633966, 0.31120237258048283, 0.23997361330863023, -0.7121934789433466, -0.010695084667845633, -1.0, -0.22829564918878048, 0.3799395011147816, 0.042674852488906484, -0.7433927930434223, -0.0152842541084933, -0.19963290900036848, -0.2281643452299366, -0.4059780548128812, -0.12859096373985032, 0.09203936337573272, 0.9855972501772567, 0.5951712586348636, -0.7221219927618077, -0.4200932604566196, -0.542955564116655, -0.586693714079189, -1.0, -0.012054442616836067, 0.20469287074876014, -0.09001089848387905, 0.06749559450456522, -0.055557975215416916, -0.16601884239993553, 0.08018856340332857, 0.5346600685090276, -0.3677480850525209, -0.5478525254484984, -0.29992832344292014], [0.6004308416376194, 0.603567986789654, -0.08370280032979804, -0.8760574756865608, -0.2622716339666574, 0.23487589623989133, 0.060590941209182646, -0.8635448961586777, 0.9999995233792827, -0.9693506467914261, -0.9999999999999999, -0.34284845884997606, -0.18996364988722614, -0.8610777322805798, -0.6535800180381071, -0.3521823683954533, 0.276455811294353, -0.2544493148768079, -0.7939493940257237, 0.9483012916931528, -0.3114081499830033, -0.6967630724468366, -1.0, 0.20279446130489562, -0.606789353755738, -0.9990300295568176, 0.8914145194962432, -0.4116896758758834, -0.1563434464568279, -0.08744272806457556, 0.11259371861727584, -0.3383960065718791, 0.6605584511125033, 0.05753553951375061, 0.5676904193292927, 0.6852636084043034, -0.13465980015308796, -0.6096993968408312, -0.059683270005815546, 0.6227756354035765, 0.8304583727089971, -0.02608206556326462, -0.8793450215890571, -0.08773367232555862, -0.7349894852360672, -0.9993935458180402, -0.5132056560900012, -0.09262835517148572, -0.4519971430692153, 0.34902803050842673, 0.9946609000516455, 1.0, 0.7940277466074909, 0.2474458153661764, -0.3175271941113446, 0.2277116376967559, 0.012896201892499392, -0.4738971713387714, -0.3231074156807345, 0.6239759400310563, -0.530443958879371, -0.9997858760136905, -0.10168575251343386, -0.5856978185325936, -0.8016829916614082, -0.5126312909914945, 0.6140089449904687, 0.9991534297823316, -0.06373438837114953, -0.9999728593188516, -0.9999999999999996, -0.057979419576114785, -0.40290480174061116, 0.8862889705377096, -0.9135081523529048, 0.9999999999995856, 0.34247545767940774, 0.058206080179900505, -0.22606482727438673, -0.5824288462959962, 0.49298574538577644, 0.3699209506653406, -0.5737201639183804, 0.8755600727842139], [0.5194200048802076, -0.19662283418357512, 0.24250246466957054, 0.7959986703906563, -0.11449110146404028, -0.9999764618741316, -0.4884198142634376, -0.877973854470662, -0.7519228296863604, 0.1189545390113444, -0.45450747728264274, 0.5861560573416273, -0.4715862448033009, -0.8243730112759182, -0.9117647355378161, 0.2556419437727436, 0.4176650125130376, 0.726886806740487, 0.794543390357535, -0.4353914169071329, 0.37423905422118514, 0.2570243445379179, 0.8886675064162044, 0.5110260174146714, -1.0, -0.16764686709658025, -1.0, -0.10907332910360992, 0.1912618108706247, 0.9999999999999999, 0.4808410337145758, -0.2006483781968587, -0.7773408684102928, 0.9992458381284889, 0.5582322944353367, 0.5306737549698514, -0.15428653233434217, -0.08526184622841719, -0.18275243846193553, 0.3571451203806131, -0.6721065164293211, 0.33391345283346224, 0.48961229317402705, -0.04663939173832052, 0.9414185636962213, 0.7388949411318839, 0.3551371617865156, -0.20610109615598157, 0.10832052919106959, 0.7445376975230344, -0.9386606320947145, 0.9196204904514428, 0.2419012582493768, 0.10818155878175659, -0.7434230036888816, 0.3258485063063171, -0.17292445585499144, -0.13432284696635882, -0.4626601249845095, 0.7528008058355873, 0.5523162292412933, 0.922459124004359, 0.5677886229711361, 0.45585561768457067, 0.63002732979502, 0.8442307492972173, -0.23236420007784936, 0.4147341628474289, -0.6492074797454577, 0.18440457979601457, -0.45679219772031066, 0.1436325321473966, -0.5402573546384878, -1.0, 0.0576952601891691, -0.671848385532789, -0.7095794695852196, -0.05393448146348451, -0.3991139044936498, -0.799000631076451, -0.06800032760946043, -0.5956996869228398, -0.49420207540216887, 0.06665511750788021], [0.840989889097631, -0.02414495460297793, -1.0, -0.3486930557237634, 0.6098822520883184, 0.4731599372533784, 0.5585827154202431, 0.28681889502502805, 0.2412167871422037, 1.0, 0.2581279568258381, -0.12524347216767662, 0.9981198652384309, 0.9999999999999999, 0.546564804928279, -0.10079688081674891, -0.991627805681606, -1.0, -0.4963362275338798, 0.41468913989142225, -0.025795176253620617, -0.8999851486674604, 0.42930953541254036, -0.9982433110309997, -0.4317282324313688, 0.9152568190581094, -0.9126532829146932, 0.32318690936631933, 0.4511769843627969, -0.5471695091677538, -0.6364401294972389, 0.9999999999999996, -0.023193440071083708, -0.5605557417549106, 0.6456097024637352, 0.9999966885378175, -0.7038763870914573, 0.5920187578533267, 0.15292901771636305, 0.25981810789341914, -0.9999957177336407, -0.49195027159871474, -0.660911784510647, 0.8111328559384696, -0.264141752131226, -0.950226337327376, 0.20690442021346397, -0.09332482636451421, -0.8845162455154366, 0.3355108479937601, -0.14692763897145072, 0.004311770491323473, 0.13155273587280547, 0.24540532157732, -0.0027125190480470907, 0.5557568077646244, 0.782301027671392, 0.18060547274817537, -0.8180294876711675, 0.38475593245622136, -0.2740643775983684, 0.3768415787617356, -0.33692112823621817, 0.061021386639209335, 0.40069677355928424, 0.7172500930333693, 0.5504699967819277, -0.43952305861646135, 0.22807821108737383, 0.12475944957283455, 0.33620913933809127, -0.2784776395867984, -0.8234041719778602, 0.24079385483368299, 0.9947115840791677, 0.8339549719004914, 0.9999927408811496, -0.39040253561094984, -0.6293283482566162, 0.9652684652160237, 0.7000994803185095, -0.7313515821996504, -0.30157484276016017, -1.0], [0.8097625128247639, 0.3690764828669008, 0.6802372907361122, 0.12357996049574317, 0.9991363639747353, -0.9375779867902604, 0.11075032808208188, -0.8579675140806919, -0.01848895522297424, 0.8723305542488164, -0.08203783353750067, -1.0, -0.28655151405569185, -0.9999999999999989, 0.6050124800690966, -0.25664435302223576, -0.1689023577595837, 0.20716792493198297, 0.901905731775333, -0.707846076261091, 0.9457819563253059, 0.8809508871380303, -0.28579533997929985, -0.12001489661886404, 0.33801416501609105, -0.9998814754667047, 0.10087604746465287, 0.9996193812334201, -0.06332379828474959, -0.0638144546051016, 0.8452891853060178, 0.5219772056254599, 0.1912954918181396, 0.42527850679497037, 0.6845755106113752, 0.13694463023336537, -0.06746476167421597, -0.16183332728826322, -0.5765212793785562, -0.4955445993497762, 0.2727615980159545, 0.3041079163754798, -0.6487865086122654, -0.8550177469864706, -0.66835740103012, -0.6707620456320796, 0.9915101201930616, -0.14795017737286956, -0.06292980845656627, 0.055221288496332704, -0.12256456371609582, 0.8419175452942723, -0.11827361983634133, -0.17468149495878948, -0.16358989433267254, -0.42368855521341386, 0.016534042044499576, 0.5114826360636188, -0.5631350220099477, -0.8130073213661817, 0.20611444840550444, -0.29076470299971174, 0.20443558200626172, -0.7939262416202243, -0.06821578387770794, -0.24628828966075825, -0.4225410328256947, 0.19936090958257388, 0.6837591099201082, -0.05730358322378064, 0.17319193979567174, 0.14483266591716165, 0.9999936588586518, -0.2722390141337292, -0.11413728331239847, -0.9999999999999999, -0.9999999999999999, 0.8628178972622191, 0.27289060346016825, -1.0, 0.06561018426373288, -0.6643392906380036, -0.3039134350232746, -0.9986682817497466], [-0.12716184553301987, 0.2057694171153, -0.39904578730644785, 0.19674756561807832, 0.1561384891345941, -0.2970372837380355, -0.6714496739751825, 0.4458646221104661, 0.9989240640109656, -0.06929583911243538, 1.0, 0.11822580058506643, -0.3255979831687946, -0.8396268922755044, -0.6202455971211674, 0.45753778297731695, 0.5365096967544595, -0.13146776269086888, 0.9994285484422979, 0.6869424569148561, 0.52690466502879, -0.2897692780155909, 0.9210574571934854, -0.06557502109266065, 0.5598013827084141, 0.3441010524434409, -0.7495337701872774, -0.5291651287835786, 0.3207972308041051, -0.04330980680017212, -0.22388038861259738, 0.6854215409401827, -0.9250964873937801, -0.3832465219872855, -0.642727797566052, -0.3956562862227774, -0.4257050602298452, -0.5905957297563413, -0.7525418301083516, -0.35611121611150504, 0.7122636507579884, -0.6563235904665181, -0.6379381563094931, -0.14248021671289182, -0.14139602064713466, -0.8330750349486474, -0.26232134451624356, 0.832128163758757, 0.11027062034967783, 0.41001377691000784, -0.06080409897415353, 0.33567225243807425, 0.11870444192468195, 0.4274738118414408, 0.9989308943866856, 0.5235822516124847, 0.7630929588189496, 0.8054058224133895, 1.0, -0.9999413304281588, 0.9885224949150904, -0.8972618527843668, -0.8076258932070899, 0.43066263062657595, 1.0, 0.43779570964504, 0.5426396012459993, 0.9995384918598783, 0.9999999999999999, 1.0, 0.78839825280333, -0.9194405290797953, -0.9999999999999997, 0.24888128628878492, 0.05861094989624153, 0.6931190540045737, 0.10191928014298374, -0.05297367055085406, 0.8041434538256748, 0.5979445137982501, 0.9971532889478381, 0.7804776330454348, -0.06316189658189385, -1.0]], "w2": [[-0.22614757255233, 0.3144766127486808, 0.9768621516270684, -0.4553193491477242, 1.0, 0.1988424949111343, 0.9188305210447546, -0.2900580147974537, -0.8802860770282008], [0.2945643795820712, -0.37617614959931645, -0.5071124918985398, -0.1690913006770141, -0.9123886848175914, 0.5453333035481048, 0.4481331605329099, -0.5615506566962856, -0.2839053759776294], [0.6865904719811756, 0.7308190290747707, -0.6931323973314006, 0.34317099701293124, 0.7828666098668463, 0.3758149673628954, 0.8302532990922242, 0.01349102825364556, 0.5200166868239037], [0.180070931765769, 0.9999862871354923, 0.7444234758886141, -0.6744187403784059, 1.0, -0.7326191507907205, 0.1626919295758328, 0.10403595804888718, 0.733636002156486], [-0.4483005224981879, 0.6501816921917687, -0.2658818516695604, 0.2928225712453475, -0.4760085919392616, -0.3301925569161112, 0.4921301876866359, 0.6736047133689999, -0.1287134569458897], [0.6725727247120729, -0.17623982918896033, 0.9242965473624832, 0.6210233004387726, 0.5025285432985185, 0.5074134262888512, -0.20127328839867362, 0.26383204689920187, -1.0], [0.9894142492288107, -0.023659906980966088, -0.3181370421255495, 0.6027315398576497, -0.7025758242413156, 0.3611961627423992, -0.9883552407662839, 0.26505728503004783, -0.9999999999724315]], "b1": [[0.693195952137652], [0.9555589284962688], [1.0], [-0.5938109478853361], [-0.5544343962334815], [-0.10904693043720355], [-0.27073139443030464], [-0.04101371668192248], [-0.265865752104053]], "b2": [[-0.8260807935445227], [-0.8797301300334711], [0.3956210088858674], [0.6804057974105231], [0.7699865891482011], [-0.9660518759491808], [0.1408222932045085]], "fitness": -409.0, "best_pos": 0.0, "best_status": "small", "score": 0.0}