{"w1": [[-0.14884172364366036, -0.1670862700003228, 0.21001376791650228, -0.4449805503846538, -1.0, 0.1303540592346514, 0.15040524878781017, 0.6965669678219819, 0.007290853578833439, -0.7443874603521153, 0.13864152623831164, -0.999999999878324, 0.14331074634294003, -0.8938376145918809, -0.569142347478623, -0.26318020464199654, -0.07361158942375022, 0.015561354420275475, -0.05127175553542809, 0.14823628714441875, 0.1029403775500456, -0.8654981502945024, -0.3018767356409392, -0.25487636120285534, -0.28965496155682574, -0.1528780895859714, 0.856747364325241, 0.45652499637160304, 0.7296783399320387, 0.29991866981823706, -0.06690481147922489, -0.730043887097398, 0.06827355883517407, 0.14838045299147093, 0.267228728368933, 0.9160044155303267, 0.5468285379466542, 0.6196456065891055, 0.6490866045961552, -0.9721522359617119, 0.5177815162037571, 1.0, -0.7295133348977936, -0.578528559095197, 1.0, 0.37833906937620965, 0.06252331154990856, -0.30052826582202025, 0.9341630186466833, 0.516063048011462, 0.885522454012752, 0.1946881263386018, -0.4916251837084378, -0.29985374010981103, 0.5752594564686505, 0.3633514340437078, -0.8298627329840803, -0.4132458975902737, -0.7790064960768135, -0.9466174026504169, -0.3439737247149087, 0.8268174588859688, -0.8563948847375699, 0.8416443690492107, 0.8900592768114466, 0.9706098826469961, 0.1459979290691069, 0.7107824084374641, -0.037307753087442955, -0.595288165331082, 0.44090919082496133, -0.008791988898227368, -0.20618641002023555, -0.7886017685849167, -0.045264106780161684, -0.49468690426878026, -0.07093249109526313, -0.9519969821520207, -0.8541986221851805, -0.6567502183612507, -0.11093125215670858, -0.9999999152565952, 0.817321505681498, 0.5478561921750735], [-0.004971641616217915, 0.9720222312251358, -0.23283839654781396, -0.657314812741696, 0.16240698143234714, -0.8799593178882588, -0.4333848552371702, -0.6900084952891178, 0.3492860791795754, 0.3591761501773298, -0.05428969355621397, -0.14104582236652208, -0.8220094670808096, -0.6386666755626718, -0.9959352548485596, 0.49383754156021464, -0.9778337360150734, -0.2408079912677623, -0.9999999208193381, -0.5137330549140651, 0.055908528477188225, 0.6794054912277269, -0.028237712555903717, -0.4073651499416027, 0.9390889740039098, -0.030456328184474312, -0.5746316018780472, 0.4928525174491001, 0.2565392897428798, 0.2729365583143697, 0.8197308575839355, -0.251198107202302, 0.41998035569513864, 0.9528857219895689, -0.6292186559943854, -0.999999996620371, -0.8364220265696881, 0.99945944011904, -0.5628946244547413, 0.2563082651723501, 0.9999951889549719, 0.20145685410381187, 0.7614131363007726, 0.1874871870950903, 0.48301690450204854, 0.6369280351367126, 0.7187412185086668, 0.9995931933815341, 0.8100822609962957, -0.8865731093526011, 0.21388677481631777, -0.37051083560466097, 0.9047306484828511, 0.31016460597305745, 0.9831064441434458, 0.9996278700060593, -0.2278518562745942, 0.9087889254743564, -0.7907536369029463, -0.24665199449969602, -0.7556331563787593, -0.10197514113650323, 0.7778075360534918, 0.44245379779599675, -0.7438025418394765, -0.6869168135649608, 0.30403167407418025, 0.5418134885784087, 0.6490648286544172, -0.054072841703896285, 0.164939391426984, -0.7557448657402094, 1.0, 0.43641068947303996, -0.023208391258504137, -0.8194104434792505, -0.23072422320540129, -0.19432030822105598, 0.7358993375703846, -0.4819231454063843, -0.035099215503431015, -0.9999998963868681, 0.2884176413848376, -0.7933633744496624], [1.0, -0.7286584078473684, -0.5400183545351841, 0.01600178843908424, 0.0052430647417069575, 0.13968946977107244, -0.99927425158293, 0.6603130099034746, 0.842947115917998, -0.935440185052016, 0.48092099966228385, 0.8795471994915598, -0.11369679011849543, -0.8195302112503007, -0.7202146686816289, 0.4631366169184038, -0.23223435677909454, -0.6405638207718858, -0.12174337690453234, -0.9957900773725262, 0.6393256606105857, 0.32182910161673633, -0.2540838025367431, 0.7026513248678721, -0.6783377575226345, -0.28339030260727344, -0.438264319012986, -0.7389867621306868, 0.22532010561699423, 0.414971432693286, 0.760272091938531, -0.377862868797834, 0.9999918758585814, -0.09153293311395448, -0.9712358123410171, 1.0, -0.6992666173569134, 0.46338519319155536, -0.9546242233180496, 0.9055382697554117, 0.4440742849915186, -0.5354387115724106, -0.20945544796941334, -0.05765132653384654, -0.5439301604843638, 0.5954406989473037, 0.24502940181627547, -0.618927844900852, -0.7587909043307147, 0.7764629997248397, 1.0, 0.34341717570471475, -0.8531303155476584, 0.11048721286722055, -0.6021308039667094, 0.999999655901352, -0.3953298110073338, -1.0, 0.4594866648348887, 0.2159300387617634, -0.5592261970442682, -0.2605436638706092, -0.4347268889757715, 0.8016111857227162, 0.8338495604302151, -0.18531876126566532, -1.0, 0.18733159785126005, -0.6590448545943381, -0.15944513325744766, -0.5331190948323254, -0.7206439250176213, -0.03289523266400627, 0.5574193960130466, 0.2390171385893807, -0.7162063602091426, 0.366177845586, 0.18259315807937346, -0.4996578002263569, -0.01206848311355395, 0.9223397877411807, 0.34289117827220783, 0.4178268665113061, -0.17999580020906247], [-0.25318823342352886, 0.9999999999999997, 0.5076094645100032, -1.0, 0.7683833400870134, -0.6043612866230106, 0.4977685898421962, 0.5268700431814575, 0.5570437784531335, -0.35924511305725015, 0.05605804814156397, -0.5979840819526483, 0.15263039424356886, -0.5126933008753358, -0.3448084069517491, 0.8993682830195473, -0.6212478998445611, 0.9992964344904064, -0.9359862822099427, 0.4685526195506593, 0.6074492913097151, 0.42511159712482993, -0.3171282407454013, -0.6780183917025283, -0.9982529015887706, 0.20006246139544012, -0.5784363697059652, -0.4698169604043231, -0.5189869598715368, -0.7370872295731508, -0.8404468570367174, 0.8966884236544014, 0.8011540045144802, 0.7870402090797515, 0.41761551157897925, 0.5900130055198168, 0.19213165322141185, 0.5327417479054078, 0.7469699722680592, 0.45982500944726173, 0.8993279255309151, -0.3897592905186477, 0.9999909373771575, -0.04476800545281007, -0.18960936796323535, -0.14286135484847065, 0.5895537863565788, 0.29339383242665695, -0.46770037683482935, -0.05146843515417522, 0.7241569716330616, 0.3113475994463335, 0.4768811001351827, -0.7127479266336326, -0.20684624498660376, -0.8057518421373315, -0.22768884416044716, 0.3799217663996727, 0.1201313106530634, -0.2057277639780549, -0.014290291892073549, -0.20056695567378593, -0.22815861032065135, -0.4059780548128129, -0.12854251064693084, -0.10773981487309947, 0.9855969810366856, 0.5951712586348636, -0.6593603461881221, -0.420096305604895, -0.5447556285382771, -0.586693714079189, -0.9999999999999996, 0.026663913100994398, 0.20485130434133214, -0.15776040054198862, -0.18243269044532734, -0.05555797522105287, -0.10148436130673502, 0.0808137022659898, 0.5342943686729769, -0.36719267589786825, -0.7490294835895271, -0.29993005295037833], [0.6004310973858642, 0.6035679507464132, -0.08370268764859168, -0.9750212570568432, -0.261997055284707, 0.23229095324538915, 0.060811951263199736, -0.8635448740539744, 0.9999999971819636, -0.9693510626632782, -0.9999999999999999, -0.34284847520609824, -0.18996119394259026, -0.8370437315570922, -0.6537740707726087, -0.35206799728465193, 0.2764556541054309, -0.25386887957954946, -0.9294513193300984, 0.9483023442256491, -0.3114081499830032, -0.6967353404459763, -1.0, 0.20279860183230677, -0.6095393924487725, -0.9983806830798891, 0.9308612492044439, -0.41168817972172067, -0.22833578940698263, 0.25375022574048, 0.11193179310139767, -0.33896955097913223, 0.6606825841500493, 0.05753915984208859, 0.5670155930333088, 0.6860187159746374, -0.1345160057718773, -0.73807170065908, -0.05977952204270862, 0.8291973917897741, 1.0, -0.026233973764911017, -0.8800515018990834, -0.08773367858483129, -0.7376405778991741, -0.9998742330981674, -0.5132052546139233, -0.09262692854133152, -0.4519971430711555, 0.34902803050842673, 0.9999999973359978, 1.0, 0.7940209988253271, 0.24744619713862295, -0.3171414439444897, 0.232478880363939, 0.011138607194474254, -0.28911944964477015, -0.12481367963100236, 0.6264209429545662, -0.530443958879371, -1.0, -0.10052741872795502, -0.5856985424759327, -0.8020574809011829, -0.512443880585027, 0.14518294205225107, 1.0, -0.08010663497345202, -0.8838532096492526, -0.9999999999999998, -0.05798572539972576, -0.4028920553036363, 0.9049323859117071, -0.9170270709281991, 0.9999999999999274, 0.34247545767835347, -0.010706540421932604, -0.22606709227263536, -0.6201028853351408, 0.49298695573923573, 0.2864054930941147, -0.573657575210982, 0.8755600727842953], [0.5194200048802392, -0.19662571992169464, 0.2425024646660926, 0.7959986703906577, -0.11449110139638789, -0.8923393616254057, -0.4125112395273858, -0.8779714615357909, -0.750154847461894, 0.11889266586850195, -0.42764828128447246, 0.5861611175890712, -0.4716221166342029, -0.8244685394963243, -0.9117759470710636, 0.2556419437707987, 0.41766676806865777, 0.6128166889393686, 0.7945433903108055, -0.43685696200136814, 0.3735615583506731, 0.3941805400504317, 0.7760586078640008, 0.5400723249888733, -1.0, -0.16776660322006215, -0.9084724917453381, -0.10907332910350602, 0.1929555297149934, 0.9442497142376702, 0.48044022131208597, -0.2006437998422026, -0.9999999999999994, 0.9992478770413957, 0.5585200810019969, 0.5303056887698218, -0.1544671914049439, -0.08479782597842365, -0.18288611793309356, 0.3570555093908398, -0.6721065164306333, 0.3339131459053888, 0.49082740874036823, -0.04663818586231909, 0.9414169979482219, 0.6005237515760835, 0.35513716191986405, -0.20661146318270135, 0.10822110205861378, 0.7445376975302769, -0.8689057324719469, 0.814988723599121, 0.24157247253214834, 0.10818837771818608, -0.7436589807620397, 0.3258485063499104, -0.25731587067021255, -0.13452294730690725, -0.09978996255776251, 0.7507750376741461, 0.5522500510076002, 0.9212879148251557, 0.5706394302077041, 0.45651349384594686, 0.6300273297949709, 0.8442305459510485, -0.23236420007784936, 0.11876623511076946, -0.7324300746674685, -0.03738446414032498, -0.45679219807088417, 0.004336999363450754, -0.5402573546384878, -0.8403792456154892, 0.057695260189168644, -0.8126336935908754, -0.6194437867681621, -0.0539344084801925, -0.3994101920012907, -0.7990037975701638, -0.06793896241947948, -0.5960259091806482, -0.4942004403296513, 0.06665449052580762], [0.840989889097631, -0.024144954602993186, -0.7643823522918858, -0.34869728358045593, 0.6107608431650826, 0.47405096922000833, 0.91734378709836, 0.28785016374012024, 0.050769679980447735, 0.9250683362668143, 0.2598471597229051, -0.12524077292193928, 0.9981198652384387, 1.0, 0.6502774799551738, -0.08521664619106574, -0.9916278096918537, -0.9765657573450461, -0.4950813722552017, -0.18223026217042954, -0.02579517625373356, -0.8999992483282623, 0.42930953541254036, -0.9999999999999999, -0.43099885380845837, 0.9669144416027051, -0.9114767327304535, 0.3153159375568886, 0.4530205205883143, -0.17837382102368932, -0.6364371533844758, 0.9999999999999997, -0.023309146934944732, -0.5605511595907429, 0.6456097024637352, 1.0, -0.7038763870914557, 0.8912947240532794, 0.1507700159691528, 0.10981473673744767, -0.999999994839449, -0.4919476678028273, -0.6609117845196154, 0.8124659942548426, -0.26393534553002623, -1.0, 0.2069039392953272, -0.09280419908103059, -0.9660749668192108, 0.3358482857667857, -0.14627652350123635, 0.004311687539621772, 0.13155273607843643, 0.24535388258608132, -0.25246244192610473, 0.4466992521350477, 0.784924876889608, 0.18060816171327154, -0.8180294876720955, 0.3847559324522824, -0.2740643775983684, 0.18184912437850506, -0.3362445617377384, 0.07352836578539401, 0.40069789640702613, 0.7172500777269607, 0.5504732777408661, -0.439398358854197, 0.22875508489871613, 0.1267829614649813, 0.33864893896474113, -0.25565515311018444, -0.8225372076554741, 0.23944264895006714, 0.9947115713842637, 0.8305737372336224, 0.9999929086611591, -0.39032654617526125, -0.43194665388583514, 0.9651039638457609, 0.7005595283084256, -0.7313515876230554, -0.30157484276237084, -1.0], [0.8098566338274193, 0.017333132346445623, 0.6810641262186389, 0.12311203540393804, 0.999136363974733, -0.7665950262927615, 0.13359116037387558, -0.8579543482878235, -0.01877901001876584, 0.7683581672660071, -0.08203802271468061, -1.0, -0.2872474619737034, -0.9999999999999989, 0.605012743625877, -0.25664767522957865, -0.16882801888923357, 0.20716673443761538, 0.9904203628079397, -0.7080042632971844, 0.9457513913652178, 0.8809508871304648, -0.2857953399792993, -0.12021004842800868, 0.0025419773048278582, -0.9999244212647805, 0.10093852864510498, 0.9996743086480919, -0.06310422438412247, -0.3146161576543094, 0.8452897691484619, 0.6974046088915596, 0.19129585615571776, 0.24411134212193403, 0.6845710115967718, 0.13739592656746644, -0.06752826125347187, 0.22701229634527428, -0.5765212683277686, -0.495387472957389, 0.2733671681549057, 0.30279659637325107, -0.6487865086122654, -0.8550495646379133, -0.6683574010156148, -0.6745945165006041, 0.9949349582260218, -0.14795061000639048, -0.06293178619137811, 0.05420922686383985, -0.12309077830915284, 0.8419262730271225, -0.11812522524798463, -0.17497407218708724, -0.36049043772487016, -0.4238541203754992, 0.016534038391543972, 0.5114828478139153, -0.5627678461621619, -0.7880926359783031, 0.15791640716895536, 0.008199968251513534, 0.2031508021070729, -0.7946065909866733, -0.06821801190886116, -0.24628828966075816, -0.4225411731207293, 0.19936067348623535, 0.6837669516718005, -0.0623101367382802, 0.17309044584333397, -0.4747376631791762, 0.9999936589434568, -0.27291764096988097, -0.2760184708988957, -0.9999971701326524, -0.9985845149861043, 0.8610762717566067, 0.2728707577710728, -0.999999909692654, 0.06603059432037965, -0.6643109124205759, -0.2013493151705672, -0.8766957923732315], [-0.12716184553467713, 0.5129628569450283, -0.39907220970016655, 0.1919773142080205, 0.1572731361678808, -0.2970386691494625, -0.6716585611986218, 0.4456874975659079, 0.9989240634299793, -0.07860556163453533, 1.0, 0.11822580058506645, -0.32562767769675965, -0.8396267474114631, -0.6184974940453163, 0.45753778297694914, 0.24215115674525733, -0.13211469623443406, 0.999428380592527, 0.6869424569148562, 0.5267021981116522, -0.29170980456647055, 0.9213809447854608, -0.06393098780632755, 0.5592743366608527, 0.34410105244344086, -0.7495337701872775, -0.5291651287835786, 0.3208001823436404, -0.04423748299210984, -0.22420310910777078, 0.6854215409401186, -0.9225692860001161, -0.6015515837860804, -0.6326630905134405, -0.395656286025427, -0.42570506249205137, -0.5944073013142337, -0.752527916737454, -0.31626768116566156, 0.7672671656266277, -0.9973814987561411, -0.6379381563094932, -0.14245198468920037, 0.20020867640327794, -0.8330750349144386, -0.2626633252762751, 0.832649227609316, 0.11027062034967784, 0.2313710625160426, -0.060803843907817484, 0.3359805729781658, 0.11853541676258363, 0.23035963717058297, 0.9991575628576115, 0.5239517153965022, 0.763282288689483, 0.8065048307078394, 1.0, -0.9999804967843696, 0.6394919423913177, -0.8472529645584389, -0.8074610401824927, 0.5858900484928462, 0.9999999702042125, 0.43779768682516135, 0.5393039078528022, 0.999538495997046, 0.9999998327080888, 0.7061432191300338, 0.7883977682984653, -0.8876564659614157, -0.9999999999999998, -0.09892471490073987, 0.06208921676011686, 0.6931190540026343, 0.297627038964282, -0.05297045137919762, 0.8041451935814281, 0.44673018153408717, 0.9971532889487869, 0.7804769384501486, -0.062464928235339175, -0.9333211737196174]], "w2": [[-0.22614757255232978, 0.3145030631130979, 0.9772513096985607, -0.4556150094965132, 0.9824643161593121, 0.1989213152182579, 0.9188411958119503, -0.28995917501128754, -0.9945390977406262], [0.29456396479650343, -0.37688656056475583, -0.5071128325779833, -0.1670372932449546, -0.9132035428614106, 0.5453333035481048, 0.44816218049633494, -0.5615479345962784, -0.28399533360005985], [0.6865904719811756, 0.7311739100038546, -0.6925545395385828, 0.3439534679906599, 1.0, 0.056413517332657606, 0.8302532991161069, 0.08771836340802176, 0.7104187657664317], [0.18372502047274647, 0.9999862871354922, 0.5477275962124715, -0.675089054307535, 0.8002983874576818, -0.7321816214320455, 0.16177859278097817, 0.10424184085446918, 0.7344754154076771], [-0.448294919664734, 0.6501816921917319, -0.26587093175334203, 0.7508717422341027, -0.9358674653315694, -0.33019253213549304, 0.2477724042634158, 0.6736080422485323, -0.12667974685633654], [0.6725727247120727, -0.17622165754949262, 0.9251832141961057, 0.6209906228398959, 0.5025286149680622, 0.5074134522649179, -0.20127328839807163, 0.2642396573423545, -1.0], [0.9914155647817091, -0.024723737514869445, -0.1622503346757842, 0.6068891828669066, -0.7022883128305405, 0.41236373405731, -0.988355157569873, 0.2650594795900371, -0.999999999997497]], "b1": [[0.6931959521645555], [0.9555596899052013], [1.0], [-0.5931775335624055], [-0.5568757112113757], [-0.10904517488907936], [-0.2702750950839669], [-0.041011983297994055], [-0.2658655933133108]], "b2": [[-0.6823943649531908], [-0.8797301309428357], [0.3956210088775639], [0.6803826108936426], [0.767205836941642], [-0.8896171797435376], [0.14156181882049296]], "fitness": -19.0, "best_pos": 0.0, "best_status": "small", "score": 0.0}