{"w1": [[-0.2346866663320765, 0.8024061077354013, 0.22988952946983013, 0.4996289167906451, 0.010982011124666884, 0.5422377554253722, -1.0, -0.4596081947866561, -0.554464035135085, 0.13828817439330707, 0.4295985547181361, -0.29379262255802807, 0.4657148385960344, -1.0, 0.15703281079185274, 0.283298858733844, -0.4418584092158132, -0.9996688903829872, 0.18698187026895888, -0.9974739164664191, -0.8038450723402429, 1.0, -0.09880847130805832, -0.26236962926326757, -0.3549942464592148, 0.9377455977970591, 0.4052431182717174, 0.4855155747307679, -0.2540184523114786, 0.33877961935161766, -0.67139498886785, 0.6820387647311861, -0.13868580891543597, 0.30416449251091193, 0.9080304257628861, -0.6862908647429522, -0.8219833472067781, 0.8494761806022015, -0.09263404256040758, -0.47426770046446337, 0.39477940726635463, -0.09459723150001756, 0.4787091342223063, -0.29950937227989416, -0.45313200943290144, 0.6502059505593347, 0.40722890806185136, 0.32654847700087714, 0.2819035370602254, 0.5431340152668986, -0.06595415507093623, -0.9977523198859798, 0.9541720078960637, 0.2923279823618822, -0.32819261673047573, -0.997944249886996, -0.9245327045293823, 0.8355138602167511, 0.9997785622309194, -0.2510763270651418, 0.6295781900665843, 0.5793452743212233, 0.008261645728007836, 0.5102081759177262, -0.09466874775639283, -0.08254510741360094, 0.22126756273081166, 0.9999491072000191, -0.452955518339812, 1.0, -0.7285777793300234, 0.13329003354535615, -0.19161496565098335, -0.4330860568846366, -0.9999999999999996, -0.5194641431578338, -0.3381494111866121, 0.5736081580331218, 0.9977974504983181, -0.33471237604173876, -0.9259504720269165, -0.17722415374429698, 0.5499231840039244, -0.6071876114143593], [-0.23748884380081528, -0.9999959967473661, 0.8265548155404383, -0.6082798741963734, 0.8701948523758563, 0.5657532280087229, 0.18610335809932094, -0.7726665969629225, -0.302957075508258, 0.430756119875143, -0.46920749903449793, -0.32670990131380323, -0.8069165425988439, 0.2923010857067995, -0.2118062108917547, -0.45459171584394303, -0.24605898254651987, -0.05584900825735378, -0.8607846702165262, -0.6401037204817738, -0.6731954448195485, -0.6053995390552173, 0.1942891964963006, -0.27751889765803806, -0.9964699740072863, -0.8457312664768925, 0.28876841219181876, 0.5161925207832042, 0.42913060990264434, 0.2393552849605713, 0.9015445236858757, -0.3475955343256217, 0.2600441352066423, -0.19039270884569154, -0.8270450720382655, 0.4393722921313385, -0.9163794512045162, -0.19288741421411132, 0.36540842000694024, -0.6871633234847295, 0.2680276261543425, 0.7840748591208465, 0.7460087708988208, 0.05148934075351458, -0.13582125978085724, -1.0, -0.6998515224786361, -0.7319991287806781, 0.561303642296871, 0.6574813731189356, 0.9410739630843856, -0.4577473221535356, -0.7054892332935967, 0.1283202724497191, 0.8580915861864461, -0.25621281808615903, 0.22418927389707805, 0.5402470753228863, 0.11015292186553116, -0.293767142650599, 0.16576941830543496, -1.0, 0.7476046061320658, -0.999319815597572, -0.9247948285624075, -0.07840917512388908, -0.987414904669938, -0.14336809780881432, -0.31660558279441825, 0.7388465870192746, -0.8699027077495805, -0.8384302508257949, 0.3390755827910138, 0.02768576362670639, 0.9999878423242947, -0.9999403808784322, 0.5127193351646789, 0.09686432731996886, -0.9268352409590198, -0.9676277669340797, 0.7191972167126283, 0.010713737783575178, -0.624940437867696, 0.3924340600865361], [-0.8385680181251, 0.6316270795298256, 0.1733392566233115, 0.3492554030612514, 0.27956622944244225, 0.09617956620764652, 0.9792595332186776, -0.8387597694948166, 0.12216411911370004, -1.0, -0.9310331283554756, -0.6840350735752494, 0.33530381638658324, -0.9999147158994318, -0.2515666990236758, 0.3046167288187429, -0.554212396812523, -0.18700210014722798, 0.2066981122482908, -0.6646027747543086, -0.4469997060284638, -0.03138455344136391, 0.3818621935424757, 0.9032259048017458, -0.9999969792295421, -0.7832939041805298, -0.9012372096549292, -0.05566571185242876, 0.9863064847811545, -0.4694725308358092, 0.5861727801756892, 0.6480364168658566, 0.8859013734849035, 0.05876949590933615, -0.3199068402264922, 0.36859250842929436, 0.3923291398677528, 0.637007531130754, 0.997072082543343, -0.24305829766780132, 0.7298102838441308, -1.0, -0.20260837238861815, -0.15259205296566292, -0.11827828806450696, 0.2535126121363529, -0.17719085248325486, -1.0, 0.698509769634381, -0.4731137676999324, 0.25709471698225755, -0.7020096271595481, -0.7940317953467536, 0.28375280898375876, 0.4710080089768765, -0.21027805249056483, 0.46044015814485334, -0.3292862991826106, 0.23133254477538107, 0.22219802682796125, 0.26853066437162093, -0.13193398470118245, 0.9999986273801826, 0.28339648868032075, 0.9999999999999997, -0.16855311797253034, -0.8807271801920193, -0.25682356540844126, -0.8874152046432251, -0.9167400016703747, -0.874627259455709, 0.503354318556024, 0.4504757612645508, -0.9972958242784644, 0.12393745469311268, -1.0, -0.5926291821033532, 0.10455426040139974, 0.5996010485536011, 0.1818048565313799, -0.5072759567117073, -0.46542590001400436, 0.9999999999999999, -0.4978789327387223], [-0.10265356715545973, 0.4517789587100895, -1.0, -0.38879919394311324, 0.8407422524691941, 0.9999268220035575, 0.04208471437707639, 0.06518519791718534, 0.9999980926442358, -1.0, 0.28082572739977063, 0.7957574147670983, 0.10988504136526704, -0.3162396184676321, 0.5845134766609488, -0.9800691297353205, -0.32621684293364267, -0.7364605340910148, 0.07228554596739144, -1.0, -0.4166923948128049, -0.7325564493897458, 0.6348367175088917, 0.5072040904884803, 0.4753081502084808, -0.3976108770838363, 0.2925089351322576, 0.9508694374052522, -0.45337177014840563, -0.6743947574111812, -0.751015457200369, -0.4284948722612205, 0.7838222139865211, -0.22246833004320615, -0.4003374607817111, 0.47754501156079, 0.21118638125434308, -0.8621423917933034, 0.5796948186027399, -0.8759521964916035, 0.22945101310064814, -0.5162348075212452, 0.6315620141556726, -0.24526640867836466, -0.9999990092745685, 0.3262104399466757, 0.7151024759026223, -0.20146668561996436, 0.55085787162598, 0.5875151831629295, -0.008543132081677115, -0.8294243875449702, 0.6953663306173883, 0.7372878881739913, 0.4955707939927206, -0.7287389727276373, -0.17210313686986325, 0.11419008611110666, -0.7004287262162373, -0.9986984399285334, 0.10185864388364904, 0.09653502835020902, -0.7463718456794308, 0.5178487916597416, 0.7894147539908395, -0.23760644864393468, -0.5536083626967987, 0.5330820202932735, -0.6004646691481967, 0.4497416874270613, 0.7682231159299876, -0.9996295444559843, 0.688802984938393, -0.8996355974324822, -0.5609153599562875, 0.10719429789017493, -0.99667354966442, -0.7047003386791652, 0.2170240613732742, -0.6354716108893257, 0.3970880927843534, 0.46296866869755515, -0.09229552583978934, -0.8514272009405977], [0.7969032770055628, 0.9367519755149092, -0.505670407778926, 0.9999996810280442, 0.999999999525035, 0.04664623242917408, -0.9559710085599182, -0.9617289827687366, -0.12710660117249106, -0.703021040826063, -0.9204867407119075, -0.03511706068925553, 0.8124336968564276, 0.08448356852481807, -0.38835739175851225, 0.6519706070889829, -0.9999984683323314, 0.19850371231859107, 0.831220066815827, 0.26299524799732205, 0.3796908513655752, -0.3834595758535925, -0.8012412481078001, 0.9999996965639243, -0.5501588804304446, -0.5917956407575443, 0.4025872348843805, 0.3667370212156532, 0.6289588721973298, 0.7171887021576432, 1.0, 0.16747156061612542, -0.4698047274851581, 0.5597903505128794, -0.09658828861041438, 0.019110225707154024, 0.8385427251976412, 0.8430625771620458, -0.09896840503061502, 0.6123072928627367, -0.9653199814328172, 0.7267627819823103, -0.02696573874297712, 0.3724772178362026, -0.14806893775285307, -0.5229162716230449, 0.057544942467066026, -0.5222044839191713, 0.34508816862815755, -0.3799505256712232, 0.5479517428483931, 0.2327966109473338, 0.1420236109655308, 0.8991046718708865, 0.037367946490803765, -1.0, 0.49158067155633245, 0.039131155956416225, -0.7753783430643099, -0.8322727006694475, 0.141009395736926, 0.69985506229401, -0.1722132191147576, 0.6126999481706705, -0.5615894236205272, -0.8329685301173841, -0.16360407302052507, 0.5988156293478398, -0.8350897344016659, 0.1846256272254649, 0.30412846115607517, 0.6961368220351628, -0.37686099680157364, -0.7758911009022544, 0.10543623616032584, 0.33721740948950146, 0.4106706599346829, -0.7139070863107515, -0.19581918627173983, 0.46365964038867835, -0.6718502070918393, 0.317931333200155, 0.9021016555545412, -0.580745024462571], [-0.9999974649409102, -0.33191141785256145, -0.7949551813180958, -0.8705184306069802, -0.9493793706843293, -0.8034097121303512, -0.009289428788434221, 0.21964493908643729, 0.04479654561967112, -0.990055100963961, 0.3454643843867988, 0.20984341207106333, -0.8619943381362842, -0.31774196329545124, 0.8685874671635669, 0.9976713270071079, -0.2681073873458846, 0.6483230604381905, 0.7748655666194646, 0.5075121008410386, -0.3949731425734847, -0.5601145365580513, 0.4482911245963821, 0.7122003270228563, 0.5497557935258621, 0.08109886859208439, -0.20694007145543122, -0.9998711701596339, -0.20251453644848827, -0.3122085453310263, -0.9992809087112249, -0.6087523811540945, 1.0, -0.8437794527307667, -0.5222203904656116, -0.592934197957048, -0.7442627810055292, -0.9296373174793744, -0.6546132493863376, 0.366363802727468, -0.13666263844109178, -0.746210494312818, -1.0, 0.7833817322880336, -0.7726432358927661, 0.18141293361747332, 0.1418224447198003, -0.402929893522589, 0.684967564062539, -0.011818374274302363, 0.9999864443718025, 0.047940835072097454, -0.6509101018215186, -0.8354394483560157, -0.5157891036469101, 0.7056520483355703, 0.2720398042368482, 0.07730798606620493, 0.025319559886397634, -0.8339569346848505, 0.4404856731495584, 0.36337907112236484, -0.49056285625893437, -0.9999994004118924, -0.7722047938584404, 0.16394633768929306, 0.9402658024814237, -0.7535712159068475, -1.0, -0.9994087375376541, -0.11318570109815346, 0.028879484509898794, -0.9999999999999999, 0.9983980204103952, -0.9035684976812698, -0.3201754757774094, -0.1903235231953087, -0.13372955284875282, 0.40648015737002524, -0.06429892065135379, -0.7429224028290147, -0.45630514649597775, 0.13342466184234605, -0.7237536439286795], [-0.8361564355336855, 0.9981753765224439, 0.2700225280203307, 0.7571611169938519, 0.28152859304805966, -0.11889483129948195, 0.5825112673092186, -0.30229965342173465, -0.26556361944466195, -0.688451035778142, 0.5739209062365831, 0.13368714505393783, 0.9999998417164137, 1.0, -0.0021489909824007098, 0.8349680666761239, -0.32883275542481816, -0.37871585308930206, 0.9840678531662775, 0.9997797083013525, -0.5237867623262323, 0.17445577674952586, 0.07517658554301218, -0.4514147376538752, -0.39687563702091994, 0.10183401218819241, -0.612565213306854, -0.573433452562564, -1.0, -0.014435279709486767, 0.9999361660245327, -0.13312150150309413, 0.1638516911652198, -0.33498581753485834, -0.9349032245813065, -0.2784596198030799, 0.7602376634148431, 0.7079483654063214, -0.5371023935063794, 0.8052395210528352, -0.6812350500157942, -0.6885475753884538, 0.8454085013109457, 0.42457323891167664, -0.5339970843586601, 0.280348554079326, -0.2534258399054558, -0.49092074351098003, 0.993612509519723, -0.8681576442925925, -0.5054655327520489, 0.7938609407338508, 0.7424776040868978, -0.2391024030275317, 0.23534541609353074, 0.4931792326886415, -0.18353580767722846, -0.8064261177816626, 0.23861438969561646, 0.5044898881532397, -0.4449642615944324, -0.24928629077460454, 0.8531180392647358, -0.22976127604562413, -0.9624035292912091, 0.758136454869519, 0.41127783042378874, 0.433137840134228, 0.04057297166437869, 0.9997836637939921, -0.625412018216028, -0.526968886408816, 0.9999999999986586, 0.24481343787401014, 0.9999984578726587, 0.6983224446255255, 0.5892234877473072, -0.6710762832532216, -0.7511721992104082, 0.8750895333841114, 0.4408093877118824, 0.3986940869212252, 0.9992725907161091, -0.3493781156344126], [-0.9879069481776356, -0.4502833895823643, 0.5784468791863306, 0.35542304675015113, -0.9758085180957751, 0.8674125518880998, -0.24315732486662334, 1.0, -0.9369781061159181, -0.04790130394114178, 0.3372678063968304, -0.32950615696889973, -0.18824086717188274, -0.3066442738007382, 0.3835585263132966, 0.630936081667932, -0.3134684636391373, -0.9296010971898568, 0.9999957810975927, -0.5865686219754468, 0.39635536422490075, -0.18500115420439212, -0.5158734306473408, 0.08610655748012745, -0.6029603926873003, 0.55305039972082, -0.7908707490626437, -0.08482342136475052, -0.7633025810158823, -1.0, -0.999997038302583, -0.8203546350304282, 0.9994500525519998, -0.3006306941341685, -0.7698632949969265, 0.3979713951395557, -0.535897358016823, -0.9993508616223938, -0.9992911689757545, 0.653604514302459, 0.02291044952439485, -0.7034838395134686, 0.49152839076787624, 0.4415852097875895, 0.6173316883888189, 1.0, 0.38505170402141525, -1.0, 0.2488115126378707, 0.5840445166681669, 0.999358636589773, -0.1338999461888697, -0.8407587568502674, -0.9379486424176463, 0.24380969747385087, 0.07133653794395121, -0.7433076061364553, 0.919680947475665, 0.5811302880006479, -0.9999835356303178, 0.6468782551017767, -0.6087959017653586, 0.2635114974324104, 0.7452014611892998, -0.5547473714160133, -0.5733608816474564, -0.8664438976698541, 0.9996147942825041, 0.13317947640027272, -1.0, -0.999759981485436, -0.8886521193273025, 0.6508962528002338, -0.8195711171971115, 0.785076739304693, -0.06528194628193536, 0.8740781584480004, -0.028311358129202786, 0.9578213935974262, 1.0, 0.9371213862298663, 0.3397286532926249, -0.9999783979610014, 0.010959693527644062], [0.5822417673346377, 0.2968967803240985, -0.27790769490512107, 0.3304623781602654, 0.45026984871802195, -0.9183367634066893, 0.9744828090418874, -0.4189222347620781, -0.28816201496418736, -0.6823137809845309, 0.990822569308268, 0.8150137753119087, -0.27315537027905884, -0.23437198610057114, 0.36708020437226635, -0.888059424487046, 0.23373649194875726, -0.9997760498218813, 0.8922090638043862, -0.754983483153762, -0.999999999995924, -0.6467258427350344, -0.613205227982706, -0.7835622568609106, -0.8218424749024728, 1.0, 0.9814662952006887, -0.5112132196923561, -0.8838291809150802, -0.999946600317587, 1.0, -0.9008327577418693, -0.4828958911943088, -0.36101185282248244, -0.15679395097963558, 0.4049026163933767, -0.7950666304255996, -0.15278585681049417, 1.0, -0.6195611945681989, -0.9990699428193448, -0.13672822659410563, -0.08341937720878193, -0.20076461751825192, -0.9999999999999994, 1.0, 0.8262472475451846, -0.11749894373370286, 0.6749682469571504, 0.999448699126801, 0.7256846965090056, -0.40026673745961383, -0.36289996982145234, -0.14428947006534473, 0.00947674597458158, 0.9999999999999999, 1.0, 0.23026635939741036, -0.9986102353060086, 0.8449684953849408, -0.34383025589876215, 0.24490336782421468, 0.5665245592796373, -0.3258116122072238, 0.36278030443708087, -0.28179314813436324, -0.7424330502720704, -0.6477990761534411, 0.12605053150114312, 1.0, 0.32515893782013383, 0.04034406761753536, -1.0, -0.705280848429755, 1.0, -0.760239744013219, -0.5049424163784764, -0.1796444895997431, -1.0, 0.08845883482503578, -0.016942797689903213, -0.6511935556370906, -0.07698350640973449, 0.5065360322933546]], "w2": [[0.04967603689862188, -0.9982444955051123, -0.2876650785569538, 0.33185575758776, -0.3457871217110895, 0.031624262757411356, -0.9999999999996578, -0.7984592671447313, -0.8678495142868954], [-0.9676283814751462, 0.9987603929153046, -0.7927147966601936, 0.05102184946034525, -0.09511831866236325, 0.8071114293686821, 0.9239926163978206, -0.39071069707674383, -0.23478151188869775], [-0.1690720237749397, 0.9975136374305987, -0.9999999999999999, -0.26168538222256005, -0.46385271054369437, 0.06680159730104578, 0.03437831055876897, 0.3795105232318036, 0.3978228592530707], [0.21963968966128322, -0.11895364046363748, 0.4090103842350642, -0.19341243711296116, 0.9215489483444089, -0.8067245854249627, 0.18715899278661477, 0.26149137124523897, 0.1313866415910507], [0.8725556325008786, 0.6604919164966037, -0.3343371271579022, 0.9999999777273846, -0.13471853912073498, 1.0, -0.27328468106302184, 0.9253365813805114, -1.0], [-0.17677630095427638, -0.09502311942579754, 0.3637277413929432, 0.4696121814036548, -1.0, 0.8059059955401445, 0.7311202334352471, 0.38225421864844794, -0.7039171866585578], [-1.0, 0.29522255487128146, -0.9395419122489469, -0.25756274133604434, -0.11185693739306221, -0.4133786894120658, 0.9923584206120026, 0.3812058215289859, 0.21157678053323808]], "b1": [[-0.29176202034403265], [-0.5552310212561414], [0.9983620287979915], [-1.0], [0.7211851868845457], [0.42566568550227896], [0.43940689070476624], [-0.45255011746109897], [0.27388345745576903]], "b2": [[-0.6222974951983863], [-0.05451506999727268], [0.8734060135460593], [-0.31738816141260456], [-0.235356762122212], [-1.0], [-0.9971519902863422]], "fitness": 914.0, "best_pos": 7.0, "best_status": "small", "score": 100.0}