{"w1": [[-0.1956113158360167, 0.6633308957740234, 0.22875757983014675, 0.3807046187026981, -0.17785874339402613, 0.5424356190923606, -0.9426349856782194, -0.31637206137967255, -0.5544640352428363, 0.13829084141203177, 0.046423822459214274, -0.3714181861176341, 0.4951503960261268, -0.9999999999999994, 0.08318560492744068, 0.38771051457115735, -0.549316468326893, -0.9031379979688056, 0.18720815955899228, -0.9949841107395048, -0.8913205109193039, 0.9999999999999999, -0.09881008781959434, -0.013317520082123786, -0.3165888238655915, 0.9382247951198014, 0.40555138886997444, 0.6115362610192946, -0.2540184523116245, 0.4092081679173954, -0.8412028286655697, 0.6820931002205728, 0.24526289720274702, 0.48385833583696036, 0.9080304145277751, -0.9968543443229425, -0.5863639482674861, 0.9988403775336283, 0.05685787111396229, -0.6081302380016244, 0.31820609657048193, -0.2854017052935526, 0.4776446201836923, -0.2995093722796391, -0.45213662878684074, 0.2219671980370025, 0.5776111337263476, 0.3265764622269364, 0.6835592634158423, 0.5296985107329741, -0.5167621239804123, -0.862021605327344, 0.9997012059061019, 0.2920315049668142, -0.30666956396188394, -0.9992533716736502, -0.7908508976404403, 0.9978498356075214, 0.9997788349731063, -0.4594825804192617, 0.6444310911216921, 0.4080841049977451, 0.02797828308719881, 0.46471864783008676, -0.1277412143467045, -0.10930457025057642, 0.2880912475835522, 0.9239470687019922, -0.4529629678385005, 0.9999999985778396, -0.9932961914174433, -0.22557253026125268, -0.1911794959917217, -0.49365655822810506, -0.9999999999999999, -0.7127807646748586, -0.3367474825911882, 0.573838013678445, 0.9976874364925038, -0.08566134758044706, -0.35058763469303267, -0.21317427750964624, 0.5490726676953637, -0.9777803068139327], [-0.23752854438336626, -1.0, 0.826555324586848, -0.49641063753009096, 0.8707604719418094, 0.5640689136105626, -0.04927099767117458, -0.6825972729489457, -0.15528680420204574, 0.5376595520489266, -0.35510408038913116, -0.232744827313061, -0.7602127255561099, 0.4314666945345357, -0.471322794773156, -0.14234368785579754, 0.015971246898642516, 0.27170433340301636, -0.8610760595729726, -0.6400968951566995, -0.7303962502725849, -0.6041778086005507, 0.08413815800926006, -0.4232543310380831, -0.9999897348448648, -0.9015274244435756, 0.6646280141348773, 0.4829521775554852, 0.4236985735074938, 0.23935528496114222, 0.8830250880020851, -0.1035317342157438, 0.9619597357213845, -0.10527019788792659, -0.8288150875813147, -0.12949284848555534, -1.0, -0.1928960895841567, 0.5328329313717383, -0.22012980553160955, 0.21539542512467177, 0.7843039992961182, 0.6744106351167607, 0.051500322108688164, -0.749959136678304, -0.9061213222836435, -1.0, -1.0, 0.7579545097249842, 0.39323708527128776, 0.8182430046673168, -0.451735008192629, -0.7930727393946156, 0.31016847291830213, 0.8580915506060462, -0.621153106602379, 0.0012435468783873378, 1.0, 0.10994113917123484, -0.3763677322064347, 0.16571003769149423, -0.7568295327147171, 0.7508058289452817, -0.843726685202464, -0.9999685400283124, 0.2312238979379848, -0.993510984760913, -0.023092804837320666, -0.5362624119487528, 0.995782769584896, -0.4529411715228399, -0.834588431507752, -0.08683918444556599, 0.09088778864224926, 0.9976865300080366, -1.0, 0.7320187001748218, 0.29912553434714473, -0.7343965204583675, -0.9921492255559313, 0.7211415929595133, 0.7484341317742371, -0.44828554158920086, 0.5432980412160833], [-0.5929884173868448, 0.6315057999850341, 0.21052836693871269, -0.17482217886666254, 0.27978285008140064, 0.09525229317145611, 0.9798828194372887, -0.7169106469833748, 0.12165910166402179, -0.9996830683804692, -0.6466191702842754, -0.682472349851727, 0.0405204546279344, -0.45456654986444733, -0.5085626232421769, 0.3068544443735214, -0.49891094587067825, 0.037675447836930706, 0.38725407395143024, -0.528728445245649, 0.13745050681047194, -0.018376817645223475, 0.07920682522656788, 1.0, -0.9994752763330893, -0.8729888836780737, -0.9944326291041098, 0.18769828792231236, 0.9862787921693127, -0.46321473919180434, 0.6232155941975926, 0.31266373729634633, 0.9994923348020393, 0.19673988745161486, -0.32356219150868654, 0.43110149979332046, 0.3934847035710499, 0.6370071912260306, 0.9976813809705902, 0.12374066928593898, 0.43729722232268303, -0.6805371076661102, -0.32492514972894077, -0.15196102876537057, -0.239818038956071, 0.3178156310959638, -0.16566120514987856, -0.8817311368193647, 0.363092129940692, -0.5357119433027896, 0.256967255076608, -0.7002779863919871, -0.3114983907198477, 0.18153507208613573, 0.4713151155611338, -0.2116850974905735, 0.45830132841191384, -0.6160140084867602, 0.06458466917506624, 0.016382654843862907, -0.014942496927464142, -0.05091981113605091, 0.9996368920342175, -0.3051376360657526, 1.0, -0.16994567039988592, -0.8806785768283438, -0.1440764653758392, -0.8049831984096261, -0.9999999995073797, -0.7027069404078946, 0.5962616320518319, 0.8255220329924207, -0.9999361767606909, 0.12458435608193863, -1.0, -0.6691371882892542, 0.10143622686637366, 0.46861924573086683, 0.403467995186093, -0.6245258531266199, -0.46542278883974714, 0.9999999999999999, -0.7265977424155254], [-0.06746278226161156, 0.451778958772233, -1.0, -0.38543834030022933, 0.8407422524691974, 0.9571758453152878, 0.3050123116042628, -0.14920727439401338, 0.999998102115336, -0.9999987119365562, 0.09795404869501857, 0.7957666760521331, 0.10928596151685446, -0.3328859123697989, 0.6104109781390831, -0.9800691297353117, 0.027771732941114215, -0.9138996381591006, 0.14298561336876736, -0.9999730206952286, -0.3054855839726943, -0.5518957346366454, 0.5599207376050026, 0.4907569039453176, 0.3406180409813312, -0.3617942865202818, 0.29249664951081755, 0.9508694374049492, -0.4533720833075337, -0.6435025221629581, -0.600556399713615, 0.29592616999500226, 0.9999999999999999, 0.13161564168093545, 0.18909291215508678, 0.8331026830478093, 0.2146472630492333, -0.9194694921490579, 0.7370199879520721, -0.9191363698299959, 0.2302495080290413, -0.8786918470369904, 0.6312172188855921, -0.24801805632813817, -0.9998692436358315, 0.2756208841609269, 0.7159458814136852, 0.2667082282519736, 0.24779364992768013, 0.23411535174290504, -0.008543397079339016, -0.8308336121258877, 0.6821260236691593, 0.9405456979984897, 0.6650420399232606, -0.34491073416104356, -0.12334374031627793, 0.11342037762082598, -0.7003646392459966, -0.2165965951600728, 0.1860998257940966, 0.09981071214943983, -0.7470334682297257, 0.514735482936034, 0.7539620432682914, -0.1359456847377383, -0.6737226148093801, 0.5748101114643223, -0.9022585220117983, 0.26839431638900946, 0.9796065882518145, -0.8947525447141776, 0.689116663615721, -0.92905863213031, -0.5927720880690743, 0.13295855881482188, -0.8048088779185382, -0.2298566368494911, 0.7866069540724998, -0.7634460816059162, 0.20514860642313665, 0.794955498405682, 0.12303668585604628, -0.883377374867944], [0.8917716820799988, 0.9995957448984811, -0.5177508025375586, 1.0, 0.9999999028169759, 0.1858144122111276, -0.9777881235797616, -0.6741173498597294, -0.349289693595002, -0.703026787909497, -1.0, -0.030230184343025865, 0.6060521987524963, 0.14669115989758297, -0.2591701039542598, 0.6519706070885264, -0.9989368882938191, 0.19853804594883626, 0.4583932036026403, 0.2629974973048006, 0.21108100784205938, -0.14559838220623722, -1.0, 0.9996514326109469, -0.4350249765394669, -0.5913770067400804, 0.3233116852064865, 0.36771431885713945, 0.8111122948940012, 0.7389986822022826, 0.9989849487034594, -0.038765896019881785, -0.43886459591930077, 0.6856787539940157, -0.09661391431034852, -0.12512117605700018, 0.630927653441659, 0.843062577162042, -0.09896546378420114, 1.0, -0.6511706525204078, 0.8839069660291209, 0.05666391750675654, 0.19303208818636014, -0.6062585989470525, -0.06069088806098951, 0.05754495820854873, -0.7490926901529602, 0.2816266446925934, -0.21758944655184095, 0.8518210525031581, 0.23281940648212873, 0.14080733941290052, 0.7286837208312791, -0.17526370740533453, -1.0, 0.8684822534144051, -0.0423522458864152, -0.7751199023577583, -0.8319620841538048, 0.2734811711652694, 0.9945469854538873, -0.4544866248536496, 0.6971903359932874, -0.6603800327149145, -0.7174517725618064, -0.1911666884849826, 0.6007655762212459, -0.8351393100935276, 0.17623609243326183, 0.4729058405567015, 0.22162990555099288, -0.42234455376443264, -0.9997374410895103, 0.09973906655599232, 0.3107584513603918, 0.11480258975962464, -0.7142855475174188, -0.1190196711719342, 0.3460238482639953, -0.6650359696912832, 0.31799160771019813, 0.7263703201593072, -0.5807934322524073], [-0.9977730631354808, 0.07430320732657378, -0.7949771601298979, -0.6886451212320949, -0.946824058652063, -0.2550319483803078, -0.3543484140993811, 0.2701461725993662, 0.07480091719338776, -1.0, 0.3462226355842631, 0.46942347073607077, -0.93164830088877, -0.317741114951163, 0.8685933684571004, 0.9531309044048578, 0.12156086249553368, 0.6497779536093042, 0.5722385557036068, 0.5075199594034939, -0.5380028659271737, -0.5368441178693436, 0.510167028175268, 0.7383781317939488, 0.4974320930031348, 0.08043916533525869, -0.35651819795250955, -0.9045911707904727, -0.20253405307908495, -0.3122012243627349, -0.9992781594256299, -0.518929833237373, 0.9981795303189442, -0.8431767521501037, -0.2993376277681287, -0.9771621739175333, -0.6425896117992496, -0.9979999005039921, -0.9999999938637428, 0.2074578943525038, -0.1365556624435117, -0.744864636596298, -0.7169103819149939, 0.7823931888249277, -0.7740310396445949, 0.30693762921174356, 0.14183412517826666, -0.2217926070721509, 0.9028504733631966, -0.0258146578725613, 1.0, 0.44789301980139484, -0.6511510260475937, -0.998234647944882, -0.6315926160647903, 0.7056520415331348, 0.3295024278060604, -1.0, 0.1699553991052076, -0.9133126929510922, 0.4394645818454811, 0.565251034848428, -0.4885566094224735, -1.0, -0.9988694135185437, 0.376472281155903, 0.8529585171301645, -0.4158811453712018, -0.8967474444972112, -0.9994109623557578, 0.17639446388578017, 0.11566633601734234, -0.9999999999999998, 0.901905176683784, -0.9509127415503918, -0.3716218373764662, -0.18490665851709825, -0.15633859652811788, 0.4686962202170488, 0.17278027134531207, -0.7429224028250515, -0.3228229961895818, 0.07124404649989537, -0.6375296414850423], [-1.0, 0.5240134909931324, 0.196958652126522, 0.6668401808509206, 0.1493024317985629, -0.014030010007019336, 0.6487007625906105, -0.1925311716093286, -0.022791621115210072, -0.31296527924218065, 0.5733316026021382, 0.2360541145282077, 0.999958586513505, 0.9999999999999997, -0.0035642247012689482, 0.9999996033329795, -0.5504115819245653, -0.34258216232627425, 0.9999999934768007, 0.9997795525864284, -0.4055539474137238, 0.08203996013876094, -0.30997694754771044, -0.1159054541468497, -0.39687563699844197, 0.15347613799200663, -0.6125652236930716, -0.5678614190433188, -0.9999657753731223, -0.09527073080064144, 0.9999989912910208, -0.1329724056024382, 0.13832861126918658, -0.6211760833155445, -0.9984861414975662, -0.3358484319127241, 0.6751932233777879, 0.7404957822567731, -0.7493541586915046, 0.8047572274217768, -0.6024651563148531, -0.7228606524678993, 0.8496585725303664, -0.32613566561090845, -0.541585403910599, 0.5651542844858186, -0.6710734758535024, -0.0012009588018530564, 0.9936125095077175, -1.0, -0.5175293451022428, 0.7076251745017005, 0.7592450163048844, -0.17752237105038374, 0.5214588146836113, 0.36444609790652827, -0.2557898430871903, -0.5807720719383517, 0.23861438969562238, 0.5039450330106605, -0.5281577460061374, -0.2492862872758458, 0.8538640750365816, -0.2020563459227195, -0.6719519266015631, 0.6032793834522788, 0.2553065029401183, 0.43217812137893297, 0.09916275715157848, 1.0, -0.6254098813845204, -0.8063949353356287, 0.999999999998659, -0.2429082377481823, 0.9986907387718427, 0.5315253142335369, 0.7966927364050929, -0.6339805708498917, -1.0, 0.9982576464442012, 0.4381936570851193, 0.3972386379102642, 0.9992725908419977, -0.16066567676522142], [-0.5512204356466887, -0.4502680390047926, 0.7698396210220373, 0.13740393763864375, -0.9544824689200607, 0.8719670821986903, -0.2653840942601432, 0.7561517526685955, -0.630323613863612, -0.1331233634614197, 0.40760818921705105, -0.355154335277609, -0.271385305148858, -0.08178182963163637, 0.6579295886046571, 0.6293240754184218, -0.5975041346467675, -0.9296010972004829, 0.9993969564902259, -0.9473310328890494, 0.3963620255142882, -0.4661222175594226, -0.5158734688994565, 0.3612371092656714, -0.5970567269399695, 0.5529919337702016, -0.791979474163022, -0.3054925010597631, -0.8430001809027969, -1.0, -0.999997094981227, -0.9988982377043989, 0.9994516200254188, -0.16553538001288462, -0.9292124544121078, 0.4394224379562451, -0.3677683096909939, -1.0, -0.8825398846656626, 0.47988619666257976, 0.07510361724165249, -0.7082930954709222, 0.3262764847562985, 0.66783155118267, 0.5490110535843089, 0.998750870101366, 0.4908851057756503, -0.8742734982972992, 0.5621956786989104, 0.032150968600402084, 0.9998538746046417, 9.720652269423757e-05, -0.8407567291356247, -0.9991457359259615, 0.2372515968011977, 0.07141962422982677, -0.8532653299518601, 1.0, 0.5799409040813267, -0.999833216952168, 0.8094313938482385, -0.7070229238252363, 0.253655215531766, 0.999120750064965, -0.746472305965238, -0.5732946843945548, -0.7422638857709499, 0.9489341919888327, -0.09663385274312858, -0.9999999999999997, -0.8940577497014839, -0.9995767937117467, 0.45913565876738194, -0.44740878140320073, 0.7864625013615295, -0.23877520553752954, 0.8743847981592912, -0.09970638569392641, 0.9587946287426102, 0.8772472057607148, 0.9999781470352536, 0.40599696753662706, -0.9999962639759541, 0.25672256574056196], [0.5854987511900771, 0.3161365372738142, 0.23654354055317545, 0.6975356377071509, -0.04443784472308809, -0.7053916104765483, 0.7417839302058356, -0.3204767123389421, -0.29956489101728295, -0.6519239376956992, 0.9897656439224485, 0.8604721023312386, -0.1603848002239339, -0.28991484591067684, 0.4681590033296726, -0.6926938811630506, 0.23372362500573263, -0.9417845553348063, 0.7872030438622011, -0.729913910351374, -1.0, -0.646725844840881, -0.6132052279766985, -0.9037654426598788, -0.43903660593998806, 0.9199756494939147, 0.24770060874893837, -0.2755154824011155, -0.7563845009469412, -0.999945199451529, 1.0, -0.8547870065905175, -0.42313426260430526, 0.6258584173865898, 0.01776627147542102, 0.665525396693099, -0.7949216153769376, -0.33283633761926207, 0.7139946751500771, -1.0, -1.0, -0.1369598666097638, -0.09426662489906995, -0.2180350877646438, -1.0, 0.8052745131007973, 0.8263451243093329, -0.04851243467559751, 0.9519460153816978, 0.8130645494300658, 0.725686436161923, -0.39944165970083134, -0.36289996982020317, 0.00892112138851499, 0.10537964241484289, 1.0, 1.0, -0.11163284657141383, -0.88157855584379, 0.8449677252293081, -0.5407989872651203, 0.11002776674880611, 0.718475014843861, -0.011405687821229069, 0.1555898396831961, -0.2847080958443912, -0.7384438744302134, -0.6677359606813699, 0.2908790849461091, 0.8521731385996494, 0.4133992593618594, 0.04036795535501823, -0.7684327229868047, -0.6076110215476327, 0.999177653994895, -0.9198875657538137, -0.5049425139281042, -0.27125914219042185, -0.9026524063865481, 0.27459438269732545, 0.0931243184205756, -0.2780283544325498, -0.38933701450869757, 0.6801006297023076]], "w2": [[-0.16372381555712212, -0.8225410893034402, -0.28805061724786835, 0.29136200035496673, -0.1686427871216014, 0.22358808628778334, -0.9999999999999976, -0.7986150998190351, -0.9963279978729376], [-0.9999460028044983, 0.8442823964733756, -0.9991209817802437, 0.05102184946066747, -0.17892096546149003, 0.7246074197190148, 0.9900106991332933, -0.17643749683758875, -0.23455985928998097], [-0.16906834991831315, 1.0, -1.0, -0.2764708166199695, -0.5515609232662293, -0.26254852756188307, 0.5946917506053006, 0.5966287103323247, 0.6651467682010531], [-0.023837437545581736, 0.2495350192857732, 0.09738860122518551, -0.19341243702577973, 0.9993810798134841, -0.806254321680097, 0.09813991395513649, 0.26152469953844965, 0.1922695097175951], [0.872555632481415, 0.19209705204265914, -0.33433712716758135, 0.9999838753050827, -0.23609279032108751, 1.0, -0.262734307227767, 0.9253213962436722, -0.573531163914359], [-0.08639716547828032, -0.19405010812674173, 0.3749550859039853, 0.46962663439876573, -0.8631111453616823, 0.9928123465737873, 0.7309997688369078, 0.38225421864852505, -0.578729572385982], [-0.9811717310434703, -0.21964062264738066, -0.9692763622943527, -0.312715007852953, -0.014731636663596875, 0.026441262268142918, 0.999965974593368, 0.5517815621668498, -3.018969194268058e-05]], "b1": [[-0.29173741187920066], [-0.8049780550228421], [0.8873101929190524], [-0.8207222432324672], [0.4748673593981325], [-0.047594742221665785], [0.508326798132883], [-0.750720995368886], [0.1216600210744104]], "b2": [[-1.0], [-0.0548225069625037], [0.7333036670031571], [0.2102918768267754], [0.18205182865217917], [-0.913689122124073], [-0.9971519910056541]], "fitness": 1747.0, "best_pos": 8.0, "best_status": "small", "score": 400.0}