{"w1": [[-0.347032255512832, 0.799826212928039, 0.2298870417006568, 0.263387072642507, 0.01335793139861228, 0.542237057040546, -0.9992530714159389, -0.46020243731088195, -0.5544640351352562, 0.13828817439436025, 0.4206031660286696, -0.19233378992627048, 0.43762092313126827, -0.9999999999999998, 0.15683310525839114, 0.18736640350171924, -0.43921030580647646, -0.9998858031895755, 0.18698188783031802, -0.9974417143274585, -0.803845072492681, 0.9999999999999999, -0.09880846482796293, -0.26193867521730707, -0.3549773031512418, 1.0, 0.405242347781504, 0.48599170818133847, -0.2540184523114765, 0.33901135184655706, -0.6666583284137957, 0.6820388122411631, -0.12741602146420897, 0.30496249562511824, 0.9080304260099412, -0.6863299073962995, -0.8244844533776521, 0.8503330519321282, -0.3260410824608748, -0.4737601063513156, 0.3947793430270679, 0.0993890066535615, 0.47869675529365474, -0.2995093722798932, -0.45313495542201115, 0.5445244484566613, 0.4073500248085226, 0.3265484029597326, 0.657920510139398, 0.5296973860013973, 0.28432203738396744, -0.9952546004931591, 0.9997834997287238, 0.05889090931586641, -0.3281922794442794, -0.9979807949726839, -0.9206416414536247, 0.8375072105230794, 0.9997785608885972, -0.24860585374214966, 0.6297355898959862, 0.5796205955720045, 0.008332750248575393, 0.46483823087599596, -0.12774001739467442, -0.08243337637808577, 0.26909230165641307, 0.999949166627851, -0.4529464973715201, 0.9999999999864834, -0.5428767986378514, 0.13528629095151476, -0.19161324967169732, -0.3739768757133162, -0.9999999999999996, -0.5151697712964377, -0.3381393537804597, 0.5736103543546869, 0.9977975468388303, -0.3361628475951374, -0.9269545076245786, -0.315260475895184, 0.5499114516035475, -0.6085556334507747], [-0.23748954894896218, -0.9999999999999999, 0.8265548220545824, -0.6095179748580162, 0.8701824992460213, 0.5657447238065335, -0.04967191901502262, -0.7731748665147612, -0.30364856498484966, 0.43044099559827215, -0.4649785168286774, -0.32671027040591905, -0.8064165290444203, 0.29392749438903476, -0.209946437198531, -0.45500470359840484, -0.24524209015678403, -0.05119675400653371, -0.8607783454446941, -0.6401038794528504, -0.6731269946819777, -0.6054009255050707, 0.3859805474247871, -0.3257660099605352, -0.9965033977539175, -0.8449663947729029, 0.2947871537527866, 0.5161926622525631, 0.42913988635538536, 0.2393552849605795, 0.9015097423651199, -0.19154589961999313, 0.2676199912921169, -0.189751189822382, -0.929477853014274, 0.43437167934844784, -0.9157020733284416, -0.19288744796580795, 0.12323375777253362, -0.5799459345541345, 0.26736510752117315, 0.7840730013628417, 0.7404361738816301, 0.05148921562359717, -0.05575745806282888, -0.9513053783246771, -0.700842732707855, -0.7310366512101163, 0.7605915862953676, 0.6612568064127953, 1.0, -0.45770010020098734, -0.7057982315028466, 0.12641073070770453, 0.8580915861492312, -0.2564410896177658, 0.22372076725759713, 0.7204864438861635, 0.11015214121494316, -0.2947178165356135, 0.16576896793298015, -0.9973533329577314, 0.7476080977744932, -0.9997165279410538, -0.9241705887155903, -0.07993777058961463, -0.8471697628070128, -0.5512997961844113, -0.3125714948426909, 0.73268793694677, -0.8593299272826402, -0.8384592642667337, -0.5138665766614726, 0.18744158254124121, 0.9999982613564454, -0.9999999999999999, 0.5130749774812201, 0.07686703326229143, -0.9014204848362494, -0.9673872479111836, 1.0, 0.009957666278894245, -0.4524941370257791, 0.3901778449558204], [-0.840539658942208, 0.6316272853998122, 0.1731669022546555, 0.34781958618082864, 0.27956732104954257, 0.09617842813380131, 1.0, -0.840123456838813, -0.09836067576512789, -1.0, -0.9265786146202237, -0.6840392438207237, 0.3389208631673162, -0.9962463097688758, -0.24918302859222585, 0.30464331954433505, -0.499622723667115, -0.6285357347553001, 0.20589619482730728, -0.6639676357778651, -0.431995105172721, 0.0584216574649305, 0.3836960924919125, 0.9032258819097168, -0.999999562657048, -0.784464362333125, -0.8990580301935556, -0.055364223965840544, 0.9863066497735714, -0.46950120725492617, 0.5864954056949379, 0.6428294585423008, 0.8850850864931412, 0.055853328306685886, -0.3198859115193933, 0.3685739412252108, 0.3923215359788116, 0.6370075321786661, 1.0, -0.24597785658366988, 0.7426100813194144, -0.9960635530582848, -0.2023833463698897, 0.1010114211246887, 0.057763616931614414, 0.2535180614697482, -0.01384288036315483, -1.0, 0.6965751467160156, -0.47267481217296264, 0.25709233532460607, -0.7020127465013485, -0.7902084382230772, 0.16486389969922025, 0.6208198133774866, -0.2102757431460723, 0.46046501552994396, -0.33213807223826747, 0.23094262818402367, 0.22262364932504353, 0.270576946805284, -0.13102566573473826, 0.9999970729206162, 0.27941014223904614, 0.9999999999999998, -0.16855711705478288, -0.8807272925256159, -0.25653012935243275, -0.8871247698532658, -0.9999998279023015, -0.9955860986496926, 0.5039835937024526, 0.45557911926592903, -0.9972758184396493, 0.12393297359857497, -1.0, -0.5924762359261694, 0.10459984862740947, 0.6009067616470102, 0.18629218822769686, -0.8697535864002521, -0.4654258837722252, 1.0, -0.999338421567138], [-0.1031655791888406, 0.45177895871008955, -0.983114684492238, -0.38881921777669226, 0.8407422524691942, 1.0, 0.26403565178244587, 0.06074599201265442, 1.0, -0.9999987248833762, 0.2793627340582046, 0.7957576167525886, -0.10015813021702225, -0.3157068155030487, 0.5848001263741137, -0.9800691297353206, -0.3282525618958054, -0.7363532906796553, -0.3087628919421539, -0.9999985577743291, -0.4158051221969465, -0.7296832281249195, 0.6335522271467336, 0.5072160436810613, 0.47603576463967057, -0.39753233893581985, 0.2925087668608561, 0.9508694374052515, -0.4533717701484002, -0.6747924349283096, -0.7508341596450634, -0.43312340327424237, 0.9999999999999998, -0.2201559067656375, -0.40032971173585585, 0.4769377220239958, 0.330596284579453, -0.8617880530815321, 0.5796150450167685, -0.8755970124309566, 0.2294576613956135, -0.6140778074354055, 0.6315572928631027, -0.5281969930512057, -0.9999997576300934, 0.2756208841609383, 0.7151046166874726, -0.204209806566998, 0.5483241200296801, 0.6247392585342789, -0.008543128452817626, -0.8294273875793152, 0.6821260237844718, 0.9759741414255301, 0.4510143618978575, -0.44165669505973937, -0.15447803890346323, 0.11419456642567266, -0.7004291648244514, -1.0, 0.10124781518351873, -0.08618738566676912, -0.7463718456794306, 0.5178380951828128, 0.7894257401564975, -0.23872210564871196, -0.5539604692374622, 0.5330822425716503, -0.9022562285364533, 0.4474068403571734, 1.0, -0.9994284122265698, 0.6888048100310876, -0.9995299759692179, -0.5613830934424665, 0.13286019645241562, -0.999587553264794, -0.7052379590717164, 0.21793604934049857, -0.6375498885032169, 0.40548936853904993, 0.463132878090469, -0.09318418389832855, -0.8510483967408146], [0.7966899899014902, 0.935719837332166, -0.4666152138933532, 0.6487550896458663, 1.0, 0.04797224430454114, -0.9560373510172863, -1.0, -0.4593002897856205, -0.7030210379163645, -0.8929929026727984, -0.21652880421463458, 0.8123765984239916, 0.14885661085912247, -0.38728080739438125, 0.6519706070889831, -0.7933585630107839, 0.19850269032025505, 0.8291248606537361, 0.2629952574932984, 0.381718988638061, -0.3816915471313591, -0.7998567927022611, 0.9806505881326988, -0.5319359658014216, -0.5917920411241607, 0.40601924547711893, 0.366735555052924, 0.816558589407302, 0.7170900868131872, 1.0, 0.009013938722527114, -0.46968211879702276, 0.558490458654386, -0.09658829819543563, -0.00882824381201884, 0.8288545967291373, 0.8430625771620456, -0.0989683978110357, 0.6185023641480154, -0.9680213174005623, 0.7264289528988909, -0.02691665375940005, 0.5382702517204909, -0.15027969804612115, -0.5191482010387577, 0.057544942692719064, -0.5995169403328728, 0.34493405926024917, -0.3793610777019848, 0.5678861217753067, 0.2327967387027747, 0.14202361096552485, 0.90169606851512, 0.037664778104537916, -0.9999523684022897, 0.48841545713003043, 0.03931147635130338, -0.7753790474261896, -0.8322787177414164, -0.18847807959677224, 0.6991985494143002, -0.173302410405222, 0.6128508880803765, -0.5614692744276258, -0.8354467556780257, -0.16360408812790994, 0.674923963110063, -0.8350898482833844, 0.18456404333815474, 0.30270805004648627, 0.6893495952847252, -0.3765703753405091, -0.8204875711790486, 0.10494661906117421, 0.13610106642931874, 0.40961153679568574, -0.7139092133949507, -0.19542256017526724, 0.5146395106278558, -0.6162986716326855, 0.3179324778800474, 0.9025839885843562, -0.5807444652269085], [-0.7856505450994486, -0.09557155692103957, -0.7949551149288531, -0.9863761791145937, -0.949379333616655, -0.8056440708302964, -0.002404446888735548, 0.2191303545995434, 0.044633554118713864, -0.8013362515310931, 0.3454542439274731, 0.2071048456614246, -0.8624993338111928, -0.31774197022221357, 0.8685874671162619, 0.9988362864547767, 0.12156086398896038, 0.6483293430832403, 0.941930404262794, 0.5075121008410368, -0.39511308581788107, -0.5367428340344035, 0.4496780084712468, 0.712326691646466, 0.5512920663682679, 0.019962161668422535, -0.20919729544881854, -0.9998869949377791, -0.20251457320453314, -0.3122086423184746, -0.9999987303835527, -0.6093238258437429, 0.9999959572054147, -0.8817544142079141, -0.5226521935897859, -0.38705307741131495, -0.6783022833600028, -0.9300868158577756, -1.0, 0.36701806920193175, -0.3464916396073497, -0.746207111794433, -0.7408778711161083, 0.7833655040163332, -0.7726452060381137, 0.18021984042190128, 0.14182253170529976, -0.40425299330225767, 0.6814196651433552, -0.012042630998564705, 0.9999866450328707, 0.044090294311763735, -0.6509094596138383, -0.8368863103152326, -0.722707955872447, 0.7056520483355726, 0.33161868765554103, 0.062101547011530825, 0.032129254583888545, -0.8352850230884066, 0.44048330745340675, 0.3621290171887722, -0.4905714550852556, -0.7817990182963592, -0.7677310248825234, 0.16029398599573616, 0.8543100718466823, -0.7492265696001493, -1.0, -0.9994087385159082, -0.11143117579069393, 0.028488055955315728, -0.9999999999999997, 1.0, -0.9030111285519761, -0.3207661308711626, -0.19027205940016242, -0.1339097845557, 0.4039536402692952, -0.06197362579873932, -0.7429224028290276, -0.7126110574215422, 0.18369210391834534, -0.723372351898986], [-0.9610981964452904, 0.9984253788910826, 0.26966424530770644, 0.7556179833381645, 0.34472108510649113, -0.6371339108966927, 0.49286225669608813, -0.3026642280155291, -0.267096143400682, -0.6853559437753802, 0.5739283411066922, 0.3310761026281471, 0.9999996359469482, 0.9999999999999997, 0.20159868488868504, 0.9997560508594333, -0.33074555498032066, -0.3791255904012282, 0.999996003200508, 0.9997797071844319, -0.5229619331719613, 0.173597802459638, 0.07448230095403399, -0.08796933457781617, -0.39687563702092, 0.1021195084945035, -0.6125652134041969, -0.5734401744471986, -1.0, -0.01348708926121665, 0.9999368926207486, -0.13312240832140262, 0.16404345972207804, -0.3395032702453461, -0.9999826920767235, -0.19383834569381767, 0.6768758318366781, 0.6411468994856259, -0.5349577085240491, 0.8052351903567859, -0.5486383733095668, -0.6887495665616706, 0.6753618249068349, 0.42415110740408785, -0.5336090275061354, 0.4172464180118025, -0.25133400876471007, -0.48881114763766537, 0.9936125095197879, -0.8686027604461511, -0.429732790157157, 0.9378264154185314, 0.7423707740510681, -0.5599411466566404, 0.2310436508678249, 0.4911098966254923, -0.1839104911509904, -0.8099887679323565, 0.23861438969561638, 0.5044887603738533, -0.44496276297671694, -0.24928629077460457, 0.8531250942449372, -0.23017949362918758, -0.9561723744679553, 0.6026094781873428, 0.412589046022099, 0.4331525288410672, 0.04019880982511795, 0.7498294244820898, -0.6254119984449236, -0.531088084897571, 0.9999999999986585, 0.25007209078733683, 0.99999859825189, 0.6983208699219543, 0.5915597783790598, -0.6709011354137571, -0.5685894388325019, 0.872343339604386, 0.3834528735245456, 0.3986757725281988, 0.9992725907161247, -0.35216798956975803], [-0.9885193467543213, -0.45028326777100497, 0.5774514576904767, 0.13740067891938637, -0.909342563527474, 0.8673951307506305, -0.26539746473227194, 1.0, -0.9234190143238797, -0.05060028926610421, 0.40748009156042697, -0.3299527741778404, -0.18741768712410017, -0.3079130809507201, 0.3834613602003299, 0.6308818902147028, -0.30917145533032797, -0.9296010971899992, 1.0, -0.5869816822581484, 0.39635536422490086, -0.18501689346961575, -0.51587343052047, 0.0824707692537596, -0.6030906371605442, 0.5530503924489734, -0.790883063056913, -0.36775807136670746, -0.7635851064986654, -0.9999999999999999, -0.999997039292101, -0.8202246980348231, 0.9994500373887132, -0.2999218375818461, -0.7717248423829741, 0.3984385214527505, -0.5353128345394168, -1.0, -1.0, 0.6458781121591186, 0.022533198307904595, -0.5571933896712146, 0.4945815067362974, 0.44161177625456166, 0.565901095434909, 0.7255639274773933, 0.38683620059175733, -0.9990849543142306, 0.5623213025071927, 0.3379261312871171, 0.9999993377887195, -0.13389878821690032, -0.8407587568505797, -0.9361611229586032, 0.24374236483142922, 0.07133720874051569, -0.7446327272369921, 0.35264175653292434, 0.5811340214287556, -0.7766665897174967, 0.5272549599197367, -0.6087015059875388, -0.09063595179859898, 0.7448683840930945, -0.5573655051856345, -0.5733601340901138, -0.741001666326863, 1.0, 0.13134935199705108, -0.9999999999999999, -1.0, -0.8896696039992338, 0.6507444129333771, -0.8129872083749198, 0.4964945245649856, -0.06488903736597869, 0.8740669448841349, -0.028569493492426358, 0.5133517879601972, 0.9966674631347834, 0.9999781737773304, 0.5011024127437188, -0.9999788067075719, 0.2918301452978964], [0.7803541431775808, 0.4403936339599895, -0.2749071840709513, 0.6975356235183106, 0.45419584008450864, -0.919784731099319, 0.9179124748658188, -0.4204102923694477, -0.2880939039867688, -0.6824742912512485, 0.9907980348972475, 0.8141567534022263, -0.27228464403746827, -0.23367370022380357, 0.3721369807762236, -0.6578140320687724, 0.23373629488586348, -0.5632804724413831, 0.8917426900440988, -0.7550954471850703, -0.999999999999934, -0.6467258427263775, -0.6132052279826845, -0.5642206269410569, -0.8228874486980622, 0.999706641672333, 0.7213684796447026, -0.7348120938489908, -0.8829411842022208, -0.9999466381220086, 0.9999999999999999, -0.44626236137774433, -0.4823082188865158, 0.008291015608383173, -0.15504699634272137, 0.4049435519554362, -0.7950649124781997, -0.15278376232460178, 0.9997528535838529, -0.6148676178145728, -1.0, -0.1367300043602327, -0.08341472588328601, -0.20081801360120544, -0.9999999999999997, 1.0, 0.8262472478767248, 0.2395825670829909, 0.9993815722746525, 1.0, 0.725684672850395, -0.40026458945631216, -0.36289996982145495, -0.14460792350972046, -0.036915159576098214, 1.0, 0.8297543790942494, -0.28543021970165094, -0.9986102353060061, 0.8449684956242549, -0.3449774069495152, 0.24370227918180926, 0.5627908390621158, -0.43585628563035567, 0.361208331360334, -0.2817239458335314, -0.7424324921314542, -0.6485907345668394, 0.34907567931587863, 1.0, 0.3254672082190559, 0.040344127340283004, -1.0, -0.7054148345970969, 0.9999941459540359, -0.7577332805991805, -0.504942415700766, -0.1852855231986779, -0.999708075973394, 0.08970030785493677, 0.05239556975239539, -0.6510672986531449, -0.17088297563592106, 0.5078494159984844]], "w2": [[0.04786863109208368, -1.0, -0.2876609945448633, 0.020497455645131474, -0.3455045437896355, 0.09621459567104759, -0.9999999999996585, -0.6829707413376838, -0.8682766865860158], [-0.9682649220398819, 0.9994945949391276, -0.7912137238896698, 0.05102184946034336, -0.09346520193962364, 0.5554407684408663, 0.9239926163978206, -0.3917042844206905, -0.23478035205818154], [-0.16907199245302748, 0.9975014393103352, -0.9999999999999999, -0.2616621056746522, -0.46500152756033214, 0.06579388701927406, 0.18335839414000465, 0.596627493360801, 0.3974053753418406], [0.21963968966190955, -0.12083125955151398, 0.566324582527313, -0.19341243711339556, 0.9194085112208114, -0.5567194266963286, 0.18681059335819075, 0.2614912950811618, 0.13188470092489216], [0.872555632500728, 0.6566407703237466, -0.3343371271579314, 1.0, -0.13745436832154065, 1.0, -0.27311787593172254, 0.925336677164042, -1.0], [-0.17881423466008145, -0.09412607782805686, 0.22210927727180382, 0.46961204703866427, -1.0, 0.974758671536732, 0.7311238928426277, 0.38225421864844733, -0.7026179372411049], [-0.9813692822764156, 0.2962846838652533, -0.9395587868792535, -0.2579996243297334, -0.11246633333941335, -0.4667956450811067, 0.9923593077326158, 0.38064165756097135, 0.21085849623353853]], "b1": [[-0.29176204355926505], [-0.5547099864180863], [0.9979436247763548], [-1.0], [0.7192324351093586], [0.5865146005379585], [0.5070149414089571], [-0.4510768006368578], [0.28732199031283956]], "b2": [[-0.7547958301848914], [-0.010662706950812891], [0.8755546141266234], [-0.14320914133458823], [-0.24320730188245693], [-0.9998941462772655], [-0.9971519902942163]], "fitness": 4258.0, "best_pos": 10.0, "best_status": "small", "score": 1600.0}