{"w1": [[-0.382003817652339, -0.1661744829345307, 0.2100137818569186, -0.6033328202237002, -1.0, 0.20033305735272988, 0.14921209809282318, 0.6610094581842316, 0.007331784763546516, -0.5788725932918666, -0.0017052304972237948, -0.9999999998774121, 0.1453426602877004, -1.0, -0.5700374985955724, -0.26292569015831246, -0.22684858263927923, 0.3010685601005094, -0.050316284244901824, 0.14821202748200032, 0.40142574520173957, -0.8619827283842684, -0.3016765656081461, -0.25352260694646606, -0.2896443371506614, -0.15230707098890608, 0.8554711102224122, 0.45622090575526303, 0.7351241989949561, 0.2999324604807943, 0.3318189489959674, -0.7300514389623445, 0.06839678820742717, 0.1441099324460524, 0.267228728368933, 0.9149919117799623, 0.5457807401559573, 0.6198037173292399, 0.8521096392419489, -0.972428700290308, 0.5177815007797103, 0.9999970323572541, -0.4587843292270554, -0.9261049042198125, 1.0, 0.3772835592161934, 0.062129755531695016, -0.42285455084559687, 0.9997181747666185, 0.4965171112574382, 0.820534697009624, 0.19503627388920536, -0.4914796054854347, -0.29918044979121594, 0.5729389175949979, 0.40025018647017413, -0.47231279005198123, -0.48508999823803856, -0.7790080742353658, -0.38140265324781863, -0.05514372098175861, 0.7804657228731272, -1.0, 0.83476424951149, 0.8991278518756267, 1.0, 0.14540846126216725, 0.7107825373358806, -0.037373343121586904, -0.2814255579892881, 0.4413626415785415, -0.31637279189929224, -0.6571745243231565, -0.7886003829185608, -0.045315990803996016, -0.49468672049542967, -0.07108570931132885, -1.0, -0.9989074879531807, -0.5347599030456678, -0.11098442459387833, -0.9999999152565953, 0.8174425559446199, 0.5480005202877374], [-0.13477531373644838, 0.7444723208815689, -0.03142429595131368, -0.5913455907007302, 0.162916187177036, -0.8796920038238842, -0.4313775227235855, -0.8072592088855862, 0.3504066488182819, 0.42056861928371286, -0.05454138549937955, -0.13799030115218286, -0.8220094670808096, -1.0, -0.9984852620593374, 0.2094515589195963, -0.9948801333854405, -0.24080773338027456, -0.9999999989091699, -0.5150259286718595, 0.037406224324298194, 0.679509888522023, 0.24371600622236061, -0.4072933682898098, 0.9390669797852225, -0.030409726634804374, -0.5752999161971335, 0.4507475460852566, 0.25662584751745765, 0.17794913769260934, 0.8340994842979704, -0.25026168497048845, 0.42270062156695304, 0.8858541847450727, -0.5246911931898283, -0.9999999964220334, -0.9521589607751468, 0.5073394903787558, -0.5626113384591577, 0.25581854811388677, 0.9999997721652022, 0.13057028343410026, 0.7627553869104312, 0.18682111363868364, 0.4829407231417943, 0.6428763905156386, 0.7188121085967484, 1.0, 0.8105002567556455, -0.7759385665086248, 0.6160957632083849, -0.3705110972977947, 0.9047306484828513, 0.31038437001398733, 0.8089737309316716, 0.9996288633178356, -0.28091188050003807, 0.8171846810378721, -0.7907855741606791, -0.24128207999838272, -0.7552070214164933, -0.10197507475385671, 1.0, 0.44245422181527466, -0.7442685217215997, -0.6853428497923624, 0.43314135374642626, 0.5434149670350592, 0.6876550671854907, 0.5393706636006887, 0.02189138832961804, -0.7755560252546669, 0.9999963365946207, 0.7131480171297341, -0.14455881188093336, -0.819410463239891, -0.3195267177175933, -0.19252420343325805, 0.9012434049147443, -0.48210631251885067, -0.035099215504766634, -0.9999998978219938, 0.21784178650295744, -0.7925304124331456], [0.9999997672334239, -0.8189463250880319, -0.5410580416087907, 0.01600288957365237, 0.011556804302659332, 0.245446662170145, -0.9992741258235096, 0.6247050010960193, 0.7322982268078776, -0.9354910395933287, 0.48238373936003787, 0.7552778633151136, -0.4519620477171391, -0.819471573655449, -0.720310062811747, 0.4627045771078914, -0.2322476937240381, -0.6405901366217941, -0.07844409148111413, -0.9019255778524569, 0.9999999999972532, 0.3218735803740983, -0.2545096807573747, 0.7020514994668784, -0.7466570767249434, -0.11870659911779535, -0.39918099951596586, -0.7389424875511916, 0.22539134325027352, 0.4142679746958675, 0.7592367862475329, -0.38132321802303604, 0.8626191583031356, -0.0836850218408316, -0.9996173483481539, 1.0, -0.6985100376543257, 0.24713782276702967, -0.9581762706731292, 0.999744090879146, 0.2142799597350875, -0.5377657426502576, -0.33914817426716415, -0.11675425023269055, -0.6161526097014384, 0.32769036065856083, 0.20888781874388007, -0.6176738091509806, -0.7377908228456105, 0.7764630063909275, 0.9999999999999999, 0.3434536663707549, -1.0, 0.10824822299430459, -0.602284186405164, 0.9999988034356619, -0.39492084691342433, -0.7862770984190676, 0.46375546487801006, 0.21536938585823784, -0.37652185057152227, -0.2771233918062106, -0.3397329535018665, 0.8019097945622691, 0.8338495672559141, -0.19036401206632808, -0.8251252756623251, 0.447082533492876, -0.661684405078161, -0.159440075271033, -0.5260898935237658, -0.7201630244919434, 0.3124557403524566, 0.8465748992107224, 0.23831950322188014, -0.9101695121733439, 0.6005604890656266, -0.03405025979325291, -0.4996570906102274, -0.21701684856534884, 0.9207425936224449, 0.3428664132359099, 0.4178268702716524, -0.17999830453776602], [-0.25458685080363813, 0.9996788376250574, 1.0, -0.9999999999999996, 0.7687806420803955, -0.6043604644137733, 0.49820321516670885, 0.5268700428691299, 0.7847580362041712, -0.3277170220470562, 0.056128396421449234, -0.6930108392843722, 0.06439454310808194, -0.5114005271309056, -0.40968700402893843, 0.6864463564564849, -0.7524245030098323, 0.9092574902761461, -0.959913645217008, 0.46739115947538745, 0.6082976410652697, 0.4256481728083639, -0.19985971168660108, -0.6780318519037718, -0.9676099328451391, 0.24337206334954742, -0.6673757598455793, -0.4029214640544425, -1.0, -0.737087465847092, -0.5227583065322522, 0.9991234427887027, 0.8011400482452198, 0.7870027465642638, 0.4176127196547515, 0.5916372197382079, -0.08322024341120338, -0.21715286297232356, 0.9998629187535761, 0.3518426642713087, 0.8449049334184331, -0.39364253344725747, 0.9407692612808609, -0.041587063212367076, -0.018535281211239388, -0.36958033107806826, 0.5883288582668192, 0.2924185577729831, -0.9992165369807579, -0.051483034749710735, 0.7170222719683542, 0.3113736930152769, 0.17523471349677977, -0.46525914226473575, -0.04717805608937224, -0.8068601932136502, -0.22768334322665312, 0.3800042709921035, -0.05057479153448803, -0.3961712149168631, -0.19173111664425221, -0.20580586288369823, -0.2294231326235761, -0.40823966895200187, -0.1280080280837794, 0.0922066491456754, 0.9998229469903508, 0.5935891128863473, -0.6592988062949514, -0.42155330293541277, -0.4212172059010958, -0.5866937140791891, -1.0, 0.263926563314898, 0.36099768255871284, 0.30311017729519546, 0.18119019256082938, -0.05489909809478741, -0.1355541642573118, 0.08207218628087111, 0.5342175570247436, -0.42226790188542707, -0.8476009384411167, -0.3666139277608482], [0.6004386497964048, 0.8982085809351747, -0.28431775795274783, -0.9748738549598441, -0.10568586880428923, 0.11943355055694083, 0.06097707789357068, -0.8636226796570171, 1.0, -0.9997952632317468, -1.0, -0.3428484751780494, -0.19003961655612994, -1.0, -0.6536859392031008, -0.3533628375956328, 0.27674043296447914, -0.32495118205019824, -0.7941818599085332, 0.9950965295809493, -0.02141606362998247, -0.6962610263221739, -1.0, 0.20279864895019478, -0.6064880328445206, -0.9983898028229357, 0.8209533458994471, -0.4117065975773313, -0.1842372581336855, 0.5371906093321377, 0.11185384949203127, -0.26702518737069036, 0.6611833914654897, 0.446034562728053, 0.6784455539832394, 0.6855586926628969, -0.13451543532729396, -0.7385310795647545, -0.0602000580192119, 0.8353390444065065, 0.8304587554548463, -0.023730353726188487, -0.8799007883130188, 0.0025982560168523543, -0.7358565532685352, -0.999999057995707, -0.5132049520483326, -0.09262692547849626, -0.25484146077838515, 0.3484383193941886, 0.9997289802736182, 0.9034839872213116, 0.7941420696503051, 0.038228726345828495, -0.3168503808367263, 0.23255529728190621, 0.013641602148355175, -0.47354686082185204, -0.08647590107903597, 0.6264324843423003, -0.5297909430417954, -0.99946563515511, -0.08477677666609562, -0.5910073977707995, -0.8534545085384573, -0.4223356645475289, 0.14338516362904208, 0.5571606067039517, -0.5375849794794567, -0.9707245363706463, -1.0, -0.055898320626219376, -0.402892031759664, 0.9996090237789794, -0.9170028794947149, 0.999999999999929, 0.34480382137187976, 0.028135738998125843, -0.0023832850475750257, -0.4927125946333328, 0.16995311960240353, 0.2865168857169586, -0.5735310324276833, 0.8776908210749919], [0.5823359938157202, -0.19586927539788965, 0.2386717585761951, 0.7959740178011524, -0.11449002851781181, -1.0, -0.41160798316701824, -0.8776951370893571, -0.750179512853821, -0.061870998442372926, -0.45565809215675096, 0.8095640622999625, -0.47094323553249257, -0.824458405971214, -0.9909570155039646, 0.9147455314976702, 0.08381609340327696, 0.6141581203508739, 0.7945433200613229, -0.43673790490831643, 0.3748547771311506, 0.25702434464342827, 0.6805589975574884, 0.5101234603202726, -0.9999985628037438, -0.167357719568122, -0.9085632201650607, -0.10907332910350616, 0.1937676376144257, 0.9445205385134912, 0.47889418176354914, -0.20121547517625923, -1.0, 1.0, 0.5585207155246481, 0.527333358575619, -0.5280401577560293, -0.33760074486055885, -0.18288732244314215, 0.3570557397354153, -0.6733378902146685, 0.33217958507411904, 0.507280549370795, -0.046536156789627935, 0.9414170050594197, 0.6017432006142451, 0.354128812291214, 0.03583233745572727, 0.10799672494890807, 0.7441044188352743, -0.7550937678623598, 0.8152060693660153, 0.241446321984192, -0.07478026546896939, -0.9285911665875086, 0.15393202296791766, -0.25731587727494576, -0.13456290528423873, 0.09300244348888151, 0.7800421484835173, 0.5557329705887509, 0.9220292670425774, 0.6713194806628319, 0.45560750378218545, 0.6300232598145555, 0.7377056985217136, -0.16021846980756044, 0.009575503255626838, -0.748957508162213, 0.18535798650175422, -0.45652976922576843, 0.32870971383650627, -0.7927266083145642, -0.8407302434470247, 0.0559659201983501, -0.5781524611611741, -0.622803732752819, -0.2211842631706011, -0.4108227740585725, -0.7151404704894784, -0.7316743843596905, -0.597079938536064, -0.4932308293664645, 0.06664160248268443], [0.8409898889997236, -0.025690423691418565, -0.6980132618349411, -0.31053005468926664, 0.48677946113618453, 0.4340755079968476, 1.0, 0.3312951796203226, 0.24238691830226916, 0.9250622907318943, 0.25981116217534495, -0.12524073982864806, 1.0, 0.9999941656707277, 0.6506817340616401, -0.10050832538648, -0.9916278097542598, -0.9767890202622305, -0.8498524808431476, 0.31068677679481915, -0.025888656821239232, -1.0, 0.4293095354125403, -1.0, -0.43098771483185333, 0.9661091432397908, -0.9994968452933285, 0.3118763372717964, 0.4529959102048138, -0.5471558119077079, -0.6374982122927695, 0.47583728879103404, -0.02330611498748165, -0.5605510519101653, 0.6420689492376752, 0.9999999784716666, -0.7046390186842943, 0.5979164124186601, 0.1440075185738182, 0.10959975355260161, -0.966755032088485, -0.6789843422945152, -0.6625713514206097, 0.8126605723377348, -0.26394025656070713, -0.948015975051707, 0.20720400582690315, -0.09302985027744208, -1.0, 0.2559073564641408, 0.05692143142041767, 0.004311685902808999, 0.13155284042778714, 0.2448626926105088, -0.2547197542144095, 0.40865666442996984, 0.7849883797012043, 0.18061140785087088, -0.8181531328193206, 0.4370838798439836, -0.2740205642883729, 0.18489591877551528, -0.33750403555856023, 0.11518409561588266, 0.4006979073536123, 0.8000788136466215, 0.43658458189241256, -0.4378031646719227, 0.6391136741471058, 0.1263462526289756, 0.6348033812036334, -0.5587127348091379, -0.8235964333209678, 0.24161030914913997, 0.9949080701281213, 0.8360356985906479, 0.9999929107309684, -0.38374060660015397, -0.32046408771850093, 0.8306826109639178, 0.7019444287746811, -0.7288692671693198, -0.18265530954670386, -0.9999999999999999], [0.927163164599158, 0.39499769578114646, 0.6805565893114291, 0.12352927906569137, 1.0, -0.5142650621683871, 0.012840009016948253, -0.8597313394685967, -0.017493911129772444, 0.768355387721451, -0.0826907355105588, -1.0, -0.28726662171159706, -0.9984902990431241, 0.6052017288469286, 0.014425347018697406, -0.35440771167189505, 0.2071667475656222, 1.0, -1.0, 1.0, 0.8809508871304765, -0.2852317026374682, -0.11993786251401184, 0.40439661438107083, -0.9999716249745843, 0.10093802354278039, 0.9757526459968988, -0.0436753015180157, -0.3146161557462754, 0.8452897768070708, 0.736645774258205, 0.19284595502479088, 0.24348462953001718, 0.6844383722054299, 0.13999012856732568, -0.29304860495102086, 0.08872514099473654, -0.5742555830972721, -0.3360100116169417, 0.2726969359144626, 0.30284793219430695, -0.6489238491248037, -0.7297474539578892, -0.6671868915549536, -0.6741127066018723, 1.0, 0.05063968055535061, -0.159443915263709, 0.054171056999285185, -0.12308151073793062, 0.8432045636773172, 0.09659118025754224, -0.17500573660022953, -0.360512349065266, -0.21312693652564174, 0.016534038334958846, 0.4193001711524844, -0.562763557186245, -0.7880926359781475, -0.06269486371192876, -0.02177618747082398, 0.3663270320315642, -0.7957423777999388, 0.3884584419543391, -0.2965101417776425, -0.42254116323483576, -0.007148636431375805, 0.5436967323391347, 0.24194450714258256, 0.17189391869464668, 0.14534683704911028, 1.0, -0.747401215266603, -0.2775387418421939, -0.999997159296257, -0.9972461386041532, 0.3974362711247955, -0.18085040153109527, -1.0, 0.06603655410852712, -0.2681656866296229, -0.20362528942766386, -0.9947796191704322], [-0.12716184581436926, 0.5097583685153768, -0.11358663895665988, 0.18983038435984936, 0.1531969031499167, -0.2968097407285451, -0.6716121298379714, 0.4456937315489682, 0.9989240634365447, -0.06994803426332073, 0.9999999999999999, 0.21731358061271513, -0.3252360600468746, -0.8396267467741659, -0.6184700317400617, 0.4584716449015445, 0.5365105663174452, -0.13113524356387068, 1.0, 0.6872797601973804, 0.47933286261392827, -0.36948950899164384, 0.988755520901391, -0.013881295939581411, 0.5588460994576832, 0.3441037259916021, -0.6445596503058383, -0.5291651287835787, 0.39397851811887713, -0.16435959079537338, -0.4383358630129261, 0.8498374680879094, -0.9443127684591177, -0.6012862328223969, -0.6358351339592753, -0.39553041928850763, -0.42734974761937905, -0.5940854563243241, -0.7513479368286523, -0.02483977649859689, 0.7119887173129248, -0.9540453195424069, -0.6393699107232567, -0.19764688626098428, 0.09991627603047488, -0.833075972377204, -0.2642701357328718, 0.8326441120668056, 0.11143770973551453, 0.23693662737490545, -0.060964816656696674, 0.3359768780632285, 0.12045965724612011, 0.25881279626190123, 0.9988219099329061, 0.3176097258552717, 0.49352641751225546, 0.8079454888259422, 0.9999999999999999, -0.9999799593287788, 0.8450304928126241, -0.7773051291234044, -0.8074614695179287, 0.42290650964019466, 0.9999999999584451, 0.28936911545768035, 0.5406861672274749, 1.0, 0.9999998296346897, 0.7070080440681197, 0.7883977667992047, -0.9196730696709815, -0.6739049084999391, 0.24815431127807716, 0.06194817736491621, 0.6931168440208764, 0.3534958162518174, -0.05333837527982031, 0.7270412243572962, 0.44803097528193553, 0.9971542888111206, 0.8564605886153593, -0.062069029132488504, -0.9333211722282189]], "w2": [[-0.16580381033551805, 0.3143961827541501, 0.9776439242473014, -0.4554192869212608, 1.0, 0.19836975409174526, 0.9187411574099699, -0.28995872569239156, -0.9940213158243469], [0.2946576047969715, -0.48855286072148313, -0.5743076556331923, -0.5606940983316892, -0.9138453930428045, 0.3789766702513798, 0.448161795355655, -0.5600503450355576, -0.07167522339687536], [0.6846972527782061, 0.7436915393952873, -0.6922037035730549, 0.34393745426583516, 0.9997909014394636, 0.05712864028789619, 0.7694591640581777, 0.01539373375661462, 0.4885736049442938], [0.28511512301109404, 0.9999862662126264, 0.7438049833098737, -0.6748526885787697, 0.8001546016245522, -0.7335977132882363, 0.1617621035630279, 0.10941725996824708, 0.7344703711766057], [-0.3720582685559291, 0.7155275625054784, -0.2572912100126822, 0.2928217489134422, -1.0, -0.6157705170701311, 0.6722666020484073, 0.6693253271000701, -0.12666830139655044], [0.6725768068079228, -0.1762217799102843, 0.9251861935868408, 0.2748865961194472, 0.5025286146811864, 0.5264812431433497, -0.2012732883980621, 0.2642282279291774, -1.0], [0.9917639455703628, -0.2374691145755334, -0.31878641678121383, 0.6066843504937152, -0.7022909153297882, 0.3585960782385995, -0.9279581886268969, 0.009653250781551078, -0.999999999997656]], "b1": [[0.6936432794383633], [0.9547667722858468], [1.0], [-0.9272264994778551], [-0.9839009699989704], [-0.11170688078795964], [-0.2685780320363123], [-0.041011972875967945], [-0.26486570950931726]], "b2": [[-0.8583483094900738], [-0.8794438772318877], [0.21868683789226648], [0.7672439670743451], [1.0], [-0.9777538841246204], [0.1631888440137657]], "fitness": -97.0, "best_pos": 0.0, "best_status": "small", "score": 300.0}