{"w1": [[-0.3821376982168066, -0.16618960551360995, 0.21001378182898658, -0.9957134039095399, -1.0, 0.20192631578991302, 0.15029254811938017, 0.6614202693352442, -0.1813888747534233, -0.5778294189531394, 0.09561495585008792, -0.9999999998782128, 0.14544432182737116, -0.9998184277009852, -0.569097837575641, -0.6584073207547488, -0.22613462656061206, 0.29871150031861804, -0.051265219917677, 0.14821193439035543, 0.4014546699052352, -0.86202686030192, -0.3016755767795956, -0.2551200423095215, -0.259231758814233, -0.14702070567533498, 0.9000877582089799, 0.4562221419819128, 0.8830402310099996, 0.29993272932263687, 0.3346421884436321, -0.7300438883679969, 0.06882681383180356, 0.14409846665694703, 0.26722872836893297, 0.9149905968824542, 0.5455392756963119, 0.9626206932340425, 0.8482558731496396, -0.7407119136832345, 0.517781516206076, 1.0, -0.4591297348318163, -0.9281335814835819, 1.0, 0.3775001901082077, -0.4534475705330399, -0.4230630095016463, 0.9999936332459198, 0.516063201278688, 0.8204109100568769, 0.19503563527894924, -0.4914769731105932, -0.30395521084556637, 0.5729448623717763, 0.40025002321902914, -0.47570178085950676, -0.48507581058557564, -0.7790080773752983, -0.385064234054934, -0.05514359973042326, 0.7797333040563794, -0.7269820404617795, 0.8347436592801043, 0.8986104168261663, 0.9999999903549797, 0.14540566141542635, 0.7107826457360523, -0.03737171408367378, -0.28591182004447196, 0.4035680608802249, -0.10542028227380236, -0.6517659996942826, -0.788600407558261, -0.04534178935978102, -0.49468682069159253, -0.07093348779785018, -0.9807865084249325, -0.9989074953664675, -0.6545855165860521, -0.3441756874301846, -0.9999999152565954, 0.8174474780536773, 0.5471434664754667], [-0.13357005130397231, 0.7482440794086463, -0.03402224540582139, -0.5915152316129695, 0.16263377163739773, -0.879740194884671, -0.43352078418209716, -0.8044766787040389, 0.35049400927853297, 0.42056712804371765, -0.05454252509347646, -0.13794745140477535, -0.8220094670808096, -1.0, -0.9984720384790258, 0.21755928596067456, -1.0, -0.2401819517064244, -0.9999999992909906, -0.5149989613557837, 0.14346673626629067, 0.6795091300987208, 0.2491268745906583, -0.40577390103051447, 0.9390687364925796, -0.030408857412302193, -0.5717665315574424, 0.4512483575981633, 0.2558797373244361, 0.1782276117085343, 0.8348952073502385, -0.2503927492591015, 0.4227120191254689, 1.0, -0.524251873607724, -0.9998441754235066, -0.9521078475271784, 0.5018268499060632, -0.5638118049757213, 0.3013721900555627, 0.999999771924121, 0.13057028910352797, 0.7631938501251406, 0.18682812855945516, 0.48294844327572195, 0.6428334569820556, 0.7195732441387419, 0.999755550683066, 0.7843166299644404, -0.7759385665085603, 0.6143266397232432, -0.37051083560471504, 0.9047306484828513, 0.3111636499122135, 0.8074469957841112, 0.9996278928879587, -0.2809118784817289, 0.8159863439946566, -0.7907853166189612, -0.24036144557266317, -0.7552083310117075, -0.10196074530203415, 0.7790313622697478, 0.16063789785922838, -0.7441347995938463, -0.6935160681454352, 0.43310698701632877, 0.5434273636212693, 0.7575228285992368, 0.5397216843871316, 0.36725899253002814, -0.5649122220731467, 0.9999963154961347, 0.7127621378828907, -0.023208203076286654, -0.9181881805031709, -0.31913002748219305, -0.45716225318492615, 0.8375574587372849, -0.47871289594031696, -0.03509921550476426, -0.9999998978220375, 0.3337947461144945, -0.7933633373819282], [0.9999997700706528, -0.7852796623331859, -0.5398117680460727, 0.016002883443308906, 0.011628189145344065, 0.07737047198464425, -0.9992646198934196, 0.6599057763903177, 0.30859055968410687, -0.7372593979019856, 0.48072337170063517, 0.49121180256300523, -0.45186004994465995, -0.8539205762606423, -0.720027248509751, 0.4632187794307696, -0.23224770004489795, -0.640590494501418, -0.1663538419672251, -0.904514633206098, 1.0, 0.5477433960257376, -0.25451465879728846, 0.702075542276109, -0.7463254436978297, -0.11856690296174484, -0.3987927557403748, -0.7389435642633373, 0.22539108845308523, 0.41437604959202157, 0.759222807021606, -0.37757835480745516, 0.8755199379924574, -0.08366269224692177, -0.9999999999999999, 0.9999999935689496, -0.69866012619104, 0.24515687428665606, -0.9583763550749638, 0.9985024020498228, 0.14253265384710143, 0.18624476582226096, -0.33900382624262304, -0.05805463708158812, -0.6159527411495629, 0.32916796615382454, 0.20886973671493536, -0.6176834570357724, -0.7364433572492507, 0.7744878640734179, 0.9999999999999997, 0.3434199625882037, -0.5320612662664207, 0.10823566508560749, -0.6022464981086887, 0.6609389979212341, -0.39491873739826994, -0.7897321710201655, 0.4770136150851225, 0.2134206449581073, -0.49026238561242796, -0.2151436904547726, -0.3374226896157442, 0.8016111866541189, 0.833849567245026, -0.19107674837781505, -0.8210469581423299, 0.44545185672553506, -0.6617008811556393, -0.1594424415947687, -0.5260103357259585, -0.7201692810922837, 0.3034718397403519, 0.8473095505302969, 0.17159062003801795, -0.9101695121403492, 0.5959091289154052, 0.21257226511568791, -0.499657079155396, -0.21658972614649283, 0.9223509994191497, 0.12006359269838382, 0.41658724937523456, -0.18000467061693498], [-0.2580359951287608, 0.9996798377497965, 0.9980446825980278, -0.9999999999999997, 0.7686167590522429, -0.6044680114876304, 0.4982029462276084, 0.5268700428710169, 0.7847474514443774, -0.4548728443008612, 0.05605446661906377, -0.7467864149663979, 0.1448105034763755, -0.5110473979926425, -0.9932556507696763, 0.6866949930762276, -0.6212602429448333, 0.9076175427441935, -0.9999999999999999, 0.46741091999309725, 0.2859085834976383, 0.42564521475995154, -0.15776606962152434, -1.0, -0.8734473437170587, 0.24143381683832094, -0.6673292584425348, -0.40297508844359065, -0.9984455273454924, -0.7370874538305152, -1.0, 1.0, 0.801238281018006, 0.9154930897559793, 0.41761274438714263, 0.5916262536081803, -0.08686690378024749, -0.22001943911426727, 1.0, 0.45982521345382404, 0.9999999999999999, -0.39268966625388474, 0.9354380182817289, -0.04158375668188885, -0.018536840393330707, -0.3706560495319957, 0.5888487536167747, 0.34069026661011453, -0.9992165369807579, -0.051458077985764884, 0.7171229764416874, 0.3110216616271483, 0.17523474516023893, -0.4709645276125646, -0.22248732943248944, -0.8068667512770498, -0.2276833698771465, 0.06409273459552793, 0.03967199337365309, -0.2961709090649985, -0.19232535284193103, -0.1318286901530815, -0.2294253238084266, -0.4082354999535161, -0.12929079285013378, 0.09220664815516705, 0.8744689847837372, 0.5945118284871342, -0.6593056251272708, -0.4217601786379896, -0.4202563067771886, -0.586693714079189, -0.9999999377552362, 0.2638588007201733, 0.36135606892207417, 0.29531841009330984, 0.2135448884535871, -0.055585928019275935, -0.13211650937754582, 0.08208742686161948, 0.5884623864640339, -0.4168850727252893, -0.8474998063347994, -0.36735491037106427], [0.6004387092125879, 0.568301560918451, -0.2846707716172638, -0.9748747374308098, 0.3832427427436308, 0.07213244852432484, 0.060808995207499314, -0.8636176439515851, 1.0, -0.9999915709754199, -0.9990122578045131, -0.3428484751785228, -0.19003999622793202, -1.0, -0.4955194236860935, -0.35394541734830204, 0.2767388313441817, -0.32529648135403255, -0.790852433620715, 0.9952208213129143, -0.009781827016671792, -0.6962600378888092, -1.0, -0.061647775676405156, -0.6100478453905008, -0.9983825172802422, 0.8220393265509728, -0.41170675852736527, -0.18315937670664767, 0.1303514469634268, 0.11185580045098018, -0.3372545043118887, 0.6611023547461081, 0.4446288144203035, 0.903520605725226, 0.6846121462639881, -0.5851556345681623, -0.7385560353626068, -0.06020824092743288, 0.8352842070191061, 0.8304587554543537, -0.028601094306477053, -0.8816541948819552, -0.002479059700245363, -0.7358565303327516, -1.0, -0.5132050874157604, 0.1892653923708075, -0.4515680178138618, 0.3488624488017163, 0.9999368274092787, 0.904392930711208, 0.7941043046119204, 0.035075974001503744, -0.09521385892329914, 0.23255590032315043, -0.10194492344112883, -0.4735510991662507, -0.10957391608663332, 0.6264350089489944, -0.5297793341416017, -0.9994681648153142, -0.08557462389982307, -0.591010235017094, -0.8533642349883146, -0.35046330653217456, 0.012647357833797557, 0.13709553833921628, -0.5336433041571865, -0.9743763514231044, -1.0, -0.05589093958257103, -0.4028920314473203, 0.9991341729196757, -0.9170033255583926, 0.7844641308764746, 0.344322993335597, -0.009260447377089339, -0.006981923896419068, -0.49209559063281366, 0.16937424963220765, 0.2867139935285096, -0.5733413632328201, 0.8758499182137718], [0.5802081107519003, -0.19587381268604762, 0.2386226776341818, 0.7959741607739335, -0.11449003425130731, -0.9995750855838057, -0.4116196457143944, -0.8776984578763278, -0.7501793855167636, -0.06244157434044566, -0.4556580019035429, 0.8134011049694134, -0.47143861196218767, -0.824458475408415, -0.9999996681360862, 0.5646295686223476, 0.08536307979312059, 0.6150460342521316, 0.7945433173900514, -0.6027413254955352, 0.3748460249276734, 0.25702434453791784, 0.8880612116714465, 0.4180598741354088, -0.999998567688407, -0.16666288817459224, -0.9085660439869704, 0.0279604093461972, 0.1937775530827457, 0.9445211234885664, 0.439110476950725, -0.200771242015662, -1.0, 0.9999999968749139, 0.5585207147345931, 0.5280507455425353, -0.5307270176938677, -0.33309520270966053, -0.18288732131151256, 0.35705574240361687, -0.6726570348322015, 0.33219111501979004, 0.5069155602240182, -0.04656410677875737, 0.9414170022315383, 0.6012728345010504, 0.3527767440289479, 0.03354247558581711, 0.10821420458891139, 0.7441007741770392, -0.7539883662912606, 0.8151961334618486, -0.08489014395963207, -0.07682789451975762, -0.8977432531112804, 0.3258659416171666, -0.1417307456739821, -0.13456304309621764, 0.0950320517477273, 0.7800041077851674, 0.5557068587281282, 0.8199869188718483, 0.6711819317323716, 0.4557655244660213, 0.6300231507760872, 0.8444503393367535, -0.2861485957129429, 0.009561095498651435, -0.7490074349642588, 0.4240285481813033, -0.4565329224756559, 0.3242282099807339, -0.79321178322713, -0.8407236923304885, 0.05955661183763237, -0.5836938623538103, -0.6212212482994319, 0.07687364970391831, -0.4108819852332218, -0.7990038224914354, -0.7250339814545339, -1.0, -0.493235162380304, 0.06760777485813811], [0.840989889097631, -0.024173041702740906, -0.7370659583452308, -0.3102562437807742, 0.6108930225616624, 0.4340091102903341, 0.9178107439522806, 0.33159733388013185, 0.24238463852810624, 0.8042820788484875, 0.2598112114109264, -0.12528274010994417, 0.9981198652384389, 1.0, 0.6504148544412169, -0.10060349414726351, -0.9916278097546674, -0.9767690754588682, -0.8458881337429894, 0.31068799473455483, -0.025544940521692712, -0.89999900809296, 0.42930953541254047, -1.0, -0.4309876478643786, 0.7888712730652615, -1.0, 0.31520019145426437, 0.45524492542486056, -0.547155811842895, -0.6359092275841991, 0.7197689729367459, -0.023306121207392314, -0.5595955064059872, 0.7668826295691883, 0.9999999785088062, -0.703742680230417, 0.6216262328125921, -0.09244406347711742, 0.10959969246998892, -0.9673859494244679, -0.675916590591199, -0.6609766605445212, 0.8128328257694858, -0.022686296425055402, -0.9480158944460926, 0.21023594633148243, -0.0930306403236614, -0.9670407832988729, 0.5903982513103596, 0.18439176927083223, 0.0043116859208253335, 0.13155283984536975, 0.3188129649370594, -0.25764021732878556, 0.4494127715011479, 0.7849880073505077, 0.1806113875163047, -0.8182320142100394, 0.3862681530047696, -0.2744297580313323, 0.37384491005296194, -0.3364983700672509, 0.4112879734300874, 0.40069790735205996, 0.9459919954439733, 0.4360652226992423, -0.4378133144708794, 0.6317972566862498, 0.12705077226451875, 0.6356513166900943, -0.5665720105253733, -0.8235910763496798, 0.24161527811951822, 0.9946736998733932, 0.8369789180091063, 0.9999929147781327, -0.3849284113943282, -0.32161842315589967, 0.965104560479633, 0.6988811993238728, -0.7309859895830817, -0.18275289717282858, -0.6760830701402325], [0.809787824748141, 0.39496448122695954, 0.6805496103811998, 0.12353198683905793, 0.9999985486847057, -0.9532766245252036, 0.013264368287864967, -0.8549528431063839, -0.01885450239817445, 0.7683581664248306, -0.08213805723937288, -0.9999805456619466, -0.3928056985286714, -0.9991417282811477, 0.6052001076058848, 0.015898653322436423, -0.5652259871644373, 0.20716674763489143, 0.9999991892360995, -1.0, 0.7213095591909958, 0.8809508871304763, -0.2858415700306232, -0.119936822098106, 0.5376099607762195, -0.9999238950008695, 0.10093802259498569, 0.975284323298204, -0.04342739759429831, -0.31494506882468853, 0.8452897768536546, 0.7362263907674811, 0.19283233542359618, 0.2449001311435915, 0.6844384569683339, 0.1376345876616896, -0.06752897260076512, 0.09129619945248643, -0.5742505834294322, -0.3353492225718911, 0.2726989364840532, 0.11916658680263245, -0.6483024409454409, -0.7524597729295226, -0.6673223223671113, -0.6741117892244548, 0.9999938275684124, 0.05070101622860443, -0.16084596897029813, 0.054170977258823305, -0.1230814612512524, 0.8432208780017637, 0.42742019812855625, -0.17475228578167523, -0.3631752616144229, -0.4238537321778384, 0.01653403833511616, 0.41966789710655006, -0.5627635752203403, -0.7880926359781478, -0.20077849326225433, -0.020769544569509357, -0.03377498487823776, -0.7957418560830628, 0.6417306181493379, -0.2970940341361328, -0.42254116343840653, -0.008187995147144373, 0.5438506013439413, 0.19615843806019212, 0.1725638414018642, 0.1446273922960961, 0.9999334346814821, -0.7490256858185168, -0.27736803883681793, -0.9999971593114456, -0.9978663670146746, 0.40607436932430235, -0.23088416664111666, -1.0, 0.06603647604432698, -0.26583977127761743, -0.20362453717248705, -0.9948104665242389], [-0.12716184581693124, 0.5098029398218525, -0.1103592074828371, 0.18944290611477765, 0.15343428291858108, 0.08630871120485045, -0.7745025250881135, 0.44569367503175694, 0.9989240634365117, -0.06994803956906477, 0.9999999999999999, 0.21604591952534258, -0.3252363580252187, -0.8396267467731917, -0.6183517996011052, 0.4584674022761148, 0.536512332649775, -0.13117614319500887, 1.0, 0.6863427358779278, 0.6986610072378868, -0.3694374971421791, 0.9872185598551635, -0.16840238294514515, 0.5588375138414738, 0.347537091045889, -0.665673207739351, -0.7083362737858766, 0.39468120332664436, -0.164776639512883, -0.4384024984186161, 0.5804782001287742, -0.9438018247547075, -0.7641746485710239, -0.6359636537577165, -0.8205909946268622, -0.4250387684188766, -0.30687898792783214, -0.7513488949443684, -0.024571273537756008, 0.7114185514266423, -0.9300340792935802, -0.6393532873560213, -0.19771739522122214, 0.09987692856901924, -0.7296440679942645, -0.2644343425888502, 0.8326440987783258, 0.10705386478301634, 0.17585731003308752, -0.060868760511491496, 0.3359768955910509, -0.1590959608899658, 0.25533055172180774, 0.9988220748163134, 0.5242599547340278, 0.6222132771202766, 0.807955250315696, 0.9999999999999999, -0.9999799554280321, 1.0, -0.9038385300661725, -0.807461436191865, 0.42407946071668123, 1.0, 0.28894007819645917, 0.6421588773498447, 0.9180337058655217, 0.7038871463930874, 0.681534067043654, 0.7883977667963166, -0.9998747684161835, -0.6743054146656647, 0.2481655450234197, 0.0619474610909318, 0.6931190540026471, 0.3521221502350261, 0.013434929180391755, 0.7341457354328546, 0.44809561830309275, 0.9422014856406983, 0.7806156622210196, 0.12790466928428545, -0.9333211722208196]], "w2": [[-0.16616031472145448, 0.3145385689264866, 0.9770692359041493, -0.45598351984388485, 0.999996315190102, 0.1261745189259556, 0.9191655065636715, -0.28995874497470775, -0.9930261461248906], [0.29456395824027115, -0.48674092702539185, -0.6262163534880012, -0.5911306485268321, -0.9136723334782059, 0.4215903357836025, 0.4481617951942712, -0.5600511528552446, -0.07517264575159961], [0.6838748433122532, 0.7437892347921544, -0.6926284950525476, 0.3439376222706781, 0.9999999999693447, 0.16498242049587666, 0.7698926827126598, -0.16159333283627456, 0.40155630177598645], [0.284628590524531, 1.0, 0.743691089406784, -0.6720248616992227, 0.7877251104773711, -0.7336018386630418, 0.16170930124256253, 0.5346870528287487, 0.7344703411282486], [-0.3727647157358548, 0.6498401615070798, -0.2572738248383552, 0.29282174894609886, -0.9999262786477748, -0.3301925324587634, 0.6689901712849181, 0.6699784088162597, -0.12666832502043188], [0.6725727247120727, -0.1762217805475807, 0.9251861222622538, 0.51074297052162, 0.4997732272663448, 0.5264767769223204, -0.201273288398062, 0.2642281985659177, -1.0], [0.9917633871480602, -0.23548325549261134, -0.31878532536677406, 0.6062373659163782, -0.7017309143229723, 0.35858608063643815, -0.9865742858054366, -0.06722024616464638, -0.9999999999976572]], "b1": [[0.6919112312508992], [0.8151433395860005], [1.0], [-0.9223802565604164], [-0.9823260866072336], [-0.400955329628834], [-0.2285291059885574], [-0.04101197286144405], [-0.26767974427561464]], "b2": [[-0.8582272217234067], [-0.8802487387226617], [0.22033061892296515], [0.7673635055484903], [0.9973317824954298], [-0.9777531698357136], [0.1685926250353279]], "fitness": 926.0, "best_pos": 9.0, "best_status": "small", "score": 600.0}