{"w1": [[-0.3820658453738875, -0.16617004276313108, 0.21001378186025724, -0.6026362588592753, -1.0, 0.20133378743445152, 0.15029266090192772, 0.6611324844424196, 0.007290846339066978, -0.5778220177703606, -0.0018131200108764804, -0.9999999998783227, 0.14534015289251437, -1.0, -0.569145202110733, -0.2629254544636271, -0.22517904265830674, 0.29840824552510276, -0.051265454139795615, 0.14821206231617762, 0.40147134756985503, -0.8619960857120867, -0.3016756348165957, -0.2548763999278234, -0.28964440599352403, -0.15230747300799197, 0.855981612629554, 0.45622106983989297, 0.7351214921097824, 0.29993251471782173, 0.3348706693244129, -0.7300438883795344, 0.068284468691526, 0.144103442605512, 0.26722872836893297, 0.9149913979536662, 0.5459526581750366, 0.6196512926245888, 0.8522073168175054, -0.9721514775588985, 0.5177815162060753, 0.9999970348993309, -0.4583670631233204, -0.927961834114313, 1.0, 0.37750020966544395, 0.06213003195075898, -0.42284906427880725, 1.0, 0.5160631997715288, 0.8203418029077407, 0.19503534524530033, -0.49147754583520625, -0.2991823457101224, 0.5729462292319364, 0.40025005598725943, -0.4731752273305493, -0.48508921309982433, -0.7790080738695561, -0.3841476101014964, -0.05514380632918621, 0.7802655944810424, -0.7260889211687165, 0.8347522169467544, 0.8988982709636248, 0.9999925820306178, 0.1454076337936092, 0.7107825520882852, -0.03737305974450793, -0.28636242173041676, 0.44090920111731363, -0.10211875338298274, -0.6528953339761907, -0.7886003851022083, -0.044050625919150016, -0.49468682056699637, -0.0709334872810495, -0.9999999999999999, -0.9989074951317454, -0.6546353057210222, -0.11098476210628204, -0.9999999152565953, 0.8173214976451322, 0.5472582096172689], [-0.13467336725432022, 0.7485347598250008, -0.03361803413623532, -0.591247595999487, 0.16289102960550553, -0.8797106125556617, -0.43338568942302674, -0.8049079818572943, 0.34930118192247006, 0.4205672873976589, -0.0545424075286623, -0.13799020801508693, -0.8220094670808095, -1.0, -0.9984690493158791, 0.21773848690868083, -0.9999751966116452, -0.24080773170447725, -0.9999999991409768, -0.5150293185868782, 0.037542068364428846, 0.6795089202117278, 0.2463067698191428, -0.40728687969577393, 0.9390667258616373, -0.03040914277315085, -0.5736914197448516, 0.45106337046662637, 0.2565392897428798, 0.17883712031426857, 0.834826674806386, -0.2511980798223603, 0.4227079292026242, 0.9999999999999999, -0.5248104553591986, -0.9999999964026463, -0.9524678819728227, 0.5063401747181115, -0.5626112920506477, 0.25549825727352393, 0.9999997720358784, 0.1305702865781636, 0.7626353828077347, 0.18682406821364944, 0.48293128721246426, 0.642819799797912, 0.7197071392003824, 0.999999663176213, 0.8105012144806373, -0.7759385665084814, 0.6155062584912746, -0.3705108356047148, 0.9047306484828513, 0.31076823535692466, 0.8088304963189237, 0.9996278928689127, -0.280911878733653, 0.8160175683100482, -0.7907848605886187, -0.2413974609827538, -0.755207845925271, -0.10197507454967956, 0.7790314615601309, 0.44245422417665425, -0.7441332852420098, -0.685340892534573, 0.43311313663977236, 0.5434163233787911, 0.691472856269958, 0.5396145534828675, 0.16493618988101347, -0.565810880502638, 0.9999963277487289, 0.7133274175066375, -0.023208206705498266, -0.8194104631794069, -0.31948706296709317, -0.1943203082204566, 0.724645469229685, -0.4819231532068041, -0.03509921550476764, -0.9999998978211283, 0.3345024857640972, -0.7933633376902517], [0.9999997684454028, -0.8190778182324931, -0.5400118771121168, 0.01600288513275803, 0.011563691562500422, 0.2452930988149645, -0.9992729293421975, 0.6602814628815015, 0.7321523546692426, -0.9354392930999186, 0.4809276364115832, 0.8795470726052808, -0.45196285630294103, -0.8194714599780132, -0.7202146688453569, 0.4631419137800479, -0.23224767896043247, -0.640590306682341, -0.07845781273531323, -0.9024123141642648, 1.0, 0.32154089231659155, -0.2545109948217036, 0.7020735023702971, -0.7466668061551607, -0.11879414357089642, -0.3993387457605237, -0.7389424923029573, 0.22539087093447177, 0.41442535643393563, 0.7592319657489089, -0.37953107209562664, 1.0, -0.08373874897014019, -0.9999999999999999, 1.0, -0.6987418519752643, 0.24682590267475482, -0.9582040677691219, 0.9999983426342236, 0.1441175264547089, -0.5377458668650439, -0.3392786287289159, -0.05805277861666582, -0.6160515064458009, 0.32868259575409425, 0.2087767100548681, -0.6176710113654756, -0.7373670891179487, 0.7764630063878003, 1.0, 0.34341992396312515, -0.9996467136337385, 0.1082358464658378, -0.6022806524313905, 0.9999988002901727, -0.3949176486508577, -0.7887165228491149, 0.4637555327350929, 0.21383503434203194, -0.37629204633117086, -0.21525431671272277, -0.33905640945262966, 0.801611186656855, 0.8338495672358842, -0.190693439640771, -0.8243954550622337, 0.4461627091000823, -0.6616865610608976, -0.15944244356346263, -0.5260405629810433, -0.72017013757919, 0.3041317192875874, 0.8467100156189084, 0.23853023918800975, -0.9101695121311038, 0.6006275023710449, -0.0360622010957691, -0.4996570790534911, -0.216173673632634, 0.9223494570162594, 0.34286616773932443, 0.4178268702182003, -0.17999580020906247], [-0.25318823341625185, 0.9996795290672538, 1.0, -0.9999999999999997, 0.7683892524480522, -0.6043604637398465, 0.4982032390153052, 0.5268700428704625, 0.7847564285090683, -0.46885931577207407, 0.05605447653573025, -0.5987559924727764, 0.06549269477778338, -0.5113989332725, -0.4097188647730626, 0.686468200021924, -0.6212602304410361, 0.9083285280593818, -1.0, 0.4674096141893003, 0.6082882417881095, 0.42564584695890534, -0.19998539624384515, -0.6780313153980959, -0.9982588402921538, 0.24392165550045553, -0.6673622283952763, -0.4028557604972258, -1.0, -0.7370874682254337, -0.8417806613740675, 1.0, 0.8011525001208021, 0.7870029518165703, 0.4176127414868124, 0.5916254253651617, -0.08317237167326148, -0.21913895976418693, 0.9999999999999999, 0.45982521244059055, 1.0, -0.39170342659457796, 0.9392344291618144, -0.04158610295963844, -0.01853533520362754, -0.37055955433571686, 0.5894939622796844, 0.2889632723313535, -0.9992165369807579, -0.05146986075532225, 0.7171290903399035, 0.3113738907536505, 0.17523475107805722, -0.4670104765237772, -0.04736759015696109, -0.8068636795067042, -0.227683372358443, 0.37992480921152905, 0.03971028537973777, -0.396315352754853, -0.1921818360946584, -0.20577068633703333, -0.22941991045990026, -0.40823090378919574, -0.12854300146022435, 0.09220664855331284, 0.9999999999999999, 0.5935840811699811, -0.6592983532147806, -0.419822961530632, -0.4200117313666357, -0.586693714079189, -1.0, 0.2632793347637898, 0.36103870093998136, 0.30187299149804314, 0.18408983544926302, -0.055090378857583784, -0.1315010482925188, 0.08208018843223762, 0.534145463433546, -0.3670116913726285, -0.8474254235210711, -0.36568390019083236], [0.6004386625767255, 0.6035679504264954, -0.28395629551866586, -0.9748744444946711, -0.10618956350091172, 0.07261939398122674, 0.060809003254243786, -0.8636177036467935, 1.0, -0.9999011395587862, -0.9999999999999998, -0.3428484751781439, -0.19004000011235977, -1.0, -0.6536858845094129, -0.35302651380411315, 0.2767397495846521, -0.3249891655679907, -0.7939493940257285, 0.9952359048947892, -0.018736127665312127, -0.6962598059432334, -1.0, 0.20279865039036968, -0.6082408966279456, -0.9983897145655005, 0.8215087855978439, -0.41170657246232434, -0.1861221850169463, 0.13031550781717732, 0.11185431411059706, -0.3372608439882681, 0.6611598529634164, 0.4471008937387403, 0.6784352207546884, 0.6862762150575547, -0.13451543461696347, -0.7385417378426693, -0.060205972002839815, 0.8352838420084717, 0.8304587554540097, -0.02628893280369722, -0.8800551866436047, -0.00020039594631154897, -0.7358566616039686, -1.0, -0.5132050147734898, -0.09262692547153908, -0.451997143071188, 0.3490298753305936, 0.9999999999381792, 0.9039890940459577, 0.7940209136019528, 0.03859892768904933, -0.31714058853911153, 0.23255549626954108, 0.013356896718198064, -0.4735486455259644, -0.0870331659150951, 0.626435022210264, -0.5297946909624369, -0.9994672069544416, -0.08552306361799561, -0.5910080568468196, -0.853365460837486, -0.35145007845125964, 0.14518306338691195, 0.7728651728200285, -0.5369531734981429, -0.974541550372026, -1.0, -0.05589958699983794, -0.4028920317153542, 0.9997297195988772, -0.9170031319669171, 0.999999999999929, 0.3441010286755766, -0.009263825018639715, -0.005696744986574687, -0.49201013250509645, 0.1712216843040593, 0.28640968362349406, -0.5733423645555151, 0.8758990433882317], [0.5832644845865297, -0.19587119147947352, 0.23835391490345503, 0.7959739893146371, -0.11449002629449978, -0.9999770543995968, -0.41160671122630604, -0.8776970060319104, -0.7501794028307601, -0.06229930466071602, -0.4556579348592811, 0.8103991855088541, -0.4715560161627683, -0.8244585019518534, -1.0, 0.5639335205877041, 0.08550051608725984, 0.614155609585087, 0.7945433197529458, -0.43684861299453576, 0.3748454390779119, 0.25702434453791784, 0.8880609811498996, 0.5110266526035473, -0.9999985773461695, -0.16735100045621976, -0.908566767549403, -0.10907332910350617, 0.1937705926307853, 0.9445205803017961, 0.4804402792344195, -0.20064384245811354, -1.0, 1.0, 0.5585207151079238, 0.5282673800944698, -0.528300146005334, -0.333715014160552, -0.18288732249917253, 0.35705574070265544, -0.6721065164306139, 0.3321890298639206, 0.5070351392749728, -0.04663833445292738, 0.9414170022509987, 0.6016367215556567, 0.35513715393699985, 0.03379516975909827, 0.10822019858818968, 0.7441134425107537, -0.7540431660334203, 0.8151962560351695, 0.24144663131790356, -0.0758237886884568, -0.8986683938090039, 0.32586585309793825, -0.2573158774702172, -0.13456306608253993, 0.0937344756111555, 0.7799827971312695, 0.5556752531219402, 0.9216245506198077, 0.6709271542406791, 0.4565997025029104, 0.6300232161965261, 0.8442295030257811, 0.05834053799048269, 0.009566774613723425, -0.7490099717855837, 0.1853580265178701, -0.45653179929182885, 0.26816291282540244, -0.792586541888109, -0.8407239586349291, 0.055965843161603294, -0.5800719113329691, -0.6223804580772089, -0.21861611767004918, -0.41091153537552516, -0.7990038229110049, -0.7274851317994894, -0.5970801369714626, -0.4932300408288387, 0.06665455279438307], [0.840989889097631, -0.024149049115708966, -0.6985200892340638, -0.31036019762518224, 0.6107512564158357, 0.4339944068563592, 0.9178117490132398, 0.3313167384333329, 0.24238556702456376, 0.9250623139012896, 0.25981108652574236, -0.12524073957131404, 0.9981198652384389, 0.9999999999999999, 0.6504135250810171, -0.10058407624064986, -0.9916278097541728, -0.9767651416736, -0.8462920631129005, 0.3106869515358244, -0.025859565516916528, -0.899999008608332, 0.42930953541254036, -0.9738830234212738, -0.4309876617736396, 0.9668932362167856, -0.9994975127159601, 0.3153159377147288, 0.45299590934176803, -0.5471558115493903, -0.6360981383359701, 0.7212292214416213, -0.023306117117734306, -0.5605511289695376, 0.7681555178711786, 0.9999999784865654, -0.7038797784368352, 0.5952227190135015, 0.1507848552501001, 0.10959974521879201, -0.9673138825937804, -0.6767598993352097, -0.660975224765283, 0.8124691432366788, -0.26393674121323857, -0.9480160568520961, 0.20675863336282518, -0.09303150425192337, -0.96543794305264, 0.25593109955455384, -0.1463630559120159, 0.0043116859066028015, 0.1315528398473893, 0.24515557642149485, -0.25565077562147775, 0.44944557226030407, 0.7849881317622915, 0.18061138245615438, -0.8177487479318292, 0.38627774070173043, -0.2739630200179103, 0.1843214771162078, -0.33750194717775694, 0.11514020230437806, 0.40069790730962246, 0.7999182335373659, 0.43649889681538784, -0.43781281497307895, 0.6360199457767387, 0.1268348607486599, 0.635667561502815, -0.5588148234150264, -0.8235922077753064, 0.2416194348505996, 0.9947092787643103, 0.8367690141916383, 0.9999929083651121, -0.38499195448068374, -0.3201338300348391, 0.9651045489601822, 0.7005367585587421, -0.7313515849389848, -0.18222226024596563, -1.0], [0.8098635854927783, 0.3949221343722613, 0.6805548199552242, 0.12352888776894473, 1.0, -0.8076919866341394, 0.013496554925030558, -0.8579567600840284, -0.0189456920455649, 0.7683581664132572, -0.08213668182984783, -1.0, -0.28726112191594255, -1.0, 0.6052013238503415, 0.01400819631713721, -0.35169248677394577, 0.20716674759638132, 0.9999999999999999, -0.9549448913511298, 0.7224339480466428, 0.8809508871304764, -0.28522745638704405, -0.11993685333674353, 0.4043300127313831, -0.9999238948694017, 0.10093802471012961, 0.9748750114410607, -0.043814713971343816, -0.3146161576538058, 0.8452897768184433, 0.7369172537962627, 0.19285702363727097, 0.24410301516850583, 0.6844387225920157, 0.1374062511702965, -0.06752898034816919, 0.09058448138092798, -0.5742523975853224, -0.33599691169141477, 0.272700593414738, 0.3028476235814057, -0.6487964481849374, -0.7292681958391526, -0.6673216827631514, -0.6741179403822426, 1.0, 0.05065687395108104, -0.15970149801967337, 0.054171153574423384, -0.1230814801299139, 0.843174076286949, 0.2612355251293715, -0.1748847387428708, -0.36051233375953945, -0.42385375548811965, 0.01653403833511521, 0.4193649177708819, -0.562763578758975, -0.7880926359781475, -0.2002150790476541, -0.020338505208401064, 0.10242447310175849, -0.7957431274562355, 0.38638153820054366, -0.29675338015814395, -0.4225411632819036, -0.007476029079635711, 0.5438379110195761, 0.19636749024457884, 0.17307829507233913, 0.14485498359764398, 0.9999936589451867, -0.7505137843592424, -0.27748996344755905, -0.9999971592519077, -0.9979023218904676, 0.39859814877886696, -0.17992689117641447, -1.0, 0.06603655485135307, -0.26690415677633367, -0.203625519994547, -0.9947768898607963], [-0.12716184581417628, 0.5097562027559513, -0.11032603517940805, 0.18930304044712645, 0.15333440432574869, -0.2970386828802799, -0.6716120966291791, 0.4456936673500471, 0.9989240634364892, -0.06994803805262463, 1.0, 0.21869278611871834, -0.3252365337566506, -0.839626746774036, -0.6184700895037787, 0.45847229941172263, 0.5365123325688441, -0.13113111736194405, 1.0, 0.6869440537462205, 0.6982371818403641, -0.36985002552486557, 0.9887636557892675, -0.013847094591096632, 0.5592696558156764, 0.3441010524434409, -0.6448491038337792, -0.5291651287835787, 0.39468593194480595, -0.16435893725492662, -0.4383504216995924, 0.8071332051469676, -0.9443888558631419, -0.6015515837860804, -0.6361341357116334, -0.3955302262301466, -0.42570506251354123, -0.5939166321467526, -0.7513561331480354, -0.024635444894918646, 0.7117764350046487, -0.9540130686777696, -0.6393573777852131, -0.19735893671541688, 0.09980336158121132, -0.8330759883514051, -0.26471764674928644, 0.8326441029184122, 0.11027062034967784, 0.2405185860063396, -0.0608680235303976, 0.3359768954615898, 0.12046027301732135, 0.2554093606809945, 0.9988219803148848, 0.523896055187798, 0.4937118457786164, 0.8079623806721096, 0.9999999999999999, -0.9999799635748466, 0.8461519670061609, -0.7772774701402152, -0.8074614526554521, 0.42392903920251573, 1.0, 0.2889717502528987, 0.5406966349513588, 1.0, 0.9999998296406549, 0.7070114795745256, 0.7883977667970319, -0.9196770600443193, -0.6746225784539164, 0.2481549365937103, 0.06194747514889305, 0.6931190540026471, 0.3520548793885431, -0.05297044677440493, 0.7259079597849925, 0.448038391378098, 0.9971532889487752, 0.780616140673945, -0.06246042598148114, -0.9333211722262071]], "w2": [[-0.1653601228214417, 0.3145030761479569, 0.9773527371675945, -0.455615454916197, 0.9999963338985562, 0.19919244510686404, 0.9188412807136337, -0.2899587312674638, -0.9945486015119042], [0.2945639582438753, -0.48813612990030525, -0.6247265311995631, -0.5575576964978262, -0.9137111802582722, 0.41395812021953693, 0.44816179552339613, -0.56004044728312, -0.06756797760321803], [0.6839727026835114, 0.7437335452543136, -0.6925380733597047, 0.34393749978123433, 0.9999999952837438, 0.057127003881415055, 0.7693279830098871, 0.015378333812334546, 0.2870067956088659], [0.2855878433552023, 0.9999862660504741, 0.7444029980731652, -0.6736956024555714, 0.800115860780371, -0.7336028547805535, 0.16179675350755127, 0.10947669033259116, 0.7344703297536064], [-0.3725500388103392, 0.6509587051079098, -0.257331223803677, 0.29282174895936003, -1.0, -0.33019253245781643, 0.6697973551485952, 0.6702710429845019, -0.12666830222839215], [0.6725727247120726, -0.17622177971896663, 0.9251861683852419, 0.5101372519531981, 0.5025286146803137, 0.5264502102218541, -0.2012732883980621, 0.2642281920858133, -1.0], [0.9917633766330325, -0.2375669270771361, -0.31878754190949393, 0.6068145662263895, -0.7022909041555211, 0.3585916349834564, -0.989464246916961, 0.009414172309842705, -0.9999999999976574]], "b1": [[0.6931810195069785], [0.9555596913206499], [1.0], [-0.925542028123233], [-0.9836712115436133], [-0.10954380881059504], [-0.26857861724389026], [-0.041011972861504195], [-0.2660235275942483]], "b2": [[-0.8581067631525275], [-0.8798182303639855], [0.22068938301968083], [0.7673169206930094], [0.9972723313619256], [-0.9777550946997803], [0.14197768856085213]], "fitness": 3684.0, "best_pos": 8.0, "best_status": "tall", "score": 1900.0}