{"w1": [[-0.3912984873016076, -0.1670991172048595, 0.21001377440848606, -0.5450439661050739, -0.9911122625859146, 0.0035797010854266295, 0.3812359377485108, 0.96589486765121, -0.006816398111248533, -0.7444478280011856, 0.13809168989948303, -0.9999999999999966, 0.14386328776020646, -0.8938378533837785, -0.6387097262893039, -0.26317841565053735, -0.05989031809505171, -0.28697577040243183, -0.27289774173960374, 0.14821848826874714, 0.09834349674610168, -0.8655027511233395, -0.3331537402325131, -0.16023708778478102, -0.2896653293452119, -0.153208335582842, 0.9387111128793879, 0.4565244601489361, 0.7296970192496273, 0.2999187436971332, -0.07086075139197287, -0.5077483981378972, -0.01457577019086718, 0.14837924563118532, 0.053169111600087166, 0.9154188400724833, 0.48981336457787134, 0.4321508053995167, 0.6455521526491271, -0.81012507005191, 0.5177723230634226, 0.7762582809474179, -0.7216789232197525, -0.6264679810720767, 1.0, 0.998536932608723, 0.06252330891360885, -0.42117488823292837, 0.8751705831928327, 0.5160631372411082, 0.7600710425009957, 0.19508685802536366, -0.35959914436412904, -0.30153177908927703, 0.573931453177841, 0.4004518409327536, -0.8724735653559159, -0.484746586282873, -0.8210237383375999, -0.7302150361218476, -0.05512370853919958, 0.6615329662837657, -1.0, 1.0, 0.6459908598940433, 0.9707172767869856, 0.14486540810366277, 0.7108090452733526, -0.037090090680007404, -0.8702856690783896, 0.6865500783136571, 0.16258113321978662, -0.30185971315076615, -0.7886017228914599, -0.28218386032525117, -0.5395002674480223, 0.01899195571810913, -0.9318918988216818, -0.9989089375225604, -0.6186067283692291, -0.038489814522380705, -0.999999915256595, 0.6623236566812294, 0.37439197091405013], [0.09920535929811407, 0.9723237865124557, -0.2297898175209274, -0.7015314289213922, 0.21180056449031895, -0.9129362570569742, -0.7296034281769772, -0.5343637189809451, 0.49696979641823313, 0.420793202595398, -0.05428775176849493, -0.023682515663997206, -0.8220094670808097, -0.6386635294459762, -1.0, 0.6823846938401412, -0.3898824904398545, -0.2408074776942637, -0.9999999214635927, -0.5137424754205311, 0.05687116498272539, 0.6250943565022286, -0.02818443243324543, -0.5153019152212156, 0.9392751445820329, -0.030739368638311747, -0.9168825845054104, 0.4928524914720832, 0.3732515893013134, 0.3226985467732837, 0.9999101036910228, -0.3953631213346744, 0.41997403696465196, 0.9533747497353058, -0.4567700633799088, -0.9999999999907344, -0.8168626736956209, 1.0, -0.562620898846932, 0.5580968763478386, 1.0, 0.13056994126199112, 0.7501805965937505, 0.18701047477445124, 0.4871670756489329, 0.46495958637418033, 0.6118263735036765, 0.9995915257561092, 0.8100822609962954, -0.7759385665396936, 0.2252646826195727, -0.3702971630301568, 0.9047306484828511, 0.7125066275651106, 0.9838818825140838, 0.9999999717658457, -0.46605093726016333, 0.6056107286338361, -0.7907006445184102, -0.780131058844286, -0.7556324425031274, -0.10197511996741303, 0.777790898812483, 0.44245367755201, -0.7797340833003328, -0.6857367317831267, 0.45358047483227293, 0.5419090747014835, 0.061302335790622775, 0.1694283585741862, 0.16493797431205082, -0.7571111961752813, 0.7032316241677186, 0.5581063473105089, -0.02320876562694529, -0.8194104419803306, -0.2307233569237018, -0.41395638095846427, 0.7359254156831357, -0.30488866916164914, -0.010530034007019325, -0.9999998963220995, 0.28884798107757126, -0.5751982793017046], [0.7276181843513463, -0.9215190716158017, -0.4907218204301755, 0.01600178843908424, 0.005480632694461696, 0.139470750136458, -0.9999941321828663, 0.7330624940144095, 0.8429614436812097, -0.8865280349806912, 0.7781510284505465, 0.8795472004521047, -0.44671268601436703, -0.8195304319176777, -0.7965769833933, 0.528051865043294, -0.23223465352930928, -0.6405650740335179, -0.5107474030478305, -0.9941712540778221, 0.9999999987356003, 0.06846725757034797, -0.25409147441709334, 0.7056482131184673, -0.6783377575491466, -0.23924088724551226, -0.3628759169392251, -0.7389636861082598, 0.22531532325707587, 0.2816279894266733, 0.7602720919377465, -0.6802694993619743, 0.999999998914804, -0.09265625053857124, -0.9712361505749977, 1.0, -0.8686522604021938, 0.4633752601142132, -0.9996056734221512, 0.6266401502926602, 0.4423158184172466, -0.5354919435732035, -0.410292123204805, -0.057653303860434, -0.5722394294624659, 0.4811518169432414, 0.2450267584741049, -0.6183887005258273, -0.9999716039801764, 0.776463009832223, 0.7402763282591461, 0.09072804227503428, -0.676041617587448, 0.019760885363888207, -0.592157169457445, 0.9448687580773706, -0.3964592899379236, -0.7751852271939377, 0.4634509451745222, 0.4636853588118199, -0.32045752716332887, -0.18731979000229068, -0.36789962739922505, 0.6097547154578967, 0.8338495705937565, 0.07722085152196903, -1.0, 0.18733159785072154, -0.6577590665564651, -0.16049524994010844, -0.7010675302128909, -0.888891164505229, -0.032867595180543184, 0.5335804153654228, -0.17425372410686302, -0.9101695145986253, 0.3616409152555406, 0.20036766464859748, -0.4996598965991688, -0.01206133735858623, 0.7349304830187742, 0.3428911782722094, 0.4178268607379486, -0.17726848073051654], [-0.6548090855902058, 0.9999999999999996, 0.5490426514582738, -0.9999999999999993, 0.7019796332047669, -0.6043611774808308, 0.31139698981640773, 0.5268700432267532, 0.783952053251609, -0.2806009617505547, 0.07299553038471668, -0.597988048685625, 0.27191054601516523, -0.5126989549912554, -0.4391090777132724, 0.3695720620668255, -0.6212556123068592, 0.9999991877293458, -0.66634561876257, 0.4684590836583855, 0.6073430027933816, 0.4251161868667014, 0.06272822417436585, -0.6818279915220679, -0.9037894247503941, 0.41862649394371626, -0.5784363644417042, -0.4698260980085021, -0.5189868681551584, -0.35346675045638043, -0.40249011717864536, 0.8972710670776183, 0.8165572082947353, 0.7870338220817147, 0.49682519670270464, 0.6822897302163005, 0.5516224341061382, 0.4260947700964327, 0.5581687669575992, 0.23955671722286334, 0.9999991360186408, -0.24393880393593168, 0.45392365783015154, -0.04223384835469967, -0.01910073092859105, -0.6205741697361494, 0.7245883690695726, 0.04769553715664681, -0.9992165369807581, -0.17376200801711597, 0.7241569716564245, 0.31134466793941146, 0.1752286715325899, -0.39771602716160864, -0.20587403065256782, -0.8057518361007459, -0.22769097747514425, 0.32510970975387793, 0.07911482866247689, -0.5449711467022391, -0.010103361913425979, -0.5782460590980363, 0.06289633668936662, -0.4094866866210466, 0.07137397398259841, 0.09220684184314078, 0.985450688833812, 0.39920702889811477, -0.6585216184343949, -0.744035073676407, -0.542003310153501, -0.5866937140791891, -0.9999999999999996, 0.026646124580030715, -0.009118940910348351, -0.1578761225956253, -0.18268670379036198, 0.206691698449026, 0.08981364717679216, 0.0808020789139491, 0.6371774127547254, -0.36737195929308014, -0.7745934949836638, -0.20191214768141288], [0.6004310825824155, 0.6035679507311987, -0.44054617056390943, -0.9750226555350012, -0.21720804986818487, 0.469713640895853, -0.12254560802775129, -0.8622409355866936, 1.0, -0.8537725082628261, -0.6995497213045008, -0.3428484749042592, -0.1895938597058961, -0.8373271166791041, -0.6535861298123499, -0.2034982777082334, 0.27645447392538375, -0.40918273698154467, -0.575753229881315, 0.9485596652649174, -0.31140846183016074, -0.6967389946091158, -0.9999999999999999, 0.2028001931886871, -0.7977458435311828, -0.998380263852246, 0.932809249696249, -0.41168814441982815, 0.13715960616144726, 0.12402776129028094, 0.11192870686197533, -0.5778780583897349, 0.7019873547564977, 0.057539157261724816, 0.627670665929704, 0.44333848198692133, -0.5713550397263039, -0.7392415559432685, -0.05978032454336837, 0.8289556381285441, 0.8304587662068144, -0.05089400763091101, -0.5306032017823583, -0.33029829992103416, -0.7359002123664444, -0.9998721194666821, -0.18372390871091754, -0.09262692671269215, -0.6240546369805301, 0.2125692813993952, 0.8703146837232579, 1.0, 0.768949066969838, 0.2533768192688358, -0.23154035346326718, 0.23251304765313013, -0.029941428317550103, -0.47350269911687287, -0.12481367956180027, 0.6254149029801394, -0.5236240515201295, -1.0, -0.1893577832771764, -0.5856985459160791, -0.9199483412745812, -0.5449100638873996, 0.00032346648397305847, 0.999984134417784, -0.07518267704679354, -0.5170218828620139, -0.9999999999999998, 0.1834485791903442, -0.40289208366955287, 0.8852549450926722, -0.9170530327102445, 0.9999999999999276, 0.42398447398696554, -0.00880420006904986, -0.2264144682368958, -0.5896698080048852, 0.24402023121548766, 0.43969751324371553, -0.5221877349001651, 0.609322407771481], [0.8111078578076284, -0.19661961485467389, 0.32312896215541836, 0.8136059020290697, -0.21089371453997402, -0.48120751530308514, -0.41245141238113003, -0.8780303648984739, -0.9978463892989032, 0.11889259157724616, -0.45564027174731575, 0.5861584593425746, -0.8461171804662277, -0.9278041275336223, -0.8554508951267891, 0.2557263522012429, 0.4176686262063607, 0.6130368058580774, 0.6554122851993875, -0.6056191143504656, 0.37357031268035407, 0.30460017384771154, 0.8880543364886939, 0.9824668276487871, -1.0, -0.16776630574407314, -0.907988450375134, -0.1090733291035061, 0.1929635281689607, 0.8167828460258396, 0.7454014935933693, -0.08286951444733592, -0.9999999999999989, 0.9999958489955301, 0.5585206925378953, 0.7252996622248509, -0.21531817336502998, -0.01597603641202755, -0.1934074550907151, 0.35705658622234304, -0.8567470597028124, 0.3339156517568366, 0.45702250528617905, 0.020514807293286003, 0.94141747935469, 0.6359045635020214, 0.2775499597160625, 0.32522336795793144, 0.1308097589119181, 0.744537697530303, -0.9389196509152643, 1.0, 0.24157385103035486, 0.36053657216203044, -0.7436591974095541, 0.3258485063500966, -0.2573158523873559, -0.2374405337850624, -0.386828612142745, 0.7507773159125818, 0.5522498657238136, 0.718616326444132, 0.5706490621522419, 0.1272322748693095, 0.6300273470582681, 0.7161101910939148, -0.23192811264985735, 0.012600198271918661, -0.7323939028748522, 0.18540214732232613, -0.45679518840202454, 0.054325195217407, -0.5406536297176688, -0.8341835578420048, 0.057701782075409006, -0.14362284651858284, -0.7505131812346774, 0.2961976485835783, -0.44753496116302743, -0.799003797809671, -0.06969534879532126, -0.7847811026494002, -0.49420044672171043, 0.1330751956976374], [0.8409833954904811, -0.0934358798712577, -0.7657357477744077, -0.3489447975123785, 0.4889673968221629, 0.47405503410240235, 0.9173430204313769, 0.28698780663994994, 0.24128302224518208, 0.9250682004668599, 0.25985206107378533, -0.1252407869848453, 0.9981198652384384, 0.9899074898015071, 0.85319409937918, -0.1437689489380794, -0.9916278096999797, -0.999842031178347, -0.4950841818192292, -0.05025518941909074, -0.4863963683929375, -0.8999991508803116, 0.1489238578138059, -1.0, -0.43099537386396386, 0.8041244784694914, -0.9999968084894107, 0.5948217815186141, 0.4530114610155171, -0.5471557113762066, -0.6010839049025777, 0.9981947474480588, -0.023307611508254167, -0.5605525266666755, 0.7397043391864263, 0.9999999998068957, -0.6548706919669874, 0.9999417306216762, -0.017239192492342948, 0.10968426631187696, -0.9998130835530209, -0.6783174868447, -0.47380680024915695, 0.6545939343193691, -0.25774420167302514, -0.9482711499904732, 0.048617317341043714, -0.09280395707599323, -0.9557859270570417, 0.20950073908697606, -0.13300140054756615, 0.004311687085436848, 0.1315527370819651, 0.5916466438882733, -0.41265093875231085, 0.32882542540597026, 0.7849270801000827, 0.18060815806650124, -0.8660176121309249, 0.3847621560484719, -0.3236451294608714, 0.011534709914590855, -0.33656626503643, 0.5117091694552195, 0.40069789413799656, 0.7172501114412857, 0.24765639460834524, -0.4394000989694721, 0.08957859414132574, 0.2184824679134176, 0.5102302935273113, -0.2555278690659685, -0.8225531528312449, 0.24080292609376458, 0.5004437691829166, 0.477645696394694, 0.9999997638053988, -0.11908020727623933, -0.5283680897437305, 0.9651045188643587, 0.494487706203627, -0.3208438663865181, -0.30215278421025776, -0.7488161177827986], [0.9999999999999999, 0.4121132200335493, 0.6809876724401436, 0.1231145800708935, 0.9991363639730473, -0.34025334344004865, 0.11056393769324888, -0.5282515499784393, -0.13684880733396293, 0.7669627226131632, -0.25087446101732386, -0.8709919253203195, -0.25975988081529966, -0.6576240240610232, 0.6050127429194753, -0.2581893677806825, 0.13131658077054226, 0.2071667361186228, 0.9998202624176327, -0.45350034201292067, 0.941028961242893, 0.6572892498461437, -0.2857993295487307, -0.12010533773694748, 0.3384818306314796, -0.9830318245127192, 0.1009385416713946, 0.8787845663160142, -0.34295070148869955, -0.31460913585160716, 0.8452897703841004, 0.9586718216536511, 0.1912724632241547, 0.6573785017861228, 0.684570752956312, 0.3927217008570794, -0.06752826240036666, 0.607085598712924, -0.8172535826836288, -0.49525344751846556, 0.4230962880364999, 0.3028092027255573, -0.6472926754670137, -1.0, -0.7390349527918724, -0.6745833128762182, 0.59511737142808, -0.14795061014281857, -0.0629317856116634, 0.05419836189823591, -0.12308976841946957, 0.9992442187493686, -0.41368917819936335, -0.2784622398355273, -0.3604923557420366, -0.4238525355256401, 0.016534038350438145, 0.5118955320073866, -0.562766020071302, -0.7323326625632349, 0.15995915656062681, 0.12331305867877089, 0.2028893220178137, -0.7946138086533554, 0.10297526592992554, -0.24626067687416195, -0.42254117166557914, 0.19765572402076828, 0.49869195532147537, -0.058938729026642746, -0.026631682310799543, -0.16466379098806314, 0.7465166906669477, -0.27292072416669183, -0.2705752044354771, -0.9999971240542651, -0.8321518436992733, 1.0, 0.2945777875147258, -0.8456917343829993, 0.06603095316822793, -0.6643371972364285, -0.20321596060966723, -0.9986907290450957], [-0.1271618455337662, 0.5133668694545792, -0.4000437142811453, 0.09099334621893472, 0.12319063958763593, -0.3631759772203276, -0.6716164797220021, 0.4456879130481436, 0.9989240634282139, -0.06994946874462848, 0.9999999999999999, 0.06445722742790333, -0.32561192797265703, -0.8396267469312966, -0.6184989062657252, 0.45754037664506403, 0.5372987557218308, -0.1315888030952409, 0.4345814037891463, 0.6258921226202012, 0.528649204190117, -0.31345453060669787, 0.9210004757728775, -0.06368858340013628, 0.6340292558757448, 0.346566440052188, -0.7495337701872775, -0.5291651287835787, 0.320996272633493, -0.044238564717420985, -0.44356375648906093, 0.5219703341027923, -0.5197789537235425, -0.4169748550470843, -0.5855315519643556, -0.7699689867968116, -0.20160960636623837, -0.769937715506382, -0.7525355627566501, 0.09042526327630906, 0.8401987403066231, -0.9973798646492689, -0.6379400833848905, -0.1424520582047203, 0.07656121496690838, -0.8330749513255954, -0.4846944253296486, 0.8326465105301517, 0.30197444837888593, 0.8354854439426164, 0.06749225010521948, 0.335979481835911, -0.08731858699643105, 0.598570748097546, 0.9989325128798328, 0.7593528808221889, 0.760258325771459, 0.8065102328409367, 1.0, -0.9999805036410826, 0.9999987673203833, -0.7843420011442194, -0.8074633419306569, 0.5830012972031847, 0.9999999701088382, 0.4378796768773594, 0.7409572081557402, 0.9995387063326846, 0.9999998304272202, 0.7055169106405422, 0.7883977679142233, -0.9190925292490126, -0.5819646586327245, 0.24867954366286663, 0.06209723645969236, 0.693535993974849, 0.04132841516402194, -0.35586820880517744, 0.9876790975808171, 0.446779302109875, 0.999981743219854, 0.7804769402026032, 0.07668423293340018, -0.9333211737606184]], "w2": [[-0.2263626568188839, 0.14113746286527776, 0.7738248239618796, -0.32356787142782745, 0.8751346456905138, 0.03581322203906318, 1.0, -0.2899594027450023, -0.7811342462732307], [0.27668735449803555, -0.3768617611599466, -0.7589265910717835, -0.16688242341898624, -0.9991751534669313, 0.5453333035481048, 0.448161706334106, -0.10015714624265287, -0.2839764102973474], [0.8439678634587994, 0.7311106151782895, -0.819375804993923, 0.34396137855256437, 0.9300246135054574, 0.05791575685786149, 0.8301539303975839, 0.013533897571762968, 0.5423063907025656], [0.20196409933861217, 1.0, 0.270202786152694, -0.3512299159767733, 0.7513663620032043, -0.7321793035838262, 0.18105689561638738, 0.10426149960212056, 0.7344760487028658], [-0.44786169974261336, 0.4839255571699139, -0.26646749867635466, 0.29282175551824535, -0.9999992141842444, -0.33019253224959083, 0.489454154808671, 0.8481422090248728, -0.12666469547783654], [0.673557545126249, -0.17622168244149897, 0.9251847301857552, 0.7260460532425869, 0.5025286150362385, 0.5068189809818765, -0.20127328839805783, 0.26423852347447624, -0.9999999999999999], [0.9914247654763266, -0.029338692267544025, -0.31802608429863305, 0.768970992986425, -0.7051328647699175, 0.36027916407692884, -0.9883551584746956, 0.21449123989248875, -0.9999999999973829]], "b1": [[0.4994419024565768], [0.9999661920063438], [0.9999999999999999], [-0.693660362156904], [-0.7779191644024878], [-0.3068613091979123], [-0.1645034245786981], [-0.04101197406995111], [-0.4759455069180022]], "b2": [[-0.7119405880458479], [-0.8423669207825502], [0.6249979034735234], [0.7531084999706845], [0.99798654511975], [-0.9775441046617439], [0.140821866191527]], "fitness": 325.0, "best_pos": 0.0, "best_status": "small", "score": 200.0}