{"w1": [[-0.38204098196497477, -0.16616660790251236, 0.21001378190320508, -0.60232502559139, -0.9999923721442007, 0.20081770745765454, 0.1501265301247664, 0.632687249177208, 0.007255640025220725, -0.5771066305745196, -0.21186026649637624, -0.9999999998785501, 0.14532898584132478, -1.0, -0.569675989345401, -0.2629251371631031, -0.2948486454127331, 0.29893997378008375, -0.05208788118847683, 0.14821196961200198, 0.4025339931124268, -0.8620186754280489, -0.3016775335830164, -0.2549269942172674, -0.2896445002433607, -0.15230735155983713, 0.8558354013302534, 0.45622346476476633, 0.7350897627998235, 0.2999326514022292, 0.3331832170779476, -0.7300435612944635, 0.06861185181012118, 0.144061838107006, 0.26722872836893297, 0.914989492137888, 0.4538451035917509, 0.6209395557611946, 0.8502433248025328, -0.9711732642665859, 0.5177815168251335, 0.9999970377418645, -0.46133098499099606, -0.9254183472348909, 1.0, 0.37853881709595744, 0.062127781232433336, -0.42284347950456813, 1.0, 0.5160631996439685, 0.8203392439844066, 0.19503530249648302, -0.49147665288998055, -0.29915229154219064, 0.5729439987915232, 0.40024718788608765, -0.47573372771686545, -0.48509574215107265, -0.7790080755156985, -0.38417810422765025, -0.05514390280733623, 0.7796173885947476, -0.7266239230199318, 0.8347174466587092, 0.8980114117140547, 0.9999927585816584, 0.14540810369524593, 0.7107826423068729, -0.037372815419167184, -0.11598358935523859, 0.44075922629018394, -0.10269276699395273, -0.6532404146890028, -0.7886003894795854, -0.044623453534919755, -0.4946868319281187, -0.06954855697202782, -1.0, -0.998907508280554, -0.9849410256755652, -0.11098398670259528, -0.9999999152565953, 0.8182529544986507, 0.5482971256124638], [-0.1355103172379272, 0.7483294359155354, -0.03336876235479265, -0.19280088256362893, 0.1628960801283507, -0.8795856965671369, -0.4340727384736557, -0.8001653141822915, 0.35040230935294364, 0.4205662357761691, -0.05454212056456595, -0.13801532710115236, -0.858775768999949, -1.0, -0.9984762549888144, 0.21661195190164803, -1.0, -0.2408077307106446, -0.9999999989963125, -0.5150243672425804, 0.03747059480258184, 0.6795084895302828, 0.2409189281541716, -0.40729103746150375, 0.9390672150793465, -0.030407443037747242, -0.5739924545872754, 0.45063699115103745, 0.25597050956767675, -0.028197454770863828, 0.834708893116107, -0.2529192856446333, 0.42270973130600437, 1.0, -0.5248508615006674, -0.9999999964336946, -0.9519720562871395, 0.5049021625107334, -0.5626113957621097, 0.2569451515433985, 0.9999997738700024, 0.1305702884160776, 0.7625527996313023, 0.18682537625411003, 0.4829096525674847, 0.6427846467090715, 0.717868402717445, 1.0, 0.810500828993672, -0.7759385665085301, 0.6139748529600072, -0.37051355429174115, 0.9047306484828512, 0.315662625852095, 0.8050650389140847, 0.9996277786266211, -0.2809118759732637, 0.8194955365905712, -0.7907850006077376, -0.24144053687680558, -0.755202209955186, -0.10197507460598898, 0.7790309401202861, 0.44245422304723603, -0.7845102894463925, -0.685339759453279, 0.43308623738110485, 0.5434093208855497, 0.6900818104565761, 0.5399111626341103, 0.16493619017299535, -0.5636445013370415, 0.9999963379711422, 0.7136885675858659, -0.023208208124441604, -0.8194104632408248, -0.3202194695502856, -0.1958942101314246, 0.724647437326046, -0.48384103845281623, -0.03509921550476643, -0.9999998978264962, 0.3346038423715641, -0.7940712836790049], [0.9999997714021802, -1.0, -0.5393722465496752, 0.016002891164203597, 0.011591578094949017, 0.24544149730022272, -0.9992666128497384, 0.660012335106582, 0.7320525049485952, -0.9354875396029916, 0.6102543941012032, 0.8795470729818287, -0.4519484888400193, -0.8194712341352708, -0.7210947401645899, 0.4633699801824027, -0.2322476255814758, -0.6405904961547585, -0.07830273173124491, -0.9018968027869887, 0.9999999999894271, 0.322893787682651, -0.2545101157361603, 0.7020987988069659, -0.746591218825196, -0.1190806399822962, -0.3990962899281142, -0.7389424318475639, 0.22539080060538638, 0.4142792938823356, 0.7592234707875845, -0.37882727975283714, 1.0, -0.08381797800825028, -1.0, 1.0, -0.7003759433621755, 0.13823222121311604, -0.9584493759367692, 0.9200816005113421, 0.14356827895267782, -0.837432369740303, -0.33930503039829685, -0.12463653732955438, -0.6162545108042216, 0.3288692311488642, 0.2089230509902846, -0.6176716480419185, -0.7374886517324041, 0.7764630064099693, 1.0, 0.3434236115236733, -0.9999365019105502, 0.10822671482122362, -0.6023503462852359, 0.9999987932634222, -0.0658192199701414, -0.7885280087478074, 0.4637541460858849, 0.21374030385410298, -0.3760504457281519, -0.21566232537306523, -0.34107453097661045, 0.5866777662810713, 0.8338495671284266, -0.1903997252790439, -0.8244523736605409, 0.44573177118541624, -0.6616944964344756, -0.22430251225471698, -0.5260959444253879, -0.7201701019924646, 0.18848343329249592, 0.757649214485584, 0.23513984048965061, -0.910169512122284, 0.5998779995044765, -0.03909353762189574, -0.1054892632632014, -0.21369121274685965, 0.9219379141031817, 0.342866151854955, 0.4178268702559888, -0.1799978571372932], [-0.25589077799591453, 0.999677015561076, 1.0, -0.9999999999999997, 0.7673042377011395, -0.6043604616126316, 0.49820341762403814, 0.5268700428705156, 0.7847588985881568, -0.4685795190339541, 0.05599480781596035, -0.5987395927010052, 0.06464859651958973, -0.5113931358249738, -0.40954146872966707, 0.686567004640052, -0.6212602588149295, 0.9086395763867966, -0.9960546715931038, 0.46739133821208556, 0.6082883691117787, 0.4256493386685939, -0.19990777302229035, -0.6780309328063746, -0.9982573693150513, 0.24514823011524572, -0.6667875438876267, -0.40278150654623773, -1.0, -0.990311232362254, -0.8410355397894478, 1.0, 0.8011365108045392, 0.787002819829426, 0.4176127397932231, 0.5916077793641165, -0.07515842569760736, -0.21979028386265678, 1.0, 0.4598252123268996, 0.9999999979099906, -0.3904697728476477, 0.6071676744914236, -0.0415887580100864, -0.01853626548832578, -0.36783036844666883, 0.5896381815837745, 0.28652926640107595, -0.9992165369807579, -0.0516703521371046, 0.7171126672263876, 0.3113739125471172, 0.17523469424887092, -0.4674536859126686, -0.05002541747419709, -0.8068617773101479, -0.2276833816084166, 0.3802304127610421, 0.040123748020413755, -0.3958297880011981, -0.19123694933087876, -0.20577573932681184, -0.22941990901159942, -0.40823154730053884, -0.12773457495151033, 0.5176587144715973, 1.0, 0.5935743898340122, -0.6592946216488593, -0.4190234542256992, -0.41969186696168487, -0.586693714079189, -1.0, 0.2637436768486577, 0.36045371721928166, 0.3010260453639566, 0.27091135183920967, -0.05542330682739014, -0.13337802217267988, 0.08208415354327349, 0.5333118977581899, -0.3670201482625604, -0.847294461505203, -0.3658216507868856], [0.6004386330702075, 0.6035679504245738, -0.28286818681797893, -0.9748745108831619, -0.10641805798455103, 0.07340732380879654, 0.0621291457503287, -0.8635989610935397, 1.0, -0.9998245117025354, -0.9944666039292206, -0.34284847517775396, -0.19004245617541793, -1.0, -0.6536857612971022, -0.35378312380444893, 0.2767386571903615, -0.3249478551719749, -0.7973450978790765, 0.9951650392114564, -0.017239597364318175, -0.6962521126475386, -1.0, 0.2027986536481975, -0.6079254104791578, -0.9983897380728892, 0.8215026016714896, -0.5648745585533272, -0.18365654321818076, 0.13037141575856506, 0.11185427591396022, -0.20163357592338516, 0.6611054521432522, 0.331047923962944, 0.6787123565669599, 0.688032984934352, -0.13494377808591707, -0.7385542901454205, -0.06020641373703341, 0.835311856793752, 0.8304587554848857, -0.026092889117367648, -0.8828734141155048, -0.00023167952072612738, -0.6508634506601563, -0.9999997447570577, -0.513204556293633, -0.09262692546028438, -0.45185108466512064, 0.34798598616725357, 1.0, 0.9049244283158872, 0.7940003206184495, 0.037029266092402, -0.22346749163606025, 0.2325554698103136, 0.013178457612790002, -0.4735484658746912, -0.08693661125988371, 0.6264329044488597, -0.5864112248949511, -0.9994641981506486, -0.08569940874401348, -0.590967500556688, -0.8530975678877305, -0.35182837166739805, 0.1455937128505814, 0.7738638848523467, -0.5372033382845495, -0.9746794198250366, -1.0, -0.05591642021414845, -0.539090311725891, 0.8724464351499497, -0.9170029833985766, 1.0, 0.34477023740416424, -0.009262110669161822, -0.0048585402686255824, -0.49211765023771725, 0.17039866712936053, 0.28566382424861037, -0.5731165429464513, 0.8748567720291687], [0.5829785308084047, -0.19587238954067274, 0.23835861250633056, 0.7959741050763699, -0.11449002847314348, -0.9999117603467887, -0.4116079008648564, -0.8777002702730927, -0.7501793625255765, -0.061232781416265994, -0.45565793544300337, 0.8105459803623303, -0.4710049099408491, -0.8244586115133539, -0.997528550023088, 1.0, 0.08505625513456018, 0.6141556205503022, 0.7945433197259962, -0.43700516236474424, 0.3748517479276782, 0.2570243441102509, 0.8880609794559732, 0.509949544847218, -1.0, -0.16735143724265666, -0.9085682493672963, -0.10907332910350617, 0.19376443974623572, 0.9445203152716775, 0.48012385842889216, -0.01734497742990898, -1.0, 1.0, 0.5585207154521231, 0.5283566264349652, -0.5261058094724305, -0.3344940752720901, -0.18288733176770328, 0.3570557332484201, -0.6720196839948972, 0.33218265047634066, 0.50718863780274, -0.046515372398069896, 0.9414170023006464, 0.6016324481657773, 0.3552640140047128, 0.03464890767547789, 0.10805420894700672, 0.7441133459564454, -0.7524889085694314, 0.8151990122770921, 0.24144746994784397, -0.0775134300632644, -0.8999068039071, 0.3258658656309379, -0.2573158774659413, -0.13456311204144472, 0.090315378876786, 0.780221382387272, 0.5556775424098586, 0.922282377451028, 0.6707478548243805, 0.45581751418830196, 0.6300232202671378, 0.8442295021008558, 0.05745145243718225, 0.009579714815643663, -0.7489971305949144, 0.18535771852792654, -0.39110011106938436, 0.26752886731913755, -0.7920948731317478, -0.8407163704137455, 0.05595759954931531, -0.5791439901470975, -0.6224436066055047, -0.2279246860770696, -0.41098659811393057, -0.7990038228911739, -0.7263479154492989, -0.5970785619196224, -0.4932313036630733, 0.066658700585693], [0.8409898735388761, -0.1095965134523296, -0.53666404826672, -0.3101047463535369, 0.880381807914016, 0.4340126252854702, 0.9497990179794956, 0.33124696523759123, 0.24238597805740472, 0.9250623301930703, 0.25981094124867127, -0.11349161305110902, 0.9981198652384389, 1.0, 0.6503097470203894, -0.10042599847936984, -0.9916278097542499, -0.9768672114921305, -0.8470395092391863, 0.31068686890421665, -0.02585010387026311, -0.8999990090024995, 0.42930953541254036, -1.0, -0.4309876818469076, 0.9670720940479044, -0.9994941422939625, 0.31348875777037133, 0.45299571976108544, -0.5471558123523672, -0.6362859207845583, 0.7212085028118244, 0.14742099666335548, -0.5605511194725196, 0.7682673969093812, 0.999999978560401, -0.7041846161626596, 0.5933461458962093, 0.15211637324896804, 0.10959980239798055, -0.9669581593230263, -0.8417408701262835, -0.6607745038693862, 0.811920511592867, -0.16232025081683366, -0.9480160684820529, 0.20871191956855994, -0.09303035046195096, -0.6352150574332776, 0.2558939406432983, -0.3851467438244802, 0.00431168591162347, 0.13155284006523446, 0.24364685365549116, -0.2524580013166304, 0.4494468204857858, 0.7849884391495946, 0.18061138259303997, -0.818222161309309, 0.38627321442191886, -0.2739582029597965, 0.18317227102928563, -0.3375108107908974, 0.1184145372355445, 0.4006979071190788, 0.7999510468074642, 0.4364833041638345, -0.4378144803070694, 0.6307433386432792, 0.1267465832139737, 0.6343111600880729, -0.5586026712875305, -0.823592169609973, 0.24162230624906855, 0.9939435097857597, 0.9949981348975743, 0.9999928411904384, -0.3859399959103333, -0.31992475055186126, 0.9651045490646528, 0.7027222517037933, -0.7295984097374072, -0.18235777107688966, -1.0], [0.8098434170816983, 0.39509130908260587, 0.6805543270307705, 0.434803534569651, 0.9999988022431062, -0.8061515788044025, 0.014426432346754718, -0.8584682656064095, -0.01996556293418928, 0.7683593288100301, -0.08176589771900297, -1.0, -0.28726800902218835, -1.0, 0.6052013250410041, 0.010257525393400323, -0.35058086349788564, 0.2071667475775241, 1.0, -0.956448804955136, 0.7228757580923135, 0.8809508871304765, -0.2852343593326434, -0.11993597031443277, 0.4043856230788441, -0.9998875452052065, -0.08430109673105236, 0.9743488819178957, -0.04379109798897919, -0.3146161577411644, 0.9049542463047067, 0.7367134476521187, 0.19285417719684134, 0.24412416785199437, 0.6844381596770643, 0.1349992471589065, -0.06752898877283178, 0.0920487951481182, -0.5742740777688646, -0.335822443429673, 0.2727023949607293, 0.302846749333977, -0.6499875075295724, -0.7290461313989754, -0.6669363831317824, -0.6741177761930602, 1.0, 0.05032896365038027, -0.15976421223001674, 0.05417119321146714, -0.12308146467129309, 1.0, 0.26415852069062107, -0.1753278167790947, -0.36051243267066385, -0.42385376058609936, 0.016534038335264345, 0.4190509738430314, -0.5627635774391605, -0.7880926359781467, -0.19810872355213396, -0.0197003797346127, 0.102322637955843, -0.6122707493812406, 0.3862931237071779, -0.29674758095337955, -0.42254116322563295, -0.11943153299097808, 0.5433058560136171, 0.1959608643483335, 0.17294998305396525, 0.14556049837278653, 0.9981166827372924, -0.7541508300872578, -0.2774866809168237, -0.9999971593258524, -0.996620859095997, 0.3998644155449776, -0.17992710696683872, -1.0, 0.06603663122030148, -0.2689127128727691, -0.20362638199720562, -0.9925477062282805], [-0.1271618458135372, 0.5097358156160824, -0.10513690401829842, 0.18933952697287973, 0.055698226855435545, -0.2972412886265531, -0.6716120784519904, 0.4456936947050875, 0.7167916816930111, -0.0699480381613182, 0.9999999999999999, 0.21861744642342318, -0.32523654682043257, -0.8396267467739066, -0.6184700812952498, 0.4584690705738551, 0.5365101326767672, -0.13113950194216478, 1.0, 0.6872589253463164, 0.6985137230078722, -0.37039397547395714, 0.9885203381994287, -0.014090257348884147, 0.5602479016008736, 0.34410401471380964, -0.6449259571308184, -0.5291651287835786, 0.3951556224260143, -0.1738529566661866, -0.43835542705083785, 0.8081625147439238, -0.9460414683662217, -0.6023629812989978, -0.6361759276278316, -0.39553038434544413, -0.4233766820750008, -0.5935628572783356, -0.7513550145397472, -0.025229503487478426, 0.7116991147877711, -1.0, -0.6393587930507436, -0.19744178688390818, 0.09982868222396973, -0.8330759891714474, -0.26426162452129015, 0.8109772549908733, 0.11163097642430668, 0.24108400806371744, -0.06068211227298062, 0.33597687924035957, 0.12046362110606744, 0.25232739462839004, 0.9988215206851213, 0.524009488963327, 0.4938094267999652, 0.8079580722274523, 1.0, -0.999979965606874, 0.8453965043771738, -0.7772677466367272, -0.807461454174181, 0.42513531516756087, 1.0, 0.2874630192030155, 0.5415753035486682, 0.999998676218251, 0.9999998296344084, 0.7070440752632922, 0.7883977668012584, -0.919663244246306, -0.6745861220719134, 0.24815278640388133, 0.061946985611181095, 0.9028679294527244, 0.3507075455207396, -0.05278645981811336, 0.724240313568942, 0.4480405591925649, 0.9971527623478224, 0.7806173799004443, -0.0627798478103924, -0.9333211722396643]], "w2": [[-0.1706157264947604, 0.3141269156006444, 0.9775020942654986, -0.45453401425042034, 1.0, 0.20039703253544222, 0.9193182561330252, -0.28995873079825335, -0.996923152907306], [0.29451877824722783, -0.488473318106555, -0.6268513935907206, -0.5563281732292833, -0.9130537058046623, 0.4138504791549144, 0.44816179540124307, -0.5600397877655546, -0.06646472310469721], [0.679811938982215, 0.7436596912561205, -0.6926468555415715, 0.34393733806637766, 0.9999914927796726, 0.05713823215223928, 0.7010381056707087, 0.01537379539251904, 0.28944693097793656], [0.2857230646895332, 0.9999862660531098, 0.7457039467880658, -0.6719047820611943, 0.8006364050617807, -0.7335893865021865, 0.24634148269968364, 0.10943771279201538, 0.7344702097316796], [-0.3728167849990767, 0.6509021713125253, -0.2573216001589824, 0.17749773667249769, -0.9999999999999999, -0.3301925324543343, 0.9709279377423741, 0.6700922419091788, -0.1266682944129461], [0.6725719506232881, -0.17622177969826933, 0.9251861650580757, 0.5109168848596053, 0.5025286146811846, 0.526431670876495, -0.2012732883980621, 0.26422818847174084, -1.0], [0.9917647867871064, -0.04393672250500652, -0.3187861880010196, 0.6060742341841799, -0.7022909001624248, 0.35859304808967274, -0.989466156769675, 0.007758523107312202, -0.9999999999976579]], "b1": [[0.6930841596003813], [0.9551266336869264], [1.0], [-0.9266829058180717], [-0.9822447587052413], [0.11154541340624285], [-0.26859297350649464], [-0.04101197286122486], [-0.263523047190376]], "b2": [[-0.8578181379290573], [-0.8798361476796419], [0.22034824387259833], [0.7673535365396215], [0.9972898168977777], [-0.9777542391648681], [0.14196998885732168]], "fitness": -95.0, "best_pos": 0.0, "best_status": "small", "score": 300.0}