{"w1": [[-0.09129770431102029, -0.25454466732347697, 0.17866734354587688, -0.4425958927610666, -0.499690834794278, 0.06328078136875334, 0.1507228758673393, 0.9999999999999997, 0.006933773524342706, -0.21170957820958358, 0.04764228110903928, -0.8833945516347952, 0.14244017610179627, -0.8938556711730251, -0.5806380235069165, 0.08358171292547661, -0.058952829514017764, 0.13709825971405581, -0.05128935571724189, 0.06698148882390895, 0.3557557902608369, -0.9531785058589657, -0.4067357672091264, -0.22538538901380722, -0.20979268484908958, 0.09957843538450058, 0.7635986344587207, 0.45652539134479075, 0.7351072817440409, 0.4393199084452295, -0.06686219659925126, -1.0, 0.06834489806649016, 0.04030314340476798, 0.3209945781864749, 0.8853673635858214, 0.5563749890293085, 0.9998065713821738, 0.9986072472895688, -0.9696544726795288, 0.5154200063892866, 0.999999978889236, -0.5806302588866474, -0.4501193609295172, 0.8163568808358015, 0.05823585277415625, -0.5902849510714708, -0.031705846248332024, 0.9761737616166373, 0.7286916829277094, 0.9999939961382562, 0.35636732169799745, -0.8952204881472421, -0.47930462898034043, 0.17085239241659553, 0.4004514091680336, -0.5819208429905364, -0.7607545974172673, -0.7783585003768351, -0.25579542371119873, -0.29387983857403005, 0.8299640040788864, -0.7258612965534579, 0.7409714562424544, 1.0, 0.9701660153523554, -0.3747597750729063, 0.16047581719919266, -0.03553999857110756, -0.5980803411043153, 0.5398359849436504, -0.05581002580871538, -0.2654727869806381, -0.14908684086059656, -0.04372202008050096, -0.40943257322818966, -0.266437062434101, -0.9999999999999994, -0.9989405226923754, -1.0, -0.1390653208797019, -0.9999999999999999, 0.8394775414259568, 0.5435641796904], [-0.19761699173950903, 0.9999949525995748, 0.05436188348204775, -0.6590506604929313, -0.07771700206510475, -0.5127233748253758, -0.2770541219933749, -0.6900239255583295, 0.5190066845747587, 0.42081659602905314, -0.31369830555913847, -0.24843013519489746, -0.820701303349078, -0.6400172287785072, -0.6227129523677878, 0.1344995250620845, -0.5215081712340364, -0.05968642645086364, -0.9999999999999836, -0.6224418233227794, -0.23318553972088266, 0.7125108014136604, 0.4054341646652286, -0.48518613038018127, 0.26733720614801554, -0.3744775788800643, -0.19412290863124493, 0.5766593165327178, 0.17572121410837999, 0.27323239245112096, 1.0, -0.09558388261313466, 0.18945889072125371, 0.5799532820484956, -0.6302797265945851, -1.0, -0.8167194887705539, 0.09330953546237987, -0.8652175148898902, 0.23913525784435466, 0.9999999807305066, -0.058670514965994805, 0.9210220272812181, 0.3516936044104614, 0.4819546177479735, 0.4155958529818588, 0.3062213799033797, 0.8370295327164434, 1.0, -0.6722822374757561, 0.19952997958082194, -0.5230281004868698, 0.5155442708148847, 1.0, 0.6415448555604818, 0.41143655903521265, -0.20104125169411788, 0.7733017234049855, -1.0, -0.5254162673676182, -0.8574416651077686, 0.13836135332984273, 0.4593927611254416, 0.4426733795905807, -0.8893480381637001, -0.6497615583643509, 0.31290494377145883, 0.46740874336309557, 0.6481369732890003, 0.5372007525053984, 0.5531436750725561, -0.7557350656295393, 0.7808129817978108, 0.5689220842601551, -0.016664146793094376, -0.8194072948652333, 0.10543886263697816, -0.1943477760258384, 0.5445724208611443, -0.025554208327305653, -0.11697121982104124, -0.3900763467690006, 0.3353074283841769, -0.5661127069311845], [0.6433200045484948, -1.0, -0.645580529735384, -0.3377060668355667, -0.057617186173004244, 0.17982301229191872, -0.35719269986263247, 0.7448254114850982, 0.6258038571851077, -1.0, 0.7713835354400176, 0.6880582815274238, -1.0, -0.9594186147840602, -1.0, -0.3357189095750482, -0.17509787814360603, -0.6405449838735318, -0.0511982699429145, -0.9224375804239848, 0.9999999999999997, 0.37809334836134334, 0.6139671421494732, 0.5564271635769147, -1.0, -0.695522003165868, -0.5451482296976977, -0.817943849642992, 0.238863938606472, 0.41442258092583706, 0.6088887853692803, -0.24770340242804295, 0.9999942966135149, 0.4497583233974226, -1.0, 1.0, -0.30617190221644375, 0.7489143253183932, -0.8596084736329412, 0.45535479570612664, -0.1304981908219346, -0.5372420382699533, 0.19456000174783855, 0.47702300872020165, -0.906762210126941, 0.7936681377520151, 0.24493565007045695, -0.809504663829182, -0.7468400761468296, 0.4309670168825068, 0.7235987068815537, 0.3414513909907451, -0.9999999999999991, 0.557108627700115, -0.6010418250518609, 0.9547971738094108, -0.6013755972636406, -0.9999998885146252, 0.40177541482909557, 0.21593365401832634, -0.37037485798071224, -0.26141107596904556, -0.7033168881359253, 0.2524492898356907, 0.8304041497828812, -0.2252517511408684, -0.9999999999999996, 0.921565520184307, -1.0, 0.1757720169419164, -0.7150248233016852, -0.9993875814662435, 0.2085684666865706, 0.5574682049977641, 0.34184630812864625, -0.8831038647075651, 0.753040864694269, 0.2469327420296895, -0.2513943514888279, 0.6016559695006354, 0.9211910529076638, 0.3429560467788715, 0.10414335217967849, 0.2037285877121413], [0.2314621147740917, 0.8621529709407438, 0.34732568241738926, -0.8288074511545087, 0.6870177983875573, -0.43285398759166255, 0.497648284383786, 0.5262587701172824, 0.6229450407113368, -0.278569266407355, -0.17595358110389975, -0.28484158527512005, 0.21993520550418333, -0.5141982022208741, -0.36839849747260417, 0.9999945567349976, -0.5213768062112057, 0.9002459283077455, -0.7761141020705745, 0.13495102866260825, 0.6076746508965248, 0.28978498387986834, -0.13271501693018153, -0.9980412112108614, -0.9983712849093478, 0.24344871554472156, -0.7338622247105894, -0.4435663952404903, -0.5188608677913757, -0.7358247339833185, -0.6468155508177833, 1.0, 0.8905332637227166, 0.030818998549681564, 0.47095224403413877, 0.6430427641358663, 0.19292347337874355, 0.9246013078398871, 0.7826543188393108, 0.9333431552591015, 0.9997126565048801, -0.19920443551199665, 0.9950152219836951, 0.1480169212551272, 0.4383131742038426, -0.37185857882767603, 0.2038755176721214, 0.2886324902523127, -0.6366697070983416, 0.14842479504558242, 0.8981624915223165, 0.3111432620230854, 0.5049658412615375, -0.43553335097422863, -0.20682976628805935, -0.8059974551733379, -0.22791472704811427, 0.3492218849069082, 0.12032608929449429, -0.2687120112086849, -0.041961174056519515, -0.19627938414750748, -0.6610002469208721, -0.526036423911574, 0.06729245396404346, -0.05879825514831494, 0.9985055212865014, 0.5599219180775731, -0.630518296798264, -0.416304465756725, -0.42079253937481853, -0.7700393093748579, -0.999974795718518, -0.6227987543973048, -0.17993413439125552, -0.15820335807013877, -0.18022729719445812, 0.11802739651894914, -0.5592155275923499, 0.3202601868208842, 0.6751527927666636, -0.029304673684973633, -0.8300609511350936, -0.16015613686157473], [0.6030179601923625, 0.6048800710285739, 0.14481793297715764, -1.0, -0.2626838213246742, 0.26136014839622174, 0.3415687577904115, -0.8442051968208211, 0.6456504818256161, -0.9693232541940876, -1.0, -0.8730841478178838, -0.3630191922300747, -0.7410466303579671, -0.5973652563433479, -0.31701560553870034, 0.4243636028473688, -0.7198365969195717, -0.7278815046243219, 0.9974406458023498, -0.3764402768506594, -1.0, -0.9028950874180235, -0.5699988642303769, -0.27934798406643835, -1.0, 0.8057221971276244, -0.09160458313573176, -0.2281942620211736, -0.08834446245396502, -0.20873237259008914, -0.13432727106028625, 0.7429215155555414, 0.057391916872956424, 0.49586911899986147, 0.5158568744003558, -0.13505640572752295, -0.3620872198939161, 0.4568429044936509, 1.0, 0.7668992775128621, -0.32019865533518044, -1.0, -0.1578199984382633, -0.974233424126178, -0.9999999999999996, -0.36226293735861353, -0.09409886138413676, -0.05784346778930785, 0.34846490340502007, 0.9999979909219557, 0.8899246419131821, 0.4308378134310086, 0.1589854365204437, 0.3187474210256699, -0.009123203266241177, -0.28248703809272, -0.024185480323383354, 0.18943671378550064, 0.7899457849885209, -0.5853898930711057, -0.9997890813466225, -0.10039458568859758, -0.9098367855612781, -0.6651159986281663, -0.29524058000374187, -0.05153800424581194, 0.9556055351333087, -0.776380707634486, -0.9999809586643552, -0.9979530024811372, -0.49639862910449134, 0.10610683230022712, 0.9999614289106639, -0.9175887447394538, 1.0, 0.397191971149859, -0.03530266108573383, -0.2539596112206664, -0.562675770908577, 0.3821797568369168, -0.15246679282492517, -0.5079369167121004, 0.9167483444387621], [0.3240745873852196, -0.7072228521836591, 0.42731520027497794, 0.7962040316589053, 0.13949771210590967, -1.0, -0.47251807712191884, -1.0, -0.39246369328475283, 0.11793867374832342, -0.4555954575176008, 0.5890766283063463, -0.30131149761298276, -0.8254597408462526, -0.9110547051209583, 0.9977201709059577, 0.40708117898759016, 0.8064152902445079, 0.7946654548510308, -0.2909554523713467, 0.5076137614985046, -0.049298741422500264, 0.9984564095840944, 0.8155602608824951, -0.9977393985860751, -0.1465793850499093, -0.9092257550593642, -0.10698485519093942, 0.2318841455505706, 0.9336781272402243, 0.4343514535760398, 0.06236945456980037, -0.9999999999999998, 0.9945525538805768, 0.6938622302963815, 0.738489500669556, -0.40963269799716423, -0.27129321044021026, 0.10648644438984936, 0.3945769650347258, -0.6721112693142234, -0.1007323179780943, 0.36242862027024514, 0.38509307168620444, 0.9175343150577483, 0.8749141939864483, 0.1861781693897457, -0.135687571548711, 0.20841169440061347, 0.9995701276624784, -0.9999995911179855, 0.9319928533002695, 0.10696980625753835, -0.32959297586172764, -0.977907810547834, 0.15130180525675307, -0.6695436870753886, -0.29383062285736156, -0.5049379246973119, 0.9997628108299608, 0.5238272949309676, 0.9210849123087965, 0.5703899649862861, 0.4566604954677074, 0.6130655450500346, 0.7760212976547353, -0.03533797732763228, 0.09474538954166724, -0.9271821758642047, 0.4109104055561543, -0.45680904680229206, 0.008871221721225571, -0.5430011315156718, -0.9999999999999998, -0.7601757837920402, -0.2158318522410582, -0.9155119162030331, -0.1906233696766223, -0.6403149886480421, -1.0, -0.4607304375407813, -0.4467070088074677, -0.4955620102472068, 1.0], [0.5658458847130263, 0.7032067123560657, -0.6947418479888431, -0.3120451943464637, 0.1095836509702378, 0.7017252856318548, 0.9172835518374588, 0.33373951564293114, 0.18242333043992773, 1.0, 0.6380576313199758, 0.0322897874232513, 0.6145999258027275, 0.9999760757607886, 0.6502831400883314, -0.4194794908870642, -0.8144033434804179, -0.7982234249056882, -0.4501377526514426, 0.06654677147759783, 0.13267217165509118, -0.8999803515030627, 0.29903373958783785, -0.9999985321552339, -0.43100010944851447, 1.0, -0.9999966790275641, 0.3162131731544572, 0.4525110308499404, -0.5518216559438304, -0.6692873687893744, 0.6852542105062284, -0.2210079324770078, -0.639286564652953, 0.5318333100284396, 0.8272662423871775, -0.9432171339885513, 0.17067586942804516, 0.04200219889987046, 0.5739343190742953, -0.819751735394178, -0.49195193798224357, -0.5812875615375728, 0.6527117569850278, 0.21004259807591405, -0.8514241182382235, 0.749683564482814, -0.22659218085975677, -1.0, 0.8896981281181311, -0.2886736900465941, -0.7006962672921049, -0.2934064368820406, 0.1938761912983913, 0.760549523736765, 0.36871649935908046, 0.7057851619311796, 0.18072711895461357, -0.8715022646572984, 0.021014858382404775, -0.2731633208988689, 0.3180553708658182, -0.02322654009000023, 0.19280919116033632, 0.4013607333555345, 0.7167933250165338, 0.427556443688638, -0.43966221858538507, 0.488709232398927, -0.08576120008057915, 0.11787847846603024, -0.35547431550555464, -0.8222541266642132, 0.30031241700103606, 0.9999334868388527, 0.9986899887781563, 0.6702499193887089, -0.10458142557454614, -0.9997674910349692, 0.7888086526445136, 0.31758669975719983, -0.972425511967052, 0.23037286924385633, -0.7319526429323213], [0.9685328389855932, 0.3688222333151598, 0.6805078204748485, -0.07065808201574011, 0.7158483430021236, -0.7057011170260956, 0.22145944860377845, -1.0, -0.019436809041965084, 1.0, -0.09047208357189704, -1.0, -0.5663670753193316, -0.6389230587917453, 0.16391969132263068, 0.01362980162036953, 0.051001756651600255, 0.20567015911952255, 0.9384773552131425, -0.7085165560739873, 0.7143382942406613, 0.6978010016832911, -0.03404462350218225, -0.3091936707182033, 0.4932085196383127, -1.0, -0.07885333326485094, 0.890223351706044, -0.12350139694026192, -0.6225484817609358, 0.5838270701965881, 0.8908263778368317, 0.1341343125051732, 0.06746610726869674, 1.0, -0.2507083206315019, -0.13054678341093892, 0.2825294419048262, -0.249388888835427, -0.6012657893967362, 0.16631525817982665, 0.6778529875652454, -0.6509638163445166, -0.9999803312014728, -0.8455139822736695, -0.7414288622977171, 0.6285644175176561, -0.14877503060878985, -0.08207828478538877, -0.5081631179891659, -0.19605731382161612, 0.6241824567878547, 0.08115007405312971, -0.08394071104063683, -0.4482996080499584, -0.3800769677205953, 0.0323268847779211, 0.3197030694201013, -0.5914109394842824, -0.8277286735319708, 0.5303888802649728, -0.31951874342148523, 0.541793597214163, -0.7948040350874344, 0.00869953722108438, -0.2035679307381958, -0.7577034392482122, 0.4449455007034642, 1.0, 0.19907738848978412, -0.36459343889232493, 0.5882359493355322, 0.9998528183549122, -0.45068293172741447, -0.2721892899253451, -0.999999197052291, -0.9999951906570753, 0.9996324178814683, -0.013034329282139715, -0.9999999999999991, 0.13413399325235786, 0.04327248171855402, -0.6520542079181267, -0.9989445503072367], [-0.0005716427045779349, 0.5148075807802633, -0.3690401555639648, -0.10118219922861847, 0.6693539226942788, -0.2975457656401994, -0.6499989715366775, 0.48835329733737876, 0.9999962154187292, -0.5486451733869369, 0.9999999999999997, 0.1874001162662501, -0.21160622717856775, -1.0, -0.6159947359176149, 0.45878938348460546, 0.7865254652481078, 0.03793270339042784, 0.9997822419597225, 0.8263835265260323, 0.20748820772891963, -0.18135781383520075, 0.9999999999999996, 0.07656440199314958, 0.5601802763922661, 0.009023878757012688, -0.7497898410951896, -0.5837085218040878, 0.7289543299923541, -0.04487448955586179, 0.24308284856830226, 0.7521021404202377, -0.8255658808119831, -0.48960806178122845, -0.6216714803790258, -0.20278441633929212, -0.8418600929357827, -0.7575008419712315, -0.9908371461615352, 0.4007029564480203, 0.5201363721082234, -0.7924098362050519, -0.6464850351407714, -0.1803782111074966, 0.3789429234317368, -0.8333316953984911, -0.19634679136235125, 0.6919815193248691, 0.11336507017817056, 0.44107744066572224, 0.3450152077238341, 0.07876011804325861, 0.11867207519892338, -0.2073948557380312, 0.9112203679549681, 0.3699021633227584, 1.0, 0.7550742985947464, 1.0, -0.6686922196907776, 0.4736901391450623, -0.7204155680789581, -0.8074327429748245, 0.7828231755863961, 0.883319542069964, 0.6788994070374709, 0.5431785369429272, 0.7523097094998784, 0.8013309521183096, 0.7063435918082602, 0.7721813056480984, -0.6177068031328526, -0.9187160732147687, 0.4222383209471102, -0.05789046885975278, 0.7779467388013998, 0.4491715105173709, -0.07008575191876702, 0.5471169621927868, 0.10413528958909457, 0.9963885091338024, 0.6156070454257584, -0.020933833238574093, -1.0]], "w2": [[-0.21274420482575704, 0.42628491400277985, 0.8146973169563317, -0.6398565318281424, 0.4836447483725495, -0.011711193370466945, 0.9103862198270408, -0.2899639619906319, -0.9943017051957025], [0.21685306034156676, -0.37854566839260156, -0.5786483725668544, -0.5659204307220338, -0.9999999318538004, 0.22873391390028872, 0.4922584601183884, -0.7159124505977664, -0.19356619868940497], [0.8123626023185712, 0.5933671377249524, -0.6910555631323156, 0.6422493525265868, 0.532991231972514, 0.28940469159156157, 0.6628386055543121, -0.03084161040323018, 0.2827190783091269], [0.10145860963518472, 0.9999999999999994, 0.9088618067581894, -0.6360790992807682, 0.9992602138712083, -0.7487408986899947, 0.5056220700940873, 0.10424955126896712, 0.3154401600227395], [-0.12673762400355704, 0.6496463939462098, -0.4059253446751459, 0.4724735010079486, -1.0, -0.6815532208178675, 0.5886619867947517, 0.6729971392290917, 0.28064560618284295], [0.6112819045777248, -0.17621488733572716, 0.8979220991341397, 0.6212703240732089, 0.6205237620669607, 0.5781595835047, -0.2401414901408966, 0.26438924653073137, -0.9999999999999999], [0.8633853152369703, -0.529572472465791, -0.45868433341413756, 0.8761711412303317, -1.0, 0.1359830813831821, -0.9999786858554864, 0.11844749810987705, -1.0]], "b1": [[0.7032599997093619], [0.9849366131469982], [0.9999999999999992], [-0.981483777383311], [-0.5573594844651799], [-0.08310853226028653], [-0.27008669967765897], [-0.03956421203592078], [-0.033959839790921986]], "b2": [[-0.6823669735641894], [-0.8019690190310134], [0.3955645292139467], [0.6803881707330027], [0.8849021176320772], [-1.0], [0.9085497124827202]], "fitness": 4420.0, "best_pos": 9.0, "best_status": "tall", "score": 1900.0}