{"w1": [[-0.09009182272253582, -0.254544667323477, 0.1786677890913035, -0.4425958927610666, -0.499690834794278, 0.06328078137455113, 0.15072287586733926, 0.9999999999999998, 0.006933821864546384, -0.2123836072478604, 0.047642281108384484, -0.883394557472868, 0.14244017610178597, -0.893855671173025, -0.5806380235069191, 0.08354813084194204, -0.05779553454432429, 0.10143503137153531, -0.1549099919642484, 0.06698144050780822, 0.35575579026083576, -0.9534371567541535, -0.40673576720912635, -0.2253853890138072, -0.20979268484925892, 0.09957843480873836, 0.7635964256103831, 0.4565253913447907, 0.7351072817440408, 0.4393199124395216, -0.06686219659925126, -1.0, 0.0683448980664905, 0.14261882369713502, 0.3209735443375307, 0.999645746977734, 0.5563749810455814, 0.9998065713790276, 0.9986072472895688, -1.0, 0.5154200063892868, 0.999999978889236, -0.3011808803946101, -0.7066813645319756, 0.8146620461719922, 0.058235851795626944, -0.5903619722126958, -0.031705826354658205, 0.9761737616177654, 0.7286916823891484, 0.9999939961382561, 0.35635687599670035, -0.8948648118125065, -0.4793045882249228, 0.17085756557582607, 0.4004514091680336, -0.7443919314464116, -0.7607532789825586, -0.7783585003768352, -0.2558344199537686, -0.2938798385692914, 0.8299586665355562, -0.7264512015713607, 0.7409714562375409, 0.9621093571789584, 0.9701660153523552, -0.37463350747645446, 0.16062470802381396, -0.035539998571107546, -0.9144322619824412, 0.5398359849502927, -0.055849434570495064, -0.26547278698063803, -0.14908684167743255, 0.07857314899375258, -0.4094325732281896, -0.26643706246217075, -0.9999999999999993, -0.9989405226923754, -1.0, -0.13906532087970191, -0.7683858797677274, 0.8394775414259567, 0.5435641796903931], [-0.20255962277049658, 0.9999949257167368, 0.054361884203717487, -0.6590506604929313, -0.07771700206510548, -0.5127233748249856, -0.27705412199337465, -0.6899586498936227, 0.5190066845748196, 0.4208165960290515, -0.3136983124282934, -0.24843013519489748, -0.820718022226461, -0.6400172289049502, -0.6227130158208473, 0.11995755470113273, -0.5215081712342915, -0.05968642786863338, -0.9999999999999835, -0.6250616576796563, -0.23530682615385323, 0.7125108135636365, 0.40543416466522086, -0.48518613038018127, 0.26733720610940337, -0.3744775788800649, -0.1941229086312439, 0.4375946415415133, 0.077887454191598, 0.27323239245135983, 1.0, -0.09558388261845396, 0.1894588236793094, 0.5799532819978431, -0.630152209697681, -1.0, -0.816719488770554, 0.09330953187307726, -0.7875843880902235, 0.2391352578443547, 0.9999999807710034, 0.38758700907375315, 0.9210219767650517, 0.3516936044445992, 0.48195398036980086, 0.41559585295807355, 0.30621838596334894, 0.8370295327164433, 0.9899272646215379, -0.672282237475756, 0.1995299795808218, -0.5227376455831252, 0.8666658271970465, 0.9907920236252168, 0.641544855560489, 0.41143656727053507, -0.20092565134869328, 0.7733017232109906, -1.0, -0.525416266457208, -0.8574416651731074, 0.13836135332984273, 0.45939275743624175, 0.44267337938057266, -0.9216813317669803, -0.6497615583643509, 0.31303303311451774, 0.46740874368364316, 0.648136971355065, 0.5372007525054443, 0.41099590578412054, -0.7557350448053183, 0.7808129817978108, 0.5689220842601581, -0.016664155087364983, -0.8194072948652333, 0.10543886265488411, -0.19430331247930407, 0.5450202736336323, -0.025621842135984986, -0.11697120927963052, -0.06635737929939028, 0.3353074283841695, -0.6108266784396713], [0.6433200057751588, -0.9977057516048129, -0.6455805298640844, -0.18345658552564895, -0.05761718355327554, 0.1798230122919196, -0.7321180323997531, 0.7448254114851038, 0.625143128567177, -1.0, 0.7713835354400167, 0.6880582807282607, -0.7230478240250668, -0.9594186147887322, -1.0, -0.33571891007674615, -0.17509787963549844, -0.6405449838735316, -0.05851577292954872, -0.9223995122412538, 0.9999999999999999, 0.37809334381278326, 0.6614771563947704, 0.5564271635769147, -1.0, -0.6955220027177987, -0.5451482296981139, -0.8179437374140881, 0.4749389663848963, 0.2513262334371493, 0.6088887853692803, -0.2508491885743846, 0.9999942965858745, 0.4485505524071662, -1.0, 1.0, -0.5692744639517506, 0.7044383278881757, -0.8596084736372139, 0.17213411525070288, -0.1304981908219346, -0.5372420382699534, 0.1945632221748894, 0.6495793509688524, -0.9066882835983439, 0.793669361569367, 0.2449356500685931, -0.8095046638291818, -1.0, 0.43096701688257216, 0.7235987068962803, 0.34145139099074506, -0.9990556373018479, 0.5571086277000397, -0.6010418237864834, 0.9547971738094109, -0.5769314046600825, -0.9999998885146253, 0.4017754147836293, 0.21593365401832632, -0.6164048714161495, -0.26141107014752035, -0.9449661645111489, 0.4334221679745292, 0.8303893441224562, -0.37368404003412836, -0.9999999999999997, 0.7212053116968431, -1.0, 0.022245770974097523, -0.7150248233016852, -0.9993875791702459, 0.2085684696305524, 0.5563431512103725, 0.34184630812864625, -0.8831174753259577, 0.752832382329963, 0.24693274202975574, -0.46663629418264696, 0.5151347769327626, 0.9211904329145288, 0.34295604677887154, 0.1041433522106693, 0.20372858771214128], [0.2317993365335423, 0.8621529709407441, 0.3473256830119792, -0.8287983631094957, 0.8626169308968666, -0.7851985977330835, 0.4973652187205646, 0.5262587701172824, 0.6229450407113369, -0.278569266420398, -0.1765004511241196, -0.28484158527512005, 0.2199352055041833, -0.5141982022208742, -0.36839849747259956, 0.9999945567347689, -0.5213768059374203, 0.9002459283077456, -0.7761141015144422, 0.13483133395527375, 0.6076746508965247, 0.43589826192073955, -0.13271501693018137, -0.9058113663641068, -0.9983712849093476, 0.4235406671051546, -0.735462452583967, -0.4435663952404904, -0.5188608677913756, -0.7358247339834088, -0.6468155508180213, 0.7995845213384124, 0.8904914728099792, 0.030818997839644122, 0.47095224403406927, 0.5944094313295648, 0.19292347337874352, 0.9246013159095945, 0.7827003366319168, 0.9333431552591016, 0.9997095814694483, -0.27105576552155003, 0.9950152219836955, 0.14801692125439328, 0.43831317420384763, -0.37185857882767603, 0.1544414734628781, 0.28863248978370604, -0.6366697076693436, 0.1484247959982685, 0.8981709644972807, 0.31114422139717707, 0.504965837896365, -0.4355336057969565, -0.20682976628805963, -0.8059974551733379, -0.22791472704811427, 0.3492218849064127, 0.12032610570594089, -0.26871194512784147, -0.04196124186414601, -0.19627938414750734, -0.6646301786029665, -0.526036410909747, 0.0673048699561729, -0.06307991075912986, 0.9985055212865016, 0.6194593271137837, -0.6305182960961889, -0.4485770491441579, -0.4207925393748186, -0.5973957750691243, -0.9999747957185181, -0.6227900492967743, -0.1799341345287231, -0.10357339133574152, -0.1787114691372843, 0.11802756515595844, -0.5592155275913395, 0.3202566113290333, 0.6751527923811189, -0.029548905445451818, -0.8300609511350928, -0.16015613686157473], [0.6031297113861954, 0.6048800710247875, 0.14483544261849482, -1.0, -0.2626838213246742, 0.26136014900091936, 0.34156873734154375, -1.0, 0.6456504818054949, -0.9693232542053102, -1.0, -0.8730841478173748, -0.36308974791129434, -0.7410466303579231, -0.5973652563318754, -0.31701560553844704, 0.42436405333660066, -0.7198364682602636, -0.7278814887130247, 0.99744064580235, -0.3764402768506594, -1.0, -0.9028950874180234, -0.5699988631460535, -0.2793479840664835, -1.0, 0.8057221971276245, 0.2616566362926327, -0.2281942620211736, -0.08834448750085967, -0.20873237599996952, -0.13432727106027872, 0.7429215155555413, 0.057391916872956424, 0.4958691189998614, 0.5158500158793836, -0.13505640572752267, -0.36208722132130916, 0.4568429044936321, 0.8347514586150891, 0.8085532409100471, -0.32019865533517883, -1.0, -0.15782000083911452, -1.0, -0.7596625603823461, -0.3660067267631214, -0.09399488433633452, -0.07226360348193281, 0.060317314376361175, 0.9999979909219555, 0.8899246419131825, 0.4313198695974608, 0.15898907650384894, 0.31874743031286057, -0.00912320326636689, -0.3643641197660944, -0.024185480323383354, 0.18943671378554403, 0.7899457854721312, -0.5853898930710999, -0.9997896771877209, -0.10039458568859756, -0.9098367855716367, -0.8525914105691875, -0.29524058000381204, -0.05153800424581209, 0.9560147528452823, -0.77761604270275, -0.9999809586646113, -1.0, -0.5682250127736811, 0.10610683442206582, 1.0, -0.9175887447394537, 1.0, 0.39719197114985894, -0.035302661085716364, -0.25395961122067134, -0.5626513599417863, 0.3821797568369229, -0.11546901958400149, -0.507936919635534, 0.9167477267820703], [0.323978816189551, -0.7072228522027055, 0.4273151877263686, 0.7076083939550434, 0.46661298759344805, -1.0, -0.47251807712191884, -1.0, -0.7162087344934238, 0.11793867214605619, -0.4555952091429234, 0.5902276228459328, -0.301311498821182, -0.8254597408462526, -0.9110547051209584, 0.9977201709059578, 0.4070811789875968, 0.528522594542296, 0.7946654548510308, -0.29095542573084804, 0.5076137558644221, 0.154980028304025, 0.9984564095835395, 0.8155602693531512, -0.9977393985875644, -0.14657938504976342, -0.909225755903666, -0.10698485519093943, 0.23188414552574768, 0.9336777390170377, 0.315797674028858, 0.05039816111327513, -1.0, 0.9944766359267839, 0.6929814060587864, 0.7384895006695559, -0.4096326979971642, -0.18232278442551902, 0.10648644603072714, 0.3945769650619, -0.6721112693142234, -0.1039202720970063, 0.36275153396816084, 0.3850930716862174, 0.9175343150610495, 0.8745696425291174, 0.1859813199227144, -0.13569440826393936, 0.05777074787905967, 1.0, -0.9999995911179856, 0.7478132679104239, 0.10696980625753838, -0.32959067760631316, -0.9779078105172541, -0.03993396918836692, -0.531028258388893, -0.2938306228573615, -0.5049379166866598, 0.9997628108290992, 0.5238272949309676, 0.9210849123087964, 0.5703899654647772, 0.4566604954677074, 0.6130655450500301, 0.7766982078428902, -0.035337977660916474, 0.09474538950580479, -0.9271821758629734, 0.41091040556047775, -0.45680904680229206, 0.008871221721225545, -0.5430011315030892, -0.9999999999999998, -0.7601757837920404, -0.21583185221605852, -0.8823702233755426, -0.19062337093275314, -0.6432565425558266, -1.0, -0.46073002131572544, -0.4472179881479397, -0.5766124770242734, 0.9996728043652978], [0.5658458854635351, 0.7032067114484509, -0.6947418479888431, -0.31204519434646366, 0.10958365097023788, 0.7017252856330282, 0.9193542307517067, 0.3337395157793648, 0.18242333043991135, 0.9999998550347802, 0.8669125750569419, -0.16386806406333854, 0.6145999258027276, 0.9999760757769804, 1.0, -0.41947947279484327, -0.8144033434800851, -0.7982234249056883, -0.45119889037255834, 0.06654677400594376, 0.13267217165512984, -0.8999803515030628, 0.29903373958783763, -0.9999985321552339, -0.43100010944851447, 1.0, -0.9999966790072321, 0.31621317315446806, 0.45251103084994043, -0.5518216559474677, -0.5882471768670368, 0.6927654398929931, -0.02481634053503742, -0.7975169423100336, 0.5318333100392757, 0.8272939569025561, -0.9432171523652657, 0.17067399779523304, 0.04200216939931421, 0.4509817915282458, -0.8197517353941779, -0.4919519379822458, -0.5812875653794322, 0.818579444748578, 0.2100425980759145, -0.8514241182383325, 0.7496853968670496, -0.22659218086322677, -1.0, 0.4667706565897803, -0.2886737035326865, -0.7102683387005874, -0.29712461368567655, 0.19387619132803277, 0.7627908993434726, 0.30712013551657896, 0.7066151888852452, 0.18072953610696416, -0.8715022646572983, 0.021014858382388764, -0.2731633208988689, 0.31805537092929964, -0.02217931204134423, 0.1928069756663852, 0.40136073335553446, 0.7166970650544765, 0.42751265182874887, -0.43953009009130845, 0.48870923239892705, -0.08576045310668241, 0.11067681015868348, -0.35547117365395703, -0.8222541266642123, 0.3536214385349415, 0.9999334868388434, 0.9986899887781563, 0.6702499187673105, -0.3880134560577951, -1.0, 0.7888086526445027, 0.3175866997573653, -1.0, 0.23026563518086715, -1.0], [0.9685324308572212, 0.37466420884666274, 0.6805078204748485, -0.07065808201574016, 0.716834264453997, -0.7057010093155094, 0.2214620772614763, -0.9999999999999999, -0.019436809041965365, 1.0, -0.10780158114033192, -1.0, -0.5663670753193316, -0.7919514198845649, 0.16391969111142066, 0.012865562290771718, 0.05100175665160039, 0.20567015911954523, 0.9379619833016777, -0.30511614235570195, 0.7143382942406613, 0.6978010016832911, -0.03404462350218224, -0.3091936707217652, 0.49320852428121903, -1.0, -0.0788533332495751, 0.890225758430613, -0.12350139694026192, -0.49699557869123195, 0.38147026136882267, 0.8903257939435187, 0.13413431250517144, 0.12207864834715015, 0.999445643757395, 0.015009297653006827, -0.13054675359112167, 0.12172318580276925, -0.24938888883543373, -0.6733326053573006, 0.16631525873450131, 0.6783996300236952, -0.6509638163445118, -0.9999803310152816, -0.8455756493435038, -0.7421698549895496, 0.6285644175176561, -0.14877503060878988, -0.06412340744974082, -0.508163117989166, -0.12681433635938066, 0.6241824563153735, 0.08072444639742474, -0.17862979542701746, -0.31366853777780196, -0.38007696768181604, 0.03232689018405556, 0.3197030694214635, -0.5914109394842856, -0.8277286747081475, 0.5306994379871649, -0.31951874339418196, 0.5417598764289602, -0.7948040350874344, 0.1926121065985698, 0.2190547422710803, -0.7572793239458058, 0.4449455007034637, 0.9999925226148256, -0.22476979949994114, -0.3648165931981941, 0.3616118312039436, 0.9998528183549124, -0.45068293174096563, -0.27218924066770034, -1.0, -0.9999951906570752, 0.9996324119079734, -0.013034329282139713, -0.9999999999999992, 0.13413399325233363, 0.0437588906631526, -0.69461695399524, -0.9989445503072367], [-0.09857389080920022, 0.5148075836818594, -0.3690401524512067, -0.10118219922861851, 0.31418544325263104, -0.297545765640207, -0.6499989715366937, 0.4883243667643712, 0.9999962154187289, -0.5486451750431058, 0.9999999999999999, 0.18740011626624997, -0.21160622717849947, -0.8395502069078407, -0.6159947359176148, 0.564727671924124, 0.7865254652481077, 0.03793270339042784, 0.9997822419597227, 0.8263835265260325, 0.521275823122184, -0.18135781384082952, 0.9999999999999994, 0.11978957509664119, 0.560180276392266, 0.009023878757012691, -0.7497898410951895, -0.5832610003502862, 0.4399755693429831, -0.04487448955586179, 0.24308284859865215, 0.7521021404202372, -0.8255658808119832, -0.489608061783979, -0.6198095332200166, -0.20364726371227498, -0.8418600927013188, -0.7575008419712499, -0.9908371461615353, 0.4007029564460927, 0.5201363721082234, -0.7924098362050519, -0.6464854622926275, -0.18037820967048251, 0.37897211733679687, -0.8333317007635983, -0.29197504093053045, 0.8885718210577981, 0.23936979482125714, 0.44107744087676987, 0.34521667059919053, 0.30502292637065215, 0.11867207519892338, -0.2073948557142113, 0.9112203677305131, 0.3699021633227584, 1.0, 0.7550742985947463, 0.9999999999999999, -0.7616315491445671, 0.4736901391450624, -0.7204155680789581, -0.8114835263392198, 0.7828231755863962, 1.0, 0.6788994452297763, 0.6611358459770333, 0.7523097096383652, 0.801330966544637, 0.7063435918082602, 0.7674728870449049, -0.6177066740405838, -0.9187160732147712, 0.4222383209471103, -0.0578904703338279, 0.7779467387966822, 0.4491715105263729, -0.07008575191876704, 0.5471169621911958, 0.3665136232954244, 0.9963886231281797, 0.6156070454257583, -0.020933870517608418, -1.0]], "w2": [[-0.1908672102050779, 0.42581751064636525, 0.8146973169564243, -0.6398565318281425, 0.4836447483725495, -0.011711193222098322, 0.9103862198270408, -0.2899639619906319, -0.9943017051957024], [0.2168483379740512, -0.3785456683926019, -0.5786483725668066, -0.5659494139976007, -0.9999999318538005, 0.22873391390028872, 0.448161744070654, -0.7159124467129455, -0.19356619868940525], [0.812362602318571, 0.5933671377597993, -0.6910555631323155, 0.6422493310588037, 0.5329912319725283, 0.28940469154557175, 0.6629573894065679, -0.030841610450328093, 0.28271907830912685], [0.10146875274350986, 0.9999999999999997, 0.9088618067496939, -0.6360791253828165, 0.9992602138712082, -0.7494550756430121, 0.5056220700940941, 0.10424955126896712, 0.31544009729636596], [-0.12673762400354566, 0.650590236411022, -0.4059253432738653, 0.47247720727457193, -1.0, -0.6815532208178231, 0.5886619945596406, 0.6729970576569404, 0.280620165681836], [0.6112819045777248, -0.17621488733572713, 0.9206776493505818, 0.6212703240729583, 0.6227597706632372, 0.5781595835046923, -0.24014149014089659, 0.2643892465307313, -0.9999999999999997], [0.8634205142571046, -0.529571282667516, -0.30872164543158187, 0.8761711412303493, -0.7015712921600451, 0.13598307956975625, -0.9999786858554867, 0.11844749811005817, -1.0]], "b1": [[0.7032599997093618], [0.984936613146998], [0.9999999999999991], [-0.9814837799312117], [-0.7155765718055254], [-0.08310853310982982], [-0.2700866996776645], [-0.04093888310045456], [-0.03395983979092191]], "b2": [[-0.6823669735641895], [-0.8019690190602136], [0.3956834312550143], [0.6803881707330027], [0.8849021176320774], [-1.0], [0.9085497623528348]], "fitness": 176.0, "best_pos": 1.0, "best_status": "small", "score": 0.0}