{"w1": [[-0.08903946638143542, -0.056500794230035234, 0.17866106181406827, -0.44259589276106664, -0.49969083479427806, -0.18392087205487134, 0.1507228758673393, 0.9999999999999994, 0.0069336716040288154, -0.21046334417746998, 0.04764228110927407, -1.0, 0.14244017610181645, -0.8938556711730251, -0.5806380235069152, 0.08359257302225319, -0.058318379170193474, 0.137086895098232, -0.053015194335426896, 0.0669814910452086, 0.35575579026083703, -0.9533216564744806, -0.4067357672091264, -0.22538538901380722, -0.2097926848491212, 0.09957837846694571, 0.7636164854463828, 0.4565253913447907, 0.7351072817440409, 0.4393199132153896, -0.06686219659925124, -1.0, 0.06834489806649012, 0.040415902935919, 0.3204958926267716, 0.8851254381426243, 0.5563750050888501, 0.9998065713808996, 0.9986072472895686, -0.9696544726795288, 0.4611557231613208, 0.9999999788892361, -0.5806302547946179, -0.45011936092949817, 0.8162115084384242, 0.058235852462042666, -0.5902953217641885, -0.03170584865757105, 0.9761737616163302, 0.7286916832176727, 0.9999939961382561, 0.3563659433540016, -0.8950659855456076, -0.4793046337397556, 0.17085657317581504, 0.4004514091680336, -0.6051107219278619, -0.7607540542181038, -0.778358500376786, -0.2551375469763002, -0.29387983858283845, 0.8301080224455418, -0.726156483034112, 0.7409714561948788, 0.9999991537899862, 0.9701660153523554, -0.37501727172095756, 0.15846241263039376, -0.035539998571107616, -0.5980803411043153, 0.5398359849603095, -0.05567547070526855, -0.2654727869806381, -0.1490868407966035, -0.04372202690926312, -0.40943257322818966, -0.2664370622957808, -1.0, -0.9989405226923754, -0.9999999999999999, -0.42313705971469284, -1.0, 0.8394775414259567, 0.5435641796904132], [-0.19618620606907955, 0.9999949771579304, 0.05436188485672403, -0.753500024206824, -0.0777170020651143, -0.5127233748255191, -0.2770541219933741, -0.6900157135354776, 0.5190066845746546, 0.42081659602905375, -0.31369830492962003, -0.24843013519489746, -0.820699227559879, -0.6400172288149913, -0.6227128351244303, 0.134492442216051, -0.5215081712341011, -0.059686428244218694, -0.8614182810622518, -0.4370732998239948, -0.19376568156193075, 0.7125108018694505, 0.4054341646652175, -0.48518613038018127, 0.26733720613045975, -0.37447757888006455, -0.19412290863124526, 0.5770125668317079, 0.17638857822462506, 0.2732323924509106, 1.0, -0.0955838826139608, 0.1894588424601329, 0.579953281900796, -0.6307238615882277, -0.8494021331207235, -0.8167194887705539, 0.09330952779232832, -0.8655464491162929, 0.23913525784435466, 0.9999999805682434, -0.05867743709303592, 0.9210224226918369, 0.5504702247152868, 0.6198715173638809, 0.41559585299605906, 0.3062253792342539, 0.8370295327164434, 0.9999982447651995, -0.6722822374757561, 0.19952997958082194, -0.5227994825783684, 0.5145446882850256, 1.0, 0.6415448555605021, 0.41143655732956635, -0.20101064192310025, 0.773301723457954, -0.9999999999999999, -0.6450393862034076, -0.8574416649515036, 0.13836135332984273, 0.45939276264555656, 0.5141470592319207, -0.8890110301032835, -0.6497615583643509, 0.3129451792958738, 0.46740874323407405, 0.648136972632765, 0.537200752505345, 0.5526230913302772, -0.755735090378045, 0.7808129817978108, 0.5689220842601564, -0.01666417368343893, -0.8194072948652333, -0.23536319763210362, -0.19646194618339843, 0.7252408635523888, -0.025541210635269398, -0.11697123014975763, -0.39007634746551073, 0.3353074283841792, -0.566241399841764], [0.6433200030789851, -1.0, -1.0, -0.3377185720173918, -0.05761718111222732, 0.1798230122919074, -0.35699250390623016, 0.7448254114850743, 0.6324795394147877, -1.0, 0.7713835354400171, 0.6880582813742117, -1.0, -0.9594186147883992, -0.999999855453605, -0.3357189009311451, -0.17509787858365936, -0.6405449838735318, -0.05108726447750452, -0.9224221370270735, 0.9999999999999997, 0.37809334312631765, 0.6142407420504972, -0.034512049991007765, -1.0, -0.6955220024841313, -0.5451482296977971, -0.8179438056557591, 0.238863938606472, 0.41442258092583706, 0.6088887853692804, -0.24714094552149948, 0.9999942967038764, 0.4507565660287214, -1.0, 1.0, -0.3042006541290521, 0.7489143253333096, -0.9240739045256418, 0.45656932271250367, -0.1304981908219346, -0.7631439574569899, 0.194560875200933, 0.4770230087202016, -1.0, 0.7936678219474659, 0.24493565006990714, -0.8095046638291821, -0.7478715772870578, 0.4309670168821083, 0.7235987067440182, 0.3414513909907451, -0.9995284091643826, 0.5571086277001238, -0.601041824364236, 0.9547971738094093, -0.6013189315981117, -0.9999998885146252, 0.40177541485338353, 0.34655593673764507, -0.3703748579807476, -0.26141082156044715, -0.7033168881359252, 0.25244570888978285, 0.8303938319191573, -0.44230928130719416, -0.9999999999999996, 0.9225697134075029, -0.9999999999999999, 0.17577201932651784, -0.7150248233016852, -0.9993875795546184, 0.20856846155862863, 0.5592668293535418, 0.34184630812864625, -0.8832665887639889, 0.7530339958179104, 0.24693274202958276, -0.25315040036783193, 0.6016559695007184, 0.9211891209819663, 0.5912573981891042, 0.10414335175618104, 0.2037285877121413], [0.23109850920825822, 0.8621529709407436, 0.3473256826895139, -0.8287917606467987, 0.6870177983868383, -0.43237166095317286, 0.49760900566121385, 0.5262587701172823, 0.6989382415767156, -0.27856926639935065, -0.1759593159390899, -0.28484158527512005, 0.21993520550418333, -0.5141982022208741, -0.24146348627825057, 0.9999945567350047, -0.5213768076500315, 0.9002459283077455, -0.7761141017131361, 0.13547309853068995, 0.7959391656747439, 0.2897849556810102, -0.13271501693018153, -0.9980412112084629, -1.0, 0.24344871554413305, -0.7339717696809173, -0.4435663952404902, -0.5188608677913761, -0.7358247339832827, -0.6468155508100238, 1.0, 0.8905128494350418, 0.030819011995401498, 0.4709522440341873, 0.6430428447004616, 0.19292347337874352, 0.9246013156181839, 1.0, 0.9333431552591013, 0.9997120532524587, -0.20010530565221682, 0.9950152219836952, 0.1480169212556043, 0.4383131742038399, -0.37185857882767603, 0.20566522214396685, 0.2886324899477671, -0.6366697076170406, 0.14842480087579044, 0.898167054751271, 0.31114397428098023, 0.5049658490826753, -0.4355333376206512, -0.20682976628805932, -0.8059974551733379, -0.22791472704811433, 0.3492218849055539, 0.1203260350664262, -0.26871192551920503, -0.04195818939812, -0.19627938414750748, -0.5247165045595287, -0.21190469195572154, -0.12254372408683142, -0.05893270180500417, 0.9985055212865014, 0.5612286917433814, -0.6305182912302543, -0.41630446600929305, -0.4207925393748185, -0.7686287065604642, -0.9999747957185178, -0.6227988633785249, -0.1799341342830268, -0.15820335807013874, -0.18302053936567683, 0.11802467059596393, -0.5592155275966517, 0.32026228422222364, 0.6751527934681598, -0.03053674842093019, -0.8300609511350937, -0.16015613686157473], [0.6035781899812376, 0.6048800710314685, 0.14490809550890443, -1.0, -0.14875183905093153, 0.2613601600211167, 0.3415687508975203, -0.844205196899893, 0.6456504818601845, -0.6534299601318594, -1.0, -0.8730841478185202, -0.3631485869558933, -0.7410466303579519, -0.5973652563460262, -0.20379621883533133, 0.4243633302245231, -0.7198368521889794, -0.7278815101825102, 0.9974406458023498, -0.3764402768506595, -1.0, -0.9028950874180235, -0.5699988643974339, -0.27934798406643935, -1.0, 0.8057221971276243, -0.09160457550453206, -0.46216528401034285, -0.08834447239792685, -0.20873249975353456, -0.13432727106026826, 0.7429215155555415, 0.057391916872956424, 0.4958691189998615, 0.5158575371735092, -0.13505640572752053, -0.36208721763140145, 0.4568429044955442, 1.0, 0.7665394172029998, -0.3201986553351813, -1.0, -0.15782000049471198, -0.9742194289944842, -0.9999999999999996, -0.3609587206458088, -0.09212751938563316, -0.05779607044860183, 0.3484649535331428, 0.9999979909219557, 0.8899246419131803, 0.43070731559699926, 0.1589780773572088, 0.31874743168497105, -0.009123203266167083, -0.28248703809274806, -0.024185480323383357, 0.1894367137854323, 0.789945784943385, -0.5853898930711472, -0.9997901272453787, -0.10039458568859758, -0.9098367855532036, -0.6671607331523864, -0.2952405800035699, -0.051538004245811564, 0.955555592935537, -0.7555129129469875, -0.999980958664616, -0.9979530024811373, -0.4963986292167581, 0.1061068286139745, 0.9999614289106639, -0.9175887447394538, 1.0, 0.39719197114985894, -0.03530266108572351, -0.2539596112206853, -0.5625926424194588, 0.38217975683691907, -0.152466792792723, -0.5079369169630317, 0.9167483082453101], [0.32325207027954045, -0.7072228521654124, 0.42731519481940905, 0.79607426273131, 0.13905654351460062, -1.0, -0.47251807712191884, -1.0, -0.39282890688974686, 0.1179386714566803, -0.4555954904356221, 0.5856148985461291, -0.3013114979703652, -0.8254597408462532, -0.9110547051209584, 0.9977201709059577, 0.4070811789875195, 0.8064152902445082, 0.7946654548510308, -0.2909554438254611, 0.5076137610476626, -0.049389858547153366, 0.9984564095850468, 0.8155602516874694, -0.9977393985963352, -0.1465793850496383, -0.9092257517031929, -0.10698485519093942, 0.34888806963373775, 0.9336779408499398, 0.4335180859818745, 0.06236945091338144, -0.9999999999999999, 0.4324663272042366, 0.6936788552337267, 0.738489500669556, -0.40963269799716423, -0.2712932104402102, -0.06451837422812154, 0.3945769650300118, -0.6721112693142234, -0.10076056152987427, 0.3624699440119616, 0.38509307168620494, 0.9175343150600217, 0.8766628362914355, 0.18633039918749988, -0.13568883575823235, 0.20841169440061358, 0.9995701276624784, -1.0, 0.9320282940925367, 0.10696980625753837, -0.3295891821974847, -0.9779078105461039, 0.15130180525675274, -0.6695436870754523, -0.29383062285736167, -0.5049379409081798, 0.9997628108303833, 0.5238272949309679, 0.9210849123087965, 0.570389964836586, 0.4566604954677074, 0.6130655450500173, 0.775999639264794, -0.03533797675268784, 0.0947453894956736, -0.9271821758637134, 0.41091040555663666, -0.45680904680229206, 0.16403844103170512, -0.5430011321797147, -0.9999999999999997, -0.7601757837920405, -0.21583185247340414, -0.915843056308639, -0.19062336800255383, -0.6405736894373737, -1.0, -0.4607299235961136, -0.44709215715602946, -0.6210582097506838, 1.0], [0.565845884889488, 0.7032066725237762, -0.6947418479888431, -0.3120451943464637, 0.1095836509702378, 0.7017252856312943, 0.9202720323888519, 0.3337395116112851, 0.18242333043990272, 1.0, 0.6373560681631075, 0.030578428531975618, 0.6145999258027258, 0.9999760754629652, 0.6502831406961184, -0.4194794877717047, -0.81440334348035, -0.7982234249056882, -0.4485633173976642, 0.06654677152397591, 0.1326721716550816, -0.8999803515030627, 0.29903373958783763, -0.9999985321552339, -0.43100010944851447, 1.0, -0.9999966789893469, 0.31621317315447484, 0.4525110308499404, -0.551821655945329, -0.6692873705900402, 0.6852352358770517, -0.22075763143010718, -0.6394569914172178, 0.5318333100224585, 0.8270959125728398, -0.9432171422763846, 0.17067945352737768, 0.04200221513684007, 0.574731690412671, -0.8197517353941779, -0.4919519379822432, -0.5812876091043672, 0.6523704699753455, 0.21004259807591408, -0.8514241182420188, 0.7496850111070027, -0.22659218086516067, -0.9963510692493687, 0.8902646522485367, -0.2886736898037808, -0.7546855658635828, -0.29474657366133783, 0.19387619820770124, 0.762163783458182, 0.36871649935908124, 0.7053833641555343, 0.18072512708696684, -0.8715022646572985, 0.03264790784124899, -0.3662482060358164, 0.31805537106124704, -0.02232952416019389, 0.19280830233987845, 0.4013607333555345, 0.7164391599316823, 0.4275560692775387, -0.4392953917564748, 0.488709232398927, -0.08576083127367735, 0.1178691120320714, -0.35456705124674465, -0.8222541266642118, 0.30031241700103606, 0.9999334868388535, 0.9986899887781562, 0.6702499182772075, -0.10406546325356039, -0.9997674910349479, 0.7888086526445284, 0.3175866997571475, -0.9724255119670518, 0.2303095609554694, -0.7294044681109293], [0.9685315145946156, 0.36882223331515973, 0.6805078204748485, -0.07065808201574007, 0.7164288079375614, -0.7057011206318405, 0.22146193700036304, -1.0, -0.0194368090419655, 1.0, -0.09047208357189704, -1.0, -0.5663670753193316, -0.6389231577477091, 0.16391969192481598, 0.01362955957571488, 0.051001756651599464, 0.20567015911952238, 0.9386298011925691, -0.7085165560738729, 0.7143382942406613, 0.6978010016832911, -0.03404462350218225, -0.3091936707205254, 0.493208519704033, -0.9999871612250658, -0.0788533332977539, 0.8902270087548656, -0.12350139694026167, -0.6224086385628479, 0.5830951709385307, 0.889997571883811, 0.13413431250517122, 0.06816307587082265, 1.0, -0.248273423109261, -0.1473796763369704, 0.282007580605201, -0.24938888883540578, -0.6015245554416953, 0.16631525721641413, 0.6777802812910124, -0.6509638163445198, -0.9999803310784839, -0.8449342654475636, -0.7419082440776137, 0.6285644175176562, -0.14877503060878985, -0.08175230359006408, -0.5081631179891657, -0.1957039027571732, 0.6241824571438132, 0.5511249716044254, -0.0827654372613512, -0.4490846441864361, -0.38007696772775257, 0.032326874380251704, 0.31970306939212373, -0.8364121235126147, -0.827728673776313, 0.5304499793339378, -0.31951874345967723, 0.3845887298406211, -0.7948040350874344, 0.007472578243394791, -0.20356791377479874, -0.7585353434750699, 0.46305091320574254, 0.9999990601159955, 0.19933058935104606, -0.5730928816961709, 0.583745051576616, 0.9998528183549122, -0.450682931662533, -0.2721892944565302, -0.9999991970522909, -0.9999951906570753, 0.9996324361241643, -0.013034329282139715, -0.9999999999999991, 0.1341339932523745, 0.04268962913649844, -0.6522724243656891, -0.9989445503072367], [-0.0007420167887820813, 0.5148075811223434, -0.36904015636607695, -0.10118219922861857, 0.9176789526807649, -0.29754576564018553, -0.5481221760810306, 0.48864327170075783, 0.9999962154187292, -0.5486451821735614, 0.9999999999999994, 0.1874001162662501, -0.21160622717858718, -0.9994231168061294, -0.6159947359176148, 0.4601765710305298, 0.7865254652481077, 0.037932703390427834, 0.9997822419597224, 0.8263835265260322, 0.21158729550538463, -0.18135781371540954, 0.9999999999999996, 0.07656440199314994, 0.5601802763922661, 0.009023878757012684, -0.7497898410951896, -0.5843729572792986, 0.7336908439267561, 0.06738899044239519, 0.2430828485739048, 0.752102140420237, -0.7693378959514235, -0.4896080617832487, -0.6206444628888625, -0.20332796663201688, -0.8418600938323233, -0.7575008419712093, -0.9908371461615353, 0.4007029564504731, 0.15371753622263634, -0.6770225988107758, -0.6464849270433632, -0.18037819009122405, 0.37893408342847495, -0.7624125024528995, -0.1958298760785695, 0.6920359411529745, 0.11336507017825626, 0.4410774405623208, 0.3453019776311485, 0.08050004868004408, 0.11867207519892337, -0.207394855716413, 0.9112203679998854, 0.3699021633227584, 0.9999980973228194, 0.7550742985947466, 1.0, -1.0, 0.47369013914506297, -0.7204155680789581, -0.8080235214524534, 0.7828231755863961, 0.883905430122421, 0.6788994123722318, 0.5440530727406158, 0.752309709509434, 0.8013309549517921, 0.7063435918082603, 0.7721813056482041, -0.6177068002679783, -1.0, 0.29649790947637533, -0.05789046755853154, 0.777946738797725, 0.4491715105151801, -0.07008575191876701, 0.5471169621923482, 0.3292062559663337, 0.9963886486567733, 0.6156070454257582, -0.02093383281073876, -1.0]], "w2": [[-0.2129574116414942, 0.4263214131882577, 0.8146973169564146, -0.6398565318281424, 0.4836447483725495, -0.01171119671758895, 0.9103862198270409, -0.2899639619906319, -0.9943017051957025], [0.21673918383282983, -0.3785456683926004, -0.5786483725669053, -0.5657481300696677, -0.9999999318538004, 0.22873391390028874, 0.4923282053794565, -0.7159124583475955, -0.19356619868940494], [0.812362602318571, 0.5933671377429147, -0.8118314936358941, 0.2826715981434213, 0.5329912319722631, 0.28940469128918295, 0.6631745203818862, -0.043694306466940794, 0.2827190783091269], [0.10145915227324927, 0.9999999999999993, 0.908861806692916, -0.6360791072733454, 0.9992602138712083, -0.7468816465413723, 0.5056220700940858, 0.10424955126896711, 0.3154401566363659], [-0.12673762400353225, 0.6497128250741435, -0.405925344506788, 0.44682743792133306, -1.0, -0.6815532208177172, 0.5886619874057375, 0.6729973820695335, 0.28061095993888013], [0.6112819045777248, -0.17621488733572716, 0.8979828635115962, 0.6212703240724686, 0.6193056956845229, 0.5781595835046954, -0.2401414901408966, 0.26438924653073137, -0.9999999999999999], [0.86373219455793, -0.5095630742757928, -0.4586843334141378, 0.8761711412303478, -1.0, 0.13598308311783017, -0.9999786858554867, 0.11844749810995782, -0.9039258767809556]], "b1": [[0.7032599997093619], [0.9849366131469982], [1.0], [-0.9814837749694482], [-0.55735948446518], [-0.08310853606348699], [-0.27008669967766535], [-0.5109448808862699], [-0.033959839790922604]], "b2": [[-0.6823669735641894], [-0.8019690190748625], [0.393500220587639], [0.6803881707330027], [0.8849021176320773], [-1.0], [0.9085497096497609]], "fitness": 3284.0, "best_pos": 7.0, "best_status": "tall", "score": 1500.0}